svm_type c_svc
kernel_type gkmrbf
L 10
k 6
d 3
norc 0
gamma 2
nr_class 2
total_sv 1152
rho 0.548599
label 1 -1
nr_sv 367 785
SV
1.31720058252954 CCTGGCCCACGGCTGGCAGGTGGGACCCAGCTGCAGGGGTCCAGCAGCACCCACAGCAGCCACCTGTGGCAGGGAGGAGCTTGTGGTACAGTGGACAGGCCCTGCCCAGATGGCCCCCCGCCTGCCTGTGGAAGTTGACCAGACCATCTGTCACAGCAGGTAAGACTCTGCTTTCTGGGCAACCCAGCAGGTGACCCTGG
1.3843138111208 ACGGTCCCTGGTGAGTGGCCTCACTGTGAACTCACAGCCCTTCTGTCATCTCTTCCCTCCCAAGGGCTCTTCCAGGGCTGGATCTGACCCACACCCTCCCTGTTCTTGGCTGCATGTGGCCTACGGTGGCCTTCACAGCCCAGCAAGGGCCAGCCCAGGGGTTGGCAACTGCAGCCCGGGGGCCAGATCAGGCCCGACGC
1.355066547165571 TAACCCCGGGACACAGTCTGAGACTAGGCCCCATTTCTGGCCATATTTGCCACAACTCCCAGTCAGTCCACAGAGATCACACAAGCAGACTGGCCACAGAGGGTCCCTCCACAAGATGGCACCCCTCTCTCACTCTGGTTCTTTCAGAAAACCCAGCCACGCGTGCACAGCCAGAGGCACACAGAAGCATGGACAGAGAG
1.49388965051124 GCGCTGTCATGCTGGGACGGGAGTGATGCCTGCTCTGTCCTTCAGACCCCGGGACTGTGACGAGGCCCCTGCTGCTGCTCTCTACTCCTCCACCCGGCAGTTCCCTGAGCACCCTGGGCAGCCACACATTTCGCCAAAAGCAAAAGGACCAGCAGGCACTGCCTGAAGCCCTGTCACTGTGCTGCCACCAACTTCTGTGC
1.860677435302489 AGGGCTGGACATGCCCTGAGTCATAGCATGGGTGGTTCTAGAGAGGGCAGGGGTGGGATGGAGCGTGCAGGCCTCTCAGTGCCCTACCAGGGCCCTGAGGCTTGCGTGGATGGCACTCACACCTACCCATGGCAGTCCACATGTGGCCCAGGCTGGGCTGGGGGACAGCCTGGGGTGGCACGCAGTAGCCTGTCCTGCTG
1.324655613980813 ATGTCCTGATAATACGGGTGTGGCCAGCCCACAGTTCAAGCTGGCAAAGCTGCATCCAGCTCTGCCCTGCACTGCTGACCTCATGTGAGTCTGGCCCCTGCACCGCATGTATCTCAGGCCAGGGGCCCAGCCCTGCTGCCAGGACATGCTCCCTGAAGGGCTGCTGAGCTGATGGATTGGAGATGGGGCTGGCTGGCCTG
0.991970618125753 GCCCCCGGACGGCCCTGACTTGGCCGCTGCCCGCTCCGCTGCGGACGGCGCGAGCGAGTGCCAGAGGCCGGCAGGCAGGGGGCGGGCCCAGCCCGCGTCACCCGGCAGCAACCAAGCAGGGTGAGTGTGCGGGCTGCGCGGGCGGCGCGGAGCGGAGGGAGCCGCGCGGCGCCACACTCACTCGCACTCGCACTCACACC
1.778565625648408 TCTCACACCTGGGGCTTCACTGACAGCGGCGGGCACAGTGCCTTCCTTTCTCTTTCCCTAGACACCAGCTCTGACCCTCCAATTTCCACCATGATCACAGTGTTCTCAGAGTCAGGCAGCATATGAGGAAAATTGCCCTTTCCCTGGAATAATTTACCATCTTGTAATTTCCATTACCTGACCCTGTTGGAGCCTATTCC
1.457371039362232 CAGACCAGGCTGAGGCACAGAGACCAGGGCTCAAGAGCTGCTCTGCCCAGGATTCCTGTGGCTGCTGTGAACTGAGTGCTCCTGGCCGAGGACCCACAGCTTCTGGGAAGTGTAGGTTGGGGCTCCTGATCTGCTGGCCCCTCCCTAGGGATGCAGAGCACACAGGCCCTGGGCCTGGAGTGTTTCCATCCATCCACACA
1.675071595161205 ACTGTGGGGTGAGGAGAGGCACACTCTGCTTTGCTTTCTGCACAAGACAGCCCCGGGGTGGGGCCGGGCGCTGCGGGTCAGAGCCCTGACCGTTTGCAGAGGAAAGGAAAGGGACAGGAAACTGGAGCATCAAGGCCCTGCTTTGCAGGGGACACCAGGACTTAGCCATGGCAGGGGCTCTGCCAATGCTCTTCACACAT
1.587408103517988 CCTCCTACGTATTCTGTAAACAGGTGAACCTTTCTGTGTTTGTACATACTAGTGTATGCACACGTGTGTGTGCGTCTGTGTGCCGTCCATCTCCCCTGGCGAGGGCCCCTTCTGCCTAGTACCTCCAACAGCTGGACCCTCCAGCTGGTCACCTTATGTAGGAGGCTTCTCTCCCCCATGGGCGGAGTGCAGGGCAGGGT
1.102463135404395 GGGTGCAGAAAGGCACTGAGCTGGGGAGGCAGACGGCTCCCAACACTGGTTTGTTGAGTCATGGCCAACAGGGTGTCTGGTGAGGGCACAAGGACCGGTCAGGGAGGAGCCGGGCAGGGTCTGGCAGGAATCCTCCACAGGGAAGTCTGTTCCAGGCACCAGACACCTCAGCCCAGGCAGCTGGAGGGGCCTGCTGGAGC
1.826925995984787 CCAGCACCGCTCTGCTCTGCTGTGTGATGGCAGGAAAGTCACCTGCCCCTCTGGGCTTCAGGCCCTCCTCCTAACCCAGGTGATCAACATGGCGACCTCAGGATGCCGGAAGGAGCAAATGGGCACGGAAAGAGAACACCCTCCTTTAAGCCAATCTTTCCCCAGGTTGTTTCTTAAGCCCAGGAACCCTCTCTGCACTG
1.638987399208272 GGTGCATGCGTGTACCCATGAATCCTCTGGCCAGGGAGGGGCCCAACCTGCCCAGGGCTTCTTTCTTGAAGGAGACAGGGCTGATCCTGCACCTGCGCAGTTTTCTCTGGCTTCAGTTTAAGGAGAACCCTCACCCCCGCCACAGGATGATCCTGGGCCAACCAGGGCTGGGCCCAGCAGGTGCAGGGCAGGGTGGGAGC
1.733666094049839 ACCATTATCATTCTGGGTCCCTCTCTCTGTTCCTTGCAGGCAGGGATGGGGTCTGGCTCACCTTGTTCCCCCGCACAGTGCTTGGTAAACAACATGCAGAATTGAAAACGTCACCGACCAGTCTCCAGTTTGGGAGGAGTGAGTGAGAGAGGACACGGCCGCGGGGGCAGGAGAGGGGAGAAGGCAGCAGTTGGGTACTC
1.555586100921442 AGGGTTTTGGTACACGGAGCGGGGGGAAGAGTCTTTCCTTCTGGAAACGCTTTCTTGACTGCCTCAAAGGACATGGGCGGCAGCTGTCCTGTGGAGAGGCCTGGCCTGGGATGGTCCAGGGGACAGGCGTCATGCTGGCCGTGTGGCCTCACAGCACTGCGCTGGGGATGTGGGGGCCCTGCTTCCAGGCTCTGCTCAGC
1.507345342896703 TGATCATGGCAGCCACTAGGGGCAGGGTCAAGGGGTCAGGGTTAGGAGTACAGTCACACAGACGTGACCTGGTCATGCCCCTGCCTCCCACTGGCCAGGTGCAAAGGTCAGGGAGTGAAGTGAGCTGGACATGAGGGCCCTTCCCTTCTGAGAGAAGCATGCCCATTTTTCTTGCAACAGGCACCCCTATTGGTCTGTCT
1.531396077738082 AGGAGGGACAATGACCCAGGCCTCAGAGGAGAAGGGAAAAGGAATTTGCCTCCCAGCCGGAGCTGCCTGTGTCCCAGCCTGGGAGCTTTTTGGTTCCTCTCTAAGGGCATGGACGTGAGGAGGAAATGGGTATTTACACCCTGTGAGCAGGGCTTTTGATGGTGCTGGGCAAAGTGGAGAGGCCTCCCCAAATCTGGCCA
1.471966125291879 CCACTCAGTTCCAGGCTGGGCAGCCACAGTGCCCCTCAGGCCAGTGTCCCAGCCAGGCCTGCACCCCCTCCTCCTGAGGGACTCCCCGCCTGCACGGTCTCCACTGCATTGCATCCCACGGTCCCCACCAATGTCTGTCCGTGGCAGCGATGTCGGGGGTGAACTCATAGGCAGCAGAGGTGTACGCAGCATCCGGTAGG
1.335673711257313 CTTGGGGAGCCCTTTGTAGAACCAGGCCCCCGACCTCTTCCAGACCTGAGTGGGGGAAGAGAGCTGCTTGGGGCACAGGACGCAGAGGAGCCTCCCCTCCTGCTCCTTGCCCAGATGACGGGAGGCAGGACGCGGAGAGCTAGGAGCAGAGTGGGAGTGGGAACTCTGGCTCTGCCCTCCCTGGCTGATGGGCTGGGCTG
1.212388560506653 GCAGAGGGCTGCACGGGACAGACTCTCCCAGCCACAAGTACCTGCAGGCACCTCACCCAGCCCCCAAGCTCTCCTCCCTGCCAGCTGACCTCCCGGGCACCTTCTCTTGCTGGCCCAAGGCAGAGAGCTGCATGGGATGGACTCTCCCAGCCACGTGTACCTGCAGACACCTCCTCCTGCCCCCAGCTCTCCTTGGTGCC
1.811698170770165 CTGTGGACCCTGATCGGGGAAGGTTCCCAGGGAACCACGGTGGGCTTGGGGAGAGGCATCCATCAGGGCATGAGGCCACCAGAGTGAGGGGCGTGGGGCGAACAATGGAGCTACCCTGCCATCCCTAGGACAGGCCTTGGGGGCTGAGAGTGCTCCCCCACCTCACGCCCAGCCAGTCAAGGCCCTGTTTAACGGGGAGT
1.664307335330112 AGGCCTGTTACAATGGTGATTGGCTGCGAAGCCGCCTCTGTTCCCAGACGGAGTGGGCTGCATGCAGGAAATGAATAGGGGCTGGAGGCGGAAAATTGGACAGGCCAATTAGACCGAGCCAGGTCTTTTCAGACGAGCGTCATGATTTTGATTCAATTCCCAGGACAACAAATGTGCCTGTGTTTAAACACAGTCTCAGA
1.745338526789801 TCTCCAGTGCACAGACGTGGGCTCAGGTAGACGCCCCAGGCAAGGGGCAGGGGAAGATGGGATGGCTCAGTCCATCTGCAGGGGTGCAGTGCAGGAGTCCCCATGAGGCAGACTGCCCTGGGGGCTGGTGAGCACCAGGAGCCCCCTCCTCCTGCCACCACCCATGTGTGGGAGGCCAGGAGGCTGCACTGATAGCGGGT
1.722721919003887 ACCAGTAGCCTGTCTCCCTGGAACCCTAGGCCACCATCCCTCACAGAGACTGGTGACTCTCCCCTTCCCCAAGAGAGCAGCCTCTCTCCACCTCTTCCACCCTTCGCTCCTAATGTTCCCACCTCTACAACAGGGTCCCCCATCAGCCTATGAGGTGGGCTCCAGAACCACAACGTGGGCCTCTCCTCTCTGGGTAAAGG
1.697031774944711 CGGGCCAGAGTATGAAGGAGGCAGGTGTTATGATCCCCACTATATAGATGAAGGAACAAAGGCTCAGAGATGACTCGGGCTGCCCGAGGTCACACAGCTCGTTCACGGTAAAGCAGAATTTTTGTTCAGACCTCAGGAGGGTCGGTCACACCCTCCCCTGCCCTGGTGCCAGGCTGGTGCGCACGGCTCTCTAGAGAGCT
1.491103133045792 AGGGAGAGAAGCCAGGAGAGTGTCCACGGAACTGAGTCCTGTCCTCTACTCACAGACCACGAGGACGCGGAGCCAACGGATCTGGGGACAGGAGCAGCGTGGACCAGTCGCCCTCCAGAGGTTGGGTGAAGGGCTGTCCCTGCTGGGCCCACGAACCTCTGCCTTCCCCTTAGGGTCTGGTGCTTCCTGCTCCCCAGATC
1.482780847844213 CATCGAGAGGGAGTCATCCCTCTGAGCGTCAGTGTCTCCATCTGGAAAACGAGTATGAACACTGCCTTGCCTTTTGCCTGCCCATCTCCTGGGGGCCATGAGGGACACATGACATCATGGAAATGTCAGGCACAGCGGCTCTCAGAAGCACCCCCACCCTGACTTCCTCCCGCTCAGAGGGCACAGACTCACTACGGCCT
1.950503204600221 TGACCTGTAGTCTCTGTGACTCCACCTCCATTGACCTGTAGTCTCTGTGCTCCACCTCCACTGACCTGTAGTCTCTGTGCTCCACCTCCATTGACCTGTAGTCTCTGTGACCCCACCTCCATTGACCTGTAGTCCCTGTACTCCACGTCCATTGACCTGTAGTCTCTGTGCTCCACCTCCATTGACCTGTAGTCCCTGTG
1.559940595393129 ACCTTGCGAGGCAGGCCTGGACCCTCAGTCACCCCCCAAGGCAGGCCCAGACCCTTACAGTCACCCGGTGAGGTGGGCCCAGACCCTCAGTCACCCCGAGAGGCAGGCCTGGACCCTCACAGTCATCCCACAAGGCAGGCCTAGACCCTCAGTCACCCTGCAAGGCAGGCCCAGACCCTCAGAGTCGCCCTGTAAGGCCC
1.248360251536492 CAGCCAGCAGGCAGGCTGCTGGCTGCTCCCACGTGGGAGGTGGGAACTGAGCCCTCCCCAGCCCAGTCCACAGGACAGAGAGGAGGAGGCCGCGAGAACTGCTTCCTACATGTCCCCACCCCTCTCACTGCTGTAGCTTCAGGGCAGAAGAGCCACAGAGCCAAATGCTGCAGAGATGAAGGGAGACGGAAAGAGCCAAA
1.033249136584909 ACAGCCCAGACATGCTCAGAGCAGACAGCTGGACTCTAACCAGGCTCTGCGACTTGCTGACTCACAGGCCGTTTGTCCCTCAAGATTCCCCACGGGGTAGTCGGCCTCAAGGCAGCTCCACCTGACGGCTGAGCTCGCTCCTTGCTGAGGGGCTGGTGCCCCCAGGAGCCTCCTCTGGGAAGCTGAGACCTCCTGGTGCC
1.354734916729001 AACAGCATTTGTGGGCTCAGAAGCTGGTAAAGCCAGCACTGGCTTGAGAGCCCTGAGTGACCAGTGGCTGGGGCCGGTCACATGACACCCCTCCAGCCGACTGTTCCCCGCCCCGACTACAGGGTCCCGTAAACGGGCCTTGGGAGCTCATCCCCGTACAGGCTAGGAAGCAGTGCGCATAGTCATCACTCCAGGAGAAC
1.41702265725913 ACCCTCTGACCGCAGGCCCTGATGATGGATGAAATCTTGGCCTGGGCTGTCAGCCAAGGCCATCTGGGCCAAACCATAGGGCAGGAAACAGCAGGCTTCCTCCTCCTGTCTGAACTCTGGCCCAGAGAGGAGCTTCCTTCAGCTGGCCGCACCCACTTCCCCGACAACATTCCAGAACATTCCATGATAGGCCAGGAGAC
1.299747906301413 AGACAGGCCCCACCAGGGAGGAGGAGGCCGCTCTCCCTCCCACCACCGTTGTCGGGGGTGACCCGAGGTGTTCCAGATGAGGAGCTGAATCACTGGGACTTAAGTCAATAAGTGGCAGCCACCAGGCAGGCCCAGCTGGAGCCAAACCAAGGCCTGGATTCTCCTCGTGGATGTCTGGTAAGGCCCCACCACGTACCCCA
1.699401364641712 CCCGAGGGCGGTATGTGCATCCTCAGCACCTGCCCATCCGGCACCATCCTCTGATCCAGGGACTGTGAGCAACAGGGCCCCGTGGCCAGGACATCTCTCACCCTCCAGTTAAAATCTCGCCAGTTGAGTCTGCCCATGAAAGTAGGCGCTGAACTGCCCAATAAATCCACAAGTAAGAGTTGCAAGAAGGAGCCAAAAAG
1.723017169004565 CCGGGCCACACTTGGGCCTGCCCAGTTCCCCTAGCTCTTCTCTTTCCTGCCTTGCCTGCCTAAGGCCCCTCTCCCCCTGCACTCCACTCGTATCTGCTTCTCCGCCTCCTGCCCAGTCAGCCTGCTGTGCAGAGCTCCCGCAGCTGCCTCAGATCCACCCTTCCTGGGTGGCTGCTCCTCCCCGCCACCGCCCTAGGAGC
1.469878497597901 CCATTCTGTTGCCCGAAGCTGCTCAACGCCTGGCACACTATGAACTCTCAATAAATATTTACTGAGCGAACGACTGACACTCATCCTAGAGTAGGCTACATGACTGGTCTCAGCTTCTCACTCCCTGCAGTGGTGTAAACAGCCACACCATGCCAGGGCCTACAAGTAGGCAGTGTACATCCCTGCCCTGTGTTGAGGTT
1.694353499743315 GTGTACTAAGCGCGGAGTACCATGCCAGGCACACAGTAGGCGCTTTGCTGAGTTAGGCTTTGTCCTTCTCCACCTTCCCCCTCACCAATTCCACCACTGGGCCTGAGTTCATCTGCACAGATGAAAATCTGCAGTTCTTCCTCCGTTGTGGGGCTGGACTGGCGGGGGCAGGGGGAGGCACCCTCACCTGTCCCAGGAGC
1.83292288826753 CTGATGGAAACTGCAACAGTCTAAGGCCTTCAAGTCCCATCACCTTCCACTATGGAAGTAGTGGCTCCAAAATCCTTTCTCCCCTTGCTTCACTCTGCCAAGTTTCAGATCCCGGAGTGGACAGCCCAGCAAAGTAGCCTGGCGTGGGCCCAGGTCCCATCCCTTGAGCTGGGTGATGACTACATGGGGTGTGTCCACCT
1.547246542377309 AAATGCATTAGTCAGTTCAGGCTGCCATGAAATATGCAGACAGGGCGGCTTACACAGCTGGCATTTCTTCTCACAGTCCTGGAGGCTGGGGAGTCCAAGATCAAGGTGCCAGCTGGCTCCGATTATGGCGAGGCCTCTCCTCCTGGCTTGTGGACATGGTGAGGGCCCAGGGGAAGGGAGAGACAGAGACAGAGAGAGTG
1.660695417133031 GCTCTTACACGAGGTGCTAACGACGTAATTGCGGTCTTACATAAGGTGCTCTGGTATTTTCAGCAGCAGATAACTGCCATGTGAATGGAGAAGCCGCCCTCCCAATGAATGCTGCTTACTGTACAGGCTGGCACAGGCCTTGAAATGCCAGTGCTTTGCAGGCAGCCAGCTGCTGTCAGAGGGGTGAGGATGTCTGTGCC
0.8830681869170725 CCTCGGACTGGGCCCCGGACCCGGGGCGGCCCCGCTTCCCCCCCGGACTCACCCGGGGTTCGGCCCCGCAGCCCGCGCGCTCCCTCGCTGCCCTCTGGCGGCAAAACCGTGAAACCGGCGCCCGCCCCGCCCCGCCCCGCTGGGACCTGTGGCCGCAGAGCCCGGGCCGGAGGGCACCTGCTGGGCGGCCTCTGGATGGT
1.459478725088484 CGCACACTTCTATGCGCGGAGGTCTCCGCAGACAGAAGCACGCATGCGCACATCGCTGTGCCGGTATCGCCAACAGATGGAAGCACGCATGCGCGCACCGCTGCGTACCTAGCACTCCGACAGATGTACGCATGCGCACAACGCTCTGTTCTCGAGATCCCCGACAGAAGCACACATGCGCACACCGCTGTGTGCCAAGG
1.881095231775844 GGGCCCTGAAGGCCGGTGCTTAACGTATAATGATAGAAAGCAGGTGGGGTGAAGGTTCCTGGAACACACAAGTAGCTTCAACTCAGAACACCTTGGGTTCGAAGTTTGCATATCTTCCTCACACCCAGGCTGTAGCAGTGAGGACTCCTTCAGGGCAAGAAACAAACCACAGTGAAAACCACCTTACAGACCAAGGGGAA
1.406647903377392 ACAGGAAGAGGGCAGGACCCCCACACCGCTGCTGCGTACTGTTTCGGAACAGCTTGTCTTCCGTAAGCCCTGCCAGACAGTGGATTAAACACACCCCAGGCCCCGCATGCTGGCTGGTGCCCCGTGCCCGACACCGGCCCTCTCCCAGCCCCCAGGTCTTGGGCTGTTCTGTGGCTCATGATGTGTGGATTTGCCTGCTG
1.361336973964205 CAACATTACAGACAGGCTCCACTGCAACTGGGCAGGTCAGGACTGGGCTCAGTCGGCCACATTCTGCTCCCACGCGTTGCTTCCTTAGACTGTCAGGGAAGGGAGAAGGGCAGCCACCAGGAGCGGCCAGGGTCACGGACTTGCTACTTCTTTCCTAGAGTCTGTTCTGTTTTCTGTCAGCAGTAAGGAAATACATTCTA
1.9008134782545 ATGAGATTTGTCTCATTATCTCCTTGATTGAAGGGAGGAGGATCAGCTCAGTGGATGAGGGAAGTTGCTTGTGGTTCAACTGCAGTTTCAACCAGGCTGTGGATTTTGATGTCTCAACAGGAAAGGCTGCTATTGCTTAAGACAGCAAACGAGGTAAAAGGAAACATCTATGGTTTTGCAGGGGTGGGGTAGAAAGGAAG
1.64006740150058 ATGGAATAACTGGCTGTGACTCATCATCACCAAAGGCTGGGTCCTAGCACAGACAAGCTTGTTACTGCTTTTCTCATATGGGTTGGAGTGCTACTGACCTACTTTTAACAGGTCATGCCCTTTGAGGAGCTTACACAACTCCAGGGAGGTGACCAGTCATACTTTCTTGCCCAGTCTTCTTTTAACAAGGCCTTTCTGTA
1.668603278608744 ACTGCAGTAGTGAGCAGGGTGTGACCCTTACCTTGAGGGCCACATGGCTACTGACTGCAGCCATGAAATGGGTTAGGTCACCCACAGAGCCGGCAGAGACCTTCCCTCCAACCACCTCTGGCTGATTTCACCACTAACACCTGGTGGGGTCCCTCCCCCACCCCAAGAGGTCTGCTTTTGTTGTGCACCCCACTCTGGGA
1.744160639549982 AAGGAGATACTACTCTACACCCATGAGAATGGCTATAATTAGGGGAACAAAGGAGACACGCGTCAGCAAGGATATGGGGAAACTGGACCCTCCTACATTGTGGGTAGAAATGTAAAACCGTGTGGCTGCTTCGAAAACAGTTTGCAGTTCCTCAAAAAGTTAAGCCTAGGGTTACCATGTGACCCAGCAATTCCACTCAG
1.393519544062005 TGCATCCCACTGAAGTCAGGAGTGATGGGTCAGGAGGAGCTGAGCTGTGGCAGGTCTTGTCTTCCGGGCGAGCTGGCCACACTCTCAAGCTCATCCTCACTGTTTCACTGCCAGTCACCAAGGACTGGAGAGGTTTGGAATGATACAGTGAAGGCGGCAGTGGGGGTAGGGTGGGGATGACGTACAGCCTAGGGAGGGGC
1.749062202274913 GAGGCTCAGGCCCCCCCTGTTCCTACCCTCTTCTTGGAAGCACACACACAGCACCAGTTCCCTCCTAAGCCACAGGGAACTTATAGTAGGAACTTTTCATGGTTAGAAGAGGAAGGAGTTCTCCTCACAGGGGAAGTCCAGCCGCTAGCCAGGGCACCCACAGTCACATTCTCAGGACTACTGGCCATCTCAATGACACT
1.623247163878279 ACGCTCATTCTTGGAACCAGCCACCTTACCGTGAGGAAGTCCAAGCAGCCCGTGGAAGACAACAAAGAATCCCAGCAACGGCCTGGCCAAGCTCCCAGCTGACAGCAAGCACCAAGGAGCCAGCCATGAGAGTGAGCCAATGCATTCTCCAGTCCCCTCCTGAGCTGCCTCGGCTAATGCTGCACGGAGCAGGGATGAGC
1.061305879821247 CAGCGACCTGGTGAGCCCGGCTCCGTCAGCCGCTCTGTCAGCCGCTCCGGCACTTCCGGCAGGCCAGGGCACTTCCGGGACCGGGGAACTGTGGGATCACGGCGGACTGAGACTGGCGGCGTTCCTGTCACGTCAGGTGTCTCCCGGGCAACGCAGTATCCCGGCGGCCCCGCGTGGCCTCAGCGCGTCCTTAGGATGGG
1.026658938103751 GCCCCCGCCCACCCGCCCGCCGGGGACGCCGGGGAACCCTCCGGGCCCAGGGACCGCGAGAGACCCCGCCCCGCCCTATCGCAGCCGCCGGGCCTGGTCACGCGCAGAGCCGCGCCGCGGGATCGGGGCCAGCGCCGGGCGGAGGCGGGACGGGGACGGGGGCGGAGGGTTGAAATCGCGCGGCCGGGCCGGGGCGCGCC
1.679717961839892 GCCTATTGAGCGTCCTTTGCCCGTCACAGTTACCCTTTTCAGTAGCCCTCGTTGGAATTTTCCTTCTGGTGGTTTCTTAACCTCCACTTACTTCCCCTTTTCGTTTCGTCATCCGCAGAGGCTCCGGGGAGACCTTGGGGACTTCTTTGTCGGCTGCATCTTCACGGCAGAACTGAGCACTCCGTTTGTGTCGCTGGGCA
1.008330949936135 CGGCACGATGGGAGACGCAGGAGCCACGGCGGCCGCGCTTAGGCCTGCTCACAACCTCCGCCCGGCCCCGCCCACAGCCTCCGCCGCGCACGCGCAGTCCTCACGAACGAGCGCGCCAAGCGCACAGCGCCGCCTTCCGGCAGAGCCCTCCCACCAGCCCTCAGGTACCCGGACGTCGCTCACTAGACCCCTCCGCACCG
1.808880577034578 CCGTCTATACACTAAACCGCGCTCTTGCACCTTTCAAGTCTTCCTTAGTGGTGTGTTCCCTACCTCCCTGGCTTATCAAAGGAGGTCCCCAAAACCCAGTTCCCCAACCAACTGAATCCTGCAAATAACAGCTCCTCAGGACCCGAGACAGACCGCTTCTGGGTGCTGTTGAAAAGCAGATGGGTTGAGAGTTGGAGCAT
1.341941511254536 GCGGTTTCCCACTTTGAATACGAAGTGCAGAGCTCTGCGAGCAGCCATGATTCCCGCCGCACGCAGCCGTCACGCGCACCGTACAGCCCAGTCCACGAAGGGCGCCACGGGCCGTGACGTCACTAGCCGCCGACGGCGCGCTTTCGTGACGCAGCCCGGGTCTCAGGGAACATGGCGGCGCTGGTGAGACCCGCGAGGTT
1.277082974837321 AACAAGCTGTGCGGGGGAGGGTGGGAGGCCATGCAGTCACTGCGAGGCCCCACCCTCGGCCACTCTCCCAGCCCGCCCGTGGTGAGGAGCCGCCCCTGGGAAAGGCCAGGCGTCGCAGGCTGCTGCCGGGGTTGCCTCTTGCCTCATTGCCTCATCTCTAGAGTGTTCCCTGCTCCGGTGCAGACTGAACGTTGAAGCCC
1.828554670742519 GTTCTGTCACCATTTCCCCAGTAAACAGGAATAAAAAACGAGCCACATTTGACAAGGAAAACACTGCTTGGCCGAGAGACAAACATTGTCAGGATGTTGGCCACGCTCCCGCGCCTTTGTGTGGTGGCGTAGCTGTCACAGTGGCGTCTGCCAGGAGGTGGCAGGCGACACCTCCAAAACCACCCCAGTGCTGAAGGGCG
1.437029773030927 CCTCCCCTCAGCTGGTCCTGACGAGCTTGGCCTACAGCCATGACGAGTGCACATCCCTCCAAAGGTGAACCAGGGGCGGGAAACGGAACTGGCTTCTGCGGCCGTCTGCCCTGTGCTAGGCACGGCACAGATGGCACTGGCTAATCCTTATCACAGATGGGGCGGGCAGCATCAGGATCCCCCTAACAGATGGTCAAGGT
1.313179737969302 AGCCCTTACACACCCTGGGTTACATCAAAGGCCAGAACGAAAGGCCAGCACGGCTTAAGAGGGCCGTCCAGAACTGGCTGCTGACACCAACCCAAGAGTGATCCAGCTTCTGACTCACCAGGCACCAGCTCATGCTCTCTGATCCAGGAGCCCCGACAAGCGACCTGAGGTTCCAGGGGGGCTGCCTGACACATCTCTGC
1.480751304189869 AAACACCCTGTTCACAGAGGCCTCTCTTCCTCCCACCCCTGCCCCCCGCCCAGAACTCCCAGCAGAAGCTGCTCACTGGCTGTTGTCAAAGTAGTCTTTGTTCTTGGAGTTGAACCAGCACAGGCCTCAAATTTCCATCCACAGCTCCAAACCCCGCCTACATCACCTCCATGACCTCAGGCTAAGGAAAGAAAGAAGCT
1.644907270319718 CTTCAGTGGTCACGGTCCCATCATATACAGAAGCCACGGGGCAGGACTTCAGGGGTCATGGTGCCACATTTTGTACAGAAGTGGGAGGCAGCAAAGCCGCAAGATCTAAAGACAGAGTTGCAGGCCCAGGTGCGGTGCTTACGCCTGTAATCCCAATCAGCGTGGGAGGCCCAGGCAGGCGGATGACCTGAGGTCAGGAG
1.612896169432211 GGTTCTCTAACATCCAAGCTGGACTAAAGGGTTTTGCTCTTACCGAGCCAGAGGGAATATTTATTCCAAGAGACGTAAGATAGATTCTGCTGGACACCTGCCACTTGCTCATGATTCTTCCCTGGGAGGCTGGCAGCGCACGGAGAGGCTTCGCTCCACGGGAACCAACACCGTTGGCCGGCGCGGTGGCTCACGCCAGG
1.517101090288535 TCACACACGCGTGAGCTTTGACAGCCAGGGACTGGTAACCCACGGCCACCGCGCCCAAGAAAATTATTTCCCATGGGAGAAAGAAAACTACGTTCAGCTCCTGGCAGGTCCCAGGCAAGTCCGAGCCAGGCTTGCAGGGAGGCGAATGCTCTGTCCTGGGAAAGGGAGGCAGAGGTTAAGGGCTGTTCCCACCCTCCAGT
1.888365948147376 CTCCTTTCCTCTCCGCAGTTTATTCCGGGGAAGAACTCTGGCCTGGGAAACAGCAGACCTGGTCCAACTCCCGGCTCTGCCAGATCCCAAGTGACTCAAATGCTTCAGCTGCCCTGACCTCTGCTTCCTCGTTACTAAAATGAAAAGCACGGGATCTACCTCCAACAACAGTCATGGGATTCAAGGACACCAGGACACCT
1.51884333474229 AGCAGCCCCACACTGTCGTCTGTGGAAACCACACCAGCTCCTCCTCTTCCTTCTGGACCTGCTGTCCCACCCTACGCCCATTTTTTATCTCCACCCACTCTTTGAACTTAGCACTGGTGTCTACAGGCTCGATTCCCAGCTCTCCCACAAGGACGTGGCTCAGACGCACGTCACCATCTCAACCCAATGTAGGCCACCCG
1.655731506438099 GCCAGGTGCTCAGGTCGCAGCTGTCCCTCAACACCACTCGGGAAGGGGGCTAACTGCCCGGACGGGCCCCAGGATCACGAGCCTCCTCTCCTTCCCTGATGGCCCAACAGGAAAAAGTACTGTGGCTGCCAAGCCATCTGGATGGAATGGAATGGCTCTCTACCAGTTAGGGGCCGCATCGGCCTAGACTCCCAGATTGA
1.227749262221859 AGGCGCTGGGGAGAGCAGAGCCCGGCCCAGTAGGGCCGCCCACGCCACGCCCCCTCCGCCTGCCCGCGCCACGCCCCTTCCCCCGCCCTGCCACGCCCCCTCCGCGGCCCGCGCCACGCCCCTTCGGCTGCCCTCGCCACGCCCCTCCGCCCGCCCTCGCCACGCCCCCTCCGCCCTCGCCACGCCCCGTTTGCGGCCGG
1.664559546988098 GCCTCCCCCCAACCCAACCCACTGGTGCACGAAGCAGGTGCAGATCCGGGCCCAGCCACAGTAACAGGCCGCCGGTGTGGATCAGCTACTGACGACTCAGCGAAAGCAAAAAAATAAAAGCTGAAAACCCGCCCCTCTCAGAGCTTCCACCGCCGCTTCGGAGGATATTTCCTGTGCATCCATCGCCACCTAATGGAAAG
1.634928701160293 CAATGCTCGCGCGTCCCCTCCCGGCGATCCGGAGCACGGCAGCCCCGGAGCGCGCGGCCACTCCTCGCTCCCCTCAGGAGCTCGTAAGAGCCCCGCGCGGGGCCGAGGCGCGAGAGCACGCGCAACGCTTCCTGGGAAATGTAGTTGGGTGTCGGATTAGAACTACAAATCCCGGTACTCACCGCGCTGCAGCCCCGACC
2.011757129743317 CCTAGTTGTGTGCCATGGATATTAAAAAAAAAAAAAAAAAAATCCGTCTACAGTTGGGCTTCAGCACTGGTGCTGCTTTACCCTGGTGCTCTGTGGGGGGATGACACTGCTGGAGTCAGGCCTTTGCTCTTGGGTGGGGCACAGGCAGGTCGCTTGGTGGGGGCCACACAGTGCTGGGCACCTTCAGCCAGTGGTGATGA
1.682811240213004 TGTCCACGCTGCCTATTCACTCGAGAGATGAATAGTTTCCTGTTTTCGATGGCTGGGGAGCCAGTATGAGCTCATAAACCAAACAGCAATTTTCAGAGACATCTGTTCCTGATCTTCAGAATAAACTCAGTGTCCAGTTGCTTCGGCTGGTGGGAGCCAATATTCACGCCACTGACTCTCTCAAAGGGAGGGTGGGCCCT
1.240055220502348 GAGACCCACCCACCCTAAGCAGCGCCTCTCACCCTCAATACCATCATTCCCACCCTCCAGGCAGGAGCTGTGGCTGCGCCTGCTTTGGAAACAGGCAAACAAACACTGTGATGCCAACAGGCAGCTGTGCAGCGGGGCCAGCCCCTCACCACACGCGCGCACACGGTCCAGCCAGGGGCCCAGATGTGGGAACAGACTGT
1.424720942535617 GTGACTGCTCCGAGCGACTCCGAGAGAGGCAGGGCAGAGAGGGAGGGGCTGCCAGGACCTACCCCTGGCTTCCAGCTCAGCAGCTGGGTTGGGGACACCGGGCCAGGCTCCATAAACTCTCCACACATCTTCCCATGGCTTGGCATCCACACTGCTAGGCCAGGCAGGCTCCGCCTCTCCAGCCCTCACCCTGCAGGGTC
1.191383171289561 CCACGGACTGGCCAAGGCCTCCCTTGTTGCTCTCTTGATGGATGGGCCCAGCCCTGGCCAGCCGGACTGGCACTCTGAGACAGCTAACTCGGACAGTTGATTTGATCTGCAGAGTTATCGAGCACTTCCTGTGCGCTGGGCGCTGGGTCTGGCTCTTCCTCACGTGCCTGATGCCAGGGCCCCAAGCCAGCCCCGAGGCA
1.401900517057821 TGCCAGTCCCGCTAGTTCCCTAGTCCCGCCGGCTTTCCCCGCGCTCGCCTCCCTCCCTCCCTCCCTCCCCGCGCTCCCCTCCCTCCCTCCCTCCGTCCGCGTCCCTCCTCCCTCCTCCCTCCTCCGCATCCCTCCTTCCCCGCCCTCCGCGAGGCTGCAGCCCAGGCTGAGCGCCGCCTCCCAGGCCCAGGGCCGCCCCT
1.170249027795234 GGTGGGCAGGGCCAGAGCAGGACAATGGCTGCAGTCACGGGGCCCTGGGAGGAAGTGGAGAGTCAGCAGGAAGTAGAACCAGGCCTGGGGCTCAGCCTCCACGGTCCCTATGTGCCTGGGGAACTGGCACAGGGGTGGGGGTGGCGGCAGAGGGAAGAGCCCCACGTGGGCCAGCTGTGAGGGTGGCAAGCAGCAGGGAG
0.9886817308641147 GCCTGGAACCTGCCCCTCCCACCACAGGGTCTTCAGCGCTGCTGTGCCCAGGGAGGGGCTGCCCTGGCAGGCACGTGGGGAAGTGGAGCTGCCTCCCAGGCACAGGGAGCAGAGGTGGACTGTGGGGTGGGGGCTGTCCCCAGCCTGCGGTGAGCGAGGGAATGACGCAGGGCCGGGGGGCGGGCAGGGGGTGCAGAGGG
1.366914461342157 GGGGCTGGCTGCCCGGCACATCCTTGTAACTCTTCTATTCCACAGCCACCAGTGGCCCAGGGAGTGTGGCGTGGCGACCACTCGTCTCTTGCCTGGGCGTCTCCTGGGGCTGCACAGGCCAGCCCAGAACCCTTCCGTGCCTGTCCCTCTAGCCCAGCCCAGGGACAGGGAGATGGGGCTCCCTCCCCTTATCCCCACAG
1.430001812538607 CACACTCTGCCCTTCCCACCTCGGCCCTCCCCACACTCTGCCCTTCCCACCTCGGCCCTCCCCACACTCTGGCCTCCTCCTCCCTCTAAAGGGCCCTTGACTGTTCCGTCTCCACATCTTCCTCACCATGGAGACGACACCACAAACTCTTCACTGACCGCCCTGGAGCCACCTCTCCCCGTAACATGGGTGCCCAGGCC
1.746411854320878 CCCCCAGGGCAGAGGGTGGTCAGCGGATCCCCTCAGCCTCCACCCCAGGCCGGCGGGAGGCAGACGGGGTATGAGACTCAGCTGAGTCTTGGTCCAACATCACCACCTGGTGGCCAGATGAAAAAGTTTCCGAAGGCCACGGCGGCCTTATATGTGAGCTGCCCGGGGTAGGGCTAGGGGGTCCTTCTCTCCTCCACTCA
1.170525974423281 AGGACGGCACCTGTGCCTCTCCAGTGACTCACATGTACCACACTCTGTGGTCAGCAAGGGGCGTGTCTGCTTCCTCCACTGGACAGGGATATACATGAGGCACCCGGCACACCCCAGGCAGCACAGCCAGTGGGGCTCACTGAGTGTTGACTGTTGACTCGACTGGGCACAAGGCCACGTCTGCACAGCTGGGGCAACGG
1.339811189328231 GGGGGATGGAAACACCAGGTCGGCCAGGGGGATGTACCACTTACAGTCATACTGCTGGTGCTTCCTGCAAACGAGCCAGAGGGAGCCATGAGCCAGAGGGAGCCTGGCTCTTCCAGCCTCAACTCTTGGGTCCAGAACCACAGAACCACTGACAGGGGTTGACTGAGAACTCGCCAGAAGCAAGAACGATCCCTGCTCCT
1.671963009067192 CCAGCCCAGGCCCCCAAGAGCCACACCCTCCACAACCCGGACACCAAGTGAGGATGGCTGGGATTCAGCAGGGACAGGTGGAGGTGGCAGCTGGTGGATCAACACTTCCCAACACCCTTCCTGTACGCGGCTGCGCCCACCCTCCCAACAGGAGGCTCAGCTTCAGTCCTGCACCTGGATGCTCTGTCCCTGGGGTCATG
1.656965622015454 CCTTCGGCAGAGATGCTGAGCTCCCCAGGACAGTGAGCTGCATCCTACCCCCATCAGAGAGCACTTACTCAGCCCCCAGCACCCCCGACACTCCCCACCCACCACTGCCCATGCTGGGGGTCCGAGAGGAAGCTTCGAGGGAGGAACAGCCAATGCCCCTCCTGGATCCCAAGCCAGGCAGCAGGTAGTGAGTACTGGAA
1.506919644827966 CTCTGCCCTCCAGGGTGGGCAGGCTGTGAGGGGCTTATGGTTGGGTGTGGGGGTTTCTGCCTAGGCACAGAGAACAGGCAATCAGCCCAGGCCAAGAGAAGACCCCACACTCTCTGCACCATGTCTGACCCCGGGATCTTGGGCGGCCTTGGCAGGGCTGATCTGAACACAGACCAGGGGAGTCCAGGTAGTTCCTGGGT
1.122076210856117 AGGTCTCAGCTGCAGAAGGGCAGGACTTTAAAAGGGGGCAGGGCCGGACTTTTAAAAGAGGGCGGGGCCTGAGTTTTAAAGGGGGTGGGGCCTGACCTTAAAAGGGGGCGGGGCCGGACGGGAGGGAGTTTATTTCCTTTTCCAGGGAGTACTGAGGCCCGGCCCATCAATGCCCACGCTACACGAGGCATACTAGACAG
1.610635284070413 CGTCCTCCTGGAACTTGTGGTTTGGGGGAGTCAGGCAGTTACTAGTGCTCACTACGAGGACTGGCACAAGGCCTGCATTTGGCGACTTGGAAAGCCTTCTTGGAGGAGGTCCCTTCTAAGCTGGGAACTGACCAGGGGAGGCCAGACGAGAGGGGGAAGGACGTTTCAGGCACACGGGGCCTCAAGTACCAAGAGTTAAG
1.492911221817802 ACAAAACACAATGGTTATGCTTCCTCCTCAACTTCCCACCCCGTCTGCAAAAGGGGAAGAAATGGACGCTCACCCACAGCCAGTCACAAGGACGGGGCCTGCGCTTGGGGCATCAGATGGTTCTCATGACACGATGGGGACCTTGGCTGTTACTCCTGATTTCACTCGCGGGGAGGGGACAGGGCTGGGTGTGTGCCCTT
1.706519688696692 TTACATATATATACAGGCACACAGACAGACAACAAACCGAAAGTTCCCTCACTTATCTTTCCCGTGTATGATGCATGCTGACATTTTTTCATTGGTTTAAAAATGCTGGTTCAACCCACTGTACTGGTTTCACAACCCACTGTACTGATTTCACAACCCAAAGCACTGATGGGCTGAGAGGCACAGTTTGAGAAACAGTG
1.241633874224013 AGCTGAGAGGCACAGGCCCTTTCTGGCAATGACCCGGGCTGCCCGATGCCCAGCCAGAAGCAGACCAGCTGCAGACTCTGTCCACAGGGAGGGACGGGTACGGTCCCCTTTCCTCTCCAACTCCAAAAGCAGCTTCAGAGCATGACATCACCCAACACGGGCGGGGGGACCGGAAGGCCCCAGAGCAGGGACTGTACTCA
1.469251159590757 GCCAGCACCAGATCAGAGAAGACAGGGTGGGGTGCCAGCCACTGCCAGCCTCCCTACAGCTCCACTCCCCACCCAGGCCTGCAGCCACCGCTCCACCCATACTCACACATCAGCCATCTCCCGTGGTTCTGCATCTATTTTTACCTCCATTGGCTCCTCCTCAGAGCCACACTGTAGAGTGGGTGGGGCAGGACTGTGAT
1.091992615326953 GGGGAGCAAGGCCCGGGCAGCCCCTGACGCCGTGCCCGGCCCGTGGCGGAGGCGAACCCGCCGCACAGCAGCCCAGCGCCCTCCTCCGTGTCCCGCCCGGCCCCGCAGGGCCCGCCCTTCCCGGGCTCCGGGGCTCGGGCTCGCGCTCGCTCCGAACACACAGGAAACGCGCGTCGCGAGGTGGAGCCGCCCGTCCTCTG
1.347770270436623 CAGGGCCTCTCTACTCCACCCTGTCCCCGGTGGCTGGAAATTCCAGTGAGTAATGAGAGTGCCCCTCCATCAGACACAGACTCCACTCACAGGCCCTCGGTGCCCCCCTGGAGGGGAAGTGACTCACCAGTCCCCACAGCTTCCCTCCCCTTCCCTGACAAATGCCCTGAGCCAGCCCTGGACCTGAGCTCCACACTCCA
1.498772879680328 GCCGTGGGGCCCCAGCTGATGACTCACCCATCTCACTGTTGACAGTAACCTCTCAAAGGGCCTGGCACGTTCTCACTTCCAGGCCTTTAACAACGGCAGGTCCTCGGCTTGAAGCACTTTCTCCCGCCTCTTGGCTTCTCCCTGGCTCTCCCAGCTTTCCTGGCAGAAACTCAAGCCCCACCTCCAGACTGTATGAAGCT
1.534008599319762 TGCCAAACACCATCTCACAGAAACCTCACAACAGCTGTGAGGTTTGAGCCCTGTGAGGTCAGGAGGGAGGAAATTCTCAGTGTCTTCACACTACAGATGAGCAAACTGCAGCTCTGGTGGGGAGTCATGAGTGACACCCCTCAGGCCACACAGTGAGACAGTGGTAGAGTGGGGACAAAACCCAGTTCTTCTCTCTGCCT
1.406287727665283 CCAAAACATCCCCAAGTACTCAGGAAGAGGCGTCAGCTCCCTCCAGGCACCCCGTGTAAACAGCAATCCCTGCAGAGTCCACTAGGTGGGGCCGGTGACCCAGCGGAAAGGGCAGAAACGCTCCCCGAGGAGGGAAGGCAGGTGCGCGGATGGGACCTTTGCCCGGACGATCCCCAGGCTGGACAAGTGCTCCCTACTCC
1.294859791652404 CTGAGCCCACTCCCTCCAGGGGTCCAGGGCAGGTTCTGGAGTGTGGGAGGGGAGCCCTCAGCCCTCAGAACAAGGCCCCGCACGGAGGACGGAGCCCAAGGCAGCAGGGCGTGGGCGAGGAGGCTGTGCCCAGGCCTGGCAGGGACAGGGGCTCACAGCAGACTCCTCGGAGCCGGTGCTTATTTCTATCACCCCAGTGT
1.419206431015788 GGCCTCGGAAAGGCCCCTGCGTCCAGCCCCACCAGCATGGCTATAGGAGGGACCCTCCCACAAACCGGCCCCTGCCCCTTGGCCTGTTTGCTCCCCAGCTCTGACCCACCACGACTGGCAACGGAGAACGTGGCAGTGTTGCTCCCGAGGGCTGTGGTGGACCTCCTTGGGCTGGGGCCGCCAGCGGGGGGTGGACACCC
1.45143664054639 AGTGGCACCCAGTGGGAAACAGCAGGGCCCCTGGAGGGGACTATAAATAGCCAGGAGGGCTAGAACACAGAGTGAGCAGAGGGGGAGAGGGCCGTGCTGGAGAGGAGGCAGGGACTTGCTCCTGAGAGCCTCGTGAGCTGAGCCGAGAGCCGTGCAGGACTCAGTGAGGATGGGTGACCTGGCCCATGATCCTCTGCAGG
1.662764831331535 CCCTTCACACATACACCTGCAGAAGCAGCCGCACCTCTGCCCAGTGCTGCTGGGTGGCCACGTTCACTGGCCTTCGGCTCAAAATGCTGGCTCTCCACCCAGAGCCTTCCTGGGCCTTAAACATAATTCTACTGTTGAACTGGGCTGTCACAGAGTGCCTCAAAAGTCACCTCCTTCTCCCCACTCCCAGCTCCAGAGCA
1.463291548763078 CACTTGCTGTGTGCTGGGAGTTGCGGTAGACACTGTCCTGTATGATTCCACTCTGAAGAGGTGCTCAGAGCAGTCAGATTCGTCCAGACACAAAGAGGAGGGTGGTGGCCAGGAGCTGCAAGCAGCGGCACACGTGTGGGCAATACACAGGTTGCCCAAGCGCCGAGAGAGGCCCAGGAGGACGGGCCCCGGGCATGGCA
1.436832398855825 GATCTCATGACTGCCAGGCTCTCACAGAGGCCCTGGTTCCCCTCTGGCTCTACGTCTTATTTCCCTGGACCAGTTCCCTAAAGCCCTGTCTGCTGAGAACTCATCTGACAATTCATCCTAATCCCTAGAGGGCCCCAAGCAAAAATCCCAAGCTCAGTTCCTGCACCCAGGCTAGGCTTGGTCAGTGTCCAGCCCTGCCC
1.256605278355402 GTGGTCACCATAGCAACAGGCTCCCGCTCCAGCCTGCCAGGCGGGGCTGATGCAATTCTCGGCAGCGAGCAGCTCCAACTCAGCTCACATGGCTCTGCTCCCACTCGGGGGCGGGCGCGTGGGAGGACCAACGAAGAGGGAGGAGGTGGGCACGCAGCCCACAGAAATCTCAGCTTCCCCCAGTTCTGCTCCGAGGACTG
1.707006815476581 TCAGTGTGGCCGGAGGCCCGGGGGTGTGGCAGTGGGGCCAGGAGGGGAGGCTGCGGCTGGAGATGGGTTGGACCCAGTCTCTGAGAAGGCTCCCACGTTGTGCTAAGGAGTTTAGAGTTTATCCTGCAGGAAGGAGGGAGCTACGAAGGCTTGGAGGGCAGATGCTGCAGGCGCCTGGTCCTTCCCATCCAGTGTGGGCA
1.301082797229891 CGTACTCAGACAACCAACACCTATGGAGGGCCTGTGCGGGAGCCGCTGTGGGAGGCGCTGCCTCAGAGCTGGTCTGATACCCTGTTCCTGCCGGTCCTCCTGCCACATTCCCTGCCCCTTCCTAAGTCCTGTGCCGGCCTCTCCCAGTCCCTCGAGGCTTTCCCGGATGAGGAGCGCAATGAGCTGGACAGCTGAGCTGC
1.549954991476083 CCTCCCGAACCTTCCCCCGCTCGTCCCTTTCCACACCCCTGACCTCTGAGCGCGGCCGTTCCCGCCACACATGGAGGGGGGCGGGTGGAGACCCGGGAGGACCGAAGTCACGGGGGCTGTGGGGCCAGGACAGTCCCACATGTGCCCCTCCTGGGCGGAGGACAAACTGGAGCCAGGAGAAGCCCCAAGGGCTCCACGCG
1.622988887223435 GCCCCATAAGCTGCTTGGGCAGAGGCCTCTGCAGCTGCCCCAGGGGAGATGGGGGTCACCCACTCATCACAGGCTGGGGAGCCCCTGGGAGACGCACAGGATGATGCTCTGGGTGGGGAAGCCTCTACAGGTGGCTGCAGCAGAAGTGGTTTTCAATATTATTAGCCCGTCCCTGCGTCCCCAGGGCTCCCTCCGCCCCA
1.316096883522027 CTGCCATCAGTGGAGCCTCTGCTCTGGGGCTGCCGGTCGGGCCGTGTGTGCTGTGTCTCTTTAAGGACCAGGCCTCTTCAAGGCAAGTTCCCTCTGCAGTCCAGTCCTGCCTCTGCCCGTCCTGCGGCAGAGAGTGGGGGCTCCCCAGCGCCATCTGGCGGCCGCACAGCAGCACCTCGGCCACCAGAGGCTTCCAGCCA
1.584595944207978 GAAGCCAGGCACACACACCCCTGAAATCACTGCACCAGCTTCTCTTAGGCTGAGCTGCACCCAGGACATGCAAATTTTCCATAAAGCACTTTCGGGTTCTGATCGTGAAACCTCGTGACTCCTAATTTCCTCTTCCCCAAGCTCTTGGCACCTTGTCCTGAGCTGGTCAGCTCAGTCTCATGAACACACAGTCCGGTGCC
1.39567113339069 AGAGAAGCCTCCCAGTCTCTGGGGCTGCGGGTTCTGTCTGCTCCCCCTCCCAGAGGCCACACATGAGGCTGTACATGCAGGCAGGCCACATTTCCTTCCAGGCCCACAAACAACCTCGACTTCCTGCAAAGACCACTAACCCCAACGTCGGTACACGTGGCACGTTGCCCAAGGCCGAGCTGCTGCTGATTTTTAGTGTG
1.35817284556895 CCTTTTAAAAGGTCTTTCACTTGCCGGTGTGAGCAGAGGATCCTGGGGAGACTCCTTGGAAGGGGCTTCGGATCCAGCCAGGCTCCCGCGCAGTCCTCAGGGGGCGTGGCCCGGCTCGTGGGGGCGGAGTCCATGGGGGGCGGGGTCCGCGGGGAGGAGCCTGCGGGGCGGTCCCCCGTGGGGGCGGGGCCTTGAGGGGG
1.282733364089878 CAGGGCCCGGGTCGTGTCCGTGACTCGCGCAGGAAGGCGGATGGCGCCCCCCGGGCCTGCCTACACCCTGGGAACCTCGCGGGGCGAAGGGGGCTCGGGCGCTCTCTCCGCGTGGCGAGAGACCCGCCAGGGGGTGTGGCGTGAGTGTGTGTCCCGCCAGGACGTTCCGGTGGCGCCGCCTGACGCGGGAGGAGAAACCA
1.597803857873116 AGCTGGGTGTGGTGGCACACTCGGGAGGATCACTTGAGCCAGAGAGGTTGAGGCTGCAGTGAGCTCTCATGTGACCACTGACGTCACATCACTGTGATGGGTTAGACACTGATGCGTTTATAGTGTAACTGCCACGTGACTGGGTTGTTGCGTGCACAACCGAGCATCCCTTGACCCCTTAGATCACACAGGGTTTATCC
1.618448421802901 GCAGCATGTGCTGCGTCTCGATCGGGTGATTCCCACACCATCACTGCATGCCACGGTCCCCTGTCAGCCTGTGAAGAACCAGTCTCAGAGCCACATCTGTGGCAGAGAAGTCCTTGCTACTAATGAGATTCGAGTTCTCTGCTAACGTCGCGGTAGAGAAGTGCTGACCACTGCTCCCTTGTTGACTCTGTAAGGGAGAG
1.501856978641824 TGGACTAGACATGGTCTCTGGGCACCAGGCCAGCCGGAAAACGAGATGGGCCTAAGCCTCCCCTTGCCCTCTTGCTCCCAGACTCCTAGAAAGCCAAGAGGCCGGGCGCCGCCTTCTAAGAAGAAAACGAGTCCGCAGAGGGGGCTGGTGAGGGCCGTGGCCCTTCCCTGAAGTTTGCACGTGGCCCCAACACACAGAGC
0.962128780087967 TCAAGTGTCCCCTTCCGCCCTCGCGCCTCCTCCCCGTCTTCTTCCTCTTTTCTTCCCCTCCTGGGTTTCGCCTCCCTGACGTCGGCGGCTCCTCGCGGCGGGGGCGGGCGCCCCGGGGATGAGAACCCGCCCCGGGCATCCCACAGCCAGCTCGGGCCGCGGAGCCGCCGGGGGAGGGCGGGAGCTGCGGGGCCTGGACT
1.489578914100124 CACCCAAGGATGACTGAGCCAAGCGGCTCTAGCTGGAGGCGCCCGGGACCTCAAAGCTGGACTCCCCGGGGACTGAGTCCAACCGTGGCTGCAGGGGCCGCGGCCTGGCGGAGGGTCCGCGTGGGTGTCTACGAGGATCCCCCCCGTTCCATCTCCTCTTTGCGGCCTCAGACACTTCCCCTGGGGAGGACGAGAAATGG
1.573421658949433 CGTACAGGGTGGAGTCCAGACTCCTTGGCCTGACGCAGGAAGTCCTCCCACATCTGGTCTCTGCCCACGTCGCTGCCTTCTTCCTATAATTTAGCCTTGCCAGCTCAAAGCTGGCCCCAAAGACCTCACACCCTTTTCCTTTTCCTTGGAACTTCTCATCTCTCCCTACACGCTTGCAAAAGTCCCCGCTGCCTGGGGAC
1.403056797009842 CTCCTTAAACTGCTCCTAAGATCAGCGCTTGAGATATTTTGGAAACCCTGCACTTCATGAGTCAGCTGACACCACCCACATCAATAAACTGGCTCATCTGATCTTGCGGACCCCACCCAGGAACGATTGAGCTCAAGAAGACAGCTTTGACGCCCTGTGATTTCACCTCTGACCAATCAGCACTCCTGGCTCACTGGCTT
1.584769368170322 CAATTCACACTCCTGCTGGGCCCAGGCTGGCCCCCTTCCAGCAACGGGCCTACGCCTGTGATTAGCAGAAATAGCTTTTCCAGCCATTTGGAGCAAACAGGGAGGATAAGTGAGCAATTTATGAGTCTAACAGTCGTTTTGGACCCACGCCCACTGCTGAAGGAGCAGGATGGAGCATTTATCCCTCCCCTGCCCTCGTT
1.184420960016353 TGTTCTGGAACCTTCCCCGCAGCCCCAGCTCACACCAGTCCGCTGAGAGGCTGCCCAGCTGCTGTACAGGAAATGCTCACGCTCCGTGGGAGGAGCCTTCAAACACTCACCCCTTCCTGGAGTCCCGGCGGGACGGGAGAACTGGGGACTCTGCGAAAGCGCTGCGGAGCGTCCAAGAGCTCCCCGTGGAGCTGAGGCAG
1.507590215624623 GTTGCTAAGGTTTGGAGTCTAGGAATAAAAAGTTCCCTTCTGAGTCCGCCACAATGATGGCGGGAGGCGGTGGGAGGGTGGGCGATGGTTTTGTTCCTTTGCTCGTTCACCCCGGTGGGGAGCCGGGGAGCCAGGGAGCAGAGTGTGGGAACTGGGTGGAGATGTCTGCGGAACGGTCACCCGGACACGGGAACACGGCT
1.268100861482986 GACCCGCTCTCCGGAGGGGGTGGGGTCGAGGCCCCCGTGAGCGGCTCCCGGACTTTCTCTCCCGGGCGGGCGTTCCGTCCTCCCTCGGGGAGCGGCGCCGGAACTTCCGGAGGAAGAGCCGGAACTTTTGAAGCCCAGGCCCCGCCCGGCGCTAATAGGCACCTACGCGGCCGCCGGCGGAACCGCCAGACCCTAAATCA
1.395171284260325 CAGGAAGAAAGACACCCTGTCCCTGGCAGCCTGAAGGAGAGGCCGTGAGGGCAGAGGCCGATGGAACTGCTCAGAGGGAAGGGGCTGGCTCACGCTGCACGGCCACCAGGCCTCCAGGGATGTGGGTCCAAGGTCGTTTGCTAAGAACTAGGGGCCTGGTGGCAGCAGGGAGGGGAGGTGACCAGGCACAGACAGGCCAA
1.597391322223595 TTGAACTAGGTTCAGGAAGAACAGAGCTCACCGAGGAGTGATACATAAAACAAGGCCCCCGTGAAGCCACATGACTCCACCCAGTCCTGGTCTCCCCAGGCAACCACGAGGCCATTCATTCTTTTGTGTGATCCGGGAAGTGGGCTTGATTGAACGAGGATGTGGTTCTTGGGTGGGAAATGGAGGCTGTGAAGACAGTG
1.397993388271413 CCTCCTCCACCGCCCTGAGAAGAAGTGCCAGGCTTTGCTGGGTTCTGCTCCCAGCTGTCCCCAGCTGGTGAGGGACAGGCGTGGTTAGGGGTCTGCACAAGAGGCCCTGGCCACTTCTCCGGGGACAGCCCTCTTCCTCTCCCCTAGAGTGTGGGCTGCCATGGGGACGGGATGTGTCTGGAGGCCCAGGCTCAGGGCCA
1.518370322130105 GACTCTGACCCAGTACCCCACAGAGACCACTGGAAGGACTCTGACCCAGTACCCCACAGAGACAGCTGGAAGGACTCTGACCCAGTACCCCACAGTTCTAAGGAAGAGGGTTAGTCCACGGAGCTGCAGAGGTGCCCGCTCCGGCTCTATGGGGTCAGCAGGAGGTGACTCAGGACCACCTCTGAAGATGGGCTTTGGGT
1.606221086046788 CGTTGGGAGGCAGAGGGAACTCCATAGAGCTTCCCCGGAGACTAGGGAGTGGTGGGGAGGACAGGCCACTGGTGCCAACCTGTGACTGCTCCCGCCTATGTCCCCTCCCTCACAGTTCCCCTGGGAGTGCCAGCCCCTTGACCGGTGGGATGCGGCCCACCAAAAACCCAGGGCATCCTTAGCAGAGACCTCTCTCAGAC
1.592322900982285 TTTTATGGTGGTCTTCTACCAAACACAAAAAGCAGTACCGAACCTGTGAATGCCGCAAGCTACACACACCCTAGGAGAGAGCGCCCCCTTGTGGGAATCAGTCACATCAACAGATTCAGACACACCAACAGCTGGCTCCAACGCGGGGAGCACTCAACAAGTCTTGACCCTTCTGTGTTCTGATTTCAACAGCTTTGATT
1.558577963937273 CATATACATCACATCCAACCACAGTAGGCAGGAGGAGCAGGCCGGAAAAGGCTTAGGTCAGCGCCCTGGAAGGTGGAACAGGCAGAGTCTGTAAGCAACAGGACGATCATACGCAGGCATGATTAGTGAAGAACCAAAACTGAAAGCGGAATTCACTGTGCCATGAACGTGACTTACAAAGTAGAGTTTTTAGGAAAGGA
1.810406231609937 ACCAAGGTATGGTGCAGCCATGTTCCATTCAACAGAGTTCTTTGCTCTCTACTCCTAGACTTTCACTTGTCCACACCCATGACCATGCTGCTCCATACTAGAAGTCTGAATTGCAACACTCCACTCTTGGCCCGTGGCTTCCTTTTTCAGTTCCTCTTCTCTTATTATTTCTATTTAGGGACTCATCAGGACATCTGGAC
1.158880238153333 TCTCTCAGCCTCTCGCTCCGCGTCCGGGCAGCAAAAATGGCGGCGCCTCAATCCGGGACTTCCGCCTGCGCACGCGGACAACTGCTCAGCTCTATGGCAACCGCTCCCTGGCAACTGGCGCGGGGGGCGGGTCCTGGAACTCGGCGCCCGAAGCGGCTGGAACGAGCGCACGAGACGCCTCTCCTCTGTCGGCTCAGCGG
1.405540678677292 CGGACTCAGTCCAGGCAGCCCTGCTGGAGGATGGGAGACCACAGGAAGTAGAGATAAACTGTGTCAGCTGAGGGCCATCCAAGATCAACCAGCCCCTGCCAATCAGCATCTGACCTCATCCATGAGTGAAACTGGCCAAGACTTGGAGAACTGCCCAGCTGAGCCCAACCCCAGCTGCTGACCTGTGTAATTATAAGATG
1.373403601975898 TGACGCGCTCCCTGCCCGAGGGAGGCTGCCGGGAAGGGGCCCGCGGCCCGCCATTGGGAGAAGGGCAAGGCGCCCTCGCGCGCGCACTGCGCATGCGGATTCATGGGCGGTGCCGCCCTTCCCGGGCCCGGGCTGCGGGGGATGGGAGGCGGGGTCTAGGGCCCGAGGGGCGGGGCCTCGCAGCCTCCCGCAGAGACGCG
1.58255116406891 GACACTGATTTCATTTTGGCGAGTCATCTCCTCCCACTCTTGGTTCTGTGGTTTCCGGTGTGGGTTCCGGTGTGCCCCTGGTAGCTCTGTCTCCAGGGGCAGGCACTCGATCCAGGCCTGACCAATCAGAATCTATTCCTCTCCCTGGCTACAGTGATTGGGTCAGGGTGGATGCCTCATTCAAGGTGCTGCACTGAGAA
1.382382998483103 ATAGACCAGTGGGATCTAGGGTGCCCTGGGGCCACCTAGGGGAAGAGGATGAGATACACGAGTCTGTGGCTTGCTGGAGAGGCCTGGGCGGGAGGGTGTGTAGGCATCCTCAGCAGGGAGACGCTAGGGCCGGGAGGATGTGGTGCTTCGGGAGAGGGTGGGGTGGACGGCAGCAGCGGGCAGGGGCACAGTGAGCCACA
1.603422302586877 TTCTGCATAGATGGGACTCCAGGCGTGTCAGCATGCCTGGCTAAGCTTCTTAGTTTCTGGACACATGTGAGGGGTCCTTAACTCAGCACCGTCCCTGGTCACCTCCTTGTGGCTGGTGTTTTGTGATGGCGGAGGGACTCCTGCACTCCGCAGGCTCTGCTGCAAGTGAGCCCTTGCCCCCAGCAGCCCCGCAGCCCCAC
1.536981857258643 TTACTCCCAGACTACACCAGAGGGGTTCCCCCAGAGGGCCTCCCACCCCAGCTGGGCTCAGCCACCCACTCCAGAACGCGGGGGAGGCCCTCCCTCGCATGGCTGGGGCCACTCCCTTTCCTCCAGCTGCTGGGCTCCCCAGGCACCTCCTCCACTGAGAGTCCTGAGAAGCCTCAGGGGATGGGGGCTTTACCATGGAA
1.064386805488885 GGGGCGGGGGCGGGCTCCGCCTGAGTCAGGTTTTCCAGGAGGGACGCCGTTGGCACCAGGGTGGAGCCCGGAACCCGCGCGGCCGCCGCGTCTACACCGACCCGGAACTCACTTCCGGGCCTGGGACTACACTCCGCGGCGGGCCTGGGCGCTGGGCGGGCACCGAGGCCTGCGGGTCCCAGAGGAAGCGGGATTTTCCT
1.266177022558926 GGGGGCCTCCCTAGTCCCTCCGGATCTCCGGGACGCCCCCCACCTCCGAAGCGGCCTCGGCAGAACCTCCCTCGCTTGGCTCTGCGGGCACCACCCTCCCTCGCCTGGGGCGAACCTTGGCTCAGATCCCACCGCGGGCAGGGGCGGGGACGTCTAGAGTCTGCAAAAGGCTGGGCTGGTTCTTCCTCGCGGTGGGACTC
1.151893746213541 GGGTCAAGAGAGCCCCTCCCGGAAGCTCAGCTCTCTCCCTGCCCCGCGAGGCGTGGGGGACTCGGGCCGGGGGCGTGGCAGGAGCCAGCGGGGGCGCGGCCAGAGGACGGGGCGGAGCTTCGCGGCCGCAGTGTCCGCCCCGCCCCTCCACGTCACGCGGTTGGAATGAGGGGAATCCGCGCGCGGAGGGGTCGGGCCCG
1.198633878981313 TGAGGGCCGCGTGGCCATCCTCCTTCTCCGGCCACCCCGGAGCCCCCCGCCCGTCACACTCGGGGCGCGCTGGGCCCCAGGGGCGGAGAACGGGAAGGGGCGGGTTTAGGCGGCTTCTCCGGAACCCAGAGGCGGAGCAGGGCTGCGGGCGGGGCCCGAAGGGCGCGCAGGGTCCTGGGTCCTGCAGCCCAGGCCGCTCT
0.767523931816717 GCGGGCGGGGCCGGGCTGGGCGGCGTGGCGGGCTTGGGGATCCGCGGCCCGGGCGCACTCTCCCCGCCCAGGGCCCGCCGGGGGCCGGGCCGCAGCCTGTCGTCATCCCGGGCAGGGCCGCGCACCCTCCGGCCCCGCCCCGCCCCGCCTCAGCCCCGGCCGCGTCCGCGAAGCCTCGGTGCGTGCGGCCCCCGCCTCGG
1.071868910379608 GCCCTCCGCGCACCCCGGGATCTGGGTGGTGCGGTTCGCAGAAGGAGGCGGGACTCTCCCACGAGCGCAAAGCTGCGAGAGGCTGAGCGAAGACGGGTTCGCGGACGTAAGAGGGGCGTGTCGGGCCTGTCATCAGCGCACGCGCAACACTGCCCCAGACGACGCGAGGTGTGCGGCCGCCACTAGACCCGGCCCAGCCC
1.563227037744705 CTTTGGCAATCTGGGAGGGGGAGCCCAGTGGGTGGGCCTGAAATACTGACATGAAACACGTCATAAACAACAGTACAGCTTTGGTCCCACCAACATGGCCCTGTCAGGCTGGGTACCAGAGGGGGACTGGTGCCGTGAATCTCTGGAAACAAGAAGTGAAGCAGCCCGGCCGACCTGTGCCAGGAAGCACTGGTGGACAC
1.468586130263969 TTCATATTGGGAACAGAGTGGAAGTTATCACAGGAGCTTCATGCTGACACTGCAGGAAAGAGAGACGGAGCCCAGTGACTGGAGGCACTATACTGGCTGACGAACCTCACCCAAACTCGAGTTTAACTGGAAGCTGGGGCGGGGTGGGGCTGTGATTTCAGAAGGAAGCAAAGAACAAGGCTGCGCCAGGAGAGGAGAGT
0.9222864682061217 CTGCCGACGCCGCCCGGAGCTCCGGTTCCGCAGCGCCGCGCGGGGGCGGGGCGTCTCTGCGGCAACCAGAGCGTCACACGCCGCGGTGCGCGCTGACGTCACGCGGGGCCGAGCCTTCCCAGGCCCGCCCTCCCGTCCTTAAGTGGGCCGCGGCGGCGCTGTCGGTTCCGAGGTGGGGCCCCGCGGCTGGGGCCAGACCC
1.171389207469874 GCGGGTTGGTGGGCCAGGCGGACGGGCCTCCCCCGTCATCAGCTCCAGGGCCCCACGGAGCCCGCCGGCAGGGGGTGCTGTGGGCCTGTGGCCTTGGACAAGCTCCTGGCCCCACGCCAGGATGGCTCCTGGGCACTGGCCCAGCTGCAGGCCTGGCGGCTCCCGCCTGGTCAGTGGGGATAAGGGCTAACTCCTAGAGC
1.441856817905628 GACTCTGGGGAGGGCCCACCCCACTCAGCTGTGCCCAGGGCCTGTGGGTGTCTGGCTGAGCCGAGTGGAAAGCGTGGTGCCAGCGGGGACCTGCGGTTTGGGAAACAGGCCCAGAGAGGAGTGTGGAGGCTGGGCTTGGCTCTGCAGTGCCCTCGTCCAGAGAAGCATTGAGTAATCGCGGAAACTCAGCACCACAGATC
1.320020842912403 CCCTGCTGACATTCTCCTGTCTGCTGGTGCCGGGTCACAGGCGGACTGGTGAATCAGGCCTGTGACGTTGGCGGGTAGCGTGATGGGGAAGTGGCGGGCATGCGGAAGACCTGGTGCAATCAGGGTCCCTGTCACCACACTGCCTGCGGGAAGCGGCTCTGTCACATCTACCTCCTGCTGTGCTCAGAGAGAGGGAAAGG
1.539460313016473 CACTGGAAAACACACACCCCACACCCCACACCCAGGAGGCTATTTTGGTCCTTCCCTCCCTCCTGGACCAGGAAACCCTGATGGGGACACGAAGAAACAGTTGGGGCTGGCAGTGATGCAATAGCTCTGACGGGCAGACAGCTCCTGGGATGCGGCCTTTCCATGGCCCGGCTGGCCCGGCTCAGCTTAACACATTCTGG
1.876625284628438 GAGCCCTCATCAGAGGCCTCAGGGGGCAGGGGAATGCCCATGGAACTCCCTCCACCCTGGGGGGAGGCAGAAAGAGATGACTTAGAAGGAGAGCTGGCCCATGCAACCAGAGGGTGTGGGTGTGAATGGTGGGTGTCAGCACATGCCCTCAGACGAGGAACAGTGACGTAGCAGCTTCCTGGGGCCTCTGGACCAAGGGT
1.780564371746094 AAGCCTCTCTGAAGAAGCTATTATTCTCACTTCTTTCCCAATGGCCAGCTCGGAATGGCACAATTGCCCAACTGGGCGAGCCCACAGAGTTCCCTTCTTCCCTCTGGGAGAGACTTTTTGGTTCCTCTTTTGACTTTCTTTTTTGTTGTTGTTTTTGAGACAGAGTCTGGCTCTGTCGCCCAGGCTGGAGTGCAGTGGCT
1.304741195301825 AGGACGGGCTGGGAACGTGGCTGAGGAGCTCTCCTGGCCGGGACTGCTAGTTAAGAGATGCTGACTAATCCTGCAGAAAACAGGAGCCGACTTTGATTAGACATGAGGTCACGCTGGGAGAGTCAAGGAAACGCTCTTCTTCCGGTAACTGCCTGCCTTCCAATTGCAGCCCTCTGGCGCCAGGGCTGTAGCGCCGAGGT
1.871058351793029 CTTAGGAGACTCCACAATGGCCTGAGGAACGTCTAGATTCTAGATGAGCCCTCCCTGGGGTGGAGGCAAGGCCACTTCCTCTCCTGCTGCACCCCAGCCCCTTAATCTGGAGTTCCTCTTTCTCACAAGCAGACAGCAACATGTTTACTACCAGCCAAGCTATGTTCCAGGGCTGGGAGGAGAGGAGAGCAGTCCAGCAC
1.224644077990278 CTGCCCTCTTTTATTCCAGCCCTTTTATTCCGACCCCAAGAAGAAAACACTGCCGCCCGCTGATTGGCTGAGCGGGGCTGGAAACAGGCGTCGACCAATCAGCAGCCAGCCCCCCGCCCGCCCCGCCGCGAGCAGAAGCCGGTTCCGGCCGGACTCGGAGACAAACAAGAGAGATGGGGGACGGGAGGGGCCTGGGCGCT
1.503802993296841 CCACCACCCCAGGGCTGTGGGAGCCCCAAACGCCTCTTGCTCCACCTGCCCCAGTCCGAGTGTGCCCCCTACTGTCTAGAATCCGCCCGGGCCACCTGGCGAGGGCAACCTCCCCCAGACAACGCTTGGAGCTGTCAGCCTGCTGGGGGGCGGCTCCAGCTGGTAGCCTACCCGGTTCCTCACCCTGTGGAACCCTTCCC
1.379956648185411 TTGCACTGGCACGGGCGGCGGCACGTGGACGACCACCAGCCGGGTTCGCAGTGGCACACGCCGGTCGCGGGGTCGCAGCGCCCGTGGGGGCCGCAGGCGCACGGGAACTCGCAGCGGGCTCCCCAGCGGTCGGCCTGGCACTGGCACGCGCCCGTGGCTGGCTCGCACTGGCCGTGCGGGTGGCAGGGGCAGCTCTCACG
1.172778223912236 CCCGGCCTGCCCCCGCGCTCGCTCTTTAGCCTGCGGAGTCGCGGCTTCGCCAGGCTGCTGGCGCTCCCTCTCGCGGTCCTGCGCGGCGCGCAGCTGGGTCTGCATGGCCGCCAGCTTGTGCCGCAGCTCAGCGTTCACCAGCAGGAGGCGCTGCAGCTGCTCCTGCAACTGGGAGCGGAGCAAAGGGTGGGGTGGGCGGG
1.769248176101281 CTGACTTACAGCTCCCTCTAGGTGGCATCTGATGTCCTTCCTTCTCTTCAACTGACAAACAGATTGTCCTTGCTGTCTCCACTCACTCACTTCCCATGAAGCCTCACCCACTGCCATCTGGCTTCCATCCCTACTATTTCTGTAACAGCTCCTGCTAAGGTCACCAATGACGTCCTAACTGTCAAATCCAATGGATACTT
1.420620844546625 CAACCCGAGTTCAGCAGTTGATCCAGTCGGCGCCGAGGTGCTCAGATGGATTAGTGAGACGACCAATTAGAGTTGCACACTGCGCCGAGGAGGCGGGCCCATAGGCGGAAAGGCTTTGAACGCAAGGGGGTGTGGTCGGGGTGAAGCCCCGCCTCCTCCATTTCCGAGGCTGTTTCTGGGGCCTCTGACAGACCTCAGCG
1.538627920380163 AGGCCCCGGCCGCAGTCTCCCTGTGCGCACCCCCACCCCAGTCTCAGCTCTGGAGACGCCCGGCGGGTCTCCCGGCCTCAGCCTCCCACCCCTCGCCCTCGCCCCGTGCGCCTCGAGCCCCCAAGCCCGCACCCGAGCAGCGCCCCGGTCCCCGAGAGCAGGCTGTGCGCCAGGGAGACGCAGAGGTTCCACCACTGCCA
1.26061753834123 TGTCTGCCGGCCCCTCCATGTCTGAACTTTGTTCCAAGTTCCAAGCCCCGCCCCCACAGTTCCAACGCATGAATCAGCAGGAAAAGCCGGGCCCTGCAGCATGGCCCAGGGAGGGGGCTGGGGGCGTGGCAGGCTCGGGGGATGTGAGCTGGGGAGGGCGGGTCCGTGCTGACACTCAGTCCAAGGGCATGGCCCACGCC
1.303583531881888 CGGGGCCTCGCCCTGGTCCCGCCTCTCCGGGCGCCCTGGCTCTGATTGGCAAGGAGGCCACCCTTTTGCCGGGCGGAATTGCACGAAGCCACGCCCACCCACTGAGGAGCCGGCCAATAGACGGACAGGTGTGGCCCAGCCCTCCGCGTCAGCGACCCGCTTAGAAAAGCGCTACGTCAAACGAGAGTCCTAAAGAGCAG
1.29168985939249 CAGGGCCAGTGGTTTCACTGTAGACAATGGTCTATCTGTCCTGCAGATGAGTCAGAACTAAGACCCCTTGAGGAATCATGTTGCTTTGGTGCCGGCTGTCTGGTTTCTATTCCATATCCTGTGCCGCACCCTTCCCCCAGCCACAGTGACATCTGGAGGCTCTGACCACAGCTGGCAGGCTCTGTGGTACCGCAGAGGCC
0.9168307131038302 GGGAGGAAGCGGAGCCCAGACCGAGCCAGAGCGGAGCAGCGGGAGGGAGGGCGGGGAGGCCGCCGGGCAGGAAGCGGGGTCCCGCCCGGGCCTCTGGAGCCACGTGCGCTTGTTTCCGTGCTGGGGCGATCACGTGACCCGCGTCAGCTGACCCGTCACGGTGGAGCCCGGTGCTCGCGCCCGGCAGCCTCTGCCCCGCC
1.600602130006451 TATGTTGGTAAGGAGGCCTGCGGTCAGTGCTGGAGATGAGGCTTTCTCCCAGGCCCTCTGCCTAGCTTCAGCGCTCTCCGGCGGGGATCCTTCCCACCCCTCCCTCAAACCACCCCCCGGCCAGGTGCTGGGTCCCAGTCTAAGTGCCAGCCTTGGGTAGGGCCAGGCTGGGCCCCCAGCTAGAGTGAGCTCAAGCGGCC
1.391817003232621 CCGCTGAGCAGAGTCCATGGCCCTGCCGGGCTGCCCTGGCTGGGGGCAGGAGCACGCCTGGGCATGGGGATCCTGTCCCCGTCTCCTTCCCCTCCCCCTCCCTCCATTCTCAGTCACAGGCCTCGGGGAGCTGCTCAGGGAGGCCCAGGAGGGGAGGAACAGGGCTTCGTGTGGGAGGATTTCTGCAGGCAGCTGGGACT
1.270167020052612 AGTTAAGAGCAGGAGGAAGCGTTGCTACCTTCACTTCTCCCCAGCTCTGCCCTCTGGGTCCACATGAGGACAGGGAAGCTCGGGAAGGGGAAGGGAGACTGGCCCTGCCCAGCCGGTCTCTAGCCCCTCAGCCCCCGCTGGGCACTCTCTGTCCCATCCCTCTAGGACAGGGAAGCTGGCCTGGTCCAGGGCACTGATGG
1.742692885814725 CACCCCCTGCCTTCCATCCCAGTCTGAAGGCAGCCAACCTGATCCTGGGCTTGGAAGGTTGGGGGTGGGCTTCCTATCCTGGGCTCTCTGCATAGGCTCTTGTGGCTTCCCCTTTCCTCCCCTCAGGAGCGGGAGGCAGCTCTCTGGGAGAAGAAAGGACATTGGGAGTGAGAATCTGGATGTGCCTCAGCCCAGCTCTG
1.398514651771826 GGAGCCTGGGCAGAGAGTGAGGAGCACCCAAGTGGGGCCAGAGGAACGTTGTGTGTGGCAGCAAGGAGCCCGCAGAGGTATGAGGGGAGGGGCTGCTCGGCCTGCTCCTTGGGTAGGAGAGGAGGAGGGAGCTGCCTCCCTGGCTGAGGGGTCTGGGATTTATTCAGGAGGCCTGTCACTCCCCAGCCTCTTCTGGGACT
1.107914042431791 CCACCTCTGGTGTGGGAGAGGCCCACCAAGGTCCGGCTGCCTAAGCTGTATCTGAAACACCAAATGGACCTGGTGGCCACCCTCAGCCAGCTGGGTAAGGAGGAGGGTGCGGGCGAGCCCCCGAGGTCAGGCTGGGCAGGGCGGGTAAGGAGGAAGCGTCTGGCTGGCAGTGGAGCTGAGTCAGAGCTGTCCTGTGTCCT
1.474398640998303 AGGTGTCCACTGCCAGTTGACATAAGGTCACCCATGAACTTGGTGACAGGAATTTCAGTGGAGAAGTGGCCACAGACACAAGTCTAGAATTGAAATGGGAGCCGAGGCAGCGTAGACAAAAGAGGAAACTGCTCCTTCCAGAGCGGCTCTGAGCGAGCACCGAGAAATGGGCAGTGGCTTTAGGGGATGTAGCGTCAAGG
1.526374585599136 ACTGTTAAGGCAATTTCCCAGCACCACCAAACCGCTGGCCTCGGCGCCCTGGCTGAGGGCTGGGATGGAGGACAGCTGGGTCCTTCTAGCCAGCCCCCACCCACTCTCTTTGGCTACGTGAGTCAAGGCTGGGCGACCAATGAGGTTGTGGCCTCCGGCAAACAATGACCACTATTTAGGCCGGCAGGTGTATAGGGCAT
1.350258532144256 AGGGTATCTACCTCTCCCTGAGCCCTCCCCCGCCTGCTAGGACGAGAGCGGGGCTTGGATACTGCCCTTTGGACAGGATGGCATCATTGTCTGTGGCTGCAGCCAGCCAGCGGTCGCCTGCTCAGCCCATGAGCAACCACTGTGGACAGGGTATTGCGTGTGTGCTGAGGGGCGTCCATGCAGACCCCCACGCTTGCCCT
1.074313913815685 AGGCTCAGGGGAGGCAGGCTCCTGGCAGCTGGGTGGGGCTGGCCCCAGCCGGGTGGAGACCAGCTGTAGGCCTGGATGGTGGTGAGGCCTCTGTCTTGCGCTGCAGAAAGCTTTTCCTGTTGTCTACACGAAAGTTTTCTCCCTGCATGTCAGGGCAGCCACGTGCAAGAGCAGCTGGCTGGGAACGCAGAGGTCTGCGG
1.461834769040857 AATAGATCATGTGTGCCCAGGCCTGGCCTGGCACTGGTGTGGAGGAAGGGCCCGTGAGCCCAAAGAGGCTCAGAAAGAGGAAGTGGGCTGCAGGAGACGGTGGGAGGGGCAGGGAGGGCAGTGGCGCGATGTGGGGAAATCTGCTGCCCCCCTGGCCAGTGCCTGGGGATGCCAGCAGAAGTCCTGGCAAGTCACAGGAA
1.940744976215943 AGATGGGGTTTCGCCATGCTGGCCAGGCTGTTCTCGAAAACTCCTGACCTCAGATGATCCACCCGCCTCGGCCTCCCACAGTGCTGGGATTACAGGCGTGAGCCACTGCGCTGGCCAAATCAGACAAGGTTTAAATCCCAGCTCTGCCTGTACTAGCTGAGGAACTCTGCACACATTTCATAACCTTTCTGGGCCTACGT
1.793508171327754 ACTACTAAGAGCTTCAGTTCCCACTGGAGTGGTGCACACATCTCATTACTACTAAAACCACAGGAATGTTCCAGGGAAACAGACTATCATCACTGAGCGAGGTGGAATCCAGCCAAAACCCCAGGCTAACATCCAGATGCCTGCAGATCAGCTAAAATCCTTTTAAAGGACTTGGAATCTCCAGATACTAGTTTTAAGTC
2.024740484568051 GACGAACCAGAGAACAACCAGAAGGAGAGCTATACTGGAGGGTGGGTGGGGCTGCCTGGCCAAGTTCTCTCTGGGAAACTCACTTGAGATCTAAAAGCTTTCCCCATATCTCCCAGGAGGAAATTCTTTTTTTTTTTTTTTTTGAGATGGAGTCTCGCTCTGTCGCCCAGGCTACAGTGCAGTGGCGCGATCTTGGCTCA
1.55909675933498 ACAAAAGCAAGACACTCCTATCAGCTGGGCTCACGCCCCACTGCTCTCTAGCAGAGACTAGCTCTGAGGAGGGAAGAACCGCCCTTCTAGGAAGTTACATCACTAGGCCCTGGAATTAAAATAAATGACACTCAACTTCTGGAACTGCACACAGCTCACGGATGTCAGCGATGACCCGTTAGTTGGCAGGGGTACTTCAA
1.599976919879323 TCCCTCTCACCCTCAGTCCCATGGCCCTTGCCCTACAGCTGAGGGTGTGGCATGTGGCTCACATATGGCTCCTTCCTCTGGCCCAAATGGCTGGAGGAAAACTATGTCTAATTTTCCTCCAGCCACAGTTCTCAGGTCAATGAAACACAGTAACATCTCTGCCCAGGCTGCTGTTTGAGTGGCATGTGCTCTTATCCTCC
1.642754850273572 CATGAGCCCTGGCCTTGCCCTCTGTTCCTCAGAAGATGAGCTGGGCAGCTAGGCCTGCAGCCCGTGTGAGTCATGGCTCCACAGCCAGATCCAATATAAATCAGATGGGACATGACTCACGGCAAGCTCCAGTCCCCAGGAAGCAAAGTGGATGAACGCACACAAAGTCCACTGGAGTCCTGGAACCTAACGACTGTGTC
1.409486339625701 AAGGGTAGACCCCATTTCACAGCAGGGTTGGGCACATGACACAGGCCTGGCCAATCAGAGGAGTCTCATACCTCTGGTTGAAGGGATGTGCATGTGATCAAAATTCAGTTGACCTGAGCCCCACCCAGAAGTTTTCTGCTGAAACTTCAGAAAGACAGCCTCTTCCCCTGGGGTGTTATTACACTATCAGGGTGTGCCCA
1.078715926158403 GCGCGCCCCTTGGCGCCCCGCTCCGCCCCGCACCGCGTCCGGCGTCCCGCGCCAGGCCTCGCTTGGGACCATGGGTGGGTCACGTGGGCCGCGCCTCGGCCAATGCGGCGGCTGCGTAGCGCCCGGGCCCGCCCCTGAGCCGCGCGCACGTCGGGGGCGGGAGCGGTGCGCGCAACTTCTCGGGCCAATAACTGCGCAGC
1.490271143574485 GAAACGCTGCCCTGTGTCCCCTTCCTCCCGGTTACAAGCTGTTTCTCCAGCAGGTGGAGCTGGGAGAATAAAAACTATGAGCCTGTGCCTGGGACCTTGCAGAGGGAGCTATCTGTGCTGAAATCCTGGTTGAATGAAAATTGTTCATTATGCAAACTGTCTGGTTCAGTACACAGAGGCAGCCCCCAGGCGCAAACCCC
1.395183691487682 GTCACCGGCGTACCGGATCGGAGCTGGGCCCCGGTGCCAGCTGAGTCCGGGGCTGCGGCCCATCTCATGGAGAGCCGGGGGCGCCCCAAACTCTGCGCCACAGCCTCACACATGCAGCTTGGTTCCTGCCCTGTGTTCTTAGCGGGAAGGGGTAGGTATGCGTGCATGGCCTGTATGTTGGCATGCTGGCTCACGGACGG
1.50084693055705 CCCAGCCCGCAGGGGGAGTACAGACCCTCCAAGCTCACACTGGACAGGCGAGGCATCGGGTGGGACTAGGGGCTTCCTGCCCTCGACGCCTCCACCCACTCCAAGTCAGATAAACTCCTTTAGGGCCAGGGCTCAGTGGGAAATGCCGCCACTCAGGGCGCAGCCCAGAATCTGCCCACTTATCACACAAGCGTCTGTGT
0.8805944067402266 AACCCTCTGGCCACTCTCGGGCCAGCCCTGCTCCCGGCCTCGTGCCGCTGCCTGCCCAGGCTCACGGCCCAGCAGGCCTCACCGCCACTGTCACCCCCTCGTTCCTGGCAGAAACAGCCTCGTAAATAAGTGACAGCTCCCAGCTGTTGGGAGTTATGGGCTCCCAGAGAGTGGCAGCTGCTTCCCGTCCCCTGTAATCA
1.563264165153807 ACGACAGAGGTGGGGCTGAAGGTCAGATTAAATTGGACTAGTAACCCCAGGGGATACTTGAAAGAGGTTGCTAAAGAAACAGTTCCGGCAGGATCGTGCAGCAGCTGAGGCAGGCAGCTGGCAGCAGCGTGCGGGCCGGCCGGCCAGATCAAGCCTGCTTAGCAGGGCTTGCTGGTGACAGGCCTGGGTTCACACGTCCT
1.695992637501394 CAGTGACATGTGTCCAAGCCGCGTACGATTCCCAGTGTGACTGAGAGCTGAACACTCTGCAAAAGGGTCCAAATGGGGATGTTTCAGTCTTGAGGTGTGTGTTGAGCTGTTACCTGGGGAGGCCCTGGGGCGAGGCCCCCTCTCCTGTCAGGAGCAAGCCCCATCTGGAACTAATAGAACTCAGCCTAAGGCTACAGCTG
1.555861922694378 TGAATAAGCCAGAGTGATAACTCTGTGCCCCCTCTTAGATTTCTGGCCGCTCTCAGGCCACCCCTCCTGCTCCCTTCAGCCTGGCCACCCTTGACCCTTCCCGCTTTGCGGCCCCTCCCCTGCAACGCCCTCTCTACCCTCTGTCTCCACCCTAAGGTCAAGTCTCCCTTCTCCCTGGAGATTTCCTCGACCCTAGCCTG
0.9989212202032637 GCCCTGTGGCTGCCTCGTGTGCAGATAGGCTGACCTGGTCCACCCTGAGCAGCCTCACACGAGTCACTGCCTCCTTCCAGCTGAGCCTGCTCCAGCCTGAGCTGTGGCTGACGTGCTGGTACACACTGCCCTGGGAGCTGTGTGCCTCAGCCTGGACTGCTGTTCTCCCAGGAAGCTCTAGAACCCACAGTGCAGTGTCT
1.603546300660555 GTGCTCAGCACACAGCAAGCCAGATCCTGCACCGCCCTAGATTTGGACACTTCTATTAATGTGGCCAAAAATTATAGAGGCTTTTTTTTTTTTGGAAGGCACATCAAACTTTCTGACTCACTGTGCTTGCAGGCAAATAAATGCTTCCTCATCATAACCCTTAATGGGACGAGAAGGCTCTACTGCGAGCACGCTGGAGG
1.4124468745002 TGCTCCATCAGCATGACCTATTGTGGGTATTATTATTATCGCTGTTGTGATCCAGAGGGAGCCTGTCTCGCGGGTGGCTGGGAAAGCTCCCTGTGCTGTTCTGTCCAAGAGTCCAGTTGATTCAAAGGCACTGAAGTGGGAGCCTGCTCAGCTCTTGGAGCTGGATGAGAGCTGAGACAGGCAGTTCCCACTTAGCACAG
1.089200140603624 CTGACCACTGGGCAGGCCAGGGTCCCTGGGCCTGGATGGGTGCAGGGGCACAGGCCGGCCATCTGCAGCCAGCCCTGTGTGCATGTACCCAGCACAGAGGGAGGGAAGCCTGCCTGGGCCAGGGCTGCTGCCTCAGCAGAACTGCAAAGGCTGACAGCTGTGTCAGGGAGAAGGCGTGTCTGCCAAGTAGCAGCCACCGC
1.750884720078822 TTAGCATGTTTGGTCCGGCCTCATTTAGACATTTCAGATCTCTGAAGCCCAGAGAGTGTCCATGAGAGGTTTCCGTTTGCCACGGAGTCGATAGTACAAATTTTGTTCCAAACACATCTGCCAAGTACAACCCTAAACTTTTCCAAGCGAGAGGTTATTTTCCTAACACAGCGCCTGCTCTGCTGGGCATCCTCTGTGGT
1.482087322780554 CTTTCAGTAACCTTTTGGGAGGGACACCCAGTGCCCATGGGGACTCACCCTTGGCCAACCCAGCTGGAAGTGGGAGGGTGTGGAAGCCCACTGTTGAACTTGGACAGGCCAACCCTGGAGGACACAGAGCAGCATGAGGGATCTGGAGGGGCACAGGGTGGAGAAGTTGCAGTCTCCTCATGGAACTCACCAACTGGCGG
1.347211243827175 GGCGTCTAGCTACGGTGGTCGCGAAGCCAGCTGTCCTCAAGTTGAGCTGTGCACCGGTCGCGCACACTGGCGGCACGGCTTTCGCGTCCCTCCGCTCCCAGCATAATGAAAGTTTGAGGAACTGGACATCAGGCGCTGGCCGCTCCCCACCCTCAGCCGCTGGGTGCCCAGAGCCCATCCCTAGCGATCAGAGCAGAACT
1.220954121424975 CCCCCGGCTTCCCCCTCCTCTCCTCCTCCCTCCCTCCCTTGCTCTCTAGCTCCCTCCCTCTCGCTCCGCTCCCCGCCCCCGCTCACGGAGCGCCTCCCATACAAAATTTATGAAAGTGCTCTCAGCTCGCAGTGCCGAGCGCCGTCCTATTCCCAAGGCAGCAGCGCTCAGCCGCGCGGCGCCGCCTCCCAAGGTGTTTT
1.272780904332062 CATTCTGGGCTGGGGTGGAGCCCACTACAGCCCCGCCCCTATCTCCTCCTTTATGGCCCCGCCCAGCGGGTATCCCCCGCCCCCGCTGGCCGATCGGCGATCGATCGCAATGTCTGCGCTCTCCGCGTTCTTCCAGCGCTGTCTTTTTAGTACCACATGCGCAGGCAGGTGATGGCGGCGCTGGTCGTATCCGGGGCAGC
1.787450390711998 GTACTAGAATCAGAGATCTCAGTCTACTGGGGGAATGTTAATGTAAACATATCATAGCCACGTGATAAAGGAGGAGGTGCCTACTGGTCCCTGGGACACATTGAAGGGCTAATGTTAGCAGTTCCTTACACGCCAGCGACCACTAGGGACCTGTCAGAGGAGGATCTGTAATGGGCCTAGGAAGCCTAGGCTGATTGTCC
1.20035961989526 AGCCCCCGCTCTGGGTGCGCCCCGCCTTTTGCCGTTGTCATGGGAACGCCTTGGCGCTCCGAGGCCCGCCCTCGGGGCGGTGCTGACGTTCGGTTCCGCCCCGTGCATTGTGCTTCCGCTCGGGGAAAGACCGCTTCCGGTGCTTCCGTCGCTCCTTGCCGGGCATAATGGCCGCGCAGCGACCCCTGCGGGTCCTGTGC
1.325452349858891 CATGGCTGTAGACTGTTACCTCCAGTTCCCACAGTAACAATCGAAAGCCACGGTTGCCCTGGAGACGCGGGGGCGGGGCGCGCGGACGGCGCCGGCGCGGGGCGGGCTGACGTCAGGGCCGCGGGGGGGCGGGCGGGGCGGCGGGGGCTGAGGAGCGCGCGTGGGCCACCGCCCCTCGCAGCCCCTAGGGACCCGGACGG
0.9775730576744854 TAGGGTGGGCCCCTCCCCGCGGGCTCAGCATCTGTGCGCCTCCAGCTCAGGTGCGCGGGAGGAAGGCAGCGGCCTGCCGCGCAGAGCCCTGCGCGCCCGCGAGGTGGCGCCATAGCCGCAGCAGCGCCCGCCGGCCCGGGCCGCTCCAGATAAGAGTGTGCGGAAAGCGCGGCGGGGCTGAGACGCGACCAGGACGCGGG
1.296325656091272 TTGCTGTGGCTCGCCTCACGGCCGAGCAGCTGAGCCTGAAGCAGCAGGACAAGGCGGCCGCGGCCGAGCTGCTGGCGCAGACCACGCACTTCCTGCACGACCCCAAGGTGGCGCTGGAGAGCCTCTACCCGCTGGCCAAGTTCACGGCCGAGCTGGGCCTCAGCCCCGACAAGGCGGCCGAGGTGCTGAGCCAGGGCGCT
2.416783383003987 AGTGGGAAATATGTGCTCCTCGGGGGCTCTGGGAGAGTTTGGGGTCTGAGGCCTCTCCTTAGCGCAGTGATTCATGGCTCAGGGAGCCGGCGTGAGCATGCTGTTCCATGGTGAGCCTGGCACTCATTGTCTGGGTATTCGGAGACACTTTCTGGAAAGGGCCCATGTGGGAATACACACACACACACACACACACACAC
1.459804995428576 TGGGCGGACTTGGCGCCCCCAGCATCCAGGGGCCTGCCTGGGCGCTGCAGCTCCAGCTGCACAGGCTCTGAGAGCTCCCCACACCCCTTTTCTGACCTCCAGTCGGCCCCACTCACCAGCCTCTGTGCAACGCCGGAAGCAGGGAGGGACAGGCTGCAGAGGGAGACCAGGCCTCACCTCCCCCATGCTCACAGAAGAGC
1.275969986223116 CCATGGGGGAACACTGCCTCTGCCTGCTCTGACTAGGGATATACAAGGTTATCACGGGGCTTGAAGTGAGCTTGACTGAGGTCAAAAGAGGGTCAGAGAAGCTTGTCTGAGGTTGGCTCAGCTCTCACAGTAAACGAGGAAGTGCAAGGTTATGAAATTACACAGACCAGGGTAAGCACAGTTTCCCAGAGGCCACTAAC
1.300248202780307 CTGCTCTCAGGACTCTGATCCAAAGGTGGCCACTCTATCACTGTTTCAGATCACAAACGACAGCTTCCAGCTGACATCTGGCTTCCTTGGCCTGTTGCTGACTTCATCCCTGTACCCCGCCCTGCTCTACCGGGCGCTTGAGACTGCTGCAGGCCAAATGACTGTGTTGGCCTATGGGTGACCTGGCCCCTGGCTAGAAT
1.651678776132148 TGGCAGGCAGCACGCACAGTGGCCTCCCTGCATCTCCAGCCTCTCACTTGCATAGGAAACTTCTGCATTTCCACAAGACTGCCAGTTTCCTCTCTGTGGTCTAATTTTAACCACCTTGTCGTTACAGTGTGTGTCAGCCACCTGACCCCACTATGACCTCTGACCTTACGCCCCAGCTACTGCTTGCACTATGGAGAATT
1.546195788495478 ATCCTCCAGAGGAGAAAGAGCTGGGCGGGAGAGGCTCCCTTCCTGGGCTACATTAGCACGTGGGGCTGGACTGGGGATAGAGGCGACTAAAAGGGCCGCCAGCCAGGGAACACCCTGGGGAGCCTACGGACCTCTCCTCTGCGGTGTACCTTCTCAGTCACAGTCCTGACCCTTCTGGAGGGAGATGCACTGTGTAGGCG
1.897733598432556 AGGCAGCTTACCACTGCAGCAGGAACTGAAACCTTTAGCTTTAGGGCTCCAGTTATCACTCTAATCAAGTCCACACGCAAAGAACCAAGCAGAAAGGAAAACTGAAAGTGAGATGTGGAGAGGCGATACCGGAGGCTGTTCTCTCCTAGGCTCAGTTCCTTAGAGAGAGATAATGTAAGCATCGGGTAAGTAGGGGCTGG
1.499137566705389 ACCACACAGGGAATCCTCTGGAGCTGGGAGGACAGAGGAAATGGTTTATTCACATTCCTAGGGGGAGGGGCCTCCTGGCAGGAAGCAGACTCCAGAAGGCAGGAGCGAAACTGGCCACAAGGATGCACAGTCAGTCTGAAGACACAGGCAGTAGCTTAGGATGGGGAGACAGACATTCACAGCCTACTTGAGTCAGAAGA
1.54335547547298 CTGGGCACTAGTTCACTGCTCTGTGTTCTTAAACAGCTCTGATGGAACAAGCCATCTGTGAGGGTTATTTAACTTGGAGCTGGAAGAGGGTGAGGATGTGGAAAAAATAAACTGAACAGCCAATGGATGGGGCCAGAGAGAGAGAGAAGGCAGGTGGCATGTTCATGGGACTGCGTGCCAGGGCCAAGCGGGGTGGGACT
1.438578404505982 ACACAGAGGGTGGGGACAGAGAAGTCAAGTGAAGCAACGCTAGACAATGCTGCCGCATAACGCTGGCTGCTCCACCGCAGCCCTGAAGGTATGAGGAAACCCTGGCGTGTTGGCGGCTGCCTCAGGAACCGCGCTGGCTAAGGGCTTCCCCAGGCCTGGGTGGGAGGCTTGTCACTGACTCTGGCCACACACATAGGCTT
1.517491030953316 ACCTATACACTTCTGCCCACACTCTTCTTGGAAGGAGAGAGGACAGGGAAGTGAAACCCACAGTATGCCAAAAGGGAAGTCGAGCTCTCATTCATAAGACTACTAAGCTCTCTCCCAGGGAAGAGAATGGAGATGGCACAACAAAGGCTCTTTGCTCTGAAATAGCACCGAAGTGAAGCCCGGCAGAGCCAGGGTGTGGA
1.636804809562738 AGAAATGGTGTGACAGTACTCGCTGCAGATTCGCTTACAGGCACGCCAGCAGGACCTTTCACATGCAAATGGGCTTACTCATCACAGCTGTCAGGGTTCTCGGGGAGGAGTTTAAAAGAAAAGGCAACACTTCCCTCTCAGTGAACTGAGGAGTGTGGCTGACCCTGATTAAGTGAGAATGAAGGGATAAAAGACACCTG
1.5369777691058 GTGGCTGTGGCCTACAGTGTAGACAGACTGTGCCCAGCCAGACTAAATGAAGACATATAACCGGAAGTCAGCCACCAGCCTGACCCCTCCCAGTTTCAGGAGGAGACTGAGCAAAACACTATCCAGCTACAGGAGTAGTAGACCAGATGCTTTAACCCTAGCAGCATGGGGTACAAAGGACCCCACATATGAATCAGCAG
1.550840889807785 AGTGCTGGTAGGGAACAGACTGACAGACAAAGCAGACAGACTCTAACCAGGCCTCGCTCTGTTTTCGATGCAACACAAATGTTTTCCATTAAAAGTTCCCTGCCCCACAAACACTCATACATGCAGCTATGAACTCCACATACTCAACTTCTGCTTTTCTGGCACACTGACCCAACTACCTCTCCTGTTCCTCTGGAAGA
2.085644232536661 AGCTCTGGAGTTCCCTAATTGCACAAGAGCAAAGGACACCCCCACGGAACATGTATGCCTTCTGAAGCCATTGCTCAACCTACACTCATTGTGCAATTTCAATCTTCCAAAGTTTTTTGCTGCACATATGCAAACCACGTTTTCCTCTGCATTCTAGAATTAAGAACAGTTTATCATTATTCTCTTCACTTTAGAGAGGG
1.740434665724569 CCATTTGGAGCTGAGTGAGAGCACTGCCAACACAAGCTGCACTATTTAAACAAGTGAGGAAATGATCGTATATACAACATGCCAGCAAGCACACACACACACCAAAGGAAGTCGAGAGGGCTTTTTTTTTTCAGGACACAGAGCTGGATGTCAGCGGCTAAAAGGTCGATATTTTCCCTTAACACCCTTCTCAATGACTT
1.318962964182894 CAGAGACAAGCACCGGATGTGATAGGGCTGCTCAGGGCCGCCTCCGAGGTTAGTGCTGCCCATGGGAGACGCACAGGGAGGCTCTTCCAGTTCCCCGCTTCCTCCCCCAGTGCCCTGCTGGCCACTTGAGCCCGCTGCCTGAGTCTGATCCCACAGCACTGGTGAGCTTTGGCCAACAGGCACTGCTCGGCTGCAGAGCA
1.790730311395748 GGAGGGGACAGGGGCTCCTGCCGTGGGAGAGATCACGTGTGCCCCACACTCAGCACTTGGAGGAAGAGGAACCCCCTGGTGCCAGGCTGCAGTGCTAACGCCCCAACCCGGAGCCAGGGAGACTGGGTGGGGAGCCAGGGTAGCAAAGGGGCTTCCCACAGCCACCACCACTTCCTTCAGGGAAGTGCTGATGGACTATT
1.779464398293378 AGATATATAGCATCAGAATGCGAAGGTCTGGGCAGCCTGGTGAAACGCGGGCTCTCCAGAGCCCCAGCTATGTTTCCCATTATGTAACCCTGGTCATGGGCAGACAGCCAGACTCCAAATGAAAAAGAGACTCTGGCTTGGCACTGGTTCTATTTTCCTATCCTCATTCGGGGTCAGCGCAGTGTCATACAGCTGCAGAG
1.467584418435043 CTCTCTGTAGCCCAGAATGTGAAGCCCAGCCGGGGATGGCTGTAGCTTGGACCACGTGCCTGCCTGTAGATTGAGCCCTTGCCCAAAGATGGGCAGCAGCTCAGAGCCGGCAACGGGCCATTTGCTGCAGCATCCAAAGAGAAAACAGACTCAGCATCTCAAGCAAATGAGACCCAGCACTTCCTGTGTGAGCTTTCCAT
1.467680523030771 CACCCTCCCCATAGGCAGCAGCACTGTCAGTACCGCCCAGCTCAGTCCAGGCCATTGCCACGCCCGGACAACATCCTGCCTCTAACTAGCAACAGAGCCGGGAAGAAGGGAGTAAGTCCAGAAAAGAGGGAGTTGGGAGAAGACAAGTGGAGGCCACATCCTGGTAGCTGATACTCTGAGTAAACATTAGTGCCTCCTCA
1.392217505908773 CTGCTTTTCTCATGAGTCAGTTACCAGTCAGACACAAGGCTGGCACAGTTCCTAAGCAGCCCACCAAAACCTCCTTGTCTACAGGAAGTGGGCAGTGAGAGTATCTTTCAACTGCTGCTGCTTGAGCCACAGAGTTCCCCGTGGCAGCTGCTAGCTGAAGAGGAGGTAGAGGAAGCAGTCGCTGTATAGGAACGAGACAA
1.489989098063626 CCAACTAGGCAGTGATAACCAGGAATGCTCAAATAAGTGACATGTTTCAAAATTGGCTTAACCGGGACCTACTCAAGCGGGAAGGCCAGTCCACACTCACAGAGCCAGAAACACAGCAATGCTTTCTGAGGTCACATGTGCATGACTCCAGTGGAATCTGCATGCAATGCTCAGGGCAGGGTTTGGCGCTGCCTCACGAA
1.584062477710521 AAAAGGTCACTAACCCTGTTTTTGTTCTCAACAGCTCCACGAGGATCCATGCCATCATGGCACTTTGGGAGGCCTGTCACGAGTTACACAGGCCTAGGCTGCCCACACCCCAGCTCAGCAGAAAAAGAGAACTGCAATCCAAGTCAGACAGATCCTGCCTGGACTCTCCGCAGAGAGCCTGGAGAGTCTGACCAGCAAAG
1.625370309498601 CAAGCCATGTTTCAATGCAGACAGAAGTAAACCCCTATAGACAGCAGCGCCTCAGCCTGCCAGGGCCTTACACCAGCTGCAGTGCATCTCGCGCTCTCCCTCAGCCCTGAGTGCAGATGTTCCCCGCAGCATCACTTCCGCTACACTTTCTTTTAAAGAAACAGCGCACACATAGAGGTATTTCTGCCTCTTCCCAGTAG
1.373190397341091 AGTTCTGGGCATCACCCTCTCTCAGGGGAGAGGTGAAAAGAGGTTATGTGGAACAGACAGTGATAACAGGATGACGTCACAGGTGTGCCTCAAAGAAGTCCCTGGTGAGCTGGGCTCATAACTACTCTGCAGTGATTTATTCGACCCTGCCAGCTCCAGCTGGAGAAGAGATGCAGAAAGCTGACACAGCCTAAAGCCCT
1.713722345090054 CACAACACCCCCTTATTGCCACTGTCCAGGCAAGCACAGCACAGCACAGGGGACCAAAGATGATGACTCATGTGCTGGGAAATGGAAAAGTGCATCTTCCCACCAGCCAGCCCTGCCGAGCACTCTGCTCGCCCCTGTCCCAATGGCAGCCCACACAGCGGGGTCTGGATGGCCACCTCAGCTGCACACTGGGTACTTGG
1.40092248151555 GTTCTTACTCCCTGGCAGGCTCCCACTAGGGATATCCCATAGGGAACTAGACTTTTCCATATTGAACAAACAGGGTACATGAGTCCAGAAACAGCTATTCCCAATCCCTGCCAAGCGTATGGTCTCTGCAATGAAACATCTCAGCAATGCCTCTCCCTTGGGAGAGGCTCTGGGTCTGCAGCCTTCAAGAGGCCTTGCTG
1.82294929199216 CGCAGGGAGGCAGAAATCTAGCCAGTGACCTAGGGCTCCTAAGGAGAGGTCATTCAAATCACTCCTTGCCAAATGTGGCCACTGGATCCCAAACAGTGGTGCATGCCTGGAGCTTCTTTGGCAACAGAAACAAACCACAGCTGAAGTCTTCAGAAATAAAAAGCAAGTTCAAGCTTGGTGCTAGAGAGAGTAGCCAGGCA
1.372360505933134 CAGGGTCTAAGGGGTGGGCACTAGGGATGGGAACCAAATGGACATGCCCAAACTCTCACAGACCCAGGGCACATGCCCAACAGCTGCCGCTCAGCTGAGCCAAGATGACAACAGGCTCAGTGAGCAGACAGCACCCTCTGCCGGCAGTGGCACCTGTGTGCAGGGGATGAGGCGGTGAATCCTAATAAGCAGGATATAAA
1.738661417899974 GTCTAAACCAAACCAAGGCCTGGAAATTCTGACGGGTATCTGGGTCCTGACTTTCCGGATGGTAACTAAAGGTCACGTGGGGTGGAAAGTGGCCTGTGGGTAACACAGAATATACACACGCACGCGAACAGGATATGCTGGTAATCCGGCTTCCTGAGACCTGGTGAGTTTTGAGAGTTCTCATCAACACTCTCGGGGAG
1.68012396687283 TAAAGATAAAGGAAGCGTACATGAGAAGGGAAAAGACCATCAGGGAGCCTCAAGTGGTTTGTCTTCCTTGCAATCAGTGGGAAGTATCTGTGCCTCACAGCTGTATGAACCAGGGCACCCAGGCTTACTGAGCTAGTTTGGCTCATTGCATCATTCTCAGGAACTTACATCACTGGGACTCAGGCTGCCCAGCCCATTCT
0.8814273227403753 CGCTCGCCCACCTCCCGGCCTTTCCCCGCCCCCTGCCGCCCTCCCTTTCCGAACGACGGTGGCCGCGCTGGGAGGAAAAGCGCCCGCCGCCGGTTCCAGAGGGGCGGGACCGGAGCGAGAGCCTGGGTGGGGCGGGCGGGCGCTGCGCGTGCGCAGAGGTGCGGCCGGGGAGGCGCGCGGAGGCTGGAGCTGGAGGCGCG
1.136929549346861 AGCTTTATTCTGCTGCTTGAGCGGGCCGGGGCGGTGGGCCGCCATGCCGCAGCGCGCGTGTACGGAGTCAGCACTGCTTCCGGGCCAGGACAAGCGCTTCCGGTCCCCTCCAAGGGGGCGGGCCCTCCAGGGAGCGGGACTCCCTGCGCCCTCTCGCGAAGGTCTTTTCCAGCAGCTCGTGAGAGCGCCGTGTTAGCGGG
1.186570347119963 CCTCCATGCGGGAGCGGGTGCGTTGCCATGACAGCGACCCCCGTGGCGCGCGCCCGGGTCTGCCGCCCCTAGGCGCGCACGGCCTCTCCCCGCCCCGATCCCCCGTCGCTGTGCGCAACCCCCCTCCGGCTGTGGGAAGGGGCCGGGCCTGCCGCCTGACGTCTGTGCGGGGCTCGGAAGATGGCTGCGGAGCCGAGCAC
1.370381912463421 CGGGCTGCGCCTCCTTCCCCTTTCTCGGATGGGGGAGGGCAGCGCCCCTCTGCCCGGGGGACCCGGCCGGCGCTCCCGGCTTGTTTGCTTCGCAGCCCCGCAGCTCCCCGCCCAGTGACGGCAGCGGCGCTGGGAGCCCAAGGCCGGGGGAGGGGTGGCGGCGATGGCGGGGATGGCTGGATCCGGAGCTGCCCATTCAG
1.749730269691367 AGCCTGCCTCCTCAGTCACCAGATTCCCTGCCCTGCTGTGTGCAAGTGGGTCAACATGAGGGTTGCTTCAGACTGAGGATGAGCTGTAATTCGAGAAGGGTGGAATCTGTGGAGCCGGGAATAACATCAGGCTTTATTAACCAGCTCCCTGTTGCTAGGCAGCTTTCATTAGCCAGGAAGGTCTGCCCTGCAGTGAGCTC
1.408061722884742 GAACCCACCTCTGTCTTGCTCCAGACTCTGTGCTGCCCAGGGATTGGTCTGCCTGTGAGGCCTACCCAGGAGTAGAGACTAGAGGGGCGGCGGCATTGAGGAGTTGGCCCTCATGCAGACGAAGCTCTGGTCATTGAACTGTGGGCTTATGGTGTCCAGAGACACTCTAGGAGACTGTGGCTTCCTTACCCAGCCAGCTG
1.56311830341974 TAGTTCATTTCTGTGAGCTCCTGAGACACCTTAGCTTGTCTCAGCCCTCTGGATCGTTTCTCTAATCCCTGCCCCGCTCAGGTCACCTGCTGCTGCCCTAAGCAGAGCCCACATGCGCCCCCTAGTGGTGGGAAACCAAACGATTCCACAGATCCTGTTTGTTGAGGGAGGAGGTGAAACGAGATGCCCACGGGCGACCC
1.726376179060581 ACTCAGCAGGCTGAGGTAGGAGGATCACTTGAGCCTGGGAGGCAGAGGTTACGGTGAACAGAGATTGTGCCCACTGCAGTCCAGCCTGGGTGACAGACTGAGACTCTGTCTTTAAAAAAAAAAGCGTGCAGTGAAAAGTCTCACTCCTTTCTCTGCTCTTATTCACCCACTTCCTGTCTATGTACGAGTCCCACACAGGT
1.826493264061429 TCCACCCTGGGAGGTGGGGTCACAGTGGGGACCTGGGGAAGGAAGGAGTAAGGGGAGTAAGGCCCTGGAGTTCTGCTTGGTGCTCTGGGCCTCCAGTCAGAACGGGGGATAAGCTTGGGCCGTCATGTGGACTCTCCCTGGGGAAGGGTCCTTCACCGTCCCGTGTCTGTGAGACACGTCCCCGGGGAAGGAGGACACTG
1.783088208658186 AGAAGGAAATTAGGGACCGTGGGGTAAAGGGGGGACTGAGCGTGATGCCTGGCTTCTCTCAGTATTCCTTAGTTGCAGTAATTGCTTAGGAATGCCTCCTCTCACCCGAGAGAACCCCATGGCTGTGCTCAGAGGCTGGCCGGGAAGGTAGGCGAGGCCACCCCGATGGGAGTGCTGGGGCCGGCCACTCCCCAGTCCCC
1.770177605758595 CTGGGCTCCTGCCCCACTGCACCTGCACCCTCCCCTTCTTCCCAGAGTCTCAGGCATGGCTTGCAACGCCCTCACTCCCAGAGCCGCAGCCCCTCCTCACCACGCGTGTTCCCTTAATTTGCCTCCTGGTGGAGCTGAAGGGCCAGATATCTGCAAAACTCCCGGCCGTGGGTCTGGGAAGAGAGCCCCGGCCAAGGCAG
1.256549974607383 GCTGCCCCTGTGGGTGTGGCTCTCACCCCGAGCACTGTCTGAGAGGCCGGAGGGGAGTGTCAGGAGGAGTCAGACCCTGCTGAGCTATAGACAGGCCCAGCTGTAACGGGTCTGCACCTCTCTTCCTGCCCTTCCCCAACCCGAGTGCTACTGGTCCCATCGTCGATGGCTCCAGGGAGAAGACACCAGTCACACAACAT
1.331702285913694 TGGGGAGGGTCTTCATCTGTGTTCCCAGTGGGCACAGGGCCTGGCACTGAGCATGCACCCAGGAAGGGTTAACCCTCACCCTATCCCTTCCCTAAAGCGTCGCTTAGTGAGCTAATGGAAGTGACCCAGCTCTTCCAGGAGCTACCAGCAGAGGGAGCCCGCGTCTCACAAGTAAAAAGGGCAGGCTCAGTAGGGAGGGC
0.5757631594062119 GTCACCCTCGCCGGCTGCACCGCCCTCCGCGACTCGAGAGCACCGCCCCCGCCCGCTGCAGCCAATCCGCGAGCCCGGCCCCGCCCCTCCCGGCTGCCCGGAAGCGGCCTGGAGGCGCGCCAGCCCCGCCCCCTGGCCGGGAGGGCGGGCGGAAGGGCGCGTTGGCGGGAGGCTGGGAGAGAGCTGCCCCCCTGGAGCAG
1.17928661932955 AGGCCCCCTGGGGAGGAGAGCACCCACCTCCCACACTCTTACTGGCTCAGGCGCCCCAGAAAACCTGAGGCCTCAGGCCCTTTGGCCAATCAACAACTGGAGTGTGAGCCAGGCCTGCTCCCAGCCCCGCCCTCCTGCAGAGGGAAGAGGCCGAGGAGGAAGCGGAGGGGGAAGCGTCCTGGGAGGGGAAGCCTCAGTGG
0.8733782179945546 TCCCTGGGAGGTGCCCAGAGGCCGGGGCCCGGGCCCAGGCCCAACCCAGCGCAAGGCCCCTTGCCAGCCCCGCCCAGGCCCCGCCCCCGGCCGAGCGCGAGGCGGTGAGGAGGGGCCGGGCCGCGCCGTCCCCAGCAGGAGTGTCCCCGGTGCACGTGGTCGGGGGCGGAGCCCGTCCACGTCACCACCCGGTGTAACCA
1.144316534840873 ATCCGCCCCTGGGCGGAGCTGCCGGCGACTGGAGACTGTCAAGAGAACCAGCGGAGGGAGCGGAGCGGCAGTCCGGCTCCGCGTTTTGTCTCCGTTCCTCCCCCCGCAGTGCGTTCGCATCCTATTAGGGGACGTCACCGGGCCGCGAGCCAATGGGCGGGCAGGACAACACGGCATGGAGCAGCTCCACATGGACACCC
1.460663544299624 CAGCCACCGTGGGTGTGGACACTGAGTAATAAGGAAAGAAATGCAGTTCAGAAGCAAAGAGGGAGGAGCCAGGTCCTCTGAGCTCTTCTGAGAAACCAGAGCCCAGTCGAGCTCTGCAGCTAGAGTGGCAGCTGCGGATGACAGTGGGTCAGAAGCTTGGTGGGAGGAGGCTGACCCAGCGGAAAGGCACAGGAGACGGA
1.228029186650869 ACTCCCCTTTTCCCAGCAGGAGACACAGTTTCCAAATGGCCAGTCTCTGGGCACAGGCCCCTGCTCACCAGTGTCCCAGGAGGGGGCCTGCTCAGCAGTGCCCTCTGGGCCACATTCTCATTCTCTCTCTGGACAGCAGCAGCACAAGCTGCCATTTCCCTGGGGCCTGACTGGCTCCTCGAGCCAGCCAAGTGCCCCAG
1.639735786549422 AAAACACCGTGGACAGACTTGTCTCCATTCCCACGGGGAAGTGAAGGCGCTTTGATAAAAGGGCCAAGGGTGCCCTCGTGTGGCCACGGAGGGAAATGCCGCGGCTTCAGCAGAAAGGAGGGGCTCCAGGAGCTGGTCGTGAAGTCATCAGCTCCCTTCTTTCAAAAGGCCTCGGATTTCCCACAGGCTTTTCCATCTTT
1.595392061597035 AGGAAAGGTAAAGGAACTAGTTTGTAGCTCTCACAATTTACCCAAGAAATGGTATTGTGAGGAAAAGAGGAGGAATAGGACGTCAGAGAGAAACCAGAGACCAGAAACTCTGCTCCTCCCACTGGCTTGCATCTGACCCTTTTGCTGAGAAGTCCTCTGACTCACACTAAAAACCAGAAACTGGGAGGAAAGTGGAAGTG
1.957175569978922 GAGTTTGAACTAGTCTGGGCAACACAGAGAGACCTTGTTTCTACTAAAAATTTAAAAATTAGCTGGGCGTGGTGGTGTGTGCCAACAGTCCCAGCTACTTGAGAGGCTGAAGTGGGAGGATTGCTTAAGCCTAGATGTTTGAGGTTGCAGCAAACTATGACTGTGCAACCACACTACAGTCTGGTTGACAGAGCAAGACA
1.57516929363476 GAAACGCAGATGATACGCTCCCAGCGCGCCGCCATCTTGTGAAGCCATCTAGCCTCGTGATTGGACACATCCCTCTCGCGCGACCTGTGGCTGATCTTGAAGAAAGAAGAAACCCTCGCGACACCTGGGGTTTGCTGCTCCTAACAGAAGGCGCGGGGGCGTGGTGACGAGCGGAGTCCTTTGAGGTATGGCAGGAGGAG
2.05112601876383 AAGGGATAATGAGTATACAAAAGTAAAACCACGGTGCCTATTACACAGAATGTGCCTCATACAAGTTAGTTATTTTTATGTCTACTCTGTACCACATGCAAAGTAAGGTGCAAAATGAAACCATAAATGTTCTAGAAAGAAAATGAGTACTATTATGATTGTGGGTGGTAGAGGACTTCCTAAATATGGCCCTAAGGGTG
1.170197842628839 ACCGCTCAGCCGCCCGCCCGCTAGAAGGCAGCGCGGCCCCGGCCCGGCCCAGCCCGGCGCATGCGCCGCAGCCCCTCCTCCGCTCCCGGCGCCCGCCCCTCCCTCTTCCTGGCGGGTCTGGGGCGGCGGCGGCGGCGGCGGCGGCGGCGCGGTGACGTCAGGGCGTTGGGGCAGCTCCTGTGACAGACGGAGCTGGAGCG
2.431996797826638 TCGTGAGGTTGTGGTGAGCTGAGATTGTGCCACTGCATTCCAGCCTGGCGACAGAGTGAGACTGCCTCGCCAAAAAAAAAAAAAAAAAAAAAGGAAGCCTTGGCTGGGCGTGGTGGCTGATGACTGTAATCCCAGCACTGGGAGGCCAAGGCAGTCAGGTCACATGAGGCCAGGAGTTTGAGACCAGCCTAGCCAACACA
1.561732774939103 CCAGGCTGAGATCCAGATGATAGGGCCCCAGGGGCAGAGTTCTAGCGTTAGTATCACTATCCAGAAATGCTGTTAGCTGTTCAAAACCTGGCAAGTAACTCGCTGGCTTGTAACTGCCTCAAACCTCCTTCCAGGAGTCATGACTGTGTATGGCCTTTGATGCAGGGGGAGGGTAGCTGGCTGTGGCAGCTCTGTCCCTG
1.090843032616142 GAAGGACGGAGTCACCGGCCCACGTGGTGCGCGCCGTGGCCTTTGACCCCGCCGCCGTTTCCCTGCCCCACCCTCGCGCCCGGCCCAGCCCACGGCGGCCCGCGAGGGACAAAACGCGCCGCGCCTGGTTCCCCGCCCACGGACGCGGTGACTTTCCAGAACGTCTTAAAGGCAACGCACTCTGACTCAAGGCCCAGGGA
1.929153060804796 AAGGGAGGGGGACAGAATAGGGGTGCAGTGAGTTACACACACTTGAGGGGGGACAGAGATGGTACAGGCGCAACCACAGGACTAGTAGAGAGTAGAGGTGGGGGCAGGCAGAGCAAGGACCCCAGGCCACCTTCTTGGCCCAAGTTGGACTGGAGAGCACTGTCCCAAGGGTGCCCCAACCTCAGCCATCTGCATCCCAG
1.234434542811701 GGGCTCGCGGAGCTGGCTTTGGCTGGTAGCTGGAAGGGCAAACTGGGGAACCCGCCGGTGCCTTGGCGCGCAGGGGCGCGGCGAAGGATCAGCACCGCGGACAGCGCCCAGGCCGCCAGGCCGCGATCCGCTCCGCCCCTCCCGCCCTGGCGTAGGAAGGAGAGGCAGCGCCCGCAGCCGCGCAGGCAAGGCTTGGGGCG
1.480277085293125 CGGCGCGAGCCGGTACTGCGTTCCGGAGGAGCCATCCGGCGTCACAGGCTGTGCTGGGGAGGTGGGGTGACCGTCCTCAGAAACCCCCGCGGGCGGGGCGCTGCACACACGTCCACCTATAGGGTGTGTGTGCGTGCGTGAGGTGTGCAGCCCCTGTCAGGATCTGGCGAGAGAAGCTGACCGGGATGGAGGTCAGAGGT
1.191015360389156 CCTTCAACCCCTTCCGCCAGAGGGCAACATGGCTGCCATCCTAGAAACAAGCCCAGGAAGACGCTCCCTTTCCTCCTCGCACCACCCAAGCTTGCCTGCAGAGGGCGCAAACGCCCACCTTCTGGCCGGTCCTGGGAGGCGCCAGGTGCCCCGCCTTAGCAGGGGAGGGCGGGAGTGACCCAGCTGGGTGGGTGTGGGCA
1.69488599634934 CTGGCTCTCTTGTGCCCGCAGCTCATCCTCCTCTCCCCGCTGGCTGCTGAGAGTCAGCTGAGCTCTGGGAGGAAGCTGGGCTGTGCTTGATGGGGCCAGGAGGGCTGGGCCTGCTTCACAGACCGCTTCCCTTTTCTCTCTTTTTTTTTTTTTTTTTTTTGAGATGGAGTCTCACTCTGTCACCCAGGCTGGAGTGCAAT
1.391119945719444 TCCGGAGCTGTGGGTTCCTCTGGGTGTGGGGAAGCTGCCCTCCACAACCTCCTCGGCCTATCTTGGTGCCTCCTGGAGTGCAGGACACACCTCCCAGCTCTGCAGCCTCACCCACAGGAAGCTCGGGTTGGGGGCAGGCGAAGAGGGAGGTGCCACGCTGGGCTCCCCGCCCTGCACCGGCACTGACCCCGCTGTACCAC
1.496736449969178 TGGGTTGAGAAGCCTCTGAGTCATGGGGGGGTGGTTCCTCCTGTCTCCCGGTTCAGGCCCATTATCTCCTGCCCAGTGACACAGGCTTTCTAATTAACCTCCTCCTCCGGTCTCTGCCAGCTGTGACTAACTCTTCATCCCTCAAGCTGGCTCCAGCTCTGCCTTCCCTATTACTAGACGCTGGCCCGAAGGCAGACCTT
1.795053895258058 GTGAGGTGGCTGTCCCCTCCCTACCTTGGGTTGAGCTGTGAACCAGTAGGTTACCGCAGTGTGGTACCACCCCCCCCAACCCCAACACCCAGCTCATTCTGAGAGGGTGGAGTGGGCGGAAATCCGTGCCTGGCAGACCACAAAGCCACATAACTGACTTTTGTAGCCCTGCCCTGGGGTGTTGGGGGGGAGGGTTGACG
1.282902192938523 CAGGTGTGAAGATGAGGAAGGAGGCCCCTGAAGAGCCGGCGGGAAGAGCGGGTGGATGGGAACACAGTTTCCCCGTCCGCCAGCAGGTGGCACTGTTGGCCCAGGACTGCCCGGGCATGGCTGGGAGAGCAGGTGGGGCCGCGGGTTCTTTGACCTCAGGTTTGTGATTCTGGCTGTGGGCTCATCACAGGCTCTACCTC
1.710524199803165 GCCTTCCTGCCTCCCTCTTCCCCCTCCTCTGTCTTCCTCCTAAGGGGGCATCCCAGAGACGCAACTGTGCTGTGGCCCAGCAGGGGGCGCTGATGTACCTGCCAAGAGTGGAGGTGTCTTAGCACAGGTGTGAGCGTTCAGCTGTGTGCGAGCGGGCTTCAGAGTGATATCCCAGAGCAGGTGTGTGTATGTGTGTACCC
0.9405554509902165 GTGCGGGCGGGGACCAGAAGGAGCGGGCGAGGGGAGGCAGGGCCGGGGCCGGGGAGGGCGCCTGGGAGCCGGGCAGGGGGGTCCCGGGAGCGCTGTCCGCCTCCTCCTGCGCTTCGCCCGCTCCCTGTGCCCCGCGTCCTCCACCATCCGGGCGGCCGAGGCCGGGGCGCGGGAGGCGGGGCCGGGGCGGGTCCCGGCGC
1.698980682916469 CAATGGGGGGAGGGGAGTGCGGAAGCTGACTGCCCACAGAGATGTTGCCGGGATCAGGATTTGGGGTAGCTTCCAGTGACCCTGCTGGATCCTAGTTTCCAGAGGAGTTTTGGAATGGTTAATACCGCACCCTATAAGACACGGGCAGTGGAACCAGAGACACCTGGGGGTGACCAGCAGCCCCTGGATATGCCCACAGG
1.625311703830105 CACCCTGGACAGAAAGTGAGTCACATACGCATCCCTGAACTTTGGCCAGAGGGGTGGGATACACTGATTCATGAAGTCTAGGTCTTACGCCCACCGCTGGTTCCCGGGATGCAGGGACTTGGCTGGGAGTATAGGAGGGATGGGTCACCTAAGGAAACCTGGCATGTTGCTCTCAGAAGCTCAGGGGATGGAAGCTGGGC
1.338393679701107 GGCCTAGAGTGGGGTAAAGCTGTTACCTCCCTTGGGAGTCGGCTTTTGAGCTCTGGGCATGAGTCAGCCCTGTTCCTGATGGCCGCAGGATGATTGGCAGAGAATCCCAGGGTGGCTGCCTCATGGCCTGGGGCCTCGCCAGCTGGGGCTTCAAGGCTGTGACCCAGATAGGGAGGTGGGTGACCCTTTCTGCCTATTCC
1.553050608150185 GGTTGTTCTGTTTCTAGTGTTTTGAGGACCCTCCGTGCTGTGTTCCATAGTGGCTGTGCTCACTTACGTTCCCACCAATCGTGTCTCAGGCTCTTGAGCAGGGAGATGAGGTCAACCAAAGCACTGATGAACCAAATTGCAGTGGTGATGAGCCGGGTGCCAGCTCAGCCGAGTCCTCCACCTCTTGGGGTCTATGAGCT
1.607769129045716 TTCCCCAGGCTCTGCCCAGCTGGCCCTGTTGTGCAGCCGTGGCTCTGAAGGCTGATCCCATGCCAAACCGTCTGCTTGGTGATGGGACCGCACACAGCACTCCCCGGTCACCAGCGAGGGCCAGATGGAAAGTGGGGAGTGTGTGAGCGCGGCAAACTTGTCGCAGTCATGTTGCCATGGTGACACAACTCTGTTTAGCT
1.706385250321897 TCTGCATCACCCCTCCTCTTCCCTGAACCTAATCTTTTGCAAGATGACAACCCATAGGAAGCAGATAAAACCCATCCATCTTCCTGTTGTTGTCCTGTATCCGATACCCATCACATACAGAGCCATGTGGTATGCCTCGAGGAGCCTGTGTGTTGAGGGGTAGCCAGAGCCTGCCCTGGGTGGGTTAAGTGGTCAGCGGT
1.352956075197745 TGCCTTGCAGTCAACTGCCTCAGCCTCATCCATCGCTGGCTGGGAGATGACTGGGAGCGGGATTGTCCCAGCTGTGGGTCTGGACCTTCCTACAGTGGCTCACCAGGCCCCCTTGTGGCCAATACCATCAGTACCACGTGGGAGCCTGTGGCTGGGGCTGGGGGTCTGGGGAGGGGTGACAAGCCCACCAGCTGCTCACT
1.176748018923037 ACTCCTCAGCTGGGCTTCCGCCTGGCCTGGACGCTTGGAGCTGGCCAGGCTGCGGGTCCTGCCCTCTCTTCTTTGGGCTGTGGTTCTGGGGACTCTGTGTCCTGTCACGGAGCCTCAGAGTGTGGTTAGTGTGAGGCCCAGCGAGGAGAGTGTGAGCCGTGGTCCTCTGCTGCCAAGCCACACTGTCCCTGCAGGCTCTG
1.195056111812904 AGTGCCTGCTATGTGCCCTTGGCTGTATGCAGCCATCTCAGGGTGTGTGGATGAGGGTGTGTCCGAAAGGCTGAGCTGCTGTTCCCGGCTGGCCTGAGTCACGCTGCTTCTGGGTGGAAAAGGAGACTCACTCCCTGCCAACTGTCCCATTGGAAAGTGCAGCAAGTCGCTGAGAAGTGGGGCCGGCCCAGCCAAGGCCA
1.473891713538757 CTCCAGGCAGTTCTGGCCCATGGGTGCCTGCAGAGGTAGGAAGAGTGCTTGGAGGCCCCACCTCTGCCTGAAGAAGAACCGAGGACACTGTTCCTCATCCCTGCTTTCTTTTCTCTCGTCTTCACTGGGGACTGTCTGTTCTGGGCACTCATGACCTCCCGGCTTCGCGGTGCCCAGATGTGGGCAGTGACATTAGTCTG
1.08713381009907 TTTGGACGTTCTCCATGGCCTGGTGCCTCTCCCTGGCAGGGCAGCTGTTCCTCCCCTGTGACTCACCCAGGCAGGAGTGGAGGCTCCAGGGTCGGGCAGCAGCGCCGTCGCTGGGGGAGCTGCGAAGCGTCCGTTTCCCCAGACAGCTGACAGCTGAGAGCCTCACAGAGACACACAGTGTGTGGCAACCTCACACAGGC
1.509888055748354 TGATGTGATGGAGCCAGCTGGGTGCGTCTCTTCACAACTCTGTTCCGTGACATCATGTTGGCAGCTTGAAGTCAACCATGGTGGAAGTATTTACACTATGGAAATTTGCAAACACCAGGGTTTCTATCTTCCTCCTTTGGAGAGCCAGTGACTCAAAATATGCCAGCACACCACTGCTCAGCCTCTGTGTTTTGTAGCCC
1.430051436438221 CATATATGCCTGGGAGTGAAGTTTCTGGATCACATGGTGACTCTGCGTTTAGCCTTTGGTATATGCCCGGGAGTGAAGTTGCCGGATCATATGGTGACTCTGCGTTTAGCTTTCGGGACCTGCCTGGGAGTGCTGTTGCCAGATCATATAGTGACTCTGCATTTAGCCTTTTGAGGAACTGCTGGACTGTTTTCCACAGT
1.778393398106005 ACCTGCAGGCTGCTAGCCCTGACATCCTGCGGGAGGGAAGGAGGCGTGCTTGGGTGTGTGTGTGTGTGGTGGGTTGCAAGGTGCTTTGGGGAAACTCTATTTCAGGAGCCCTTTACTGGGTGCAGGTCAGCAGGGGAAGTGAAAAGGCCACTGGGCGACAGTGGTTACCCCTTACCAGCTGCTTGCTCATGCCAGGCACG
0.9733873999601322 ATTGACCAGCTCTCTCCCGCTCCGTTTCCCCTCCGGACTCTGGCAGGGCCTTTCCTTGGCTCGGTGCCCAGCTGCCTGCTCACCCGGCCTGGCAGACTCTGCATCTGCTCCACTTCACAGGCCGGGGAGGCTGGCAGCACGCCAGGGCTGGGCTCACGTCAGCGGCTGTGTAGGGAAGGGAGGGCAGTCTCCCGAGAGCC
1.494787013718694 GGCTGTGATGGACCCGGGACCGTGGCAAGCTGGGAGTTGCCAGGTTCATTTCTCCCAGCCTTTGAGGGACTGTGATAGTTCATGCCTTGGTCTGACCTGACCCCTAGTGGCAGGAGGGGCCACAGCTATCCCTGGCAGTCTTTGTGGCCCCGCAGTACCTGCAGGGAGGTACCTGTAAGCCGGTCCCCCTAGCAGTGCCA
1.447877443109031 CCTGCCTCTCTCCTCAGGGCAGCCAGCCGTCCACGACCTCACCCTTCAAGCAGGAGGTGTTTGTCTACAGCCCGTCCCCGAGCAGCGAGAGCCCCAGCCTGGGGGCAGCTGCCACCCCGATCATCATGAGCCGGAGTCCCACAGGTCAGTGGCATCTGGTGGTGTGTGTGACGTCACCAGGAGGGCAGGCTGTGCCCTGT
1.175601955633367 CCCCTGCCTGCTTTGAGGGGGCACGTGGTTTGAGCAGAGTGGCCGTGGGTCCAGCTCGCCCCCATCAAGGCCTGGATTTCTGCTGGGGAAGTCACCAGAGACCCATCTGAGCTCCCAGCCCTCTCCCCACATGGGGCTTCAGGGGTCAGAGTCACAGCTGGAGCCAAGAGGAGGGGTACAACCGAACCCACTCTGTGTTC
1.422259766139632 CTGCGGAACCACAGGGCGACATCCAGCTGCGGGCGGCGAAGGGAATTGGAGCGTGGACCTCTCCAGGCTTTTCATTCGCTGGTTCTGCCGGTGTCCCGCCTTTTCCATCTCCTCATTGGCTGTCGCCTCCGGGCCTGCGACTTTGCTCAGCCCCTCCGGGGAGTGGAATCGGGTGTGCAACAGGCCGTGAGGTCCGGCTT
1.772074948589293 TCTCCTACACAGGGTGTCTGACACAGCTCTACTTCCTGGTCTCCTTGGTGGCCCTGGACAACCTCAACCTGGCCGTGATGGCGTATGATCGCTATGTGGCCATCTGCCGTCCCCTCCACTATGTCACAGCCATGATCCCTGGGCTCTGTATCTTGCTCCTCTCCTTGTGTTGGGTGTTCTCTGCCCTCTATGGCCTCATC
1.770505574483387 GGGTTGGTGGCACGGTCTTAACTGGTCTCACTAAGATCTGGAAAGCAGAAGAGGCAGGAGTGAATGAGAAGCCATCCGGGCAGGCTGACTGTGCAGTGTTTAGGTGGGACTTTAAAAGCAAGAAGCCGGCATTATCAGCAGTTCCTCAGCCTCTGGTGAGCACTGACTAGGGAAGTCAAGGGAAAATGTACTCACAATCC
1.834330017072227 ATCTGGCCATCTGCCAGTCCCTCACCTACAGCAGCCGCATGAGCTGGGGAATCCAGCAAGCCCTGGTGGGCATGTCATGTGTCTTTTCCTTCACCAATGCACTGACCCAAACTGTTGCCCTGTCTCCTCTTAACTTCTGTGGCCCCAATGTGATCAATCACTTCTACTGTGACCTCCCACAGCCCTTCCAGCTCTCCTGC
1.503304074839173 GAAGTCCACAAAGAACAGCTCCACATGGGGTGTGAGGCTCGGCTGCCACGATCCCTGAACCTACTGTCCTGGAGCAAATCTGCTGGCAATTCCAGCCCTTCCTCTCCTCCCCCAGGTTCTGGGTGAGGTGGGACCTCAGAGGTTGAGGCAGGCCTGGAGCTCAGGGAAGGGCACCCGCAGCTCCACTTCACTGCTCACAG
1.42356172985308 AGCTGCTATTTCTGCTTCAGCGAAAGCCACGATCCCAGCACACAGGCACGCGCTACTGTGAGGTCAGGACGAGGAAAAGAGCCAGGACCTTTCACCCAGATCGCGGCGGCCCAGCAGGACTTGCCCGGAGTGTCTCATGCAGACTTTTGTGTGTGTGAAGAAAAGCTTTTTGTCTTGCTCTGGGCACCCTGAGGCCAAAT
1.550768055733071 AGGTTTACACCAGCTGTTTGCCAAGTAACAAAATCCAGGATGTTTCCCACTCAGACAAATTGACAACTGCCCCTCAGTTCAGACACCCACTGAGCACTGAGCACGAGGGTGCACTCTGCTTCTAGGCCAGCAGAGCCGGACTCCACCATCCCTCAAAGCCTCTCTGCACAGAGTCGGTGACTCCGCCTGCAGCGCCAGAC
1.614025070309572 AGAACAGGGGCTTAAGGCCAACAGGGCTGGACCAGCCAGAGGCTGGCTGGGCCCAGGGGATACACCCGCCCAGAATGGGTGGAGACCTGCCTCTGCGCCTGGCGCCATGGCCCCTGGGCCCCGTCTTTATCTGTGGAATGCGCACAAAGCTTGCTGTTCCGCCCATCTCACTGGGGGTTGTGAATACCAGGGACAAAGGG
1.644417630148149 CCTCCTTCTCTGGTCCACCCTGGTGTCCTGCTCAGATGGACATGCCCAGCCTCCTCCCCTCCTGCCCCTCTGGGGCACCAGAGCTTCTTAAGGCAGGGACAGTGTGGGTGGAGCTCAAAGCGGGGTGGCCCCTCCCTTCCTCCCTCCTTCCTTCCTTTCTCTCCCTCCGCCCTCCTTCCTCCTCCCTTCCTCCCTCTCCC
1.195501621936447 CCCTCCTCCCAGACTCCGCACCGGGCGGGGGCGGCACCCACCGAAGTAGAAGCCTTCGTGTTGGTACTTGGGGTTGAAGAAGGCCCCCTTGGCGTGCGCGTTGACGTCGGCGCCGGCGGCGATGAGCAGGGCTGCGATGTCCCCCTGCCGCCGCTCGATGGCGATGTTCAGCGCCGTCTGCCCTGCGGAGCGGGCGGGGA
1.791948021737767 CTCCTCCGTCTCCTATGCTGGCTCCTTGCTCTCTGTGGCCCATGGGTGACGTATCTGAGGCCTTTTGCTCTTTGCCCACTGTATGGCTTCCCGCTGTCCACCCCCCTGCTGCCACCCTGGAATCTGTCTCCAGCCTGCCCCCTCCTCGTGGCCTGCAAATAAAGCTCATGGCCTCCCCATCAACCTGATACTGCACTGGT
1.115833888312053 CTGAGGGAACACGGAGGAAGCCTGTTAGGGCCGAGCCAGGCAGAGCCTGTCTGCCTGTGTCCTGCCTCCTGGCCCCAGAGGGTGCCCCCATGCTGAGCACACACCCTGGCCAGCTCTGAGCCCAAATGGCCTTGCCCAGCCCTCCCGGGAGCCCTCGGAGATGGACACTGTCATTATCACCTACGTTTCACAGATGGTCT
1.202036072649209 CTCATTGCAGGCAGAGGGATGGCTGGAATGAGGCGTCAGAGGCAGAACTGGCTGAGCCACCTGCCCTCGGCGCCAGGCAGGCCACGCCCACCAGCCACAGCTGCAGCACCCGCCCACCCACGTGGCCCGTGTGAGTCACCCCCACACCCACACAGCAGCCTCATCCCCACCGGAGAAAAGGCAGGGGAGGCCGCAGGTGC
1.291259227351593 GTGGGTGGAGTGAGTCAGGATGGCCGTGTGTGTCTCGCGTCACTCAGGAACTGCACACCTGCTCCCCGGGGCGAGATGTGGACAAGACACAGCTGGGACAGAGCAGGAAGTCTCTGCTGACGCGGCCGCAGCTGGCGCCTGATGGGCAGGGAAATCCCCAGCTGTGAGCCTCTCAATCCCTCATCATCACAACCTGCCTG
1.196869440043007 CAGGGCTGAGGAGGCAGGGCAGCCCATACAAGGAGGCAGGGCGGGGCTGGGCTGCGTCCCCTGGGGCGCTGAGGACAGGTGCCTGGGCTGGAGGTGCTGGCACAGCCGCCTGCACGGGCCCAGTGAGCCGTCAGCCATCAGCCGTCAGCCGTGACAGCATGAGTGAGGTGCTCAAGTCAGCCCGTGACTATGTGCTCATG
1.059012678188279 ACTGTATACAAGGGGCACAGCCCAGCCAGCCCAGACCTGTCCAGGTGCCACTGGTGCCTGCCGGGCCTGGGCAGGGCAGCCCCGGGAGTGATACGGAGGCCCCAGACCCTGCCCTGAGGAGCTCACAAGGGGCAACATAGGGTAGGGCTGAGAGCAGGGCCACGAGTGAGACTGCCTGGGCCAGGTCCTGGCTCTGCCAC
1.922313857552294 ATGACCACGAGGTAAGCGGGCTCTGAGGAGACCCACTGGGGCCCAGGGAACCCACCTTCTCTATCATGACGGCATAGATGCCCATCTGCTGGAAACCGCGGGTGTAGTAGAGCATGTTGGTCCAGCCCAAGGCCAGGGAGAATACCATGGAAGCCACATACTCCTTGAGGTGGCTGAAGTACAGCACCACGGTGGCCAGC
1.424955530966383 CCACTCTCTGGGGCACTGCCAGTCACTTGTGGCAAAGGGAAGGGTGTGTGGCAAGTAGCTCACTGGCTCCTAAAGACCTCTGCCCAGGAGTGACAGGCATTCCCTGTGCACGTCCCACTGGCCGAAGCGGATCGGGGGGAAGGTGCAGCCCTGCCGTGGGCTCATAGCATCGGGATACTGACGGCCAGCAAAGGAGCCCC
1.623097869808293 GAAACCTACAGACTGGGCTCATGGTCACAGAGAAGGGAGAGCCCACCTGGGGTCTGGGCGGCTGTGGAGGAGCAGGACAGCATGGCTGAGGCCCCTACCCAAGGGCTCAGGGCTGTGCTTACACTGGGCCCATCCATGCCCCGTGTCTGGGACAGGCCAGGGGCACTGGACCCTGATCCTGGCCTCTGGGAACCCTCCAC
1.14170696682938 GGGCGGGGCAGGGGCGGGGAGTCGCCTGCCAATCTTTCAGCCACACCCAACATGGAGGCTTCTCGTCTTCCCACTGGCCGGGGAAGGCGAGCTTCCACGCAACCTCTCGGCGGGCCCCGGCTATAGGCGGAGAGGCGGCGGAAGGCGGGACCTAAAGGGGGCCCCGCCCCACGGGCTCTGATTTCCGCCCAATGGAGGGC
1.547994265801303 CTGTCTGGCCCAGGCCTACATGAACTTTTACTACAAAAGCACTGAGGGCTGGAGCATTGGCAACGTGCTCCTGGACTTCACCGGGGGCAGCTTCAGCCTCCTGCAGATGTTCCTCCAGTCCTACAACAACGGTGAGTCAGCCAGCGGGCTGCTGGCCACCCTGCGGCTGGGGCATCGGGCGGGGCCAGCCTTCCCGGGAC
1.298398813196888 CAGAAAGAGACCGGGGTATGACCAGCTGAACTAGCACCCAGGGACCCAGTGTACCCAGCCTCTGGCCTCGTGCCCTGCTGGGGAAGGCCTCACCCAGCGAAGGCCGGAGAAGCGGTTGGGCCCTGGCACACAGGGCTGGCTCAGTGTGCGGACAGAGGAGACCACTCTGCTCCTGGGGCCAGAGGCCATTCAATAGCCTG
0.8479720046042465 TCGCTGCTTAACAAAGGCCGCCCCGCTCGGCCCGCCCCCTCATGAATAGTTAACAAACCTCCAGCCAATCACTGGCCGGAGCGCCACTCCGCTTTCGGAAGTCCCTGCGCGTGCGCAGAAAAGCGGGCAGAGGGCGGAGCGTGTCCGGGGCGCCCACGGCGCAGGCGCGGAGGGCGGGGCGGGATCTGGGCGCGTGCGCA
1.778544604108591 GTGGACGACCCCAGCTCAGCCCCTCACACCCAAAACGTGCCCTACGGACCAGAGCGATGCAATTGCCCCTCTCCTCCAGCAGAGGGAGACTCCACCCACAGCACAGGGCAGGGTTGGGGCCTGAATGATAGAGGAGAGTGGAGGTGGGAAGGGTTGGTGGAGGGGCCAACAAGGAATCTTGGTCCCCTGACCCTGGGTGC
1.802387167871647 AGGTAGGGATCCATGTGGAGCTCACTTTTCTTGACCCCCTCCCAGGAACGTGGTCCTGGTATGGGACACAATTTTCCAGGTTTTAACAAAAGTCACCCCTGGGTCCCAATGGACTCCTCCAGTGGGGCTGTCTTGTGTGCACAGGGAGAGGAATGAGGGAAGAGGCTGCCAGAAACCTGGGAAAGGGACCTGCCGGGATG
1.594379235622523 GAGGAGCAAGGGCTTCCCCACCCTACTCTGAGCAACCCTTGGGTCGCCAAAGCGCGGATGGAAAGGATGCGGCAGAGGCCGCAAGACTCGGCTTCACGGAGAGAAACAGGCAAGAACACGCGCTCTCCTCTCCCAGAGGCACCCCCAGCTTCAGTCGCTGGCCACTCTGCTGGGGTCCACACCTCTCCTGGGCCATCTGT
1.286728145969123 CTTAGTCCCCCCATGGAGCGGCTGAGAACACTGCGTCGTCCCTGCCTCAGGGCTGCCTCCCTCGTTCTTCAGGGAGAAGGGAGCCGCACAGGGTAGGCCTCTCTGGACAGGCACTTCACACTCCAGCCAGCATGTGCCAAAGGGGGTCCCTCTGCCTCACCTTCGGCTGGTGCCCCAAGGACTCAGAACCGCACAGCAGG
1.899354996625791 TGGCAGTCGCTGTCCTTGGAGCACGCGCCATCAGGAATGCCTTCATTCTGCCAGGAGAGAAGGGGCACCTGGATGGGGGGGTTCCCCCAGCTCAGAGCCGGGTCCCACTCCAGGAGATAGAATAGGGGTTCTTCTTCGGCCTGGCCCACACACACTCTGAGAACCTACTTCTCCCCCATATAATGCAGGAACCACACCCG
1.488392309469289 GGCGGCCTTTTATTGACGCGGTTGAGAAAGCCTCGGCTGGGAGCTGGGCGGCGGCGAGCACCGGAACCTCAGACCGCGACCTTGCCGCTACCTCTTCTTCCTCCTCCTCCTCCTCCTCCCCTGACACAGTGACACCCCTGCAACCTACTCCCCAGCCACCGGTCTGGGAGCGCAGCCCCCCGGATGCGCAGGACCGCCCT
1.7170322953606 TCTGGGTAGCAGAGTGGCCCTATGGCATGACTCACTGTTCTTGGATCTATGCAAGCTCTACCATTTCCTGTCCCAGGCAGAGGGTGAAAAGGAAATGAGAAAGGCCTAGCACCTAAAAGGCAGCTTGTAGAAGAAAGACCGGCTGGGAAAGTACCCCATGTGCTTTCTGTTCTCCTTTGCCCTGGTACAGGATAGTGAGT
1.26292001335537 CAAGCCGCCAGTTTTCCGTCCCGTCCCGGCCCCGGCCCTGGCGAGGTGCGCATGCGCAGGGCCGGGAGCTAGGACCCCGCGGCAGGCGGGCGCGTCCGCGTCGCACGGAAGTCTCGCGATGTTTGCGTTTGAACCTCTTGGCGGGTGCCGGCCATGGCGGCTTCGCTCCCGGGACCTGGGAGCCGGCTTTTCCGCACATA
1.219017323161969 GACCGGCCCAGCCTGACCGTGACCCCAAAGCGCTGGAAGCTGCGAGCTCGCCCAAGCCTAACCGTGACCCCAAGACGCCTGGGGCTGCGAGCTCGGCCCCCGCAGAAGTGCAGCACACCCTGCGGCCCGCTCCGACTTCCGCCCTTCCCCAGCCGCGACTCCGGCCGCCTCAGCCCGGACCTCAGCGTGTGCGGCCAGCC
1.894629245887424 AGATTGAGATGAGACCAAGATGCAGAAGACGCCAACTGCAGGGTGGTGAGAAGAGCGAATCAGTCCAAACCGACTCACAGATGACCTCTTGAGGACGGGGTGACCAATCCTGCAGTTCATGATCAGGACAGAAGCAACCGGCTGAGGGTCATCACACTGAATGTTTGGAGAGGGAGGCTGTTAAAAGAGCAGATGACATT
1.565564725346155 TGAGACAGCTGGACACCGACGACCAGGCTCACTAGCGTTTTTGAAAGAGAAGCGTTTGCTTGCTATGTACACTAGGGGGCGATGTAGGGCAAGCCATGCGTGCTGTATCTCTACTACCCCCAGTAGCTGGCTGGGAGGTTGGTTCTTGGCTGTAATTAATTCCCTGCTGGAAACAGCTGTGCCTGCTTGTTAGCCTGGAT
1.568605736511037 CCGCATGCTGGGGCTGTGGCCCTCTTTCCTCCCTCCGCCTCCATTCTGTCAGCACGTGCTACGTATGAGCTGTCACTTTAAACTGTTACTCCCGTCATGGCCCAGCCCACACCGCCTCTCACCTGAGTGGTTACAAAGGGAGCAAGTGCCGCTTCTCTTCTCAGCTAAGCAGCAAGAAGGATCCTGCTAAGCTGCATGAG
1.64119646129615 ATGATGTGGCTACAGTGGGTTGGGACAGACTAAAGAGCACAGGAAGGTGGGGCAGAAATGAGATACCGTCTCCACTTCCTCAACTCCTATCACTCTACATTTTAATACATTATGAAATATATTCACGTATCGGCATGGCTTACAGAATAATAAGAAAGTCTGCACCTGTGCGTCCATCCGCCCACCCACAACTGAACCCA
1.4800651330649 ATTTTAAGAGAGACAATGTGAGTGAGAGGCACACGTCATTCTCAAGCAGGAGCACAGCCCCTGCCTTTTTCTAGGCCCGAGTTGGCCAGCCAGCGCACTTCCTGCCCCATGCAGCAGGCCCGTGGTCTCAGGCCCCACTCTCTGCAGCAGGAACCCAGAAGTGCCTCCCACCACATCCTCCTCCCCAGCGTGTTCAAGCC
2.866700509942922 CAGCCTGGAGTGCAGTGGTGTGATCACAGTTCACTGCAGCCTCAACTTCCTGGGCTCAAGTGGTTTTCCTGCCTCAGCCTTTCGAGTAGCTGGGACTATAGGCCTGTGCCACCAGACCTGACTAATTTTTTTTTTTTTTTTTTTTTTTGGTAGAGGCGAGGTTTCACTGTGTTGTTCAAGCTGGTCTTGAACTCCTAGGT
1.030968193564784 GTCCCTGAGCCCCCTCAGCACCCTGTGGTCTGTCTGGCTCTGACCAAACCCTGAGCCCCCTCAGCATCCTGTGGTCTGTCTGGCTGTGACCAAATTCTGTCTGGATCAGGGTGATCTGTGATTCAGTTTGTCTGCCCTGAACTGTGATGTGATCTGAGTCACACACAACACCCCCAGCCACAGAGCCCAGCTCAGCGCAG
1.401982348761352 AGGCGAGGGCTGGCCCTCCCTCCCAATCCCCCCTCCCGTGTTGTCTGACTTACAGACATAGCTACACCAGTGTCTGTCACCACACTACCCACAGGACCACCTCTCTGAGCTGTCCCCAGCCACGGAGGCCTGCTGAGTCAGACCGAGATCCCCCTCCATCCTGTCAGCCACCACTGTCTCCCCTCAACCCTCTGTCTCCC
1.724827146898655 AATGAGTCAGGGGTGAAGACTGACTTGGGGACAGCAGGCCACAGGGTAAGAGGGCATGATGGGGCTGGTGGTCAGGGTGTGGACAGTTCCAGGGTTTCAGTGTCTGTCTGCACCCAATGCTTCTAAAATCTCCCTTAGACAACTGCTATTATTCCGTCTGCTGCCACAAATAAGAAGTAGGCATCACCAGAGTGGCTGGC
1.212077272267817 CGCACCACTGAGAGCCCGCCCCTCACGGCCGCCGGCTAGAGCGCCGCTGCCACTGGCCACAGAGGAGCCGCCGCAGCTACCTAGAGCGTCGCCGGCTTCGGCCCAGAAGGCCGCCCTTAGCGCCGCCGCCCCCTGGTGGCGGGAGAAAACCGGGCCGGCTGCGCGGGCGGGACCTGGGGAGGAGAAGGCGGGACTGAGCG
1.646450430499848 CCTTCTCACTCCCTCGACTAGCTCATCACACGCATGGCTTCCAACTCCACGGCCGTCCACACGCTGAGGGCCCCCGCGTCTCCATTTCCAGTTCTCGCCTCTCCCTCGAGCTCCAGATGCGCATGTCCAGCTGCCTCCTGGACATCTTCCTTTGAATGTAGCAAGGCGGGTCCATTCCTGCGTTCGCTCCCTCCCTGATC
2.113211178307226 GGGGCCTTGAGCACCAGGCTGAGCACCGTGGGGACCATGGCAGGGTTCTGAGAGGGGCATGGTCAGGTGGGTGCTCAGAAAGATCACTCGGGCAGCCAGGGAGGGCATGGACCAGAGGGCCAAGGACCAAGGCTAGAAGACCAGTGAGGAGGTGAGAGATGGCGAGGCTGCATTTGAGGGGCTCCAGTGGTGGGGAGGAA
1.297575937135943 CCCTCCCCATGCTTAAAGCTCTCAGGGCCTCACAGAGCTGGCAGGATGCAGTCAGCAAAGACCTCAGGGGAGGGATTCCCAGCCCTCATGCTGTGGCCCGGACAGTGTTTCCAGCATCATCTTTCACTAACCACGGCCCTCCTCTGCCCACTGGAGGCTTCAGCCAGACTCCACTTCTCCCCAGACTCAGAGTACACGCC
1.825187503293141 GCCCTTCCCCCTGCTTGCGCTGGACTCTGCATGTTCTCAGGAGAAGGAAGTGAGTGAACTCCTGACCCTCCATCCTTCCTGTCTGCTGGTAACTTCCTCCGAACCCACACAGCAACTGAGAACATGGGTCTCAGGGAGACCCAGAGTACGCATGGTGAAGCGCCTGCTCTACCGCTCGTTCCCCATCCCCTTGCTTTGAC
1.070093552477867 TTGTGCGGCTGCTGTTGTGATTGCTCGGGACACGCTGAGGCCCAGATGGATGCGCGGGCGGGCGGAAGGCGGCCGCGAGGGCTGACGTCAGGCTCCCCATCCCTCCCTCCCGCCTGGATCAAATTCAGGTGACTAAGCGCGTCTGCGAGGGAGGCGGCCGGCCGGGGAGGCCCGAGGTTCCTGCCGCGTGTCCGGGAGAC
1.441180159643503 CTCCCATGCCTGGGCCGCCTCACTGGAGCTGTGTTTATGATCCTGGCGAGTATCTGGATGGCCCTGGCAACGGGTGCCCTCCGCAGCTCCCGCCCCCACCCGGGATGACTCAGTCCCCTTGAGGGAGGCCCAGGCGTCTGGTGCCAAGTCATGCTTGACGACTCCTGCTGTGAGGACGCCCGCTCCCACCATCCCTGGGG
1.325542007971569 CTCCCACACTCCTGTGCCCGCCCTGCGGACACCACCAAGGCCCGGTCCTGTGGCCTGTGACACAGCCTTCTCTGCACAGCCCTGCAACGCCAAGACTTGAGCACACCCCCTCCCCTGACAGGCACACGCCCGTGTCCGCGTGACCCGCCCTCACACACCACTCCATCCTGTCCTGCACCCCCCACGCAGACACAGGCACA
0.9700635373180151 ATCGCCGAGCTCAGCCCGCGGGCGCCGCGGCTCCGGGCAGCGCTCGCTGCCCCGCCCACCGCCGCGCCCGGCCGGCGCTCATTGGTCGGAGCGAACGGCCCCGCCAGCGCCGCCCAATCGGAGCCCGGGACTCCCGCCCCCTCCTGGACTAAGGGACCGCGGTGGGCGGCGCGGTAGGGGCCCTCCCTCCCCTGCGGCGG
1.492132899980275 CCTGCTCACAGCCTCCTTCCCCCATTTCCCCCCACACTGCTCTGCCGAGGCGCCCCCCGGGCTCATGCCCAGCTGCCCACTGCCAATGTCAGCTGGGCGGTGGGGGTGGGCACGAAGTCTCGGCACCCTGCCTGGTACACCGTGTGCTGGGCGGGAAGGCTCAGCTCTGCAAGGGTTGACAGTTGCTGTGTGTGAATATG
1.488822840521514 TGAGTTTCACAGAGACACTGCTGATGAGGCCGCTCGAGGTCTGGTAGCCCTTCTCATAGAGAAACACCCACCTGTGCGGGTGGGGACAGAGGGGGAGTTGTGGTTGTGGCACCAGCTGGACCTGTCACACGCTTTCCCACGCCCTCCCCAGATGTGCCTCTGAGCCACCATCTGCTCCTAAAGCTCCTGTCTTGGGCTAG
1.102087860006744 TTCTCTTGAGACGTCGGAAGCTCTGGCTGTGCCAGGTGTTACGTGCTGCGGCAACAATGGGCAGAAGCTGAGCAGGGGCCGCCCCAGGCGTGAGGCCTGCCGGGGTGACGACATCTGTCACCCGTGCTCACTGCCTCTGCCTTGGGTCCCGCCCCGTCCCCCCTTCCCATCCCTGCGGCCTCTTCACAGCTGTCCTGCCT
1.519915594525093 AGACCAAGTCCAGGCTGGGTCAGGGGTTCGGTTTGCCGCTGTGGGTTCCTGGCTGAGAGGTCAGTGCAGTACTGAGCAGTGGCCAGACGAGGGCGCAAGAGACAGCAGGCACCACAGCCTGAGCAGGAGCTGGAAGCCTGGGCCTGCAGCCCTGGGGGTTGCTGGTGATGACGGACTCTGCCTTCCTTCCACCCTCTGCT
1.449968703830001 AGAGCAGCTCTTGGCCCCTGGAAGGCAACAGACTGCAGGCCAGCCTCGCCCATGGACAAATAAATTCCCAAAGATAGATGGGGCGGGGCTGGTGGGGCCACCCAGGCCCAGCCCCACTGCCCCTCCTGGCTCTGCGTGGGCCTTGTTGGGCCTCCGGAAACAGGAGTTGTTGGCAGGAAACCACAGGCCACCCGTCACAG
1.439764357271211 CAGTGCAAGACCCTGCGGACACCTTGGGACCCAGCCACCAGAGCCCCTTCACACCCTCCACTTGGTGATCCGAGAACGCCTCCCCGATGTGCAGACAGAGAGGCTCTGCGCTCCACACCCACAGCGTCCACTGCAGCCCAGGAGCAGAGGCGGGCGGGGAGGCAGGCTGGAGGCGGGACGGGGCCTCCCACTCACCGTGC
1.388696516595356 TAAGTTCAACAGGCTCCCTGGCCAGCCCTTGCTCACCAGCTGGTAGAAGTTGATGTGAGGTCCCTCGGCGTCATACACAAACCACCAGGTGGCGGCAGCCACTGTGGCCAGGCCTACGTACACTGCGGGGAAGGGAGGAGACCGGCTGTAGAGAATGGCGGTGGTTTTCTGGCGTCTGTTTCCCCTGCCTAATAATTCCC
0.6764278552381743 GAACTGGCCGCAGCGCACAGGCTGATCCCCCTGCCGCCTGCGGAGCCGGGGCGGTCACCAGGAGGACCTCGGCTCCGCCCCCGAGAGGGGTCCGCCTCTTGGCCCCGCCCCTAGGAGGGGGCTCCGCCTCTTGGCCCCGCCCCCAGAAGGGCTCCGCCTCCTGGCCCCGCCCCGGGAGAGGCTCCGCCTCCTGGCCCGCC
1.797113145139479 TTGTGGTTTCCAACAATAACGACCTTGCAGGTGCACAGACTCCTGGGGTGGGGAGAACACATGTCTCTGGGGTGTCCCTTCTGCCCTCAGGCCTGACCCACCCTGCCACCCAGCTTGTGGCCAGGAGCCCGCCCCAGCCTCTTCTGCGACAAGGAAGGATGACTTGGTGTCTGTGACCTCACTAAAGACTCACAAACAAC
1.472220973062999 CGAGGCCATGTCCGTGCTGGGACCTTACCCGACGGCAGTGGCGGCGGCGGCCCCGGCCCGCGCCAGGATGCTGCGCCCGGGACTCCCTCCCCGGGGCGGGGCGGCGCGGGGCCCGCCCCCCATCACACCCCTTCCGGCCGCCCTCCGCGCCCCGGGGCGCACCGCCTGGGTCCCCCGCCCATTCTGCAGAGGGGAAACTG
1.233991725465483 CGCTCCCGAGCTCCACCCGCCCCAGGAGGGCCAGGAGAAGTGGCAGCGGGTCAGAGGAGGAAGTCGCAGGAAGGCAGAAACCACTCGCCCCGCCAAAAGGAGGAGCTAAGAGAACAGCCTGATTGCCGCTCCCTCCAGCTTGAGAGACCCAGACAGCCTCACCCCAGCCCTTATCTGCCTCCCACCACGAGCTGGGCTCT
1.545242766983361 GGGGCTGGGAAAGGGCCCGTGGCCTCAGCAGACAAGTCCCTCCTGGGTGGCTGGGAGATTCTTAAGGGAAATGCCATTTGATCTGTATTCTTAGAAACAGGAAGTAGCAGCTTCCTGTAAGCAAACTGACCTCATCCCCAAGCCCTGGGATGGCCCCTGGGTCCAACCACTTCCAAAGGGATGTGGCTACCTCTCACTCA
1.466664418898446 AGCACCCAGTCCTGCTGAGTCTCAGGTTTCTCTCTGGGCTGAGGGATAGTGAGGGCTGAGGCTGGGTCCAGACCCTGCCTGGGGCTCCCCCGAAAGCAGTCTGGGGCTTTGGGGGATGTGTCAGACTCTGTCGGGCTGGAACAAATGGGCCTCAAAGGTTGGTTAAGTGCAGCCCCTGCCAAGAAGGCACGCTTCTGTAA
1.471677196063922 CCGCTTTACTCGGAGTCTGGGGTGTGGAGGGGCGTGGGTGGCGCTATCTCGTCTACCTTCCAGGTTGGCTGTGAGTCTGAGCACGCAGCGGGGCCTCCCTCCCAAGCACTAAGACTTGTTTCCTGTGAGTCCCCTCTTGGGAAACTCCTTACTGGGAGGCCTCCTCGGGTCTGAGGGATGAAGAAGGTGGGGCCTTCTCT
1.643417047936607 TTGTGCAGGAGGGCGGCGCTCTTGCTACGGCGCTGCTTGGCATAGCTCTGCTGCAGTTCGCTCTCTGTGCTGGAGATCAGCTTCTGGGTCACAGGGTTCGATTCAGCAGTGGCTTGGTCACAGCGTGCAGGCCGGGACTGCAAACCCAAGACCACCATTACAGAGGTCTAGCCTTCTTACAGTGGTGGTATGGGGTGGGG
1.710681955686403 CAGGTGGACGACTCTGGCCGAAACTCGGTGGCCCTTCTCTCTCTCTAAAGCTCCCTGAGTTTTAGCAAGAGCCACAGTCACCCAGCTAGAGACATGGTTAGCAGCTAGATGTGCTGATGCCCCTGGGTTCTGGGCAGTGCAGGTGAGCGAGGTGGTGTGCCACCTCTGGAGTCTACTGGACTAATGGTGCACTCCCTTCT
1.499565788122166 CCCAAGACACGGCAACATCGGGCAGCCCACAGGCAGTGACAGTGAATTTGTAGCCCCATTCGTTGTGACTGCTGTCAGAGTGAAAGAGGAACTGCAACCGAGGACCGGCCTTGAAGGTCACTTTCTAGAGACAAACAGAAATCATGTGGTCAGACAGATTAGAGGAGGAGTGCTTCAGAAATCAGCATGCTCTTCATGAC
-0.9922422669754939 AGCTGCAGCCCTTCAGGGAGCCCACACGTAGGGGATCCCTGAGCCAGGGCTCTGACACTCTCTCTGGGGCTCTGTGGTTCCTGGCATCTCCAAGCTTCCAGGCTCCACTGCATCCCCCCTCATCCAGATGTGGTGACCAGCAGTGGAAGCCACATGCAGTACATCTGGTCCAGCCACAGCTTCACACGGAGCTGGCACCT
-0.7296659952218322 GTGGAACTGACGTGGAGCTGGAGAGGAGACTCCAGGCAGACACAGTTCAGAGAAAGGTGCCAGGAGAGGGAAGTGGAGTCGGATCCATCCATCCCCTGTCCATCCTAAGGTGGCAGGACCCCATGGCACAGCAGGCCTTTGTCTGAGGTCCCAAGGTCCGGGGGGATCTAGTGGCCTAGCATCCTGGGGATCTGGGTGCA
-0.1256500192016308 GGGACTACAGGTGCGTGCCACCACACCCAGCTAAATTTTGTATTTTTAGTAGAGATGGGCTTCACCATGTTGGCCAGGACAGTCTTGATCTCTTGACCTCATGATCCCCCTGCCTTGGCCTCCCAAAGTGCTGGGATTGCAGGCGTGAGCCACCGCACCCAGCCCTACATAGTACTATTACAAAGCATCAAACTCTTCCT
-0.7403178440879813 CTCCCAAGCGGTCTGCTCACTTCTAGACACTGGACCGAGCAGACCCAATGGCCCTGATCATGTTCACCGGCGACTGGTGGGGAATTTCTAGAGGACGTCTGTTGAGGGCAACCTCCGTGCTCCCTGATCACGCCCTTGTCCTGCACAGCCAGGTGTCACTGCTACTCGGGCCCCCCTACATCTCTGGGGCCACAGATGTG
-0.7439837232058114 CCCTACAGCCTCCCTCATCTCCGCCTCCCTTTAGCTCAGGCCGGGGACACAAATCCCTCTACACGACTGCGGGAAGTTTTCAAGGACTTAAAAATAAATGCGCAGGCTTAAGTTGCGAAACTCAGCCCCACAGAGTGCCACGGGGAAGCAGCTTTCTAGCCCAGCCAAGATAAGGCGACAGTCCCCAGAGAGACCGCGCC
-0.8850789078083454 CAGAGGGTGCGCAGGGTCCGCGGGCCACGCTGGAATTCTCTCTGGGCCTCAGCCGCCTCCCCATGGGGCAGGGCTCGGGACCTGCAGCCCGCCATGCCCGAACCCGCCCCCCCCACCCCCAGTGGGCTCCGCGCAGCCCTAGCCTCCCCAAGGAGCGCCACCCCTTGCTCCGCGGTGCTCAGTCCCATCGACTGCCCAAG
-0.5570958725985311 TCCAGGCACTGGCTGGAATTCCATGGAGCTGTGATCACAGTTAACGGTGATGTATTGTTGTTGAGTTCGTTCCACTGGGAAGCGAATAAGCTTGTCTACCCTGGAATGAATCTGAGAAGCCTGTGCCACTGAAGCAGCTAATTCTATTTCACTTCATCAAGCTCACCTTTGCTTAAATATCTTTTCCAAATGGAGGCTTC
-0.5111414248752695 CTGAGAGGAGATGGGGGGAGGACACAGATTCTGGACTGAAGGAGGTGGAAGCCGGGGACCCTACATAGGGTTGCCGAACACCAGGACTCGTTTCTGGCCCTGAGCAGCTACTGGGGGAAGCAGTGAGATAAATAGGCATGGAGTGGTCCACTCTTGCCATGAACTTTCAGAATCCCAGCTGCAGGAGACCTCACGATGCC
-0.7257660878297343 TGGGCACGGCCCTGCATCTTCCCTCCTCCTGGGCCCCCTGATCCAGACCAGGTCTCCTTTCTGGGCTGCCACCGGCTTCCTGCCTACCCACTCCCCTGGGCCTCAGACTTTAGTTCCAGCACGATCCAAGAGTCAGGACTCTACTTGGTTGCAAATGACAGAAGTCACTTCAGAGTACCTCAAGCAAAGATGAGAATTTA
-0.4155658407828058 TGGGCCACATGACTGAATGATGACTAGGGGAGTGTATGTAGAAGTGGTGTGTGTCAATGCTAGGCTAGGTGGTTAACTGACAAGTGCCAAACCTCCCCCCTCTATTGGTTGGATTATGCCAGAGCAACTCTGCCATCCCTGAATGGTGGAGCCAATACGATGGAAGCTGCCTGCATCCCCATCCCCAAGTTGTGGCTTAG
-0.8685972102359127 CCCCTCTTTGCTTAGTATGTTGCCAAATCTGCCACCCTATTTGTTCCCTGGGTCCCCTGGAGCCTCTGCCTTCCCACCCCATCCAGCTTGGATCTCTGCAGAGGCTGGCCTGGCTGTTGTCTGGGGGCACTGTAGGGGTGGCTGCTTCCCTTACCCTGAGGGTCTCTGGGTCTTCTGCTCACAGCCTCAAGGAGCAGAAG
-0.1516303975119381 GGAGCTGTCTCTGCTCAGTGCAACCTCTGCCTGGGTTCAAGCAGTTCTCTGCCTCAGCTTCCCAAGTAGCTGGGATTACAGGCGCCTGCCACCATGCCCGGGTAATTTTTGTATTTTTAGTAGAGACAGGGTTTTACCATCTTGACCAGGCTGGTCTTGAACTCCTTACCTCGTGATCCACCTGCCTTGGCCTCCAAAAG
-0.6308999699467008 CAGCTCCAGCCTCTCTGGCCTTTTCTCTCATTGTAGGACAAGCCTGGCTTGCTCTGCCCAAAACTTGCAGTGCACGAGGGCTGCTGGCCCCTCTTCTTCCTCCAGGCTCAGCCCCAAAGTCACCTCCCCCAGACCAGCCCTTCCTCTCCCTTTGCAGCAACAACGACCTCTCCCTTTATTACCTGCTTTTCCCCACTGGA
-0.6057503345476469 GTAGCTGCTTAGGACTTAGGGGGATTATGGGACCCAGTGCAATTTTCCTCAGTGGAGTGGTGCTGTTGCACCATTTCCAGACAGATCCTTATGTTAGTTTCAGAGCCCATGAGGTCCTAGGGGCTCCCCAATGGCTAGAATTGCAGGAGTCCACAGTGGGAATGTGGACCACAGGGAGTCTCCCACTTACTGTTTCCCCG
-0.1724656675182575 GAGGGCGGATCACAAGGTCAGTAGTTGAAGACCAGCCTGGCCAATATGGTGAAACCCTGTTGCTACTAAAAATACAAAAATTAGCCGGGCATGGTGGCACACGCTTGTAGTCCCAGCTACTTGGGAGGCTAAGGCAGAAGAATCTCTTCAACCTGGGAGGCGGAGGTTGCAGAGAGCTGAGATCACGCCACTGCACTCCA
-0.4091930437234242 TTTAGATCCTTGAGGAATCGCCACACTGTCTTCCACAGAAAACCAAACACCGCATGTTCTCACTCGTAAGTGGGAGTTGAACAGTGAGAACACATGGACACAGGGAGGGGAACATCACACACCAGGGCCTGTCGGGGAGTGGGGGGCAAGGGGAGGGAGAGCATTAGGACAAATACCTAATGCATGTGGAGCTTAGAACC
-0.8675415224113184 TGTCCCCATGGGTGTCCAGGGCAGTGGGAGAGGTCATGGAGGACCCTGTCTCAGCTGGGCCACCTGGGGACTCTTTCAGCTACAGAACTGTGGTGAGACCCACATACAAGGTGATGTACAAGATAGTGACCGCCCGTGAGTGGAGGTGCTGCCCTGGGCACTCAGGAGTGAGCTGCGAGGAAGGTAGGACTGCCCGGCCG
-1.033350342736532 CTGGGCATCGTCGACGGCCTGGCTGCCGCAAACGTCACAGGCTCGGAGTAGTGACCAGCCTAGAATCAGGCGGCGAGCTCCGCAAGGAGTCTGGGAGTGAGGCCTTCTGGGTTGCCATGGGAGCGACGTCGCGGCCGCGGTTGCGTGGGGAGACGGGCATCATGGGAAATGTAGTTTTCAGGAGTCCTTTTACATCTCAT
-0.7375780842554256 CCTGCTGCACCTCTGACCGCATTTCCCACCCCGGGATCCCCGTGGTCCAGCACATTACAAACACTCCTGCCTCAGGGACTGCAGTGGCTGTTCCTTCCGCTGGGATGCTTTCCCCCCAGATGTCCTCATGGCTTCCTCCGTCCTCTCCTCCAGGTCTTGACACAAACAACCCCAGCTCCGTGAGGGCTCCCTAGAGCACC
-0.6670842962509017 AGGGCCTCGTGGGGAGCCTGGAGGTTTCTGTAGGTGGGAGAGGTGTTGGCTGGTATAGTTGGCCTCATCCAGCTGCTGGTGAGGGGAACAGTCTACGGGAGATGGACAGGAAACAAGGAGACCACCAAGGAGACTGCAGCAACGGTCCAGGTGGAGGGGTGGGGCTCAGACCCGGGAGGCCACGGAAATGCAGATGAGTA
-0.4476591879759498 TTTAAATGACCAGATCTGGCAAGAACTCACTCACTATCATGAAGGAAGCACCAGACCATGAGGGATCCGCCCCCATGATCCAAATAACTCTCACCAGGCTCCATCTCCAGCATTGGGGATTATAATTCAACACGATATTTGAGCAAGGACAAATATCCAGACTATATCCCAGTCCATGCAGGCACTGATGCTATACTCTC
-0.6422628935979844 TGGAGAAAGCCCACGTGTCAGAAGTGCTGGGAGTAGACAGCTTTCTTCTACTGCCCCCAAGCAAGCCTGTGTCTCCCCTTGGGCTCCTTTGTGTGTGCACAACACCCAGGTTTACCCAACCCCGCTGTGAACCCACCTGCCCTCCCCCTACACACGAGGTGGGTACCCCTGCACACTCCGGGGATGCCGGTGGACGTGGC
-1.036566077327155 GTGTGGATTAGGGGGTTTCCCACACAGAGAAGCAACTGAATCGCGATGTGTGTGTCTGCGCTGGGGAAGGAGACTCATTATCTGGAGCTCGGCACATGCAAATTCAGCACAAGCTACAGATGCCTGCACAGCGCTACCGGCAGAGTTCCCACGGAAAATCACTTCCCTGTCCGCCTCTCCCACGACGCGTTAACATTCCA
-0.6827195389521881 CCCTAAAGCTGTCCAGTGATGGACAGCCATCCAGCCTCTCTCGAGTTAGCTCCCTGTCACAGGCATGGGCTGGATGGTCCCTTCCCAGGGATTCAGTGGAGGAACAGTTTTAGGGCTGAAAGTGGTCTGGCATGACAAGGCTGTATGTTTGAGGGCAGGAAAGATGGCAAGAGTTAAAGTAGCTGTGGTTTCTTCATCAA
-0.5353070691775139 ATTTCCAGTTTGAGATACCTTAGCACATCTCCCAGCCCCTCCCCCCCACCAGGGTCCTGATGCCCCATCTATGGAAGCTGGACTTTCCCTACAAGTGCCCAGAGCCCTGGGAGCAAGAGTGAGCTTTGGAGGGGACAGGGTAGGGAACCCCAGGGCTCCCCCCAGGGTTCTGGACAAAGAAGAAGAAAGTCCTGGAGTCC
-0.7226723459673028 CTTTCCCACTGGATCTGCCTTCCTTCCTCCCTCCTGCACCTCCTATTTGCTACCCCTTGCGTTTGTGTAATGCTTTTTTCTTGTTTCCTATCATCCCTCTCCCACCCCTCTATTTCCCTCTTTCCTGGGTCTAGCTTTCGTGTGGCTGATTTGGAGGAGTGGGTTGTAGGAGGCACAGAGCTAGGGAGGGTCATCCGAGC
-0.3761040509938614 AGAGAGAAAGGAGGAGAGTGGGGAGAGAGAAGAAGAGACAGAGAGAGATTGGGAGAGGGGAGAGAAATGGAGAATGGGAGAGAGAGGCGAAAGGAGGGAGAGGCAAGGAGGAAGATGGAGAGGAAGGGAGAAAAGGAAGGAGGAAGGGGTGAACGGAAAACAGAGAATTGAGAATTTAGAAGGAGAAAGAGAAGAAGAAG
-0.6833042741243868 TGTGAAAATGCTCCCTGGGGCCGGAGAGCCTAGAAGATTGTAAGCATGCAGGCTGTGCAGACGCACAGGCCCCGAGGCGGTGCCATGGGCCAAACCCCTTGCCCTCCGAGGGGTGAAAAGCCCTCTCTGGGGAAGCCTCTTCACATCATTCAACCCAGGGCAGGTGCCAGGGGACCCACCCCTCTGAGGACCAAGACCGT
-0.9136408295543709 CTATTACCCCTGCACCACCGGTCCAGCCACACTGTCCTCCAGGCTGCTCTTTGAACATGCCAGCACAGTTCCATCTCAGGGCCTTTGCACTAGCAGCTCCCTCTGCCAGGAACTCTCTTCCCCGAGATGTCTGTGAAGCCCTCCCCTCTCTGCTCGGCTTGCACTCATTCAAGTAGATTTCCCATCCCAAAGACCTCCCA
-0.5489075337292842 ACCACAGAGAACGAAGAAAAGCAGGGTGGGGCGACGGCCCACCCAGGAGCAGCACAGAGGCAAAGGAACCTCCATCCCAAGCCAAGGGAAGCAGTGAGTGATTGTGCAACCCCACCCAGGAAACCATGCTTCTCCCATGGATCTTTGCAACCTGTGGATCAGGAGATCCCCTCGTGAGACCATGTCACCAGGGCCTTGGG
-0.8995793743714817 ATGAAACAGTCAGGGTTGTATTTTAGAAAGATCACTGTGGCTGGTGTGGAAAGAGGGTTGGGGGGGTACCAGGAGAGTGGTGGCTGTGCTGGGTGGAGGCTCTGCGGCCATCCAGGAGAGTAATTCCAGAGGGCAGGCAGCCCGGCAGGAGACACCAGGGGAAAGCAGCTAGAGTTCCTGCTGTTTTGTGTGTAGTGCAT
-0.7665456517421142 ATTGCTCAAGTCCCCTGGGCCTTCAGACTGGCGGGTGACTTCAAGGGACCAACCATCCTGGGCCTCTCCTGGGACAAACACTTGCCTTCACCCACTATCGATGTCTTGCTCAGCCCTCAGAGGAGCGTGGTTGGCGTGGATTACTTCATGCCTTGATTCTGCCTTCCCGGAAACCACGGTGGCAGCAGGCTTGGATGTCA
-0.8423813170857914 AAGTGTCAGCTTTTTTTGCAATTTCACACACAGTCTTGTTTTCTGAACATGAAGCTCGTGTGTGTGTATGTTGGCCAGACGCATAACATGTGTGGACCTGCCAGGACAGTGTGTACTTGAGCAGTCTGAGTTCTCAGAGATGCCCTGGCTGTTGCCGGGACCCCACTGCTCCCAAAGCTGAAACTGAGCTGTGCTGGGTG
-1.019091233175369 CGCAGCCGCGACTGCCAACACTGCTGCCCAGCTCATCCGGGTTTTTCCCCGGCCGCGGCCAATCAGTGCATCGGGCTCCAAACACAAGGCCCTCTCTCCCCGGCCTCAGGGTCCGGCTTCCTTCCAGGCTGCCTTCAGCAGTGCCTGACAAACTGCCTAAGGAAACCTTGCCACGCAGACATTCGTTTCCTCTGGCTTAC
-0.6769574877460743 CAGCGTCACTGCTGTGCAAAGCAGCTGATCATGCTGTGCACAAAAACGTGTAATTATGCCGAGGAGGCACTTGGTGTCTCAGCCCCAACGTCAGATGTTAGAGACCTGCTGGAGGGATTGTGACTGGCAGTTACTGGGTTTCTAACTTTAGAGGTGAAGACTCCATTTGCTTTCCCAAGTTTGAAAAGTATTTTTTTTTG
-0.5842372417602212 AGCAGATGGCACCATCGTCCCTTCAATGACGTTGCTAGCGTGTCCAGAAGGCCATCCAAGCAAGATCTCACACTGAAGAGGCGCCACCCACCGTGAATCAACAAATAGACAAACACCACAATGAGCAACCTCCTTCAACCACAGAAGCACAGGCCCTTCTCCAAACTCAGCTTCCCCTCCTAGGGGCCCTCCATGGCTGG
-0.5992796266776533 TGAGTAGCCTTGAGTAGCCACCGAGCTGCAGCAAAGTGAACACATAGCTGATCCCTGAGACCAAGTGGGAGGGGGGTGGGTGTGCTATTGTCACTCGGCTCCAAATCCACTTGTCTATACTCTGCTTCCTAATGCTGGGGCTGTGATTCTGCAAAAACATGTTTCTCTTTTGCCTGCTAGTTTTCTGTTAGGTCTGCTGA
-0.2612169168260445 CCAGGCGGGGTAGTGGGTGCCTGTAATCCCAGCTACTCAGGAGGCCGAGGCAGGAGAATTACTTGAACCCGGAAGGCGGAGGTTGGAGTGAACTGAGATTGCACCACTGCACTCCAGCCTGGGTGACAGAACTAGACTCTGTCTTTAAAAAAAAAAACAACAAAAATATTTGTACTGATAAAGTGACTATGAAAGGGACA
-0.7271082199702209 GACCGGGTGGGCGGCCGGCTGTGCAGGATGGTCGCCTGGACCTTCCCAGGGTGGACCGGGTGGGCGGCCGGCTGTGCGGGACGGTTGCCTGGACCTTCCCCCGGTGGACAGGGTGGGCGGCCGGCTGTGCGGGACGGTTGCCTGGACCTTCCCCTGGTGGACGGGGTGGGCGGCCGGCTGTGCGGGATGGTCGCCTGGAC
-0.8525403862257673 ATGAGATTTGGGTGGGGACACAGCAAAACCATATCAGCAGGCCGGGCAGCTCTGCTGATCTTGCCTGGGCTCATTTATGTGTCTCAGTCAGCAGGCTGATGGCTGATCTGGGATGGCCTCCACTGGGTTGATGAGGGCAGCTTAGCTGTGCTGCACAAGCCTTCATCCCCCAGCAGGTAAGCCTGAGTGTGTCCTCATGG
-0.4366228164920582 CATTATCTCACATCACAAAAAGTGGGAGGTAAGTGGTTACAGGTTTGGTACAGCAACTCACTGACACAAATTCTTTCCATTTTCCTCTCCACCATCCCTTATGTGTGGGCCTTTCATGCTCCCACTGTCATCTCATATTGCAAGATGGCTGCCACAGCTCCAGCCATTAAATCCACATTCAAGACAGGAATAAGTGGAGG
-0.6205556408226706 GTGCACACACACCCCACACTGAGCACACACGTGCACACACACACCCCATACCAAGCACATGCACACACACCCCCCACACTGAGCACACACGTGCACACATATGCCCCACACCGAGCACACATGTGTACACACCCCACACCGAACACACGTGCACACACACCCCACACCGAGCACACACACTTGCACACATATACACCCCA
-0.6815585778788632 AGGGATAGGATGTAAGAGCCAGACTGCAAAGGGGTGTGTGTGCTGTGTTGAGATCTGTATTTAGCTTGTAGGCAGTGGTGATGCAGGGTTTTAAGTAGAGGAGGGGGTGCTGGTGGTGGCTGTGGTGGAGATATAACATGGGGAGTGTTATGGAGTAGCTTTTGGTAAAATGAAGAGCCAGAATCCAGTGGGTGGAAGTG
-0.6848653532189488 TGTTTCTTTATCACTAATGGCTCAAACTTTCATGAAACTGTGGTGCTGTGTGTTGGGTTAGAGCTTCCTAGTCAGCTGCATGTCAAAGACTCGAAATCATGTATGGAATCATAAGCTATGAAGTGACAAAAACTAGCGAAGAGAGAGCAAGCATTTCAGTCATTACCACAGGGAGATTTTTATCAACCATTCTGTCTGAG
-0.4156113255572272 ATTCTCACAGATGCAATTTTTATTTAGCCTTTCCAGAGCCCATTTAGGTTGGCATTTGAGTAATGAATCAGAGGAATGTTCTGCCCAGTATGGGAAGGCAGGTCAGAAACCTTTCTAAAATGCAAATCTGATTGTGTCTCTCCCTTGCTTAAAACCTTTCATTACAGGCCGGATAAAGGACACATTTCCTGGCATGGAAT
-0.3971383457003578 ATCTCAGCAGATGCAGAAAAGGCCTTCAATAAAAGTCAACATCCCTTCAGGTTAAAAACTCTCAATTAACTAGGTGTTCATGGGACATACCTCAAAATAATAAGAGCCATTTATGACAAACCCACAGACAATATCATGCTGAATGGGCAAAAGCTGGAAGCATTCCCCTTGAAAACTGGCACAAGACAAGGATGCCCTCT
-0.6420799823177201 CTCCCAACCTCAGGTGATCCACCTATCTTGGCCTCCCGAAGTGCTGGGATTACAGGCGTGAGCCACCATGCCCGGCCCACGCTCACTTTTTTTTTTTTTTTTTTTTTGAGATGGAGTCTCGCCCTGTCACCCAGGCTGGAGTACAATGGCGTGATCTCAGCTCACTGCAACCTCTGCCTCCTGGGTTTAAGCGATTCTCC
-0.6178962581465132 CTGACAAGCACATTACTTGAGAGCCAGAAATCCTAACCAGGAATCCACTGCCTATCTCTGTGTCTATCCTTTGTCTACCCTTCCCACCGGCCATCACACACTTTTCCTTCCTTCCTCTCTGTCTCTCTCCCCACATCTTTTCTTTTCTTCCTTCCTCCCTCCCTCCTGCTATCCTTCTTCCCTCTATTCTGCTCTACTCC
-0.7371510405335191 AGGTCTGCCCTGGAAGATGCCTAATGAGCCCTGGTGGCCAAAGCCTCAGCATGGAATGCATTGGCCAGTGAGGAGTGTATAGCCTTCAAAGGACCACTTGGAGGCTGCCATAGCTTCCTAGAAGACCAATGACTCAGATCTCCAAAGACTCAGCAGTCACTCAGCCAGAGGGAATGGGCCAAAGCAACTCCTGGCACTCA
-0.4692515624506998 GGTGTGGCATGGGGTGTGGCATGGTGGGGGGTGTGGCATGGGGGTGAGGTGTGGCATGGTGGAGGGTGTGGCATGGGGGTGAGGTGTGGCATGGTGGGGGGTGTGGCATGGGGGTGAGGTGTGGCATGGTGGGGGTGTGGTGTGACATAATGGGGGTGTGGCATGGGGTGTGATGTGGCTTGGTGGGGGGTGTGGTGCAG
-0.4477929329756734 CCGGATGGGGCGGCTGGCCGGGCAGAGGGGCTCCTCTCTTCCCAGTAGGGGCGGCCGGGCAGAGGCGCCCCTCACCTCCCGGATGGGGCGGCTGGCCGGGCGGGGGGCTGACCCCCCCACATCCTTCCCGGACGGGGCGGCTGGCCAGGTGGGGGGATGACCCCCCCACCTCCCTCCCGGATGGGGCGGCTGGCCGGGCG
-0.6069078660281618 CGCAAGGCTGAAGCAGGAGAATGGCGTGAACCTGGGAGGCGGAACTTGCAGTGAGCTGAGATTGCGCCACTGCACTCCAGCCTGGGCGACAGAGAGAGACTCCGTCTCAAAAAAAAAAAAAAAAAAATGACTGGAGGCAGTTCCTAGTCACTTCTACATCACCAGATCCAGACCTTGGACTTTAATGGAATATCTAGAAA
-0.8465753439743502 CGGCAGGCCCCGGCCCGCGGTGGCGACCCTCCCCCGCCGCTAAACCCCAGCCCCAGGGCCTTTCCCCTTCCCCCAACCCGCCCCTTCCCCTCCGCTCCTCTTCCCTAACCTTCTCTCAGCCCGAAATCCCTTTCGGGCCCCTGGTCTCAACCCTTCTCCTCTCCATCTTCCTCCCTGGAATCCTCTCCCCGACCCTCCCC
-0.6276199823677705 CCCAATGGAGGCCTGCAACTAAGCCATCCATAAAAAGCAAGCTATCTCCTCTACCTGGAACATTGTCACTTCCAGTTTGTCATCTATACATCCAAGTTTCCTTGAATGCCTACTAGATTCCAAGCACTGCAGTGGTTAACAGGTAGGTACACTTTAAAGGACATATTCAGGCTGGCTGCCAGCTCCCAGAGTTCAGCAGC
-0.9014509011512418 CGGCATCTGAGTCAGAGCTCTTGGTGGGGTTGGCCCTCCCTCTCTGTGGCAACCATTACCAGCTCTCCTGTCCGTCCTGCTGATCTTCACAAACAGGCTCCTGCCTCCTGCGGTCTTGCCTCGGTGGCTCACTGACTCCAGCCCTGGGGGTTCTGAGCCCAGGGACCACCTGGAAGCGCTGCCCCAGTAGTCAGTCCTTC
-0.8962501244118726 GAGCCACCGTGCCCGGCCGCTGCCATCTCTTTATAGGGAAATCCAGCTAGGTGGGCTGGGCTAGGCTGTCCCTACCCCCCATCTCAGCTGCCTCTCAGAGTGAGCCAATGCATGCACTCACTCTCAGTACTGAACACTGCGGCTGCCCCAGGCCAGGCTCAGGGGCCAGAGGACATGGAGGTGAATCTGACCCACCCAGG
-0.4066445569166285 CAGGCATGTGCCACCACACCCAGCTAATTTTTGTATTTTTAGTAGAGATGGGATTTCACCATGTTGGCCTGTCCGGTCTCAAACCCCTGAGCTCAAGTGATCTGCCTGCATTGGCCTCCCAAAGTTCTGGGGTTACAGCGTGAGCTACCGCACCCAGCCAAGGGACTCATACTTAAAGGACTTTGGTCTTGCTCATTGAG
-1.029977011818137 GCACATTCACACGCAATCACACCCACACATGCTCTCACATGCAAACACAGGCTACAGCCCACACACTCACGCTCACACACACACCAGTGCACACACACACACACACCTGCTGAAGAGTTTGCGACAGGGCTGACTCTGTTCTTCCTGACAACTGGCAGTGACCGGCCCTTACTCTCTGTCCGCTCCTGACCCACGTGTCT
-0.7925843859652857 AGAAGTGATGCTGGCCCTGAGTAATTTCAGAAGAAGTGGGTAGAGAGGAGGGTGTGGGTATCTGGAGGCCTGAATTTCAACCCTGCTCCCCCAGACTTGCTGTATGGCCTCAGGGCAGTCACTGTCCACTCTGGGCCTCAGGGTCTACGTCTTCAATGAGGGCATCTGAGACAATACCCTCTGGGTCCTCTCTGGTTTGG
-0.4991465806134212 TAGAAGGGGTAGAAAGTGCGTGATGATGTGTGTCTGTACAGTGGGTAGAAAGTGCGTGATGACATGTCTGTAGAATGGGTGGAAAGTGCGTGATGACGTGTGTCTGTAGAACGGGTGGAAAGTGTGTGATGACGTGTGTCTGTAGAACGGGTGGAAAGTGCGTGATGACGTGTGTCTGTAGAACGGGTAGAAAGTGTGTG
-0.4947766251832468 GTTCTGCAAGCTGTACAAGAAGCATGGCACCAGCATCTGCTTCTGGTGAGAGTCTCAGGCTGCTTCCACTCATGTTGGAACGCAAAGGAGAGCCCACATGTGCAGAGAAGCCATGGCAAGAGAGGAAGCAAAACAGGGGGAGCGCAGGGAGGTGCCAGGTTTTTTTAGCAATCAGTTCTCAAGGGGACTTACAGAGTGAG
-0.1559209316792026 TCAGGTGCAGCGGCTCATGCCTCTAATCCCAGTCCTTTGGGAGGCTGAGTTGGGAGGTTCGCTTGAGGCCAGGAATTTGAGACTAGCCTGGGCAACATAGTGAGACCCCATTTCTACAGAAAAAATTTTAAAAGTTAGCTGTGTGTGATAACATGTGCCTATGGCCCCAGCTACTCAGGAGGCTGAGGCAGGAGGATCGC
-0.891698075167226 AAAAATGCAAGGGTATCATCGCCGCAGTAAAAGGAGTCAGGCTCTGAGGTCGGAGCGCCCGGTGTGACTTGAGACAGCTTCAGCAGCAGTTCTGGGCCCCAGGACTCTCAGCTCCTCCTCAAGGTTAATAATTCCTGCCTCAGAGGACTAAAAGGAACAAAAGTGTAGCATCCCTAGGACAGAGTCTGGCCCAAGCAGGT
-0.9743781002866588 TCCCGAGAGGCGCTGGGGCGTAATGGGTTCCATCTGTGGACGGGTGCCTGCAATAGGCCGCGGCCCAGCTGGAGCCGGAGGGGGGCGCGGGGAGCGCGGGGGGAGCGCAGGGGGCGTTCAGGGGGACACGGGGGGAGCGGGGAGCGCAGGGGGCGCGGGGGCGCGGGGGCACGGGGGGAGCGCATGGGGGGGGCGGGGGA
-0.03169595873712813 GACACAGTAGGTGCTCAGTAAATTTTTTTTTTTTTGAGACCCAGTCTTGCTCTGTCGCCCAGGCTGGAGTGCAGCGGCAGTCTCGGCTAACTGCAAGCTCCGCCTCCCGAGTTCACGCCATTCTCCTGCCTCAGCCTCCCAAGTAGCTGGGACTACAAGTGCCCACCCCCACGCCCTGCTAATTTTTTTGTATTTTTAGT
-1.010598283307975 GGCCACCGCAGCTGTGGATGAGCCATGGCTCTGTCATCCATGGCACCAAGCCAGTGCCCAGCTCAGGACCCAGCCATGGGGATGGTGCACACTCAGCCGGGTGGGCGCCATGTTGCCGCAGAGACAGGAGAGGCCACCCCCATGGGTGTGGATGTGGAGGCAGAGGCTCTGCCAGGTGAAGGGACATGTGTGGAGCATTC
-0.4203835805021203 CAGTGGTCATCTTGCAAACCACTGCTGTATGCAAGGCTGACAGTTGGAATAGGGCATAGATGGGTAAATGGAAAGGAGGATTGAAGGGTGAGGGGTGGGTGGGCAGATGCATGGATGGATGGAGTGGTGGATGGGTCAATGGGTTGATAAATGGGTGAGTGGAAGAGTTGATGGGTGGATAATAAATACGTAGATGGGTA
-0.7579760221292617 CTACAAGAAAAACAAACCACAAAATCTTGTATGAGACATAACACTGGTAAACTGTTTGGTCCACCAGCGAAACACTGAAGATAAAGAAAGATAACGCTCAACGCTACAAAGGAAGCTAGCTGGTCACTGTGAGCACAAGTGTCCGAAAAGGTCCAGTTCTGGAGCCACAGGGAGGCCAATCAGCCCATTATACTTGGATT
-1.106705427851506 ATGTTATCCTTCTGGGATCAGCCCTTCCTCCCACCCCTGCCTACCCCGCCTCTTGGACTGACCTCTCAGAGGAACCAGTGCATTTCCTTCCAAGCTCAGCCGGAAGAGCTGGGTTTTCCATCACCTGCAACCACACAGGCCAAGCCTGCCCCCTGCGCATCTTCATCCTTTCCTGCTCCCTACGCGTCTTCATCCTTTCC
-0.8785242181182282 CAGCCCTGCCACTCCTCATGCGATGCACCAGGAGCCGGGGAAGCTGCTTTCTAGGGGATTCTAGCTAAGGCCAGAAGCATCTCCCTGAGTGGTGGTGGAGGCCTCTGTCTACTCCTCCAGGACTGCCAGGGGATAGGAGGGCACCGCTGACCTCACAGACACTCTTGGGTGAGTGAGCATCAGCTGAGCGACGCCTGGTG
-1.052742969814448 TCTTCCCTGCTCCTCCAGGCTCACTCTGAACTTTGGCCTGCAGCGCCCGTGCTTTCCCTGCCTCTCTCCTTTGCCCTGGCCGTTGCTGCCAGCTTGGTCTTCATCACTCTCTTCCTCTACTTCTCCTGTTCCTGCCCAGCTCTGCACATCCACATTCTAACCTTCTCTGTGGCCCAATCCAGGTGTGACCTCCTCCGTGA
-1.056890609838157 GCAGAGAAGGAAGGTCCCGCACAACAGCCTGGTGGTGGGTGTGGGCGTCAGGGGAGACCTGGGGCGGCCCCGGGGAGAGGCCCACGCAGAACGTGCAGAAGCCTCCTCGCCGGAGGGACAGCGGGAGGGACAGCGGGGGGACAACAGGGGGGACAGCGGGGGGGGGACAGCGGGGGTGTGACAGCGGGGGGGACAGCGGG
-1.071306949357953 TCAAGGGCCACTTGGAGAGACTTGGCTTCCAAACACAGCTGAGCACAGGCCGGGTGGCGGCCCACAGGCTCTAGTACAGTGCAGACGCACCTGGCACTCCACACCTGCAGTTTCTGTCCACAGACCCCCTGACCCGTGGCTGGCTCTGCCTGGGAAGCAGCCACTACAGCACCATCCCAGCAGGAAGGGGAGGTGCCCTC
-0.8912846450079358 GGCTGGATGAGGTCGCCCTTGCACTGCCTCATGAGCCTGTCACACGGGGCCCTGCAGTCGCGCCCGTAGGTGCAGTCGGTGCTGTGCTCGCAGCGGCGGCCCTGCAGGAAGCGGCGCACGGTGGCCTCGGGTGCCACCTGCTGCAGGTCGGCCATCTTGAAGTCGTAGGTGGCTGTGTAGCCCACGTTGGCCAGTGTGGT
-0.9183374047018857 CTTGCAGGCCAGCAGGCTTGTCCTTCTAAGGAAGTGCATGGGTTGGGCAGTGCTCTGCTGGGATCTACACCCCGTGTATGCTGGGCTACGTGCTCTGTGCCAAGCTCCCTACTGGGTCCTGGGGGCCACACAGCAGCGACCTGGGGCCAGCACTCTGTCCTCATGGGCTGGTAGTGGGAGGGGGAAGGTAAGGAAATGAG
-0.716219105931425 GGCCACCCGCAATGAGGATAGTGGGGGCAGCCAACTAAAGCTCAGGCCTGGAGCGCTTCATACTTTCCTACTGAGGCCACTACAGCTCCCTCCCACAGTCCTCTTTCCTGTAGCCACCTGTTCCTGGTTTCCCCACTTGTGTTAGGGCCTTGCAGGCCTCCCCTAGTCGCTTTCGCTCCTCATACACCCAGCAGCGGCCA
-0.5670238729958385 ACGTTTACAAACCTTGAGCTAGACACAGAGTGCTGATTGGTGCGTTTACAATCCCTGAGCTAGACATAGAGTGCTGATTGGTGCATATACAATCCTCCGGCTAGACATAAAAGTTCTCCAAGTCCCTACCCGACTCAGGAGCCCAGCTAGCTTCGCCTAGTGGATCCTGCGCCAGGGCTGCGGGTGGAGCTGCCTACCAG
-0.7518683977100287 GCCGCCCTCTCCTCAGTTCCACCCAAGCCCTCAGATACGGTGTCTCGGGGCAGCCATCTTGGTGCACCCCGAGCCAGCCCTTCCTGCGTTCTGTGTCCTCCTGGAGGATTTGTCAGGTTCCCCAGAGCTTCTAGGAGAGACGCCAAGTCCTGAACCTCAAAAGAGATGAGAGAATCACAGACCAGCGGCCCTCAAGTCCT
-0.7634169051569332 CCCGGCCTCCTGAGCCCAGCCTGGGACTGGTTTCTCCAGGTGAGGCTGACACTTCCTTTCCTCACATCTCTCTCCCAGTCCCCAGTCTCTCTGTCTAATCCCTGCCCCCCTTTCTGGGGCAGCAGGGAGAAAAGGAGGGACTCTGGCACAGGAGACAAATGCCTTCTATTCAACTTACCAGAGGCCAGAACCTTTTTCTG
-0.3963087688503318 TTTTAATGTTAAAACAACCTGCATTGCTGAGATAAACCCCACTTTATCATGACATATTATCCTGATTTTTTTGTTTTTTTGTTTTTTTTTTCTTTTATAGAGACAGAGTGTTACTCTGTTGTCCAGGCTAGAATGCAGTGTCATAATCATAGCTCACTGTATCCTTGAAGTCCTGGGCTCAAGCAGTCCTCCTGCCTCAG
-0.8011807231436667 AAGAGAAGACTCGGCCTTGGCTCTGCAGTAGACAGCACCAGAGAAGGAGGAATGCAGATGTGCAAAGCTCAAGCAGTTCAGAGCAGAGGGAGGTGGGTGTGGGTGGGTCTCTCGGAAATCTCCGTGGTGAAGGCAGCTGCGGGGACCTGAGGCAAGAGTGAGAGGGGGTGAAATTGGGGAAGGGATGGTGCTCCTGGCTT
-1.391817107449797 ACGCCTCCCACTGAGGACCCTGCCTCCCGCTCAGGGACCCGCCTCCTGCCCGAGCCCTCCCTCCCTCCCAGGTCCTGCCTCCCGTCCAGGTCCCCGCCTCCCACTCAAGGCCCCGCCTCCCACCCAGGCCCCGCCTCCCACTCAAGGCCCCGCCTCCCACCCAGGTCCCCCCCTCTAACCTGGGCCACGGCTCCCACTCA
-0.9065233388592933 CCAAATGTCTAGGGGACATTTGCAGTGTCTGGCATCATAAGGGGGAATCCTACAATGTGTCCTACAGTACGCGGGCGGCCCTGCAACAAAGACTCATCTGTACAGTGCGTCCTACAGTGCACAGGCAGTCCCGCAACAAAGACTCATCTGAGTGGATGTGAGCGGTGCTGAGGCGGAGGAGCCGGCCCCACCAGGTGCTG
-0.5032413409017334 CAGGCTACTGCCCCTCCGGGGATGGACGGTGCGAGGCCACTCCAGGGGCATGACCTGTTTTGGGCAGGCGGTGGCTGTGGGGAGAAGAGTGGGGAGGTCCCTTTCTTTTTTCTTCCTGAATAAAAAAATGCATGATGCTACATGTGCCTTGGGATTTTTCAACACAATTATCTAAAAATAGTGTGGGCCACCACAGCCTG
-0.3440332686178338 AGAATGTGTATGTTTGTTACATAGGTATACACGTGCCATGGTGGTGTGCTGCACCTATCAACCCATCATCTAGGTTTTAAGCCCTGCATGCATTAGCTATTTGTCCTAATGCTCTCACTTCCTTCTTCCCTCAACCCCTGACTGGCCCCAGTGTGTGCTGTTTCCCTCCCTGTGTCTATGTGTTCTCATTGTTCAAGCCG
-0.976419835912926 AGCGGACCCGTGCTGCAAGCTCAACTACCGAGTGCGGCACTGTCTACACCCTAAACCTGACTGCAGCGGCTTCTTTGGGTCCCATTTGGGTCCCAGCACGCCACAAGCCGGGTGGCCACTGTCAACCTGCTGGTTGTTAATCTGGTGTGGAGCTGGCCACAGCACTGTCATCAGCTCCACTGACACCATCTCTTTGCCTA
-0.6297839785038704 TGCGAGACTCCTCCATTCCCGGAGGGCTCCCCACACCTGCTGCGGCCGTGCCCCATCTCCCCGCAGCTGCGGCGCTGAGCACCCCCATGTCGAGAGGCTGAGACCAGGACAGGTGCAGGGCGTTCCCACTCACCCCCGAAAGTCCTCCTCCTTCCTCTGCGAGTCTGTGTTGGAGGTAGAGAAATAGTATGTGGGGTTTA
-1.159233690205924 CCACCAGGAGCGCCTACTTCGTGCCGGGCCCTGAGTCCCGGGCTGCCACTTCCCTTCCCCTGAGAGCCACAAGAGGGCAGTAAAGGGAGGCTCCAGAATCCCCAGGAGGGAGGACGCCTGAGCCTCCAGAGATGACATTTCACCAGGGCCTGGAAGGATGACCTCACCCAGCACGGCCAAGTGGAGCACAGACCAGAGCG
