svm_type c_svc
kernel_type gkmrbf
L 10
k 6
d 3
norc 0
gamma 2
nr_class 2
total_sv 1158
rho 0.521382
label 1 -1
nr_sv 367 791
SV
1.565010481918065 CCTGGCCCACGGCTGGCAGGTGGGACCCAGCTGCAGGGGTCCAGCAGCACCCACAGCAGCCACCTGTGGCAGGGAGGAGCTTGTGGTACAGTGGACAGGCCCTGCCCAGATGGCCCCCCGCCTGCCTGTGGAAGTTGACCAGACCATCTGTCACAGCAGGTAAGACTCTGCTTTCTGGGCAACCCAGCAGGTGACCCTGG
1.113281165056621 ACGGTCCCTGGTGAGTGGCCTCACTGTGAACTCACAGCCCTTCTGTCATCTCTTCCCTCCCAAGGGCTCTTCCAGGGCTGGATCTGACCCACACCCTCCCTGTTCTTGGCTGCATGTGGCCTACGGTGGCCTTCACAGCCCAGCAAGGGCCAGCCCAGGGGTTGGCAACTGCAGCCCGGGGGCCAGATCAGGCCCGACGC
1.462987245271029 TAACCCCGGGACACAGTCTGAGACTAGGCCCCATTTCTGGCCATATTTGCCACAACTCCCAGTCAGTCCACAGAGATCACACAAGCAGACTGGCCACAGAGGGTCCCTCCACAAGATGGCACCCCTCTCTCACTCTGGTTCTTTCAGAAAACCCAGCCACGCGTGCACAGCCAGAGGCACACAGAAGCATGGACAGAGAG
1.646097328110946 GCGCTGTCATGCTGGGACGGGAGTGATGCCTGCTCTGTCCTTCAGACCCCGGGACTGTGACGAGGCCCCTGCTGCTGCTCTCTACTCCTCCACCCGGCAGTTCCCTGAGCACCCTGGGCAGCCACACATTTCGCCAAAAGCAAAAGGACCAGCAGGCACTGCCTGAAGCCCTGTCACTGTGCTGCCACCAACTTCTGTGC
1.570257671341001 AGGGCTGGACATGCCCTGAGTCATAGCATGGGTGGTTCTAGAGAGGGCAGGGGTGGGATGGAGCGTGCAGGCCTCTCAGTGCCCTACCAGGGCCCTGAGGCTTGCGTGGATGGCACTCACACCTACCCATGGCAGTCCACATGTGGCCCAGGCTGGGCTGGGGGACAGCCTGGGGTGGCACGCAGTAGCCTGTCCTGCTG
1.274878090092294 ATGTCCTGATAATACGGGTGTGGCCAGCCCACAGTTCAAGCTGGCAAAGCTGCATCCAGCTCTGCCCTGCACTGCTGACCTCATGTGAGTCTGGCCCCTGCACCGCATGTATCTCAGGCCAGGGGCCCAGCCCTGCTGCCAGGACATGCTCCCTGAAGGGCTGCTGAGCTGATGGATTGGAGATGGGGCTGGCTGGCCTG
1.001781667143775 GCCCCCGGACGGCCCTGACTTGGCCGCTGCCCGCTCCGCTGCGGACGGCGCGAGCGAGTGCCAGAGGCCGGCAGGCAGGGGGCGGGCCCAGCCCGCGTCACCCGGCAGCAACCAAGCAGGGTGAGTGTGCGGGCTGCGCGGGCGGCGCGGAGCGGAGGGAGCCGCGCGGCGCCACACTCACTCGCACTCGCACTCACACC
1.838882359606613 TCTCACACCTGGGGCTTCACTGACAGCGGCGGGCACAGTGCCTTCCTTTCTCTTTCCCTAGACACCAGCTCTGACCCTCCAATTTCCACCATGATCACAGTGTTCTCAGAGTCAGGCAGCATATGAGGAAAATTGCCCTTTCCCTGGAATAATTTACCATCTTGTAATTTCCATTACCTGACCCTGTTGGAGCCTATTCC
1.350835533341626 CAGACCAGGCTGAGGCACAGAGACCAGGGCTCAAGAGCTGCTCTGCCCAGGATTCCTGTGGCTGCTGTGAACTGAGTGCTCCTGGCCGAGGACCCACAGCTTCTGGGAAGTGTAGGTTGGGGCTCCTGATCTGCTGGCCCCTCCCTAGGGATGCAGAGCACACAGGCCCTGGGCCTGGAGTGTTTCCATCCATCCACACA
1.496032582516238 ACTGTGGGGTGAGGAGAGGCACACTCTGCTTTGCTTTCTGCACAAGACAGCCCCGGGGTGGGGCCGGGCGCTGCGGGTCAGAGCCCTGACCGTTTGCAGAGGAAAGGAAAGGGACAGGAAACTGGAGCATCAAGGCCCTGCTTTGCAGGGGACACCAGGACTTAGCCATGGCAGGGGCTCTGCCAATGCTCTTCACACAT
1.423387385229127 CCTCCTACGTATTCTGTAAACAGGTGAACCTTTCTGTGTTTGTACATACTAGTGTATGCACACGTGTGTGTGCGTCTGTGTGCCGTCCATCTCCCCTGGCGAGGGCCCCTTCTGCCTAGTACCTCCAACAGCTGGACCCTCCAGCTGGTCACCTTATGTAGGAGGCTTCTCTCCCCCATGGGCGGAGTGCAGGGCAGGGT
1.160712847451271 GGGTGCAGAAAGGCACTGAGCTGGGGAGGCAGACGGCTCCCAACACTGGTTTGTTGAGTCATGGCCAACAGGGTGTCTGGTGAGGGCACAAGGACCGGTCAGGGAGGAGCCGGGCAGGGTCTGGCAGGAATCCTCCACAGGGAAGTCTGTTCCAGGCACCAGACACCTCAGCCCAGGCAGCTGGAGGGGCCTGCTGGAGC
1.87960661397635 CCAGCACCGCTCTGCTCTGCTGTGTGATGGCAGGAAAGTCACCTGCCCCTCTGGGCTTCAGGCCCTCCTCCTAACCCAGGTGATCAACATGGCGACCTCAGGATGCCGGAAGGAGCAAATGGGCACGGAAAGAGAACACCCTCCTTTAAGCCAATCTTTCCCCAGGTTGTTTCTTAAGCCCAGGAACCCTCTCTGCACTG
1.531869315938486 GGTGCATGCGTGTACCCATGAATCCTCTGGCCAGGGAGGGGCCCAACCTGCCCAGGGCTTCTTTCTTGAAGGAGACAGGGCTGATCCTGCACCTGCGCAGTTTTCTCTGGCTTCAGTTTAAGGAGAACCCTCACCCCCGCCACAGGATGATCCTGGGCCAACCAGGGCTGGGCCCAGCAGGTGCAGGGCAGGGTGGGAGC
1.812877135819231 ACCATTATCATTCTGGGTCCCTCTCTCTGTTCCTTGCAGGCAGGGATGGGGTCTGGCTCACCTTGTTCCCCCGCACAGTGCTTGGTAAACAACATGCAGAATTGAAAACGTCACCGACCAGTCTCCAGTTTGGGAGGAGTGAGTGAGAGAGGACACGGCCGCGGGGGCAGGAGAGGGGAGAAGGCAGCAGTTGGGTACTC
1.263197913768731 AGGGTTTTGGTACACGGAGCGGGGGGAAGAGTCTTTCCTTCTGGAAACGCTTTCTTGACTGCCTCAAAGGACATGGGCGGCAGCTGTCCTGTGGAGAGGCCTGGCCTGGGATGGTCCAGGGGACAGGCGTCATGCTGGCCGTGTGGCCTCACAGCACTGCGCTGGGGATGTGGGGGCCCTGCTTCCAGGCTCTGCTCAGC
1.652112070882596 TGATCATGGCAGCCACTAGGGGCAGGGTCAAGGGGTCAGGGTTAGGAGTACAGTCACACAGACGTGACCTGGTCATGCCCCTGCCTCCCACTGGCCAGGTGCAAAGGTCAGGGAGTGAAGTGAGCTGGACATGAGGGCCCTTCCCTTCTGAGAGAAGCATGCCCATTTTTCTTGCAACAGGCACCCCTATTGGTCTGTCT
1.533815054823136 AGGAGGGACAATGACCCAGGCCTCAGAGGAGAAGGGAAAAGGAATTTGCCTCCCAGCCGGAGCTGCCTGTGTCCCAGCCTGGGAGCTTTTTGGTTCCTCTCTAAGGGCATGGACGTGAGGAGGAAATGGGTATTTACACCCTGTGAGCAGGGCTTTTGATGGTGCTGGGCAAAGTGGAGAGGCCTCCCCAAATCTGGCCA
1.429866881159419 CCACTCAGTTCCAGGCTGGGCAGCCACAGTGCCCCTCAGGCCAGTGTCCCAGCCAGGCCTGCACCCCCTCCTCCTGAGGGACTCCCCGCCTGCACGGTCTCCACTGCATTGCATCCCACGGTCCCCACCAATGTCTGTCCGTGGCAGCGATGTCGGGGGTGAACTCATAGGCAGCAGAGGTGTACGCAGCATCCGGTAGG
1.097225986671367 CTTGGGGAGCCCTTTGTAGAACCAGGCCCCCGACCTCTTCCAGACCTGAGTGGGGGAAGAGAGCTGCTTGGGGCACAGGACGCAGAGGAGCCTCCCCTCCTGCTCCTTGCCCAGATGACGGGAGGCAGGACGCGGAGAGCTAGGAGCAGAGTGGGAGTGGGAACTCTGGCTCTGCCCTCCCTGGCTGATGGGCTGGGCTG
1.329969235206539 GCAGAGGGCTGCACGGGACAGACTCTCCCAGCCACAAGTACCTGCAGGCACCTCACCCAGCCCCCAAGCTCTCCTCCCTGCCAGCTGACCTCCCGGGCACCTTCTCTTGCTGGCCCAAGGCAGAGAGCTGCATGGGATGGACTCTCCCAGCCACGTGTACCTGCAGACACCTCCTCCTGCCCCCAGCTCTCCTTGGTGCC
1.765440372264624 CTGTGGACCCTGATCGGGGAAGGTTCCCAGGGAACCACGGTGGGCTTGGGGAGAGGCATCCATCAGGGCATGAGGCCACCAGAGTGAGGGGCGTGGGGCGAACAATGGAGCTACCCTGCCATCCCTAGGACAGGCCTTGGGGGCTGAGAGTGCTCCCCCACCTCACGCCCAGCCAGTCAAGGCCCTGTTTAACGGGGAGT
1.695932571600489 AGGCCTGTTACAATGGTGATTGGCTGCGAAGCCGCCTCTGTTCCCAGACGGAGTGGGCTGCATGCAGGAAATGAATAGGGGCTGGAGGCGGAAAATTGGACAGGCCAATTAGACCGAGCCAGGTCTTTTCAGACGAGCGTCATGATTTTGATTCAATTCCCAGGACAACAAATGTGCCTGTGTTTAAACACAGTCTCAGA
1.761857276046246 TCTCCAGTGCACAGACGTGGGCTCAGGTAGACGCCCCAGGCAAGGGGCAGGGGAAGATGGGATGGCTCAGTCCATCTGCAGGGGTGCAGTGCAGGAGTCCCCATGAGGCAGACTGCCCTGGGGGCTGGTGAGCACCAGGAGCCCCCTCCTCCTGCCACCACCCATGTGTGGGAGGCCAGGAGGCTGCACTGATAGCGGGT
1.641217354542301 ACCAGTAGCCTGTCTCCCTGGAACCCTAGGCCACCATCCCTCACAGAGACTGGTGACTCTCCCCTTCCCCAAGAGAGCAGCCTCTCTCCACCTCTTCCACCCTTCGCTCCTAATGTTCCCACCTCTACAACAGGGTCCCCCATCAGCCTATGAGGTGGGCTCCAGAACCACAACGTGGGCCTCTCCTCTCTGGGTAAAGG
1.699901491152633 CGGGCCAGAGTATGAAGGAGGCAGGTGTTATGATCCCCACTATATAGATGAAGGAACAAAGGCTCAGAGATGACTCGGGCTGCCCGAGGTCACACAGCTCGTTCACGGTAAAGCAGAATTTTTGTTCAGACCTCAGGAGGGTCGGTCACACCCTCCCCTGCCCTGGTGCCAGGCTGGTGCGCACGGCTCTCTAGAGAGCT
1.355411129009295 AGGGAGAGAAGCCAGGAGAGTGTCCACGGAACTGAGTCCTGTCCTCTACTCACAGACCACGAGGACGCGGAGCCAACGGATCTGGGGACAGGAGCAGCGTGGACCAGTCGCCCTCCAGAGGTTGGGTGAAGGGCTGTCCCTGCTGGGCCCACGAACCTCTGCCTTCCCCTTAGGGTCTGGTGCTTCCTGCTCCCCAGATC
1.478374053831414 CATCGAGAGGGAGTCATCCCTCTGAGCGTCAGTGTCTCCATCTGGAAAACGAGTATGAACACTGCCTTGCCTTTTGCCTGCCCATCTCCTGGGGGCCATGAGGGACACATGACATCATGGAAATGTCAGGCACAGCGGCTCTCAGAAGCACCCCCACCCTGACTTCCTCCCGCTCAGAGGGCACAGACTCACTACGGCCT
1.854070369352755 TGACCTGTAGTCTCTGTGACTCCACCTCCATTGACCTGTAGTCTCTGTGCTCCACCTCCACTGACCTGTAGTCTCTGTGCTCCACCTCCATTGACCTGTAGTCTCTGTGACCCCACCTCCATTGACCTGTAGTCCCTGTACTCCACGTCCATTGACCTGTAGTCTCTGTGCTCCACCTCCATTGACCTGTAGTCCCTGTG
1.591254936602488 ACCTTGCGAGGCAGGCCTGGACCCTCAGTCACCCCCCAAGGCAGGCCCAGACCCTTACAGTCACCCGGTGAGGTGGGCCCAGACCCTCAGTCACCCCGAGAGGCAGGCCTGGACCCTCACAGTCATCCCACAAGGCAGGCCTAGACCCTCAGTCACCCTGCAAGGCAGGCCCAGACCCTCAGAGTCGCCCTGTAAGGCCC
1.223734364354211 CAGCCAGCAGGCAGGCTGCTGGCTGCTCCCACGTGGGAGGTGGGAACTGAGCCCTCCCCAGCCCAGTCCACAGGACAGAGAGGAGGAGGCCGCGAGAACTGCTTCCTACATGTCCCCACCCCTCTCACTGCTGTAGCTTCAGGGCAGAAGAGCCACAGAGCCAAATGCTGCAGAGATGAAGGGAGACGGAAAGAGCCAAA
1.212754572690245 ACAGCCCAGACATGCTCAGAGCAGACAGCTGGACTCTAACCAGGCTCTGCGACTTGCTGACTCACAGGCCGTTTGTCCCTCAAGATTCCCCACGGGGTAGTCGGCCTCAAGGCAGCTCCACCTGACGGCTGAGCTCGCTCCTTGCTGAGGGGCTGGTGCCCCCAGGAGCCTCCTCTGGGAAGCTGAGACCTCCTGGTGCC
1.404780769558013 AACAGCATTTGTGGGCTCAGAAGCTGGTAAAGCCAGCACTGGCTTGAGAGCCCTGAGTGACCAGTGGCTGGGGCCGGTCACATGACACCCCTCCAGCCGACTGTTCCCCGCCCCGACTACAGGGTCCCGTAAACGGGCCTTGGGAGCTCATCCCCGTACAGGCTAGGAAGCAGTGCGCATAGTCATCACTCCAGGAGAAC
1.301983672762617 ACCCTCTGACCGCAGGCCCTGATGATGGATGAAATCTTGGCCTGGGCTGTCAGCCAAGGCCATCTGGGCCAAACCATAGGGCAGGAAACAGCAGGCTTCCTCCTCCTGTCTGAACTCTGGCCCAGAGAGGAGCTTCCTTCAGCTGGCCGCACCCACTTCCCCGACAACATTCCAGAACATTCCATGATAGGCCAGGAGAC
1.350941566556181 AGACAGGCCCCACCAGGGAGGAGGAGGCCGCTCTCCCTCCCACCACCGTTGTCGGGGGTGACCCGAGGTGTTCCAGATGAGGAGCTGAATCACTGGGACTTAAGTCAATAAGTGGCAGCCACCAGGCAGGCCCAGCTGGAGCCAAACCAAGGCCTGGATTCTCCTCGTGGATGTCTGGTAAGGCCCCACCACGTACCCCA
1.574823198091049 CCCGAGGGCGGTATGTGCATCCTCAGCACCTGCCCATCCGGCACCATCCTCTGATCCAGGGACTGTGAGCAACAGGGCCCCGTGGCCAGGACATCTCTCACCCTCCAGTTAAAATCTCGCCAGTTGAGTCTGCCCATGAAAGTAGGCGCTGAACTGCCCAATAAATCCACAAGTAAGAGTTGCAAGAAGGAGCCAAAAAG
1.747036452800968 CCGGGCCACACTTGGGCCTGCCCAGTTCCCCTAGCTCTTCTCTTTCCTGCCTTGCCTGCCTAAGGCCCCTCTCCCCCTGCACTCCACTCGTATCTGCTTCTCCGCCTCCTGCCCAGTCAGCCTGCTGTGCAGAGCTCCCGCAGCTGCCTCAGATCCACCCTTCCTGGGTGGCTGCTCCTCCCCGCCACCGCCCTAGGAGC
1.394601330822407 CCATTCTGTTGCCCGAAGCTGCTCAACGCCTGGCACACTATGAACTCTCAATAAATATTTACTGAGCGAACGACTGACACTCATCCTAGAGTAGGCTACATGACTGGTCTCAGCTTCTCACTCCCTGCAGTGGTGTAAACAGCCACACCATGCCAGGGCCTACAAGTAGGCAGTGTACATCCCTGCCCTGTGTTGAGGTT
1.941880910169537 GTGTACTAAGCGCGGAGTACCATGCCAGGCACACAGTAGGCGCTTTGCTGAGTTAGGCTTTGTCCTTCTCCACCTTCCCCCTCACCAATTCCACCACTGGGCCTGAGTTCATCTGCACAGATGAAAATCTGCAGTTCTTCCTCCGTTGTGGGGCTGGACTGGCGGGGGCAGGGGGAGGCACCCTCACCTGTCCCAGGAGC
1.754416930713786 CTGATGGAAACTGCAACAGTCTAAGGCCTTCAAGTCCCATCACCTTCCACTATGGAAGTAGTGGCTCCAAAATCCTTTCTCCCCTTGCTTCACTCTGCCAAGTTTCAGATCCCGGAGTGGACAGCCCAGCAAAGTAGCCTGGCGTGGGCCCAGGTCCCATCCCTTGAGCTGGGTGATGACTACATGGGGTGTGTCCACCT
1.567360994627324 AAATGCATTAGTCAGTTCAGGCTGCCATGAAATATGCAGACAGGGCGGCTTACACAGCTGGCATTTCTTCTCACAGTCCTGGAGGCTGGGGAGTCCAAGATCAAGGTGCCAGCTGGCTCCGATTATGGCGAGGCCTCTCCTCCTGGCTTGTGGACATGGTGAGGGCCCAGGGGAAGGGAGAGACAGAGACAGAGAGAGTG
1.645220019257709 GCTCTTACACGAGGTGCTAACGACGTAATTGCGGTCTTACATAAGGTGCTCTGGTATTTTCAGCAGCAGATAACTGCCATGTGAATGGAGAAGCCGCCCTCCCAATGAATGCTGCTTACTGTACAGGCTGGCACAGGCCTTGAAATGCCAGTGCTTTGCAGGCAGCCAGCTGCTGTCAGAGGGGTGAGGATGTCTGTGCC
0.8485131649023719 CCTCGGACTGGGCCCCGGACCCGGGGCGGCCCCGCTTCCCCCCCGGACTCACCCGGGGTTCGGCCCCGCAGCCCGCGCGCTCCCTCGCTGCCCTCTGGCGGCAAAACCGTGAAACCGGCGCCCGCCCCGCCCCGCCCCGCTGGGACCTGTGGCCGCAGAGCCCGGGCCGGAGGGCACCTGCTGGGCGGCCTCTGGATGGT
1.438450693486933 CGCACACTTCTATGCGCGGAGGTCTCCGCAGACAGAAGCACGCATGCGCACATCGCTGTGCCGGTATCGCCAACAGATGGAAGCACGCATGCGCGCACCGCTGCGTACCTAGCACTCCGACAGATGTACGCATGCGCACAACGCTCTGTTCTCGAGATCCCCGACAGAAGCACACATGCGCACACCGCTGTGTGCCAAGG
1.947617015888524 GGGCCCTGAAGGCCGGTGCTTAACGTATAATGATAGAAAGCAGGTGGGGTGAAGGTTCCTGGAACACACAAGTAGCTTCAACTCAGAACACCTTGGGTTCGAAGTTTGCATATCTTCCTCACACCCAGGCTGTAGCAGTGAGGACTCCTTCAGGGCAAGAAACAAACCACAGTGAAAACCACCTTACAGACCAAGGGGAA
1.479790637261412 ACAGGAAGAGGGCAGGACCCCCACACCGCTGCTGCGTACTGTTTCGGAACAGCTTGTCTTCCGTAAGCCCTGCCAGACAGTGGATTAAACACACCCCAGGCCCCGCATGCTGGCTGGTGCCCCGTGCCCGACACCGGCCCTCTCCCAGCCCCCAGGTCTTGGGCTGTTCTGTGGCTCATGATGTGTGGATTTGCCTGCTG
1.369357861683341 CAACATTACAGACAGGCTCCACTGCAACTGGGCAGGTCAGGACTGGGCTCAGTCGGCCACATTCTGCTCCCACGCGTTGCTTCCTTAGACTGTCAGGGAAGGGAGAAGGGCAGCCACCAGGAGCGGCCAGGGTCACGGACTTGCTACTTCTTTCCTAGAGTCTGTTCTGTTTTCTGTCAGCAGTAAGGAAATACATTCTA
1.97687255710773 ATGAGATTTGTCTCATTATCTCCTTGATTGAAGGGAGGAGGATCAGCTCAGTGGATGAGGGAAGTTGCTTGTGGTTCAACTGCAGTTTCAACCAGGCTGTGGATTTTGATGTCTCAACAGGAAAGGCTGCTATTGCTTAAGACAGCAAACGAGGTAAAAGGAAACATCTATGGTTTTGCAGGGGTGGGGTAGAAAGGAAG
1.71339366812574 ATGGAATAACTGGCTGTGACTCATCATCACCAAAGGCTGGGTCCTAGCACAGACAAGCTTGTTACTGCTTTTCTCATATGGGTTGGAGTGCTACTGACCTACTTTTAACAGGTCATGCCCTTTGAGGAGCTTACACAACTCCAGGGAGGTGACCAGTCATACTTTCTTGCCCAGTCTTCTTTTAACAAGGCCTTTCTGTA
1.666983986361236 ACTGCAGTAGTGAGCAGGGTGTGACCCTTACCTTGAGGGCCACATGGCTACTGACTGCAGCCATGAAATGGGTTAGGTCACCCACAGAGCCGGCAGAGACCTTCCCTCCAACCACCTCTGGCTGATTTCACCACTAACACCTGGTGGGGTCCCTCCCCCACCCCAAGAGGTCTGCTTTTGTTGTGCACCCCACTCTGGGA
1.723756064507667 AAGGAGATACTACTCTACACCCATGAGAATGGCTATAATTAGGGGAACAAAGGAGACACGCGTCAGCAAGGATATGGGGAAACTGGACCCTCCTACATTGTGGGTAGAAATGTAAAACCGTGTGGCTGCTTCGAAAACAGTTTGCAGTTCCTCAAAAAGTTAAGCCTAGGGTTACCATGTGACCCAGCAATTCCACTCAG
1.197710391849002 TGCATCCCACTGAAGTCAGGAGTGATGGGTCAGGAGGAGCTGAGCTGTGGCAGGTCTTGTCTTCCGGGCGAGCTGGCCACACTCTCAAGCTCATCCTCACTGTTTCACTGCCAGTCACCAAGGACTGGAGAGGTTTGGAATGATACAGTGAAGGCGGCAGTGGGGGTAGGGTGGGGATGACGTACAGCCTAGGGAGGGGC
1.53868392078818 GAGGCTCAGGCCCCCCCTGTTCCTACCCTCTTCTTGGAAGCACACACACAGCACCAGTTCCCTCCTAAGCCACAGGGAACTTATAGTAGGAACTTTTCATGGTTAGAAGAGGAAGGAGTTCTCCTCACAGGGGAAGTCCAGCCGCTAGCCAGGGCACCCACAGTCACATTCTCAGGACTACTGGCCATCTCAATGACACT
1.590487898421309 ACGCTCATTCTTGGAACCAGCCACCTTACCGTGAGGAAGTCCAAGCAGCCCGTGGAAGACAACAAAGAATCCCAGCAACGGCCTGGCCAAGCTCCCAGCTGACAGCAAGCACCAAGGAGCCAGCCATGAGAGTGAGCCAATGCATTCTCCAGTCCCCTCCTGAGCTGCCTCGGCTAATGCTGCACGGAGCAGGGATGAGC
1.143812706509228 CAGCGACCTGGTGAGCCCGGCTCCGTCAGCCGCTCTGTCAGCCGCTCCGGCACTTCCGGCAGGCCAGGGCACTTCCGGGACCGGGGAACTGTGGGATCACGGCGGACTGAGACTGGCGGCGTTCCTGTCACGTCAGGTGTCTCCCGGGCAACGCAGTATCCCGGCGGCCCCGCGTGGCCTCAGCGCGTCCTTAGGATGGG
1.177664131246188 GCCCCCGCCCACCCGCCCGCCGGGGACGCCGGGGAACCCTCCGGGCCCAGGGACCGCGAGAGACCCCGCCCCGCCCTATCGCAGCCGCCGGGCCTGGTCACGCGCAGAGCCGCGCCGCGGGATCGGGGCCAGCGCCGGGCGGAGGCGGGACGGGGACGGGGGCGGAGGGTTGAAATCGCGCGGCCGGGCCGGGGCGCGCC
1.674018227197664 GCCTATTGAGCGTCCTTTGCCCGTCACAGTTACCCTTTTCAGTAGCCCTCGTTGGAATTTTCCTTCTGGTGGTTTCTTAACCTCCACTTACTTCCCCTTTTCGTTTCGTCATCCGCAGAGGCTCCGGGGAGACCTTGGGGACTTCTTTGTCGGCTGCATCTTCACGGCAGAACTGAGCACTCCGTTTGTGTCGCTGGGCA
0.8791353951104304 CGGCACGATGGGAGACGCAGGAGCCACGGCGGCCGCGCTTAGGCCTGCTCACAACCTCCGCCCGGCCCCGCCCACAGCCTCCGCCGCGCACGCGCAGTCCTCACGAACGAGCGCGCCAAGCGCACAGCGCCGCCTTCCGGCAGAGCCCTCCCACCAGCCCTCAGGTACCCGGACGTCGCTCACTAGACCCCTCCGCACCG
1.919131311870668 CCGTCTATACACTAAACCGCGCTCTTGCACCTTTCAAGTCTTCCTTAGTGGTGTGTTCCCTACCTCCCTGGCTTATCAAAGGAGGTCCCCAAAACCCAGTTCCCCAACCAACTGAATCCTGCAAATAACAGCTCCTCAGGACCCGAGACAGACCGCTTCTGGGTGCTGTTGAAAAGCAGATGGGTTGAGAGTTGGAGCAT
1.273257595145799 GCGGTTTCCCACTTTGAATACGAAGTGCAGAGCTCTGCGAGCAGCCATGATTCCCGCCGCACGCAGCCGTCACGCGCACCGTACAGCCCAGTCCACGAAGGGCGCCACGGGCCGTGACGTCACTAGCCGCCGACGGCGCGCTTTCGTGACGCAGCCCGGGTCTCAGGGAACATGGCGGCGCTGGTGAGACCCGCGAGGTT
1.150252943607171 AACAAGCTGTGCGGGGGAGGGTGGGAGGCCATGCAGTCACTGCGAGGCCCCACCCTCGGCCACTCTCCCAGCCCGCCCGTGGTGAGGAGCCGCCCCTGGGAAAGGCCAGGCGTCGCAGGCTGCTGCCGGGGTTGCCTCTTGCCTCATTGCCTCATCTCTAGAGTGTTCCCTGCTCCGGTGCAGACTGAACGTTGAAGCCC
1.779505938362712 GTTCTGTCACCATTTCCCCAGTAAACAGGAATAAAAAACGAGCCACATTTGACAAGGAAAACACTGCTTGGCCGAGAGACAAACATTGTCAGGATGTTGGCCACGCTCCCGCGCCTTTGTGTGGTGGCGTAGCTGTCACAGTGGCGTCTGCCAGGAGGTGGCAGGCGACACCTCCAAAACCACCCCAGTGCTGAAGGGCG
1.429511653402048 CCTCCCCTCAGCTGGTCCTGACGAGCTTGGCCTACAGCCATGACGAGTGCACATCCCTCCAAAGGTGAACCAGGGGCGGGAAACGGAACTGGCTTCTGCGGCCGTCTGCCCTGTGCTAGGCACGGCACAGATGGCACTGGCTAATCCTTATCACAGATGGGGCGGGCAGCATCAGGATCCCCCTAACAGATGGTCAAGGT
1.567965135594833 AGCCCTTACACACCCTGGGTTACATCAAAGGCCAGAACGAAAGGCCAGCACGGCTTAAGAGGGCCGTCCAGAACTGGCTGCTGACACCAACCCAAGAGTGATCCAGCTTCTGACTCACCAGGCACCAGCTCATGCTCTCTGATCCAGGAGCCCCGACAAGCGACCTGAGGTTCCAGGGGGGCTGCCTGACACATCTCTGC
1.557592817107274 AAACACCCTGTTCACAGAGGCCTCTCTTCCTCCCACCCCTGCCCCCCGCCCAGAACTCCCAGCAGAAGCTGCTCACTGGCTGTTGTCAAAGTAGTCTTTGTTCTTGGAGTTGAACCAGCACAGGCCTCAAATTTCCATCCACAGCTCCAAACCCCGCCTACATCACCTCCATGACCTCAGGCTAAGGAAAGAAAGAAGCT
1.710148999030104 CTTCAGTGGTCACGGTCCCATCATATACAGAAGCCACGGGGCAGGACTTCAGGGGTCATGGTGCCACATTTTGTACAGAAGTGGGAGGCAGCAAAGCCGCAAGATCTAAAGACAGAGTTGCAGGCCCAGGTGCGGTGCTTACGCCTGTAATCCCAATCAGCGTGGGAGGCCCAGGCAGGCGGATGACCTGAGGTCAGGAG
1.602777704585608 GGTTCTCTAACATCCAAGCTGGACTAAAGGGTTTTGCTCTTACCGAGCCAGAGGGAATATTTATTCCAAGAGACGTAAGATAGATTCTGCTGGACACCTGCCACTTGCTCATGATTCTTCCCTGGGAGGCTGGCAGCGCACGGAGAGGCTTCGCTCCACGGGAACCAACACCGTTGGCCGGCGCGGTGGCTCACGCCAGG
1.678641354690884 TCACACACGCGTGAGCTTTGACAGCCAGGGACTGGTAACCCACGGCCACCGCGCCCAAGAAAATTATTTCCCATGGGAGAAAGAAAACTACGTTCAGCTCCTGGCAGGTCCCAGGCAAGTCCGAGCCAGGCTTGCAGGGAGGCGAATGCTCTGTCCTGGGAAAGGGAGGCAGAGGTTAAGGGCTGTTCCCACCCTCCAGT
1.933985773892541 CTCCTTTCCTCTCCGCAGTTTATTCCGGGGAAGAACTCTGGCCTGGGAAACAGCAGACCTGGTCCAACTCCCGGCTCTGCCAGATCCCAAGTGACTCAAATGCTTCAGCTGCCCTGACCTCTGCTTCCTCGTTACTAAAATGAAAAGCACGGGATCTACCTCCAACAACAGTCATGGGATTCAAGGACACCAGGACACCT
1.397258479798583 AGCAGCCCCACACTGTCGTCTGTGGAAACCACACCAGCTCCTCCTCTTCCTTCTGGACCTGCTGTCCCACCCTACGCCCATTTTTTATCTCCACCCACTCTTTGAACTTAGCACTGGTGTCTACAGGCTCGATTCCCAGCTCTCCCACAAGGACGTGGCTCAGACGCACGTCACCATCTCAACCCAATGTAGGCCACCCG
1.664323221331212 GCCAGGTGCTCAGGTCGCAGCTGTCCCTCAACACCACTCGGGAAGGGGGCTAACTGCCCGGACGGGCCCCAGGATCACGAGCCTCCTCTCCTTCCCTGATGGCCCAACAGGAAAAAGTACTGTGGCTGCCAAGCCATCTGGATGGAATGGAATGGCTCTCTACCAGTTAGGGGCCGCATCGGCCTAGACTCCCAGATTGA
1.17454635207352 AGGCGCTGGGGAGAGCAGAGCCCGGCCCAGTAGGGCCGCCCACGCCACGCCCCCTCCGCCTGCCCGCGCCACGCCCCTTCCCCCGCCCTGCCACGCCCCCTCCGCGGCCCGCGCCACGCCCCTTCGGCTGCCCTCGCCACGCCCCTCCGCCCGCCCTCGCCACGCCCCCTCCGCCCTCGCCACGCCCCGTTTGCGGCCGG
1.525756399504153 GCCTCCCCCCAACCCAACCCACTGGTGCACGAAGCAGGTGCAGATCCGGGCCCAGCCACAGTAACAGGCCGCCGGTGTGGATCAGCTACTGACGACTCAGCGAAAGCAAAAAAATAAAAGCTGAAAACCCGCCCCTCTCAGAGCTTCCACCGCCGCTTCGGAGGATATTTCCTGTGCATCCATCGCCACCTAATGGAAAG
1.454407575255265 CAATGCTCGCGCGTCCCCTCCCGGCGATCCGGAGCACGGCAGCCCCGGAGCGCGCGGCCACTCCTCGCTCCCCTCAGGAGCTCGTAAGAGCCCCGCGCGGGGCCGAGGCGCGAGAGCACGCGCAACGCTTCCTGGGAAATGTAGTTGGGTGTCGGATTAGAACTACAAATCCCGGTACTCACCGCGCTGCAGCCCCGACC
1.901530264516909 CCTAGTTGTGTGCCATGGATATTAAAAAAAAAAAAAAAAAAATCCGTCTACAGTTGGGCTTCAGCACTGGTGCTGCTTTACCCTGGTGCTCTGTGGGGGGATGACACTGCTGGAGTCAGGCCTTTGCTCTTGGGTGGGGCACAGGCAGGTCGCTTGGTGGGGGCCACACAGTGCTGGGCACCTTCAGCCAGTGGTGATGA
1.644878427825679 TGTCCACGCTGCCTATTCACTCGAGAGATGAATAGTTTCCTGTTTTCGATGGCTGGGGAGCCAGTATGAGCTCATAAACCAAACAGCAATTTTCAGAGACATCTGTTCCTGATCTTCAGAATAAACTCAGTGTCCAGTTGCTTCGGCTGGTGGGAGCCAATATTCACGCCACTGACTCTCTCAAAGGGAGGGTGGGCCCT
1.302913249455108 GAGACCCACCCACCCTAAGCAGCGCCTCTCACCCTCAATACCATCATTCCCACCCTCCAGGCAGGAGCTGTGGCTGCGCCTGCTTTGGAAACAGGCAAACAAACACTGTGATGCCAACAGGCAGCTGTGCAGCGGGGCCAGCCCCTCACCACACGCGCGCACACGGTCCAGCCAGGGGCCCAGATGTGGGAACAGACTGT
1.441289803591416 GTGACTGCTCCGAGCGACTCCGAGAGAGGCAGGGCAGAGAGGGAGGGGCTGCCAGGACCTACCCCTGGCTTCCAGCTCAGCAGCTGGGTTGGGGACACCGGGCCAGGCTCCATAAACTCTCCACACATCTTCCCATGGCTTGGCATCCACACTGCTAGGCCAGGCAGGCTCCGCCTCTCCAGCCCTCACCCTGCAGGGTC
1.172862096217268 CCACGGACTGGCCAAGGCCTCCCTTGTTGCTCTCTTGATGGATGGGCCCAGCCCTGGCCAGCCGGACTGGCACTCTGAGACAGCTAACTCGGACAGTTGATTTGATCTGCAGAGTTATCGAGCACTTCCTGTGCGCTGGGCGCTGGGTCTGGCTCTTCCTCACGTGCCTGATGCCAGGGCCCCAAGCCAGCCCCGAGGCA
1.195881238118256 TGCCAGTCCCGCTAGTTCCCTAGTCCCGCCGGCTTTCCCCGCGCTCGCCTCCCTCCCTCCCTCCCTCCCCGCGCTCCCCTCCCTCCCTCCCTCCGTCCGCGTCCCTCCTCCCTCCTCCCTCCTCCGCATCCCTCCTTCCCCGCCCTCCGCGAGGCTGCAGCCCAGGCTGAGCGCCGCCTCCCAGGCCCAGGGCCGCCCCT
1.143427103983303 GGTGGGCAGGGCCAGAGCAGGACAATGGCTGCAGTCACGGGGCCCTGGGAGGAAGTGGAGAGTCAGCAGGAAGTAGAACCAGGCCTGGGGCTCAGCCTCCACGGTCCCTATGTGCCTGGGGAACTGGCACAGGGGTGGGGGTGGCGGCAGAGGGAAGAGCCCCACGTGGGCCAGCTGTGAGGGTGGCAAGCAGCAGGGAG
1.049091873943683 GCCTGGAACCTGCCCCTCCCACCACAGGGTCTTCAGCGCTGCTGTGCCCAGGGAGGGGCTGCCCTGGCAGGCACGTGGGGAAGTGGAGCTGCCTCCCAGGCACAGGGAGCAGAGGTGGACTGTGGGGTGGGGGCTGTCCCCAGCCTGCGGTGAGCGAGGGAATGACGCAGGGCCGGGGGGCGGGCAGGGGGTGCAGAGGG
1.203638872251975 GGGGCTGGCTGCCCGGCACATCCTTGTAACTCTTCTATTCCACAGCCACCAGTGGCCCAGGGAGTGTGGCGTGGCGACCACTCGTCTCTTGCCTGGGCGTCTCCTGGGGCTGCACAGGCCAGCCCAGAACCCTTCCGTGCCTGTCCCTCTAGCCCAGCCCAGGGACAGGGAGATGGGGCTCCCTCCCCTTATCCCCACAG
1.381649683438782 CACACTCTGCCCTTCCCACCTCGGCCCTCCCCACACTCTGCCCTTCCCACCTCGGCCCTCCCCACACTCTGGCCTCCTCCTCCCTCTAAAGGGCCCTTGACTGTTCCGTCTCCACATCTTCCTCACCATGGAGACGACACCACAAACTCTTCACTGACCGCCCTGGAGCCACCTCTCCCCGTAACATGGGTGCCCAGGCC
1.622738555800192 CCCCCAGGGCAGAGGGTGGTCAGCGGATCCCCTCAGCCTCCACCCCAGGCCGGCGGGAGGCAGACGGGGTATGAGACTCAGCTGAGTCTTGGTCCAACATCACCACCTGGTGGCCAGATGAAAAAGTTTCCGAAGGCCACGGCGGCCTTATATGTGAGCTGCCCGGGGTAGGGCTAGGGGGTCCTTCTCTCCTCCACTCA
1.092318328658603 AGGACGGCACCTGTGCCTCTCCAGTGACTCACATGTACCACACTCTGTGGTCAGCAAGGGGCGTGTCTGCTTCCTCCACTGGACAGGGATATACATGAGGCACCCGGCACACCCCAGGCAGCACAGCCAGTGGGGCTCACTGAGTGTTGACTGTTGACTCGACTGGGCACAAGGCCACGTCTGCACAGCTGGGGCAACGG
1.524002134218992 GGGGGATGGAAACACCAGGTCGGCCAGGGGGATGTACCACTTACAGTCATACTGCTGGTGCTTCCTGCAAACGAGCCAGAGGGAGCCATGAGCCAGAGGGAGCCTGGCTCTTCCAGCCTCAACTCTTGGGTCCAGAACCACAGAACCACTGACAGGGGTTGACTGAGAACTCGCCAGAAGCAAGAACGATCCCTGCTCCT
1.703373492886586 CCAGCCCAGGCCCCCAAGAGCCACACCCTCCACAACCCGGACACCAAGTGAGGATGGCTGGGATTCAGCAGGGACAGGTGGAGGTGGCAGCTGGTGGATCAACACTTCCCAACACCCTTCCTGTACGCGGCTGCGCCCACCCTCCCAACAGGAGGCTCAGCTTCAGTCCTGCACCTGGATGCTCTGTCCCTGGGGTCATG
1.624142842317543 CCTTCGGCAGAGATGCTGAGCTCCCCAGGACAGTGAGCTGCATCCTACCCCCATCAGAGAGCACTTACTCAGCCCCCAGCACCCCCGACACTCCCCACCCACCACTGCCCATGCTGGGGGTCCGAGAGGAAGCTTCGAGGGAGGAACAGCCAATGCCCCTCCTGGATCCCAAGCCAGGCAGCAGGTAGTGAGTACTGGAA
1.397835452525632 CTCTGCCCTCCAGGGTGGGCAGGCTGTGAGGGGCTTATGGTTGGGTGTGGGGGTTTCTGCCTAGGCACAGAGAACAGGCAATCAGCCCAGGCCAAGAGAAGACCCCACACTCTCTGCACCATGTCTGACCCCGGGATCTTGGGCGGCCTTGGCAGGGCTGATCTGAACACAGACCAGGGGAGTCCAGGTAGTTCCTGGGT
1.175105958115528 AGGTCTCAGCTGCAGAAGGGCAGGACTTTAAAAGGGGGCAGGGCCGGACTTTTAAAAGAGGGCGGGGCCTGAGTTTTAAAGGGGGTGGGGCCTGACCTTAAAAGGGGGCGGGGCCGGACGGGAGGGAGTTTATTTCCTTTTCCAGGGAGTACTGAGGCCCGGCCCATCAATGCCCACGCTACACGAGGCATACTAGACAG
1.72285499081925 CGTCCTCCTGGAACTTGTGGTTTGGGGGAGTCAGGCAGTTACTAGTGCTCACTACGAGGACTGGCACAAGGCCTGCATTTGGCGACTTGGAAAGCCTTCTTGGAGGAGGTCCCTTCTAAGCTGGGAACTGACCAGGGGAGGCCAGACGAGAGGGGGAAGGACGTTTCAGGCACACGGGGCCTCAAGTACCAAGAGTTAAG
1.546651601343092 ACAAAACACAATGGTTATGCTTCCTCCTCAACTTCCCACCCCGTCTGCAAAAGGGGAAGAAATGGACGCTCACCCACAGCCAGTCACAAGGACGGGGCCTGCGCTTGGGGCATCAGATGGTTCTCATGACACGATGGGGACCTTGGCTGTTACTCCTGATTTCACTCGCGGGGAGGGGACAGGGCTGGGTGTGTGCCCTT
1.602826430700702 TTACATATATATACAGGCACACAGACAGACAACAAACCGAAAGTTCCCTCACTTATCTTTCCCGTGTATGATGCATGCTGACATTTTTTCATTGGTTTAAAAATGCTGGTTCAACCCACTGTACTGGTTTCACAACCCACTGTACTGATTTCACAACCCAAAGCACTGATGGGCTGAGAGGCACAGTTTGAGAAACAGTG
1.261033000835133 AGCTGAGAGGCACAGGCCCTTTCTGGCAATGACCCGGGCTGCCCGATGCCCAGCCAGAAGCAGACCAGCTGCAGACTCTGTCCACAGGGAGGGACGGGTACGGTCCCCTTTCCTCTCCAACTCCAAAAGCAGCTTCAGAGCATGACATCACCCAACACGGGCGGGGGGACCGGAAGGCCCCAGAGCAGGGACTGTACTCA
1.4314894794132 GCCAGCACCAGATCAGAGAAGACAGGGTGGGGTGCCAGCCACTGCCAGCCTCCCTACAGCTCCACTCCCCACCCAGGCCTGCAGCCACCGCTCCACCCATACTCACACATCAGCCATCTCCCGTGGTTCTGCATCTATTTTTACCTCCATTGGCTCCTCCTCAGAGCCACACTGTAGAGTGGGTGGGGCAGGACTGTGAT
1.06932945811033 GGGGAGCAAGGCCCGGGCAGCCCCTGACGCCGTGCCCGGCCCGTGGCGGAGGCGAACCCGCCGCACAGCAGCCCAGCGCCCTCCTCCGTGTCCCGCCCGGCCCCGCAGGGCCCGCCCTTCCCGGGCTCCGGGGCTCGGGCTCGCGCTCGCTCCGAACACACAGGAAACGCGCGTCGCGAGGTGGAGCCGCCCGTCCTCTG
1.264170714890811 CAGGGCCTCTCTACTCCACCCTGTCCCCGGTGGCTGGAAATTCCAGTGAGTAATGAGAGTGCCCCTCCATCAGACACAGACTCCACTCACAGGCCCTCGGTGCCCCCCTGGAGGGGAAGTGACTCACCAGTCCCCACAGCTTCCCTCCCCTTCCCTGACAAATGCCCTGAGCCAGCCCTGGACCTGAGCTCCACACTCCA
1.681390733727555 GCCGTGGGGCCCCAGCTGATGACTCACCCATCTCACTGTTGACAGTAACCTCTCAAAGGGCCTGGCACGTTCTCACTTCCAGGCCTTTAACAACGGCAGGTCCTCGGCTTGAAGCACTTTCTCCCGCCTCTTGGCTTCTCCCTGGCTCTCCCAGCTTTCCTGGCAGAAACTCAAGCCCCACCTCCAGACTGTATGAAGCT
1.547418810643003 TGCCAAACACCATCTCACAGAAACCTCACAACAGCTGTGAGGTTTGAGCCCTGTGAGGTCAGGAGGGAGGAAATTCTCAGTGTCTTCACACTACAGATGAGCAAACTGCAGCTCTGGTGGGGAGTCATGAGTGACACCCCTCAGGCCACACAGTGAGACAGTGGTAGAGTGGGGACAAAACCCAGTTCTTCTCTCTGCCT
1.458537614746814 CCAAAACATCCCCAAGTACTCAGGAAGAGGCGTCAGCTCCCTCCAGGCACCCCGTGTAAACAGCAATCCCTGCAGAGTCCACTAGGTGGGGCCGGTGACCCAGCGGAAAGGGCAGAAACGCTCCCCGAGGAGGGAAGGCAGGTGCGCGGATGGGACCTTTGCCCGGACGATCCCCAGGCTGGACAAGTGCTCCCTACTCC
1.153994136487235 CTGAGCCCACTCCCTCCAGGGGTCCAGGGCAGGTTCTGGAGTGTGGGAGGGGAGCCCTCAGCCCTCAGAACAAGGCCCCGCACGGAGGACGGAGCCCAAGGCAGCAGGGCGTGGGCGAGGAGGCTGTGCCCAGGCCTGGCAGGGACAGGGGCTCACAGCAGACTCCTCGGAGCCGGTGCTTATTTCTATCACCCCAGTGT
1.56399688407678 GGCCTCGGAAAGGCCCCTGCGTCCAGCCCCACCAGCATGGCTATAGGAGGGACCCTCCCACAAACCGGCCCCTGCCCCTTGGCCTGTTTGCTCCCCAGCTCTGACCCACCACGACTGGCAACGGAGAACGTGGCAGTGTTGCTCCCGAGGGCTGTGGTGGACCTCCTTGGGCTGGGGCCGCCAGCGGGGGGTGGACACCC
1.536305718733008 AGTGGCACCCAGTGGGAAACAGCAGGGCCCCTGGAGGGGACTATAAATAGCCAGGAGGGCTAGAACACAGAGTGAGCAGAGGGGGAGAGGGCCGTGCTGGAGAGGAGGCAGGGACTTGCTCCTGAGAGCCTCGTGAGCTGAGCCGAGAGCCGTGCAGGACTCAGTGAGGATGGGTGACCTGGCCCATGATCCTCTGCAGG
1.697852366208801 CCCTTCACACATACACCTGCAGAAGCAGCCGCACCTCTGCCCAGTGCTGCTGGGTGGCCACGTTCACTGGCCTTCGGCTCAAAATGCTGGCTCTCCACCCAGAGCCTTCCTGGGCCTTAAACATAATTCTACTGTTGAACTGGGCTGTCACAGAGTGCCTCAAAAGTCACCTCCTTCTCCCCACTCCCAGCTCCAGAGCA
1.358453046465319 CACTTGCTGTGTGCTGGGAGTTGCGGTAGACACTGTCCTGTATGATTCCACTCTGAAGAGGTGCTCAGAGCAGTCAGATTCGTCCAGACACAAAGAGGAGGGTGGTGGCCAGGAGCTGCAAGCAGCGGCACACGTGTGGGCAATACACAGGTTGCCCAAGCGCCGAGAGAGGCCCAGGAGGACGGGCCCCGGGCATGGCA
1.502890536577029 GATCTCATGACTGCCAGGCTCTCACAGAGGCCCTGGTTCCCCTCTGGCTCTACGTCTTATTTCCCTGGACCAGTTCCCTAAAGCCCTGTCTGCTGAGAACTCATCTGACAATTCATCCTAATCCCTAGAGGGCCCCAAGCAAAAATCCCAAGCTCAGTTCCTGCACCCAGGCTAGGCTTGGTCAGTGTCCAGCCCTGCCC
1.200368675103975 GTGGTCACCATAGCAACAGGCTCCCGCTCCAGCCTGCCAGGCGGGGCTGATGCAATTCTCGGCAGCGAGCAGCTCCAACTCAGCTCACATGGCTCTGCTCCCACTCGGGGGCGGGCGCGTGGGAGGACCAACGAAGAGGGAGGAGGTGGGCACGCAGCCCACAGAAATCTCAGCTTCCCCCAGTTCTGCTCCGAGGACTG
1.713981984903907 TCAGTGTGGCCGGAGGCCCGGGGGTGTGGCAGTGGGGCCAGGAGGGGAGGCTGCGGCTGGAGATGGGTTGGACCCAGTCTCTGAGAAGGCTCCCACGTTGTGCTAAGGAGTTTAGAGTTTATCCTGCAGGAAGGAGGGAGCTACGAAGGCTTGGAGGGCAGATGCTGCAGGCGCCTGGTCCTTCCCATCCAGTGTGGGCA
1.278388146071162 CGTACTCAGACAACCAACACCTATGGAGGGCCTGTGCGGGAGCCGCTGTGGGAGGCGCTGCCTCAGAGCTGGTCTGATACCCTGTTCCTGCCGGTCCTCCTGCCACATTCCCTGCCCCTTCCTAAGTCCTGTGCCGGCCTCTCCCAGTCCCTCGAGGCTTTCCCGGATGAGGAGCGCAATGAGCTGGACAGCTGAGCTGC
1.507976105146706 CCTCCCGAACCTTCCCCCGCTCGTCCCTTTCCACACCCCTGACCTCTGAGCGCGGCCGTTCCCGCCACACATGGAGGGGGGCGGGTGGAGACCCGGGAGGACCGAAGTCACGGGGGCTGTGGGGCCAGGACAGTCCCACATGTGCCCCTCCTGGGCGGAGGACAAACTGGAGCCAGGAGAAGCCCCAAGGGCTCCACGCG
1.397801458493029 GCCCCATAAGCTGCTTGGGCAGAGGCCTCTGCAGCTGCCCCAGGGGAGATGGGGGTCACCCACTCATCACAGGCTGGGGAGCCCCTGGGAGACGCACAGGATGATGCTCTGGGTGGGGAAGCCTCTACAGGTGGCTGCAGCAGAAGTGGTTTTCAATATTATTAGCCCGTCCCTGCGTCCCCAGGGCTCCCTCCGCCCCA
1.286661783376298 CTGCCATCAGTGGAGCCTCTGCTCTGGGGCTGCCGGTCGGGCCGTGTGTGCTGTGTCTCTTTAAGGACCAGGCCTCTTCAAGGCAAGTTCCCTCTGCAGTCCAGTCCTGCCTCTGCCCGTCCTGCGGCAGAGAGTGGGGGCTCCCCAGCGCCATCTGGCGGCCGCACAGCAGCACCTCGGCCACCAGAGGCTTCCAGCCA
1.527277864199062 GAAGCCAGGCACACACACCCCTGAAATCACTGCACCAGCTTCTCTTAGGCTGAGCTGCACCCAGGACATGCAAATTTTCCATAAAGCACTTTCGGGTTCTGATCGTGAAACCTCGTGACTCCTAATTTCCTCTTCCCCAAGCTCTTGGCACCTTGTCCTGAGCTGGTCAGCTCAGTCTCATGAACACACAGTCCGGTGCC
1.470629806461377 AGAGAAGCCTCCCAGTCTCTGGGGCTGCGGGTTCTGTCTGCTCCCCCTCCCAGAGGCCACACATGAGGCTGTACATGCAGGCAGGCCACATTTCCTTCCAGGCCCACAAACAACCTCGACTTCCTGCAAAGACCACTAACCCCAACGTCGGTACACGTGGCACGTTGCCCAAGGCCGAGCTGCTGCTGATTTTTAGTGTG
1.37371396756159 CCTTTTAAAAGGTCTTTCACTTGCCGGTGTGAGCAGAGGATCCTGGGGAGACTCCTTGGAAGGGGCTTCGGATCCAGCCAGGCTCCCGCGCAGTCCTCAGGGGGCGTGGCCCGGCTCGTGGGGGCGGAGTCCATGGGGGGCGGGGTCCGCGGGGAGGAGCCTGCGGGGCGGTCCCCCGTGGGGGCGGGGCCTTGAGGGGG
1.281068068925958 CAGGGCCCGGGTCGTGTCCGTGACTCGCGCAGGAAGGCGGATGGCGCCCCCCGGGCCTGCCTACACCCTGGGAACCTCGCGGGGCGAAGGGGGCTCGGGCGCTCTCTCCGCGTGGCGAGAGACCCGCCAGGGGGTGTGGCGTGAGTGTGTGTCCCGCCAGGACGTTCCGGTGGCGCCGCCTGACGCGGGAGGAGAAACCA
1.542044349609771 AGCTGGGTGTGGTGGCACACTCGGGAGGATCACTTGAGCCAGAGAGGTTGAGGCTGCAGTGAGCTCTCATGTGACCACTGACGTCACATCACTGTGATGGGTTAGACACTGATGCGTTTATAGTGTAACTGCCACGTGACTGGGTTGTTGCGTGCACAACCGAGCATCCCTTGACCCCTTAGATCACACAGGGTTTATCC
1.587313977385093 GCAGCATGTGCTGCGTCTCGATCGGGTGATTCCCACACCATCACTGCATGCCACGGTCCCCTGTCAGCCTGTGAAGAACCAGTCTCAGAGCCACATCTGTGGCAGAGAAGTCCTTGCTACTAATGAGATTCGAGTTCTCTGCTAACGTCGCGGTAGAGAAGTGCTGACCACTGCTCCCTTGTTGACTCTGTAAGGGAGAG
1.540865797823929 TGGACTAGACATGGTCTCTGGGCACCAGGCCAGCCGGAAAACGAGATGGGCCTAAGCCTCCCCTTGCCCTCTTGCTCCCAGACTCCTAGAAAGCCAAGAGGCCGGGCGCCGCCTTCTAAGAAGAAAACGAGTCCGCAGAGGGGGCTGGTGAGGGCCGTGGCCCTTCCCTGAAGTTTGCACGTGGCCCCAACACACAGAGC
1.077733111745945 TCAAGTGTCCCCTTCCGCCCTCGCGCCTCCTCCCCGTCTTCTTCCTCTTTTCTTCCCCTCCTGGGTTTCGCCTCCCTGACGTCGGCGGCTCCTCGCGGCGGGGGCGGGCGCCCCGGGGATGAGAACCCGCCCCGGGCATCCCACAGCCAGCTCGGGCCGCGGAGCCGCCGGGGGAGGGCGGGAGCTGCGGGGCCTGGACT
1.348506834341775 CACCCAAGGATGACTGAGCCAAGCGGCTCTAGCTGGAGGCGCCCGGGACCTCAAAGCTGGACTCCCCGGGGACTGAGTCCAACCGTGGCTGCAGGGGCCGCGGCCTGGCGGAGGGTCCGCGTGGGTGTCTACGAGGATCCCCCCCGTTCCATCTCCTCTTTGCGGCCTCAGACACTTCCCCTGGGGAGGACGAGAAATGG
1.546774463012558 CGTACAGGGTGGAGTCCAGACTCCTTGGCCTGACGCAGGAAGTCCTCCCACATCTGGTCTCTGCCCACGTCGCTGCCTTCTTCCTATAATTTAGCCTTGCCAGCTCAAAGCTGGCCCCAAAGACCTCACACCCTTTTCCTTTTCCTTGGAACTTCTCATCTCTCCCTACACGCTTGCAAAAGTCCCCGCTGCCTGGGGAC
1.470961989719952 CTCCTTAAACTGCTCCTAAGATCAGCGCTTGAGATATTTTGGAAACCCTGCACTTCATGAGTCAGCTGACACCACCCACATCAATAAACTGGCTCATCTGATCTTGCGGACCCCACCCAGGAACGATTGAGCTCAAGAAGACAGCTTTGACGCCCTGTGATTTCACCTCTGACCAATCAGCACTCCTGGCTCACTGGCTT
1.59769200510454 CAATTCACACTCCTGCTGGGCCCAGGCTGGCCCCCTTCCAGCAACGGGCCTACGCCTGTGATTAGCAGAAATAGCTTTTCCAGCCATTTGGAGCAAACAGGGAGGATAAGTGAGCAATTTATGAGTCTAACAGTCGTTTTGGACCCACGCCCACTGCTGAAGGAGCAGGATGGAGCATTTATCCCTCCCCTGCCCTCGTT
1.147535926848127 TGTTCTGGAACCTTCCCCGCAGCCCCAGCTCACACCAGTCCGCTGAGAGGCTGCCCAGCTGCTGTACAGGAAATGCTCACGCTCCGTGGGAGGAGCCTTCAAACACTCACCCCTTCCTGGAGTCCCGGCGGGACGGGAGAACTGGGGACTCTGCGAAAGCGCTGCGGAGCGTCCAAGAGCTCCCCGTGGAGCTGAGGCAG
1.376772403993909 GTTGCTAAGGTTTGGAGTCTAGGAATAAAAAGTTCCCTTCTGAGTCCGCCACAATGATGGCGGGAGGCGGTGGGAGGGTGGGCGATGGTTTTGTTCCTTTGCTCGTTCACCCCGGTGGGGAGCCGGGGAGCCAGGGAGCAGAGTGTGGGAACTGGGTGGAGATGTCTGCGGAACGGTCACCCGGACACGGGAACACGGCT
1.133298504938263 GACCCGCTCTCCGGAGGGGGTGGGGTCGAGGCCCCCGTGAGCGGCTCCCGGACTTTCTCTCCCGGGCGGGCGTTCCGTCCTCCCTCGGGGAGCGGCGCCGGAACTTCCGGAGGAAGAGCCGGAACTTTTGAAGCCCAGGCCCCGCCCGGCGCTAATAGGCACCTACGCGGCCGCCGGCGGAACCGCCAGACCCTAAATCA
1.470117702134171 CAGGAAGAAAGACACCCTGTCCCTGGCAGCCTGAAGGAGAGGCCGTGAGGGCAGAGGCCGATGGAACTGCTCAGAGGGAAGGGGCTGGCTCACGCTGCACGGCCACCAGGCCTCCAGGGATGTGGGTCCAAGGTCGTTTGCTAAGAACTAGGGGCCTGGTGGCAGCAGGGAGGGGAGGTGACCAGGCACAGACAGGCCAA
1.546906855380427 TTGAACTAGGTTCAGGAAGAACAGAGCTCACCGAGGAGTGATACATAAAACAAGGCCCCCGTGAAGCCACATGACTCCACCCAGTCCTGGTCTCCCCAGGCAACCACGAGGCCATTCATTCTTTTGTGTGATCCGGGAAGTGGGCTTGATTGAACGAGGATGTGGTTCTTGGGTGGGAAATGGAGGCTGTGAAGACAGTG
1.555410349863009 CCTCCTCCACCGCCCTGAGAAGAAGTGCCAGGCTTTGCTGGGTTCTGCTCCCAGCTGTCCCCAGCTGGTGAGGGACAGGCGTGGTTAGGGGTCTGCACAAGAGGCCCTGGCCACTTCTCCGGGGACAGCCCTCTTCCTCTCCCCTAGAGTGTGGGCTGCCATGGGGACGGGATGTGTCTGGAGGCCCAGGCTCAGGGCCA
1.47453009147988 GACTCTGACCCAGTACCCCACAGAGACCACTGGAAGGACTCTGACCCAGTACCCCACAGAGACAGCTGGAAGGACTCTGACCCAGTACCCCACAGTTCTAAGGAAGAGGGTTAGTCCACGGAGCTGCAGAGGTGCCCGCTCCGGCTCTATGGGGTCAGCAGGAGGTGACTCAGGACCACCTCTGAAGATGGGCTTTGGGT
1.375007649578914 CGTTGGGAGGCAGAGGGAACTCCATAGAGCTTCCCCGGAGACTAGGGAGTGGTGGGGAGGACAGGCCACTGGTGCCAACCTGTGACTGCTCCCGCCTATGTCCCCTCCCTCACAGTTCCCCTGGGAGTGCCAGCCCCTTGACCGGTGGGATGCGGCCCACCAAAAACCCAGGGCATCCTTAGCAGAGACCTCTCTCAGAC
1.532147968428936 TTTTATGGTGGTCTTCTACCAAACACAAAAAGCAGTACCGAACCTGTGAATGCCGCAAGCTACACACACCCTAGGAGAGAGCGCCCCCTTGTGGGAATCAGTCACATCAACAGATTCAGACACACCAACAGCTGGCTCCAACGCGGGGAGCACTCAACAAGTCTTGACCCTTCTGTGTTCTGATTTCAACAGCTTTGATT
1.509731529145709 CATATACATCACATCCAACCACAGTAGGCAGGAGGAGCAGGCCGGAAAAGGCTTAGGTCAGCGCCCTGGAAGGTGGAACAGGCAGAGTCTGTAAGCAACAGGACGATCATACGCAGGCATGATTAGTGAAGAACCAAAACTGAAAGCGGAATTCACTGTGCCATGAACGTGACTTACAAAGTAGAGTTTTTAGGAAAGGA
1.72018327622053 ACCAAGGTATGGTGCAGCCATGTTCCATTCAACAGAGTTCTTTGCTCTCTACTCCTAGACTTTCACTTGTCCACACCCATGACCATGCTGCTCCATACTAGAAGTCTGAATTGCAACACTCCACTCTTGGCCCGTGGCTTCCTTTTTCAGTTCCTCTTCTCTTATTATTTCTATTTAGGGACTCATCAGGACATCTGGAC
1.10399389347885 TCTCTCAGCCTCTCGCTCCGCGTCCGGGCAGCAAAAATGGCGGCGCCTCAATCCGGGACTTCCGCCTGCGCACGCGGACAACTGCTCAGCTCTATGGCAACCGCTCCCTGGCAACTGGCGCGGGGGGCGGGTCCTGGAACTCGGCGCCCGAAGCGGCTGGAACGAGCGCACGAGACGCCTCTCCTCTGTCGGCTCAGCGG
1.374135249602951 CGGACTCAGTCCAGGCAGCCCTGCTGGAGGATGGGAGACCACAGGAAGTAGAGATAAACTGTGTCAGCTGAGGGCCATCCAAGATCAACCAGCCCCTGCCAATCAGCATCTGACCTCATCCATGAGTGAAACTGGCCAAGACTTGGAGAACTGCCCAGCTGAGCCCAACCCCAGCTGCTGACCTGTGTAATTATAAGATG
1.282679694866493 TGACGCGCTCCCTGCCCGAGGGAGGCTGCCGGGAAGGGGCCCGCGGCCCGCCATTGGGAGAAGGGCAAGGCGCCCTCGCGCGCGCACTGCGCATGCGGATTCATGGGCGGTGCCGCCCTTCCCGGGCCCGGGCTGCGGGGGATGGGAGGCGGGGTCTAGGGCCCGAGGGGCGGGGCCTCGCAGCCTCCCGCAGAGACGCG
1.587271948199493 GACACTGATTTCATTTTGGCGAGTCATCTCCTCCCACTCTTGGTTCTGTGGTTTCCGGTGTGGGTTCCGGTGTGCCCCTGGTAGCTCTGTCTCCAGGGGCAGGCACTCGATCCAGGCCTGACCAATCAGAATCTATTCCTCTCCCTGGCTACAGTGATTGGGTCAGGGTGGATGCCTCATTCAAGGTGCTGCACTGAGAA
1.123185172576521 ATAGACCAGTGGGATCTAGGGTGCCCTGGGGCCACCTAGGGGAAGAGGATGAGATACACGAGTCTGTGGCTTGCTGGAGAGGCCTGGGCGGGAGGGTGTGTAGGCATCCTCAGCAGGGAGACGCTAGGGCCGGGAGGATGTGGTGCTTCGGGAGAGGGTGGGGTGGACGGCAGCAGCGGGCAGGGGCACAGTGAGCCACA
1.675776612821718 TTCTGCATAGATGGGACTCCAGGCGTGTCAGCATGCCTGGCTAAGCTTCTTAGTTTCTGGACACATGTGAGGGGTCCTTAACTCAGCACCGTCCCTGGTCACCTCCTTGTGGCTGGTGTTTTGTGATGGCGGAGGGACTCCTGCACTCCGCAGGCTCTGCTGCAAGTGAGCCCTTGCCCCCAGCAGCCCCGCAGCCCCAC
1.452511128319085 TTACTCCCAGACTACACCAGAGGGGTTCCCCCAGAGGGCCTCCCACCCCAGCTGGGCTCAGCCACCCACTCCAGAACGCGGGGGAGGCCCTCCCTCGCATGGCTGGGGCCACTCCCTTTCCTCCAGCTGCTGGGCTCCCCAGGCACCTCCTCCACTGAGAGTCCTGAGAAGCCTCAGGGGATGGGGGCTTTACCATGGAA
1.270052968070288 GGGGCGGGGGCGGGCTCCGCCTGAGTCAGGTTTTCCAGGAGGGACGCCGTTGGCACCAGGGTGGAGCCCGGAACCCGCGCGGCCGCCGCGTCTACACCGACCCGGAACTCACTTCCGGGCCTGGGACTACACTCCGCGGCGGGCCTGGGCGCTGGGCGGGCACCGAGGCCTGCGGGTCCCAGAGGAAGCGGGATTTTCCT
1.259727054048375 GGGGGCCTCCCTAGTCCCTCCGGATCTCCGGGACGCCCCCCACCTCCGAAGCGGCCTCGGCAGAACCTCCCTCGCTTGGCTCTGCGGGCACCACCCTCCCTCGCCTGGGGCGAACCTTGGCTCAGATCCCACCGCGGGCAGGGGCGGGGACGTCTAGAGTCTGCAAAAGGCTGGGCTGGTTCTTCCTCGCGGTGGGACTC
1.040021524959684 GGGTCAAGAGAGCCCCTCCCGGAAGCTCAGCTCTCTCCCTGCCCCGCGAGGCGTGGGGGACTCGGGCCGGGGGCGTGGCAGGAGCCAGCGGGGGCGCGGCCAGAGGACGGGGCGGAGCTTCGCGGCCGCAGTGTCCGCCCCGCCCCTCCACGTCACGCGGTTGGAATGAGGGGAATCCGCGCGCGGAGGGGTCGGGCCCG
1.376742738028413 TGAGGGCCGCGTGGCCATCCTCCTTCTCCGGCCACCCCGGAGCCCCCCGCCCGTCACACTCGGGGCGCGCTGGGCCCCAGGGGCGGAGAACGGGAAGGGGCGGGTTTAGGCGGCTTCTCCGGAACCCAGAGGCGGAGCAGGGCTGCGGGCGGGGCCCGAAGGGCGCGCAGGGTCCTGGGTCCTGCAGCCCAGGCCGCTCT
0.4539120558595659 GCGGGCGGGGCCGGGCTGGGCGGCGTGGCGGGCTTGGGGATCCGCGGCCCGGGCGCACTCTCCCCGCCCAGGGCCCGCCGGGGGCCGGGCCGCAGCCTGTCGTCATCCCGGGCAGGGCCGCGCACCCTCCGGCCCCGCCCCGCCCCGCCTCAGCCCCGGCCGCGTCCGCGAAGCCTCGGTGCGTGCGGCCCCCGCCTCGG
1.045695454227543 GCCCTCCGCGCACCCCGGGATCTGGGTGGTGCGGTTCGCAGAAGGAGGCGGGACTCTCCCACGAGCGCAAAGCTGCGAGAGGCTGAGCGAAGACGGGTTCGCGGACGTAAGAGGGGCGTGTCGGGCCTGTCATCAGCGCACGCGCAACACTGCCCCAGACGACGCGAGGTGTGCGGCCGCCACTAGACCCGGCCCAGCCC
1.739817055631624 CTTTGGCAATCTGGGAGGGGGAGCCCAGTGGGTGGGCCTGAAATACTGACATGAAACACGTCATAAACAACAGTACAGCTTTGGTCCCACCAACATGGCCCTGTCAGGCTGGGTACCAGAGGGGGACTGGTGCCGTGAATCTCTGGAAACAAGAAGTGAAGCAGCCCGGCCGACCTGTGCCAGGAAGCACTGGTGGACAC
1.635820115440596 TTCATATTGGGAACAGAGTGGAAGTTATCACAGGAGCTTCATGCTGACACTGCAGGAAAGAGAGACGGAGCCCAGTGACTGGAGGCACTATACTGGCTGACGAACCTCACCCAAACTCGAGTTTAACTGGAAGCTGGGGCGGGGTGGGGCTGTGATTTCAGAAGGAAGCAAAGAACAAGGCTGCGCCAGGAGAGGAGAGT
1.148001272965496 CTGCCGACGCCGCCCGGAGCTCCGGTTCCGCAGCGCCGCGCGGGGGCGGGGCGTCTCTGCGGCAACCAGAGCGTCACACGCCGCGGTGCGCGCTGACGTCACGCGGGGCCGAGCCTTCCCAGGCCCGCCCTCCCGTCCTTAAGTGGGCCGCGGCGGCGCTGTCGGTTCCGAGGTGGGGCCCCGCGGCTGGGGCCAGACCC
1.433896057660766 GCGGGTTGGTGGGCCAGGCGGACGGGCCTCCCCCGTCATCAGCTCCAGGGCCCCACGGAGCCCGCCGGCAGGGGGTGCTGTGGGCCTGTGGCCTTGGACAAGCTCCTGGCCCCACGCCAGGATGGCTCCTGGGCACTGGCCCAGCTGCAGGCCTGGCGGCTCCCGCCTGGTCAGTGGGGATAAGGGCTAACTCCTAGAGC
1.277711775114981 GACTCTGGGGAGGGCCCACCCCACTCAGCTGTGCCCAGGGCCTGTGGGTGTCTGGCTGAGCCGAGTGGAAAGCGTGGTGCCAGCGGGGACCTGCGGTTTGGGAAACAGGCCCAGAGAGGAGTGTGGAGGCTGGGCTTGGCTCTGCAGTGCCCTCGTCCAGAGAAGCATTGAGTAATCGCGGAAACTCAGCACCACAGATC
1.501393129689393 CCCTGCTGACATTCTCCTGTCTGCTGGTGCCGGGTCACAGGCGGACTGGTGAATCAGGCCTGTGACGTTGGCGGGTAGCGTGATGGGGAAGTGGCGGGCATGCGGAAGACCTGGTGCAATCAGGGTCCCTGTCACCACACTGCCTGCGGGAAGCGGCTCTGTCACATCTACCTCCTGCTGTGCTCAGAGAGAGGGAAAGG
1.632939812475451 CACTGGAAAACACACACCCCACACCCCACACCCAGGAGGCTATTTTGGTCCTTCCCTCCCTCCTGGACCAGGAAACCCTGATGGGGACACGAAGAAACAGTTGGGGCTGGCAGTGATGCAATAGCTCTGACGGGCAGACAGCTCCTGGGATGCGGCCTTTCCATGGCCCGGCTGGCCCGGCTCAGCTTAACACATTCTGG
1.622724381490817 GAGCCCTCATCAGAGGCCTCAGGGGGCAGGGGAATGCCCATGGAACTCCCTCCACCCTGGGGGGAGGCAGAAAGAGATGACTTAGAAGGAGAGCTGGCCCATGCAACCAGAGGGTGTGGGTGTGAATGGTGGGTGTCAGCACATGCCCTCAGACGAGGAACAGTGACGTAGCAGCTTCCTGGGGCCTCTGGACCAAGGGT
1.789460866580752 AAGCCTCTCTGAAGAAGCTATTATTCTCACTTCTTTCCCAATGGCCAGCTCGGAATGGCACAATTGCCCAACTGGGCGAGCCCACAGAGTTCCCTTCTTCCCTCTGGGAGAGACTTTTTGGTTCCTCTTTTGACTTTCTTTTTTGTTGTTGTTTTTGAGACAGAGTCTGGCTCTGTCGCCCAGGCTGGAGTGCAGTGGCT
1.278968812428172 AGGACGGGCTGGGAACGTGGCTGAGGAGCTCTCCTGGCCGGGACTGCTAGTTAAGAGATGCTGACTAATCCTGCAGAAAACAGGAGCCGACTTTGATTAGACATGAGGTCACGCTGGGAGAGTCAAGGAAACGCTCTTCTTCCGGTAACTGCCTGCCTTCCAATTGCAGCCCTCTGGCGCCAGGGCTGTAGCGCCGAGGT
1.921687617643612 CTTAGGAGACTCCACAATGGCCTGAGGAACGTCTAGATTCTAGATGAGCCCTCCCTGGGGTGGAGGCAAGGCCACTTCCTCTCCTGCTGCACCCCAGCCCCTTAATCTGGAGTTCCTCTTTCTCACAAGCAGACAGCAACATGTTTACTACCAGCCAAGCTATGTTCCAGGGCTGGGAGGAGAGGAGAGCAGTCCAGCAC
1.264078892277498 CTGCCCTCTTTTATTCCAGCCCTTTTATTCCGACCCCAAGAAGAAAACACTGCCGCCCGCTGATTGGCTGAGCGGGGCTGGAAACAGGCGTCGACCAATCAGCAGCCAGCCCCCCGCCCGCCCCGCCGCGAGCAGAAGCCGGTTCCGGCCGGACTCGGAGACAAACAAGAGAGATGGGGGACGGGAGGGGCCTGGGCGCT
1.478880740819838 CCACCACCCCAGGGCTGTGGGAGCCCCAAACGCCTCTTGCTCCACCTGCCCCAGTCCGAGTGTGCCCCCTACTGTCTAGAATCCGCCCGGGCCACCTGGCGAGGGCAACCTCCCCCAGACAACGCTTGGAGCTGTCAGCCTGCTGGGGGGCGGCTCCAGCTGGTAGCCTACCCGGTTCCTCACCCTGTGGAACCCTTCCC
1.4094284809583 TTGCACTGGCACGGGCGGCGGCACGTGGACGACCACCAGCCGGGTTCGCAGTGGCACACGCCGGTCGCGGGGTCGCAGCGCCCGTGGGGGCCGCAGGCGCACGGGAACTCGCAGCGGGCTCCCCAGCGGTCGGCCTGGCACTGGCACGCGCCCGTGGCTGGCTCGCACTGGCCGTGCGGGTGGCAGGGGCAGCTCTCACG
1.549714249097222 CCCGGCCTGCCCCCGCGCTCGCTCTTTAGCCTGCGGAGTCGCGGCTTCGCCAGGCTGCTGGCGCTCCCTCTCGCGGTCCTGCGCGGCGCGCAGCTGGGTCTGCATGGCCGCCAGCTTGTGCCGCAGCTCAGCGTTCACCAGCAGGAGGCGCTGCAGCTGCTCCTGCAACTGGGAGCGGAGCAAAGGGTGGGGTGGGCGGG
1.839882728118503 CTGACTTACAGCTCCCTCTAGGTGGCATCTGATGTCCTTCCTTCTCTTCAACTGACAAACAGATTGTCCTTGCTGTCTCCACTCACTCACTTCCCATGAAGCCTCACCCACTGCCATCTGGCTTCCATCCCTACTATTTCTGTAACAGCTCCTGCTAAGGTCACCAATGACGTCCTAACTGTCAAATCCAATGGATACTT
1.480494747830778 CAACCCGAGTTCAGCAGTTGATCCAGTCGGCGCCGAGGTGCTCAGATGGATTAGTGAGACGACCAATTAGAGTTGCACACTGCGCCGAGGAGGCGGGCCCATAGGCGGAAAGGCTTTGAACGCAAGGGGGTGTGGTCGGGGTGAAGCCCCGCCTCCTCCATTTCCGAGGCTGTTTCTGGGGCCTCTGACAGACCTCAGCG
1.534280394633102 AGGCCCCGGCCGCAGTCTCCCTGTGCGCACCCCCACCCCAGTCTCAGCTCTGGAGACGCCCGGCGGGTCTCCCGGCCTCAGCCTCCCACCCCTCGCCCTCGCCCCGTGCGCCTCGAGCCCCCAAGCCCGCACCCGAGCAGCGCCCCGGTCCCCGAGAGCAGGCTGTGCGCCAGGGAGACGCAGAGGTTCCACCACTGCCA
1.467747030578433 TGTCTGCCGGCCCCTCCATGTCTGAACTTTGTTCCAAGTTCCAAGCCCCGCCCCCACAGTTCCAACGCATGAATCAGCAGGAAAAGCCGGGCCCTGCAGCATGGCCCAGGGAGGGGGCTGGGGGCGTGGCAGGCTCGGGGGATGTGAGCTGGGGAGGGCGGGTCCGTGCTGACACTCAGTCCAAGGGCATGGCCCACGCC
1.244677749310743 CGGGGCCTCGCCCTGGTCCCGCCTCTCCGGGCGCCCTGGCTCTGATTGGCAAGGAGGCCACCCTTTTGCCGGGCGGAATTGCACGAAGCCACGCCCACCCACTGAGGAGCCGGCCAATAGACGGACAGGTGTGGCCCAGCCCTCCGCGTCAGCGACCCGCTTAGAAAAGCGCTACGTCAAACGAGAGTCCTAAAGAGCAG
1.371379133351456 CAGGGCCAGTGGTTTCACTGTAGACAATGGTCTATCTGTCCTGCAGATGAGTCAGAACTAAGACCCCTTGAGGAATCATGTTGCTTTGGTGCCGGCTGTCTGGTTTCTATTCCATATCCTGTGCCGCACCCTTCCCCCAGCCACAGTGACATCTGGAGGCTCTGACCACAGCTGGCAGGCTCTGTGGTACCGCAGAGGCC
0.8790607233658965 GGGAGGAAGCGGAGCCCAGACCGAGCCAGAGCGGAGCAGCGGGAGGGAGGGCGGGGAGGCCGCCGGGCAGGAAGCGGGGTCCCGCCCGGGCCTCTGGAGCCACGTGCGCTTGTTTCCGTGCTGGGGCGATCACGTGACCCGCGTCAGCTGACCCGTCACGGTGGAGCCCGGTGCTCGCGCCCGGCAGCCTCTGCCCCGCC
1.637567739044301 TATGTTGGTAAGGAGGCCTGCGGTCAGTGCTGGAGATGAGGCTTTCTCCCAGGCCCTCTGCCTAGCTTCAGCGCTCTCCGGCGGGGATCCTTCCCACCCCTCCCTCAAACCACCCCCCGGCCAGGTGCTGGGTCCCAGTCTAAGTGCCAGCCTTGGGTAGGGCCAGGCTGGGCCCCCAGCTAGAGTGAGCTCAAGCGGCC
1.444574472665595 CCGCTGAGCAGAGTCCATGGCCCTGCCGGGCTGCCCTGGCTGGGGGCAGGAGCACGCCTGGGCATGGGGATCCTGTCCCCGTCTCCTTCCCCTCCCCCTCCCTCCATTCTCAGTCACAGGCCTCGGGGAGCTGCTCAGGGAGGCCCAGGAGGGGAGGAACAGGGCTTCGTGTGGGAGGATTTCTGCAGGCAGCTGGGACT
1.292855101768926 AGTTAAGAGCAGGAGGAAGCGTTGCTACCTTCACTTCTCCCCAGCTCTGCCCTCTGGGTCCACATGAGGACAGGGAAGCTCGGGAAGGGGAAGGGAGACTGGCCCTGCCCAGCCGGTCTCTAGCCCCTCAGCCCCCGCTGGGCACTCTCTGTCCCATCCCTCTAGGACAGGGAAGCTGGCCTGGTCCAGGGCACTGATGG
1.743578571270244 CACCCCCTGCCTTCCATCCCAGTCTGAAGGCAGCCAACCTGATCCTGGGCTTGGAAGGTTGGGGGTGGGCTTCCTATCCTGGGCTCTCTGCATAGGCTCTTGTGGCTTCCCCTTTCCTCCCCTCAGGAGCGGGAGGCAGCTCTCTGGGAGAAGAAAGGACATTGGGAGTGAGAATCTGGATGTGCCTCAGCCCAGCTCTG
1.439838913838262 GGAGCCTGGGCAGAGAGTGAGGAGCACCCAAGTGGGGCCAGAGGAACGTTGTGTGTGGCAGCAAGGAGCCCGCAGAGGTATGAGGGGAGGGGCTGCTCGGCCTGCTCCTTGGGTAGGAGAGGAGGAGGGAGCTGCCTCCCTGGCTGAGGGGTCTGGGATTTATTCAGGAGGCCTGTCACTCCCCAGCCTCTTCTGGGACT
1.110182967058537 CCACCTCTGGTGTGGGAGAGGCCCACCAAGGTCCGGCTGCCTAAGCTGTATCTGAAACACCAAATGGACCTGGTGGCCACCCTCAGCCAGCTGGGTAAGGAGGAGGGTGCGGGCGAGCCCCCGAGGTCAGGCTGGGCAGGGCGGGTAAGGAGGAAGCGTCTGGCTGGCAGTGGAGCTGAGTCAGAGCTGTCCTGTGTCCT
1.556717805931073 AGGTGTCCACTGCCAGTTGACATAAGGTCACCCATGAACTTGGTGACAGGAATTTCAGTGGAGAAGTGGCCACAGACACAAGTCTAGAATTGAAATGGGAGCCGAGGCAGCGTAGACAAAAGAGGAAACTGCTCCTTCCAGAGCGGCTCTGAGCGAGCACCGAGAAATGGGCAGTGGCTTTAGGGGATGTAGCGTCAAGG
1.634000183761448 ACTGTTAAGGCAATTTCCCAGCACCACCAAACCGCTGGCCTCGGCGCCCTGGCTGAGGGCTGGGATGGAGGACAGCTGGGTCCTTCTAGCCAGCCCCCACCCACTCTCTTTGGCTACGTGAGTCAAGGCTGGGCGACCAATGAGGTTGTGGCCTCCGGCAAACAATGACCACTATTTAGGCCGGCAGGTGTATAGGGCAT
1.239296935043341 AGGGTATCTACCTCTCCCTGAGCCCTCCCCCGCCTGCTAGGACGAGAGCGGGGCTTGGATACTGCCCTTTGGACAGGATGGCATCATTGTCTGTGGCTGCAGCCAGCCAGCGGTCGCCTGCTCAGCCCATGAGCAACCACTGTGGACAGGGTATTGCGTGTGTGCTGAGGGGCGTCCATGCAGACCCCCACGCTTGCCCT
1.158650844258198 AGGCTCAGGGGAGGCAGGCTCCTGGCAGCTGGGTGGGGCTGGCCCCAGCCGGGTGGAGACCAGCTGTAGGCCTGGATGGTGGTGAGGCCTCTGTCTTGCGCTGCAGAAAGCTTTTCCTGTTGTCTACACGAAAGTTTTCTCCCTGCATGTCAGGGCAGCCACGTGCAAGAGCAGCTGGCTGGGAACGCAGAGGTCTGCGG
1.482504194921443 AATAGATCATGTGTGCCCAGGCCTGGCCTGGCACTGGTGTGGAGGAAGGGCCCGTGAGCCCAAAGAGGCTCAGAAAGAGGAAGTGGGCTGCAGGAGACGGTGGGAGGGGCAGGGAGGGCAGTGGCGCGATGTGGGGAAATCTGCTGCCCCCCTGGCCAGTGCCTGGGGATGCCAGCAGAAGTCCTGGCAAGTCACAGGAA
1.987609940038271 AGATGGGGTTTCGCCATGCTGGCCAGGCTGTTCTCGAAAACTCCTGACCTCAGATGATCCACCCGCCTCGGCCTCCCACAGTGCTGGGATTACAGGCGTGAGCCACTGCGCTGGCCAAATCAGACAAGGTTTAAATCCCAGCTCTGCCTGTACTAGCTGAGGAACTCTGCACACATTTCATAACCTTTCTGGGCCTACGT
1.732081949319652 ACTACTAAGAGCTTCAGTTCCCACTGGAGTGGTGCACACATCTCATTACTACTAAAACCACAGGAATGTTCCAGGGAAACAGACTATCATCACTGAGCGAGGTGGAATCCAGCCAAAACCCCAGGCTAACATCCAGATGCCTGCAGATCAGCTAAAATCCTTTTAAAGGACTTGGAATCTCCAGATACTAGTTTTAAGTC
2.117186790395037 GACGAACCAGAGAACAACCAGAAGGAGAGCTATACTGGAGGGTGGGTGGGGCTGCCTGGCCAAGTTCTCTCTGGGAAACTCACTTGAGATCTAAAAGCTTTCCCCATATCTCCCAGGAGGAAATTCTTTTTTTTTTTTTTTTTGAGATGGAGTCTCGCTCTGTCGCCCAGGCTACAGTGCAGTGGCGCGATCTTGGCTCA
1.547515211424431 ACAAAAGCAAGACACTCCTATCAGCTGGGCTCACGCCCCACTGCTCTCTAGCAGAGACTAGCTCTGAGGAGGGAAGAACCGCCCTTCTAGGAAGTTACATCACTAGGCCCTGGAATTAAAATAAATGACACTCAACTTCTGGAACTGCACACAGCTCACGGATGTCAGCGATGACCCGTTAGTTGGCAGGGGTACTTCAA
1.593007965467925 TCCCTCTCACCCTCAGTCCCATGGCCCTTGCCCTACAGCTGAGGGTGTGGCATGTGGCTCACATATGGCTCCTTCCTCTGGCCCAAATGGCTGGAGGAAAACTATGTCTAATTTTCCTCCAGCCACAGTTCTCAGGTCAATGAAACACAGTAACATCTCTGCCCAGGCTGCTGTTTGAGTGGCATGTGCTCTTATCCTCC
1.475534823078112 CATGAGCCCTGGCCTTGCCCTCTGTTCCTCAGAAGATGAGCTGGGCAGCTAGGCCTGCAGCCCGTGTGAGTCATGGCTCCACAGCCAGATCCAATATAAATCAGATGGGACATGACTCACGGCAAGCTCCAGTCCCCAGGAAGCAAAGTGGATGAACGCACACAAAGTCCACTGGAGTCCTGGAACCTAACGACTGTGTC
1.394364742827478 AAGGGTAGACCCCATTTCACAGCAGGGTTGGGCACATGACACAGGCCTGGCCAATCAGAGGAGTCTCATACCTCTGGTTGAAGGGATGTGCATGTGATCAAAATTCAGTTGACCTGAGCCCCACCCAGAAGTTTTCTGCTGAAACTTCAGAAAGACAGCCTCTTCCCCTGGGGTGTTATTACACTATCAGGGTGTGCCCA
1.108564248763362 GCGCGCCCCTTGGCGCCCCGCTCCGCCCCGCACCGCGTCCGGCGTCCCGCGCCAGGCCTCGCTTGGGACCATGGGTGGGTCACGTGGGCCGCGCCTCGGCCAATGCGGCGGCTGCGTAGCGCCCGGGCCCGCCCCTGAGCCGCGCGCACGTCGGGGGCGGGAGCGGTGCGCGCAACTTCTCGGGCCAATAACTGCGCAGC
1.527145196913682 GAAACGCTGCCCTGTGTCCCCTTCCTCCCGGTTACAAGCTGTTTCTCCAGCAGGTGGAGCTGGGAGAATAAAAACTATGAGCCTGTGCCTGGGACCTTGCAGAGGGAGCTATCTGTGCTGAAATCCTGGTTGAATGAAAATTGTTCATTATGCAAACTGTCTGGTTCAGTACACAGAGGCAGCCCCCAGGCGCAAACCCC
1.238903518331542 GTCACCGGCGTACCGGATCGGAGCTGGGCCCCGGTGCCAGCTGAGTCCGGGGCTGCGGCCCATCTCATGGAGAGCCGGGGGCGCCCCAAACTCTGCGCCACAGCCTCACACATGCAGCTTGGTTCCTGCCCTGTGTTCTTAGCGGGAAGGGGTAGGTATGCGTGCATGGCCTGTATGTTGGCATGCTGGCTCACGGACGG
1.547905805463933 CCCAGCCCGCAGGGGGAGTACAGACCCTCCAAGCTCACACTGGACAGGCGAGGCATCGGGTGGGACTAGGGGCTTCCTGCCCTCGACGCCTCCACCCACTCCAAGTCAGATAAACTCCTTTAGGGCCAGGGCTCAGTGGGAAATGCCGCCACTCAGGGCGCAGCCCAGAATCTGCCCACTTATCACACAAGCGTCTGTGT
1.024511596516371 AACCCTCTGGCCACTCTCGGGCCAGCCCTGCTCCCGGCCTCGTGCCGCTGCCTGCCCAGGCTCACGGCCCAGCAGGCCTCACCGCCACTGTCACCCCCTCGTTCCTGGCAGAAACAGCCTCGTAAATAAGTGACAGCTCCCAGCTGTTGGGAGTTATGGGCTCCCAGAGAGTGGCAGCTGCTTCCCGTCCCCTGTAATCA
1.684805627249838 ACGACAGAGGTGGGGCTGAAGGTCAGATTAAATTGGACTAGTAACCCCAGGGGATACTTGAAAGAGGTTGCTAAAGAAACAGTTCCGGCAGGATCGTGCAGCAGCTGAGGCAGGCAGCTGGCAGCAGCGTGCGGGCCGGCCGGCCAGATCAAGCCTGCTTAGCAGGGCTTGCTGGTGACAGGCCTGGGTTCACACGTCCT
1.493979631465824 CAGTGACATGTGTCCAAGCCGCGTACGATTCCCAGTGTGACTGAGAGCTGAACACTCTGCAAAAGGGTCCAAATGGGGATGTTTCAGTCTTGAGGTGTGTGTTGAGCTGTTACCTGGGGAGGCCCTGGGGCGAGGCCCCCTCTCCTGTCAGGAGCAAGCCCCATCTGGAACTAATAGAACTCAGCCTAAGGCTACAGCTG
1.555676051432161 TGAATAAGCCAGAGTGATAACTCTGTGCCCCCTCTTAGATTTCTGGCCGCTCTCAGGCCACCCCTCCTGCTCCCTTCAGCCTGGCCACCCTTGACCCTTCCCGCTTTGCGGCCCCTCCCCTGCAACGCCCTCTCTACCCTCTGTCTCCACCCTAAGGTCAAGTCTCCCTTCTCCCTGGAGATTTCCTCGACCCTAGCCTG
0.9178191395360353 GCCCTGTGGCTGCCTCGTGTGCAGATAGGCTGACCTGGTCCACCCTGAGCAGCCTCACACGAGTCACTGCCTCCTTCCAGCTGAGCCTGCTCCAGCCTGAGCTGTGGCTGACGTGCTGGTACACACTGCCCTGGGAGCTGTGTGCCTCAGCCTGGACTGCTGTTCTCCCAGGAAGCTCTAGAACCCACAGTGCAGTGTCT
1.674621393370555 GTGCTCAGCACACAGCAAGCCAGATCCTGCACCGCCCTAGATTTGGACACTTCTATTAATGTGGCCAAAAATTATAGAGGCTTTTTTTTTTTTGGAAGGCACATCAAACTTTCTGACTCACTGTGCTTGCAGGCAAATAAATGCTTCCTCATCATAACCCTTAATGGGACGAGAAGGCTCTACTGCGAGCACGCTGGAGG
1.389481546385144 TGCTCCATCAGCATGACCTATTGTGGGTATTATTATTATCGCTGTTGTGATCCAGAGGGAGCCTGTCTCGCGGGTGGCTGGGAAAGCTCCCTGTGCTGTTCTGTCCAAGAGTCCAGTTGATTCAAAGGCACTGAAGTGGGAGCCTGCTCAGCTCTTGGAGCTGGATGAGAGCTGAGACAGGCAGTTCCCACTTAGCACAG
1.128414449311023 CTGACCACTGGGCAGGCCAGGGTCCCTGGGCCTGGATGGGTGCAGGGGCACAGGCCGGCCATCTGCAGCCAGCCCTGTGTGCATGTACCCAGCACAGAGGGAGGGAAGCCTGCCTGGGCCAGGGCTGCTGCCTCAGCAGAACTGCAAAGGCTGACAGCTGTGTCAGGGAGAAGGCGTGTCTGCCAAGTAGCAGCCACCGC
1.686432812866467 TTAGCATGTTTGGTCCGGCCTCATTTAGACATTTCAGATCTCTGAAGCCCAGAGAGTGTCCATGAGAGGTTTCCGTTTGCCACGGAGTCGATAGTACAAATTTTGTTCCAAACACATCTGCCAAGTACAACCCTAAACTTTTCCAAGCGAGAGGTTATTTTCCTAACACAGCGCCTGCTCTGCTGGGCATCCTCTGTGGT
1.472556199522735 CTTTCAGTAACCTTTTGGGAGGGACACCCAGTGCCCATGGGGACTCACCCTTGGCCAACCCAGCTGGAAGTGGGAGGGTGTGGAAGCCCACTGTTGAACTTGGACAGGCCAACCCTGGAGGACACAGAGCAGCATGAGGGATCTGGAGGGGCACAGGGTGGAGAAGTTGCAGTCTCCTCATGGAACTCACCAACTGGCGG
1.269256271096791 GGCGTCTAGCTACGGTGGTCGCGAAGCCAGCTGTCCTCAAGTTGAGCTGTGCACCGGTCGCGCACACTGGCGGCACGGCTTTCGCGTCCCTCCGCTCCCAGCATAATGAAAGTTTGAGGAACTGGACATCAGGCGCTGGCCGCTCCCCACCCTCAGCCGCTGGGTGCCCAGAGCCCATCCCTAGCGATCAGAGCAGAACT
1.291673480765374 CCCCCGGCTTCCCCCTCCTCTCCTCCTCCCTCCCTCCCTTGCTCTCTAGCTCCCTCCCTCTCGCTCCGCTCCCCGCCCCCGCTCACGGAGCGCCTCCCATACAAAATTTATGAAAGTGCTCTCAGCTCGCAGTGCCGAGCGCCGTCCTATTCCCAAGGCAGCAGCGCTCAGCCGCGCGGCGCCGCCTCCCAAGGTGTTTT
1.302196957110001 CATTCTGGGCTGGGGTGGAGCCCACTACAGCCCCGCCCCTATCTCCTCCTTTATGGCCCCGCCCAGCGGGTATCCCCCGCCCCCGCTGGCCGATCGGCGATCGATCGCAATGTCTGCGCTCTCCGCGTTCTTCCAGCGCTGTCTTTTTAGTACCACATGCGCAGGCAGGTGATGGCGGCGCTGGTCGTATCCGGGGCAGC
1.825066053917674 GTACTAGAATCAGAGATCTCAGTCTACTGGGGGAATGTTAATGTAAACATATCATAGCCACGTGATAAAGGAGGAGGTGCCTACTGGTCCCTGGGACACATTGAAGGGCTAATGTTAGCAGTTCCTTACACGCCAGCGACCACTAGGGACCTGTCAGAGGAGGATCTGTAATGGGCCTAGGAAGCCTAGGCTGATTGTCC
1.329249826748558 AGCCCCCGCTCTGGGTGCGCCCCGCCTTTTGCCGTTGTCATGGGAACGCCTTGGCGCTCCGAGGCCCGCCCTCGGGGCGGTGCTGACGTTCGGTTCCGCCCCGTGCATTGTGCTTCCGCTCGGGGAAAGACCGCTTCCGGTGCTTCCGTCGCTCCTTGCCGGGCATAATGGCCGCGCAGCGACCCCTGCGGGTCCTGTGC
1.096014979249724 CATGGCTGTAGACTGTTACCTCCAGTTCCCACAGTAACAATCGAAAGCCACGGTTGCCCTGGAGACGCGGGGGCGGGGCGCGCGGACGGCGCCGGCGCGGGGCGGGCTGACGTCAGGGCCGCGGGGGGGCGGGCGGGGCGGCGGGGGCTGAGGAGCGCGCGTGGGCCACCGCCCCTCGCAGCCCCTAGGGACCCGGACGG
1.147274628214763 TAGGGTGGGCCCCTCCCCGCGGGCTCAGCATCTGTGCGCCTCCAGCTCAGGTGCGCGGGAGGAAGGCAGCGGCCTGCCGCGCAGAGCCCTGCGCGCCCGCGAGGTGGCGCCATAGCCGCAGCAGCGCCCGCCGGCCCGGGCCGCTCCAGATAAGAGTGTGCGGAAAGCGCGGCGGGGCTGAGACGCGACCAGGACGCGGG
1.356045529253518 TTGCTGTGGCTCGCCTCACGGCCGAGCAGCTGAGCCTGAAGCAGCAGGACAAGGCGGCCGCGGCCGAGCTGCTGGCGCAGACCACGCACTTCCTGCACGACCCCAAGGTGGCGCTGGAGAGCCTCTACCCGCTGGCCAAGTTCACGGCCGAGCTGGGCCTCAGCCCCGACAAGGCGGCCGAGGTGCTGAGCCAGGGCGCT
1.895286703588182 AGTGGGAAATATGTGCTCCTCGGGGGCTCTGGGAGAGTTTGGGGTCTGAGGCCTCTCCTTAGCGCAGTGATTCATGGCTCAGGGAGCCGGCGTGAGCATGCTGTTCCATGGTGAGCCTGGCACTCATTGTCTGGGTATTCGGAGACACTTTCTGGAAAGGGCCCATGTGGGAATACACACACACACACACACACACACAC
1.567263510633803 TGGGCGGACTTGGCGCCCCCAGCATCCAGGGGCCTGCCTGGGCGCTGCAGCTCCAGCTGCACAGGCTCTGAGAGCTCCCCACACCCCTTTTCTGACCTCCAGTCGGCCCCACTCACCAGCCTCTGTGCAACGCCGGAAGCAGGGAGGGACAGGCTGCAGAGGGAGACCAGGCCTCACCTCCCCCATGCTCACAGAAGAGC
1.316897621432209 CCATGGGGGAACACTGCCTCTGCCTGCTCTGACTAGGGATATACAAGGTTATCACGGGGCTTGAAGTGAGCTTGACTGAGGTCAAAAGAGGGTCAGAGAAGCTTGTCTGAGGTTGGCTCAGCTCTCACAGTAAACGAGGAAGTGCAAGGTTATGAAATTACACAGACCAGGGTAAGCACAGTTTCCCAGAGGCCACTAAC
1.334332340101161 CTGCTCTCAGGACTCTGATCCAAAGGTGGCCACTCTATCACTGTTTCAGATCACAAACGACAGCTTCCAGCTGACATCTGGCTTCCTTGGCCTGTTGCTGACTTCATCCCTGTACCCCGCCCTGCTCTACCGGGCGCTTGAGACTGCTGCAGGCCAAATGACTGTGTTGGCCTATGGGTGACCTGGCCCCTGGCTAGAAT
1.639214271738134 TGGCAGGCAGCACGCACAGTGGCCTCCCTGCATCTCCAGCCTCTCACTTGCATAGGAAACTTCTGCATTTCCACAAGACTGCCAGTTTCCTCTCTGTGGTCTAATTTTAACCACCTTGTCGTTACAGTGTGTGTCAGCCACCTGACCCCACTATGACCTCTGACCTTACGCCCCAGCTACTGCTTGCACTATGGAGAATT
1.385574730226677 ATCCTCCAGAGGAGAAAGAGCTGGGCGGGAGAGGCTCCCTTCCTGGGCTACATTAGCACGTGGGGCTGGACTGGGGATAGAGGCGACTAAAAGGGCCGCCAGCCAGGGAACACCCTGGGGAGCCTACGGACCTCTCCTCTGCGGTGTACCTTCTCAGTCACAGTCCTGACCCTTCTGGAGGGAGATGCACTGTGTAGGCG
1.836198255531794 AGGCAGCTTACCACTGCAGCAGGAACTGAAACCTTTAGCTTTAGGGCTCCAGTTATCACTCTAATCAAGTCCACACGCAAAGAACCAAGCAGAAAGGAAAACTGAAAGTGAGATGTGGAGAGGCGATACCGGAGGCTGTTCTCTCCTAGGCTCAGTTCCTTAGAGAGAGATAATGTAAGCATCGGGTAAGTAGGGGCTGG
1.299161584935197 ACCACACAGGGAATCCTCTGGAGCTGGGAGGACAGAGGAAATGGTTTATTCACATTCCTAGGGGGAGGGGCCTCCTGGCAGGAAGCAGACTCCAGAAGGCAGGAGCGAAACTGGCCACAAGGATGCACAGTCAGTCTGAAGACACAGGCAGTAGCTTAGGATGGGGAGACAGACATTCACAGCCTACTTGAGTCAGAAGA
1.574430106427452 CTGGGCACTAGTTCACTGCTCTGTGTTCTTAAACAGCTCTGATGGAACAAGCCATCTGTGAGGGTTATTTAACTTGGAGCTGGAAGAGGGTGAGGATGTGGAAAAAATAAACTGAACAGCCAATGGATGGGGCCAGAGAGAGAGAGAAGGCAGGTGGCATGTTCATGGGACTGCGTGCCAGGGCCAAGCGGGGTGGGACT
1.255517268535195 ACACAGAGGGTGGGGACAGAGAAGTCAAGTGAAGCAACGCTAGACAATGCTGCCGCATAACGCTGGCTGCTCCACCGCAGCCCTGAAGGTATGAGGAAACCCTGGCGTGTTGGCGGCTGCCTCAGGAACCGCGCTGGCTAAGGGCTTCCCCAGGCCTGGGTGGGAGGCTTGTCACTGACTCTGGCCACACACATAGGCTT
1.422577412710469 ACCTATACACTTCTGCCCACACTCTTCTTGGAAGGAGAGAGGACAGGGAAGTGAAACCCACAGTATGCCAAAAGGGAAGTCGAGCTCTCATTCATAAGACTACTAAGCTCTCTCCCAGGGAAGAGAATGGAGATGGCACAACAAAGGCTCTTTGCTCTGAAATAGCACCGAAGTGAAGCCCGGCAGAGCCAGGGTGTGGA
1.699187496047019 AGAAATGGTGTGACAGTACTCGCTGCAGATTCGCTTACAGGCACGCCAGCAGGACCTTTCACATGCAAATGGGCTTACTCATCACAGCTGTCAGGGTTCTCGGGGAGGAGTTTAAAAGAAAAGGCAACACTTCCCTCTCAGTGAACTGAGGAGTGTGGCTGACCCTGATTAAGTGAGAATGAAGGGATAAAAGACACCTG
1.537960688832052 GTGGCTGTGGCCTACAGTGTAGACAGACTGTGCCCAGCCAGACTAAATGAAGACATATAACCGGAAGTCAGCCACCAGCCTGACCCCTCCCAGTTTCAGGAGGAGACTGAGCAAAACACTATCCAGCTACAGGAGTAGTAGACCAGATGCTTTAACCCTAGCAGCATGGGGTACAAAGGACCCCACATATGAATCAGCAG
1.566934577751983 AGTGCTGGTAGGGAACAGACTGACAGACAAAGCAGACAGACTCTAACCAGGCCTCGCTCTGTTTTCGATGCAACACAAATGTTTTCCATTAAAAGTTCCCTGCCCCACAAACACTCATACATGCAGCTATGAACTCCACATACTCAACTTCTGCTTTTCTGGCACACTGACCCAACTACCTCTCCTGTTCCTCTGGAAGA
2.040615612492392 AGCTCTGGAGTTCCCTAATTGCACAAGAGCAAAGGACACCCCCACGGAACATGTATGCCTTCTGAAGCCATTGCTCAACCTACACTCATTGTGCAATTTCAATCTTCCAAAGTTTTTTGCTGCACATATGCAAACCACGTTTTCCTCTGCATTCTAGAATTAAGAACAGTTTATCATTATTCTCTTCACTTTAGAGAGGG
1.669336616604098 CCATTTGGAGCTGAGTGAGAGCACTGCCAACACAAGCTGCACTATTTAAACAAGTGAGGAAATGATCGTATATACAACATGCCAGCAAGCACACACACACACCAAAGGAAGTCGAGAGGGCTTTTTTTTTTCAGGACACAGAGCTGGATGTCAGCGGCTAAAAGGTCGATATTTTCCCTTAACACCCTTCTCAATGACTT
1.245450237347457 CAGAGACAAGCACCGGATGTGATAGGGCTGCTCAGGGCCGCCTCCGAGGTTAGTGCTGCCCATGGGAGACGCACAGGGAGGCTCTTCCAGTTCCCCGCTTCCTCCCCCAGTGCCCTGCTGGCCACTTGAGCCCGCTGCCTGAGTCTGATCCCACAGCACTGGTGAGCTTTGGCCAACAGGCACTGCTCGGCTGCAGAGCA
1.716036081246511 GGAGGGGACAGGGGCTCCTGCCGTGGGAGAGATCACGTGTGCCCCACACTCAGCACTTGGAGGAAGAGGAACCCCCTGGTGCCAGGCTGCAGTGCTAACGCCCCAACCCGGAGCCAGGGAGACTGGGTGGGGAGCCAGGGTAGCAAAGGGGCTTCCCACAGCCACCACCACTTCCTTCAGGGAAGTGCTGATGGACTATT
1.730470534110593 AGATATATAGCATCAGAATGCGAAGGTCTGGGCAGCCTGGTGAAACGCGGGCTCTCCAGAGCCCCAGCTATGTTTCCCATTATGTAACCCTGGTCATGGGCAGACAGCCAGACTCCAAATGAAAAAGAGACTCTGGCTTGGCACTGGTTCTATTTTCCTATCCTCATTCGGGGTCAGCGCAGTGTCATACAGCTGCAGAG
1.552431303885776 CTCTCTGTAGCCCAGAATGTGAAGCCCAGCCGGGGATGGCTGTAGCTTGGACCACGTGCCTGCCTGTAGATTGAGCCCTTGCCCAAAGATGGGCAGCAGCTCAGAGCCGGCAACGGGCCATTTGCTGCAGCATCCAAAGAGAAAACAGACTCAGCATCTCAAGCAAATGAGACCCAGCACTTCCTGTGTGAGCTTTCCAT
1.399837875802931 CACCCTCCCCATAGGCAGCAGCACTGTCAGTACCGCCCAGCTCAGTCCAGGCCATTGCCACGCCCGGACAACATCCTGCCTCTAACTAGCAACAGAGCCGGGAAGAAGGGAGTAAGTCCAGAAAAGAGGGAGTTGGGAGAAGACAAGTGGAGGCCACATCCTGGTAGCTGATACTCTGAGTAAACATTAGTGCCTCCTCA
1.42125583784139 CTGCTTTTCTCATGAGTCAGTTACCAGTCAGACACAAGGCTGGCACAGTTCCTAAGCAGCCCACCAAAACCTCCTTGTCTACAGGAAGTGGGCAGTGAGAGTATCTTTCAACTGCTGCTGCTTGAGCCACAGAGTTCCCCGTGGCAGCTGCTAGCTGAAGAGGAGGTAGAGGAAGCAGTCGCTGTATAGGAACGAGACAA
1.477842610162166 CCAACTAGGCAGTGATAACCAGGAATGCTCAAATAAGTGACATGTTTCAAAATTGGCTTAACCGGGACCTACTCAAGCGGGAAGGCCAGTCCACACTCACAGAGCCAGAAACACAGCAATGCTTTCTGAGGTCACATGTGCATGACTCCAGTGGAATCTGCATGCAATGCTCAGGGCAGGGTTTGGCGCTGCCTCACGAA
1.525760733621793 AAAAGGTCACTAACCCTGTTTTTGTTCTCAACAGCTCCACGAGGATCCATGCCATCATGGCACTTTGGGAGGCCTGTCACGAGTTACACAGGCCTAGGCTGCCCACACCCCAGCTCAGCAGAAAAAGAGAACTGCAATCCAAGTCAGACAGATCCTGCCTGGACTCTCCGCAGAGAGCCTGGAGAGTCTGACCAGCAAAG
1.694721450216674 CAAGCCATGTTTCAATGCAGACAGAAGTAAACCCCTATAGACAGCAGCGCCTCAGCCTGCCAGGGCCTTACACCAGCTGCAGTGCATCTCGCGCTCTCCCTCAGCCCTGAGTGCAGATGTTCCCCGCAGCATCACTTCCGCTACACTTTCTTTTAAAGAAACAGCGCACACATAGAGGTATTTCTGCCTCTTCCCAGTAG
1.369383988927836 AGTTCTGGGCATCACCCTCTCTCAGGGGAGAGGTGAAAAGAGGTTATGTGGAACAGACAGTGATAACAGGATGACGTCACAGGTGTGCCTCAAAGAAGTCCCTGGTGAGCTGGGCTCATAACTACTCTGCAGTGATTTATTCGACCCTGCCAGCTCCAGCTGGAGAAGAGATGCAGAAAGCTGACACAGCCTAAAGCCCT
1.684478307748164 CACAACACCCCCTTATTGCCACTGTCCAGGCAAGCACAGCACAGCACAGGGGACCAAAGATGATGACTCATGTGCTGGGAAATGGAAAAGTGCATCTTCCCACCAGCCAGCCCTGCCGAGCACTCTGCTCGCCCCTGTCCCAATGGCAGCCCACACAGCGGGGTCTGGATGGCCACCTCAGCTGCACACTGGGTACTTGG
1.456535518901352 GTTCTTACTCCCTGGCAGGCTCCCACTAGGGATATCCCATAGGGAACTAGACTTTTCCATATTGAACAAACAGGGTACATGAGTCCAGAAACAGCTATTCCCAATCCCTGCCAAGCGTATGGTCTCTGCAATGAAACATCTCAGCAATGCCTCTCCCTTGGGAGAGGCTCTGGGTCTGCAGCCTTCAAGAGGCCTTGCTG
1.893677893698538 CGCAGGGAGGCAGAAATCTAGCCAGTGACCTAGGGCTCCTAAGGAGAGGTCATTCAAATCACTCCTTGCCAAATGTGGCCACTGGATCCCAAACAGTGGTGCATGCCTGGAGCTTCTTTGGCAACAGAAACAAACCACAGCTGAAGTCTTCAGAAATAAAAAGCAAGTTCAAGCTTGGTGCTAGAGAGAGTAGCCAGGCA
1.479497572561087 CAGGGTCTAAGGGGTGGGCACTAGGGATGGGAACCAAATGGACATGCCCAAACTCTCACAGACCCAGGGCACATGCCCAACAGCTGCCGCTCAGCTGAGCCAAGATGACAACAGGCTCAGTGAGCAGACAGCACCCTCTGCCGGCAGTGGCACCTGTGTGCAGGGGATGAGGCGGTGAATCCTAATAAGCAGGATATAAA
1.766855851131617 GTCTAAACCAAACCAAGGCCTGGAAATTCTGACGGGTATCTGGGTCCTGACTTTCCGGATGGTAACTAAAGGTCACGTGGGGTGGAAAGTGGCCTGTGGGTAACACAGAATATACACACGCACGCGAACAGGATATGCTGGTAATCCGGCTTCCTGAGACCTGGTGAGTTTTGAGAGTTCTCATCAACACTCTCGGGGAG
1.698674484608072 TAAAGATAAAGGAAGCGTACATGAGAAGGGAAAAGACCATCAGGGAGCCTCAAGTGGTTTGTCTTCCTTGCAATCAGTGGGAAGTATCTGTGCCTCACAGCTGTATGAACCAGGGCACCCAGGCTTACTGAGCTAGTTTGGCTCATTGCATCATTCTCAGGAACTTACATCACTGGGACTCAGGCTGCCCAGCCCATTCT
0.978220524492746 CGCTCGCCCACCTCCCGGCCTTTCCCCGCCCCCTGCCGCCCTCCCTTTCCGAACGACGGTGGCCGCGCTGGGAGGAAAAGCGCCCGCCGCCGGTTCCAGAGGGGCGGGACCGGAGCGAGAGCCTGGGTGGGGCGGGCGGGCGCTGCGCGTGCGCAGAGGTGCGGCCGGGGAGGCGCGCGGAGGCTGGAGCTGGAGGCGCG
1.116967365152823 AGCTTTATTCTGCTGCTTGAGCGGGCCGGGGCGGTGGGCCGCCATGCCGCAGCGCGCGTGTACGGAGTCAGCACTGCTTCCGGGCCAGGACAAGCGCTTCCGGTCCCCTCCAAGGGGGCGGGCCCTCCAGGGAGCGGGACTCCCTGCGCCCTCTCGCGAAGGTCTTTTCCAGCAGCTCGTGAGAGCGCCGTGTTAGCGGG
1.082726187127638 CCTCCATGCGGGAGCGGGTGCGTTGCCATGACAGCGACCCCCGTGGCGCGCGCCCGGGTCTGCCGCCCCTAGGCGCGCACGGCCTCTCCCCGCCCCGATCCCCCGTCGCTGTGCGCAACCCCCCTCCGGCTGTGGGAAGGGGCCGGGCCTGCCGCCTGACGTCTGTGCGGGGCTCGGAAGATGGCTGCGGAGCCGAGCAC
1.58830047903819 CGGGCTGCGCCTCCTTCCCCTTTCTCGGATGGGGGAGGGCAGCGCCCCTCTGCCCGGGGGACCCGGCCGGCGCTCCCGGCTTGTTTGCTTCGCAGCCCCGCAGCTCCCCGCCCAGTGACGGCAGCGGCGCTGGGAGCCCAAGGCCGGGGGAGGGGTGGCGGCGATGGCGGGGATGGCTGGATCCGGAGCTGCCCATTCAG
1.714582156373789 AGCCTGCCTCCTCAGTCACCAGATTCCCTGCCCTGCTGTGTGCAAGTGGGTCAACATGAGGGTTGCTTCAGACTGAGGATGAGCTGTAATTCGAGAAGGGTGGAATCTGTGGAGCCGGGAATAACATCAGGCTTTATTAACCAGCTCCCTGTTGCTAGGCAGCTTTCATTAGCCAGGAAGGTCTGCCCTGCAGTGAGCTC
1.402247887453623 GAACCCACCTCTGTCTTGCTCCAGACTCTGTGCTGCCCAGGGATTGGTCTGCCTGTGAGGCCTACCCAGGAGTAGAGACTAGAGGGGCGGCGGCATTGAGGAGTTGGCCCTCATGCAGACGAAGCTCTGGTCATTGAACTGTGGGCTTATGGTGTCCAGAGACACTCTAGGAGACTGTGGCTTCCTTACCCAGCCAGCTG
1.538685466180765 TAGTTCATTTCTGTGAGCTCCTGAGACACCTTAGCTTGTCTCAGCCCTCTGGATCGTTTCTCTAATCCCTGCCCCGCTCAGGTCACCTGCTGCTGCCCTAAGCAGAGCCCACATGCGCCCCCTAGTGGTGGGAAACCAAACGATTCCACAGATCCTGTTTGTTGAGGGAGGAGGTGAAACGAGATGCCCACGGGCGACCC
1.829889621962971 ACTCAGCAGGCTGAGGTAGGAGGATCACTTGAGCCTGGGAGGCAGAGGTTACGGTGAACAGAGATTGTGCCCACTGCAGTCCAGCCTGGGTGACAGACTGAGACTCTGTCTTTAAAAAAAAAAGCGTGCAGTGAAAAGTCTCACTCCTTTCTCTGCTCTTATTCACCCACTTCCTGTCTATGTACGAGTCCCACACAGGT
1.754815099393887 TCCACCCTGGGAGGTGGGGTCACAGTGGGGACCTGGGGAAGGAAGGAGTAAGGGGAGTAAGGCCCTGGAGTTCTGCTTGGTGCTCTGGGCCTCCAGTCAGAACGGGGGATAAGCTTGGGCCGTCATGTGGACTCTCCCTGGGGAAGGGTCCTTCACCGTCCCGTGTCTGTGAGACACGTCCCCGGGGAAGGAGGACACTG
1.573024096630707 AGAAGGAAATTAGGGACCGTGGGGTAAAGGGGGGACTGAGCGTGATGCCTGGCTTCTCTCAGTATTCCTTAGTTGCAGTAATTGCTTAGGAATGCCTCCTCTCACCCGAGAGAACCCCATGGCTGTGCTCAGAGGCTGGCCGGGAAGGTAGGCGAGGCCACCCCGATGGGAGTGCTGGGGCCGGCCACTCCCCAGTCCCC
1.843259503886651 CTGGGCTCCTGCCCCACTGCACCTGCACCCTCCCCTTCTTCCCAGAGTCTCAGGCATGGCTTGCAACGCCCTCACTCCCAGAGCCGCAGCCCCTCCTCACCACGCGTGTTCCCTTAATTTGCCTCCTGGTGGAGCTGAAGGGCCAGATATCTGCAAAACTCCCGGCCGTGGGTCTGGGAAGAGAGCCCCGGCCAAGGCAG
1.177385410704459 GCTGCCCCTGTGGGTGTGGCTCTCACCCCGAGCACTGTCTGAGAGGCCGGAGGGGAGTGTCAGGAGGAGTCAGACCCTGCTGAGCTATAGACAGGCCCAGCTGTAACGGGTCTGCACCTCTCTTCCTGCCCTTCCCCAACCCGAGTGCTACTGGTCCCATCGTCGATGGCTCCAGGGAGAAGACACCAGTCACACAACAT
1.395667839759622 TGGGGAGGGTCTTCATCTGTGTTCCCAGTGGGCACAGGGCCTGGCACTGAGCATGCACCCAGGAAGGGTTAACCCTCACCCTATCCCTTCCCTAAAGCGTCGCTTAGTGAGCTAATGGAAGTGACCCAGCTCTTCCAGGAGCTACCAGCAGAGGGAGCCCGCGTCTCACAAGTAAAAAGGGCAGGCTCAGTAGGGAGGGC
0.5803124597627916 GTCACCCTCGCCGGCTGCACCGCCCTCCGCGACTCGAGAGCACCGCCCCCGCCCGCTGCAGCCAATCCGCGAGCCCGGCCCCGCCCCTCCCGGCTGCCCGGAAGCGGCCTGGAGGCGCGCCAGCCCCGCCCCCTGGCCGGGAGGGCGGGCGGAAGGGCGCGTTGGCGGGAGGCTGGGAGAGAGCTGCCCCCCTGGAGCAG
1.214239144616549 AGGCCCCCTGGGGAGGAGAGCACCCACCTCCCACACTCTTACTGGCTCAGGCGCCCCAGAAAACCTGAGGCCTCAGGCCCTTTGGCCAATCAACAACTGGAGTGTGAGCCAGGCCTGCTCCCAGCCCCGCCCTCCTGCAGAGGGAAGAGGCCGAGGAGGAAGCGGAGGGGGAAGCGTCCTGGGAGGGGAAGCCTCAGTGG
0.9132953056349297 TCCCTGGGAGGTGCCCAGAGGCCGGGGCCCGGGCCCAGGCCCAACCCAGCGCAAGGCCCCTTGCCAGCCCCGCCCAGGCCCCGCCCCCGGCCGAGCGCGAGGCGGTGAGGAGGGGCCGGGCCGCGCCGTCCCCAGCAGGAGTGTCCCCGGTGCACGTGGTCGGGGGCGGAGCCCGTCCACGTCACCACCCGGTGTAACCA
1.229936784553131 ATCCGCCCCTGGGCGGAGCTGCCGGCGACTGGAGACTGTCAAGAGAACCAGCGGAGGGAGCGGAGCGGCAGTCCGGCTCCGCGTTTTGTCTCCGTTCCTCCCCCCGCAGTGCGTTCGCATCCTATTAGGGGACGTCACCGGGCCGCGAGCCAATGGGCGGGCAGGACAACACGGCATGGAGCAGCTCCACATGGACACCC
1.391024575811827 CAGCCACCGTGGGTGTGGACACTGAGTAATAAGGAAAGAAATGCAGTTCAGAAGCAAAGAGGGAGGAGCCAGGTCCTCTGAGCTCTTCTGAGAAACCAGAGCCCAGTCGAGCTCTGCAGCTAGAGTGGCAGCTGCGGATGACAGTGGGTCAGAAGCTTGGTGGGAGGAGGCTGACCCAGCGGAAAGGCACAGGAGACGGA
1.274578796985047 ACTCCCCTTTTCCCAGCAGGAGACACAGTTTCCAAATGGCCAGTCTCTGGGCACAGGCCCCTGCTCACCAGTGTCCCAGGAGGGGGCCTGCTCAGCAGTGCCCTCTGGGCCACATTCTCATTCTCTCTCTGGACAGCAGCAGCACAAGCTGCCATTTCCCTGGGGCCTGACTGGCTCCTCGAGCCAGCCAAGTGCCCCAG
1.67679751685343 AAAACACCGTGGACAGACTTGTCTCCATTCCCACGGGGAAGTGAAGGCGCTTTGATAAAAGGGCCAAGGGTGCCCTCGTGTGGCCACGGAGGGAAATGCCGCGGCTTCAGCAGAAAGGAGGGGCTCCAGGAGCTGGTCGTGAAGTCATCAGCTCCCTTCTTTCAAAAGGCCTCGGATTTCCCACAGGCTTTTCCATCTTT
1.734100873272582 AGGAAAGGTAAAGGAACTAGTTTGTAGCTCTCACAATTTACCCAAGAAATGGTATTGTGAGGAAAAGAGGAGGAATAGGACGTCAGAGAGAAACCAGAGACCAGAAACTCTGCTCCTCCCACTGGCTTGCATCTGACCCTTTTGCTGAGAAGTCCTCTGACTCACACTAAAAACCAGAAACTGGGAGGAAAGTGGAAGTG
1.958028638262323 GAGTTTGAACTAGTCTGGGCAACACAGAGAGACCTTGTTTCTACTAAAAATTTAAAAATTAGCTGGGCGTGGTGGTGTGTGCCAACAGTCCCAGCTACTTGAGAGGCTGAAGTGGGAGGATTGCTTAAGCCTAGATGTTTGAGGTTGCAGCAAACTATGACTGTGCAACCACACTACAGTCTGGTTGACAGAGCAAGACA
1.573721906963806 GAAACGCAGATGATACGCTCCCAGCGCGCCGCCATCTTGTGAAGCCATCTAGCCTCGTGATTGGACACATCCCTCTCGCGCGACCTGTGGCTGATCTTGAAGAAAGAAGAAACCCTCGCGACACCTGGGGTTTGCTGCTCCTAACAGAAGGCGCGGGGGCGTGGTGACGAGCGGAGTCCTTTGAGGTATGGCAGGAGGAG
2.00472049971461 AAGGGATAATGAGTATACAAAAGTAAAACCACGGTGCCTATTACACAGAATGTGCCTCATACAAGTTAGTTATTTTTATGTCTACTCTGTACCACATGCAAAGTAAGGTGCAAAATGAAACCATAAATGTTCTAGAAAGAAAATGAGTACTATTATGATTGTGGGTGGTAGAGGACTTCCTAAATATGGCCCTAAGGGTG
1.701157153384442 ACCGCTCAGCCGCCCGCCCGCTAGAAGGCAGCGCGGCCCCGGCCCGGCCCAGCCCGGCGCATGCGCCGCAGCCCCTCCTCCGCTCCCGGCGCCCGCCCCTCCCTCTTCCTGGCGGGTCTGGGGCGGCGGCGGCGGCGGCGGCGGCGGCGCGGTGACGTCAGGGCGTTGGGGCAGCTCCTGTGACAGACGGAGCTGGAGCG
2.368793917571347 TCGTGAGGTTGTGGTGAGCTGAGATTGTGCCACTGCATTCCAGCCTGGCGACAGAGTGAGACTGCCTCGCCAAAAAAAAAAAAAAAAAAAAAGGAAGCCTTGGCTGGGCGTGGTGGCTGATGACTGTAATCCCAGCACTGGGAGGCCAAGGCAGTCAGGTCACATGAGGCCAGGAGTTTGAGACCAGCCTAGCCAACACA
1.673215554379725 CCAGGCTGAGATCCAGATGATAGGGCCCCAGGGGCAGAGTTCTAGCGTTAGTATCACTATCCAGAAATGCTGTTAGCTGTTCAAAACCTGGCAAGTAACTCGCTGGCTTGTAACTGCCTCAAACCTCCTTCCAGGAGTCATGACTGTGTATGGCCTTTGATGCAGGGGGAGGGTAGCTGGCTGTGGCAGCTCTGTCCCTG
1.242466674434654 GAAGGACGGAGTCACCGGCCCACGTGGTGCGCGCCGTGGCCTTTGACCCCGCCGCCGTTTCCCTGCCCCACCCTCGCGCCCGGCCCAGCCCACGGCGGCCCGCGAGGGACAAAACGCGCCGCGCCTGGTTCCCCGCCCACGGACGCGGTGACTTTCCAGAACGTCTTAAAGGCAACGCACTCTGACTCAAGGCCCAGGGA
1.87900117171954 AAGGGAGGGGGACAGAATAGGGGTGCAGTGAGTTACACACACTTGAGGGGGGACAGAGATGGTACAGGCGCAACCACAGGACTAGTAGAGAGTAGAGGTGGGGGCAGGCAGAGCAAGGACCCCAGGCCACCTTCTTGGCCCAAGTTGGACTGGAGAGCACTGTCCCAAGGGTGCCCCAACCTCAGCCATCTGCATCCCAG
1.410778521326928 GGGCTCGCGGAGCTGGCTTTGGCTGGTAGCTGGAAGGGCAAACTGGGGAACCCGCCGGTGCCTTGGCGCGCAGGGGCGCGGCGAAGGATCAGCACCGCGGACAGCGCCCAGGCCGCCAGGCCGCGATCCGCTCCGCCCCTCCCGCCCTGGCGTAGGAAGGAGAGGCAGCGCCCGCAGCCGCGCAGGCAAGGCTTGGGGCG
1.217251985550152 CGGCGCGAGCCGGTACTGCGTTCCGGAGGAGCCATCCGGCGTCACAGGCTGTGCTGGGGAGGTGGGGTGACCGTCCTCAGAAACCCCCGCGGGCGGGGCGCTGCACACACGTCCACCTATAGGGTGTGTGTGCGTGCGTGAGGTGTGCAGCCCCTGTCAGGATCTGGCGAGAGAAGCTGACCGGGATGGAGGTCAGAGGT
1.235370449472692 CCTTCAACCCCTTCCGCCAGAGGGCAACATGGCTGCCATCCTAGAAACAAGCCCAGGAAGACGCTCCCTTTCCTCCTCGCACCACCCAAGCTTGCCTGCAGAGGGCGCAAACGCCCACCTTCTGGCCGGTCCTGGGAGGCGCCAGGTGCCCCGCCTTAGCAGGGGAGGGCGGGAGTGACCCAGCTGGGTGGGTGTGGGCA
1.651002585800956 CTGGCTCTCTTGTGCCCGCAGCTCATCCTCCTCTCCCCGCTGGCTGCTGAGAGTCAGCTGAGCTCTGGGAGGAAGCTGGGCTGTGCTTGATGGGGCCAGGAGGGCTGGGCCTGCTTCACAGACCGCTTCCCTTTTCTCTCTTTTTTTTTTTTTTTTTTTTGAGATGGAGTCTCACTCTGTCACCCAGGCTGGAGTGCAAT
1.478299087989477 TCCGGAGCTGTGGGTTCCTCTGGGTGTGGGGAAGCTGCCCTCCACAACCTCCTCGGCCTATCTTGGTGCCTCCTGGAGTGCAGGACACACCTCCCAGCTCTGCAGCCTCACCCACAGGAAGCTCGGGTTGGGGGCAGGCGAAGAGGGAGGTGCCACGCTGGGCTCCCCGCCCTGCACCGGCACTGACCCCGCTGTACCAC
1.411727074782291 TGGGTTGAGAAGCCTCTGAGTCATGGGGGGGTGGTTCCTCCTGTCTCCCGGTTCAGGCCCATTATCTCCTGCCCAGTGACACAGGCTTTCTAATTAACCTCCTCCTCCGGTCTCTGCCAGCTGTGACTAACTCTTCATCCCTCAAGCTGGCTCCAGCTCTGCCTTCCCTATTACTAGACGCTGGCCCGAAGGCAGACCTT
1.577540378109994 GTGAGGTGGCTGTCCCCTCCCTACCTTGGGTTGAGCTGTGAACCAGTAGGTTACCGCAGTGTGGTACCACCCCCCCCAACCCCAACACCCAGCTCATTCTGAGAGGGTGGAGTGGGCGGAAATCCGTGCCTGGCAGACCACAAAGCCACATAACTGACTTTTGTAGCCCTGCCCTGGGGTGTTGGGGGGGAGGGTTGACG
1.434900445036698 CAGGTGTGAAGATGAGGAAGGAGGCCCCTGAAGAGCCGGCGGGAAGAGCGGGTGGATGGGAACACAGTTTCCCCGTCCGCCAGCAGGTGGCACTGTTGGCCCAGGACTGCCCGGGCATGGCTGGGAGAGCAGGTGGGGCCGCGGGTTCTTTGACCTCAGGTTTGTGATTCTGGCTGTGGGCTCATCACAGGCTCTACCTC
1.527191230892337 GCCTTCCTGCCTCCCTCTTCCCCCTCCTCTGTCTTCCTCCTAAGGGGGCATCCCAGAGACGCAACTGTGCTGTGGCCCAGCAGGGGGCGCTGATGTACCTGCCAAGAGTGGAGGTGTCTTAGCACAGGTGTGAGCGTTCAGCTGTGTGCGAGCGGGCTTCAGAGTGATATCCCAGAGCAGGTGTGTGTATGTGTGTACCC
1.140355907879892 GTGCGGGCGGGGACCAGAAGGAGCGGGCGAGGGGAGGCAGGGCCGGGGCCGGGGAGGGCGCCTGGGAGCCGGGCAGGGGGGTCCCGGGAGCGCTGTCCGCCTCCTCCTGCGCTTCGCCCGCTCCCTGTGCCCCGCGTCCTCCACCATCCGGGCGGCCGAGGCCGGGGCGCGGGAGGCGGGGCCGGGGCGGGTCCCGGCGC
1.828500345925839 CAATGGGGGGAGGGGAGTGCGGAAGCTGACTGCCCACAGAGATGTTGCCGGGATCAGGATTTGGGGTAGCTTCCAGTGACCCTGCTGGATCCTAGTTTCCAGAGGAGTTTTGGAATGGTTAATACCGCACCCTATAAGACACGGGCAGTGGAACCAGAGACACCTGGGGGTGACCAGCAGCCCCTGGATATGCCCACAGG
1.598427837348822 CACCCTGGACAGAAAGTGAGTCACATACGCATCCCTGAACTTTGGCCAGAGGGGTGGGATACACTGATTCATGAAGTCTAGGTCTTACGCCCACCGCTGGTTCCCGGGATGCAGGGACTTGGCTGGGAGTATAGGAGGGATGGGTCACCTAAGGAAACCTGGCATGTTGCTCTCAGAAGCTCAGGGGATGGAAGCTGGGC
1.322447184473076 GGCCTAGAGTGGGGTAAAGCTGTTACCTCCCTTGGGAGTCGGCTTTTGAGCTCTGGGCATGAGTCAGCCCTGTTCCTGATGGCCGCAGGATGATTGGCAGAGAATCCCAGGGTGGCTGCCTCATGGCCTGGGGCCTCGCCAGCTGGGGCTTCAAGGCTGTGACCCAGATAGGGAGGTGGGTGACCCTTTCTGCCTATTCC
1.50888532738639 GGTTGTTCTGTTTCTAGTGTTTTGAGGACCCTCCGTGCTGTGTTCCATAGTGGCTGTGCTCACTTACGTTCCCACCAATCGTGTCTCAGGCTCTTGAGCAGGGAGATGAGGTCAACCAAAGCACTGATGAACCAAATTGCAGTGGTGATGAGCCGGGTGCCAGCTCAGCCGAGTCCTCCACCTCTTGGGGTCTATGAGCT
1.342156372519645 TTCCCCAGGCTCTGCCCAGCTGGCCCTGTTGTGCAGCCGTGGCTCTGAAGGCTGATCCCATGCCAAACCGTCTGCTTGGTGATGGGACCGCACACAGCACTCCCCGGTCACCAGCGAGGGCCAGATGGAAAGTGGGGAGTGTGTGAGCGCGGCAAACTTGTCGCAGTCATGTTGCCATGGTGACACAACTCTGTTTAGCT
1.729030483321793 TCTGCATCACCCCTCCTCTTCCCTGAACCTAATCTTTTGCAAGATGACAACCCATAGGAAGCAGATAAAACCCATCCATCTTCCTGTTGTTGTCCTGTATCCGATACCCATCACATACAGAGCCATGTGGTATGCCTCGAGGAGCCTGTGTGTTGAGGGGTAGCCAGAGCCTGCCCTGGGTGGGTTAAGTGGTCAGCGGT
1.62702060443356 TGCCTTGCAGTCAACTGCCTCAGCCTCATCCATCGCTGGCTGGGAGATGACTGGGAGCGGGATTGTCCCAGCTGTGGGTCTGGACCTTCCTACAGTGGCTCACCAGGCCCCCTTGTGGCCAATACCATCAGTACCACGTGGGAGCCTGTGGCTGGGGCTGGGGGTCTGGGGAGGGGTGACAAGCCCACCAGCTGCTCACT
1.183050264026047 ACTCCTCAGCTGGGCTTCCGCCTGGCCTGGACGCTTGGAGCTGGCCAGGCTGCGGGTCCTGCCCTCTCTTCTTTGGGCTGTGGTTCTGGGGACTCTGTGTCCTGTCACGGAGCCTCAGAGTGTGGTTAGTGTGAGGCCCAGCGAGGAGAGTGTGAGCCGTGGTCCTCTGCTGCCAAGCCACACTGTCCCTGCAGGCTCTG
1.115269837526493 AGTGCCTGCTATGTGCCCTTGGCTGTATGCAGCCATCTCAGGGTGTGTGGATGAGGGTGTGTCCGAAAGGCTGAGCTGCTGTTCCCGGCTGGCCTGAGTCACGCTGCTTCTGGGTGGAAAAGGAGACTCACTCCCTGCCAACTGTCCCATTGGAAAGTGCAGCAAGTCGCTGAGAAGTGGGGCCGGCCCAGCCAAGGCCA
1.53013596613364 CTCCAGGCAGTTCTGGCCCATGGGTGCCTGCAGAGGTAGGAAGAGTGCTTGGAGGCCCCACCTCTGCCTGAAGAAGAACCGAGGACACTGTTCCTCATCCCTGCTTTCTTTTCTCTCGTCTTCACTGGGGACTGTCTGTTCTGGGCACTCATGACCTCCCGGCTTCGCGGTGCCCAGATGTGGGCAGTGACATTAGTCTG
1.130737089786392 TTTGGACGTTCTCCATGGCCTGGTGCCTCTCCCTGGCAGGGCAGCTGTTCCTCCCCTGTGACTCACCCAGGCAGGAGTGGAGGCTCCAGGGTCGGGCAGCAGCGCCGTCGCTGGGGGAGCTGCGAAGCGTCCGTTTCCCCAGACAGCTGACAGCTGAGAGCCTCACAGAGACACACAGTGTGTGGCAACCTCACACAGGC
1.496842088753287 TGATGTGATGGAGCCAGCTGGGTGCGTCTCTTCACAACTCTGTTCCGTGACATCATGTTGGCAGCTTGAAGTCAACCATGGTGGAAGTATTTACACTATGGAAATTTGCAAACACCAGGGTTTCTATCTTCCTCCTTTGGAGAGCCAGTGACTCAAAATATGCCAGCACACCACTGCTCAGCCTCTGTGTTTTGTAGCCC
1.572909004702518 CATATATGCCTGGGAGTGAAGTTTCTGGATCACATGGTGACTCTGCGTTTAGCCTTTGGTATATGCCCGGGAGTGAAGTTGCCGGATCATATGGTGACTCTGCGTTTAGCTTTCGGGACCTGCCTGGGAGTGCTGTTGCCAGATCATATAGTGACTCTGCATTTAGCCTTTTGAGGAACTGCTGGACTGTTTTCCACAGT
1.795124504478186 ACCTGCAGGCTGCTAGCCCTGACATCCTGCGGGAGGGAAGGAGGCGTGCTTGGGTGTGTGTGTGTGTGGTGGGTTGCAAGGTGCTTTGGGGAAACTCTATTTCAGGAGCCCTTTACTGGGTGCAGGTCAGCAGGGGAAGTGAAAAGGCCACTGGGCGACAGTGGTTACCCCTTACCAGCTGCTTGCTCATGCCAGGCACG
1.005833241152429 ATTGACCAGCTCTCTCCCGCTCCGTTTCCCCTCCGGACTCTGGCAGGGCCTTTCCTTGGCTCGGTGCCCAGCTGCCTGCTCACCCGGCCTGGCAGACTCTGCATCTGCTCCACTTCACAGGCCGGGGAGGCTGGCAGCACGCCAGGGCTGGGCTCACGTCAGCGGCTGTGTAGGGAAGGGAGGGCAGTCTCCCGAGAGCC
1.704218810211576 GGCTGTGATGGACCCGGGACCGTGGCAAGCTGGGAGTTGCCAGGTTCATTTCTCCCAGCCTTTGAGGGACTGTGATAGTTCATGCCTTGGTCTGACCTGACCCCTAGTGGCAGGAGGGGCCACAGCTATCCCTGGCAGTCTTTGTGGCCCCGCAGTACCTGCAGGGAGGTACCTGTAAGCCGGTCCCCCTAGCAGTGCCA
1.370843913563791 CCTGCCTCTCTCCTCAGGGCAGCCAGCCGTCCACGACCTCACCCTTCAAGCAGGAGGTGTTTGTCTACAGCCCGTCCCCGAGCAGCGAGAGCCCCAGCCTGGGGGCAGCTGCCACCCCGATCATCATGAGCCGGAGTCCCACAGGTCAGTGGCATCTGGTGGTGTGTGTGACGTCACCAGGAGGGCAGGCTGTGCCCTGT
1.315851454759596 CCCCTGCCTGCTTTGAGGGGGCACGTGGTTTGAGCAGAGTGGCCGTGGGTCCAGCTCGCCCCCATCAAGGCCTGGATTTCTGCTGGGGAAGTCACCAGAGACCCATCTGAGCTCCCAGCCCTCTCCCCACATGGGGCTTCAGGGGTCAGAGTCACAGCTGGAGCCAAGAGGAGGGGTACAACCGAACCCACTCTGTGTTC
1.398206990640018 CTGCGGAACCACAGGGCGACATCCAGCTGCGGGCGGCGAAGGGAATTGGAGCGTGGACCTCTCCAGGCTTTTCATTCGCTGGTTCTGCCGGTGTCCCGCCTTTTCCATCTCCTCATTGGCTGTCGCCTCCGGGCCTGCGACTTTGCTCAGCCCCTCCGGGGAGTGGAATCGGGTGTGCAACAGGCCGTGAGGTCCGGCTT
1.597401450775925 TCTCCTACACAGGGTGTCTGACACAGCTCTACTTCCTGGTCTCCTTGGTGGCCCTGGACAACCTCAACCTGGCCGTGATGGCGTATGATCGCTATGTGGCCATCTGCCGTCCCCTCCACTATGTCACAGCCATGATCCCTGGGCTCTGTATCTTGCTCCTCTCCTTGTGTTGGGTGTTCTCTGCCCTCTATGGCCTCATC
1.613648215034646 GGGTTGGTGGCACGGTCTTAACTGGTCTCACTAAGATCTGGAAAGCAGAAGAGGCAGGAGTGAATGAGAAGCCATCCGGGCAGGCTGACTGTGCAGTGTTTAGGTGGGACTTTAAAAGCAAGAAGCCGGCATTATCAGCAGTTCCTCAGCCTCTGGTGAGCACTGACTAGGGAAGTCAAGGGAAAATGTACTCACAATCC
1.781855002822639 ATCTGGCCATCTGCCAGTCCCTCACCTACAGCAGCCGCATGAGCTGGGGAATCCAGCAAGCCCTGGTGGGCATGTCATGTGTCTTTTCCTTCACCAATGCACTGACCCAAACTGTTGCCCTGTCTCCTCTTAACTTCTGTGGCCCCAATGTGATCAATCACTTCTACTGTGACCTCCCACAGCCCTTCCAGCTCTCCTGC
1.757317049494924 GAAGTCCACAAAGAACAGCTCCACATGGGGTGTGAGGCTCGGCTGCCACGATCCCTGAACCTACTGTCCTGGAGCAAATCTGCTGGCAATTCCAGCCCTTCCTCTCCTCCCCCAGGTTCTGGGTGAGGTGGGACCTCAGAGGTTGAGGCAGGCCTGGAGCTCAGGGAAGGGCACCCGCAGCTCCACTTCACTGCTCACAG
1.471215142219803 AGCTGCTATTTCTGCTTCAGCGAAAGCCACGATCCCAGCACACAGGCACGCGCTACTGTGAGGTCAGGACGAGGAAAAGAGCCAGGACCTTTCACCCAGATCGCGGCGGCCCAGCAGGACTTGCCCGGAGTGTCTCATGCAGACTTTTGTGTGTGTGAAGAAAAGCTTTTTGTCTTGCTCTGGGCACCCTGAGGCCAAAT
1.50661901549113 AGGTTTACACCAGCTGTTTGCCAAGTAACAAAATCCAGGATGTTTCCCACTCAGACAAATTGACAACTGCCCCTCAGTTCAGACACCCACTGAGCACTGAGCACGAGGGTGCACTCTGCTTCTAGGCCAGCAGAGCCGGACTCCACCATCCCTCAAAGCCTCTCTGCACAGAGTCGGTGACTCCGCCTGCAGCGCCAGAC
1.421143597098441 AGAACAGGGGCTTAAGGCCAACAGGGCTGGACCAGCCAGAGGCTGGCTGGGCCCAGGGGATACACCCGCCCAGAATGGGTGGAGACCTGCCTCTGCGCCTGGCGCCATGGCCCCTGGGCCCCGTCTTTATCTGTGGAATGCGCACAAAGCTTGCTGTTCCGCCCATCTCACTGGGGGTTGTGAATACCAGGGACAAAGGG
1.620846756313169 CCTCCTTCTCTGGTCCACCCTGGTGTCCTGCTCAGATGGACATGCCCAGCCTCCTCCCCTCCTGCCCCTCTGGGGCACCAGAGCTTCTTAAGGCAGGGACAGTGTGGGTGGAGCTCAAAGCGGGGTGGCCCCTCCCTTCCTCCCTCCTTCCTTCCTTTCTCTCCCTCCGCCCTCCTTCCTCCTCCCTTCCTCCCTCTCCC
1.381886078415352 CCCTCCTCCCAGACTCCGCACCGGGCGGGGGCGGCACCCACCGAAGTAGAAGCCTTCGTGTTGGTACTTGGGGTTGAAGAAGGCCCCCTTGGCGTGCGCGTTGACGTCGGCGCCGGCGGCGATGAGCAGGGCTGCGATGTCCCCCTGCCGCCGCTCGATGGCGATGTTCAGCGCCGTCTGCCCTGCGGAGCGGGCGGGGA
1.439240661312438 CTCCTCCGTCTCCTATGCTGGCTCCTTGCTCTCTGTGGCCCATGGGTGACGTATCTGAGGCCTTTTGCTCTTTGCCCACTGTATGGCTTCCCGCTGTCCACCCCCCTGCTGCCACCCTGGAATCTGTCTCCAGCCTGCCCCCTCCTCGTGGCCTGCAAATAAAGCTCATGGCCTCCCCATCAACCTGATACTGCACTGGT
1.01644476988903 CTGAGGGAACACGGAGGAAGCCTGTTAGGGCCGAGCCAGGCAGAGCCTGTCTGCCTGTGTCCTGCCTCCTGGCCCCAGAGGGTGCCCCCATGCTGAGCACACACCCTGGCCAGCTCTGAGCCCAAATGGCCTTGCCCAGCCCTCCCGGGAGCCCTCGGAGATGGACACTGTCATTATCACCTACGTTTCACAGATGGTCT
1.226405967436207 CTCATTGCAGGCAGAGGGATGGCTGGAATGAGGCGTCAGAGGCAGAACTGGCTGAGCCACCTGCCCTCGGCGCCAGGCAGGCCACGCCCACCAGCCACAGCTGCAGCACCCGCCCACCCACGTGGCCCGTGTGAGTCACCCCCACACCCACACAGCAGCCTCATCCCCACCGGAGAAAAGGCAGGGGAGGCCGCAGGTGC
1.291706859743734 GTGGGTGGAGTGAGTCAGGATGGCCGTGTGTGTCTCGCGTCACTCAGGAACTGCACACCTGCTCCCCGGGGCGAGATGTGGACAAGACACAGCTGGGACAGAGCAGGAAGTCTCTGCTGACGCGGCCGCAGCTGGCGCCTGATGGGCAGGGAAATCCCCAGCTGTGAGCCTCTCAATCCCTCATCATCACAACCTGCCTG
1.115934431553136 CAGGGCTGAGGAGGCAGGGCAGCCCATACAAGGAGGCAGGGCGGGGCTGGGCTGCGTCCCCTGGGGCGCTGAGGACAGGTGCCTGGGCTGGAGGTGCTGGCACAGCCGCCTGCACGGGCCCAGTGAGCCGTCAGCCATCAGCCGTCAGCCGTGACAGCATGAGTGAGGTGCTCAAGTCAGCCCGTGACTATGTGCTCATG
1.198377954291029 ACTGTATACAAGGGGCACAGCCCAGCCAGCCCAGACCTGTCCAGGTGCCACTGGTGCCTGCCGGGCCTGGGCAGGGCAGCCCCGGGAGTGATACGGAGGCCCCAGACCCTGCCCTGAGGAGCTCACAAGGGGCAACATAGGGTAGGGCTGAGAGCAGGGCCACGAGTGAGACTGCCTGGGCCAGGTCCTGGCTCTGCCAC
1.768748563873812 ATGACCACGAGGTAAGCGGGCTCTGAGGAGACCCACTGGGGCCCAGGGAACCCACCTTCTCTATCATGACGGCATAGATGCCCATCTGCTGGAAACCGCGGGTGTAGTAGAGCATGTTGGTCCAGCCCAAGGCCAGGGAGAATACCATGGAAGCCACATACTCCTTGAGGTGGCTGAAGTACAGCACCACGGTGGCCAGC
1.315958508771919 CCACTCTCTGGGGCACTGCCAGTCACTTGTGGCAAAGGGAAGGGTGTGTGGCAAGTAGCTCACTGGCTCCTAAAGACCTCTGCCCAGGAGTGACAGGCATTCCCTGTGCACGTCCCACTGGCCGAAGCGGATCGGGGGGAAGGTGCAGCCCTGCCGTGGGCTCATAGCATCGGGATACTGACGGCCAGCAAAGGAGCCCC
1.48656895530466 GAAACCTACAGACTGGGCTCATGGTCACAGAGAAGGGAGAGCCCACCTGGGGTCTGGGCGGCTGTGGAGGAGCAGGACAGCATGGCTGAGGCCCCTACCCAAGGGCTCAGGGCTGTGCTTACACTGGGCCCATCCATGCCCCGTGTCTGGGACAGGCCAGGGGCACTGGACCCTGATCCTGGCCTCTGGGAACCCTCCAC
1.198757867969983 GGGCGGGGCAGGGGCGGGGAGTCGCCTGCCAATCTTTCAGCCACACCCAACATGGAGGCTTCTCGTCTTCCCACTGGCCGGGGAAGGCGAGCTTCCACGCAACCTCTCGGCGGGCCCCGGCTATAGGCGGAGAGGCGGCGGAAGGCGGGACCTAAAGGGGGCCCCGCCCCACGGGCTCTGATTTCCGCCCAATGGAGGGC
1.476738890755013 CTGTCTGGCCCAGGCCTACATGAACTTTTACTACAAAAGCACTGAGGGCTGGAGCATTGGCAACGTGCTCCTGGACTTCACCGGGGGCAGCTTCAGCCTCCTGCAGATGTTCCTCCAGTCCTACAACAACGGTGAGTCAGCCAGCGGGCTGCTGGCCACCCTGCGGCTGGGGCATCGGGCGGGGCCAGCCTTCCCGGGAC
1.22539461048748 CAGAAAGAGACCGGGGTATGACCAGCTGAACTAGCACCCAGGGACCCAGTGTACCCAGCCTCTGGCCTCGTGCCCTGCTGGGGAAGGCCTCACCCAGCGAAGGCCGGAGAAGCGGTTGGGCCCTGGCACACAGGGCTGGCTCAGTGTGCGGACAGAGGAGACCACTCTGCTCCTGGGGCCAGAGGCCATTCAATAGCCTG
0.8062034212599544 TCGCTGCTTAACAAAGGCCGCCCCGCTCGGCCCGCCCCCTCATGAATAGTTAACAAACCTCCAGCCAATCACTGGCCGGAGCGCCACTCCGCTTTCGGAAGTCCCTGCGCGTGCGCAGAAAAGCGGGCAGAGGGCGGAGCGTGTCCGGGGCGCCCACGGCGCAGGCGCGGAGGGCGGGGCGGGATCTGGGCGCGTGCGCA
1.77281016557191 GTGGACGACCCCAGCTCAGCCCCTCACACCCAAAACGTGCCCTACGGACCAGAGCGATGCAATTGCCCCTCTCCTCCAGCAGAGGGAGACTCCACCCACAGCACAGGGCAGGGTTGGGGCCTGAATGATAGAGGAGAGTGGAGGTGGGAAGGGTTGGTGGAGGGGCCAACAAGGAATCTTGGTCCCCTGACCCTGGGTGC
1.769030333186803 AGGTAGGGATCCATGTGGAGCTCACTTTTCTTGACCCCCTCCCAGGAACGTGGTCCTGGTATGGGACACAATTTTCCAGGTTTTAACAAAAGTCACCCCTGGGTCCCAATGGACTCCTCCAGTGGGGCTGTCTTGTGTGCACAGGGAGAGGAATGAGGGAAGAGGCTGCCAGAAACCTGGGAAAGGGACCTGCCGGGATG
1.536520169024469 GAGGAGCAAGGGCTTCCCCACCCTACTCTGAGCAACCCTTGGGTCGCCAAAGCGCGGATGGAAAGGATGCGGCAGAGGCCGCAAGACTCGGCTTCACGGAGAGAAACAGGCAAGAACACGCGCTCTCCTCTCCCAGAGGCACCCCCAGCTTCAGTCGCTGGCCACTCTGCTGGGGTCCACACCTCTCCTGGGCCATCTGT
1.351800183116105 CTTAGTCCCCCCATGGAGCGGCTGAGAACACTGCGTCGTCCCTGCCTCAGGGCTGCCTCCCTCGTTCTTCAGGGAGAAGGGAGCCGCACAGGGTAGGCCTCTCTGGACAGGCACTTCACACTCCAGCCAGCATGTGCCAAAGGGGGTCCCTCTGCCTCACCTTCGGCTGGTGCCCCAAGGACTCAGAACCGCACAGCAGG
1.905602730188086 TGGCAGTCGCTGTCCTTGGAGCACGCGCCATCAGGAATGCCTTCATTCTGCCAGGAGAGAAGGGGCACCTGGATGGGGGGGTTCCCCCAGCTCAGAGCCGGGTCCCACTCCAGGAGATAGAATAGGGGTTCTTCTTCGGCCTGGCCCACACACACTCTGAGAACCTACTTCTCCCCCATATAATGCAGGAACCACACCCG
1.739096921469855 GGCGGCCTTTTATTGACGCGGTTGAGAAAGCCTCGGCTGGGAGCTGGGCGGCGGCGAGCACCGGAACCTCAGACCGCGACCTTGCCGCTACCTCTTCTTCCTCCTCCTCCTCCTCCTCCCCTGACACAGTGACACCCCTGCAACCTACTCCCCAGCCACCGGTCTGGGAGCGCAGCCCCCCGGATGCGCAGGACCGCCCT
1.818217323587235 TCTGGGTAGCAGAGTGGCCCTATGGCATGACTCACTGTTCTTGGATCTATGCAAGCTCTACCATTTCCTGTCCCAGGCAGAGGGTGAAAAGGAAATGAGAAAGGCCTAGCACCTAAAAGGCAGCTTGTAGAAGAAAGACCGGCTGGGAAAGTACCCCATGTGCTTTCTGTTCTCCTTTGCCCTGGTACAGGATAGTGAGT
1.279004789574528 CAAGCCGCCAGTTTTCCGTCCCGTCCCGGCCCCGGCCCTGGCGAGGTGCGCATGCGCAGGGCCGGGAGCTAGGACCCCGCGGCAGGCGGGCGCGTCCGCGTCGCACGGAAGTCTCGCGATGTTTGCGTTTGAACCTCTTGGCGGGTGCCGGCCATGGCGGCTTCGCTCCCGGGACCTGGGAGCCGGCTTTTCCGCACATA
1.282158590991761 GACCGGCCCAGCCTGACCGTGACCCCAAAGCGCTGGAAGCTGCGAGCTCGCCCAAGCCTAACCGTGACCCCAAGACGCCTGGGGCTGCGAGCTCGGCCCCCGCAGAAGTGCAGCACACCCTGCGGCCCGCTCCGACTTCCGCCCTTCCCCAGCCGCGACTCCGGCCGCCTCAGCCCGGACCTCAGCGTGTGCGGCCAGCC
1.787218932231567 AGATTGAGATGAGACCAAGATGCAGAAGACGCCAACTGCAGGGTGGTGAGAAGAGCGAATCAGTCCAAACCGACTCACAGATGACCTCTTGAGGACGGGGTGACCAATCCTGCAGTTCATGATCAGGACAGAAGCAACCGGCTGAGGGTCATCACACTGAATGTTTGGAGAGGGAGGCTGTTAAAAGAGCAGATGACATT
1.637718443200376 TGAGACAGCTGGACACCGACGACCAGGCTCACTAGCGTTTTTGAAAGAGAAGCGTTTGCTTGCTATGTACACTAGGGGGCGATGTAGGGCAAGCCATGCGTGCTGTATCTCTACTACCCCCAGTAGCTGGCTGGGAGGTTGGTTCTTGGCTGTAATTAATTCCCTGCTGGAAACAGCTGTGCCTGCTTGTTAGCCTGGAT
1.494833491468002 CCGCATGCTGGGGCTGTGGCCCTCTTTCCTCCCTCCGCCTCCATTCTGTCAGCACGTGCTACGTATGAGCTGTCACTTTAAACTGTTACTCCCGTCATGGCCCAGCCCACACCGCCTCTCACCTGAGTGGTTACAAAGGGAGCAAGTGCCGCTTCTCTTCTCAGCTAAGCAGCAAGAAGGATCCTGCTAAGCTGCATGAG
1.609453988624507 ATGATGTGGCTACAGTGGGTTGGGACAGACTAAAGAGCACAGGAAGGTGGGGCAGAAATGAGATACCGTCTCCACTTCCTCAACTCCTATCACTCTACATTTTAATACATTATGAAATATATTCACGTATCGGCATGGCTTACAGAATAATAAGAAAGTCTGCACCTGTGCGTCCATCCGCCCACCCACAACTGAACCCA
1.641905810675467 ATTTTAAGAGAGACAATGTGAGTGAGAGGCACACGTCATTCTCAAGCAGGAGCACAGCCCCTGCCTTTTTCTAGGCCCGAGTTGGCCAGCCAGCGCACTTCCTGCCCCATGCAGCAGGCCCGTGGTCTCAGGCCCCACTCTCTGCAGCAGGAACCCAGAAGTGCCTCCCACCACATCCTCCTCCCCAGCGTGTTCAAGCC
2.845334013809594 CAGCCTGGAGTGCAGTGGTGTGATCACAGTTCACTGCAGCCTCAACTTCCTGGGCTCAAGTGGTTTTCCTGCCTCAGCCTTTCGAGTAGCTGGGACTATAGGCCTGTGCCACCAGACCTGACTAATTTTTTTTTTTTTTTTTTTTTTTGGTAGAGGCGAGGTTTCACTGTGTTGTTCAAGCTGGTCTTGAACTCCTAGGT
1.01924299107384 GTCCCTGAGCCCCCTCAGCACCCTGTGGTCTGTCTGGCTCTGACCAAACCCTGAGCCCCCTCAGCATCCTGTGGTCTGTCTGGCTGTGACCAAATTCTGTCTGGATCAGGGTGATCTGTGATTCAGTTTGTCTGCCCTGAACTGTGATGTGATCTGAGTCACACACAACACCCCCAGCCACAGAGCCCAGCTCAGCGCAG
1.347548886431738 AGGCGAGGGCTGGCCCTCCCTCCCAATCCCCCCTCCCGTGTTGTCTGACTTACAGACATAGCTACACCAGTGTCTGTCACCACACTACCCACAGGACCACCTCTCTGAGCTGTCCCCAGCCACGGAGGCCTGCTGAGTCAGACCGAGATCCCCCTCCATCCTGTCAGCCACCACTGTCTCCCCTCAACCCTCTGTCTCCC
1.680813175847776 AATGAGTCAGGGGTGAAGACTGACTTGGGGACAGCAGGCCACAGGGTAAGAGGGCATGATGGGGCTGGTGGTCAGGGTGTGGACAGTTCCAGGGTTTCAGTGTCTGTCTGCACCCAATGCTTCTAAAATCTCCCTTAGACAACTGCTATTATTCCGTCTGCTGCCACAAATAAGAAGTAGGCATCACCAGAGTGGCTGGC
1.274271116599939 CGCACCACTGAGAGCCCGCCCCTCACGGCCGCCGGCTAGAGCGCCGCTGCCACTGGCCACAGAGGAGCCGCCGCAGCTACCTAGAGCGTCGCCGGCTTCGGCCCAGAAGGCCGCCCTTAGCGCCGCCGCCCCCTGGTGGCGGGAGAAAACCGGGCCGGCTGCGCGGGCGGGACCTGGGGAGGAGAAGGCGGGACTGAGCG
1.567406846962296 CCTTCTCACTCCCTCGACTAGCTCATCACACGCATGGCTTCCAACTCCACGGCCGTCCACACGCTGAGGGCCCCCGCGTCTCCATTTCCAGTTCTCGCCTCTCCCTCGAGCTCCAGATGCGCATGTCCAGCTGCCTCCTGGACATCTTCCTTTGAATGTAGCAAGGCGGGTCCATTCCTGCGTTCGCTCCCTCCCTGATC
2.056692699284808 GGGGCCTTGAGCACCAGGCTGAGCACCGTGGGGACCATGGCAGGGTTCTGAGAGGGGCATGGTCAGGTGGGTGCTCAGAAAGATCACTCGGGCAGCCAGGGAGGGCATGGACCAGAGGGCCAAGGACCAAGGCTAGAAGACCAGTGAGGAGGTGAGAGATGGCGAGGCTGCATTTGAGGGGCTCCAGTGGTGGGGAGGAA
1.285706587884655 CCCTCCCCATGCTTAAAGCTCTCAGGGCCTCACAGAGCTGGCAGGATGCAGTCAGCAAAGACCTCAGGGGAGGGATTCCCAGCCCTCATGCTGTGGCCCGGACAGTGTTTCCAGCATCATCTTTCACTAACCACGGCCCTCCTCTGCCCACTGGAGGCTTCAGCCAGACTCCACTTCTCCCCAGACTCAGAGTACACGCC
1.856199108779288 GCCCTTCCCCCTGCTTGCGCTGGACTCTGCATGTTCTCAGGAGAAGGAAGTGAGTGAACTCCTGACCCTCCATCCTTCCTGTCTGCTGGTAACTTCCTCCGAACCCACACAGCAACTGAGAACATGGGTCTCAGGGAGACCCAGAGTACGCATGGTGAAGCGCCTGCTCTACCGCTCGTTCCCCATCCCCTTGCTTTGAC
1.090228265937986 TTGTGCGGCTGCTGTTGTGATTGCTCGGGACACGCTGAGGCCCAGATGGATGCGCGGGCGGGCGGAAGGCGGCCGCGAGGGCTGACGTCAGGCTCCCCATCCCTCCCTCCCGCCTGGATCAAATTCAGGTGACTAAGCGCGTCTGCGAGGGAGGCGGCCGGCCGGGGAGGCCCGAGGTTCCTGCCGCGTGTCCGGGAGAC
1.421557953522035 CTCCCATGCCTGGGCCGCCTCACTGGAGCTGTGTTTATGATCCTGGCGAGTATCTGGATGGCCCTGGCAACGGGTGCCCTCCGCAGCTCCCGCCCCCACCCGGGATGACTCAGTCCCCTTGAGGGAGGCCCAGGCGTCTGGTGCCAAGTCATGCTTGACGACTCCTGCTGTGAGGACGCCCGCTCCCACCATCCCTGGGG
1.118960944545043 CTCCCACACTCCTGTGCCCGCCCTGCGGACACCACCAAGGCCCGGTCCTGTGGCCTGTGACACAGCCTTCTCTGCACAGCCCTGCAACGCCAAGACTTGAGCACACCCCCTCCCCTGACAGGCACACGCCCGTGTCCGCGTGACCCGCCCTCACACACCACTCCATCCTGTCCTGCACCCCCCACGCAGACACAGGCACA
1.083303666789499 ATCGCCGAGCTCAGCCCGCGGGCGCCGCGGCTCCGGGCAGCGCTCGCTGCCCCGCCCACCGCCGCGCCCGGCCGGCGCTCATTGGTCGGAGCGAACGGCCCCGCCAGCGCCGCCCAATCGGAGCCCGGGACTCCCGCCCCCTCCTGGACTAAGGGACCGCGGTGGGCGGCGCGGTAGGGGCCCTCCCTCCCCTGCGGCGG
1.24763934269542 CCTGCTCACAGCCTCCTTCCCCCATTTCCCCCCACACTGCTCTGCCGAGGCGCCCCCCGGGCTCATGCCCAGCTGCCCACTGCCAATGTCAGCTGGGCGGTGGGGGTGGGCACGAAGTCTCGGCACCCTGCCTGGTACACCGTGTGCTGGGCGGGAAGGCTCAGCTCTGCAAGGGTTGACAGTTGCTGTGTGTGAATATG
1.519438255555705 TGAGTTTCACAGAGACACTGCTGATGAGGCCGCTCGAGGTCTGGTAGCCCTTCTCATAGAGAAACACCCACCTGTGCGGGTGGGGACAGAGGGGGAGTTGTGGTTGTGGCACCAGCTGGACCTGTCACACGCTTTCCCACGCCCTCCCCAGATGTGCCTCTGAGCCACCATCTGCTCCTAAAGCTCCTGTCTTGGGCTAG
1.006918415028749 TTCTCTTGAGACGTCGGAAGCTCTGGCTGTGCCAGGTGTTACGTGCTGCGGCAACAATGGGCAGAAGCTGAGCAGGGGCCGCCCCAGGCGTGAGGCCTGCCGGGGTGACGACATCTGTCACCCGTGCTCACTGCCTCTGCCTTGGGTCCCGCCCCGTCCCCCCTTCCCATCCCTGCGGCCTCTTCACAGCTGTCCTGCCT
1.527860188302648 AGACCAAGTCCAGGCTGGGTCAGGGGTTCGGTTTGCCGCTGTGGGTTCCTGGCTGAGAGGTCAGTGCAGTACTGAGCAGTGGCCAGACGAGGGCGCAAGAGACAGCAGGCACCACAGCCTGAGCAGGAGCTGGAAGCCTGGGCCTGCAGCCCTGGGGGTTGCTGGTGATGACGGACTCTGCCTTCCTTCCACCCTCTGCT
1.591517766936713 AGAGCAGCTCTTGGCCCCTGGAAGGCAACAGACTGCAGGCCAGCCTCGCCCATGGACAAATAAATTCCCAAAGATAGATGGGGCGGGGCTGGTGGGGCCACCCAGGCCCAGCCCCACTGCCCCTCCTGGCTCTGCGTGGGCCTTGTTGGGCCTCCGGAAACAGGAGTTGTTGGCAGGAAACCACAGGCCACCCGTCACAG
1.306028447718109 CAGTGCAAGACCCTGCGGACACCTTGGGACCCAGCCACCAGAGCCCCTTCACACCCTCCACTTGGTGATCCGAGAACGCCTCCCCGATGTGCAGACAGAGAGGCTCTGCGCTCCACACCCACAGCGTCCACTGCAGCCCAGGAGCAGAGGCGGGCGGGGAGGCAGGCTGGAGGCGGGACGGGGCCTCCCACTCACCGTGC
1.403378379873786 TAAGTTCAACAGGCTCCCTGGCCAGCCCTTGCTCACCAGCTGGTAGAAGTTGATGTGAGGTCCCTCGGCGTCATACACAAACCACCAGGTGGCGGCAGCCACTGTGGCCAGGCCTACGTACACTGCGGGGAAGGGAGGAGACCGGCTGTAGAGAATGGCGGTGGTTTTCTGGCGTCTGTTTCCCCTGCCTAATAATTCCC
0.8178297773685826 GAACTGGCCGCAGCGCACAGGCTGATCCCCCTGCCGCCTGCGGAGCCGGGGCGGTCACCAGGAGGACCTCGGCTCCGCCCCCGAGAGGGGTCCGCCTCTTGGCCCCGCCCCTAGGAGGGGGCTCCGCCTCTTGGCCCCGCCCCCAGAAGGGCTCCGCCTCCTGGCCCCGCCCCGGGAGAGGCTCCGCCTCCTGGCCCGCC
1.644705635798967 TTGTGGTTTCCAACAATAACGACCTTGCAGGTGCACAGACTCCTGGGGTGGGGAGAACACATGTCTCTGGGGTGTCCCTTCTGCCCTCAGGCCTGACCCACCCTGCCACCCAGCTTGTGGCCAGGAGCCCGCCCCAGCCTCTTCTGCGACAAGGAAGGATGACTTGGTGTCTGTGACCTCACTAAAGACTCACAAACAAC
1.157090159188361 CGAGGCCATGTCCGTGCTGGGACCTTACCCGACGGCAGTGGCGGCGGCGGCCCCGGCCCGCGCCAGGATGCTGCGCCCGGGACTCCCTCCCCGGGGCGGGGCGGCGCGGGGCCCGCCCCCCATCACACCCCTTCCGGCCGCCCTCCGCGCCCCGGGGCGCACCGCCTGGGTCCCCCGCCCATTCTGCAGAGGGGAAACTG
1.174741339795326 CGCTCCCGAGCTCCACCCGCCCCAGGAGGGCCAGGAGAAGTGGCAGCGGGTCAGAGGAGGAAGTCGCAGGAAGGCAGAAACCACTCGCCCCGCCAAAAGGAGGAGCTAAGAGAACAGCCTGATTGCCGCTCCCTCCAGCTTGAGAGACCCAGACAGCCTCACCCCAGCCCTTATCTGCCTCCCACCACGAGCTGGGCTCT
1.502397650108702 GGGGCTGGGAAAGGGCCCGTGGCCTCAGCAGACAAGTCCCTCCTGGGTGGCTGGGAGATTCTTAAGGGAAATGCCATTTGATCTGTATTCTTAGAAACAGGAAGTAGCAGCTTCCTGTAAGCAAACTGACCTCATCCCCAAGCCCTGGGATGGCCCCTGGGTCCAACCACTTCCAAAGGGATGTGGCTACCTCTCACTCA
1.439515510548305 AGCACCCAGTCCTGCTGAGTCTCAGGTTTCTCTCTGGGCTGAGGGATAGTGAGGGCTGAGGCTGGGTCCAGACCCTGCCTGGGGCTCCCCCGAAAGCAGTCTGGGGCTTTGGGGGATGTGTCAGACTCTGTCGGGCTGGAACAAATGGGCCTCAAAGGTTGGTTAAGTGCAGCCCCTGCCAAGAAGGCACGCTTCTGTAA
1.381855220074927 CCGCTTTACTCGGAGTCTGGGGTGTGGAGGGGCGTGGGTGGCGCTATCTCGTCTACCTTCCAGGTTGGCTGTGAGTCTGAGCACGCAGCGGGGCCTCCCTCCCAAGCACTAAGACTTGTTTCCTGTGAGTCCCCTCTTGGGAAACTCCTTACTGGGAGGCCTCCTCGGGTCTGAGGGATGAAGAAGGTGGGGCCTTCTCT
1.57993212684094 TTGTGCAGGAGGGCGGCGCTCTTGCTACGGCGCTGCTTGGCATAGCTCTGCTGCAGTTCGCTCTCTGTGCTGGAGATCAGCTTCTGGGTCACAGGGTTCGATTCAGCAGTGGCTTGGTCACAGCGTGCAGGCCGGGACTGCAAACCCAAGACCACCATTACAGAGGTCTAGCCTTCTTACAGTGGTGGTATGGGGTGGGG
1.945048840000686 CAGGTGGACGACTCTGGCCGAAACTCGGTGGCCCTTCTCTCTCTCTAAAGCTCCCTGAGTTTTAGCAAGAGCCACAGTCACCCAGCTAGAGACATGGTTAGCAGCTAGATGTGCTGATGCCCCTGGGTTCTGGGCAGTGCAGGTGAGCGAGGTGGTGTGCCACCTCTGGAGTCTACTGGACTAATGGTGCACTCCCTTCT
1.645971571544509 CCCAAGACACGGCAACATCGGGCAGCCCACAGGCAGTGACAGTGAATTTGTAGCCCCATTCGTTGTGACTGCTGTCAGAGTGAAAGAGGAACTGCAACCGAGGACCGGCCTTGAAGGTCACTTTCTAGAGACAAACAGAAATCATGTGGTCAGACAGATTAGAGGAGGAGTGCTTCAGAAATCAGCATGCTCTTCATGAC
-0.3837589237661088 CCCTCCCCAGCTTCTCCCCACTCCAGCTTCTCCCCAACCTTCTCCCTTCCACCTTCCCCTTCTCCACCTTCTCCCTCTCCTGCTTCTTGCTCCCAGCTTCTCCCCTCAGCTTCTTTACCTCCACCTTCTCCCTCCCCAGCTTCTCCCCACCCCAACCTTCTCCCTTTCCACCTTCTCCCTCTCCAGCTGCTCACTCCCAG
-0.8072877226873876 TGTTGAAGTGGTGCCCGAGGTGCCCATTGGCTGACTGTTCATGTGTGTCTGCATATGTGGGGGGGTGTAGGTATCATAACTCCGCCCATTCACCGAAGGGCTGGTGGGCAGCATGCAGGAGTATGAGGAGGTCTGGCTGGGGACTGGGGGCTGTGAGGAGAGAGGCAAACCTGTGGTTACTGAGGAACACATCACACAGC
-1.001634100279224 GGCAAAGCGGGGCGCACGGCGAAGAGGACCAGCCAGGCCCGGAGCCCCAGGCAGCGCCTCACCCAGCTGGGGTAGGAAGCACAAGGGCAGGAGCAGAGAGCCTGCTTCCAATGCTGCTGGTTTGCCCTGAGTTTCAAAGTCCACGACCCAGGACTGGCTGACTTCGTGGGAGGATTTAACCAAGAAGAAAAACTGGAATT
-0.1258039209613349 GGCCGAGTCAGGGGAGAATTGCTTGAACCTGGGAGACTGAGGTTGCAGTGAGCTGAGATCATGCCACTGCACTCCAGCCTGGGAGACAGAGCAAGGATCCATCAAAAACACAAAAACAAAAACCTGGGCCTGGTGGCGCATGCCTGTATTCCCTGCTACTCGGGAGGCTGAGGTGGGAGGATCACGTGAGCCTGGGAGGT
-0.6525211608087804 CTCCCCCAGCCCACCCTTCCCTCCACTCCTCCCCCAGCCCACCCGACACTCCACCCCTCCCTCAGCCCACCCTTCCCTCCACCCCTCCCCCAGCCCACCCTTCCCTCCACTCCTCCCCCAGCCCACCCTTCCCTCCACTCCTCCCCCAGCCCACCCGACACTCCACCCCTCCCCCAGCCCACCCTTCCCTCCACCCCTCC
-0.2801125013906527 AAGCTTACAGAAGCGGCTGGGTGCCCGAGATTAGTTATCAAGGGCTGCCACCTTAACAGGGGACTCTGGCGTGAAAGCAGCACCTAAGTGGCTCGCTGCGGAGGGGGTTCTTTTCTTTTTCTTTCTTTCTTTCTTTTTTTGTTTTTTTAAGAAAAACTTAATAATTCCGTGCAGCCGGAAATCTTAGCAACACACTTCTA
-0.7716185618969401 CAAGACTGTGGTACAGACGGAAGCTTTGGGATTAGCTCACTGCCCAGCCACTAGCCTCAGGTTAAGAGACCAAAACGGTGTTGATGGACTCAACGCTGCCCCGGGTGAGCAGTCACTGGCCAGAGTTCTCTCATAATCTGCACCCCGACCCATGGCCACCAGCAACCTCTTCTGCCACACCACTTTCTCCGTCTCAGCCC
-0.8284363953403722 TGTGAGGAAACCACAGGTTAGAAGAGACATGTATGGGTAGGTGTCAGAGCCTGGACTGGACACAGTCTAGTGCCAATGCCCGGGGGCATAACCACTCGGCTCCCTGGCCTTGTGCCCACATGTACAAGGTTGTGCATACACCAGGGTGTCCACAGAGGCCAGGAAGTGGCAGGTTAAGAAGGGGGTCAGAAAGTGGAGAC
-0.818623855596831 ATGCCCTAGTAACAGAGTTATCAGATGAAGACGAGGATCCCAAGTACCCACGCCACAGCCTGAGAGATATGCGCACACTGTACTGTTCACAACCAGGTGGCTAGAACAGCCAGGCACACTTATCCCCAGGCCGATTCTGCACTTAGAACAACACAACCACAAGGGACTGAAACCAAGCGCTTAGCACAGTAACACAGGGC
-0.9180838276824823 CAACATGTGGCAGGATGTGGGTGGGAATGTGGAGTGCACCAGCCTCAGTACCCTTCTTTCTCTCTGCTTAGTTACAGCTGGATGGACTAGACATTTCCGGCTGACTGAAGAGCTCCATGTCTTGCTCCTTTCAGAGCACTGAGCGATGACTGCATTGGGAGCTGCAGCCCTGCTGGGCATGGTCAAGGAATTTGTGCTTA
-0.5688544940551467 GATTGGCTCCCCTCAAGCCTCCATTTCCAGCTGTCCTCCTCCACTCAGGCCAGTTCTCTCCCTCCAGCATCGCATCTGAGTGATGCATAATCTCCAGCCAAAGCCCTATAGCCACCCCTCTTCTGCCACATCTTCACCAGCTTCTGGTGGACCCCTCAATTCCCACAGCCAGAGCTGCCCTGTGGAATGCCCCACCAGTG
-0.3815761437420633 CCTGCGGGGGTTAGTGAGCAGGAGACAGCCACATCTTCTGACTCCTGCCTCCTGGGTCCTAATGTCCGCCGATTAAACTTCTTTCCTCATCTCCTAAGCAAGGTTATTCCCGTTCTGCAGGATCAAGGTTCCCTATTTAGAAGTCTTAAATTCTAGTGGTGGCACCCAGAAGATCCCCGTTCGTGGTGCCCGCCAGGGTT
-1.00334141395422 TCTGATGCCCCTCGAGCTGGGACACAGACCTCAGCAGAGGCTCCGGGTGGCTAGTGCACCACGGGTCCCCCCCGTCCCCCTCCTCTGGCTCCTTCAGCCTCCTCTTCACCAGGAGCCTACCTTGTAGAAGTTGAACACCAGGTCCAGTTCACAGACATTGTGGAAATATTCGTTTAAGACCTGGGAGAGGAAGGCAGAGA
-0.4416019666336893 TCCCCATTTTACAGCTGGAAAAGCTGAGTCCCCAAGAAAGTAACTTGCCCTCTGCCCCAAGCCAAGTCTGGAAGCTAAGAACCTTCCCCCCTCACCCTCCCACCTTCACCAGTGAATGAGCTTCCAGACACTCCTCGGCAGTTCAGAAATCTCCTGATATCAGGGGTTCTAATCCAGGCCCTGGTGCCACCATTGACAAA
-0.6091702394623674 GGGACTGAAGACAGATCACATCACAGGACTCTTCACAGACACCCCCCAGTACCAGCTCAGAGCCCAGAAGCTCTGTTGGATGGCTAGACCAGCAGAGAAATAACAATCATTGCAGTTTGGCTCTCAGGAAGCCCCATCCCCAGGAGATGGGGTAGAGCCCCATATCAAGGGGGGATCCCATGGACAAAAACAATCTGATA
-0.937747344313949 TCACCTCTGCGTCTTTCTTGGTGGGAGTGGCTGGCCAGTGGGAGAGCATGGCTGGCAGTGAGGTGTGAGGGGCTCCAGGGAGGGTTCCGCTCTGCAGATGGCTGGGGCAGGTACCAACTGTGTGCAAGGATATCGGTATTGCTGGGGTCCCAGGTCCAGGATGAGCAGAGTGTGTGACCGTGTTGGCGCTCAGGTCCCAA
-1.016749534509194 AGGGGCCTCGGGAGGTTAACAAGTCCAGGAAGACCCCGGAGGCAGCCACGTCTGCCTGGTAGAGCAACAGCACCCTTCGATGCTGATCAGGTGTGAGCTAAACTGCCAGGCACACCCTGTGCAGGAGAGGCGGGGTCCAGACACAGCCCGTGGAGTCCCCAGAGCAGTTAGCAGAAGCCGCACCGTGTTACTCTCTCATC
-0.7067198534556759 CCAGGGCCACCGGGAGAAACATGGAGCAGTTCCAGGTGTCGGTCAGTGTGGCTCCCAATGCCAAGATCACCTTTGAGCTGGTCTATGAGGAGCTGCTCAAGCGGCGTTTGGGGGTGTACGAGCTGCTGCTGAAAGTGCGGCCCCAGCAGCTGGTCAAGCACCTGCAGGTACCTGCTGCTACCTCTTCCAGGGAGGCCTCC
-0.5973174388401503 GAGGCTCCATGAGAAGGGGATGGGGGTGCAAGAAGGGAAGAGTGAGGTGGTGTGCTGGGCGTCGGGGACGAGGACGCACGCCAGCCAAGACGTGCCTCCCACCCAGCCCACGCGCGCTTCCCCACCCCCCTGGCCCTCCAAAATCGGTAAGAGAATTAAGATTTCGAATCCCTATTTTGAGGAGCCTTCCGCATTTCCTA
-0.1600870354113333 GTAATCAATGAATGTACATATTTAGCCAATGACATTTTTCTAGGCAAAGCCTACTTTCTTTTTGCTGCTCATAGTAAAATGCAAGAGGATAGAAATAAATTGAAGAGGCTGGGCATGGTGGCTCACACCTGTAATCCCAGCACTTTGGGAGGCAGAGGCGGGCGGATCACTTGAGGTCAGGAGTTTGAGACCAGCCTGGC
-0.5466616120629808 GCTGGTCCTTGTGCCTTTAGGTAGCACATGTGGGCATGCAGCATCCCTGCTGGAGGTGGCAGGGTCATTGGTGGGGAGCAGCAGCAAGCCATGGGTGGGCCATTTCTCTGGTCCCCAGGCAGGTGGTTCTCAGGTTCTGGAAGGGCACACATTGGCTCCCTGGGTTCTGTGGGCAGCCTTTCTGCTGCGCGGGACTTCCT
-0.7587750790739449 GGGTTCTCTTAATCATGACTGGGCAGCATTCACTGGGAAAGCGGCCCCACCTAACAGCCTCAGACCAGGGTCCCCACTCCTTGGCAGCTGCAGTGAGCCCGGCTTCTCCACCCACGCCACATCCCACATCCACTGCCCCTTCTCCTCTCAATAATCTTGCTCCATAACAGATTCCCTAGGAATTCAGTGCTTAATACAAC
-0.8161686893450774 AAAACAGGCAGGAGTTGACTGAGTTCCCAGGGAGTTAGGATTCCAATGGCAGAATGAGCAGACAATGAACAAACAAATAGATAAAGGAGCTGGGAAACGTACATATGAGAGACCGAACAGGGCACTGTGGGAGGGAGATGGCATGGGAAGGGCATACAGCTATGGACAAGGCAGCTGTGGGCCTGCCCTGTGAAGCCCCT
-0.4562933589955905 TGGGTGGCAGGGAACCTGGGTTCCTTGAGTGGACAAGACTGTGAAAGGGGATGGGTGGCCACACACCAGGACCAGCCATGGTCACAGCAGCAGCCTCTTGTCCTTTCTCAAGGCTACAATTCCCAGGTCACTTCTCTCTGGATGCTGTCATCAGGAACAGGAACCTGGGAGCCCGGGTGGCTGGGATGGGCATGTAGGGA
-0.7780799621330812 CACAGAAGTTTCTTTATGAGGTAGCAGGGCAGGGAGCTCCCTGTGCAGGCAGCAAAGCCAGCAACCCTGGGAAAGCTTGAGAATTGGGTGTGTGGCTGAACATGCTCTGAGGCCATCATGCTGGGATAGCCTCCTGATCCTGGGTCTTGTGTGTCTCATAGACATCAAGGTTTATTAATGACACAGCCTGCCTGGTGGAG
-0.3332354243008966 TGGGGCGGCAAAAATTTTTGGGGGGTGATATGGAGAGAGAATGGGCGATGTTTCTCAGGGCTGCTTCATGCGGGATTAGGGATGGTGTGGGAACCTAGAGTGGGAGAGATTAAGCTGAAGGGAGGTCTTGTGGTAAGGGGTGATATTGTGGGGATGTTAGAAGAAACATTTGTCGTATAGAATGATTGGTGATGGCCTGG
-0.2777818418478884 AGCAGAGGAGAGCAGGGGAGAGCAGAGGAGAGCAGGGGAGGGCAGAGGAGAGCAGGGGAGGGCAGGGGAAGGGGGAAGGGGAAAGGGCAGGGGAAGGGGGAAAGGGCGGCAGAAGGGGATGGAAGTTGGAGAAGGGGCAGAAGGAGAGGAAAGGAGAGAGGGAGGAGTGAGGAGAGAGGTAGGTAAGGAAAGAAGAAAGG
-0.4274766405884453 CTCATCGAACCAGGCTGAGAGCCCATGCTGCCTGATGCAGTGGGTGCAAGTGCAGGGCCTGTGCTTGATCAGTCTCTTCAGGTTCTCCAAGAGCTCCAGGACCATCTTCTTGGGGAACCAGGTGGTGGCCACCATGGCGTGGGAGTAGTTCAGGAAGGAGGTGAGGAAGATGAAGAGCACGAGGAAGGTGAGCACTTTCA
-0.8840835621480612 GGCTATCACTCCAATAGGCCCCTGGAGTGGATACTGTTGGTGTCTTGTAGATATTCTTTGCTGGCTTGCAGACCCATCTGCCTTGCTGCTGTAAGTGGGCTGCTAATGGCTCACAGCCGCTCCCTCCTCAGAGAACTGCTTTCAGCAAGAGCCATCAGCCTGAGGGCTATTCTCCCTTAACCCCCATCCAGGAAGCTCAA
-0.967789043733127 GTGACCTCTCCTGTGATCTCTGACTTCCCAGCCTGTGGGGGTCTTGGGGACTGTGTTCTCCCTGCTGTTAGAGTACACAGGCCCTTTCTTTTCATGGCTGTGCAGGGAGGGAGCGGGAGACACCACGGGTTGTTCCTTCTGCCGAGGGACACTGGTGACTTCAGGTTGTCTTTCTATGGCTTTCGTGCTGGCTCTGGTGG
-0.6770162363770846 AGAAGAGTGAAGAACACATCCAGCAGAGCAGCAGGAGGAAGTGGCCATGGCCAGCAGAGTGACGGGATCCGTGAAGGGGCAACATATGTCGCACCTGCCTCTGGGGCTTCTAAAAATCCTTAAGAGGGAGTTTTCACGGAGTGGGGGCACATGCACTGTCGGTTTGGAGAAATGAGCCAGAAAAACTAGTTATTAATACT
-0.9018900371392251 GATGTGGTCACACCGTTCCAGGGCAGGTGGGGCCCTGATGTCACTGGTGGTGCACACTCTTCAGAGTCACCATCCCAGTGGCTGCAGGGCACTCCCCTAATGCCCAGGAGGCAGACACTGGGGTCTCCTACAGTGAGGGTTTCAGGGAGCACGGCAGGGAACTCACTGGGACTGCGTCCTGGGGGTCAGCACCCAGAACT
-0.6035384387892613 AGAGAAACCACTCACCCCTGAACCAAAGGATGCTTCAGCATCATGGACAGCAATACACCAAAAAAGGTGGCAAAACATTTCGTCATGCAGCATCATGGGCTCACAGTAGAAGATAACTGTCAGCCACCTGCAGCTGTATGCAAAGTCGTATAATAGGCTGAGTCATTAAGAATTCGGTATTGTAGGCCAGGCACAGTGGT
-0.4030242513444566 CATGGGTCTGGCTTGGTGCCCAAGCTAGGTGTGCAAGACGGCAGTTTGTCTTGTGTTTGCAACTCATTTCACAGTCGGTGAGCAGGGCAGCCTAGCATGCAAGCCTCCCCTGGCTTTGCATCTGCAGGAGGTTCCCTTCTCCAAGGGAGCTGCACCAAGAGCTTCACTTGGTAAGCACAGAAAGAAAGTCAAGGAGCTCC
-0.771024361940034 ACGTGGCAGGGAGGGATGAGCAGGGATATGAATTTTAAATCAGATTATAAAAGGCATAGGCCGTTTTCTCCTAAAATCCTGAGAAGACTTGCCCAGTGCAGCTCAACCCATAACCAGCTGCCAATCTGGCATCCACCATACCAAGCCACACCCAGTGGGTGTTTCTGCTCCTCTTTCAGTGAGTCCTGACCAGCCCGTAA
-1.2275969365412 TGTGGTGTCTTCAGTCTCCCTCCCATGACACAGAGGTCAACGCTCCTATCATCAGCATTCTCTTTGAACAAGGAGAACGTAATGAACCAACATGCACCCCAGCTTTCATGACACTGTGTGTGTGTGTGTGTGTGTGTGTGGGTTCACCCTACTGGTTCTGACACACGGGAAGTCCCCGTGTGACCTCAGTCTGACCTCCA
-0.6507618255999055 GAATCGCTCTGAGTCTCTTACGATAACAAAAAATTCCGTAGGGTGTGGCACGTGTAAACCCGACTCGTATTTCTTGCTAGAGTATCTTTGGCAAGGTTTCCTGGGTTACTGGGTCAGAAGTCAAAGGCAGGTGACTTTGCAATTGCCAATTATCTCCGCAGGGCTACACCAGAGTGGGTCAGGGGAAGAATCAGAGATGG
-1.832763398074676 AGTTTTAAGGAGGCTCGGCAGAGTTGCAGCGCCGCGGGAGCGGGAAGGCCGGGCGCCGCCCACGCCCCGCCCTCCGCCCTGCTGGCGCTCGCGCTCGCAGTCTCGCACGCTCCGCCCGCCCGGTCCCGCGCCCTCATTCCCGCCTCCCGCTCTCCACCTCCTCCCGTCAAGTCTCTCGCGCCGGCTCCCTCCTGCCGGCT
-0.7025276090889284 CTTGTTTTTGCAGCCAGAAATAGTCTGGCCTTTGCCTTTCCAGTGGGCAGGTTGCCAGGCCAACGAGTGTGTAAACCACCCGGCCGAACAAAGCAAAACTATTTTTACCTTGGGGAGCCCAAGAATGCATCACAGAGTTTACGCACCTGCCCCACCCAGCCTGGCGGCCCAAGCCAGTCGCCAATGGAGGCTGGTCTGCG
-0.5096210955667033 TGACAGTTCTCCTGGTGAAAAATGAGTACCACCACTACTTGCTTCCTTTGTCACTCTAGTCCTGTAATAGGACAGCAGGTAAAGGCACAGTCAGGAGTACTGACTATAAGAGCTCTGGGAAATCTGCATGCTTTCTTGCCTCATCAACCTGCAAACAACTGGATCACAATAAACACCCGAGACTGGCATGCATACTTGAA
-1.00845045490974 TCACATGGATTGGGGACGGTTCAAGTGGTACATTGGGGAGGGACAAAAGGCTCCAAGTGACACTGAGTAGTCAGGGCTGGAAGTGACACACGGGGGTGTCTCATGTGACACATGACTCGAGGAGGAGCCTAGTGTGACACGTCTGTGTGGGGCGGGGTCAGAGTGATGGGGGAGGAGGCGCTTCTGGCGATGCATGTGGA
-0.2735030911036869 TTATCTGCTTCCCTGACTATTCCTGGACTACAGCTATATCTCATTGCCACCCTTCTTCCCAATCCAAAGCCTCCTTTGCGTCTCCTCTTGTATTCCCCCACCTTAACCCACAAGATACCTCTACTCCCTCCTTGGCGACCGATCATGCACCCCTTACCATCTCATTAAAACCTAATCACCCTTACCCCACTCAACGCCAA
-0.1822892229852894 GCTGGGATTACAGGCATAAACCACCACACCTGGCCCTCACCATTATTTTTAAAATTTAACTATACCCAGCTCCATCCCACCAAGTATATGTGGTGGTTTAGAATAATACAAATAACACAAAAGAATAAAACAAACAAGAGAACCAGGCAAGGCAAAAATGAGTATAGAGAAAATAATAAAGCGGGATGGAGGGCGGGAGG
-0.3093750148605212 AACAGGTAAACCTGAATCTGCTGGAGGGCATTTCCATTTGTTCTCTCTCCCTGAAGTAATGTGATCCTAGATCACTGCCTGATCTACTCCTTATCTCTCAGATCTCACCTCAAACATAATCTCATCAAAAAGTTTTCTCTAAATCCCCTATCTAATGCACTCGGCTTCATCCTCACAATCCCTCTCAAACATATCATTTG
-0.4516046775922596 GAAGGCACAGATCTGTTGCCAGCCCAAAGGCACCTGTAGGTGGTGGTTGGAGACCTCAGTTGGGAGGGCCCATCCCCTGAAGAGGAATGGGATCAGGGACCTGCTTAAAACAGCAGTCTGACCTCTTTTTCATAGAGCAGCCATGCTATGCTCAGGGTCTGCCCCTAGTTGCTTTGGGCACTTGAAACCCAAAGATGGAA
-0.320923813595878 TCATTCCAACCCTCATTTTTGTTTTGTTTTGTTTTGTTTTCCTCCTTTATTGAATGCATACCATTTAGGAACTTGAAAGGGGTCTTAGAGACTGAACCCGGCTCCCTTTTTATGTCTGAGGATAATGAGACTTAAAGAAGTTGACTGGCCCAAAGATATGCAGCTAGCGAACCCAACTGAGAGTCTGACTCCAAATGGAG
-0.4894684938948645 CTTCGCTCTAGCTTTGGGAGAACGTTTGAAGGCATGTTTCTTTGTTGGTGCGAGGGCGCCCTCGTGTGGTTATTCAGGCACAATGCAGCACGAAGGTCCAAGTGGGGTCTGACACCTGGTTCCTCTTCTACAGCTGTAGATGTCCTCAGAGGTCATCTCATCCAACCCCTTGTCTCTGGCCAGGGTTTCTCCTCACCTAG
-0.4702632900788532 AGAAAAGGAAAGGAGAGGTGAGGGGAAAGGGAAAAGAGAGAAAGAAATGAGAAAGGCATGAGAGGTGTAGAGCAACAGAGAGGGAGAGGGAGAACGTGAGAAAGGGAGTGAGCTGGGGAGAGCCAAGAAGAGAAGGAGGAGGAGGAGCATATACTTAGAGAGGATACAGAGAGAGACCCACACACACAAAGGAAAAGTGG
-0.9145005266575519 TGAGACAGGGCTCAGTCTTTGGTCTCTCCCTCACCCACACACAATCAGAACCAATGGGCCAGCCCACAGCCCCTTTCTGACCCATGCTGAATATTCCCACATTTGACACAAGGTACAGCTTGTGAGGCACCCTGTGCCTTTAAGCCTCAAACAAGGCAGCCTCCCACAAAGCCAGGGTTCAGGTTAGACACAAAGCGCTG
-0.9015308913080634 TAGGCTGGGCAGAGTGGGACGTGGGCGGCCTGGGGGACACTGAGATTCATGGGTCGGGGGCAGGGGCTGCCCCGGGTGCTGCCGCGGGTGCTGCCGCCGGCATGGCCACGCATCTGGCTTCTGTGCCTCTGGTGACCAGGCTATTTCCACAGATGGCAAAGCTGGCTGTAATTGGGGTTGCTTCCCCAGGGACAAACCAC
-1.411415845298339 CCTCTCCGCACTCCCTTCTCGGGCCGACAGGAGGCGCCGCAGGCGGCTACGGCCGGGCGCCGTTCCGGAACATGTGCGACGGGCGGGCGGGCCAGCTCGGCCGCGGCTCGGCGCGCTCTCCGCCGCCCCTGCCGCCCCAGCCGCGCCAGCCGCGCCCGCCGTGCCGCGGGCAGCCCGCGCGTGGTTTGTTTACCTCTCCC
-0.4972435697188781 CCCTGCTTGGGTCCACCCTTAGACATTCACCTTGGATGATTAAAGGCCTGAAAAATCACAGTCAAGTCATAACAAACCCATTCTGCAGAAAAGAGGGGAAAGGGTGAAGAAGGCTACGCGAGTTTGGTTGTGTGACGCTCTGCCCACCAGCAGGTAAACAGAATGGGGTACTGAGAGCAGAAAGCTGAATGGGAAAACCA
-0.4124033714649729 GAGAACTCTGCAGGAGGGAGCTCTGGGGAGTGCAGGGGCGTGAAACAAGGAATCAGTCGGGAGCAAGACGTCTTCAGAAACGGGGGTGTGTGGGGGGCGTAATAAAAAAGCTTTCTCTTGTCTCTTTGTATTGGGTGACATGTTGGAGGTTTTTTTGTGCCTGAAAAAAGTTATAAAATTTGGATTAAAATCTTCAGGCC
-1.073944028909452 CTGCTCCCTCCACTTGACCCTCCCTGCCTGCACAGGGCCTGGCAGAGAGCGTCCCGGGGACTGCTGGCTCCCAGCGCTCTTACATGAGCCTGACATGGGCACATTTCTCTGGCTGCCCAGGATGACACAGTGGTCTGAAGGAGGGACCATGGGAGGTAGTGACAGTTGCAGGAGGACACTGGTGGCCTGGCCACAGTAAG
-0.7892067703179282 CCTTGTTCACCTCCAAGTACTGCCCTGAACTGTCTCCACCTTCAGCCCACACTCAGGGCAGTCCCAAAATGCAGAGGGGCCAACGTCCCCTGGGACAACCCTGGAACACGGAGGCCTGGAGTCGCCGCATCCAGGCCCGTGTGTGTTGGGGTGGGAGGTGATGCTGAGGCACATCCCAAGCAGCTCCTAGCGAGTCCCCA
-0.4125418914813652 CTGGGCCACCTATTTAGCCCGGGTTTAATTCCACATGAGCCTTCATCTCAGAACGGGCGTAAGAGGCAGAGGTCAAGCAGCTGCTGAAAGTGGAGTAACCCAATCTTGGGCACAAGTTGGCCTTTAATAAGCATCCAGGTAGCCCTTTGAAAAACGAAACCTGTGGTCAGGTCTCTGAGAGCAGAAGGATCGGGTTTCAG
-1.168799100460481 AGTATTCACCAGTTGCTCCTTGGCCAGGATGACTGTAGCTGATGTCTGCAGGACTGATGATGATAAGCTAAGATGACACCTCCTCCCTGGGGGCCACAGAGCCACGATCTATAGATCTGTGAGGCCACCAGGACCTCTAGGGTCAGTCGGCCCCGCAGAGGCTGATTTTATCTGAGGGCAGAGGAGCCAGGGAGAGTTAT
-0.5874155243337977 TTGGCCCTCAACTTCCCAGACCACTTGAGGACACTCATTTCCCCTGCCTCTAAGAACAGTCTTTGGCCTGCATGTCCATGTACCGCCCTGACTCTCGTCCTGTCTAACCACACTTCCTTAGTCTCTTTATCTGGCTCCTCTTCTTCCTCCCACTTCCCCAGCATAGATTTTCTCCCAGGTTCAGTTCTTCAGCCCCTTCA
-0.693918430170861 GTGAATCTAGCCAGACTTGTGTCCTTCCTTGAGGGTAAGAAGCTCCCCCTGGCCCAGTGTCTGTCCAGAGATGCTGTCTGGGAGCCTGGGCCTAAAGTCAGGAACCTTGAGATTCTACTGGTGCTCTATTCTACTGTGACTGAGCTGGCACCCATGCTACAAGACAAAGTCCTTCCCACTCTTCTCTTTCCTTTCCTCAG
-0.5664027227411631 CAGCATTCCTCATCCACCCAGATGTCCCCAGTCCATCTACGCACCCCTGGTCCACTTAGATACCCCTACCTACCCAGGCACCCCCTCTCCTCCACCCAGCTATCCCCAACCCAGATATCCCTAATCCATGCAGACACTAGTCTTTCAGACACCCCAACCACACTTATCAGTCCTGCCCTCACCTCAGCTGGTTCAACAAG
-0.7803504351217717 CCCCATGGACTGGCTCAAACCCGAAGGAGATCACTAGGCGCAGTGCTTGGCAGGTCCCAACGGCTGCCCACATGGGACGCCTCGAGCCCCCCGCGAGCCCCCCGCGAGCCCCCCCGCGAGCCCCCCGCGAGCCCCCCCGCGAGCCCCCCCGCGAGCCCCCCCGCGAGCCCCCCGCCAGCCCCCCGCCAGCCCCCCGCGAG
-0.5645371414122302 CAAGGGCACACCCCAGATTTGCATATAATCTGCATATGGATTTGCATGCTCACCTAGCCAGGCCAAAAGCTGTGCCCTCTGTGAGTAGCATCTTGACCTCAACCTCAGTAGCAGCCAGTCATTGGCTTCCTCCTTGCATGGAAGGGGGTGGGGAAGGAGCTGGGAGAAGGACTGCTGTTGGTAATGCTTCTGTCTCCTAC
-0.6852182936310951 GTGTGTGACCCAGGCCTTCGGACCGAGAAGGGAGAAAGGAAATACGTCCTTCCCTATCCTGAAGCGGAGGGCGTTCCAGGTTTCGCAGGTAGTGCTGCAGCCGCGCAAGGACCGGGCGAGGCTGCGCCCCTGAGCCCAAGTCTCCACTCACCGGCCTTCCCTTGCCCCCTCACCTGCACGCGGGTACTTTTAGCCCTGGG
-0.3593322924953206 ATCTGCTTCCCTGACTATTCCTGGATTACAGCTACATCTCACTGCCTCCCTTCTTCCCAATCCAAAGCCTCCTTTGCTCTTCCTCTCATATCCCCCCACCTTAACCCACAAGTATGGGACATCTCTACTCCTTCCCTGGCAACTGATCACATGCCCATTACCATCCCATTAAAACCTAATCACCCTTAACCCACTCAACG
-0.1217726583028617 GCACTGAGAGACAAAGGCAGATAGAGAAATGGACAAAAATGACTAGTGTTCTGTTATGGAAAAAATAAGAAACATGGACATTTCCAGGTTGCCCTAGCTCTGCTCTTCATAGCTGTTCGGGTCCTATTACTTTACCACCATAAGATATCACAAGAGGCCAGGCAGGATGTCCCACACCTGTAATCTCAGCACTTTGGGAG
-0.9100729949390824 AAGAGATGGAACACAGATTCGTGGTTGCTAGGGGTTAAGGATGGGGGAAGGAGACAGCCGGAGGGAGCCTGTGGTTGGATTGCCTCAGCTGCGGTGGGCACACACTGCGCGTGTGTCATGGGATGACCCCGGGGAGCTTGGTGGACCGTCGTGGTGGGAGAGCCTGGCTGTGATACTGTTCATAGTTTTGTGAGATGGAA
-0.4630005313929569 CTCACCTGGCCTGGTGTTGCCCATCCTCAAACTCCAGGTCCTGGACCTCCTGCTGCTCCCTGCAAGACTGTGCGAGGTGAGGAGGCCCAGGGGTCCCTGAAGCGGTTGGTGGTCAAGCCTGGGTCCCCTCACAGGCCTGTTCCAGGGAAGTCCCAGGGAATCTTTGGATGAGACAAGAGTGGGAGGAAAGACACACAGGG
-0.9182477673082794 CATGTCAGAGGGTGTGCGCGGAGCCCAGGCTCCCCTGCGAGGGGCGGAAGAACACAGAAGCAGGCATGCAGAGAATGAGGGAAAGAGGAGGGAGTGGGGAGGGAACGGGGAGGGAACGGGGCTTGTGTGTGTATCTCAGCTGTTGACACAAGATCTTGGGAAAAGGCCCAGTGAAAATCTAGTCTAGAGTGTAAGCTGGG
-1.025971496370629 CGCGCGGGGAGCTGCAGCCACCCCCACAGCGCTAGGGAGATTGGGGTGTGCGCCCCCGCCGCCCGGCCCCGCCCCGCCCCTGCCCTCCCCTCCCCTCCTCTCCTCTCCACTCCTCTCCCCTCCCCTCCCCTCCTCTCCTCTCCTCTCCTCTCTCCGCAGTTCCCCGCACCGCCTGGCCACGCCCCGCCGCCCGGCCACGC
-0.7126642186972723 CTGGTGGGCAGGGGGAGGACAAGAACTCAGGGAGGCCGGGCGGGACAAGGCGGGGCTCCAGGAACCCCACAGGGCTAGGAACAGATGCCGGTGCAACCCAGTTTTGAGGCTGGGAGCAAATGTCGAAGGGCTTCCTCCCCTCCAGCGCCACCTCTCAACTCCGCTTTAAAGAACCAATCTGGGCCGGGTGCAGTGGCTCA
-0.9074977462866904 CACAGAGAGAGGAGGGGTGGGCGGGCAGGCGAGGCAGCCAGGAGGGGCCAGGCATGGGGGATGGCGTCGTCCCCCCGCTGCTGGCCTGGCTCACCTGGAAGAAAAGGCCCGCAGGTAAGGGGCCCGAAGGTCAGGATGGGAAGAAGCAGTCCTGAGGCCAGCGTCCCCGCCCATTCTCTGTCACTGGAGCCACCCCAAAG
-0.7130984680583026 CACCAGGTACCCCCTCTCCCTGCATCCCCAGCAACTCTCCCTGGTGGGCCACAGCCAGTCTCAGATGGTGGCTTCGGCTTCAGAGAACAACGCCAAGAACCGCTACAGAAATGTGCTGCCCTGTGAGTCTCGGGTTCCTGCTGCTTTTGTCCCAGCCCTGATCTAGTCGGCACCCCACCCCAGTCCCCTTCTCCTACCCG
-0.7609261064299804 GTGTGTGTGGTGGGTGTGTAGAGGGTGTGTAAGGAGGTGTGCAGGTATGAGGTGGGTGTGTGGAGGATGTAAAAAGGTGCGTGGGTGTGTGGAGGGTAAGATGTGTGGGTGTTTGGTGGGTGTGCAGGGGGTGTGTGACGTGTGCGGGTGTTCGGTGGGTGTGCAGGGGTAAGGTGTGCGGGTGTTCGGTGGGTGTGCAA
-0.4832629849714046 GATGAGGTGCTGGTGTGTGGGTGGATGAGGTGCTGGTGTGTGGGTGGATGAGGTGCTGGTGTGTGGATGGATGAGGTGCTGGTGTGTGGATGAGGTGCTGGTGTGTGGATGGATGAGGTGCTGGTGTGTGGGTGGATGAGGTGCTGGTGTGTGGATGGATGAGGTGCTGGTGTGTGGATGGATGAGGTGCTGGTGTGTGG
-0.07501568389406113 GACCATCCTGGCTAACACAGTGAAACCCCATCAGTGGGTTTAGTCTCTACTAAAAATACAAAAAATTAGCCGAGTGTGGTGGCGGGTGCCTGCAGTCCCAGCTACTTGGGAGGCTGAGGCAGGAGAATGGCGTGAACCCGGGAGGCAGAGCTTGCAGTGAGCGGAGATCGTGCCACTGCACTCCAGCCTGGGTGACAGAG
-0.1368866219063012 GGTTCAAGTGATTCTCCTGCCTCAGGCTCCCGCATAGTTGGGTGTGACAGCCGGAAGTGGGGGCCTCGGATTACAGGCGTGTGCCACCACGCCCAACTAATTTTTGTATTTTTAGTAGAGACAGGGTTTCACCATGTTGGCTGGGGTGGTCTCATCATACTCCTGATCTCAAGTGATCCACCTGCTTCAGCCTCCCAAAG
-0.8267222703863623 CCCACACTTGGTGCCCTGGAGCACCTCCCGGCCTCTACGTGCTGCCCATTCCCCTGTGAGCACCCTCCTCTCGGCCTCTGGCCAACGCAGTCTCACCCATCTGTGGGTAACAAGGGGGTGTCGGTGTTCTTTGCAGCCTTGCTAAACTGTCTGAATCAAGGATCACAAACTACAGCCTGCAGGCCAAATCCAGCCCACAG
-0.8412203793910163 TAGTTACCCCCTTATGCAACCAAGACTGTAATAACCCTGTCACCTTTCACGGCCCTCCGGGTCTGCGCCCATCCTCTGAGTATTCACTTTTCCACCCCGAGGCCTGTTTTCCTCACCTGTTGTCGCTCTGGCAGAACCTAGGCCCCTCGGAGACCAGCCAGCATCTATCTGCCCGCTGTTCCCACCCACCACACTCCCTC
-0.7487972777541206 AGCCTCTGAGCCGGCAAGGCAGTGTGGGACCCCAGTAATGCCCATAAAATGCACAGATGCCTTCCCAGCAGGGATGCCAGAAGCACACATTCCATGGCCCTACAGAGGCCCCCAGAGGTGGACTCTCCAAAGGCAGATGCCAGCCTCCCGCCATGTTCTCAACACACTCATCATTCTCACCCTGAGCTTTGTACAGACTC
-0.7074838403479832 GTCTTTTATGGTTATTCTGGTGAGGCCACTCAAACAGAGAGACTTCCCTCGGCACGAGCCAGTGTGTGTGTTTCCAAAGTAGGTTTGGAGCAGCAGGTGACCTCGATGCCACATCCCAACAAGCAGCGTGGTCAGGTAGACCCAGAAGGTTGATTGTGGGGCAGGTGCTTTAGAGAACAGGTGAGGAGACGGCACCTGCA
-0.6114803969246282 TACTGAAGCTATATTTCTACTTGCAGACCTCTCACTTCTTTATATCCCAGCCCTAGTGACTCCTGCTTCAGGAAGCGCCTCCCCTCCCTTCTCAGTCCTCAAAAAACTTCAGAGGGAGGCTCCTGTGGCATGGGATCTTCCATGCTCCTTCTTGTCCCTCCATCCTGTTCACCATCTCGCTATCTGCCGGCCGGAAACAC
-0.3967153237049887 GATGACCCAATTCTGATCCCCTATTTCACCCAGCCAGTTGCCCCTGTAAAGCCAGCCTGAGATTTTTATTTCCAGAGCTCACATGATAACAAACCACTGAGTTGAGTTGCCAGATGTGGCAAATAAAAAATATAGGCTATCCAGTTAAATCTGAATTTTAGATAAACAATGACTAATTTTTTTAGAATAAATATGTCCCA
-0.8423371683171242 TGGGGGTGTGGAGGGGCTGTGGCAACAGCATGGCGTACGCCTCTGGGTGTCCTTTTGCAAGTAGGTGATGAGAGAGGCACATTGGCTGAGGGAAACTGGAGGATGGAAGGGGGTTGAGGCAGGGGAACTGACAGGAGAGGAAAGAGCCTTAAGTCAAACAGGACCGCGGAAAACCAAGCGTCCACAACGAGAACGAGGGG
-0.5674739909817433 GGCTCCTGCCACACTGACCTCCTCTGGGACTCCAAACAATGGGCTCCTGCCCCTGTCATCTTAACTCCTATTTTTCCTACCGCCTGGATGCTTTTCTCCTTGTCTTCCTGTCTCTGAGGTCCCAGCTCAGACACTGCTCACAAGAGAGTCTTTCTCGCCCTGTCTGATGGAGCACCCCTACCCAGTGCCCCAAAGTGTTG
-1.15222083203025 GGGGCCACGTATGTGTTCCGGCTTGCGGCCCGGAGCCGCGGCGGCCTGGGCGAGGAGGCAGCCGAGGTCCTGAGCATCCCGGAGGACACGCCCCGTGGCCACCCGCAGATTCTGGAGGCGGCCGGCAACGCCTCGGCCGGGACCGTCCTTCTCCGCTGGCTGCCACCCGTGCCCGCCGAGCGCAACGGGGCCATCGTCAA
-0.8526740808235247 AGGGGCTGGAGCAGAGCTGGGAGGAGCAGCCCTGGGGGCAAGTGAGGAAAACCGAGACCGCTGGTCCTCCCCACCCTGAGGACAGTGAAGTGCCTGCCTTTAGGGACACTGTGTCTCCTCATCAGCTCCATGCCTGTGGGAGAACACTGGTCTCTAAAATCCGTTTCAGTCTCACTTGACCCATCTTGGACTCCATGATA
-0.1756884570527109 TAGATTCATGACATTCCCAAACCAGAATTCATCGTTTGGCAAAGCTCCCACCCCCCCTTCTCCACCCCTCTCCTCCACCGCTTTCCCTCCCAAATCACCTGCTTCCCTCCATGGGCTCCAGGTTTTAGCTGGTGGCACCGCCCATCAGAAACACTGCTGTCCCATTGGATTCCTTTTCCTTCACCCTCCACATTAAATCA
-0.5342817508959481 ATTCAAATATAAAGTTACATAGCTGAGTAACAAACGCACTATATCAGAGTTGTGAAATGGAAATCAAAACCAAACTGAGCTGGACGTGGTGGCATGCACCTTGAGTCCCAGCTACTTAGGAGACTGAGGTGGGAGGACTGCTTGAGCCTAGGAGGTCGAGGCATCAGTGAGCTATGATCAAGCCACTGCACTAGGCTGGG
