svm_type c_svc
kernel_type gkmrbf
L 10
k 6
d 3
norc 0
gamma 2
nr_class 2
total_sv 1143
rho 0.49876
label 1 -1
nr_sv 367 776
SV
1.542373332140785 CCTGGCCCACGGCTGGCAGGTGGGACCCAGCTGCAGGGGTCCAGCAGCACCCACAGCAGCCACCTGTGGCAGGGAGGAGCTTGTGGTACAGTGGACAGGCCCTGCCCAGATGGCCCCCCGCCTGCCTGTGGAAGTTGACCAGACCATCTGTCACAGCAGGTAAGACTCTGCTTTCTGGGCAACCCAGCAGGTGACCCTGG
1.201074003999766 ACGGTCCCTGGTGAGTGGCCTCACTGTGAACTCACAGCCCTTCTGTCATCTCTTCCCTCCCAAGGGCTCTTCCAGGGCTGGATCTGACCCACACCCTCCCTGTTCTTGGCTGCATGTGGCCTACGGTGGCCTTCACAGCCCAGCAAGGGCCAGCCCAGGGGTTGGCAACTGCAGCCCGGGGGCCAGATCAGGCCCGACGC
1.420690649201448 TAACCCCGGGACACAGTCTGAGACTAGGCCCCATTTCTGGCCATATTTGCCACAACTCCCAGTCAGTCCACAGAGATCACACAAGCAGACTGGCCACAGAGGGTCCCTCCACAAGATGGCACCCCTCTCTCACTCTGGTTCTTTCAGAAAACCCAGCCACGCGTGCACAGCCAGAGGCACACAGAAGCATGGACAGAGAG
1.499234489064547 GCGCTGTCATGCTGGGACGGGAGTGATGCCTGCTCTGTCCTTCAGACCCCGGGACTGTGACGAGGCCCCTGCTGCTGCTCTCTACTCCTCCACCCGGCAGTTCCCTGAGCACCCTGGGCAGCCACACATTTCGCCAAAAGCAAAAGGACCAGCAGGCACTGCCTGAAGCCCTGTCACTGTGCTGCCACCAACTTCTGTGC
1.645386126694766 AGGGCTGGACATGCCCTGAGTCATAGCATGGGTGGTTCTAGAGAGGGCAGGGGTGGGATGGAGCGTGCAGGCCTCTCAGTGCCCTACCAGGGCCCTGAGGCTTGCGTGGATGGCACTCACACCTACCCATGGCAGTCCACATGTGGCCCAGGCTGGGCTGGGGGACAGCCTGGGGTGGCACGCAGTAGCCTGTCCTGCTG
1.263907786263614 ATGTCCTGATAATACGGGTGTGGCCAGCCCACAGTTCAAGCTGGCAAAGCTGCATCCAGCTCTGCCCTGCACTGCTGACCTCATGTGAGTCTGGCCCCTGCACCGCATGTATCTCAGGCCAGGGGCCCAGCCCTGCTGCCAGGACATGCTCCCTGAAGGGCTGCTGAGCTGATGGATTGGAGATGGGGCTGGCTGGCCTG
0.9380151954486721 GCCCCCGGACGGCCCTGACTTGGCCGCTGCCCGCTCCGCTGCGGACGGCGCGAGCGAGTGCCAGAGGCCGGCAGGCAGGGGGCGGGCCCAGCCCGCGTCACCCGGCAGCAACCAAGCAGGGTGAGTGTGCGGGCTGCGCGGGCGGCGCGGAGCGGAGGGAGCCGCGCGGCGCCACACTCACTCGCACTCGCACTCACACC
1.86763272567152 TCTCACACCTGGGGCTTCACTGACAGCGGCGGGCACAGTGCCTTCCTTTCTCTTTCCCTAGACACCAGCTCTGACCCTCCAATTTCCACCATGATCACAGTGTTCTCAGAGTCAGGCAGCATATGAGGAAAATTGCCCTTTCCCTGGAATAATTTACCATCTTGTAATTTCCATTACCTGACCCTGTTGGAGCCTATTCC
1.253884892344848 CAGACCAGGCTGAGGCACAGAGACCAGGGCTCAAGAGCTGCTCTGCCCAGGATTCCTGTGGCTGCTGTGAACTGAGTGCTCCTGGCCGAGGACCCACAGCTTCTGGGAAGTGTAGGTTGGGGCTCCTGATCTGCTGGCCCCTCCCTAGGGATGCAGAGCACACAGGCCCTGGGCCTGGAGTGTTTCCATCCATCCACACA
1.564683303304286 ACTGTGGGGTGAGGAGAGGCACACTCTGCTTTGCTTTCTGCACAAGACAGCCCCGGGGTGGGGCCGGGCGCTGCGGGTCAGAGCCCTGACCGTTTGCAGAGGAAAGGAAAGGGACAGGAAACTGGAGCATCAAGGCCCTGCTTTGCAGGGGACACCAGGACTTAGCCATGGCAGGGGCTCTGCCAATGCTCTTCACACAT
1.436452952725667 CCTCCTACGTATTCTGTAAACAGGTGAACCTTTCTGTGTTTGTACATACTAGTGTATGCACACGTGTGTGTGCGTCTGTGTGCCGTCCATCTCCCCTGGCGAGGGCCCCTTCTGCCTAGTACCTCCAACAGCTGGACCCTCCAGCTGGTCACCTTATGTAGGAGGCTTCTCTCCCCCATGGGCGGAGTGCAGGGCAGGGT
1.239222917564846 GGGTGCAGAAAGGCACTGAGCTGGGGAGGCAGACGGCTCCCAACACTGGTTTGTTGAGTCATGGCCAACAGGGTGTCTGGTGAGGGCACAAGGACCGGTCAGGGAGGAGCCGGGCAGGGTCTGGCAGGAATCCTCCACAGGGAAGTCTGTTCCAGGCACCAGACACCTCAGCCCAGGCAGCTGGAGGGGCCTGCTGGAGC
1.778581669153488 CCAGCACCGCTCTGCTCTGCTGTGTGATGGCAGGAAAGTCACCTGCCCCTCTGGGCTTCAGGCCCTCCTCCTAACCCAGGTGATCAACATGGCGACCTCAGGATGCCGGAAGGAGCAAATGGGCACGGAAAGAGAACACCCTCCTTTAAGCCAATCTTTCCCCAGGTTGTTTCTTAAGCCCAGGAACCCTCTCTGCACTG
1.47178957053746 GGTGCATGCGTGTACCCATGAATCCTCTGGCCAGGGAGGGGCCCAACCTGCCCAGGGCTTCTTTCTTGAAGGAGACAGGGCTGATCCTGCACCTGCGCAGTTTTCTCTGGCTTCAGTTTAAGGAGAACCCTCACCCCCGCCACAGGATGATCCTGGGCCAACCAGGGCTGGGCCCAGCAGGTGCAGGGCAGGGTGGGAGC
1.906397717646262 ACCATTATCATTCTGGGTCCCTCTCTCTGTTCCTTGCAGGCAGGGATGGGGTCTGGCTCACCTTGTTCCCCCGCACAGTGCTTGGTAAACAACATGCAGAATTGAAAACGTCACCGACCAGTCTCCAGTTTGGGAGGAGTGAGTGAGAGAGGACACGGCCGCGGGGGCAGGAGAGGGGAGAAGGCAGCAGTTGGGTACTC
1.243602855354933 AGGGTTTTGGTACACGGAGCGGGGGGAAGAGTCTTTCCTTCTGGAAACGCTTTCTTGACTGCCTCAAAGGACATGGGCGGCAGCTGTCCTGTGGAGAGGCCTGGCCTGGGATGGTCCAGGGGACAGGCGTCATGCTGGCCGTGTGGCCTCACAGCACTGCGCTGGGGATGTGGGGGCCCTGCTTCCAGGCTCTGCTCAGC
1.571346051859601 TGATCATGGCAGCCACTAGGGGCAGGGTCAAGGGGTCAGGGTTAGGAGTACAGTCACACAGACGTGACCTGGTCATGCCCCTGCCTCCCACTGGCCAGGTGCAAAGGTCAGGGAGTGAAGTGAGCTGGACATGAGGGCCCTTCCCTTCTGAGAGAAGCATGCCCATTTTTCTTGCAACAGGCACCCCTATTGGTCTGTCT
1.504717859886481 AGGAGGGACAATGACCCAGGCCTCAGAGGAGAAGGGAAAAGGAATTTGCCTCCCAGCCGGAGCTGCCTGTGTCCCAGCCTGGGAGCTTTTTGGTTCCTCTCTAAGGGCATGGACGTGAGGAGGAAATGGGTATTTACACCCTGTGAGCAGGGCTTTTGATGGTGCTGGGCAAAGTGGAGAGGCCTCCCCAAATCTGGCCA
1.169041278624389 CCACTCAGTTCCAGGCTGGGCAGCCACAGTGCCCCTCAGGCCAGTGTCCCAGCCAGGCCTGCACCCCCTCCTCCTGAGGGACTCCCCGCCTGCACGGTCTCCACTGCATTGCATCCCACGGTCCCCACCAATGTCTGTCCGTGGCAGCGATGTCGGGGGTGAACTCATAGGCAGCAGAGGTGTACGCAGCATCCGGTAGG
1.269525883194303 CTTGGGGAGCCCTTTGTAGAACCAGGCCCCCGACCTCTTCCAGACCTGAGTGGGGGAAGAGAGCTGCTTGGGGCACAGGACGCAGAGGAGCCTCCCCTCCTGCTCCTTGCCCAGATGACGGGAGGCAGGACGCGGAGAGCTAGGAGCAGAGTGGGAGTGGGAACTCTGGCTCTGCCCTCCCTGGCTGATGGGCTGGGCTG
1.297528455892387 GCAGAGGGCTGCACGGGACAGACTCTCCCAGCCACAAGTACCTGCAGGCACCTCACCCAGCCCCCAAGCTCTCCTCCCTGCCAGCTGACCTCCCGGGCACCTTCTCTTGCTGGCCCAAGGCAGAGAGCTGCATGGGATGGACTCTCCCAGCCACGTGTACCTGCAGACACCTCCTCCTGCCCCCAGCTCTCCTTGGTGCC
1.737850612950038 CTGTGGACCCTGATCGGGGAAGGTTCCCAGGGAACCACGGTGGGCTTGGGGAGAGGCATCCATCAGGGCATGAGGCCACCAGAGTGAGGGGCGTGGGGCGAACAATGGAGCTACCCTGCCATCCCTAGGACAGGCCTTGGGGGCTGAGAGTGCTCCCCCACCTCACGCCCAGCCAGTCAAGGCCCTGTTTAACGGGGAGT
1.724185276971208 AGGCCTGTTACAATGGTGATTGGCTGCGAAGCCGCCTCTGTTCCCAGACGGAGTGGGCTGCATGCAGGAAATGAATAGGGGCTGGAGGCGGAAAATTGGACAGGCCAATTAGACCGAGCCAGGTCTTTTCAGACGAGCGTCATGATTTTGATTCAATTCCCAGGACAACAAATGTGCCTGTGTTTAAACACAGTCTCAGA
1.732118682847483 TCTCCAGTGCACAGACGTGGGCTCAGGTAGACGCCCCAGGCAAGGGGCAGGGGAAGATGGGATGGCTCAGTCCATCTGCAGGGGTGCAGTGCAGGAGTCCCCATGAGGCAGACTGCCCTGGGGGCTGGTGAGCACCAGGAGCCCCCTCCTCCTGCCACCACCCATGTGTGGGAGGCCAGGAGGCTGCACTGATAGCGGGT
1.671102837570848 ACCAGTAGCCTGTCTCCCTGGAACCCTAGGCCACCATCCCTCACAGAGACTGGTGACTCTCCCCTTCCCCAAGAGAGCAGCCTCTCTCCACCTCTTCCACCCTTCGCTCCTAATGTTCCCACCTCTACAACAGGGTCCCCCATCAGCCTATGAGGTGGGCTCCAGAACCACAACGTGGGCCTCTCCTCTCTGGGTAAAGG
1.616601824159167 CGGGCCAGAGTATGAAGGAGGCAGGTGTTATGATCCCCACTATATAGATGAAGGAACAAAGGCTCAGAGATGACTCGGGCTGCCCGAGGTCACACAGCTCGTTCACGGTAAAGCAGAATTTTTGTTCAGACCTCAGGAGGGTCGGTCACACCCTCCCCTGCCCTGGTGCCAGGCTGGTGCGCACGGCTCTCTAGAGAGCT
1.276578393743775 AGGGAGAGAAGCCAGGAGAGTGTCCACGGAACTGAGTCCTGTCCTCTACTCACAGACCACGAGGACGCGGAGCCAACGGATCTGGGGACAGGAGCAGCGTGGACCAGTCGCCCTCCAGAGGTTGGGTGAAGGGCTGTCCCTGCTGGGCCCACGAACCTCTGCCTTCCCCTTAGGGTCTGGTGCTTCCTGCTCCCCAGATC
1.506756462102559 CATCGAGAGGGAGTCATCCCTCTGAGCGTCAGTGTCTCCATCTGGAAAACGAGTATGAACACTGCCTTGCCTTTTGCCTGCCCATCTCCTGGGGGCCATGAGGGACACATGACATCATGGAAATGTCAGGCACAGCGGCTCTCAGAAGCACCCCCACCCTGACTTCCTCCCGCTCAGAGGGCACAGACTCACTACGGCCT
1.778816012303495 TGACCTGTAGTCTCTGTGACTCCACCTCCATTGACCTGTAGTCTCTGTGCTCCACCTCCACTGACCTGTAGTCTCTGTGCTCCACCTCCATTGACCTGTAGTCTCTGTGACCCCACCTCCATTGACCTGTAGTCCCTGTACTCCACGTCCATTGACCTGTAGTCTCTGTGCTCCACCTCCATTGACCTGTAGTCCCTGTG
1.528224684029124 ACCTTGCGAGGCAGGCCTGGACCCTCAGTCACCCCCCAAGGCAGGCCCAGACCCTTACAGTCACCCGGTGAGGTGGGCCCAGACCCTCAGTCACCCCGAGAGGCAGGCCTGGACCCTCACAGTCATCCCACAAGGCAGGCCTAGACCCTCAGTCACCCTGCAAGGCAGGCCCAGACCCTCAGAGTCGCCCTGTAAGGCCC
1.171304290127459 CAGCCAGCAGGCAGGCTGCTGGCTGCTCCCACGTGGGAGGTGGGAACTGAGCCCTCCCCAGCCCAGTCCACAGGACAGAGAGGAGGAGGCCGCGAGAACTGCTTCCTACATGTCCCCACCCCTCTCACTGCTGTAGCTTCAGGGCAGAAGAGCCACAGAGCCAAATGCTGCAGAGATGAAGGGAGACGGAAAGAGCCAAA
1.103964994245979 ACAGCCCAGACATGCTCAGAGCAGACAGCTGGACTCTAACCAGGCTCTGCGACTTGCTGACTCACAGGCCGTTTGTCCCTCAAGATTCCCCACGGGGTAGTCGGCCTCAAGGCAGCTCCACCTGACGGCTGAGCTCGCTCCTTGCTGAGGGGCTGGTGCCCCCAGGAGCCTCCTCTGGGAAGCTGAGACCTCCTGGTGCC
1.36955802769582 AACAGCATTTGTGGGCTCAGAAGCTGGTAAAGCCAGCACTGGCTTGAGAGCCCTGAGTGACCAGTGGCTGGGGCCGGTCACATGACACCCCTCCAGCCGACTGTTCCCCGCCCCGACTACAGGGTCCCGTAAACGGGCCTTGGGAGCTCATCCCCGTACAGGCTAGGAAGCAGTGCGCATAGTCATCACTCCAGGAGAAC
1.470866167342966 ACCCTCTGACCGCAGGCCCTGATGATGGATGAAATCTTGGCCTGGGCTGTCAGCCAAGGCCATCTGGGCCAAACCATAGGGCAGGAAACAGCAGGCTTCCTCCTCCTGTCTGAACTCTGGCCCAGAGAGGAGCTTCCTTCAGCTGGCCGCACCCACTTCCCCGACAACATTCCAGAACATTCCATGATAGGCCAGGAGAC
1.254047977404053 AGACAGGCCCCACCAGGGAGGAGGAGGCCGCTCTCCCTCCCACCACCGTTGTCGGGGGTGACCCGAGGTGTTCCAGATGAGGAGCTGAATCACTGGGACTTAAGTCAATAAGTGGCAGCCACCAGGCAGGCCCAGCTGGAGCCAAACCAAGGCCTGGATTCTCCTCGTGGATGTCTGGTAAGGCCCCACCACGTACCCCA
1.603871798920466 CCCGAGGGCGGTATGTGCATCCTCAGCACCTGCCCATCCGGCACCATCCTCTGATCCAGGGACTGTGAGCAACAGGGCCCCGTGGCCAGGACATCTCTCACCCTCCAGTTAAAATCTCGCCAGTTGAGTCTGCCCATGAAAGTAGGCGCTGAACTGCCCAATAAATCCACAAGTAAGAGTTGCAAGAAGGAGCCAAAAAG
1.859304484466705 CCGGGCCACACTTGGGCCTGCCCAGTTCCCCTAGCTCTTCTCTTTCCTGCCTTGCCTGCCTAAGGCCCCTCTCCCCCTGCACTCCACTCGTATCTGCTTCTCCGCCTCCTGCCCAGTCAGCCTGCTGTGCAGAGCTCCCGCAGCTGCCTCAGATCCACCCTTCCTGGGTGGCTGCTCCTCCCCGCCACCGCCCTAGGAGC
1.463648535387413 CCATTCTGTTGCCCGAAGCTGCTCAACGCCTGGCACACTATGAACTCTCAATAAATATTTACTGAGCGAACGACTGACACTCATCCTAGAGTAGGCTACATGACTGGTCTCAGCTTCTCACTCCCTGCAGTGGTGTAAACAGCCACACCATGCCAGGGCCTACAAGTAGGCAGTGTACATCCCTGCCCTGTGTTGAGGTT
1.872650644755242 GTGTACTAAGCGCGGAGTACCATGCCAGGCACACAGTAGGCGCTTTGCTGAGTTAGGCTTTGTCCTTCTCCACCTTCCCCCTCACCAATTCCACCACTGGGCCTGAGTTCATCTGCACAGATGAAAATCTGCAGTTCTTCCTCCGTTGTGGGGCTGGACTGGCGGGGGCAGGGGGAGGCACCCTCACCTGTCCCAGGAGC
1.807084549371759 CTGATGGAAACTGCAACAGTCTAAGGCCTTCAAGTCCCATCACCTTCCACTATGGAAGTAGTGGCTCCAAAATCCTTTCTCCCCTTGCTTCACTCTGCCAAGTTTCAGATCCCGGAGTGGACAGCCCAGCAAAGTAGCCTGGCGTGGGCCCAGGTCCCATCCCTTGAGCTGGGTGATGACTACATGGGGTGTGTCCACCT
1.492275795641849 AAATGCATTAGTCAGTTCAGGCTGCCATGAAATATGCAGACAGGGCGGCTTACACAGCTGGCATTTCTTCTCACAGTCCTGGAGGCTGGGGAGTCCAAGATCAAGGTGCCAGCTGGCTCCGATTATGGCGAGGCCTCTCCTCCTGGCTTGTGGACATGGTGAGGGCCCAGGGGAAGGGAGAGACAGAGACAGAGAGAGTG
1.630508641046828 GCTCTTACACGAGGTGCTAACGACGTAATTGCGGTCTTACATAAGGTGCTCTGGTATTTTCAGCAGCAGATAACTGCCATGTGAATGGAGAAGCCGCCCTCCCAATGAATGCTGCTTACTGTACAGGCTGGCACAGGCCTTGAAATGCCAGTGCTTTGCAGGCAGCCAGCTGCTGTCAGAGGGGTGAGGATGTCTGTGCC
0.8287323588874391 CCTCGGACTGGGCCCCGGACCCGGGGCGGCCCCGCTTCCCCCCCGGACTCACCCGGGGTTCGGCCCCGCAGCCCGCGCGCTCCCTCGCTGCCCTCTGGCGGCAAAACCGTGAAACCGGCGCCCGCCCCGCCCCGCCCCGCTGGGACCTGTGGCCGCAGAGCCCGGGCCGGAGGGCACCTGCTGGGCGGCCTCTGGATGGT
1.332965529037147 CGCACACTTCTATGCGCGGAGGTCTCCGCAGACAGAAGCACGCATGCGCACATCGCTGTGCCGGTATCGCCAACAGATGGAAGCACGCATGCGCGCACCGCTGCGTACCTAGCACTCCGACAGATGTACGCATGCGCACAACGCTCTGTTCTCGAGATCCCCGACAGAAGCACACATGCGCACACCGCTGTGTGCCAAGG
1.885551341828996 GGGCCCTGAAGGCCGGTGCTTAACGTATAATGATAGAAAGCAGGTGGGGTGAAGGTTCCTGGAACACACAAGTAGCTTCAACTCAGAACACCTTGGGTTCGAAGTTTGCATATCTTCCTCACACCCAGGCTGTAGCAGTGAGGACTCCTTCAGGGCAAGAAACAAACCACAGTGAAAACCACCTTACAGACCAAGGGGAA
1.563753290795526 ACAGGAAGAGGGCAGGACCCCCACACCGCTGCTGCGTACTGTTTCGGAACAGCTTGTCTTCCGTAAGCCCTGCCAGACAGTGGATTAAACACACCCCAGGCCCCGCATGCTGGCTGGTGCCCCGTGCCCGACACCGGCCCTCTCCCAGCCCCCAGGTCTTGGGCTGTTCTGTGGCTCATGATGTGTGGATTTGCCTGCTG
1.453200370461598 CAACATTACAGACAGGCTCCACTGCAACTGGGCAGGTCAGGACTGGGCTCAGTCGGCCACATTCTGCTCCCACGCGTTGCTTCCTTAGACTGTCAGGGAAGGGAGAAGGGCAGCCACCAGGAGCGGCCAGGGTCACGGACTTGCTACTTCTTTCCTAGAGTCTGTTCTGTTTTCTGTCAGCAGTAAGGAAATACATTCTA
1.882468388507841 ATGAGATTTGTCTCATTATCTCCTTGATTGAAGGGAGGAGGATCAGCTCAGTGGATGAGGGAAGTTGCTTGTGGTTCAACTGCAGTTTCAACCAGGCTGTGGATTTTGATGTCTCAACAGGAAAGGCTGCTATTGCTTAAGACAGCAAACGAGGTAAAAGGAAACATCTATGGTTTTGCAGGGGTGGGGTAGAAAGGAAG
1.648945044105156 ATGGAATAACTGGCTGTGACTCATCATCACCAAAGGCTGGGTCCTAGCACAGACAAGCTTGTTACTGCTTTTCTCATATGGGTTGGAGTGCTACTGACCTACTTTTAACAGGTCATGCCCTTTGAGGAGCTTACACAACTCCAGGGAGGTGACCAGTCATACTTTCTTGCCCAGTCTTCTTTTAACAAGGCCTTTCTGTA
1.639952514487551 ACTGCAGTAGTGAGCAGGGTGTGACCCTTACCTTGAGGGCCACATGGCTACTGACTGCAGCCATGAAATGGGTTAGGTCACCCACAGAGCCGGCAGAGACCTTCCCTCCAACCACCTCTGGCTGATTTCACCACTAACACCTGGTGGGGTCCCTCCCCCACCCCAAGAGGTCTGCTTTTGTTGTGCACCCCACTCTGGGA
1.659315088420302 AAGGAGATACTACTCTACACCCATGAGAATGGCTATAATTAGGGGAACAAAGGAGACACGCGTCAGCAAGGATATGGGGAAACTGGACCCTCCTACATTGTGGGTAGAAATGTAAAACCGTGTGGCTGCTTCGAAAACAGTTTGCAGTTCCTCAAAAAGTTAAGCCTAGGGTTACCATGTGACCCAGCAATTCCACTCAG
1.239642606041464 TGCATCCCACTGAAGTCAGGAGTGATGGGTCAGGAGGAGCTGAGCTGTGGCAGGTCTTGTCTTCCGGGCGAGCTGGCCACACTCTCAAGCTCATCCTCACTGTTTCACTGCCAGTCACCAAGGACTGGAGAGGTTTGGAATGATACAGTGAAGGCGGCAGTGGGGGTAGGGTGGGGATGACGTACAGCCTAGGGAGGGGC
1.59664342771311 GAGGCTCAGGCCCCCCCTGTTCCTACCCTCTTCTTGGAAGCACACACACAGCACCAGTTCCCTCCTAAGCCACAGGGAACTTATAGTAGGAACTTTTCATGGTTAGAAGAGGAAGGAGTTCTCCTCACAGGGGAAGTCCAGCCGCTAGCCAGGGCACCCACAGTCACATTCTCAGGACTACTGGCCATCTCAATGACACT
1.637878945868439 ACGCTCATTCTTGGAACCAGCCACCTTACCGTGAGGAAGTCCAAGCAGCCCGTGGAAGACAACAAAGAATCCCAGCAACGGCCTGGCCAAGCTCCCAGCTGACAGCAAGCACCAAGGAGCCAGCCATGAGAGTGAGCCAATGCATTCTCCAGTCCCCTCCTGAGCTGCCTCGGCTAATGCTGCACGGAGCAGGGATGAGC
1.109852461776979 CAGCGACCTGGTGAGCCCGGCTCCGTCAGCCGCTCTGTCAGCCGCTCCGGCACTTCCGGCAGGCCAGGGCACTTCCGGGACCGGGGAACTGTGGGATCACGGCGGACTGAGACTGGCGGCGTTCCTGTCACGTCAGGTGTCTCCCGGGCAACGCAGTATCCCGGCGGCCCCGCGTGGCCTCAGCGCGTCCTTAGGATGGG
1.037142363480773 GCCCCCGCCCACCCGCCCGCCGGGGACGCCGGGGAACCCTCCGGGCCCAGGGACCGCGAGAGACCCCGCCCCGCCCTATCGCAGCCGCCGGGCCTGGTCACGCGCAGAGCCGCGCCGCGGGATCGGGGCCAGCGCCGGGCGGAGGCGGGACGGGGACGGGGGCGGAGGGTTGAAATCGCGCGGCCGGGCCGGGGCGCGCC
1.654731999611694 GCCTATTGAGCGTCCTTTGCCCGTCACAGTTACCCTTTTCAGTAGCCCTCGTTGGAATTTTCCTTCTGGTGGTTTCTTAACCTCCACTTACTTCCCCTTTTCGTTTCGTCATCCGCAGAGGCTCCGGGGAGACCTTGGGGACTTCTTTGTCGGCTGCATCTTCACGGCAGAACTGAGCACTCCGTTTGTGTCGCTGGGCA
0.9353982133945631 CGGCACGATGGGAGACGCAGGAGCCACGGCGGCCGCGCTTAGGCCTGCTCACAACCTCCGCCCGGCCCCGCCCACAGCCTCCGCCGCGCACGCGCAGTCCTCACGAACGAGCGCGCCAAGCGCACAGCGCCGCCTTCCGGCAGAGCCCTCCCACCAGCCCTCAGGTACCCGGACGTCGCTCACTAGACCCCTCCGCACCG
1.789054455187339 CCGTCTATACACTAAACCGCGCTCTTGCACCTTTCAAGTCTTCCTTAGTGGTGTGTTCCCTACCTCCCTGGCTTATCAAAGGAGGTCCCCAAAACCCAGTTCCCCAACCAACTGAATCCTGCAAATAACAGCTCCTCAGGACCCGAGACAGACCGCTTCTGGGTGCTGTTGAAAAGCAGATGGGTTGAGAGTTGGAGCAT
1.198287215221413 GCGGTTTCCCACTTTGAATACGAAGTGCAGAGCTCTGCGAGCAGCCATGATTCCCGCCGCACGCAGCCGTCACGCGCACCGTACAGCCCAGTCCACGAAGGGCGCCACGGGCCGTGACGTCACTAGCCGCCGACGGCGCGCTTTCGTGACGCAGCCCGGGTCTCAGGGAACATGGCGGCGCTGGTGAGACCCGCGAGGTT
1.309238700863349 AACAAGCTGTGCGGGGGAGGGTGGGAGGCCATGCAGTCACTGCGAGGCCCCACCCTCGGCCACTCTCCCAGCCCGCCCGTGGTGAGGAGCCGCCCCTGGGAAAGGCCAGGCGTCGCAGGCTGCTGCCGGGGTTGCCTCTTGCCTCATTGCCTCATCTCTAGAGTGTTCCCTGCTCCGGTGCAGACTGAACGTTGAAGCCC
1.679010340984463 GTTCTGTCACCATTTCCCCAGTAAACAGGAATAAAAAACGAGCCACATTTGACAAGGAAAACACTGCTTGGCCGAGAGACAAACATTGTCAGGATGTTGGCCACGCTCCCGCGCCTTTGTGTGGTGGCGTAGCTGTCACAGTGGCGTCTGCCAGGAGGTGGCAGGCGACACCTCCAAAACCACCCCAGTGCTGAAGGGCG
1.554384517040931 CCTCCCCTCAGCTGGTCCTGACGAGCTTGGCCTACAGCCATGACGAGTGCACATCCCTCCAAAGGTGAACCAGGGGCGGGAAACGGAACTGGCTTCTGCGGCCGTCTGCCCTGTGCTAGGCACGGCACAGATGGCACTGGCTAATCCTTATCACAGATGGGGCGGGCAGCATCAGGATCCCCCTAACAGATGGTCAAGGT
1.445391794996108 AGCCCTTACACACCCTGGGTTACATCAAAGGCCAGAACGAAAGGCCAGCACGGCTTAAGAGGGCCGTCCAGAACTGGCTGCTGACACCAACCCAAGAGTGATCCAGCTTCTGACTCACCAGGCACCAGCTCATGCTCTCTGATCCAGGAGCCCCGACAAGCGACCTGAGGTTCCAGGGGGGCTGCCTGACACATCTCTGC
1.507330363635024 AAACACCCTGTTCACAGAGGCCTCTCTTCCTCCCACCCCTGCCCCCCGCCCAGAACTCCCAGCAGAAGCTGCTCACTGGCTGTTGTCAAAGTAGTCTTTGTTCTTGGAGTTGAACCAGCACAGGCCTCAAATTTCCATCCACAGCTCCAAACCCCGCCTACATCACCTCCATGACCTCAGGCTAAGGAAAGAAAGAAGCT
1.658764164685175 CTTCAGTGGTCACGGTCCCATCATATACAGAAGCCACGGGGCAGGACTTCAGGGGTCATGGTGCCACATTTTGTACAGAAGTGGGAGGCAGCAAAGCCGCAAGATCTAAAGACAGAGTTGCAGGCCCAGGTGCGGTGCTTACGCCTGTAATCCCAATCAGCGTGGGAGGCCCAGGCAGGCGGATGACCTGAGGTCAGGAG
1.654590379397491 GGTTCTCTAACATCCAAGCTGGACTAAAGGGTTTTGCTCTTACCGAGCCAGAGGGAATATTTATTCCAAGAGACGTAAGATAGATTCTGCTGGACACCTGCCACTTGCTCATGATTCTTCCCTGGGAGGCTGGCAGCGCACGGAGAGGCTTCGCTCCACGGGAACCAACACCGTTGGCCGGCGCGGTGGCTCACGCCAGG
1.584458025274985 TCACACACGCGTGAGCTTTGACAGCCAGGGACTGGTAACCCACGGCCACCGCGCCCAAGAAAATTATTTCCCATGGGAGAAAGAAAACTACGTTCAGCTCCTGGCAGGTCCCAGGCAAGTCCGAGCCAGGCTTGCAGGGAGGCGAATGCTCTGTCCTGGGAAAGGGAGGCAGAGGTTAAGGGCTGTTCCCACCCTCCAGT
1.806291505788782 CTCCTTTCCTCTCCGCAGTTTATTCCGGGGAAGAACTCTGGCCTGGGAAACAGCAGACCTGGTCCAACTCCCGGCTCTGCCAGATCCCAAGTGACTCAAATGCTTCAGCTGCCCTGACCTCTGCTTCCTCGTTACTAAAATGAAAAGCACGGGATCTACCTCCAACAACAGTCATGGGATTCAAGGACACCAGGACACCT
1.362188743007023 AGCAGCCCCACACTGTCGTCTGTGGAAACCACACCAGCTCCTCCTCTTCCTTCTGGACCTGCTGTCCCACCCTACGCCCATTTTTTATCTCCACCCACTCTTTGAACTTAGCACTGGTGTCTACAGGCTCGATTCCCAGCTCTCCCACAAGGACGTGGCTCAGACGCACGTCACCATCTCAACCCAATGTAGGCCACCCG
1.632907838106508 GCCAGGTGCTCAGGTCGCAGCTGTCCCTCAACACCACTCGGGAAGGGGGCTAACTGCCCGGACGGGCCCCAGGATCACGAGCCTCCTCTCCTTCCCTGATGGCCCAACAGGAAAAAGTACTGTGGCTGCCAAGCCATCTGGATGGAATGGAATGGCTCTCTACCAGTTAGGGGCCGCATCGGCCTAGACTCCCAGATTGA
1.214763004902696 AGGCGCTGGGGAGAGCAGAGCCCGGCCCAGTAGGGCCGCCCACGCCACGCCCCCTCCGCCTGCCCGCGCCACGCCCCTTCCCCCGCCCTGCCACGCCCCCTCCGCGGCCCGCGCCACGCCCCTTCGGCTGCCCTCGCCACGCCCCTCCGCCCGCCCTCGCCACGCCCCCTCCGCCCTCGCCACGCCCCGTTTGCGGCCGG
1.567799322604827 GCCTCCCCCCAACCCAACCCACTGGTGCACGAAGCAGGTGCAGATCCGGGCCCAGCCACAGTAACAGGCCGCCGGTGTGGATCAGCTACTGACGACTCAGCGAAAGCAAAAAAATAAAAGCTGAAAACCCGCCCCTCTCAGAGCTTCCACCGCCGCTTCGGAGGATATTTCCTGTGCATCCATCGCCACCTAATGGAAAG
1.265542582913018 CAATGCTCGCGCGTCCCCTCCCGGCGATCCGGAGCACGGCAGCCCCGGAGCGCGCGGCCACTCCTCGCTCCCCTCAGGAGCTCGTAAGAGCCCCGCGCGGGGCCGAGGCGCGAGAGCACGCGCAACGCTTCCTGGGAAATGTAGTTGGGTGTCGGATTAGAACTACAAATCCCGGTACTCACCGCGCTGCAGCCCCGACC
1.784922949136167 CCTAGTTGTGTGCCATGGATATTAAAAAAAAAAAAAAAAAAATCCGTCTACAGTTGGGCTTCAGCACTGGTGCTGCTTTACCCTGGTGCTCTGTGGGGGGATGACACTGCTGGAGTCAGGCCTTTGCTCTTGGGTGGGGCACAGGCAGGTCGCTTGGTGGGGGCCACACAGTGCTGGGCACCTTCAGCCAGTGGTGATGA
1.664739403899021 TGTCCACGCTGCCTATTCACTCGAGAGATGAATAGTTTCCTGTTTTCGATGGCTGGGGAGCCAGTATGAGCTCATAAACCAAACAGCAATTTTCAGAGACATCTGTTCCTGATCTTCAGAATAAACTCAGTGTCCAGTTGCTTCGGCTGGTGGGAGCCAATATTCACGCCACTGACTCTCTCAAAGGGAGGGTGGGCCCT
1.250944980632077 GAGACCCACCCACCCTAAGCAGCGCCTCTCACCCTCAATACCATCATTCCCACCCTCCAGGCAGGAGCTGTGGCTGCGCCTGCTTTGGAAACAGGCAAACAAACACTGTGATGCCAACAGGCAGCTGTGCAGCGGGGCCAGCCCCTCACCACACGCGCGCACACGGTCCAGCCAGGGGCCCAGATGTGGGAACAGACTGT
1.448255319968438 GTGACTGCTCCGAGCGACTCCGAGAGAGGCAGGGCAGAGAGGGAGGGGCTGCCAGGACCTACCCCTGGCTTCCAGCTCAGCAGCTGGGTTGGGGACACCGGGCCAGGCTCCATAAACTCTCCACACATCTTCCCATGGCTTGGCATCCACACTGCTAGGCCAGGCAGGCTCCGCCTCTCCAGCCCTCACCCTGCAGGGTC
1.039421050977937 CCACGGACTGGCCAAGGCCTCCCTTGTTGCTCTCTTGATGGATGGGCCCAGCCCTGGCCAGCCGGACTGGCACTCTGAGACAGCTAACTCGGACAGTTGATTTGATCTGCAGAGTTATCGAGCACTTCCTGTGCGCTGGGCGCTGGGTCTGGCTCTTCCTCACGTGCCTGATGCCAGGGCCCCAAGCCAGCCCCGAGGCA
1.220855842357121 TGCCAGTCCCGCTAGTTCCCTAGTCCCGCCGGCTTTCCCCGCGCTCGCCTCCCTCCCTCCCTCCCTCCCCGCGCTCCCCTCCCTCCCTCCCTCCGTCCGCGTCCCTCCTCCCTCCTCCCTCCTCCGCATCCCTCCTTCCCCGCCCTCCGCGAGGCTGCAGCCCAGGCTGAGCGCCGCCTCCCAGGCCCAGGGCCGCCCCT
1.071473265441124 GGTGGGCAGGGCCAGAGCAGGACAATGGCTGCAGTCACGGGGCCCTGGGAGGAAGTGGAGAGTCAGCAGGAAGTAGAACCAGGCCTGGGGCTCAGCCTCCACGGTCCCTATGTGCCTGGGGAACTGGCACAGGGGTGGGGGTGGCGGCAGAGGGAAGAGCCCCACGTGGGCCAGCTGTGAGGGTGGCAAGCAGCAGGGAG
1.197060443337331 GCCTGGAACCTGCCCCTCCCACCACAGGGTCTTCAGCGCTGCTGTGCCCAGGGAGGGGCTGCCCTGGCAGGCACGTGGGGAAGTGGAGCTGCCTCCCAGGCACAGGGAGCAGAGGTGGACTGTGGGGTGGGGGCTGTCCCCAGCCTGCGGTGAGCGAGGGAATGACGCAGGGCCGGGGGGCGGGCAGGGGGTGCAGAGGG
1.312770930001725 GGGGCTGGCTGCCCGGCACATCCTTGTAACTCTTCTATTCCACAGCCACCAGTGGCCCAGGGAGTGTGGCGTGGCGACCACTCGTCTCTTGCCTGGGCGTCTCCTGGGGCTGCACAGGCCAGCCCAGAACCCTTCCGTGCCTGTCCCTCTAGCCCAGCCCAGGGACAGGGAGATGGGGCTCCCTCCCCTTATCCCCACAG
1.478136239798566 CACACTCTGCCCTTCCCACCTCGGCCCTCCCCACACTCTGCCCTTCCCACCTCGGCCCTCCCCACACTCTGGCCTCCTCCTCCCTCTAAAGGGCCCTTGACTGTTCCGTCTCCACATCTTCCTCACCATGGAGACGACACCACAAACTCTTCACTGACCGCCCTGGAGCCACCTCTCCCCGTAACATGGGTGCCCAGGCC
1.670136864200781 CCCCCAGGGCAGAGGGTGGTCAGCGGATCCCCTCAGCCTCCACCCCAGGCCGGCGGGAGGCAGACGGGGTATGAGACTCAGCTGAGTCTTGGTCCAACATCACCACCTGGTGGCCAGATGAAAAAGTTTCCGAAGGCCACGGCGGCCTTATATGTGAGCTGCCCGGGGTAGGGCTAGGGGGTCCTTCTCTCCTCCACTCA
1.019955502918566 AGGACGGCACCTGTGCCTCTCCAGTGACTCACATGTACCACACTCTGTGGTCAGCAAGGGGCGTGTCTGCTTCCTCCACTGGACAGGGATATACATGAGGCACCCGGCACACCCCAGGCAGCACAGCCAGTGGGGCTCACTGAGTGTTGACTGTTGACTCGACTGGGCACAAGGCCACGTCTGCACAGCTGGGGCAACGG
1.406013311083349 GGGGGATGGAAACACCAGGTCGGCCAGGGGGATGTACCACTTACAGTCATACTGCTGGTGCTTCCTGCAAACGAGCCAGAGGGAGCCATGAGCCAGAGGGAGCCTGGCTCTTCCAGCCTCAACTCTTGGGTCCAGAACCACAGAACCACTGACAGGGGTTGACTGAGAACTCGCCAGAAGCAAGAACGATCCCTGCTCCT
1.532325658059048 CCAGCCCAGGCCCCCAAGAGCCACACCCTCCACAACCCGGACACCAAGTGAGGATGGCTGGGATTCAGCAGGGACAGGTGGAGGTGGCAGCTGGTGGATCAACACTTCCCAACACCCTTCCTGTACGCGGCTGCGCCCACCCTCCCAACAGGAGGCTCAGCTTCAGTCCTGCACCTGGATGCTCTGTCCCTGGGGTCATG
1.752319697085027 CCTTCGGCAGAGATGCTGAGCTCCCCAGGACAGTGAGCTGCATCCTACCCCCATCAGAGAGCACTTACTCAGCCCCCAGCACCCCCGACACTCCCCACCCACCACTGCCCATGCTGGGGGTCCGAGAGGAAGCTTCGAGGGAGGAACAGCCAATGCCCCTCCTGGATCCCAAGCCAGGCAGCAGGTAGTGAGTACTGGAA
1.594868553972048 CTCTGCCCTCCAGGGTGGGCAGGCTGTGAGGGGCTTATGGTTGGGTGTGGGGGTTTCTGCCTAGGCACAGAGAACAGGCAATCAGCCCAGGCCAAGAGAAGACCCCACACTCTCTGCACCATGTCTGACCCCGGGATCTTGGGCGGCCTTGGCAGGGCTGATCTGAACACAGACCAGGGGAGTCCAGGTAGTTCCTGGGT
1.482778958174985 AGGTCTCAGCTGCAGAAGGGCAGGACTTTAAAAGGGGGCAGGGCCGGACTTTTAAAAGAGGGCGGGGCCTGAGTTTTAAAGGGGGTGGGGCCTGACCTTAAAAGGGGGCGGGGCCGGACGGGAGGGAGTTTATTTCCTTTTCCAGGGAGTACTGAGGCCCGGCCCATCAATGCCCACGCTACACGAGGCATACTAGACAG
1.59244908005945 CGTCCTCCTGGAACTTGTGGTTTGGGGGAGTCAGGCAGTTACTAGTGCTCACTACGAGGACTGGCACAAGGCCTGCATTTGGCGACTTGGAAAGCCTTCTTGGAGGAGGTCCCTTCTAAGCTGGGAACTGACCAGGGGAGGCCAGACGAGAGGGGGAAGGACGTTTCAGGCACACGGGGCCTCAAGTACCAAGAGTTAAG
1.50352234110122 ACAAAACACAATGGTTATGCTTCCTCCTCAACTTCCCACCCCGTCTGCAAAAGGGGAAGAAATGGACGCTCACCCACAGCCAGTCACAAGGACGGGGCCTGCGCTTGGGGCATCAGATGGTTCTCATGACACGATGGGGACCTTGGCTGTTACTCCTGATTTCACTCGCGGGGAGGGGACAGGGCTGGGTGTGTGCCCTT
1.655159174990206 TTACATATATATACAGGCACACAGACAGACAACAAACCGAAAGTTCCCTCACTTATCTTTCCCGTGTATGATGCATGCTGACATTTTTTCATTGGTTTAAAAATGCTGGTTCAACCCACTGTACTGGTTTCACAACCCACTGTACTGATTTCACAACCCAAAGCACTGATGGGCTGAGAGGCACAGTTTGAGAAACAGTG
1.153132264480386 AGCTGAGAGGCACAGGCCCTTTCTGGCAATGACCCGGGCTGCCCGATGCCCAGCCAGAAGCAGACCAGCTGCAGACTCTGTCCACAGGGAGGGACGGGTACGGTCCCCTTTCCTCTCCAACTCCAAAAGCAGCTTCAGAGCATGACATCACCCAACACGGGCGGGGGGACCGGAAGGCCCCAGAGCAGGGACTGTACTCA
1.32201737957797 GCCAGCACCAGATCAGAGAAGACAGGGTGGGGTGCCAGCCACTGCCAGCCTCCCTACAGCTCCACTCCCCACCCAGGCCTGCAGCCACCGCTCCACCCATACTCACACATCAGCCATCTCCCGTGGTTCTGCATCTATTTTTACCTCCATTGGCTCCTCCTCAGAGCCACACTGTAGAGTGGGTGGGGCAGGACTGTGAT
0.9782506047203055 GGGGAGCAAGGCCCGGGCAGCCCCTGACGCCGTGCCCGGCCCGTGGCGGAGGCGAACCCGCCGCACAGCAGCCCAGCGCCCTCCTCCGTGTCCCGCCCGGCCCCGCAGGGCCCGCCCTTCCCGGGCTCCGGGGCTCGGGCTCGCGCTCGCTCCGAACACACAGGAAACGCGCGTCGCGAGGTGGAGCCGCCCGTCCTCTG
1.310704980775391 CAGGGCCTCTCTACTCCACCCTGTCCCCGGTGGCTGGAAATTCCAGTGAGTAATGAGAGTGCCCCTCCATCAGACACAGACTCCACTCACAGGCCCTCGGTGCCCCCCTGGAGGGGAAGTGACTCACCAGTCCCCACAGCTTCCCTCCCCTTCCCTGACAAATGCCCTGAGCCAGCCCTGGACCTGAGCTCCACACTCCA
1.600982318668777 GCCGTGGGGCCCCAGCTGATGACTCACCCATCTCACTGTTGACAGTAACCTCTCAAAGGGCCTGGCACGTTCTCACTTCCAGGCCTTTAACAACGGCAGGTCCTCGGCTTGAAGCACTTTCTCCCGCCTCTTGGCTTCTCCCTGGCTCTCCCAGCTTTCCTGGCAGAAACTCAAGCCCCACCTCCAGACTGTATGAAGCT
1.580777233451776 TGCCAAACACCATCTCACAGAAACCTCACAACAGCTGTGAGGTTTGAGCCCTGTGAGGTCAGGAGGGAGGAAATTCTCAGTGTCTTCACACTACAGATGAGCAAACTGCAGCTCTGGTGGGGAGTCATGAGTGACACCCCTCAGGCCACACAGTGAGACAGTGGTAGAGTGGGGACAAAACCCAGTTCTTCTCTCTGCCT
1.417347200970255 CCAAAACATCCCCAAGTACTCAGGAAGAGGCGTCAGCTCCCTCCAGGCACCCCGTGTAAACAGCAATCCCTGCAGAGTCCACTAGGTGGGGCCGGTGACCCAGCGGAAAGGGCAGAAACGCTCCCCGAGGAGGGAAGGCAGGTGCGCGGATGGGACCTTTGCCCGGACGATCCCCAGGCTGGACAAGTGCTCCCTACTCC
1.211137808476271 CTGAGCCCACTCCCTCCAGGGGTCCAGGGCAGGTTCTGGAGTGTGGGAGGGGAGCCCTCAGCCCTCAGAACAAGGCCCCGCACGGAGGACGGAGCCCAAGGCAGCAGGGCGTGGGCGAGGAGGCTGTGCCCAGGCCTGGCAGGGACAGGGGCTCACAGCAGACTCCTCGGAGCCGGTGCTTATTTCTATCACCCCAGTGT
1.484766937723491 GGCCTCGGAAAGGCCCCTGCGTCCAGCCCCACCAGCATGGCTATAGGAGGGACCCTCCCACAAACCGGCCCCTGCCCCTTGGCCTGTTTGCTCCCCAGCTCTGACCCACCACGACTGGCAACGGAGAACGTGGCAGTGTTGCTCCCGAGGGCTGTGGTGGACCTCCTTGGGCTGGGGCCGCCAGCGGGGGGTGGACACCC
1.539237971955662 AGTGGCACCCAGTGGGAAACAGCAGGGCCCCTGGAGGGGACTATAAATAGCCAGGAGGGCTAGAACACAGAGTGAGCAGAGGGGGAGAGGGCCGTGCTGGAGAGGAGGCAGGGACTTGCTCCTGAGAGCCTCGTGAGCTGAGCCGAGAGCCGTGCAGGACTCAGTGAGGATGGGTGACCTGGCCCATGATCCTCTGCAGG
1.596441283945455 CCCTTCACACATACACCTGCAGAAGCAGCCGCACCTCTGCCCAGTGCTGCTGGGTGGCCACGTTCACTGGCCTTCGGCTCAAAATGCTGGCTCTCCACCCAGAGCCTTCCTGGGCCTTAAACATAATTCTACTGTTGAACTGGGCTGTCACAGAGTGCCTCAAAAGTCACCTCCTTCTCCCCACTCCCAGCTCCAGAGCA
1.421169671202821 CACTTGCTGTGTGCTGGGAGTTGCGGTAGACACTGTCCTGTATGATTCCACTCTGAAGAGGTGCTCAGAGCAGTCAGATTCGTCCAGACACAAAGAGGAGGGTGGTGGCCAGGAGCTGCAAGCAGCGGCACACGTGTGGGCAATACACAGGTTGCCCAAGCGCCGAGAGAGGCCCAGGAGGACGGGCCCCGGGCATGGCA
1.585975218836188 GATCTCATGACTGCCAGGCTCTCACAGAGGCCCTGGTTCCCCTCTGGCTCTACGTCTTATTTCCCTGGACCAGTTCCCTAAAGCCCTGTCTGCTGAGAACTCATCTGACAATTCATCCTAATCCCTAGAGGGCCCCAAGCAAAAATCCCAAGCTCAGTTCCTGCACCCAGGCTAGGCTTGGTCAGTGTCCAGCCCTGCCC
1.361184304046312 GTGGTCACCATAGCAACAGGCTCCCGCTCCAGCCTGCCAGGCGGGGCTGATGCAATTCTCGGCAGCGAGCAGCTCCAACTCAGCTCACATGGCTCTGCTCCCACTCGGGGGCGGGCGCGTGGGAGGACCAACGAAGAGGGAGGAGGTGGGCACGCAGCCCACAGAAATCTCAGCTTCCCCCAGTTCTGCTCCGAGGACTG
1.744094835837731 TCAGTGTGGCCGGAGGCCCGGGGGTGTGGCAGTGGGGCCAGGAGGGGAGGCTGCGGCTGGAGATGGGTTGGACCCAGTCTCTGAGAAGGCTCCCACGTTGTGCTAAGGAGTTTAGAGTTTATCCTGCAGGAAGGAGGGAGCTACGAAGGCTTGGAGGGCAGATGCTGCAGGCGCCTGGTCCTTCCCATCCAGTGTGGGCA
1.383021578837474 CGTACTCAGACAACCAACACCTATGGAGGGCCTGTGCGGGAGCCGCTGTGGGAGGCGCTGCCTCAGAGCTGGTCTGATACCCTGTTCCTGCCGGTCCTCCTGCCACATTCCCTGCCCCTTCCTAAGTCCTGTGCCGGCCTCTCCCAGTCCCTCGAGGCTTTCCCGGATGAGGAGCGCAATGAGCTGGACAGCTGAGCTGC
1.581650115323826 CCTCCCGAACCTTCCCCCGCTCGTCCCTTTCCACACCCCTGACCTCTGAGCGCGGCCGTTCCCGCCACACATGGAGGGGGGCGGGTGGAGACCCGGGAGGACCGAAGTCACGGGGGCTGTGGGGCCAGGACAGTCCCACATGTGCCCCTCCTGGGCGGAGGACAAACTGGAGCCAGGAGAAGCCCCAAGGGCTCCACGCG
1.468940380645202 GCCCCATAAGCTGCTTGGGCAGAGGCCTCTGCAGCTGCCCCAGGGGAGATGGGGGTCACCCACTCATCACAGGCTGGGGAGCCCCTGGGAGACGCACAGGATGATGCTCTGGGTGGGGAAGCCTCTACAGGTGGCTGCAGCAGAAGTGGTTTTCAATATTATTAGCCCGTCCCTGCGTCCCCAGGGCTCCCTCCGCCCCA
1.330877486524361 CTGCCATCAGTGGAGCCTCTGCTCTGGGGCTGCCGGTCGGGCCGTGTGTGCTGTGTCTCTTTAAGGACCAGGCCTCTTCAAGGCAAGTTCCCTCTGCAGTCCAGTCCTGCCTCTGCCCGTCCTGCGGCAGAGAGTGGGGGCTCCCCAGCGCCATCTGGCGGCCGCACAGCAGCACCTCGGCCACCAGAGGCTTCCAGCCA
1.593479139556388 GAAGCCAGGCACACACACCCCTGAAATCACTGCACCAGCTTCTCTTAGGCTGAGCTGCACCCAGGACATGCAAATTTTCCATAAAGCACTTTCGGGTTCTGATCGTGAAACCTCGTGACTCCTAATTTCCTCTTCCCCAAGCTCTTGGCACCTTGTCCTGAGCTGGTCAGCTCAGTCTCATGAACACACAGTCCGGTGCC
1.462026601273666 AGAGAAGCCTCCCAGTCTCTGGGGCTGCGGGTTCTGTCTGCTCCCCCTCCCAGAGGCCACACATGAGGCTGTACATGCAGGCAGGCCACATTTCCTTCCAGGCCCACAAACAACCTCGACTTCCTGCAAAGACCACTAACCCCAACGTCGGTACACGTGGCACGTTGCCCAAGGCCGAGCTGCTGCTGATTTTTAGTGTG
1.460144525710467 CCTTTTAAAAGGTCTTTCACTTGCCGGTGTGAGCAGAGGATCCTGGGGAGACTCCTTGGAAGGGGCTTCGGATCCAGCCAGGCTCCCGCGCAGTCCTCAGGGGGCGTGGCCCGGCTCGTGGGGGCGGAGTCCATGGGGGGCGGGGTCCGCGGGGAGGAGCCTGCGGGGCGGTCCCCCGTGGGGGCGGGGCCTTGAGGGGG
1.252094814065416 CAGGGCCCGGGTCGTGTCCGTGACTCGCGCAGGAAGGCGGATGGCGCCCCCCGGGCCTGCCTACACCCTGGGAACCTCGCGGGGCGAAGGGGGCTCGGGCGCTCTCTCCGCGTGGCGAGAGACCCGCCAGGGGGTGTGGCGTGAGTGTGTGTCCCGCCAGGACGTTCCGGTGGCGCCGCCTGACGCGGGAGGAGAAACCA
1.517729788395456 AGCTGGGTGTGGTGGCACACTCGGGAGGATCACTTGAGCCAGAGAGGTTGAGGCTGCAGTGAGCTCTCATGTGACCACTGACGTCACATCACTGTGATGGGTTAGACACTGATGCGTTTATAGTGTAACTGCCACGTGACTGGGTTGTTGCGTGCACAACCGAGCATCCCTTGACCCCTTAGATCACACAGGGTTTATCC
1.559469187035298 GCAGCATGTGCTGCGTCTCGATCGGGTGATTCCCACACCATCACTGCATGCCACGGTCCCCTGTCAGCCTGTGAAGAACCAGTCTCAGAGCCACATCTGTGGCAGAGAAGTCCTTGCTACTAATGAGATTCGAGTTCTCTGCTAACGTCGCGGTAGAGAAGTGCTGACCACTGCTCCCTTGTTGACTCTGTAAGGGAGAG
1.448863266593799 TGGACTAGACATGGTCTCTGGGCACCAGGCCAGCCGGAAAACGAGATGGGCCTAAGCCTCCCCTTGCCCTCTTGCTCCCAGACTCCTAGAAAGCCAAGAGGCCGGGCGCCGCCTTCTAAGAAGAAAACGAGTCCGCAGAGGGGGCTGGTGAGGGCCGTGGCCCTTCCCTGAAGTTTGCACGTGGCCCCAACACACAGAGC
1.062078131999241 TCAAGTGTCCCCTTCCGCCCTCGCGCCTCCTCCCCGTCTTCTTCCTCTTTTCTTCCCCTCCTGGGTTTCGCCTCCCTGACGTCGGCGGCTCCTCGCGGCGGGGGCGGGCGCCCCGGGGATGAGAACCCGCCCCGGGCATCCCACAGCCAGCTCGGGCCGCGGAGCCGCCGGGGGAGGGCGGGAGCTGCGGGGCCTGGACT
1.336623663186872 CACCCAAGGATGACTGAGCCAAGCGGCTCTAGCTGGAGGCGCCCGGGACCTCAAAGCTGGACTCCCCGGGGACTGAGTCCAACCGTGGCTGCAGGGGCCGCGGCCTGGCGGAGGGTCCGCGTGGGTGTCTACGAGGATCCCCCCCGTTCCATCTCCTCTTTGCGGCCTCAGACACTTCCCCTGGGGAGGACGAGAAATGG
1.608908917267777 CGTACAGGGTGGAGTCCAGACTCCTTGGCCTGACGCAGGAAGTCCTCCCACATCTGGTCTCTGCCCACGTCGCTGCCTTCTTCCTATAATTTAGCCTTGCCAGCTCAAAGCTGGCCCCAAAGACCTCACACCCTTTTCCTTTTCCTTGGAACTTCTCATCTCTCCCTACACGCTTGCAAAAGTCCCCGCTGCCTGGGGAC
1.542575408682375 CTCCTTAAACTGCTCCTAAGATCAGCGCTTGAGATATTTTGGAAACCCTGCACTTCATGAGTCAGCTGACACCACCCACATCAATAAACTGGCTCATCTGATCTTGCGGACCCCACCCAGGAACGATTGAGCTCAAGAAGACAGCTTTGACGCCCTGTGATTTCACCTCTGACCAATCAGCACTCCTGGCTCACTGGCTT
1.586724302037444 CAATTCACACTCCTGCTGGGCCCAGGCTGGCCCCCTTCCAGCAACGGGCCTACGCCTGTGATTAGCAGAAATAGCTTTTCCAGCCATTTGGAGCAAACAGGGAGGATAAGTGAGCAATTTATGAGTCTAACAGTCGTTTTGGACCCACGCCCACTGCTGAAGGAGCAGGATGGAGCATTTATCCCTCCCCTGCCCTCGTT
1.098216658524454 TGTTCTGGAACCTTCCCCGCAGCCCCAGCTCACACCAGTCCGCTGAGAGGCTGCCCAGCTGCTGTACAGGAAATGCTCACGCTCCGTGGGAGGAGCCTTCAAACACTCACCCCTTCCTGGAGTCCCGGCGGGACGGGAGAACTGGGGACTCTGCGAAAGCGCTGCGGAGCGTCCAAGAGCTCCCCGTGGAGCTGAGGCAG
1.569433792027584 GTTGCTAAGGTTTGGAGTCTAGGAATAAAAAGTTCCCTTCTGAGTCCGCCACAATGATGGCGGGAGGCGGTGGGAGGGTGGGCGATGGTTTTGTTCCTTTGCTCGTTCACCCCGGTGGGGAGCCGGGGAGCCAGGGAGCAGAGTGTGGGAACTGGGTGGAGATGTCTGCGGAACGGTCACCCGGACACGGGAACACGGCT
1.180971621187662 GACCCGCTCTCCGGAGGGGGTGGGGTCGAGGCCCCCGTGAGCGGCTCCCGGACTTTCTCTCCCGGGCGGGCGTTCCGTCCTCCCTCGGGGAGCGGCGCCGGAACTTCCGGAGGAAGAGCCGGAACTTTTGAAGCCCAGGCCCCGCCCGGCGCTAATAGGCACCTACGCGGCCGCCGGCGGAACCGCCAGACCCTAAATCA
1.479229476354773 CAGGAAGAAAGACACCCTGTCCCTGGCAGCCTGAAGGAGAGGCCGTGAGGGCAGAGGCCGATGGAACTGCTCAGAGGGAAGGGGCTGGCTCACGCTGCACGGCCACCAGGCCTCCAGGGATGTGGGTCCAAGGTCGTTTGCTAAGAACTAGGGGCCTGGTGGCAGCAGGGAGGGGAGGTGACCAGGCACAGACAGGCCAA
1.646104100009103 TTGAACTAGGTTCAGGAAGAACAGAGCTCACCGAGGAGTGATACATAAAACAAGGCCCCCGTGAAGCCACATGACTCCACCCAGTCCTGGTCTCCCCAGGCAACCACGAGGCCATTCATTCTTTTGTGTGATCCGGGAAGTGGGCTTGATTGAACGAGGATGTGGTTCTTGGGTGGGAAATGGAGGCTGTGAAGACAGTG
1.446843530135334 CCTCCTCCACCGCCCTGAGAAGAAGTGCCAGGCTTTGCTGGGTTCTGCTCCCAGCTGTCCCCAGCTGGTGAGGGACAGGCGTGGTTAGGGGTCTGCACAAGAGGCCCTGGCCACTTCTCCGGGGACAGCCCTCTTCCTCTCCCCTAGAGTGTGGGCTGCCATGGGGACGGGATGTGTCTGGAGGCCCAGGCTCAGGGCCA
1.313745302284547 GACTCTGACCCAGTACCCCACAGAGACCACTGGAAGGACTCTGACCCAGTACCCCACAGAGACAGCTGGAAGGACTCTGACCCAGTACCCCACAGTTCTAAGGAAGAGGGTTAGTCCACGGAGCTGCAGAGGTGCCCGCTCCGGCTCTATGGGGTCAGCAGGAGGTGACTCAGGACCACCTCTGAAGATGGGCTTTGGGT
1.588177025860676 CGTTGGGAGGCAGAGGGAACTCCATAGAGCTTCCCCGGAGACTAGGGAGTGGTGGGGAGGACAGGCCACTGGTGCCAACCTGTGACTGCTCCCGCCTATGTCCCCTCCCTCACAGTTCCCCTGGGAGTGCCAGCCCCTTGACCGGTGGGATGCGGCCCACCAAAAACCCAGGGCATCCTTAGCAGAGACCTCTCTCAGAC
1.530148012818658 TTTTATGGTGGTCTTCTACCAAACACAAAAAGCAGTACCGAACCTGTGAATGCCGCAAGCTACACACACCCTAGGAGAGAGCGCCCCCTTGTGGGAATCAGTCACATCAACAGATTCAGACACACCAACAGCTGGCTCCAACGCGGGGAGCACTCAACAAGTCTTGACCCTTCTGTGTTCTGATTTCAACAGCTTTGATT
1.571546703735918 CATATACATCACATCCAACCACAGTAGGCAGGAGGAGCAGGCCGGAAAAGGCTTAGGTCAGCGCCCTGGAAGGTGGAACAGGCAGAGTCTGTAAGCAACAGGACGATCATACGCAGGCATGATTAGTGAAGAACCAAAACTGAAAGCGGAATTCACTGTGCCATGAACGTGACTTACAAAGTAGAGTTTTTAGGAAAGGA
1.753182149206214 ACCAAGGTATGGTGCAGCCATGTTCCATTCAACAGAGTTCTTTGCTCTCTACTCCTAGACTTTCACTTGTCCACACCCATGACCATGCTGCTCCATACTAGAAGTCTGAATTGCAACACTCCACTCTTGGCCCGTGGCTTCCTTTTTCAGTTCCTCTTCTCTTATTATTTCTATTTAGGGACTCATCAGGACATCTGGAC
0.9751534321635061 TCTCTCAGCCTCTCGCTCCGCGTCCGGGCAGCAAAAATGGCGGCGCCTCAATCCGGGACTTCCGCCTGCGCACGCGGACAACTGCTCAGCTCTATGGCAACCGCTCCCTGGCAACTGGCGCGGGGGGCGGGTCCTGGAACTCGGCGCCCGAAGCGGCTGGAACGAGCGCACGAGACGCCTCTCCTCTGTCGGCTCAGCGG
1.336445006524043 CGGACTCAGTCCAGGCAGCCCTGCTGGAGGATGGGAGACCACAGGAAGTAGAGATAAACTGTGTCAGCTGAGGGCCATCCAAGATCAACCAGCCCCTGCCAATCAGCATCTGACCTCATCCATGAGTGAAACTGGCCAAGACTTGGAGAACTGCCCAGCTGAGCCCAACCCCAGCTGCTGACCTGTGTAATTATAAGATG
1.234453848561947 TGACGCGCTCCCTGCCCGAGGGAGGCTGCCGGGAAGGGGCCCGCGGCCCGCCATTGGGAGAAGGGCAAGGCGCCCTCGCGCGCGCACTGCGCATGCGGATTCATGGGCGGTGCCGCCCTTCCCGGGCCCGGGCTGCGGGGGATGGGAGGCGGGGTCTAGGGCCCGAGGGGCGGGGCCTCGCAGCCTCCCGCAGAGACGCG
1.496358719202734 GACACTGATTTCATTTTGGCGAGTCATCTCCTCCCACTCTTGGTTCTGTGGTTTCCGGTGTGGGTTCCGGTGTGCCCCTGGTAGCTCTGTCTCCAGGGGCAGGCACTCGATCCAGGCCTGACCAATCAGAATCTATTCCTCTCCCTGGCTACAGTGATTGGGTCAGGGTGGATGCCTCATTCAAGGTGCTGCACTGAGAA
1.242640300354928 ATAGACCAGTGGGATCTAGGGTGCCCTGGGGCCACCTAGGGGAAGAGGATGAGATACACGAGTCTGTGGCTTGCTGGAGAGGCCTGGGCGGGAGGGTGTGTAGGCATCCTCAGCAGGGAGACGCTAGGGCCGGGAGGATGTGGTGCTTCGGGAGAGGGTGGGGTGGACGGCAGCAGCGGGCAGGGGCACAGTGAGCCACA
1.758605983491055 TTCTGCATAGATGGGACTCCAGGCGTGTCAGCATGCCTGGCTAAGCTTCTTAGTTTCTGGACACATGTGAGGGGTCCTTAACTCAGCACCGTCCCTGGTCACCTCCTTGTGGCTGGTGTTTTGTGATGGCGGAGGGACTCCTGCACTCCGCAGGCTCTGCTGCAAGTGAGCCCTTGCCCCCAGCAGCCCCGCAGCCCCAC
1.491708424189889 TTACTCCCAGACTACACCAGAGGGGTTCCCCCAGAGGGCCTCCCACCCCAGCTGGGCTCAGCCACCCACTCCAGAACGCGGGGGAGGCCCTCCCTCGCATGGCTGGGGCCACTCCCTTTCCTCCAGCTGCTGGGCTCCCCAGGCACCTCCTCCACTGAGAGTCCTGAGAAGCCTCAGGGGATGGGGGCTTTACCATGGAA
1.12737980933749 GGGGCGGGGGCGGGCTCCGCCTGAGTCAGGTTTTCCAGGAGGGACGCCGTTGGCACCAGGGTGGAGCCCGGAACCCGCGCGGCCGCCGCGTCTACACCGACCCGGAACTCACTTCCGGGCCTGGGACTACACTCCGCGGCGGGCCTGGGCGCTGGGCGGGCACCGAGGCCTGCGGGTCCCAGAGGAAGCGGGATTTTCCT
1.199003449772654 GGGGGCCTCCCTAGTCCCTCCGGATCTCCGGGACGCCCCCCACCTCCGAAGCGGCCTCGGCAGAACCTCCCTCGCTTGGCTCTGCGGGCACCACCCTCCCTCGCCTGGGGCGAACCTTGGCTCAGATCCCACCGCGGGCAGGGGCGGGGACGTCTAGAGTCTGCAAAAGGCTGGGCTGGTTCTTCCTCGCGGTGGGACTC
1.037268548247286 GGGTCAAGAGAGCCCCTCCCGGAAGCTCAGCTCTCTCCCTGCCCCGCGAGGCGTGGGGGACTCGGGCCGGGGGCGTGGCAGGAGCCAGCGGGGGCGCGGCCAGAGGACGGGGCGGAGCTTCGCGGCCGCAGTGTCCGCCCCGCCCCTCCACGTCACGCGGTTGGAATGAGGGGAATCCGCGCGCGGAGGGGTCGGGCCCG
1.162793267916764 TGAGGGCCGCGTGGCCATCCTCCTTCTCCGGCCACCCCGGAGCCCCCCGCCCGTCACACTCGGGGCGCGCTGGGCCCCAGGGGCGGAGAACGGGAAGGGGCGGGTTTAGGCGGCTTCTCCGGAACCCAGAGGCGGAGCAGGGCTGCGGGCGGGGCCCGAAGGGCGCGCAGGGTCCTGGGTCCTGCAGCCCAGGCCGCTCT
1.018509750155724 GCGGGCGGGGCCGGGCTGGGCGGCGTGGCGGGCTTGGGGATCCGCGGCCCGGGCGCACTCTCCCCGCCCAGGGCCCGCCGGGGGCCGGGCCGCAGCCTGTCGTCATCCCGGGCAGGGCCGCGCACCCTCCGGCCCCGCCCCGCCCCGCCTCAGCCCCGGCCGCGTCCGCGAAGCCTCGGTGCGTGCGGCCCCCGCCTCGG
1.050207026387219 GCCCTCCGCGCACCCCGGGATCTGGGTGGTGCGGTTCGCAGAAGGAGGCGGGACTCTCCCACGAGCGCAAAGCTGCGAGAGGCTGAGCGAAGACGGGTTCGCGGACGTAAGAGGGGCGTGTCGGGCCTGTCATCAGCGCACGCGCAACACTGCCCCAGACGACGCGAGGTGTGCGGCCGCCACTAGACCCGGCCCAGCCC
1.694889152979618 CTTTGGCAATCTGGGAGGGGGAGCCCAGTGGGTGGGCCTGAAATACTGACATGAAACACGTCATAAACAACAGTACAGCTTTGGTCCCACCAACATGGCCCTGTCAGGCTGGGTACCAGAGGGGGACTGGTGCCGTGAATCTCTGGAAACAAGAAGTGAAGCAGCCCGGCCGACCTGTGCCAGGAAGCACTGGTGGACAC
1.506421760595552 TTCATATTGGGAACAGAGTGGAAGTTATCACAGGAGCTTCATGCTGACACTGCAGGAAAGAGAGACGGAGCCCAGTGACTGGAGGCACTATACTGGCTGACGAACCTCACCCAAACTCGAGTTTAACTGGAAGCTGGGGCGGGGTGGGGCTGTGATTTCAGAAGGAAGCAAAGAACAAGGCTGCGCCAGGAGAGGAGAGT
0.628675709953501 CTGCCGACGCCGCCCGGAGCTCCGGTTCCGCAGCGCCGCGCGGGGGCGGGGCGTCTCTGCGGCAACCAGAGCGTCACACGCCGCGGTGCGCGCTGACGTCACGCGGGGCCGAGCCTTCCCAGGCCCGCCCTCCCGTCCTTAAGTGGGCCGCGGCGGCGCTGTCGGTTCCGAGGTGGGGCCCCGCGGCTGGGGCCAGACCC
1.342280728458669 GCGGGTTGGTGGGCCAGGCGGACGGGCCTCCCCCGTCATCAGCTCCAGGGCCCCACGGAGCCCGCCGGCAGGGGGTGCTGTGGGCCTGTGGCCTTGGACAAGCTCCTGGCCCCACGCCAGGATGGCTCCTGGGCACTGGCCCAGCTGCAGGCCTGGCGGCTCCCGCCTGGTCAGTGGGGATAAGGGCTAACTCCTAGAGC
1.220906760394032 GACTCTGGGGAGGGCCCACCCCACTCAGCTGTGCCCAGGGCCTGTGGGTGTCTGGCTGAGCCGAGTGGAAAGCGTGGTGCCAGCGGGGACCTGCGGTTTGGGAAACAGGCCCAGAGAGGAGTGTGGAGGCTGGGCTTGGCTCTGCAGTGCCCTCGTCCAGAGAAGCATTGAGTAATCGCGGAAACTCAGCACCACAGATC
1.341004690539707 CCCTGCTGACATTCTCCTGTCTGCTGGTGCCGGGTCACAGGCGGACTGGTGAATCAGGCCTGTGACGTTGGCGGGTAGCGTGATGGGGAAGTGGCGGGCATGCGGAAGACCTGGTGCAATCAGGGTCCCTGTCACCACACTGCCTGCGGGAAGCGGCTCTGTCACATCTACCTCCTGCTGTGCTCAGAGAGAGGGAAAGG
1.484620518871847 CACTGGAAAACACACACCCCACACCCCACACCCAGGAGGCTATTTTGGTCCTTCCCTCCCTCCTGGACCAGGAAACCCTGATGGGGACACGAAGAAACAGTTGGGGCTGGCAGTGATGCAATAGCTCTGACGGGCAGACAGCTCCTGGGATGCGGCCTTTCCATGGCCCGGCTGGCCCGGCTCAGCTTAACACATTCTGG
1.5674746424814 GAGCCCTCATCAGAGGCCTCAGGGGGCAGGGGAATGCCCATGGAACTCCCTCCACCCTGGGGGGAGGCAGAAAGAGATGACTTAGAAGGAGAGCTGGCCCATGCAACCAGAGGGTGTGGGTGTGAATGGTGGGTGTCAGCACATGCCCTCAGACGAGGAACAGTGACGTAGCAGCTTCCTGGGGCCTCTGGACCAAGGGT
1.778955503001892 AAGCCTCTCTGAAGAAGCTATTATTCTCACTTCTTTCCCAATGGCCAGCTCGGAATGGCACAATTGCCCAACTGGGCGAGCCCACAGAGTTCCCTTCTTCCCTCTGGGAGAGACTTTTTGGTTCCTCTTTTGACTTTCTTTTTTGTTGTTGTTTTTGAGACAGAGTCTGGCTCTGTCGCCCAGGCTGGAGTGCAGTGGCT
1.227248861911644 AGGACGGGCTGGGAACGTGGCTGAGGAGCTCTCCTGGCCGGGACTGCTAGTTAAGAGATGCTGACTAATCCTGCAGAAAACAGGAGCCGACTTTGATTAGACATGAGGTCACGCTGGGAGAGTCAAGGAAACGCTCTTCTTCCGGTAACTGCCTGCCTTCCAATTGCAGCCCTCTGGCGCCAGGGCTGTAGCGCCGAGGT
1.933086163310567 CTTAGGAGACTCCACAATGGCCTGAGGAACGTCTAGATTCTAGATGAGCCCTCCCTGGGGTGGAGGCAAGGCCACTTCCTCTCCTGCTGCACCCCAGCCCCTTAATCTGGAGTTCCTCTTTCTCACAAGCAGACAGCAACATGTTTACTACCAGCCAAGCTATGTTCCAGGGCTGGGAGGAGAGGAGAGCAGTCCAGCAC
1.296936040504101 CTGCCCTCTTTTATTCCAGCCCTTTTATTCCGACCCCAAGAAGAAAACACTGCCGCCCGCTGATTGGCTGAGCGGGGCTGGAAACAGGCGTCGACCAATCAGCAGCCAGCCCCCCGCCCGCCCCGCCGCGAGCAGAAGCCGGTTCCGGCCGGACTCGGAGACAAACAAGAGAGATGGGGGACGGGAGGGGCCTGGGCGCT
1.549056344141998 CCACCACCCCAGGGCTGTGGGAGCCCCAAACGCCTCTTGCTCCACCTGCCCCAGTCCGAGTGTGCCCCCTACTGTCTAGAATCCGCCCGGGCCACCTGGCGAGGGCAACCTCCCCCAGACAACGCTTGGAGCTGTCAGCCTGCTGGGGGGCGGCTCCAGCTGGTAGCCTACCCGGTTCCTCACCCTGTGGAACCCTTCCC
1.271761736909819 TTGCACTGGCACGGGCGGCGGCACGTGGACGACCACCAGCCGGGTTCGCAGTGGCACACGCCGGTCGCGGGGTCGCAGCGCCCGTGGGGGCCGCAGGCGCACGGGAACTCGCAGCGGGCTCCCCAGCGGTCGGCCTGGCACTGGCACGCGCCCGTGGCTGGCTCGCACTGGCCGTGCGGGTGGCAGGGGCAGCTCTCACG
1.157200714063176 CCCGGCCTGCCCCCGCGCTCGCTCTTTAGCCTGCGGAGTCGCGGCTTCGCCAGGCTGCTGGCGCTCCCTCTCGCGGTCCTGCGCGGCGCGCAGCTGGGTCTGCATGGCCGCCAGCTTGTGCCGCAGCTCAGCGTTCACCAGCAGGAGGCGCTGCAGCTGCTCCTGCAACTGGGAGCGGAGCAAAGGGTGGGGTGGGCGGG
1.835996177367039 CTGACTTACAGCTCCCTCTAGGTGGCATCTGATGTCCTTCCTTCTCTTCAACTGACAAACAGATTGTCCTTGCTGTCTCCACTCACTCACTTCCCATGAAGCCTCACCCACTGCCATCTGGCTTCCATCCCTACTATTTCTGTAACAGCTCCTGCTAAGGTCACCAATGACGTCCTAACTGTCAAATCCAATGGATACTT
1.444317632385257 CAACCCGAGTTCAGCAGTTGATCCAGTCGGCGCCGAGGTGCTCAGATGGATTAGTGAGACGACCAATTAGAGTTGCACACTGCGCCGAGGAGGCGGGCCCATAGGCGGAAAGGCTTTGAACGCAAGGGGGTGTGGTCGGGGTGAAGCCCCGCCTCCTCCATTTCCGAGGCTGTTTCTGGGGCCTCTGACAGACCTCAGCG
1.489054193033207 AGGCCCCGGCCGCAGTCTCCCTGTGCGCACCCCCACCCCAGTCTCAGCTCTGGAGACGCCCGGCGGGTCTCCCGGCCTCAGCCTCCCACCCCTCGCCCTCGCCCCGTGCGCCTCGAGCCCCCAAGCCCGCACCCGAGCAGCGCCCCGGTCCCCGAGAGCAGGCTGTGCGCCAGGGAGACGCAGAGGTTCCACCACTGCCA
1.429316537332048 TGTCTGCCGGCCCCTCCATGTCTGAACTTTGTTCCAAGTTCCAAGCCCCGCCCCCACAGTTCCAACGCATGAATCAGCAGGAAAAGCCGGGCCCTGCAGCATGGCCCAGGGAGGGGGCTGGGGGCGTGGCAGGCTCGGGGGATGTGAGCTGGGGAGGGCGGGTCCGTGCTGACACTCAGTCCAAGGGCATGGCCCACGCC
1.122648264469013 CGGGGCCTCGCCCTGGTCCCGCCTCTCCGGGCGCCCTGGCTCTGATTGGCAAGGAGGCCACCCTTTTGCCGGGCGGAATTGCACGAAGCCACGCCCACCCACTGAGGAGCCGGCCAATAGACGGACAGGTGTGGCCCAGCCCTCCGCGTCAGCGACCCGCTTAGAAAAGCGCTACGTCAAACGAGAGTCCTAAAGAGCAG
1.175157010026479 CAGGGCCAGTGGTTTCACTGTAGACAATGGTCTATCTGTCCTGCAGATGAGTCAGAACTAAGACCCCTTGAGGAATCATGTTGCTTTGGTGCCGGCTGTCTGGTTTCTATTCCATATCCTGTGCCGCACCCTTCCCCCAGCCACAGTGACATCTGGAGGCTCTGACCACAGCTGGCAGGCTCTGTGGTACCGCAGAGGCC
0.8182956408808566 GGGAGGAAGCGGAGCCCAGACCGAGCCAGAGCGGAGCAGCGGGAGGGAGGGCGGGGAGGCCGCCGGGCAGGAAGCGGGGTCCCGCCCGGGCCTCTGGAGCCACGTGCGCTTGTTTCCGTGCTGGGGCGATCACGTGACCCGCGTCAGCTGACCCGTCACGGTGGAGCCCGGTGCTCGCGCCCGGCAGCCTCTGCCCCGCC
1.521426099761981 TATGTTGGTAAGGAGGCCTGCGGTCAGTGCTGGAGATGAGGCTTTCTCCCAGGCCCTCTGCCTAGCTTCAGCGCTCTCCGGCGGGGATCCTTCCCACCCCTCCCTCAAACCACCCCCCGGCCAGGTGCTGGGTCCCAGTCTAAGTGCCAGCCTTGGGTAGGGCCAGGCTGGGCCCCCAGCTAGAGTGAGCTCAAGCGGCC
1.464814499817579 CCGCTGAGCAGAGTCCATGGCCCTGCCGGGCTGCCCTGGCTGGGGGCAGGAGCACGCCTGGGCATGGGGATCCTGTCCCCGTCTCCTTCCCCTCCCCCTCCCTCCATTCTCAGTCACAGGCCTCGGGGAGCTGCTCAGGGAGGCCCAGGAGGGGAGGAACAGGGCTTCGTGTGGGAGGATTTCTGCAGGCAGCTGGGACT
1.268711328623658 AGTTAAGAGCAGGAGGAAGCGTTGCTACCTTCACTTCTCCCCAGCTCTGCCCTCTGGGTCCACATGAGGACAGGGAAGCTCGGGAAGGGGAAGGGAGACTGGCCCTGCCCAGCCGGTCTCTAGCCCCTCAGCCCCCGCTGGGCACTCTCTGTCCCATCCCTCTAGGACAGGGAAGCTGGCCTGGTCCAGGGCACTGATGG
1.895141228952519 CACCCCCTGCCTTCCATCCCAGTCTGAAGGCAGCCAACCTGATCCTGGGCTTGGAAGGTTGGGGGTGGGCTTCCTATCCTGGGCTCTCTGCATAGGCTCTTGTGGCTTCCCCTTTCCTCCCCTCAGGAGCGGGAGGCAGCTCTCTGGGAGAAGAAAGGACATTGGGAGTGAGAATCTGGATGTGCCTCAGCCCAGCTCTG
1.309154693044664 GGAGCCTGGGCAGAGAGTGAGGAGCACCCAAGTGGGGCCAGAGGAACGTTGTGTGTGGCAGCAAGGAGCCCGCAGAGGTATGAGGGGAGGGGCTGCTCGGCCTGCTCCTTGGGTAGGAGAGGAGGAGGGAGCTGCCTCCCTGGCTGAGGGGTCTGGGATTTATTCAGGAGGCCTGTCACTCCCCAGCCTCTTCTGGGACT
0.9615011932925117 CCACCTCTGGTGTGGGAGAGGCCCACCAAGGTCCGGCTGCCTAAGCTGTATCTGAAACACCAAATGGACCTGGTGGCCACCCTCAGCCAGCTGGGTAAGGAGGAGGGTGCGGGCGAGCCCCCGAGGTCAGGCTGGGCAGGGCGGGTAAGGAGGAAGCGTCTGGCTGGCAGTGGAGCTGAGTCAGAGCTGTCCTGTGTCCT
1.566990522395279 AGGTGTCCACTGCCAGTTGACATAAGGTCACCCATGAACTTGGTGACAGGAATTTCAGTGGAGAAGTGGCCACAGACACAAGTCTAGAATTGAAATGGGAGCCGAGGCAGCGTAGACAAAAGAGGAAACTGCTCCTTCCAGAGCGGCTCTGAGCGAGCACCGAGAAATGGGCAGTGGCTTTAGGGGATGTAGCGTCAAGG
1.609502902090679 ACTGTTAAGGCAATTTCCCAGCACCACCAAACCGCTGGCCTCGGCGCCCTGGCTGAGGGCTGGGATGGAGGACAGCTGGGTCCTTCTAGCCAGCCCCCACCCACTCTCTTTGGCTACGTGAGTCAAGGCTGGGCGACCAATGAGGTTGTGGCCTCCGGCAAACAATGACCACTATTTAGGCCGGCAGGTGTATAGGGCAT
1.277029798187239 AGGGTATCTACCTCTCCCTGAGCCCTCCCCCGCCTGCTAGGACGAGAGCGGGGCTTGGATACTGCCCTTTGGACAGGATGGCATCATTGTCTGTGGCTGCAGCCAGCCAGCGGTCGCCTGCTCAGCCCATGAGCAACCACTGTGGACAGGGTATTGCGTGTGTGCTGAGGGGCGTCCATGCAGACCCCCACGCTTGCCCT
1.20506761967351 AGGCTCAGGGGAGGCAGGCTCCTGGCAGCTGGGTGGGGCTGGCCCCAGCCGGGTGGAGACCAGCTGTAGGCCTGGATGGTGGTGAGGCCTCTGTCTTGCGCTGCAGAAAGCTTTTCCTGTTGTCTACACGAAAGTTTTCTCCCTGCATGTCAGGGCAGCCACGTGCAAGAGCAGCTGGCTGGGAACGCAGAGGTCTGCGG
1.439328421955192 AATAGATCATGTGTGCCCAGGCCTGGCCTGGCACTGGTGTGGAGGAAGGGCCCGTGAGCCCAAAGAGGCTCAGAAAGAGGAAGTGGGCTGCAGGAGACGGTGGGAGGGGCAGGGAGGGCAGTGGCGCGATGTGGGGAAATCTGCTGCCCCCCTGGCCAGTGCCTGGGGATGCCAGCAGAAGTCCTGGCAAGTCACAGGAA
1.997359730156767 AGATGGGGTTTCGCCATGCTGGCCAGGCTGTTCTCGAAAACTCCTGACCTCAGATGATCCACCCGCCTCGGCCTCCCACAGTGCTGGGATTACAGGCGTGAGCCACTGCGCTGGCCAAATCAGACAAGGTTTAAATCCCAGCTCTGCCTGTACTAGCTGAGGAACTCTGCACACATTTCATAACCTTTCTGGGCCTACGT
1.795290218341531 ACTACTAAGAGCTTCAGTTCCCACTGGAGTGGTGCACACATCTCATTACTACTAAAACCACAGGAATGTTCCAGGGAAACAGACTATCATCACTGAGCGAGGTGGAATCCAGCCAAAACCCCAGGCTAACATCCAGATGCCTGCAGATCAGCTAAAATCCTTTTAAAGGACTTGGAATCTCCAGATACTAGTTTTAAGTC
1.905149546486805 GACGAACCAGAGAACAACCAGAAGGAGAGCTATACTGGAGGGTGGGTGGGGCTGCCTGGCCAAGTTCTCTCTGGGAAACTCACTTGAGATCTAAAAGCTTTCCCCATATCTCCCAGGAGGAAATTCTTTTTTTTTTTTTTTTTGAGATGGAGTCTCGCTCTGTCGCCCAGGCTACAGTGCAGTGGCGCGATCTTGGCTCA
1.562142834593181 ACAAAAGCAAGACACTCCTATCAGCTGGGCTCACGCCCCACTGCTCTCTAGCAGAGACTAGCTCTGAGGAGGGAAGAACCGCCCTTCTAGGAAGTTACATCACTAGGCCCTGGAATTAAAATAAATGACACTCAACTTCTGGAACTGCACACAGCTCACGGATGTCAGCGATGACCCGTTAGTTGGCAGGGGTACTTCAA
1.584923745534397 TCCCTCTCACCCTCAGTCCCATGGCCCTTGCCCTACAGCTGAGGGTGTGGCATGTGGCTCACATATGGCTCCTTCCTCTGGCCCAAATGGCTGGAGGAAAACTATGTCTAATTTTCCTCCAGCCACAGTTCTCAGGTCAATGAAACACAGTAACATCTCTGCCCAGGCTGCTGTTTGAGTGGCATGTGCTCTTATCCTCC
1.450718505774986 CATGAGCCCTGGCCTTGCCCTCTGTTCCTCAGAAGATGAGCTGGGCAGCTAGGCCTGCAGCCCGTGTGAGTCATGGCTCCACAGCCAGATCCAATATAAATCAGATGGGACATGACTCACGGCAAGCTCCAGTCCCCAGGAAGCAAAGTGGATGAACGCACACAAAGTCCACTGGAGTCCTGGAACCTAACGACTGTGTC
1.46657203183912 AAGGGTAGACCCCATTTCACAGCAGGGTTGGGCACATGACACAGGCCTGGCCAATCAGAGGAGTCTCATACCTCTGGTTGAAGGGATGTGCATGTGATCAAAATTCAGTTGACCTGAGCCCCACCCAGAAGTTTTCTGCTGAAACTTCAGAAAGACAGCCTCTTCCCCTGGGGTGTTATTACACTATCAGGGTGTGCCCA
0.8756893024478097 GCGCGCCCCTTGGCGCCCCGCTCCGCCCCGCACCGCGTCCGGCGTCCCGCGCCAGGCCTCGCTTGGGACCATGGGTGGGTCACGTGGGCCGCGCCTCGGCCAATGCGGCGGCTGCGTAGCGCCCGGGCCCGCCCCTGAGCCGCGCGCACGTCGGGGGCGGGAGCGGTGCGCGCAACTTCTCGGGCCAATAACTGCGCAGC
1.506286900142379 GAAACGCTGCCCTGTGTCCCCTTCCTCCCGGTTACAAGCTGTTTCTCCAGCAGGTGGAGCTGGGAGAATAAAAACTATGAGCCTGTGCCTGGGACCTTGCAGAGGGAGCTATCTGTGCTGAAATCCTGGTTGAATGAAAATTGTTCATTATGCAAACTGTCTGGTTCAGTACACAGAGGCAGCCCCCAGGCGCAAACCCC
1.191874796021647 GTCACCGGCGTACCGGATCGGAGCTGGGCCCCGGTGCCAGCTGAGTCCGGGGCTGCGGCCCATCTCATGGAGAGCCGGGGGCGCCCCAAACTCTGCGCCACAGCCTCACACATGCAGCTTGGTTCCTGCCCTGTGTTCTTAGCGGGAAGGGGTAGGTATGCGTGCATGGCCTGTATGTTGGCATGCTGGCTCACGGACGG
1.58484722063117 CCCAGCCCGCAGGGGGAGTACAGACCCTCCAAGCTCACACTGGACAGGCGAGGCATCGGGTGGGACTAGGGGCTTCCTGCCCTCGACGCCTCCACCCACTCCAAGTCAGATAAACTCCTTTAGGGCCAGGGCTCAGTGGGAAATGCCGCCACTCAGGGCGCAGCCCAGAATCTGCCCACTTATCACACAAGCGTCTGTGT
0.9666538129031966 AACCCTCTGGCCACTCTCGGGCCAGCCCTGCTCCCGGCCTCGTGCCGCTGCCTGCCCAGGCTCACGGCCCAGCAGGCCTCACCGCCACTGTCACCCCCTCGTTCCTGGCAGAAACAGCCTCGTAAATAAGTGACAGCTCCCAGCTGTTGGGAGTTATGGGCTCCCAGAGAGTGGCAGCTGCTTCCCGTCCCCTGTAATCA
1.530932612832291 ACGACAGAGGTGGGGCTGAAGGTCAGATTAAATTGGACTAGTAACCCCAGGGGATACTTGAAAGAGGTTGCTAAAGAAACAGTTCCGGCAGGATCGTGCAGCAGCTGAGGCAGGCAGCTGGCAGCAGCGTGCGGGCCGGCCGGCCAGATCAAGCCTGCTTAGCAGGGCTTGCTGGTGACAGGCCTGGGTTCACACGTCCT
1.564490137360747 CAGTGACATGTGTCCAAGCCGCGTACGATTCCCAGTGTGACTGAGAGCTGAACACTCTGCAAAAGGGTCCAAATGGGGATGTTTCAGTCTTGAGGTGTGTGTTGAGCTGTTACCTGGGGAGGCCCTGGGGCGAGGCCCCCTCTCCTGTCAGGAGCAAGCCCCATCTGGAACTAATAGAACTCAGCCTAAGGCTACAGCTG
1.556480718531711 TGAATAAGCCAGAGTGATAACTCTGTGCCCCCTCTTAGATTTCTGGCCGCTCTCAGGCCACCCCTCCTGCTCCCTTCAGCCTGGCCACCCTTGACCCTTCCCGCTTTGCGGCCCCTCCCCTGCAACGCCCTCTCTACCCTCTGTCTCCACCCTAAGGTCAAGTCTCCCTTCTCCCTGGAGATTTCCTCGACCCTAGCCTG
0.8486861261561311 GCCCTGTGGCTGCCTCGTGTGCAGATAGGCTGACCTGGTCCACCCTGAGCAGCCTCACACGAGTCACTGCCTCCTTCCAGCTGAGCCTGCTCCAGCCTGAGCTGTGGCTGACGTGCTGGTACACACTGCCCTGGGAGCTGTGTGCCTCAGCCTGGACTGCTGTTCTCCCAGGAAGCTCTAGAACCCACAGTGCAGTGTCT
1.596283597643371 GTGCTCAGCACACAGCAAGCCAGATCCTGCACCGCCCTAGATTTGGACACTTCTATTAATGTGGCCAAAAATTATAGAGGCTTTTTTTTTTTTGGAAGGCACATCAAACTTTCTGACTCACTGTGCTTGCAGGCAAATAAATGCTTCCTCATCATAACCCTTAATGGGACGAGAAGGCTCTACTGCGAGCACGCTGGAGG
1.425843741038419 TGCTCCATCAGCATGACCTATTGTGGGTATTATTATTATCGCTGTTGTGATCCAGAGGGAGCCTGTCTCGCGGGTGGCTGGGAAAGCTCCCTGTGCTGTTCTGTCCAAGAGTCCAGTTGATTCAAAGGCACTGAAGTGGGAGCCTGCTCAGCTCTTGGAGCTGGATGAGAGCTGAGACAGGCAGTTCCCACTTAGCACAG
1.18613367470909 CTGACCACTGGGCAGGCCAGGGTCCCTGGGCCTGGATGGGTGCAGGGGCACAGGCCGGCCATCTGCAGCCAGCCCTGTGTGCATGTACCCAGCACAGAGGGAGGGAAGCCTGCCTGGGCCAGGGCTGCTGCCTCAGCAGAACTGCAAAGGCTGACAGCTGTGTCAGGGAGAAGGCGTGTCTGCCAAGTAGCAGCCACCGC
1.632687010802573 TTAGCATGTTTGGTCCGGCCTCATTTAGACATTTCAGATCTCTGAAGCCCAGAGAGTGTCCATGAGAGGTTTCCGTTTGCCACGGAGTCGATAGTACAAATTTTGTTCCAAACACATCTGCCAAGTACAACCCTAAACTTTTCCAAGCGAGAGGTTATTTTCCTAACACAGCGCCTGCTCTGCTGGGCATCCTCTGTGGT
1.598879939384141 CTTTCAGTAACCTTTTGGGAGGGACACCCAGTGCCCATGGGGACTCACCCTTGGCCAACCCAGCTGGAAGTGGGAGGGTGTGGAAGCCCACTGTTGAACTTGGACAGGCCAACCCTGGAGGACACAGAGCAGCATGAGGGATCTGGAGGGGCACAGGGTGGAGAAGTTGCAGTCTCCTCATGGAACTCACCAACTGGCGG
1.156313154156922 GGCGTCTAGCTACGGTGGTCGCGAAGCCAGCTGTCCTCAAGTTGAGCTGTGCACCGGTCGCGCACACTGGCGGCACGGCTTTCGCGTCCCTCCGCTCCCAGCATAATGAAAGTTTGAGGAACTGGACATCAGGCGCTGGCCGCTCCCCACCCTCAGCCGCTGGGTGCCCAGAGCCCATCCCTAGCGATCAGAGCAGAACT
1.171321262215478 CCCCCGGCTTCCCCCTCCTCTCCTCCTCCCTCCCTCCCTTGCTCTCTAGCTCCCTCCCTCTCGCTCCGCTCCCCGCCCCCGCTCACGGAGCGCCTCCCATACAAAATTTATGAAAGTGCTCTCAGCTCGCAGTGCCGAGCGCCGTCCTATTCCCAAGGCAGCAGCGCTCAGCCGCGCGGCGCCGCCTCCCAAGGTGTTTT
1.525117555394428 CATTCTGGGCTGGGGTGGAGCCCACTACAGCCCCGCCCCTATCTCCTCCTTTATGGCCCCGCCCAGCGGGTATCCCCCGCCCCCGCTGGCCGATCGGCGATCGATCGCAATGTCTGCGCTCTCCGCGTTCTTCCAGCGCTGTCTTTTTAGTACCACATGCGCAGGCAGGTGATGGCGGCGCTGGTCGTATCCGGGGCAGC
1.731307719620564 GTACTAGAATCAGAGATCTCAGTCTACTGGGGGAATGTTAATGTAAACATATCATAGCCACGTGATAAAGGAGGAGGTGCCTACTGGTCCCTGGGACACATTGAAGGGCTAATGTTAGCAGTTCCTTACACGCCAGCGACCACTAGGGACCTGTCAGAGGAGGATCTGTAATGGGCCTAGGAAGCCTAGGCTGATTGTCC
1.124292230602038 AGCCCCCGCTCTGGGTGCGCCCCGCCTTTTGCCGTTGTCATGGGAACGCCTTGGCGCTCCGAGGCCCGCCCTCGGGGCGGTGCTGACGTTCGGTTCCGCCCCGTGCATTGTGCTTCCGCTCGGGGAAAGACCGCTTCCGGTGCTTCCGTCGCTCCTTGCCGGGCATAATGGCCGCGCAGCGACCCCTGCGGGTCCTGTGC
1.136461805710451 CATGGCTGTAGACTGTTACCTCCAGTTCCCACAGTAACAATCGAAAGCCACGGTTGCCCTGGAGACGCGGGGGCGGGGCGCGCGGACGGCGCCGGCGCGGGGCGGGCTGACGTCAGGGCCGCGGGGGGGCGGGCGGGGCGGCGGGGGCTGAGGAGCGCGCGTGGGCCACCGCCCCTCGCAGCCCCTAGGGACCCGGACGG
0.8224394298312915 TAGGGTGGGCCCCTCCCCGCGGGCTCAGCATCTGTGCGCCTCCAGCTCAGGTGCGCGGGAGGAAGGCAGCGGCCTGCCGCGCAGAGCCCTGCGCGCCCGCGAGGTGGCGCCATAGCCGCAGCAGCGCCCGCCGGCCCGGGCCGCTCCAGATAAGAGTGTGCGGAAAGCGCGGCGGGGCTGAGACGCGACCAGGACGCGGG
1.199036032846968 TTGCTGTGGCTCGCCTCACGGCCGAGCAGCTGAGCCTGAAGCAGCAGGACAAGGCGGCCGCGGCCGAGCTGCTGGCGCAGACCACGCACTTCCTGCACGACCCCAAGGTGGCGCTGGAGAGCCTCTACCCGCTGGCCAAGTTCACGGCCGAGCTGGGCCTCAGCCCCGACAAGGCGGCCGAGGTGCTGAGCCAGGGCGCT
1.508195307599643 AGTGGGAAATATGTGCTCCTCGGGGGCTCTGGGAGAGTTTGGGGTCTGAGGCCTCTCCTTAGCGCAGTGATTCATGGCTCAGGGAGCCGGCGTGAGCATGCTGTTCCATGGTGAGCCTGGCACTCATTGTCTGGGTATTCGGAGACACTTTCTGGAAAGGGCCCATGTGGGAATACACACACACACACACACACACACAC
1.428827188690599 TGGGCGGACTTGGCGCCCCCAGCATCCAGGGGCCTGCCTGGGCGCTGCAGCTCCAGCTGCACAGGCTCTGAGAGCTCCCCACACCCCTTTTCTGACCTCCAGTCGGCCCCACTCACCAGCCTCTGTGCAACGCCGGAAGCAGGGAGGGACAGGCTGCAGAGGGAGACCAGGCCTCACCTCCCCCATGCTCACAGAAGAGC
1.36307450637014 CCATGGGGGAACACTGCCTCTGCCTGCTCTGACTAGGGATATACAAGGTTATCACGGGGCTTGAAGTGAGCTTGACTGAGGTCAAAAGAGGGTCAGAGAAGCTTGTCTGAGGTTGGCTCAGCTCTCACAGTAAACGAGGAAGTGCAAGGTTATGAAATTACACAGACCAGGGTAAGCACAGTTTCCCAGAGGCCACTAAC
1.229056789161295 CTGCTCTCAGGACTCTGATCCAAAGGTGGCCACTCTATCACTGTTTCAGATCACAAACGACAGCTTCCAGCTGACATCTGGCTTCCTTGGCCTGTTGCTGACTTCATCCCTGTACCCCGCCCTGCTCTACCGGGCGCTTGAGACTGCTGCAGGCCAAATGACTGTGTTGGCCTATGGGTGACCTGGCCCCTGGCTAGAAT
1.509644917172221 TGGCAGGCAGCACGCACAGTGGCCTCCCTGCATCTCCAGCCTCTCACTTGCATAGGAAACTTCTGCATTTCCACAAGACTGCCAGTTTCCTCTCTGTGGTCTAATTTTAACCACCTTGTCGTTACAGTGTGTGTCAGCCACCTGACCCCACTATGACCTCTGACCTTACGCCCCAGCTACTGCTTGCACTATGGAGAATT
1.421768648198226 ATCCTCCAGAGGAGAAAGAGCTGGGCGGGAGAGGCTCCCTTCCTGGGCTACATTAGCACGTGGGGCTGGACTGGGGATAGAGGCGACTAAAAGGGCCGCCAGCCAGGGAACACCCTGGGGAGCCTACGGACCTCTCCTCTGCGGTGTACCTTCTCAGTCACAGTCCTGACCCTTCTGGAGGGAGATGCACTGTGTAGGCG
1.738342858163743 AGGCAGCTTACCACTGCAGCAGGAACTGAAACCTTTAGCTTTAGGGCTCCAGTTATCACTCTAATCAAGTCCACACGCAAAGAACCAAGCAGAAAGGAAAACTGAAAGTGAGATGTGGAGAGGCGATACCGGAGGCTGTTCTCTCCTAGGCTCAGTTCCTTAGAGAGAGATAATGTAAGCATCGGGTAAGTAGGGGCTGG
1.654984269479847 ACCACACAGGGAATCCTCTGGAGCTGGGAGGACAGAGGAAATGGTTTATTCACATTCCTAGGGGGAGGGGCCTCCTGGCAGGAAGCAGACTCCAGAAGGCAGGAGCGAAACTGGCCACAAGGATGCACAGTCAGTCTGAAGACACAGGCAGTAGCTTAGGATGGGGAGACAGACATTCACAGCCTACTTGAGTCAGAAGA
1.671960199105387 CTGGGCACTAGTTCACTGCTCTGTGTTCTTAAACAGCTCTGATGGAACAAGCCATCTGTGAGGGTTATTTAACTTGGAGCTGGAAGAGGGTGAGGATGTGGAAAAAATAAACTGAACAGCCAATGGATGGGGCCAGAGAGAGAGAGAAGGCAGGTGGCATGTTCATGGGACTGCGTGCCAGGGCCAAGCGGGGTGGGACT
1.237332212189719 ACACAGAGGGTGGGGACAGAGAAGTCAAGTGAAGCAACGCTAGACAATGCTGCCGCATAACGCTGGCTGCTCCACCGCAGCCCTGAAGGTATGAGGAAACCCTGGCGTGTTGGCGGCTGCCTCAGGAACCGCGCTGGCTAAGGGCTTCCCCAGGCCTGGGTGGGAGGCTTGTCACTGACTCTGGCCACACACATAGGCTT
1.641857768756773 ACCTATACACTTCTGCCCACACTCTTCTTGGAAGGAGAGAGGACAGGGAAGTGAAACCCACAGTATGCCAAAAGGGAAGTCGAGCTCTCATTCATAAGACTACTAAGCTCTCTCCCAGGGAAGAGAATGGAGATGGCACAACAAAGGCTCTTTGCTCTGAAATAGCACCGAAGTGAAGCCCGGCAGAGCCAGGGTGTGGA
1.639377875240845 AGAAATGGTGTGACAGTACTCGCTGCAGATTCGCTTACAGGCACGCCAGCAGGACCTTTCACATGCAAATGGGCTTACTCATCACAGCTGTCAGGGTTCTCGGGGAGGAGTTTAAAAGAAAAGGCAACACTTCCCTCTCAGTGAACTGAGGAGTGTGGCTGACCCTGATTAAGTGAGAATGAAGGGATAAAAGACACCTG
1.411699956654604 GTGGCTGTGGCCTACAGTGTAGACAGACTGTGCCCAGCCAGACTAAATGAAGACATATAACCGGAAGTCAGCCACCAGCCTGACCCCTCCCAGTTTCAGGAGGAGACTGAGCAAAACACTATCCAGCTACAGGAGTAGTAGACCAGATGCTTTAACCCTAGCAGCATGGGGTACAAAGGACCCCACATATGAATCAGCAG
1.52312684577972 AGTGCTGGTAGGGAACAGACTGACAGACAAAGCAGACAGACTCTAACCAGGCCTCGCTCTGTTTTCGATGCAACACAAATGTTTTCCATTAAAAGTTCCCTGCCCCACAAACACTCATACATGCAGCTATGAACTCCACATACTCAACTTCTGCTTTTCTGGCACACTGACCCAACTACCTCTCCTGTTCCTCTGGAAGA
2.154650351489007 AGCTCTGGAGTTCCCTAATTGCACAAGAGCAAAGGACACCCCCACGGAACATGTATGCCTTCTGAAGCCATTGCTCAACCTACACTCATTGTGCAATTTCAATCTTCCAAAGTTTTTTGCTGCACATATGCAAACCACGTTTTCCTCTGCATTCTAGAATTAAGAACAGTTTATCATTATTCTCTTCACTTTAGAGAGGG
1.735411689168738 CCATTTGGAGCTGAGTGAGAGCACTGCCAACACAAGCTGCACTATTTAAACAAGTGAGGAAATGATCGTATATACAACATGCCAGCAAGCACACACACACACCAAAGGAAGTCGAGAGGGCTTTTTTTTTTCAGGACACAGAGCTGGATGTCAGCGGCTAAAAGGTCGATATTTTCCCTTAACACCCTTCTCAATGACTT
1.1660865261356 CAGAGACAAGCACCGGATGTGATAGGGCTGCTCAGGGCCGCCTCCGAGGTTAGTGCTGCCCATGGGAGACGCACAGGGAGGCTCTTCCAGTTCCCCGCTTCCTCCCCCAGTGCCCTGCTGGCCACTTGAGCCCGCTGCCTGAGTCTGATCCCACAGCACTGGTGAGCTTTGGCCAACAGGCACTGCTCGGCTGCAGAGCA
1.761286114537294 GGAGGGGACAGGGGCTCCTGCCGTGGGAGAGATCACGTGTGCCCCACACTCAGCACTTGGAGGAAGAGGAACCCCCTGGTGCCAGGCTGCAGTGCTAACGCCCCAACCCGGAGCCAGGGAGACTGGGTGGGGAGCCAGGGTAGCAAAGGGGCTTCCCACAGCCACCACCACTTCCTTCAGGGAAGTGCTGATGGACTATT
1.646728047434759 AGATATATAGCATCAGAATGCGAAGGTCTGGGCAGCCTGGTGAAACGCGGGCTCTCCAGAGCCCCAGCTATGTTTCCCATTATGTAACCCTGGTCATGGGCAGACAGCCAGACTCCAAATGAAAAAGAGACTCTGGCTTGGCACTGGTTCTATTTTCCTATCCTCATTCGGGGTCAGCGCAGTGTCATACAGCTGCAGAG
1.555925864422653 CTCTCTGTAGCCCAGAATGTGAAGCCCAGCCGGGGATGGCTGTAGCTTGGACCACGTGCCTGCCTGTAGATTGAGCCCTTGCCCAAAGATGGGCAGCAGCTCAGAGCCGGCAACGGGCCATTTGCTGCAGCATCCAAAGAGAAAACAGACTCAGCATCTCAAGCAAATGAGACCCAGCACTTCCTGTGTGAGCTTTCCAT
1.524647215946098 CACCCTCCCCATAGGCAGCAGCACTGTCAGTACCGCCCAGCTCAGTCCAGGCCATTGCCACGCCCGGACAACATCCTGCCTCTAACTAGCAACAGAGCCGGGAAGAAGGGAGTAAGTCCAGAAAAGAGGGAGTTGGGAGAAGACAAGTGGAGGCCACATCCTGGTAGCTGATACTCTGAGTAAACATTAGTGCCTCCTCA
1.356225197505228 CTGCTTTTCTCATGAGTCAGTTACCAGTCAGACACAAGGCTGGCACAGTTCCTAAGCAGCCCACCAAAACCTCCTTGTCTACAGGAAGTGGGCAGTGAGAGTATCTTTCAACTGCTGCTGCTTGAGCCACAGAGTTCCCCGTGGCAGCTGCTAGCTGAAGAGGAGGTAGAGGAAGCAGTCGCTGTATAGGAACGAGACAA
1.530990013414052 CCAACTAGGCAGTGATAACCAGGAATGCTCAAATAAGTGACATGTTTCAAAATTGGCTTAACCGGGACCTACTCAAGCGGGAAGGCCAGTCCACACTCACAGAGCCAGAAACACAGCAATGCTTTCTGAGGTCACATGTGCATGACTCCAGTGGAATCTGCATGCAATGCTCAGGGCAGGGTTTGGCGCTGCCTCACGAA
1.523891797402682 AAAAGGTCACTAACCCTGTTTTTGTTCTCAACAGCTCCACGAGGATCCATGCCATCATGGCACTTTGGGAGGCCTGTCACGAGTTACACAGGCCTAGGCTGCCCACACCCCAGCTCAGCAGAAAAAGAGAACTGCAATCCAAGTCAGACAGATCCTGCCTGGACTCTCCGCAGAGAGCCTGGAGAGTCTGACCAGCAAAG
1.693377420758854 CAAGCCATGTTTCAATGCAGACAGAAGTAAACCCCTATAGACAGCAGCGCCTCAGCCTGCCAGGGCCTTACACCAGCTGCAGTGCATCTCGCGCTCTCCCTCAGCCCTGAGTGCAGATGTTCCCCGCAGCATCACTTCCGCTACACTTTCTTTTAAAGAAACAGCGCACACATAGAGGTATTTCTGCCTCTTCCCAGTAG
1.393928745992698 AGTTCTGGGCATCACCCTCTCTCAGGGGAGAGGTGAAAAGAGGTTATGTGGAACAGACAGTGATAACAGGATGACGTCACAGGTGTGCCTCAAAGAAGTCCCTGGTGAGCTGGGCTCATAACTACTCTGCAGTGATTTATTCGACCCTGCCAGCTCCAGCTGGAGAAGAGATGCAGAAAGCTGACACAGCCTAAAGCCCT
1.708190911628598 CACAACACCCCCTTATTGCCACTGTCCAGGCAAGCACAGCACAGCACAGGGGACCAAAGATGATGACTCATGTGCTGGGAAATGGAAAAGTGCATCTTCCCACCAGCCAGCCCTGCCGAGCACTCTGCTCGCCCCTGTCCCAATGGCAGCCCACACAGCGGGGTCTGGATGGCCACCTCAGCTGCACACTGGGTACTTGG
1.546085088413177 GTTCTTACTCCCTGGCAGGCTCCCACTAGGGATATCCCATAGGGAACTAGACTTTTCCATATTGAACAAACAGGGTACATGAGTCCAGAAACAGCTATTCCCAATCCCTGCCAAGCGTATGGTCTCTGCAATGAAACATCTCAGCAATGCCTCTCCCTTGGGAGAGGCTCTGGGTCTGCAGCCTTCAAGAGGCCTTGCTG
1.900248573823441 CGCAGGGAGGCAGAAATCTAGCCAGTGACCTAGGGCTCCTAAGGAGAGGTCATTCAAATCACTCCTTGCCAAATGTGGCCACTGGATCCCAAACAGTGGTGCATGCCTGGAGCTTCTTTGGCAACAGAAACAAACCACAGCTGAAGTCTTCAGAAATAAAAAGCAAGTTCAAGCTTGGTGCTAGAGAGAGTAGCCAGGCA
1.427237327039125 CAGGGTCTAAGGGGTGGGCACTAGGGATGGGAACCAAATGGACATGCCCAAACTCTCACAGACCCAGGGCACATGCCCAACAGCTGCCGCTCAGCTGAGCCAAGATGACAACAGGCTCAGTGAGCAGACAGCACCCTCTGCCGGCAGTGGCACCTGTGTGCAGGGGATGAGGCGGTGAATCCTAATAAGCAGGATATAAA
1.662658800652535 GTCTAAACCAAACCAAGGCCTGGAAATTCTGACGGGTATCTGGGTCCTGACTTTCCGGATGGTAACTAAAGGTCACGTGGGGTGGAAAGTGGCCTGTGGGTAACACAGAATATACACACGCACGCGAACAGGATATGCTGGTAATCCGGCTTCCTGAGACCTGGTGAGTTTTGAGAGTTCTCATCAACACTCTCGGGGAG
1.547250128266409 TAAAGATAAAGGAAGCGTACATGAGAAGGGAAAAGACCATCAGGGAGCCTCAAGTGGTTTGTCTTCCTTGCAATCAGTGGGAAGTATCTGTGCCTCACAGCTGTATGAACCAGGGCACCCAGGCTTACTGAGCTAGTTTGGCTCATTGCATCATTCTCAGGAACTTACATCACTGGGACTCAGGCTGCCCAGCCCATTCT
0.8847791916710511 CGCTCGCCCACCTCCCGGCCTTTCCCCGCCCCCTGCCGCCCTCCCTTTCCGAACGACGGTGGCCGCGCTGGGAGGAAAAGCGCCCGCCGCCGGTTCCAGAGGGGCGGGACCGGAGCGAGAGCCTGGGTGGGGCGGGCGGGCGCTGCGCGTGCGCAGAGGTGCGGCCGGGGAGGCGCGCGGAGGCTGGAGCTGGAGGCGCG
1.163116298704838 AGCTTTATTCTGCTGCTTGAGCGGGCCGGGGCGGTGGGCCGCCATGCCGCAGCGCGCGTGTACGGAGTCAGCACTGCTTCCGGGCCAGGACAAGCGCTTCCGGTCCCCTCCAAGGGGGCGGGCCCTCCAGGGAGCGGGACTCCCTGCGCCCTCTCGCGAAGGTCTTTTCCAGCAGCTCGTGAGAGCGCCGTGTTAGCGGG
0.9222287701542234 CCTCCATGCGGGAGCGGGTGCGTTGCCATGACAGCGACCCCCGTGGCGCGCGCCCGGGTCTGCCGCCCCTAGGCGCGCACGGCCTCTCCCCGCCCCGATCCCCCGTCGCTGTGCGCAACCCCCCTCCGGCTGTGGGAAGGGGCCGGGCCTGCCGCCTGACGTCTGTGCGGGGCTCGGAAGATGGCTGCGGAGCCGAGCAC
1.542999087284139 CGGGCTGCGCCTCCTTCCCCTTTCTCGGATGGGGGAGGGCAGCGCCCCTCTGCCCGGGGGACCCGGCCGGCGCTCCCGGCTTGTTTGCTTCGCAGCCCCGCAGCTCCCCGCCCAGTGACGGCAGCGGCGCTGGGAGCCCAAGGCCGGGGGAGGGGTGGCGGCGATGGCGGGGATGGCTGGATCCGGAGCTGCCCATTCAG
1.702034897018301 AGCCTGCCTCCTCAGTCACCAGATTCCCTGCCCTGCTGTGTGCAAGTGGGTCAACATGAGGGTTGCTTCAGACTGAGGATGAGCTGTAATTCGAGAAGGGTGGAATCTGTGGAGCCGGGAATAACATCAGGCTTTATTAACCAGCTCCCTGTTGCTAGGCAGCTTTCATTAGCCAGGAAGGTCTGCCCTGCAGTGAGCTC
1.386040976203806 GAACCCACCTCTGTCTTGCTCCAGACTCTGTGCTGCCCAGGGATTGGTCTGCCTGTGAGGCCTACCCAGGAGTAGAGACTAGAGGGGCGGCGGCATTGAGGAGTTGGCCCTCATGCAGACGAAGCTCTGGTCATTGAACTGTGGGCTTATGGTGTCCAGAGACACTCTAGGAGACTGTGGCTTCCTTACCCAGCCAGCTG
1.486917970542897 TAGTTCATTTCTGTGAGCTCCTGAGACACCTTAGCTTGTCTCAGCCCTCTGGATCGTTTCTCTAATCCCTGCCCCGCTCAGGTCACCTGCTGCTGCCCTAAGCAGAGCCCACATGCGCCCCCTAGTGGTGGGAAACCAAACGATTCCACAGATCCTGTTTGTTGAGGGAGGAGGTGAAACGAGATGCCCACGGGCGACCC
1.861386111108744 ACTCAGCAGGCTGAGGTAGGAGGATCACTTGAGCCTGGGAGGCAGAGGTTACGGTGAACAGAGATTGTGCCCACTGCAGTCCAGCCTGGGTGACAGACTGAGACTCTGTCTTTAAAAAAAAAAGCGTGCAGTGAAAAGTCTCACTCCTTTCTCTGCTCTTATTCACCCACTTCCTGTCTATGTACGAGTCCCACACAGGT
1.665457666221747 TCCACCCTGGGAGGTGGGGTCACAGTGGGGACCTGGGGAAGGAAGGAGTAAGGGGAGTAAGGCCCTGGAGTTCTGCTTGGTGCTCTGGGCCTCCAGTCAGAACGGGGGATAAGCTTGGGCCGTCATGTGGACTCTCCCTGGGGAAGGGTCCTTCACCGTCCCGTGTCTGTGAGACACGTCCCCGGGGAAGGAGGACACTG
1.652380712907401 AGAAGGAAATTAGGGACCGTGGGGTAAAGGGGGGACTGAGCGTGATGCCTGGCTTCTCTCAGTATTCCTTAGTTGCAGTAATTGCTTAGGAATGCCTCCTCTCACCCGAGAGAACCCCATGGCTGTGCTCAGAGGCTGGCCGGGAAGGTAGGCGAGGCCACCCCGATGGGAGTGCTGGGGCCGGCCACTCCCCAGTCCCC
1.714421812578598 CTGGGCTCCTGCCCCACTGCACCTGCACCCTCCCCTTCTTCCCAGAGTCTCAGGCATGGCTTGCAACGCCCTCACTCCCAGAGCCGCAGCCCCTCCTCACCACGCGTGTTCCCTTAATTTGCCTCCTGGTGGAGCTGAAGGGCCAGATATCTGCAAAACTCCCGGCCGTGGGTCTGGGAAGAGAGCCCCGGCCAAGGCAG
1.204408089401874 GCTGCCCCTGTGGGTGTGGCTCTCACCCCGAGCACTGTCTGAGAGGCCGGAGGGGAGTGTCAGGAGGAGTCAGACCCTGCTGAGCTATAGACAGGCCCAGCTGTAACGGGTCTGCACCTCTCTTCCTGCCCTTCCCCAACCCGAGTGCTACTGGTCCCATCGTCGATGGCTCCAGGGAGAAGACACCAGTCACACAACAT
1.272873713248417 TGGGGAGGGTCTTCATCTGTGTTCCCAGTGGGCACAGGGCCTGGCACTGAGCATGCACCCAGGAAGGGTTAACCCTCACCCTATCCCTTCCCTAAAGCGTCGCTTAGTGAGCTAATGGAAGTGACCCAGCTCTTCCAGGAGCTACCAGCAGAGGGAGCCCGCGTCTCACAAGTAAAAAGGGCAGGCTCAGTAGGGAGGGC
0.7730829422270515 GTCACCCTCGCCGGCTGCACCGCCCTCCGCGACTCGAGAGCACCGCCCCCGCCCGCTGCAGCCAATCCGCGAGCCCGGCCCCGCCCCTCCCGGCTGCCCGGAAGCGGCCTGGAGGCGCGCCAGCCCCGCCCCCTGGCCGGGAGGGCGGGCGGAAGGGCGCGTTGGCGGGAGGCTGGGAGAGAGCTGCCCCCCTGGAGCAG
1.164496810452594 AGGCCCCCTGGGGAGGAGAGCACCCACCTCCCACACTCTTACTGGCTCAGGCGCCCCAGAAAACCTGAGGCCTCAGGCCCTTTGGCCAATCAACAACTGGAGTGTGAGCCAGGCCTGCTCCCAGCCCCGCCCTCCTGCAGAGGGAAGAGGCCGAGGAGGAAGCGGAGGGGGAAGCGTCCTGGGAGGGGAAGCCTCAGTGG
1.052070639117305 TCCCTGGGAGGTGCCCAGAGGCCGGGGCCCGGGCCCAGGCCCAACCCAGCGCAAGGCCCCTTGCCAGCCCCGCCCAGGCCCCGCCCCCGGCCGAGCGCGAGGCGGTGAGGAGGGGCCGGGCCGCGCCGTCCCCAGCAGGAGTGTCCCCGGTGCACGTGGTCGGGGGCGGAGCCCGTCCACGTCACCACCCGGTGTAACCA
1.158405197746438 ATCCGCCCCTGGGCGGAGCTGCCGGCGACTGGAGACTGTCAAGAGAACCAGCGGAGGGAGCGGAGCGGCAGTCCGGCTCCGCGTTTTGTCTCCGTTCCTCCCCCCGCAGTGCGTTCGCATCCTATTAGGGGACGTCACCGGGCCGCGAGCCAATGGGCGGGCAGGACAACACGGCATGGAGCAGCTCCACATGGACACCC
1.406140418348169 CAGCCACCGTGGGTGTGGACACTGAGTAATAAGGAAAGAAATGCAGTTCAGAAGCAAAGAGGGAGGAGCCAGGTCCTCTGAGCTCTTCTGAGAAACCAGAGCCCAGTCGAGCTCTGCAGCTAGAGTGGCAGCTGCGGATGACAGTGGGTCAGAAGCTTGGTGGGAGGAGGCTGACCCAGCGGAAAGGCACAGGAGACGGA
1.203657090954565 ACTCCCCTTTTCCCAGCAGGAGACACAGTTTCCAAATGGCCAGTCTCTGGGCACAGGCCCCTGCTCACCAGTGTCCCAGGAGGGGGCCTGCTCAGCAGTGCCCTCTGGGCCACATTCTCATTCTCTCTCTGGACAGCAGCAGCACAAGCTGCCATTTCCCTGGGGCCTGACTGGCTCCTCGAGCCAGCCAAGTGCCCCAG
1.725316184405549 AAAACACCGTGGACAGACTTGTCTCCATTCCCACGGGGAAGTGAAGGCGCTTTGATAAAAGGGCCAAGGGTGCCCTCGTGTGGCCACGGAGGGAAATGCCGCGGCTTCAGCAGAAAGGAGGGGCTCCAGGAGCTGGTCGTGAAGTCATCAGCTCCCTTCTTTCAAAAGGCCTCGGATTTCCCACAGGCTTTTCCATCTTT
1.753349196126245 AGGAAAGGTAAAGGAACTAGTTTGTAGCTCTCACAATTTACCCAAGAAATGGTATTGTGAGGAAAAGAGGAGGAATAGGACGTCAGAGAGAAACCAGAGACCAGAAACTCTGCTCCTCCCACTGGCTTGCATCTGACCCTTTTGCTGAGAAGTCCTCTGACTCACACTAAAAACCAGAAACTGGGAGGAAAGTGGAAGTG
1.964248957494579 GAGTTTGAACTAGTCTGGGCAACACAGAGAGACCTTGTTTCTACTAAAAATTTAAAAATTAGCTGGGCGTGGTGGTGTGTGCCAACAGTCCCAGCTACTTGAGAGGCTGAAGTGGGAGGATTGCTTAAGCCTAGATGTTTGAGGTTGCAGCAAACTATGACTGTGCAACCACACTACAGTCTGGTTGACAGAGCAAGACA
1.52062814088104 GAAACGCAGATGATACGCTCCCAGCGCGCCGCCATCTTGTGAAGCCATCTAGCCTCGTGATTGGACACATCCCTCTCGCGCGACCTGTGGCTGATCTTGAAGAAAGAAGAAACCCTCGCGACACCTGGGGTTTGCTGCTCCTAACAGAAGGCGCGGGGGCGTGGTGACGAGCGGAGTCCTTTGAGGTATGGCAGGAGGAG
2.008104852126317 AAGGGATAATGAGTATACAAAAGTAAAACCACGGTGCCTATTACACAGAATGTGCCTCATACAAGTTAGTTATTTTTATGTCTACTCTGTACCACATGCAAAGTAAGGTGCAAAATGAAACCATAAATGTTCTAGAAAGAAAATGAGTACTATTATGATTGTGGGTGGTAGAGGACTTCCTAAATATGGCCCTAAGGGTG
1.813358145030541 ACCGCTCAGCCGCCCGCCCGCTAGAAGGCAGCGCGGCCCCGGCCCGGCCCAGCCCGGCGCATGCGCCGCAGCCCCTCCTCCGCTCCCGGCGCCCGCCCCTCCCTCTTCCTGGCGGGTCTGGGGCGGCGGCGGCGGCGGCGGCGGCGGCGCGGTGACGTCAGGGCGTTGGGGCAGCTCCTGTGACAGACGGAGCTGGAGCG
2.529436623356591 TCGTGAGGTTGTGGTGAGCTGAGATTGTGCCACTGCATTCCAGCCTGGCGACAGAGTGAGACTGCCTCGCCAAAAAAAAAAAAAAAAAAAAAGGAAGCCTTGGCTGGGCGTGGTGGCTGATGACTGTAATCCCAGCACTGGGAGGCCAAGGCAGTCAGGTCACATGAGGCCAGGAGTTTGAGACCAGCCTAGCCAACACA
1.729100519562998 CCAGGCTGAGATCCAGATGATAGGGCCCCAGGGGCAGAGTTCTAGCGTTAGTATCACTATCCAGAAATGCTGTTAGCTGTTCAAAACCTGGCAAGTAACTCGCTGGCTTGTAACTGCCTCAAACCTCCTTCCAGGAGTCATGACTGTGTATGGCCTTTGATGCAGGGGGAGGGTAGCTGGCTGTGGCAGCTCTGTCCCTG
1.072075394309473 GAAGGACGGAGTCACCGGCCCACGTGGTGCGCGCCGTGGCCTTTGACCCCGCCGCCGTTTCCCTGCCCCACCCTCGCGCCCGGCCCAGCCCACGGCGGCCCGCGAGGGACAAAACGCGCCGCGCCTGGTTCCCCGCCCACGGACGCGGTGACTTTCCAGAACGTCTTAAAGGCAACGCACTCTGACTCAAGGCCCAGGGA
1.907170305510306 AAGGGAGGGGGACAGAATAGGGGTGCAGTGAGTTACACACACTTGAGGGGGGACAGAGATGGTACAGGCGCAACCACAGGACTAGTAGAGAGTAGAGGTGGGGGCAGGCAGAGCAAGGACCCCAGGCCACCTTCTTGGCCCAAGTTGGACTGGAGAGCACTGTCCCAAGGGTGCCCCAACCTCAGCCATCTGCATCCCAG
1.123301550424328 GGGCTCGCGGAGCTGGCTTTGGCTGGTAGCTGGAAGGGCAAACTGGGGAACCCGCCGGTGCCTTGGCGCGCAGGGGCGCGGCGAAGGATCAGCACCGCGGACAGCGCCCAGGCCGCCAGGCCGCGATCCGCTCCGCCCCTCCCGCCCTGGCGTAGGAAGGAGAGGCAGCGCCCGCAGCCGCGCAGGCAAGGCTTGGGGCG
1.192316759649222 CGGCGCGAGCCGGTACTGCGTTCCGGAGGAGCCATCCGGCGTCACAGGCTGTGCTGGGGAGGTGGGGTGACCGTCCTCAGAAACCCCCGCGGGCGGGGCGCTGCACACACGTCCACCTATAGGGTGTGTGTGCGTGCGTGAGGTGTGCAGCCCCTGTCAGGATCTGGCGAGAGAAGCTGACCGGGATGGAGGTCAGAGGT
1.304455684708203 CCTTCAACCCCTTCCGCCAGAGGGCAACATGGCTGCCATCCTAGAAACAAGCCCAGGAAGACGCTCCCTTTCCTCCTCGCACCACCCAAGCTTGCCTGCAGAGGGCGCAAACGCCCACCTTCTGGCCGGTCCTGGGAGGCGCCAGGTGCCCCGCCTTAGCAGGGGAGGGCGGGAGTGACCCAGCTGGGTGGGTGTGGGCA
1.66922694284681 CTGGCTCTCTTGTGCCCGCAGCTCATCCTCCTCTCCCCGCTGGCTGCTGAGAGTCAGCTGAGCTCTGGGAGGAAGCTGGGCTGTGCTTGATGGGGCCAGGAGGGCTGGGCCTGCTTCACAGACCGCTTCCCTTTTCTCTCTTTTTTTTTTTTTTTTTTTTGAGATGGAGTCTCACTCTGTCACCCAGGCTGGAGTGCAAT
1.270815595463128 TCCGGAGCTGTGGGTTCCTCTGGGTGTGGGGAAGCTGCCCTCCACAACCTCCTCGGCCTATCTTGGTGCCTCCTGGAGTGCAGGACACACCTCCCAGCTCTGCAGCCTCACCCACAGGAAGCTCGGGTTGGGGGCAGGCGAAGAGGGAGGTGCCACGCTGGGCTCCCCGCCCTGCACCGGCACTGACCCCGCTGTACCAC
1.403928255089449 TGGGTTGAGAAGCCTCTGAGTCATGGGGGGGTGGTTCCTCCTGTCTCCCGGTTCAGGCCCATTATCTCCTGCCCAGTGACACAGGCTTTCTAATTAACCTCCTCCTCCGGTCTCTGCCAGCTGTGACTAACTCTTCATCCCTCAAGCTGGCTCCAGCTCTGCCTTCCCTATTACTAGACGCTGGCCCGAAGGCAGACCTT
1.803359345913454 GTGAGGTGGCTGTCCCCTCCCTACCTTGGGTTGAGCTGTGAACCAGTAGGTTACCGCAGTGTGGTACCACCCCCCCCAACCCCAACACCCAGCTCATTCTGAGAGGGTGGAGTGGGCGGAAATCCGTGCCTGGCAGACCACAAAGCCACATAACTGACTTTTGTAGCCCTGCCCTGGGGTGTTGGGGGGGAGGGTTGACG
1.432441891128987 CAGGTGTGAAGATGAGGAAGGAGGCCCCTGAAGAGCCGGCGGGAAGAGCGGGTGGATGGGAACACAGTTTCCCCGTCCGCCAGCAGGTGGCACTGTTGGCCCAGGACTGCCCGGGCATGGCTGGGAGAGCAGGTGGGGCCGCGGGTTCTTTGACCTCAGGTTTGTGATTCTGGCTGTGGGCTCATCACAGGCTCTACCTC
1.565316632658952 GCCTTCCTGCCTCCCTCTTCCCCCTCCTCTGTCTTCCTCCTAAGGGGGCATCCCAGAGACGCAACTGTGCTGTGGCCCAGCAGGGGGCGCTGATGTACCTGCCAAGAGTGGAGGTGTCTTAGCACAGGTGTGAGCGTTCAGCTGTGTGCGAGCGGGCTTCAGAGTGATATCCCAGAGCAGGTGTGTGTATGTGTGTACCC
1.434810707205955 GTGCGGGCGGGGACCAGAAGGAGCGGGCGAGGGGAGGCAGGGCCGGGGCCGGGGAGGGCGCCTGGGAGCCGGGCAGGGGGGTCCCGGGAGCGCTGTCCGCCTCCTCCTGCGCTTCGCCCGCTCCCTGTGCCCCGCGTCCTCCACCATCCGGGCGGCCGAGGCCGGGGCGCGGGAGGCGGGGCCGGGGCGGGTCCCGGCGC
1.720703403028098 CAATGGGGGGAGGGGAGTGCGGAAGCTGACTGCCCACAGAGATGTTGCCGGGATCAGGATTTGGGGTAGCTTCCAGTGACCCTGCTGGATCCTAGTTTCCAGAGGAGTTTTGGAATGGTTAATACCGCACCCTATAAGACACGGGCAGTGGAACCAGAGACACCTGGGGGTGACCAGCAGCCCCTGGATATGCCCACAGG
1.653347756389204 CACCCTGGACAGAAAGTGAGTCACATACGCATCCCTGAACTTTGGCCAGAGGGGTGGGATACACTGATTCATGAAGTCTAGGTCTTACGCCCACCGCTGGTTCCCGGGATGCAGGGACTTGGCTGGGAGTATAGGAGGGATGGGTCACCTAAGGAAACCTGGCATGTTGCTCTCAGAAGCTCAGGGGATGGAAGCTGGGC
1.245150638466026 GGCCTAGAGTGGGGTAAAGCTGTTACCTCCCTTGGGAGTCGGCTTTTGAGCTCTGGGCATGAGTCAGCCCTGTTCCTGATGGCCGCAGGATGATTGGCAGAGAATCCCAGGGTGGCTGCCTCATGGCCTGGGGCCTCGCCAGCTGGGGCTTCAAGGCTGTGACCCAGATAGGGAGGTGGGTGACCCTTTCTGCCTATTCC
1.512128606118753 GGTTGTTCTGTTTCTAGTGTTTTGAGGACCCTCCGTGCTGTGTTCCATAGTGGCTGTGCTCACTTACGTTCCCACCAATCGTGTCTCAGGCTCTTGAGCAGGGAGATGAGGTCAACCAAAGCACTGATGAACCAAATTGCAGTGGTGATGAGCCGGGTGCCAGCTCAGCCGAGTCCTCCACCTCTTGGGGTCTATGAGCT
1.282551925840778 TTCCCCAGGCTCTGCCCAGCTGGCCCTGTTGTGCAGCCGTGGCTCTGAAGGCTGATCCCATGCCAAACCGTCTGCTTGGTGATGGGACCGCACACAGCACTCCCCGGTCACCAGCGAGGGCCAGATGGAAAGTGGGGAGTGTGTGAGCGCGGCAAACTTGTCGCAGTCATGTTGCCATGGTGACACAACTCTGTTTAGCT
1.637467369646333 TCTGCATCACCCCTCCTCTTCCCTGAACCTAATCTTTTGCAAGATGACAACCCATAGGAAGCAGATAAAACCCATCCATCTTCCTGTTGTTGTCCTGTATCCGATACCCATCACATACAGAGCCATGTGGTATGCCTCGAGGAGCCTGTGTGTTGAGGGGTAGCCAGAGCCTGCCCTGGGTGGGTTAAGTGGTCAGCGGT
1.512306413519602 TGCCTTGCAGTCAACTGCCTCAGCCTCATCCATCGCTGGCTGGGAGATGACTGGGAGCGGGATTGTCCCAGCTGTGGGTCTGGACCTTCCTACAGTGGCTCACCAGGCCCCCTTGTGGCCAATACCATCAGTACCACGTGGGAGCCTGTGGCTGGGGCTGGGGGTCTGGGGAGGGGTGACAAGCCCACCAGCTGCTCACT
1.125399825208504 ACTCCTCAGCTGGGCTTCCGCCTGGCCTGGACGCTTGGAGCTGGCCAGGCTGCGGGTCCTGCCCTCTCTTCTTTGGGCTGTGGTTCTGGGGACTCTGTGTCCTGTCACGGAGCCTCAGAGTGTGGTTAGTGTGAGGCCCAGCGAGGAGAGTGTGAGCCGTGGTCCTCTGCTGCCAAGCCACACTGTCCCTGCAGGCTCTG
1.256550528692387 AGTGCCTGCTATGTGCCCTTGGCTGTATGCAGCCATCTCAGGGTGTGTGGATGAGGGTGTGTCCGAAAGGCTGAGCTGCTGTTCCCGGCTGGCCTGAGTCACGCTGCTTCTGGGTGGAAAAGGAGACTCACTCCCTGCCAACTGTCCCATTGGAAAGTGCAGCAAGTCGCTGAGAAGTGGGGCCGGCCCAGCCAAGGCCA
1.31923449902692 CTCCAGGCAGTTCTGGCCCATGGGTGCCTGCAGAGGTAGGAAGAGTGCTTGGAGGCCCCACCTCTGCCTGAAGAAGAACCGAGGACACTGTTCCTCATCCCTGCTTTCTTTTCTCTCGTCTTCACTGGGGACTGTCTGTTCTGGGCACTCATGACCTCCCGGCTTCGCGGTGCCCAGATGTGGGCAGTGACATTAGTCTG
1.255056364166364 TTTGGACGTTCTCCATGGCCTGGTGCCTCTCCCTGGCAGGGCAGCTGTTCCTCCCCTGTGACTCACCCAGGCAGGAGTGGAGGCTCCAGGGTCGGGCAGCAGCGCCGTCGCTGGGGGAGCTGCGAAGCGTCCGTTTCCCCAGACAGCTGACAGCTGAGAGCCTCACAGAGACACACAGTGTGTGGCAACCTCACACAGGC
1.55015413033597 TGATGTGATGGAGCCAGCTGGGTGCGTCTCTTCACAACTCTGTTCCGTGACATCATGTTGGCAGCTTGAAGTCAACCATGGTGGAAGTATTTACACTATGGAAATTTGCAAACACCAGGGTTTCTATCTTCCTCCTTTGGAGAGCCAGTGACTCAAAATATGCCAGCACACCACTGCTCAGCCTCTGTGTTTTGTAGCCC
1.587278083263574 CATATATGCCTGGGAGTGAAGTTTCTGGATCACATGGTGACTCTGCGTTTAGCCTTTGGTATATGCCCGGGAGTGAAGTTGCCGGATCATATGGTGACTCTGCGTTTAGCTTTCGGGACCTGCCTGGGAGTGCTGTTGCCAGATCATATAGTGACTCTGCATTTAGCCTTTTGAGGAACTGCTGGACTGTTTTCCACAGT
1.76349011364919 ACCTGCAGGCTGCTAGCCCTGACATCCTGCGGGAGGGAAGGAGGCGTGCTTGGGTGTGTGTGTGTGTGGTGGGTTGCAAGGTGCTTTGGGGAAACTCTATTTCAGGAGCCCTTTACTGGGTGCAGGTCAGCAGGGGAAGTGAAAAGGCCACTGGGCGACAGTGGTTACCCCTTACCAGCTGCTTGCTCATGCCAGGCACG
1.150150314555314 ATTGACCAGCTCTCTCCCGCTCCGTTTCCCCTCCGGACTCTGGCAGGGCCTTTCCTTGGCTCGGTGCCCAGCTGCCTGCTCACCCGGCCTGGCAGACTCTGCATCTGCTCCACTTCACAGGCCGGGGAGGCTGGCAGCACGCCAGGGCTGGGCTCACGTCAGCGGCTGTGTAGGGAAGGGAGGGCAGTCTCCCGAGAGCC
1.539434606954638 GGCTGTGATGGACCCGGGACCGTGGCAAGCTGGGAGTTGCCAGGTTCATTTCTCCCAGCCTTTGAGGGACTGTGATAGTTCATGCCTTGGTCTGACCTGACCCCTAGTGGCAGGAGGGGCCACAGCTATCCCTGGCAGTCTTTGTGGCCCCGCAGTACCTGCAGGGAGGTACCTGTAAGCCGGTCCCCCTAGCAGTGCCA
1.307304823100805 CCTGCCTCTCTCCTCAGGGCAGCCAGCCGTCCACGACCTCACCCTTCAAGCAGGAGGTGTTTGTCTACAGCCCGTCCCCGAGCAGCGAGAGCCCCAGCCTGGGGGCAGCTGCCACCCCGATCATCATGAGCCGGAGTCCCACAGGTCAGTGGCATCTGGTGGTGTGTGTGACGTCACCAGGAGGGCAGGCTGTGCCCTGT
1.148689547955588 CCCCTGCCTGCTTTGAGGGGGCACGTGGTTTGAGCAGAGTGGCCGTGGGTCCAGCTCGCCCCCATCAAGGCCTGGATTTCTGCTGGGGAAGTCACCAGAGACCCATCTGAGCTCCCAGCCCTCTCCCCACATGGGGCTTCAGGGGTCAGAGTCACAGCTGGAGCCAAGAGGAGGGGTACAACCGAACCCACTCTGTGTTC
1.36448747037979 CTGCGGAACCACAGGGCGACATCCAGCTGCGGGCGGCGAAGGGAATTGGAGCGTGGACCTCTCCAGGCTTTTCATTCGCTGGTTCTGCCGGTGTCCCGCCTTTTCCATCTCCTCATTGGCTGTCGCCTCCGGGCCTGCGACTTTGCTCAGCCCCTCCGGGGAGTGGAATCGGGTGTGCAACAGGCCGTGAGGTCCGGCTT
1.654295384120101 TCTCCTACACAGGGTGTCTGACACAGCTCTACTTCCTGGTCTCCTTGGTGGCCCTGGACAACCTCAACCTGGCCGTGATGGCGTATGATCGCTATGTGGCCATCTGCCGTCCCCTCCACTATGTCACAGCCATGATCCCTGGGCTCTGTATCTTGCTCCTCTCCTTGTGTTGGGTGTTCTCTGCCCTCTATGGCCTCATC
1.745668332787516 GGGTTGGTGGCACGGTCTTAACTGGTCTCACTAAGATCTGGAAAGCAGAAGAGGCAGGAGTGAATGAGAAGCCATCCGGGCAGGCTGACTGTGCAGTGTTTAGGTGGGACTTTAAAAGCAAGAAGCCGGCATTATCAGCAGTTCCTCAGCCTCTGGTGAGCACTGACTAGGGAAGTCAAGGGAAAATGTACTCACAATCC
1.702875829659076 ATCTGGCCATCTGCCAGTCCCTCACCTACAGCAGCCGCATGAGCTGGGGAATCCAGCAAGCCCTGGTGGGCATGTCATGTGTCTTTTCCTTCACCAATGCACTGACCCAAACTGTTGCCCTGTCTCCTCTTAACTTCTGTGGCCCCAATGTGATCAATCACTTCTACTGTGACCTCCCACAGCCCTTCCAGCTCTCCTGC
1.472371143792961 GAAGTCCACAAAGAACAGCTCCACATGGGGTGTGAGGCTCGGCTGCCACGATCCCTGAACCTACTGTCCTGGAGCAAATCTGCTGGCAATTCCAGCCCTTCCTCTCCTCCCCCAGGTTCTGGGTGAGGTGGGACCTCAGAGGTTGAGGCAGGCCTGGAGCTCAGGGAAGGGCACCCGCAGCTCCACTTCACTGCTCACAG
1.331640430583489 AGCTGCTATTTCTGCTTCAGCGAAAGCCACGATCCCAGCACACAGGCACGCGCTACTGTGAGGTCAGGACGAGGAAAAGAGCCAGGACCTTTCACCCAGATCGCGGCGGCCCAGCAGGACTTGCCCGGAGTGTCTCATGCAGACTTTTGTGTGTGTGAAGAAAAGCTTTTTGTCTTGCTCTGGGCACCCTGAGGCCAAAT
1.333288583194373 AGGTTTACACCAGCTGTTTGCCAAGTAACAAAATCCAGGATGTTTCCCACTCAGACAAATTGACAACTGCCCCTCAGTTCAGACACCCACTGAGCACTGAGCACGAGGGTGCACTCTGCTTCTAGGCCAGCAGAGCCGGACTCCACCATCCCTCAAAGCCTCTCTGCACAGAGTCGGTGACTCCGCCTGCAGCGCCAGAC
1.534921264007281 AGAACAGGGGCTTAAGGCCAACAGGGCTGGACCAGCCAGAGGCTGGCTGGGCCCAGGGGATACACCCGCCCAGAATGGGTGGAGACCTGCCTCTGCGCCTGGCGCCATGGCCCCTGGGCCCCGTCTTTATCTGTGGAATGCGCACAAAGCTTGCTGTTCCGCCCATCTCACTGGGGGTTGTGAATACCAGGGACAAAGGG
1.554129317201416 CCTCCTTCTCTGGTCCACCCTGGTGTCCTGCTCAGATGGACATGCCCAGCCTCCTCCCCTCCTGCCCCTCTGGGGCACCAGAGCTTCTTAAGGCAGGGACAGTGTGGGTGGAGCTCAAAGCGGGGTGGCCCCTCCCTTCCTCCCTCCTTCCTTCCTTTCTCTCCCTCCGCCCTCCTTCCTCCTCCCTTCCTCCCTCTCCC
1.347492227175414 CCCTCCTCCCAGACTCCGCACCGGGCGGGGGCGGCACCCACCGAAGTAGAAGCCTTCGTGTTGGTACTTGGGGTTGAAGAAGGCCCCCTTGGCGTGCGCGTTGACGTCGGCGCCGGCGGCGATGAGCAGGGCTGCGATGTCCCCCTGCCGCCGCTCGATGGCGATGTTCAGCGCCGTCTGCCCTGCGGAGCGGGCGGGGA
1.55859587063698 CTCCTCCGTCTCCTATGCTGGCTCCTTGCTCTCTGTGGCCCATGGGTGACGTATCTGAGGCCTTTTGCTCTTTGCCCACTGTATGGCTTCCCGCTGTCCACCCCCCTGCTGCCACCCTGGAATCTGTCTCCAGCCTGCCCCCTCCTCGTGGCCTGCAAATAAAGCTCATGGCCTCCCCATCAACCTGATACTGCACTGGT
1.132788966887538 CTGAGGGAACACGGAGGAAGCCTGTTAGGGCCGAGCCAGGCAGAGCCTGTCTGCCTGTGTCCTGCCTCCTGGCCCCAGAGGGTGCCCCCATGCTGAGCACACACCCTGGCCAGCTCTGAGCCCAAATGGCCTTGCCCAGCCCTCCCGGGAGCCCTCGGAGATGGACACTGTCATTATCACCTACGTTTCACAGATGGTCT
1.339826597305114 CTCATTGCAGGCAGAGGGATGGCTGGAATGAGGCGTCAGAGGCAGAACTGGCTGAGCCACCTGCCCTCGGCGCCAGGCAGGCCACGCCCACCAGCCACAGCTGCAGCACCCGCCCACCCACGTGGCCCGTGTGAGTCACCCCCACACCCACACAGCAGCCTCATCCCCACCGGAGAAAAGGCAGGGGAGGCCGCAGGTGC
1.209735875188503 GTGGGTGGAGTGAGTCAGGATGGCCGTGTGTGTCTCGCGTCACTCAGGAACTGCACACCTGCTCCCCGGGGCGAGATGTGGACAAGACACAGCTGGGACAGAGCAGGAAGTCTCTGCTGACGCGGCCGCAGCTGGCGCCTGATGGGCAGGGAAATCCCCAGCTGTGAGCCTCTCAATCCCTCATCATCACAACCTGCCTG
1.197796062306109 CAGGGCTGAGGAGGCAGGGCAGCCCATACAAGGAGGCAGGGCGGGGCTGGGCTGCGTCCCCTGGGGCGCTGAGGACAGGTGCCTGGGCTGGAGGTGCTGGCACAGCCGCCTGCACGGGCCCAGTGAGCCGTCAGCCATCAGCCGTCAGCCGTGACAGCATGAGTGAGGTGCTCAAGTCAGCCCGTGACTATGTGCTCATG
1.268940117506375 ACTGTATACAAGGGGCACAGCCCAGCCAGCCCAGACCTGTCCAGGTGCCACTGGTGCCTGCCGGGCCTGGGCAGGGCAGCCCCGGGAGTGATACGGAGGCCCCAGACCCTGCCCTGAGGAGCTCACAAGGGGCAACATAGGGTAGGGCTGAGAGCAGGGCCACGAGTGAGACTGCCTGGGCCAGGTCCTGGCTCTGCCAC
1.737071786846547 ATGACCACGAGGTAAGCGGGCTCTGAGGAGACCCACTGGGGCCCAGGGAACCCACCTTCTCTATCATGACGGCATAGATGCCCATCTGCTGGAAACCGCGGGTGTAGTAGAGCATGTTGGTCCAGCCCAAGGCCAGGGAGAATACCATGGAAGCCACATACTCCTTGAGGTGGCTGAAGTACAGCACCACGGTGGCCAGC
1.356540907912501 CCACTCTCTGGGGCACTGCCAGTCACTTGTGGCAAAGGGAAGGGTGTGTGGCAAGTAGCTCACTGGCTCCTAAAGACCTCTGCCCAGGAGTGACAGGCATTCCCTGTGCACGTCCCACTGGCCGAAGCGGATCGGGGGGAAGGTGCAGCCCTGCCGTGGGCTCATAGCATCGGGATACTGACGGCCAGCAAAGGAGCCCC
1.488792361609683 GAAACCTACAGACTGGGCTCATGGTCACAGAGAAGGGAGAGCCCACCTGGGGTCTGGGCGGCTGTGGAGGAGCAGGACAGCATGGCTGAGGCCCCTACCCAAGGGCTCAGGGCTGTGCTTACACTGGGCCCATCCATGCCCCGTGTCTGGGACAGGCCAGGGGCACTGGACCCTGATCCTGGCCTCTGGGAACCCTCCAC
1.304500707124849 GGGCGGGGCAGGGGCGGGGAGTCGCCTGCCAATCTTTCAGCCACACCCAACATGGAGGCTTCTCGTCTTCCCACTGGCCGGGGAAGGCGAGCTTCCACGCAACCTCTCGGCGGGCCCCGGCTATAGGCGGAGAGGCGGCGGAAGGCGGGACCTAAAGGGGGCCCCGCCCCACGGGCTCTGATTTCCGCCCAATGGAGGGC
1.549192841609519 CTGTCTGGCCCAGGCCTACATGAACTTTTACTACAAAAGCACTGAGGGCTGGAGCATTGGCAACGTGCTCCTGGACTTCACCGGGGGCAGCTTCAGCCTCCTGCAGATGTTCCTCCAGTCCTACAACAACGGTGAGTCAGCCAGCGGGCTGCTGGCCACCCTGCGGCTGGGGCATCGGGCGGGGCCAGCCTTCCCGGGAC
1.297175925196933 CAGAAAGAGACCGGGGTATGACCAGCTGAACTAGCACCCAGGGACCCAGTGTACCCAGCCTCTGGCCTCGTGCCCTGCTGGGGAAGGCCTCACCCAGCGAAGGCCGGAGAAGCGGTTGGGCCCTGGCACACAGGGCTGGCTCAGTGTGCGGACAGAGGAGACCACTCTGCTCCTGGGGCCAGAGGCCATTCAATAGCCTG
0.8473627382259676 TCGCTGCTTAACAAAGGCCGCCCCGCTCGGCCCGCCCCCTCATGAATAGTTAACAAACCTCCAGCCAATCACTGGCCGGAGCGCCACTCCGCTTTCGGAAGTCCCTGCGCGTGCGCAGAAAAGCGGGCAGAGGGCGGAGCGTGTCCGGGGCGCCCACGGCGCAGGCGCGGAGGGCGGGGCGGGATCTGGGCGCGTGCGCA
1.896472913699081 GTGGACGACCCCAGCTCAGCCCCTCACACCCAAAACGTGCCCTACGGACCAGAGCGATGCAATTGCCCCTCTCCTCCAGCAGAGGGAGACTCCACCCACAGCACAGGGCAGGGTTGGGGCCTGAATGATAGAGGAGAGTGGAGGTGGGAAGGGTTGGTGGAGGGGCCAACAAGGAATCTTGGTCCCCTGACCCTGGGTGC
1.836645181798589 AGGTAGGGATCCATGTGGAGCTCACTTTTCTTGACCCCCTCCCAGGAACGTGGTCCTGGTATGGGACACAATTTTCCAGGTTTTAACAAAAGTCACCCCTGGGTCCCAATGGACTCCTCCAGTGGGGCTGTCTTGTGTGCACAGGGAGAGGAATGAGGGAAGAGGCTGCCAGAAACCTGGGAAAGGGACCTGCCGGGATG
1.287841416130098 GAGGAGCAAGGGCTTCCCCACCCTACTCTGAGCAACCCTTGGGTCGCCAAAGCGCGGATGGAAAGGATGCGGCAGAGGCCGCAAGACTCGGCTTCACGGAGAGAAACAGGCAAGAACACGCGCTCTCCTCTCCCAGAGGCACCCCCAGCTTCAGTCGCTGGCCACTCTGCTGGGGTCCACACCTCTCCTGGGCCATCTGT
1.414507394280007 CTTAGTCCCCCCATGGAGCGGCTGAGAACACTGCGTCGTCCCTGCCTCAGGGCTGCCTCCCTCGTTCTTCAGGGAGAAGGGAGCCGCACAGGGTAGGCCTCTCTGGACAGGCACTTCACACTCCAGCCAGCATGTGCCAAAGGGGGTCCCTCTGCCTCACCTTCGGCTGGTGCCCCAAGGACTCAGAACCGCACAGCAGG
1.972257065779411 TGGCAGTCGCTGTCCTTGGAGCACGCGCCATCAGGAATGCCTTCATTCTGCCAGGAGAGAAGGGGCACCTGGATGGGGGGGTTCCCCCAGCTCAGAGCCGGGTCCCACTCCAGGAGATAGAATAGGGGTTCTTCTTCGGCCTGGCCCACACACACTCTGAGAACCTACTTCTCCCCCATATAATGCAGGAACCACACCCG
1.297596437164252 GGCGGCCTTTTATTGACGCGGTTGAGAAAGCCTCGGCTGGGAGCTGGGCGGCGGCGAGCACCGGAACCTCAGACCGCGACCTTGCCGCTACCTCTTCTTCCTCCTCCTCCTCCTCCTCCCCTGACACAGTGACACCCCTGCAACCTACTCCCCAGCCACCGGTCTGGGAGCGCAGCCCCCCGGATGCGCAGGACCGCCCT
1.845064270465406 TCTGGGTAGCAGAGTGGCCCTATGGCATGACTCACTGTTCTTGGATCTATGCAAGCTCTACCATTTCCTGTCCCAGGCAGAGGGTGAAAAGGAAATGAGAAAGGCCTAGCACCTAAAAGGCAGCTTGTAGAAGAAAGACCGGCTGGGAAAGTACCCCATGTGCTTTCTGTTCTCCTTTGCCCTGGTACAGGATAGTGAGT
1.297891969273891 CAAGCCGCCAGTTTTCCGTCCCGTCCCGGCCCCGGCCCTGGCGAGGTGCGCATGCGCAGGGCCGGGAGCTAGGACCCCGCGGCAGGCGGGCGCGTCCGCGTCGCACGGAAGTCTCGCGATGTTTGCGTTTGAACCTCTTGGCGGGTGCCGGCCATGGCGGCTTCGCTCCCGGGACCTGGGAGCCGGCTTTTCCGCACATA
1.093832166361723 GACCGGCCCAGCCTGACCGTGACCCCAAAGCGCTGGAAGCTGCGAGCTCGCCCAAGCCTAACCGTGACCCCAAGACGCCTGGGGCTGCGAGCTCGGCCCCCGCAGAAGTGCAGCACACCCTGCGGCCCGCTCCGACTTCCGCCCTTCCCCAGCCGCGACTCCGGCCGCCTCAGCCCGGACCTCAGCGTGTGCGGCCAGCC
1.864100405074549 AGATTGAGATGAGACCAAGATGCAGAAGACGCCAACTGCAGGGTGGTGAGAAGAGCGAATCAGTCCAAACCGACTCACAGATGACCTCTTGAGGACGGGGTGACCAATCCTGCAGTTCATGATCAGGACAGAAGCAACCGGCTGAGGGTCATCACACTGAATGTTTGGAGAGGGAGGCTGTTAAAAGAGCAGATGACATT
1.471245965141589 TGAGACAGCTGGACACCGACGACCAGGCTCACTAGCGTTTTTGAAAGAGAAGCGTTTGCTTGCTATGTACACTAGGGGGCGATGTAGGGCAAGCCATGCGTGCTGTATCTCTACTACCCCCAGTAGCTGGCTGGGAGGTTGGTTCTTGGCTGTAATTAATTCCCTGCTGGAAACAGCTGTGCCTGCTTGTTAGCCTGGAT
1.649283592044223 CCGCATGCTGGGGCTGTGGCCCTCTTTCCTCCCTCCGCCTCCATTCTGTCAGCACGTGCTACGTATGAGCTGTCACTTTAAACTGTTACTCCCGTCATGGCCCAGCCCACACCGCCTCTCACCTGAGTGGTTACAAAGGGAGCAAGTGCCGCTTCTCTTCTCAGCTAAGCAGCAAGAAGGATCCTGCTAAGCTGCATGAG
1.612429821791912 ATGATGTGGCTACAGTGGGTTGGGACAGACTAAAGAGCACAGGAAGGTGGGGCAGAAATGAGATACCGTCTCCACTTCCTCAACTCCTATCACTCTACATTTTAATACATTATGAAATATATTCACGTATCGGCATGGCTTACAGAATAATAAGAAAGTCTGCACCTGTGCGTCCATCCGCCCACCCACAACTGAACCCA
1.617913248689375 ATTTTAAGAGAGACAATGTGAGTGAGAGGCACACGTCATTCTCAAGCAGGAGCACAGCCCCTGCCTTTTTCTAGGCCCGAGTTGGCCAGCCAGCGCACTTCCTGCCCCATGCAGCAGGCCCGTGGTCTCAGGCCCCACTCTCTGCAGCAGGAACCCAGAAGTGCCTCCCACCACATCCTCCTCCCCAGCGTGTTCAAGCC
2.59781189142842 CAGCCTGGAGTGCAGTGGTGTGATCACAGTTCACTGCAGCCTCAACTTCCTGGGCTCAAGTGGTTTTCCTGCCTCAGCCTTTCGAGTAGCTGGGACTATAGGCCTGTGCCACCAGACCTGACTAATTTTTTTTTTTTTTTTTTTTTTTGGTAGAGGCGAGGTTTCACTGTGTTGTTCAAGCTGGTCTTGAACTCCTAGGT
0.9251341204372713 GTCCCTGAGCCCCCTCAGCACCCTGTGGTCTGTCTGGCTCTGACCAAACCCTGAGCCCCCTCAGCATCCTGTGGTCTGTCTGGCTGTGACCAAATTCTGTCTGGATCAGGGTGATCTGTGATTCAGTTTGTCTGCCCTGAACTGTGATGTGATCTGAGTCACACACAACACCCCCAGCCACAGAGCCCAGCTCAGCGCAG
1.41827935404802 AGGCGAGGGCTGGCCCTCCCTCCCAATCCCCCCTCCCGTGTTGTCTGACTTACAGACATAGCTACACCAGTGTCTGTCACCACACTACCCACAGGACCACCTCTCTGAGCTGTCCCCAGCCACGGAGGCCTGCTGAGTCAGACCGAGATCCCCCTCCATCCTGTCAGCCACCACTGTCTCCCCTCAACCCTCTGTCTCCC
1.621082134495354 AATGAGTCAGGGGTGAAGACTGACTTGGGGACAGCAGGCCACAGGGTAAGAGGGCATGATGGGGCTGGTGGTCAGGGTGTGGACAGTTCCAGGGTTTCAGTGTCTGTCTGCACCCAATGCTTCTAAAATCTCCCTTAGACAACTGCTATTATTCCGTCTGCTGCCACAAATAAGAAGTAGGCATCACCAGAGTGGCTGGC
1.143115608992476 CGCACCACTGAGAGCCCGCCCCTCACGGCCGCCGGCTAGAGCGCCGCTGCCACTGGCCACAGAGGAGCCGCCGCAGCTACCTAGAGCGTCGCCGGCTTCGGCCCAGAAGGCCGCCCTTAGCGCCGCCGCCCCCTGGTGGCGGGAGAAAACCGGGCCGGCTGCGCGGGCGGGACCTGGGGAGGAGAAGGCGGGACTGAGCG
1.548680412205194 CCTTCTCACTCCCTCGACTAGCTCATCACACGCATGGCTTCCAACTCCACGGCCGTCCACACGCTGAGGGCCCCCGCGTCTCCATTTCCAGTTCTCGCCTCTCCCTCGAGCTCCAGATGCGCATGTCCAGCTGCCTCCTGGACATCTTCCTTTGAATGTAGCAAGGCGGGTCCATTCCTGCGTTCGCTCCCTCCCTGATC
2.015215269868793 GGGGCCTTGAGCACCAGGCTGAGCACCGTGGGGACCATGGCAGGGTTCTGAGAGGGGCATGGTCAGGTGGGTGCTCAGAAAGATCACTCGGGCAGCCAGGGAGGGCATGGACCAGAGGGCCAAGGACCAAGGCTAGAAGACCAGTGAGGAGGTGAGAGATGGCGAGGCTGCATTTGAGGGGCTCCAGTGGTGGGGAGGAA
1.350107669806074 CCCTCCCCATGCTTAAAGCTCTCAGGGCCTCACAGAGCTGGCAGGATGCAGTCAGCAAAGACCTCAGGGGAGGGATTCCCAGCCCTCATGCTGTGGCCCGGACAGTGTTTCCAGCATCATCTTTCACTAACCACGGCCCTCCTCTGCCCACTGGAGGCTTCAGCCAGACTCCACTTCTCCCCAGACTCAGAGTACACGCC
1.748014538786794 GCCCTTCCCCCTGCTTGCGCTGGACTCTGCATGTTCTCAGGAGAAGGAAGTGAGTGAACTCCTGACCCTCCATCCTTCCTGTCTGCTGGTAACTTCCTCCGAACCCACACAGCAACTGAGAACATGGGTCTCAGGGAGACCCAGAGTACGCATGGTGAAGCGCCTGCTCTACCGCTCGTTCCCCATCCCCTTGCTTTGAC
0.9822086798287835 TTGTGCGGCTGCTGTTGTGATTGCTCGGGACACGCTGAGGCCCAGATGGATGCGCGGGCGGGCGGAAGGCGGCCGCGAGGGCTGACGTCAGGCTCCCCATCCCTCCCTCCCGCCTGGATCAAATTCAGGTGACTAAGCGCGTCTGCGAGGGAGGCGGCCGGCCGGGGAGGCCCGAGGTTCCTGCCGCGTGTCCGGGAGAC
1.534270078310768 CTCCCATGCCTGGGCCGCCTCACTGGAGCTGTGTTTATGATCCTGGCGAGTATCTGGATGGCCCTGGCAACGGGTGCCCTCCGCAGCTCCCGCCCCCACCCGGGATGACTCAGTCCCCTTGAGGGAGGCCCAGGCGTCTGGTGCCAAGTCATGCTTGACGACTCCTGCTGTGAGGACGCCCGCTCCCACCATCCCTGGGG
1.133793263178683 CTCCCACACTCCTGTGCCCGCCCTGCGGACACCACCAAGGCCCGGTCCTGTGGCCTGTGACACAGCCTTCTCTGCACAGCCCTGCAACGCCAAGACTTGAGCACACCCCCTCCCCTGACAGGCACACGCCCGTGTCCGCGTGACCCGCCCTCACACACCACTCCATCCTGTCCTGCACCCCCCACGCAGACACAGGCACA
0.9598432292714453 ATCGCCGAGCTCAGCCCGCGGGCGCCGCGGCTCCGGGCAGCGCTCGCTGCCCCGCCCACCGCCGCGCCCGGCCGGCGCTCATTGGTCGGAGCGAACGGCCCCGCCAGCGCCGCCCAATCGGAGCCCGGGACTCCCGCCCCCTCCTGGACTAAGGGACCGCGGTGGGCGGCGCGGTAGGGGCCCTCCCTCCCCTGCGGCGG
1.609153847287641 CCTGCTCACAGCCTCCTTCCCCCATTTCCCCCCACACTGCTCTGCCGAGGCGCCCCCCGGGCTCATGCCCAGCTGCCCACTGCCAATGTCAGCTGGGCGGTGGGGGTGGGCACGAAGTCTCGGCACCCTGCCTGGTACACCGTGTGCTGGGCGGGAAGGCTCAGCTCTGCAAGGGTTGACAGTTGCTGTGTGTGAATATG
1.425379310876102 TGAGTTTCACAGAGACACTGCTGATGAGGCCGCTCGAGGTCTGGTAGCCCTTCTCATAGAGAAACACCCACCTGTGCGGGTGGGGACAGAGGGGGAGTTGTGGTTGTGGCACCAGCTGGACCTGTCACACGCTTTCCCACGCCCTCCCCAGATGTGCCTCTGAGCCACCATCTGCTCCTAAAGCTCCTGTCTTGGGCTAG
1.165485144495651 TTCTCTTGAGACGTCGGAAGCTCTGGCTGTGCCAGGTGTTACGTGCTGCGGCAACAATGGGCAGAAGCTGAGCAGGGGCCGCCCCAGGCGTGAGGCCTGCCGGGGTGACGACATCTGTCACCCGTGCTCACTGCCTCTGCCTTGGGTCCCGCCCCGTCCCCCCTTCCCATCCCTGCGGCCTCTTCACAGCTGTCCTGCCT
1.309006070655347 AGACCAAGTCCAGGCTGGGTCAGGGGTTCGGTTTGCCGCTGTGGGTTCCTGGCTGAGAGGTCAGTGCAGTACTGAGCAGTGGCCAGACGAGGGCGCAAGAGACAGCAGGCACCACAGCCTGAGCAGGAGCTGGAAGCCTGGGCCTGCAGCCCTGGGGGTTGCTGGTGATGACGGACTCTGCCTTCCTTCCACCCTCTGCT
1.623650161594045 AGAGCAGCTCTTGGCCCCTGGAAGGCAACAGACTGCAGGCCAGCCTCGCCCATGGACAAATAAATTCCCAAAGATAGATGGGGCGGGGCTGGTGGGGCCACCCAGGCCCAGCCCCACTGCCCCTCCTGGCTCTGCGTGGGCCTTGTTGGGCCTCCGGAAACAGGAGTTGTTGGCAGGAAACCACAGGCCACCCGTCACAG
1.323590046016442 CAGTGCAAGACCCTGCGGACACCTTGGGACCCAGCCACCAGAGCCCCTTCACACCCTCCACTTGGTGATCCGAGAACGCCTCCCCGATGTGCAGACAGAGAGGCTCTGCGCTCCACACCCACAGCGTCCACTGCAGCCCAGGAGCAGAGGCGGGCGGGGAGGCAGGCTGGAGGCGGGACGGGGCCTCCCACTCACCGTGC
1.282793333259833 TAAGTTCAACAGGCTCCCTGGCCAGCCCTTGCTCACCAGCTGGTAGAAGTTGATGTGAGGTCCCTCGGCGTCATACACAAACCACCAGGTGGCGGCAGCCACTGTGGCCAGGCCTACGTACACTGCGGGGAAGGGAGGAGACCGGCTGTAGAGAATGGCGGTGGTTTTCTGGCGTCTGTTTCCCCTGCCTAATAATTCCC
0.9179537370796812 GAACTGGCCGCAGCGCACAGGCTGATCCCCCTGCCGCCTGCGGAGCCGGGGCGGTCACCAGGAGGACCTCGGCTCCGCCCCCGAGAGGGGTCCGCCTCTTGGCCCCGCCCCTAGGAGGGGGCTCCGCCTCTTGGCCCCGCCCCCAGAAGGGCTCCGCCTCCTGGCCCCGCCCCGGGAGAGGCTCCGCCTCCTGGCCCGCC
1.554291687978926 TTGTGGTTTCCAACAATAACGACCTTGCAGGTGCACAGACTCCTGGGGTGGGGAGAACACATGTCTCTGGGGTGTCCCTTCTGCCCTCAGGCCTGACCCACCCTGCCACCCAGCTTGTGGCCAGGAGCCCGCCCCAGCCTCTTCTGCGACAAGGAAGGATGACTTGGTGTCTGTGACCTCACTAAAGACTCACAAACAAC
1.196300094035884 CGAGGCCATGTCCGTGCTGGGACCTTACCCGACGGCAGTGGCGGCGGCGGCCCCGGCCCGCGCCAGGATGCTGCGCCCGGGACTCCCTCCCCGGGGCGGGGCGGCGCGGGGCCCGCCCCCCATCACACCCCTTCCGGCCGCCCTCCGCGCCCCGGGGCGCACCGCCTGGGTCCCCCGCCCATTCTGCAGAGGGGAAACTG
1.313430171930954 CGCTCCCGAGCTCCACCCGCCCCAGGAGGGCCAGGAGAAGTGGCAGCGGGTCAGAGGAGGAAGTCGCAGGAAGGCAGAAACCACTCGCCCCGCCAAAAGGAGGAGCTAAGAGAACAGCCTGATTGCCGCTCCCTCCAGCTTGAGAGACCCAGACAGCCTCACCCCAGCCCTTATCTGCCTCCCACCACGAGCTGGGCTCT
1.458001382264994 GGGGCTGGGAAAGGGCCCGTGGCCTCAGCAGACAAGTCCCTCCTGGGTGGCTGGGAGATTCTTAAGGGAAATGCCATTTGATCTGTATTCTTAGAAACAGGAAGTAGCAGCTTCCTGTAAGCAAACTGACCTCATCCCCAAGCCCTGGGATGGCCCCTGGGTCCAACCACTTCCAAAGGGATGTGGCTACCTCTCACTCA
1.468039147636489 AGCACCCAGTCCTGCTGAGTCTCAGGTTTCTCTCTGGGCTGAGGGATAGTGAGGGCTGAGGCTGGGTCCAGACCCTGCCTGGGGCTCCCCCGAAAGCAGTCTGGGGCTTTGGGGGATGTGTCAGACTCTGTCGGGCTGGAACAAATGGGCCTCAAAGGTTGGTTAAGTGCAGCCCCTGCCAAGAAGGCACGCTTCTGTAA
1.303798529198357 CCGCTTTACTCGGAGTCTGGGGTGTGGAGGGGCGTGGGTGGCGCTATCTCGTCTACCTTCCAGGTTGGCTGTGAGTCTGAGCACGCAGCGGGGCCTCCCTCCCAAGCACTAAGACTTGTTTCCTGTGAGTCCCCTCTTGGGAAACTCCTTACTGGGAGGCCTCCTCGGGTCTGAGGGATGAAGAAGGTGGGGCCTTCTCT
1.489693841304611 TTGTGCAGGAGGGCGGCGCTCTTGCTACGGCGCTGCTTGGCATAGCTCTGCTGCAGTTCGCTCTCTGTGCTGGAGATCAGCTTCTGGGTCACAGGGTTCGATTCAGCAGTGGCTTGGTCACAGCGTGCAGGCCGGGACTGCAAACCCAAGACCACCATTACAGAGGTCTAGCCTTCTTACAGTGGTGGTATGGGGTGGGG
1.760098498439924 CAGGTGGACGACTCTGGCCGAAACTCGGTGGCCCTTCTCTCTCTCTAAAGCTCCCTGAGTTTTAGCAAGAGCCACAGTCACCCAGCTAGAGACATGGTTAGCAGCTAGATGTGCTGATGCCCCTGGGTTCTGGGCAGTGCAGGTGAGCGAGGTGGTGTGCCACCTCTGGAGTCTACTGGACTAATGGTGCACTCCCTTCT
1.647349304758336 CCCAAGACACGGCAACATCGGGCAGCCCACAGGCAGTGACAGTGAATTTGTAGCCCCATTCGTTGTGACTGCTGTCAGAGTGAAAGAGGAACTGCAACCGAGGACCGGCCTTGAAGGTCACTTTCTAGAGACAAACAGAAATCATGTGGTCAGACAGATTAGAGGAGGAGTGCTTCAGAAATCAGCATGCTCTTCATGAC
-0.6230939400858317 CCTCAGCTTCTCCCTCTGCCAGCGCCCATCTACCCACCTGGCAGGCAGTCCACGGCTCCCAGGGCAGAGCGTGCTTGATACATTTACTGCCACATTAAGGACAAAGGTAGGGGTGTCCCGGGTCACACTGGGACCAGGACCAGGACCCCAGCTTCCCAGGACCTCATTCACTGCCCAGACACTGGGAGCCTGGACCTGAA
-0.1674091007233193 CCCCTCTACTCATCCCTGTCCTCTCCCCACTACTCACTCCTGCCCTGTCCCCTCTGCTCACCCCTCTACTCACCCTGCCATCTCCCCTCTACTCACCCCTGCCATCTCTCCTCTACTCACCCTTGTCCTCTCTCCTCTACTCACCCCCCTACTCATCCCTGCCCTCTCCCTTCTATTCACTCCTGTCCTCTCCCCTCTAC
-0.9313260436037145 TCTTGTGGCTTTGCAAGCCTCGCATTTCAGCACTCTTGTTTGTCCTTGCACGGGAAATGAGTAGGCAGTGAATAATTTTTAGGTTGATATTGTCAGATTCCGTGCAGTTCCCCCGCTCTGTCCACAGACCTCACAAGGATTGTGTCACATCAGTTAAGGGCAGCAGGAGGGGCGGGGCTGGGAACAGGGTGGGTCTTCAG
-0.7687099932380553 GAGGAAAGAGGAAATGGGGCTGAAGGAACGGTGAAGGGGCTTGTCCCAGCTCCCAAGGCTGGACAGGGCAGTGCAGATACCCCATCACCAAAGCCCTCACTACTGCGCTGAACCACAGAACTGGAATCCTTAGGGTGAAAGAGGGACCACACAGCTGGTCTGAATGCTGGGGTCAGCTTTGTGTGGGCTCCTGCTTGTCC
-0.8632573006000234 CCCACAGTGCCTCTCCCACTGTGAGCTGCACTCAACCTATGTGGATGTTCCCACTCACTGCACCCACCCACCACCACGTGTGCTGCAGGGAGAGAGCAGAAGCTCTGTAAGTCACGTCCATCACCCCAACACCTGGCGCAGAGCCTGTGGGAAAGCAGGTGCGGCGCCCAGATATGTGCGAGAGGCAGACAGCGTCTTAC
-1.249243943810467 CGATGCTGCGATGCTCCGGGCGAAGCTCCCGGCGCGCACAGGGTTAACGCCGGGCGAGGGGACCGCGCGTCCTCTGCCCGCCCACATTCCTCCGCTGAATGGAGGCGGTGGTCTGATGCCGGTGGGGTGATTTCGCCCCTCGGCGTCCGACCTTCCCACTGGCCAGGCCCGCGCCCCTCCCGGGCCGGCCCTGAGCTCCG
-0.4586809021215145 AGGTGATAAAATGAAACAAATTAAGACAGTTCTAGAGAGTGCTCTGAATGCCAGGCTAGGGTGCGGGCACATATTGGGGAGCGTAGAGGCGGGACAAGATGGAGTAAGGAGTAAGGATGACATTGGTGGTGGGGAACTGGAAATATAGCCCAGTAGGACAAATATTTCCATTTCTGGAAAATAACTACCAGAGTTTAGAC
-0.900108105259913 GCCTTTTCAATCCTTATGCCCCTCCCTCCTTTCCCCTTTTCAATCCTTGTCCCCCTCCCTCCCTCCCCCTTTTCAATCCTTGTCCCCCTCCCTCCCTCCCCCTTTTCAATCCTTGTGCCCCTCCCTCCCTCCCCCTTTTCAAACTTTGTCCCCCTCCCTCCCCCTTTTCAATCTTTGTCCCCCTCCCTCCCCCTTTTCAA
-1.05097164063132 CTGGGTGTGCACATGTGTGTGTGAGTACGTGAGTGTGCGTGCACACGTGCTTGCTGCAGTTACTCACTACAGTGCTTGTTTTTGCCAAGTTCTCAGCTCCCGAGCTGGTGCCTGTGAAGCTGGTGCGGTCTGCAGATGAGTTTTCTGTTTGGGCTCCTGGAGGCTCCAGCTGTGCCAAGCTAGGGTATGGCCACTGGTGA
-1.144468658664451 AGCCTTTCAGTTCTTGTGGGAGGGAGGAGAGTGGGCCAGCAGGCTCTCTAAAGGCCTTTCAGGGCCGGGAGCAGGATGGGCAGCTCCTTGGAGAAGGGAGAGTCTCAGGCTAGACAGAGGAGAAGGAGCACTGGGTAGCTCCAGAGGAAACAGTGGCTAGACCAGGCGGTGTGAGTCCCACAGAGAGGAGATGATCTGGG
-0.7752183004216613 GCAACGTGGGTGACACACAGAGGTGAGGCTAGGCATGACACCCAGCCACAAGGGTCATGAGGCTCTGCCTATGAGGGGAGCTTGGCAAAGAGACCATGGAGCGGTGGTCCTCAGAGTGAGGCCCCCAGACCAGCAGCATCAGCATCACCTGAGTATGTGTTAGAAATGCAGTTTCTTTTTTTTTTTTTCCCAATAAGCGT
-0.5028506034297636 AGTTTGAGGGTGAGAGGAAGGTCCAAGGTTTTTAACTGGTCAAGCGGGCAGATGGTGATGCCCTCCCGTGAGAGCACCTGGAGACGAGCAGGACGGTTCTGGGTATGTGGGCCCCGGGGGTGGTGGCTGTGGGACAGCAAGGGGAGGTGACACATGAGCAGGTAGAAATACAAGCGTGAAACTGAGAGGCAAGAGCTGAG
-0.4348240832399242 TACAAGCATGCACCACCATGCCCGGCTAATTTTTGTATTTTTAGTAGACATGGGGTTTCCCAATATTGGCCAGGCTGGTCTCGAACTCCTGACCTCAGGTGATCCGCCCACCTCGGCCTCCCAGTGAGCTGGGATTACAGGTGTGAGCCACTGCGCCCAGCTGGGAGCTTTTGACTTCTCTGAATTTCATTATCCGCAAC
-0.6042353338939539 GGCTGCTGCCTGCTCACTCCTAGACCAGCTAGGCCAGCCTACTGTGTCCTGCACCTATTCCTGCCCCTCCTTCATACCTACCTGCCCCAGGGCAGCCCACCCTTGCAGCTTCATCTTGCCTCTGGATTCTGCCCCTGCCTCTATGCTGCCCTTGACTTCTGCTTCCGTGACCTTTGCCCTCCCAGCAGCCCCCTTACCCT
-1.077992920450899 CAGGGCCAGCCACTGTCAGGGAAGAGGAACACAGGGGCAGGAAACAACCTCACAGCCCCTGCCTGCAGCAAGCTCATCTGGAGCTGAGAGTAGGGACGGAGGAGATGTGTGGGCACAGCTCTCACGGGGCTTTGCTGCCATGGTTCCTGTGGGCTTGCCTGTGCTTCTCTCCCCTGCTGGATCCCCTCTTTTCCACCGCT
-0.7557260571329306 GAAAACAGGACACAGCCCTGCTTCTGTTTGTAGTCCTGAGCATCTAACTCTGTCCCCGCCCCAACACTGGGGACCCCCATTACCCAGGCCTAAGTGGGAGCTCCTTAATCTTCTTCCGCTTCCCACCCCAATCCTTGAACCGGGCCCCACCCCAGCCAAGAGGCAGGCAGGTGGCGGGAGCTGCAAGACCGAGACCGGCG
-0.3063673510394659 GCAGGGGTGAGTAGAGGGGAGAGAACATGGCTGAGTAGAGGGGAGAGGACGGGGTGAATAGGGAGAGGGCAGGGGTGACTATAGGGGTGAGTAGAGGGGAGAGGACAGGAGTGAGTAGAGAGGAGAGGACAGGGTTGAGTAGAGGGGAGAGGACAGGGGTGAGTAGAGGGGTTTGTGGAGGGGAGAGGGCAGGGTTGAGT
-0.6378171444485106 CATCTATACATTTGGAAAGAAGACTTTATTTCTTGTAAAGAGTTACAGCCTGCAAGGTGACCCTTCTGATAGGCCAGGAAGCGTAGCCTCCAGCAGAGCCCTAAAGGCAGGCACTCTGAAGCAGGGGTTGGAACAGGGATTTGTGCTGAATAGGTTGGCTAAGTATTCAGATTCAACAGGCTATAGGAGGAGCTATTAAT
-0.4955729654710462 GTCACGGCACGGGCAGAGGCACAGAGGTGGCAAAGTTCGTTGTTTGCTTGGAAACTGCGTGAATCAGCTTAGGGCCAGGCCCTGAGCTCCAAAGTGGAGATGGGGTTATGGGAGGAGAACTGGGGAGCAGGGGAGCCAGGAGGCTGGTGTGAAAGACAGGGCCCGGGATGCATCCCAGGAAAGCCCCTGCCCACCCGCTT
-0.5561876794585013 CCAGCCCTACCTCTCAGCTAGTCGAAAGCCTGGTCTTCCCCACTTTCTCATCCTCTTTCCTGTGCACCATAACTTCCCCAGCAGTAGTCTCCAGTGGGAATTTGGGAGGGCAGGACAGAAGCCAAATCCAGGCCCTGAGCAAACAGAACGCTAGATGATATCGTCAGGGAGCAGCAGGTATGCAGAGACCTGGGACCTAC
-0.5320392299882478 TTACCCAAGCAATCCAATCCTAGGACTGTATCCTACAGATGTGCTCAAACAGTGACTGAGTACACAGCAGCACTGTTTGTAAAAGAAATGATTTAGAAACAGGCCGGGCACAGTGGCTCATGGCTGTAATCCCGGCACTTCGGGAGGCCAAGGTGGGAGGATCGCTGGACCCCAGCAGTTTGAGACCAGCCTAGGCAACA
-0.8740046786776613 ATCAAGGCCCCCGCCAAATGCCCCGGCAGTCTCCCCAGTGCCCCGTGTGGGTCCCCACTGTGAGAGGCTGCCTTCCAGAACCTGCTCTCTGCAGTGAGCATTCTCCAGGCTCAGATGGGTTCTCTTTCACACTGAATCACTGCTCTTGTTTGTATGAGGCAGGCATGGGCGCCAGACTCAAGCCCAGATCTTAACTCAGG
-0.6044325882733577 TACTAAAAAATACAAAAAAAAATTAGCTGGGCGTGGTGGCTGGTGCCTGTAGTCCCAGCCACTTGGGAGGCTGAGGCAGGAGAATGGCGTGAACCTGGGAGGCGGAGCTTGCAGTGAGCCGAGGTCGCGCCACTGCACTCCAGCCTGGGCGACAGAGCGACACTCCATCTCAAAAAAAAAAAAAAAAAAAAGTGCCATGG
-0.1441593901961533 CTGCTGTGAGGTACACTGCAAATGATAAGAAAGGAGAGAAGAGGAGAAAAAAGGAGAGAAGGGGAGAAGAAGGGAAGGGAGGGGGGAGAGGGAGAGAAGAGTGTTGAGTTGATGAGGAGGAGTGAGAGACTGAGAGAAAGAGAGGTTGGCCATGGCAATGATATCCAAGGAAGGAGCCTCAGTCAAAGATGATGCCAAGA
-0.3504198537908238 CACCAGCTTCAGCCCCCACCTCCGCCCCATCCCTGCTCCTGGACCTGTTGGTTCCGAGGAGGCCCTGGACACCAAGACACCCACCCCAGATGCCCAGACTCCCTCAACATGGAGGATCCCCAGACTGAGTCCTCCACAAATGCTGAAACCCCCTCCCAAGATGCCAAGGAAGCCCCCCACCCCCAGGATACTGAAGTCCT
-0.6789153040032162 TGCCTGTATTTCTGGTCCCCTTGGAAATGTCCCCTTCTTCAGTGTCAGACCTCAGTCCCAGTGTCCATATCGTGCCCAGAAAAGTAGACATTATCCTGCCCCATCCCTTCCCCAGTGCACTCTGACCTAGCTAGTGCCTGGTGCCCAGTGACCTGGGGGAGCCTGGCTGCAGGCCCTCACTGGTTCCCTAAACCTTGGTG
-0.5196483334873132 TGCTACCATATCGCCTCCCATTCTGATCCCATAGCCACCAGCACAGATGGAGCCCCTATGCCTGTGCCCTTATCTGTTCCCCGGGAGAATCTTTCTTGAGGGTCTCAGACCTCTCCTCCCCTGCCCAGGCCACCCCCTCTGCCTCTCTGAAGTCCTCTTCCCCATACCATGTCAAGCCTCCCATCTTCCCCTACAAGGGC
-0.7061149463149013 TGGTCTCAGAAAACATGATGGGCAAATTTGCCCAGGGGGCAAGAAGACTTCAGAGAAGATAGGAACCTGGGCCCCTCCCTTTCCTCCTAGGGCTGACGATGTTAGACTGGACATTCCCTAGGAGTCTGCTGGCACAAGAGATGCTAAGGCTCCAAGGGGAGCTCACCAGAGGTCAGGGTCAGGGTCAGGGGTAGGCAGGA
-0.5534115347964051 CCTCTCAGGCTGCCAGGGTGTTTTCTGTGCATGTGGTTGATATTTAAAGGCAAAGTCGCAGGCCGCATTGCTGAACTATCAGCTGCCAGGGGCAATTGCTCTCCTCCACCAGCCCGCGTCCTGGTGCTTCGTCCCAGAGATAAGAGGAAGGGGAAGAGATGAAGAAAAGGGCCCACCTGTCTCTAACAGGAAGGTCTTTT
-0.3530538497726026 AGGCTACTAACAGCAGGGAGATACGGCATACGTAGGTAAGAGCAGATACTCCCACCCCAGAGGCCCCCCTGTTAACATGGGTGAAAACCACTTTGACACTCAGGGGCAGTACCCTGTTGCAGTCACCTGTAATCAGGGATACAAGGACGGAGGAAAAAAAGAGGAATGCCTCACTTTCCTTCCCTGATATACCTTGGGTA
-1.045098144116287 CAAACAAATCTGACATCCTGGGAACCAACCCTGCAAGTTCCAGCTGTGCCTTCAGGCAGGTGTTCGCGGGCTCCCAGGATGTGGCGGGAAGTGAGATTCTAGTAACGACAGAGGCTCCGGGACTGGGAGCGGGTCCTGTCTGGCCGTGTGAGGGGTCAGGGTAGCGCAGTCGCCTGCCTCAGGGACACGGGGCATAGGGG
-0.3498195787390981 CCCTACATCGAAGGTAATTTTATTTTTTTAAAGGTGGTGTCTTGCAATATTGCCCAGGCTGGGGTGCATTGTCTATTCACAGGCCTGATCATAGCTCACTGCAGCCTCAAACTTCCTGAGTTCAAGCGACCTTCCTGCCTCAGGTCTCCTGAGTAGCTAGGATTACACATGAGCGTCACTGCACCACACAATAATCTTAA
-0.6628291659173473 ACATGCACGTGGCCACCAGCAGCTTCCTGAACTTGCTTCCTACTCCTAGGTCAGCAGATGGATGACCAGCAGTGGCCCCATACCTATGGTTGATTCTCACACTGGCAGCTACCATGGCAGCCAACGTTTCTGGAGCCCTCCCTTTATACCTAGTATAATGAAGTGTTTCCTCTTTGTGTACATTGTCTCATTTAGCCCTT
-0.7854623253568778 AGAGAGAGAGAGAGAAGGCTGTGCTCAGGAAATTGCTTACACATGATTCCTTCAGACTGCAGGAGCTTCCCACTCCACTTGACCTCAGCACAGTCTCCACTGGTCACTGATGCCCCTTCCTGGCACCTGCACCGATGCTGCGAAGCCTTCATGATGGTGGTCTTCAGCAAAAGAGAAGAGTAAGTGAGCAGAGAAGAAAG
-1.326596782387843 GCGAGGGGGGCTCCCGGCTGCGGCAGCCCCTCAGCCTCCGAGCCGACGATGCGGTCTCTCGGCCACTGACAACAGGAAGCAGCGCCCCGGCCCCTGACGCCATCACGTTGGCTCGGCGCTCCGGCCCTGCCCCCGGCCCGCGGTGCCAATCGCGCAGCCCGAAGGAGCCTTGGGGCGGGGCCAGCTGCTCCCGGAAGTCC
-0.03746933200014553 GCACGGTGGCTCACGCCTGTAATCCCAGCACTTTGAGAGGCCGAGGTGGATGGATCATGAGGTCAGGAGTTGGAGACCAGCCTGGCCAACATAGTGAAACCCTGTCTCTACTAAAAACACCAAAATTAGCTGGGCATGGTGGCGTGTGTCTGTAGTCCCAGCTGCTCGGGAGGCTGAGGCAGGAGAATCGCTTGAACCCG
-0.2886893528371082 GGGGACATTTGGCAATGTCAAGAGACATTTTTGAACGTCTTGGCTAGGGGTGAGCTTCCAGCATCTAGTGAATGGTGTCTAGAGATGCTGCTAAACATTCTAAAATGCACAAGACAGGCCCCCAGTTAAAGAATTGTGAGGTCCAAAGCATCAATAATGCCACCATCAAGAAACTCAGATCTACAGGGAAGAGCGAACGT
-0.8649644020833916 CTCTCCCTCTGGCTGCCCTGAAGTCCCCTCCCTCCTGCCTTCACAGGCAACGTCTCGCTCTCCACAGCCCCCGCCCCCAATTTCCTTCATTCTGAGGGTCCCCCCACTCAACCGGGTGGGTCTGGCACCTCTGAGTACCACACCCCTCCTGCTGTGGTTTCCAAGGGTTCATAATTTCCATCTTCATCCGTTTCTTATTA
-0.7496280879211223 CTGTTGTCACTGTTGGAAGTTGAGTGAGGGTGAGGAGAAGGTGTTATCACTGTCAGGTGTTGAGTGAGAGAGAGGAGATGGTCTGTCACTGTCAGATGTTGAGTGAGGGTCAGGAGATGATGGTGTTACTGTCAGTAGTTGAGTGAGGGTCAGGAGATGGTGTTGTTGCTGTCAGTTATTGAGTGAGGGTGAGAAGACGG
-0.4436450892922592 CTGAATATGCAAAGCAGTGAGTTAAGGAATCTAGGGGTATCTGAACCACAGGTCCAGTGGGAACCTGTATGACCCGGTAGGTGGGTAGTACAACCTCACATTCTGTGCTAATCCATTTCGTTTTCCTATTCAGAGTCTTATTTCTGTTTAATTGTGAAATAAATGGCAGCAATTATTAAGTATTGAGAGCTTGGAAATGT
-0.4904715267785217 CATTATGGGACCCTTTTGGCCCATGGTAAACTGAGTTTGAGAAAAATCTTACTAGAGTACTATGTGTAGGGCCTGGGAGTGATTGGCAGTTCTTTTAAATTACTTTTGGTTGATGGACTGCACTGCTTCATGTGCTACTCAGAAGGAGGCTGGAGTACATCAGGATCAAGACTCCAGCTCTTAATTACTATTATTCTTTT
-0.6639749549389993 GCCCTCCATCCCTGGATTCGAATGTCAGCCAGTCCCCCAGGGGAGACCTGTGGAGGCCATGATTGCCTTTCCTGCCAGGTCGGATATCCCAGCTCCTCTTAGGAGCCGTTGATGGCTCTGTCTGTCAAAACCGTGTTCAAACCCTTTGTGAAAAGGTTTCCATTTCCTTTGGGTATTCTCCCTTGGGGCTAATGAGTTCC
-0.3742065631668452 GCTGCAAAGGCATAATAATTATATAATGTGCTTTGGGGACGATAAAGGAAGGGTGGAGCGGGGGGGGGATAAAAGACTACATATTGGGTACAGTGCACACTGCTCAGGTGATGGGTATATCAAAATCTCAGAAATCACCACTAAAGCACTTATCCATGTAACCAAAAACCACCTGTAGCCCAAAAACTATTGAATTAAAT
-0.3539583131727231 GAGGAGCAGTGTCCCCAGGGGCTCAGGACCTTGCCTAAAGGGAACGCTTGGAGGGCTATCATTTTAGGTGTATGTTGTGCCAGGAGGTGTAGAACAAGAGACATAGGCTGGGAATTAAAGGGCGAAGGTAGAATGTCAGGTAGAAAAAGTCGGCAGCTCATTGAGAGAAGACAAAATTGTTCAGGTGTGAGACCAGGACT
-0.5048717246343248 AACCCTGTCTCTACTGAAAATACAAAAACTAGCTGGGCGTGGTGGTGTGTGCCTGTAGTCCCAGCTACTCGGGAGGCTGAGGCACAAGAGTCACTTGAACAAGTGGGGAGGGCTTTGCAGTGAGCAGAGATCGTGCCACTGCACCCCAGCCTGGGTGACAGAGCCAGTCCCTGTCCAAAACAAAACCAAACAAGAAAACC
-1.031627704812437 AGAGGCCCGGGGCACCCAGAGTCCCACCCAGGCACCCAGAGTCCCACCCAGGCACCCAGAGTCCAGTCACTCTGGAAAGAAGTTTGCCCCAGCCATGCAGACTCCCCAAGGGCTTTGTGCTGAGGGTGGGGCTCAACGTCAGGACGCACCCTTGCATCCCTGGACCTGGCAGCCCTGTCCCCCTCGGGATGAGCTCAGGG
-1.598961517093681 GCCCACCCCTCTCGCCTCTCGCCCCAGCCAAGTGCGCTGCGGCCGCCCGCTCCGTGGAGAGCGCAACGCTGGGCGCGTCGAGCTGGCGGGGGCGGTGCGGGGGCCCTGGGCTGGCGCGGTGGAGCCTCCCCCGCACCGCTGGGTACCGCACCGCACACTCAGCGGAGGCGCGCGCCCCGCGGCGACCGGAGGATGTCCCC
-0.4949585132426907 GGGTGGATCCCTCATAAATGGCTTAGTACCCTCCTCCTGGTAGTAAGTTCTCATTCTATTAGTTCACGTGGGATCTGGTTGTTAAAAAGAGTCTAGGTCCTCCCTCCTGTCTCTACTGCTCCCATTCTCACCGTGTGACACCCCTGCTCCTCCTTTGACTTCTGTCATGATTGTAAGCTCCCTGAGACCTTACCAGAAAC
-0.5117808146744354 CTGCTGCAGGAGGGAGCTGCTGCAGGAGGGAGCTGCTGTAGGGGGAGCATGGGGGGAGCTGCTGTAGGGGGAGGTACCACGGGGGATGCAGGGGGTGCAGCAGGGAGCTGCTGCAGGAGGGAGCTGCTGCAGGAGGGAGCTGCTGCAGGAGGGAGCTGCTGTAGGGGGAGCTGCTGCAGGGGGAGCATGTGGGGAGCTGC
-0.1989083799731234 GGCATGTGCCTGTAGTCCCAGCTACTCGAGAGGCTGAGACGGGAGGATTGCTTGAACCTGGGAGGCAGAGGTTGCAGTGAGCCGAGATCATGCCACTGCACTCCAGCCTTGGCAACAGAGCAAGACTGTCAAAAAAAAAAAAGTTGGATTAGACATCTAAATTCTCTTGTACCTGTAAGTTTATTGAGATAATAAAGGAA
-0.7666273683192295 GTGTCTGTCAGGGGGAGTTAAAAGAGCAGCTCTGTGACCTTTGGAGGACCCTCACACTCACTCACCTCCCAAACACCACCAAAGAGCAGGAGACGCCATGGCACTGAGTTGCTGGGTAGTATGATGATGGTACTGACAACTCACATTTACTAGGCACTTACCACATGCCAGTACTGAGACAGGCACTATACACGCATTTC
-0.2480314611816549 CTGCCTTGGCCTCCCAAAGTGCTAGGATTACAGGTGTGAGCCACCACACCCAGCTGAGATCCACAGAGGTTCTTATCCTATCGCCTATAAACTCCCAGTCCAGAGACAAGCTTTAAGAAGTCCTTGAAGGCCAGCGCGGTGGTTCACGCCTATAATTCCAGCACTTTGGGAGGCCAAGGTGGGCGGATCACCTGAGGTCG
-0.7023564939568236 GCAGCACTGCCTGCTGAAGTGGGGGACAATTGTTGCACGTTTGTAAGGGCATGGCTGTGCCTTGGTTTGTTGAGGGGCTCGAGGCAGGCCTCTCTTCCCGTTTCCTGAAAGAGGTTGTCCATCCTTGTTAAATTTAGAATGACACTGACTTGCCCAGTGTTTGCTTTTCTTACACTGGAGACATATACCGGGACTTTTCT
-0.6547118855237448 TGTCCACTTGGGGCCTGGTATTTAGCTGAGGCCTGACACCCACCTGAGGCCTGGGTGTTTAGGTGTGGTCTGTTATCTTTCTGTTGCCTGGGTTTTTATCAGGAGCCTGATGTTCACCAGGCCACCTAGGTGTCCACCTGGACCAAATGTCTCTCTGGGCCCTGATGTTCACTTGTTGTCTGGTATTTACCAAGGCTTGG
-0.8230717450304789 CTTCTAGTCTATAGCACTCGGAGGCCTTAGCAATTGGAGTCCACGTTCTACCGCTGGTATCTGACTAGTGAACTCCTAAGAGGTCAGCCCTGCTTTAGTTAACACCTGCAGGGAGGTAATGAGCTGCAGCTTGGACTGAAGTAATTACCCACGTTAGAGACAGAGGGAGGCTGAGCGGGACCCATGTCAGCCAGACAATG
-0.05216396315364646 TTAGTTTTTTTAAAACTTCTTTTTAAGGCCGGGTGCGGTGGCTCACGCCTGTAATCCCAGCACTTTGGGAGGCCGAGGCGGGCGGATCACGAGGTCAGGAGATCAAGACCATCCTGGCTAACACGGTGAAACCCCGTCGCTACTAAAAACACAAAAAATTAGTGGGGCGTGGTCGTGGGCGCCTGTAGTCCCAGCTATTC
-0.1799700230192562 GAAGAAGCCAGGCATGGTGGCTCATGCCTGTAATCCCAGCACTCTGGGAGGCTGAGGCAGGAGGATCACCTGAGGCCAGAAGTTCACAGTCAGCCTGGGCAACATAGTGAGACTTTGTGTCTACAAAATTAAAAAAAAAAAAATTAGCCAGGCATGGTGCTGTGCACCTGTAGCCCAGCTACTCAGGAGGCCGAGGCAAG
-0.8259992345005477 TGAGGTTAACAGGCCGAGAAGGGCCAAGGCAGTGTCAGGAATGGTCAGTACCTGACAGAGATGGAGAAGTCCCCTGGGGAGCTCTGGCTGGCCCGGATGATGAAGAAGCCAACCTCCTTGCCCATGAGTAAGTTCTCTGCCTGGTGTCGAGAGAGGCCTTCGTGAAACCATCTGTGGGGGCGAGATCAAACAAAAGGATC
-1.413239030847036 CGGGGACTGTCCAGGGTCGGAGAGAGAGGCGGGGCCTGGCGGGGTGGGGGCGGGGCCTGGCGGGGTGCGGGGCGGGGCCTGGCGGGGTGCGGGGCGGGGCCTGGCGGGGTGCGGGGCGGGGCCTGGCGGGGTGCGGGGCGGGGCGCGGCCTTGGAAACGTGTAGGAAGAGGTGAGGTCTGTGAGGGCGGCAGGGGGAGCT
-0.9163353967075583 ACCTTTGTGTGGAGTCACCTCAGAGCTGATCAGCCACCCTCGTGTCTGGCACATGTGTGTTGTAAGCTCTTCCCGAGACTGATCTCTGGTCTGGTCAGCTGTTGCCAGGACAGCGGAACTGGCTTCTCCTGTAAAGCTTGTGCATACCAGCCTGGCAGATACCACAGGCATGGGTTGCTTAGATTCTTTTGTCTGCCTAA
-0.8384273957702189 AGCCTCTTCCAGCTGTTGCTGCAGCCGGACCACTGCCAGCACTGCCGGGAAGAGGTTCATGCAGGGGGGCAGCACAGGGGGCCCTGACCCCAGCTCTACCACCTGCAAGCTGTGAGCCCTGTGGTGGCCCCCCCACTCTCTCCACACCTCTGCCTGCCTGTTGGTGTGGGGGTTAATAGCAGGGTCTATCTTGGGGACTG
-0.4887526451112792 CGGGAGGGCATCACAGGAAGGTTTTTGTTGTGATGGTTTGGTTTGGTTTGGCTTATGAAGAAGGGAGAAATTGTAGCTGGTGAGAATGCTGAGGAAAGGATTCAGTTGGGAGGGAAATTATGATGAGGGTGAAGAGCAAGTGGGTGGAGTTCTGATCTAGTCACAAGGAGGGAGCTGGCCTTGGATAGGAGTAGGGACAG
-0.3609467781487455 CCTGTCTCTACAAAAATAATAATGATAATAATAATAATAATTAAGCCAGGCATAGTGGCTTGTGCTTGTAGTCTCAGCTGCTTGGGAGGCTGAGGTGGAAGTATTGCTTGAACTCAAGAGTTTGAGGCTGCAGTGAGCCATGATAGCACCATCGCACTCCAGCCTGAGTGGCAGAGTTATTTTCCAGGATGTCCTCAAAC
-0.5264276993385328 TGGAAGGAGAGAAAGATGCTTCCAGATGCCAGGTGGAAGGTGGATTAGAGAGGGGCAAGAAAGAAGGCCCTGGGCCCAAAGAGAGCAGGGCAGGGACATGAGGGAAGGCAGGAGGTGTCCCTGACAAGGCCCATGATGGTTACCTGGGGACTGGAGGAGCAATGGGCTGCCCTGACATGGGGTCATGGAGGAGGATAACA
-0.878622034354327 TCCATCTCCCTCTATTTCTCTGTCTCCCATTCACCCCCGGCTAAGGATCCTCCTTAGAGGCCCTAGGCCCTGCCACGCCTTCCTGGCAAGCACAGCCCAGCTGGCCTGGGAGCCAACAACCTTCCCTCCCAGGCACCAGTGTGGGTCGGGAGGGCCTCCAGGAAGTCCTCTCTCCTCATCTCTGACATGGCTCACTGTGA
-0.8369982632370103 GAGCAAAGTGTGCAGAGAGATAGGAATGGGAATGGACTGGCGTGTTCTGGGAGCAACTGGAAGTTCCGGAAGTCTGGATGTTAGGGTTCCTGGGGATGGAGAGGCCAGGAGGACTGGGTTGTGGAAGACCAGACTTTATCTCCAGGACAGTGGGGAGCCAGGGAGCAGTGCAAGTGAGGCGGGGACGTCCCAGGACACCT
-0.3569789411208015 AGCAGGGGGATGGGGATGGGAATGGGGTGGGAATGGGGTGGGGATGGGGTGGGGTGGGTGGGCCGGTCGGGGCACACACCCGCACACAGGAGCCCGAGCCGCCGCCGCCGCCGCCGCCGCCGCCGGGGGAAGGAAACAAGTTTGAACAGCGGCGCCCGGCCCCCTTCCCCCTCCCCCGTCCCCGCCCCGGGCCGGATTCC
-0.8101839272793021 AGGAGGAAGGACAGAAGGAGAAGGAGGCTCCCAGGTCCCAGAGGGTGCAGACCCAGCCCTGGAAAAACGGGAGGGTGCCAGACATTCTACACCCACCTGGGGTGGGAGCAGCCTCCACCTGAGGCTGAGTTGCCCACCGGCTGCCCACTGGCTGGACCAGCTGCCTGAGGCACCATCTTGAGAGCATTAGAGGGCTGCTG
-1.287530686231534 CCTGCCCTGGGCGCTTGGCAGGCCTCAGGCCACCTGTCCAGAGTGGAGTGGAAAAGGGCACAGATGGGGCCATGAGCGGCACTGGCCTGGGCGAAGGCGGATTTTCCCTGTGCAGGAGCCCCGGCACCCGGCTCTCCGGTGGCCACCAGAGGGCGCTCATACTCAGACCTCCAGGAGCACTCGCAGGCCCCTCCCACATG
-0.8817868816344274 GAGCTTCCCAGATATTGCTAACCCCTGGAGGAGGCAGGAATCCTCCAGTGTCCCCCCGTGCAGCGTGCACACCCCAACACGCTCAGGCTTGAAGCTGCCGTCTAGCTCCTTGATAGCCCAGCAGGCGTGGGCCACCAGCTTGGTCAAGTGGTTCATGGGGGGCAGGGTGTGGGTATTCATCACAGAATGGAGGGCCCAGG
-0.8200753002377112 GGGGGAGGCCCCCCAGGGAAAGCCTAGGGCCAAGGCGATTGCGTGGCTCTGATGCACACAGAGGAGTCTTTGCTCTTCCTCATGAACCTGCCTCCAGCATCAGCTGCAATAGTGGTTCTCTCTTCACTTTGAGACCTGGGTGCTGCCACTCTGCTGACGGCCACGCATGGTTTTTGTCCAGGTGACTCGCGACTCGCGCA
-0.6928446314228615 ATCCCGGGGTCTCTTCAGCCCCAATTTCAGCGGTCGCAGAGGCCCTGTGGGAGGATGCGCGGACACGCCGCTGTCAGGTTTCCCGCCTCAACCCTTTTACTCAGGTCTGAAGTGGCGCCTTGGAGTGGGTGTGAGGAAAGGAATAACTCTCCTGTCTTCCTGTCCTTAACCTGGGCTCCAAGGCCGAGGGTCTAAGTTCC
-0.749913321918751 AAGGAGAAAAGAACTCTCCCCGGGGCTTCCATTGGCTTCTCTGGGATCCTTCGCATTACTGTGCTGGACGCTTGGCAGTGTCCATCTCCGCCACTCCGGATTCGGGATCTGAACCGGACTCCCTTTCGATTGGCTGAGGGCAACAGAGGCCATCGCCTGTCCATTCAGAATGGCGCTCACCTATTTCTCAGGACCGAATG
-0.8288033773804855 CAGGACAGAGTCCAGTCTGCAGCCACACAGAACCCCCATTTCTAGAACTCTCTTCTGACTCAGAATTTGTTTTCAGTAAACCCACTTTTGAAGCCATCTGTGTCTGACAGCCAGGACCAGGCTCTACACAAGACCCAAAAACCCAAGCTTCCTGAGGCTGTTCTGCCACCCTGGATCCAGGAGGGCCGTCCTCCTGCAGG
-0.943945478228882 TTGTCTCTTACCCCTAAGACCCTTTCTGTGAGTGTCTCTTGGTTTCTTCCTCCACAGGATGGACAGCGAAGGTGAAATGGAGGAGGAAAGCCTGGGGAGGCATGAGGAAGGCGGCTGGGCACCTAAGACCTTGGGCAGGACCCATTAGGGACCCTCAGCCACAGCTCAGCCCAGCCAGGGCCCTCCTGGGTCTGCACAGC
-0.5953992400888657 ATCTGGATCCCCCAAACACACACCCTCCTGCTCCATGTGCCTTCAGTCTTGCCATCCTCTGCCAAGGGGGTCCTGACTCTCGGATCCCACCCACCCACTATAAAAGCAAGATCCAAGGCCCAGGCTCTCCAGAACCCCCTGCCCCAGCATCCTCAAACAACCCCAAAGGAGGTCAACTGCAGCACAGGACACACTCTGTC
-0.2126059659108757 TGAGCTGCGCAAAAGGCAGGAGGAGAGAAAGGTGGGCTGGAAGAAGGAGACCACGGAATCTGGCACGGCAAGGTATTCTTTCATCTGGCGTAGACCTCCAACAACCACTACCATCCCCCAGCCCCTTCCAGAACTTTCCTTCACCTTCTCGGCTCACTCTCACGCTTCACCTTGTGCTTTTCCTCCGGCACCAGCACCCC
-0.5503850203873948 GCTTCATTGCATGAATGAATGAATGAATATGCTTTCCTACTGCTTTGTTCCACTGGCTGGCTGAGATTACACCATCGCCTCTACACCCACTGGCTGTCTGTACCCATGGATGCTTAATGAAAGGTGTCTTGCATGGGCAGCTGCCCTGTACCTCCTCCTGCACTGCCCACAGGGTCCAGCACAACAGCTGCCCCCATTCT
-0.6461561975858438 GCCTTCAGTCTGTGGCTGAAGGCCCGAGAGCCCCTGGCAGATCACTGGTGTAAGTCCAACAGTCCGCAATCTGAAGAACTTGGAGTGTGATATTCGAGGGCAGGAAGCATCCAGCATGGGAGAAAGATGAAGGCCAGAAGACTCAGTGAGTCTAGTCCTTCCATGTTCTTCTGGCCACTTTATTCTAGCCATGCTGGCAG
-0.3304031026074793 GACTTCCTTCTCTATCCCTTCATTCATTTAGGCTTCAGTCTAAGGTGTGTTAAAGTCTGGTGAGAGTGATCACTTCCTATAATAAGCTTCTGTTTGTATTGCTATTAACCAACATCAAAGACAGCATTAGACTTTGATAGCAGTGCTTTTTTTCTTTTCTGCTGCCATGAAATTGAAGCTTATTCGTGGAAAAAAGGCAA
-0.4516577769494999 AGAGTGCCACGAAGAGGCTCAAGGGAGAGAAGCAGCACCTGTGTTGTATGGGTGGTGGGCAGTGCTGCAGGTGGACTGGCGTGGGCCTGGGAGGACTCCATGGATGAGATGGCATTTGGAGGTTTGGCCCATCTGGACACCTGGAGGTGGGGAAGTGCAACATTGCTGGTGGAGTGAACATCAGGGAAGATACTCAGGGT
-0.5552802137117028 TTGACCTGGGATGCTCAAGCTTCATGGGGAGAGGGGCGTCTGCCATTACTGAGGCTTGAGTAGGCGGTTTTCCCCTCATAGTGTACACAAAGCCACCGGGAAGTTCGAACTGGGTGCCAAACCCACCGCAGCATGGCAAAGCTGCTGTAGCCAGACTACCTCTGAAGATTCCTCTTCTCTGGGCAGGGCATCTCTGAAAG
-0.6922734947961374 TGAGGGAGGAGGGGGCTGAGGGCCTGGACTCCTGGGTCTGAGGGAGGAGGAGGCTGGGGGGCCTGGACGCCTGGGTCTGAGGGAGGAGGGGGCTGGGGGGCCTAGACGCCTGGGTCTGAGGGAGGAGGGGGCTGGGGGGCCTGGACGCCTGGGTCTGAGGGAGGAGGGGGCTGGGGGGCCTGGACGCCTGGGTCTGAGGG
-0.3677316306384867 GCATGTGGATGATATGGTGCACTGGGAGAGGATGGACCGAGTGGCCAAAGGGATCCCATGCTGCAGGGTGATGGAACAAAGACCTGTGAACAGCTGCATTTTGTTTTGTTTTGTTTGAGACAGTGTCTCACTCTGTCACTCAGGCTGGAGCACAGCACACCATGCACCTGTAGTCCCAGCTACTTTGGAGGCTGAGGTGG
-0.2154460211303721 TACAGGCAGGCACCACCACACCCAAATAATTTTTGTATTTCTTGTAGAGATGAGGTCTCACTATGTTCCCAGGCTGGTCTCAAATTTTCGGGCTGAAGTCATCCACCCACCTTGGCGTCTCAAAGTGCTGGGATTACAGGCGTGAACCATCACGCCCAACCCTTTTTCCTTTTTAAGATACAGCAGGGTCTCACTCTGTT
-0.8869058557396098 TGTTCAGTGGCCTGCCAGGGGACAGCGCAGTCTGCTGGACTGGCACACTCTCACCCCAACGCTATCACCCAATGTCCCCTCTTCATGCAGTGTGTTTCTGTCGGGGATGGGAGGTTGCCTGGGTGTGGGGGGGGGCTCTCTGCAGGGAAGGACCTTTGAGATGCAGCAGGGGCCGCCCCTGCAGAGCCATTTCCCGGGGT
-0.757152827900799 GGTGAGTTGGGGGCAGAGGGGCAGTGGAGCCTGCCTGGGAGCCATCTTGGGCAGCAAATGAAGGCATGGGCAGTGCATCCCGCCTACCAAAAGGCTGTGGGGGCTGCGGGGCCGGAGACCTGCATTCTAGCCCTTGCTCCCCCACCGTCTCACTGTGTGACCTTGGACCATTCCCTTCCCCTCCCTGGGCCTCAGTTTCC
-0.4896670000052662 GGTGGGCAAGTGGGGGGTGATGGGGGGGGCATGGGGGAATAAGGTGAGGAGGGGGAGGGCTGCATTTGGACAAAGGAGGAAGTCTTAAGGCAAAGGACCCAGGTTGAACGGTGGGATTTGTGCCACTGACTGGTGGGTAGTGAGCCAGTTGCCAGTTCCCCAGCCCCATCAAAGCACGATAGAAGGCAGCCATTTTTCTG
