svm_type c_svc
kernel_type gkmrbf
L 10
k 6
d 3
norc 0
gamma 2
nr_class 2
total_sv 1166
rho 0.539158
label 1 -1
nr_sv 367 799
SV
1.574794919662998 CCTGGCCCACGGCTGGCAGGTGGGACCCAGCTGCAGGGGTCCAGCAGCACCCACAGCAGCCACCTGTGGCAGGGAGGAGCTTGTGGTACAGTGGACAGGCCCTGCCCAGATGGCCCCCCGCCTGCCTGTGGAAGTTGACCAGACCATCTGTCACAGCAGGTAAGACTCTGCTTTCTGGGCAACCCAGCAGGTGACCCTGG
1.256658477239526 ACGGTCCCTGGTGAGTGGCCTCACTGTGAACTCACAGCCCTTCTGTCATCTCTTCCCTCCCAAGGGCTCTTCCAGGGCTGGATCTGACCCACACCCTCCCTGTTCTTGGCTGCATGTGGCCTACGGTGGCCTTCACAGCCCAGCAAGGGCCAGCCCAGGGGTTGGCAACTGCAGCCCGGGGGCCAGATCAGGCCCGACGC
1.484426234364616 TAACCCCGGGACACAGTCTGAGACTAGGCCCCATTTCTGGCCATATTTGCCACAACTCCCAGTCAGTCCACAGAGATCACACAAGCAGACTGGCCACAGAGGGTCCCTCCACAAGATGGCACCCCTCTCTCACTCTGGTTCTTTCAGAAAACCCAGCCACGCGTGCACAGCCAGAGGCACACAGAAGCATGGACAGAGAG
1.446774024664005 GCGCTGTCATGCTGGGACGGGAGTGATGCCTGCTCTGTCCTTCAGACCCCGGGACTGTGACGAGGCCCCTGCTGCTGCTCTCTACTCCTCCACCCGGCAGTTCCCTGAGCACCCTGGGCAGCCACACATTTCGCCAAAAGCAAAAGGACCAGCAGGCACTGCCTGAAGCCCTGTCACTGTGCTGCCACCAACTTCTGTGC
1.76431441349757 AGGGCTGGACATGCCCTGAGTCATAGCATGGGTGGTTCTAGAGAGGGCAGGGGTGGGATGGAGCGTGCAGGCCTCTCAGTGCCCTACCAGGGCCCTGAGGCTTGCGTGGATGGCACTCACACCTACCCATGGCAGTCCACATGTGGCCCAGGCTGGGCTGGGGGACAGCCTGGGGTGGCACGCAGTAGCCTGTCCTGCTG
1.267464240821269 ATGTCCTGATAATACGGGTGTGGCCAGCCCACAGTTCAAGCTGGCAAAGCTGCATCCAGCTCTGCCCTGCACTGCTGACCTCATGTGAGTCTGGCCCCTGCACCGCATGTATCTCAGGCCAGGGGCCCAGCCCTGCTGCCAGGACATGCTCCCTGAAGGGCTGCTGAGCTGATGGATTGGAGATGGGGCTGGCTGGCCTG
0.8487566311735089 GCCCCCGGACGGCCCTGACTTGGCCGCTGCCCGCTCCGCTGCGGACGGCGCGAGCGAGTGCCAGAGGCCGGCAGGCAGGGGGCGGGCCCAGCCCGCGTCACCCGGCAGCAACCAAGCAGGGTGAGTGTGCGGGCTGCGCGGGCGGCGCGGAGCGGAGGGAGCCGCGCGGCGCCACACTCACTCGCACTCGCACTCACACC
1.749127622986719 TCTCACACCTGGGGCTTCACTGACAGCGGCGGGCACAGTGCCTTCCTTTCTCTTTCCCTAGACACCAGCTCTGACCCTCCAATTTCCACCATGATCACAGTGTTCTCAGAGTCAGGCAGCATATGAGGAAAATTGCCCTTTCCCTGGAATAATTTACCATCTTGTAATTTCCATTACCTGACCCTGTTGGAGCCTATTCC
1.39058788885872 CAGACCAGGCTGAGGCACAGAGACCAGGGCTCAAGAGCTGCTCTGCCCAGGATTCCTGTGGCTGCTGTGAACTGAGTGCTCCTGGCCGAGGACCCACAGCTTCTGGGAAGTGTAGGTTGGGGCTCCTGATCTGCTGGCCCCTCCCTAGGGATGCAGAGCACACAGGCCCTGGGCCTGGAGTGTTTCCATCCATCCACACA
1.601220831235424 ACTGTGGGGTGAGGAGAGGCACACTCTGCTTTGCTTTCTGCACAAGACAGCCCCGGGGTGGGGCCGGGCGCTGCGGGTCAGAGCCCTGACCGTTTGCAGAGGAAAGGAAAGGGACAGGAAACTGGAGCATCAAGGCCCTGCTTTGCAGGGGACACCAGGACTTAGCCATGGCAGGGGCTCTGCCAATGCTCTTCACACAT
1.601555881573843 CCTCCTACGTATTCTGTAAACAGGTGAACCTTTCTGTGTTTGTACATACTAGTGTATGCACACGTGTGTGTGCGTCTGTGTGCCGTCCATCTCCCCTGGCGAGGGCCCCTTCTGCCTAGTACCTCCAACAGCTGGACCCTCCAGCTGGTCACCTTATGTAGGAGGCTTCTCTCCCCCATGGGCGGAGTGCAGGGCAGGGT
1.080701578051187 GGGTGCAGAAAGGCACTGAGCTGGGGAGGCAGACGGCTCCCAACACTGGTTTGTTGAGTCATGGCCAACAGGGTGTCTGGTGAGGGCACAAGGACCGGTCAGGGAGGAGCCGGGCAGGGTCTGGCAGGAATCCTCCACAGGGAAGTCTGTTCCAGGCACCAGACACCTCAGCCCAGGCAGCTGGAGGGGCCTGCTGGAGC
1.839802223036848 CCAGCACCGCTCTGCTCTGCTGTGTGATGGCAGGAAAGTCACCTGCCCCTCTGGGCTTCAGGCCCTCCTCCTAACCCAGGTGATCAACATGGCGACCTCAGGATGCCGGAAGGAGCAAATGGGCACGGAAAGAGAACACCCTCCTTTAAGCCAATCTTTCCCCAGGTTGTTTCTTAAGCCCAGGAACCCTCTCTGCACTG
1.599948003849679 GGTGCATGCGTGTACCCATGAATCCTCTGGCCAGGGAGGGGCCCAACCTGCCCAGGGCTTCTTTCTTGAAGGAGACAGGGCTGATCCTGCACCTGCGCAGTTTTCTCTGGCTTCAGTTTAAGGAGAACCCTCACCCCCGCCACAGGATGATCCTGGGCCAACCAGGGCTGGGCCCAGCAGGTGCAGGGCAGGGTGGGAGC
1.806062993128146 ACCATTATCATTCTGGGTCCCTCTCTCTGTTCCTTGCAGGCAGGGATGGGGTCTGGCTCACCTTGTTCCCCCGCACAGTGCTTGGTAAACAACATGCAGAATTGAAAACGTCACCGACCAGTCTCCAGTTTGGGAGGAGTGAGTGAGAGAGGACACGGCCGCGGGGGCAGGAGAGGGGAGAAGGCAGCAGTTGGGTACTC
1.263665636760317 AGGGTTTTGGTACACGGAGCGGGGGGAAGAGTCTTTCCTTCTGGAAACGCTTTCTTGACTGCCTCAAAGGACATGGGCGGCAGCTGTCCTGTGGAGAGGCCTGGCCTGGGATGGTCCAGGGGACAGGCGTCATGCTGGCCGTGTGGCCTCACAGCACTGCGCTGGGGATGTGGGGGCCCTGCTTCCAGGCTCTGCTCAGC
1.647936251188245 TGATCATGGCAGCCACTAGGGGCAGGGTCAAGGGGTCAGGGTTAGGAGTACAGTCACACAGACGTGACCTGGTCATGCCCCTGCCTCCCACTGGCCAGGTGCAAAGGTCAGGGAGTGAAGTGAGCTGGACATGAGGGCCCTTCCCTTCTGAGAGAAGCATGCCCATTTTTCTTGCAACAGGCACCCCTATTGGTCTGTCT
1.513018490341939 AGGAGGGACAATGACCCAGGCCTCAGAGGAGAAGGGAAAAGGAATTTGCCTCCCAGCCGGAGCTGCCTGTGTCCCAGCCTGGGAGCTTTTTGGTTCCTCTCTAAGGGCATGGACGTGAGGAGGAAATGGGTATTTACACCCTGTGAGCAGGGCTTTTGATGGTGCTGGGCAAAGTGGAGAGGCCTCCCCAAATCTGGCCA
1.291826373124346 CCACTCAGTTCCAGGCTGGGCAGCCACAGTGCCCCTCAGGCCAGTGTCCCAGCCAGGCCTGCACCCCCTCCTCCTGAGGGACTCCCCGCCTGCACGGTCTCCACTGCATTGCATCCCACGGTCCCCACCAATGTCTGTCCGTGGCAGCGATGTCGGGGGTGAACTCATAGGCAGCAGAGGTGTACGCAGCATCCGGTAGG
1.307895920227304 CTTGGGGAGCCCTTTGTAGAACCAGGCCCCCGACCTCTTCCAGACCTGAGTGGGGGAAGAGAGCTGCTTGGGGCACAGGACGCAGAGGAGCCTCCCCTCCTGCTCCTTGCCCAGATGACGGGAGGCAGGACGCGGAGAGCTAGGAGCAGAGTGGGAGTGGGAACTCTGGCTCTGCCCTCCCTGGCTGATGGGCTGGGCTG
1.338154465901152 GCAGAGGGCTGCACGGGACAGACTCTCCCAGCCACAAGTACCTGCAGGCACCTCACCCAGCCCCCAAGCTCTCCTCCCTGCCAGCTGACCTCCCGGGCACCTTCTCTTGCTGGCCCAAGGCAGAGAGCTGCATGGGATGGACTCTCCCAGCCACGTGTACCTGCAGACACCTCCTCCTGCCCCCAGCTCTCCTTGGTGCC
1.708230661480028 CTGTGGACCCTGATCGGGGAAGGTTCCCAGGGAACCACGGTGGGCTTGGGGAGAGGCATCCATCAGGGCATGAGGCCACCAGAGTGAGGGGCGTGGGGCGAACAATGGAGCTACCCTGCCATCCCTAGGACAGGCCTTGGGGGCTGAGAGTGCTCCCCCACCTCACGCCCAGCCAGTCAAGGCCCTGTTTAACGGGGAGT
1.743650630406197 AGGCCTGTTACAATGGTGATTGGCTGCGAAGCCGCCTCTGTTCCCAGACGGAGTGGGCTGCATGCAGGAAATGAATAGGGGCTGGAGGCGGAAAATTGGACAGGCCAATTAGACCGAGCCAGGTCTTTTCAGACGAGCGTCATGATTTTGATTCAATTCCCAGGACAACAAATGTGCCTGTGTTTAAACACAGTCTCAGA
1.848633708300731 TCTCCAGTGCACAGACGTGGGCTCAGGTAGACGCCCCAGGCAAGGGGCAGGGGAAGATGGGATGGCTCAGTCCATCTGCAGGGGTGCAGTGCAGGAGTCCCCATGAGGCAGACTGCCCTGGGGGCTGGTGAGCACCAGGAGCCCCCTCCTCCTGCCACCACCCATGTGTGGGAGGCCAGGAGGCTGCACTGATAGCGGGT
1.720077070268613 ACCAGTAGCCTGTCTCCCTGGAACCCTAGGCCACCATCCCTCACAGAGACTGGTGACTCTCCCCTTCCCCAAGAGAGCAGCCTCTCTCCACCTCTTCCACCCTTCGCTCCTAATGTTCCCACCTCTACAACAGGGTCCCCCATCAGCCTATGAGGTGGGCTCCAGAACCACAACGTGGGCCTCTCCTCTCTGGGTAAAGG
1.598826360433448 CGGGCCAGAGTATGAAGGAGGCAGGTGTTATGATCCCCACTATATAGATGAAGGAACAAAGGCTCAGAGATGACTCGGGCTGCCCGAGGTCACACAGCTCGTTCACGGTAAAGCAGAATTTTTGTTCAGACCTCAGGAGGGTCGGTCACACCCTCCCCTGCCCTGGTGCCAGGCTGGTGCGCACGGCTCTCTAGAGAGCT
1.386237558075425 AGGGAGAGAAGCCAGGAGAGTGTCCACGGAACTGAGTCCTGTCCTCTACTCACAGACCACGAGGACGCGGAGCCAACGGATCTGGGGACAGGAGCAGCGTGGACCAGTCGCCCTCCAGAGGTTGGGTGAAGGGCTGTCCCTGCTGGGCCCACGAACCTCTGCCTTCCCCTTAGGGTCTGGTGCTTCCTGCTCCCCAGATC
1.537557901940744 CATCGAGAGGGAGTCATCCCTCTGAGCGTCAGTGTCTCCATCTGGAAAACGAGTATGAACACTGCCTTGCCTTTTGCCTGCCCATCTCCTGGGGGCCATGAGGGACACATGACATCATGGAAATGTCAGGCACAGCGGCTCTCAGAAGCACCCCCACCCTGACTTCCTCCCGCTCAGAGGGCACAGACTCACTACGGCCT
1.98167567991437 TGACCTGTAGTCTCTGTGACTCCACCTCCATTGACCTGTAGTCTCTGTGCTCCACCTCCACTGACCTGTAGTCTCTGTGCTCCACCTCCATTGACCTGTAGTCTCTGTGACCCCACCTCCATTGACCTGTAGTCCCTGTACTCCACGTCCATTGACCTGTAGTCTCTGTGCTCCACCTCCATTGACCTGTAGTCCCTGTG
1.563327802925504 ACCTTGCGAGGCAGGCCTGGACCCTCAGTCACCCCCCAAGGCAGGCCCAGACCCTTACAGTCACCCGGTGAGGTGGGCCCAGACCCTCAGTCACCCCGAGAGGCAGGCCTGGACCCTCACAGTCATCCCACAAGGCAGGCCTAGACCCTCAGTCACCCTGCAAGGCAGGCCCAGACCCTCAGAGTCGCCCTGTAAGGCCC
1.326596179661981 CAGCCAGCAGGCAGGCTGCTGGCTGCTCCCACGTGGGAGGTGGGAACTGAGCCCTCCCCAGCCCAGTCCACAGGACAGAGAGGAGGAGGCCGCGAGAACTGCTTCCTACATGTCCCCACCCCTCTCACTGCTGTAGCTTCAGGGCAGAAGAGCCACAGAGCCAAATGCTGCAGAGATGAAGGGAGACGGAAAGAGCCAAA
1.196452619816784 ACAGCCCAGACATGCTCAGAGCAGACAGCTGGACTCTAACCAGGCTCTGCGACTTGCTGACTCACAGGCCGTTTGTCCCTCAAGATTCCCCACGGGGTAGTCGGCCTCAAGGCAGCTCCACCTGACGGCTGAGCTCGCTCCTTGCTGAGGGGCTGGTGCCCCCAGGAGCCTCCTCTGGGAAGCTGAGACCTCCTGGTGCC
1.451099146744026 AACAGCATTTGTGGGCTCAGAAGCTGGTAAAGCCAGCACTGGCTTGAGAGCCCTGAGTGACCAGTGGCTGGGGCCGGTCACATGACACCCCTCCAGCCGACTGTTCCCCGCCCCGACTACAGGGTCCCGTAAACGGGCCTTGGGAGCTCATCCCCGTACAGGCTAGGAAGCAGTGCGCATAGTCATCACTCCAGGAGAAC
1.260446644495125 ACCCTCTGACCGCAGGCCCTGATGATGGATGAAATCTTGGCCTGGGCTGTCAGCCAAGGCCATCTGGGCCAAACCATAGGGCAGGAAACAGCAGGCTTCCTCCTCCTGTCTGAACTCTGGCCCAGAGAGGAGCTTCCTTCAGCTGGCCGCACCCACTTCCCCGACAACATTCCAGAACATTCCATGATAGGCCAGGAGAC
1.286275331536074 AGACAGGCCCCACCAGGGAGGAGGAGGCCGCTCTCCCTCCCACCACCGTTGTCGGGGGTGACCCGAGGTGTTCCAGATGAGGAGCTGAATCACTGGGACTTAAGTCAATAAGTGGCAGCCACCAGGCAGGCCCAGCTGGAGCCAAACCAAGGCCTGGATTCTCCTCGTGGATGTCTGGTAAGGCCCCACCACGTACCCCA
1.562387743309199 CCCGAGGGCGGTATGTGCATCCTCAGCACCTGCCCATCCGGCACCATCCTCTGATCCAGGGACTGTGAGCAACAGGGCCCCGTGGCCAGGACATCTCTCACCCTCCAGTTAAAATCTCGCCAGTTGAGTCTGCCCATGAAAGTAGGCGCTGAACTGCCCAATAAATCCACAAGTAAGAGTTGCAAGAAGGAGCCAAAAAG
1.648679810903501 CCGGGCCACACTTGGGCCTGCCCAGTTCCCCTAGCTCTTCTCTTTCCTGCCTTGCCTGCCTAAGGCCCCTCTCCCCCTGCACTCCACTCGTATCTGCTTCTCCGCCTCCTGCCCAGTCAGCCTGCTGTGCAGAGCTCCCGCAGCTGCCTCAGATCCACCCTTCCTGGGTGGCTGCTCCTCCCCGCCACCGCCCTAGGAGC
1.466138832351919 CCATTCTGTTGCCCGAAGCTGCTCAACGCCTGGCACACTATGAACTCTCAATAAATATTTACTGAGCGAACGACTGACACTCATCCTAGAGTAGGCTACATGACTGGTCTCAGCTTCTCACTCCCTGCAGTGGTGTAAACAGCCACACCATGCCAGGGCCTACAAGTAGGCAGTGTACATCCCTGCCCTGTGTTGAGGTT
1.758719514521419 GTGTACTAAGCGCGGAGTACCATGCCAGGCACACAGTAGGCGCTTTGCTGAGTTAGGCTTTGTCCTTCTCCACCTTCCCCCTCACCAATTCCACCACTGGGCCTGAGTTCATCTGCACAGATGAAAATCTGCAGTTCTTCCTCCGTTGTGGGGCTGGACTGGCGGGGGCAGGGGGAGGCACCCTCACCTGTCCCAGGAGC
1.855750672983837 CTGATGGAAACTGCAACAGTCTAAGGCCTTCAAGTCCCATCACCTTCCACTATGGAAGTAGTGGCTCCAAAATCCTTTCTCCCCTTGCTTCACTCTGCCAAGTTTCAGATCCCGGAGTGGACAGCCCAGCAAAGTAGCCTGGCGTGGGCCCAGGTCCCATCCCTTGAGCTGGGTGATGACTACATGGGGTGTGTCCACCT
1.445884432721749 AAATGCATTAGTCAGTTCAGGCTGCCATGAAATATGCAGACAGGGCGGCTTACACAGCTGGCATTTCTTCTCACAGTCCTGGAGGCTGGGGAGTCCAAGATCAAGGTGCCAGCTGGCTCCGATTATGGCGAGGCCTCTCCTCCTGGCTTGTGGACATGGTGAGGGCCCAGGGGAAGGGAGAGACAGAGACAGAGAGAGTG
1.538688696005376 GCTCTTACACGAGGTGCTAACGACGTAATTGCGGTCTTACATAAGGTGCTCTGGTATTTTCAGCAGCAGATAACTGCCATGTGAATGGAGAAGCCGCCCTCCCAATGAATGCTGCTTACTGTACAGGCTGGCACAGGCCTTGAAATGCCAGTGCTTTGCAGGCAGCCAGCTGCTGTCAGAGGGGTGAGGATGTCTGTGCC
0.9117665466972729 CCTCGGACTGGGCCCCGGACCCGGGGCGGCCCCGCTTCCCCCCCGGACTCACCCGGGGTTCGGCCCCGCAGCCCGCGCGCTCCCTCGCTGCCCTCTGGCGGCAAAACCGTGAAACCGGCGCCCGCCCCGCCCCGCCCCGCTGGGACCTGTGGCCGCAGAGCCCGGGCCGGAGGGCACCTGCTGGGCGGCCTCTGGATGGT
1.49785011155062 CGCACACTTCTATGCGCGGAGGTCTCCGCAGACAGAAGCACGCATGCGCACATCGCTGTGCCGGTATCGCCAACAGATGGAAGCACGCATGCGCGCACCGCTGCGTACCTAGCACTCCGACAGATGTACGCATGCGCACAACGCTCTGTTCTCGAGATCCCCGACAGAAGCACACATGCGCACACCGCTGTGTGCCAAGG
1.920345433317193 GGGCCCTGAAGGCCGGTGCTTAACGTATAATGATAGAAAGCAGGTGGGGTGAAGGTTCCTGGAACACACAAGTAGCTTCAACTCAGAACACCTTGGGTTCGAAGTTTGCATATCTTCCTCACACCCAGGCTGTAGCAGTGAGGACTCCTTCAGGGCAAGAAACAAACCACAGTGAAAACCACCTTACAGACCAAGGGGAA
1.542173348793095 ACAGGAAGAGGGCAGGACCCCCACACCGCTGCTGCGTACTGTTTCGGAACAGCTTGTCTTCCGTAAGCCCTGCCAGACAGTGGATTAAACACACCCCAGGCCCCGCATGCTGGCTGGTGCCCCGTGCCCGACACCGGCCCTCTCCCAGCCCCCAGGTCTTGGGCTGTTCTGTGGCTCATGATGTGTGGATTTGCCTGCTG
1.380048610398629 CAACATTACAGACAGGCTCCACTGCAACTGGGCAGGTCAGGACTGGGCTCAGTCGGCCACATTCTGCTCCCACGCGTTGCTTCCTTAGACTGTCAGGGAAGGGAGAAGGGCAGCCACCAGGAGCGGCCAGGGTCACGGACTTGCTACTTCTTTCCTAGAGTCTGTTCTGTTTTCTGTCAGCAGTAAGGAAATACATTCTA
1.775932938974598 ATGAGATTTGTCTCATTATCTCCTTGATTGAAGGGAGGAGGATCAGCTCAGTGGATGAGGGAAGTTGCTTGTGGTTCAACTGCAGTTTCAACCAGGCTGTGGATTTTGATGTCTCAACAGGAAAGGCTGCTATTGCTTAAGACAGCAAACGAGGTAAAAGGAAACATCTATGGTTTTGCAGGGGTGGGGTAGAAAGGAAG
1.73624791430521 ATGGAATAACTGGCTGTGACTCATCATCACCAAAGGCTGGGTCCTAGCACAGACAAGCTTGTTACTGCTTTTCTCATATGGGTTGGAGTGCTACTGACCTACTTTTAACAGGTCATGCCCTTTGAGGAGCTTACACAACTCCAGGGAGGTGACCAGTCATACTTTCTTGCCCAGTCTTCTTTTAACAAGGCCTTTCTGTA
1.696115310834346 ACTGCAGTAGTGAGCAGGGTGTGACCCTTACCTTGAGGGCCACATGGCTACTGACTGCAGCCATGAAATGGGTTAGGTCACCCACAGAGCCGGCAGAGACCTTCCCTCCAACCACCTCTGGCTGATTTCACCACTAACACCTGGTGGGGTCCCTCCCCCACCCCAAGAGGTCTGCTTTTGTTGTGCACCCCACTCTGGGA
1.740691447238833 AAGGAGATACTACTCTACACCCATGAGAATGGCTATAATTAGGGGAACAAAGGAGACACGCGTCAGCAAGGATATGGGGAAACTGGACCCTCCTACATTGTGGGTAGAAATGTAAAACCGTGTGGCTGCTTCGAAAACAGTTTGCAGTTCCTCAAAAAGTTAAGCCTAGGGTTACCATGTGACCCAGCAATTCCACTCAG
1.2521511338425 TGCATCCCACTGAAGTCAGGAGTGATGGGTCAGGAGGAGCTGAGCTGTGGCAGGTCTTGTCTTCCGGGCGAGCTGGCCACACTCTCAAGCTCATCCTCACTGTTTCACTGCCAGTCACCAAGGACTGGAGAGGTTTGGAATGATACAGTGAAGGCGGCAGTGGGGGTAGGGTGGGGATGACGTACAGCCTAGGGAGGGGC
1.583943510221781 GAGGCTCAGGCCCCCCCTGTTCCTACCCTCTTCTTGGAAGCACACACACAGCACCAGTTCCCTCCTAAGCCACAGGGAACTTATAGTAGGAACTTTTCATGGTTAGAAGAGGAAGGAGTTCTCCTCACAGGGGAAGTCCAGCCGCTAGCCAGGGCACCCACAGTCACATTCTCAGGACTACTGGCCATCTCAATGACACT
1.565128401336244 ACGCTCATTCTTGGAACCAGCCACCTTACCGTGAGGAAGTCCAAGCAGCCCGTGGAAGACAACAAAGAATCCCAGCAACGGCCTGGCCAAGCTCCCAGCTGACAGCAAGCACCAAGGAGCCAGCCATGAGAGTGAGCCAATGCATTCTCCAGTCCCCTCCTGAGCTGCCTCGGCTAATGCTGCACGGAGCAGGGATGAGC
1.256940278977811 CAGCGACCTGGTGAGCCCGGCTCCGTCAGCCGCTCTGTCAGCCGCTCCGGCACTTCCGGCAGGCCAGGGCACTTCCGGGACCGGGGAACTGTGGGATCACGGCGGACTGAGACTGGCGGCGTTCCTGTCACGTCAGGTGTCTCCCGGGCAACGCAGTATCCCGGCGGCCCCGCGTGGCCTCAGCGCGTCCTTAGGATGGG
1.221140631831238 GCCCCCGCCCACCCGCCCGCCGGGGACGCCGGGGAACCCTCCGGGCCCAGGGACCGCGAGAGACCCCGCCCCGCCCTATCGCAGCCGCCGGGCCTGGTCACGCGCAGAGCCGCGCCGCGGGATCGGGGCCAGCGCCGGGCGGAGGCGGGACGGGGACGGGGGCGGAGGGTTGAAATCGCGCGGCCGGGCCGGGGCGCGCC
1.692570561442168 GCCTATTGAGCGTCCTTTGCCCGTCACAGTTACCCTTTTCAGTAGCCCTCGTTGGAATTTTCCTTCTGGTGGTTTCTTAACCTCCACTTACTTCCCCTTTTCGTTTCGTCATCCGCAGAGGCTCCGGGGAGACCTTGGGGACTTCTTTGTCGGCTGCATCTTCACGGCAGAACTGAGCACTCCGTTTGTGTCGCTGGGCA
0.9629606164000162 CGGCACGATGGGAGACGCAGGAGCCACGGCGGCCGCGCTTAGGCCTGCTCACAACCTCCGCCCGGCCCCGCCCACAGCCTCCGCCGCGCACGCGCAGTCCTCACGAACGAGCGCGCCAAGCGCACAGCGCCGCCTTCCGGCAGAGCCCTCCCACCAGCCCTCAGGTACCCGGACGTCGCTCACTAGACCCCTCCGCACCG
1.764109182308583 CCGTCTATACACTAAACCGCGCTCTTGCACCTTTCAAGTCTTCCTTAGTGGTGTGTTCCCTACCTCCCTGGCTTATCAAAGGAGGTCCCCAAAACCCAGTTCCCCAACCAACTGAATCCTGCAAATAACAGCTCCTCAGGACCCGAGACAGACCGCTTCTGGGTGCTGTTGAAAAGCAGATGGGTTGAGAGTTGGAGCAT
1.353352516034229 GCGGTTTCCCACTTTGAATACGAAGTGCAGAGCTCTGCGAGCAGCCATGATTCCCGCCGCACGCAGCCGTCACGCGCACCGTACAGCCCAGTCCACGAAGGGCGCCACGGGCCGTGACGTCACTAGCCGCCGACGGCGCGCTTTCGTGACGCAGCCCGGGTCTCAGGGAACATGGCGGCGCTGGTGAGACCCGCGAGGTT
1.158735443413435 AACAAGCTGTGCGGGGGAGGGTGGGAGGCCATGCAGTCACTGCGAGGCCCCACCCTCGGCCACTCTCCCAGCCCGCCCGTGGTGAGGAGCCGCCCCTGGGAAAGGCCAGGCGTCGCAGGCTGCTGCCGGGGTTGCCTCTTGCCTCATTGCCTCATCTCTAGAGTGTTCCCTGCTCCGGTGCAGACTGAACGTTGAAGCCC
1.636759734975095 GTTCTGTCACCATTTCCCCAGTAAACAGGAATAAAAAACGAGCCACATTTGACAAGGAAAACACTGCTTGGCCGAGAGACAAACATTGTCAGGATGTTGGCCACGCTCCCGCGCCTTTGTGTGGTGGCGTAGCTGTCACAGTGGCGTCTGCCAGGAGGTGGCAGGCGACACCTCCAAAACCACCCCAGTGCTGAAGGGCG
1.498635787954154 CCTCCCCTCAGCTGGTCCTGACGAGCTTGGCCTACAGCCATGACGAGTGCACATCCCTCCAAAGGTGAACCAGGGGCGGGAAACGGAACTGGCTTCTGCGGCCGTCTGCCCTGTGCTAGGCACGGCACAGATGGCACTGGCTAATCCTTATCACAGATGGGGCGGGCAGCATCAGGATCCCCCTAACAGATGGTCAAGGT
1.41220354890099 AGCCCTTACACACCCTGGGTTACATCAAAGGCCAGAACGAAAGGCCAGCACGGCTTAAGAGGGCCGTCCAGAACTGGCTGCTGACACCAACCCAAGAGTGATCCAGCTTCTGACTCACCAGGCACCAGCTCATGCTCTCTGATCCAGGAGCCCCGACAAGCGACCTGAGGTTCCAGGGGGGCTGCCTGACACATCTCTGC
1.573885021411226 AAACACCCTGTTCACAGAGGCCTCTCTTCCTCCCACCCCTGCCCCCCGCCCAGAACTCCCAGCAGAAGCTGCTCACTGGCTGTTGTCAAAGTAGTCTTTGTTCTTGGAGTTGAACCAGCACAGGCCTCAAATTTCCATCCACAGCTCCAAACCCCGCCTACATCACCTCCATGACCTCAGGCTAAGGAAAGAAAGAAGCT
1.760269105766599 CTTCAGTGGTCACGGTCCCATCATATACAGAAGCCACGGGGCAGGACTTCAGGGGTCATGGTGCCACATTTTGTACAGAAGTGGGAGGCAGCAAAGCCGCAAGATCTAAAGACAGAGTTGCAGGCCCAGGTGCGGTGCTTACGCCTGTAATCCCAATCAGCGTGGGAGGCCCAGGCAGGCGGATGACCTGAGGTCAGGAG
1.720526212768277 GGTTCTCTAACATCCAAGCTGGACTAAAGGGTTTTGCTCTTACCGAGCCAGAGGGAATATTTATTCCAAGAGACGTAAGATAGATTCTGCTGGACACCTGCCACTTGCTCATGATTCTTCCCTGGGAGGCTGGCAGCGCACGGAGAGGCTTCGCTCCACGGGAACCAACACCGTTGGCCGGCGCGGTGGCTCACGCCAGG
1.73597917492682 TCACACACGCGTGAGCTTTGACAGCCAGGGACTGGTAACCCACGGCCACCGCGCCCAAGAAAATTATTTCCCATGGGAGAAAGAAAACTACGTTCAGCTCCTGGCAGGTCCCAGGCAAGTCCGAGCCAGGCTTGCAGGGAGGCGAATGCTCTGTCCTGGGAAAGGGAGGCAGAGGTTAAGGGCTGTTCCCACCCTCCAGT
1.829579679296946 CTCCTTTCCTCTCCGCAGTTTATTCCGGGGAAGAACTCTGGCCTGGGAAACAGCAGACCTGGTCCAACTCCCGGCTCTGCCAGATCCCAAGTGACTCAAATGCTTCAGCTGCCCTGACCTCTGCTTCCTCGTTACTAAAATGAAAAGCACGGGATCTACCTCCAACAACAGTCATGGGATTCAAGGACACCAGGACACCT
1.430226123702194 AGCAGCCCCACACTGTCGTCTGTGGAAACCACACCAGCTCCTCCTCTTCCTTCTGGACCTGCTGTCCCACCCTACGCCCATTTTTTATCTCCACCCACTCTTTGAACTTAGCACTGGTGTCTACAGGCTCGATTCCCAGCTCTCCCACAAGGACGTGGCTCAGACGCACGTCACCATCTCAACCCAATGTAGGCCACCCG
1.591256004309245 GCCAGGTGCTCAGGTCGCAGCTGTCCCTCAACACCACTCGGGAAGGGGGCTAACTGCCCGGACGGGCCCCAGGATCACGAGCCTCCTCTCCTTCCCTGATGGCCCAACAGGAAAAAGTACTGTGGCTGCCAAGCCATCTGGATGGAATGGAATGGCTCTCTACCAGTTAGGGGCCGCATCGGCCTAGACTCCCAGATTGA
1.057866793453489 AGGCGCTGGGGAGAGCAGAGCCCGGCCCAGTAGGGCCGCCCACGCCACGCCCCCTCCGCCTGCCCGCGCCACGCCCCTTCCCCCGCCCTGCCACGCCCCCTCCGCGGCCCGCGCCACGCCCCTTCGGCTGCCCTCGCCACGCCCCTCCGCCCGCCCTCGCCACGCCCCCTCCGCCCTCGCCACGCCCCGTTTGCGGCCGG
1.54446784553927 GCCTCCCCCCAACCCAACCCACTGGTGCACGAAGCAGGTGCAGATCCGGGCCCAGCCACAGTAACAGGCCGCCGGTGTGGATCAGCTACTGACGACTCAGCGAAAGCAAAAAAATAAAAGCTGAAAACCCGCCCCTCTCAGAGCTTCCACCGCCGCTTCGGAGGATATTTCCTGTGCATCCATCGCCACCTAATGGAAAG
1.326986588545836 CAATGCTCGCGCGTCCCCTCCCGGCGATCCGGAGCACGGCAGCCCCGGAGCGCGCGGCCACTCCTCGCTCCCCTCAGGAGCTCGTAAGAGCCCCGCGCGGGGCCGAGGCGCGAGAGCACGCGCAACGCTTCCTGGGAAATGTAGTTGGGTGTCGGATTAGAACTACAAATCCCGGTACTCACCGCGCTGCAGCCCCGACC
1.879713271581399 CCTAGTTGTGTGCCATGGATATTAAAAAAAAAAAAAAAAAAATCCGTCTACAGTTGGGCTTCAGCACTGGTGCTGCTTTACCCTGGTGCTCTGTGGGGGGATGACACTGCTGGAGTCAGGCCTTTGCTCTTGGGTGGGGCACAGGCAGGTCGCTTGGTGGGGGCCACACAGTGCTGGGCACCTTCAGCCAGTGGTGATGA
1.559005887625365 TGTCCACGCTGCCTATTCACTCGAGAGATGAATAGTTTCCTGTTTTCGATGGCTGGGGAGCCAGTATGAGCTCATAAACCAAACAGCAATTTTCAGAGACATCTGTTCCTGATCTTCAGAATAAACTCAGTGTCCAGTTGCTTCGGCTGGTGGGAGCCAATATTCACGCCACTGACTCTCTCAAAGGGAGGGTGGGCCCT
1.138836170642426 GAGACCCACCCACCCTAAGCAGCGCCTCTCACCCTCAATACCATCATTCCCACCCTCCAGGCAGGAGCTGTGGCTGCGCCTGCTTTGGAAACAGGCAAACAAACACTGTGATGCCAACAGGCAGCTGTGCAGCGGGGCCAGCCCCTCACCACACGCGCGCACACGGTCCAGCCAGGGGCCCAGATGTGGGAACAGACTGT
1.299214147867626 GTGACTGCTCCGAGCGACTCCGAGAGAGGCAGGGCAGAGAGGGAGGGGCTGCCAGGACCTACCCCTGGCTTCCAGCTCAGCAGCTGGGTTGGGGACACCGGGCCAGGCTCCATAAACTCTCCACACATCTTCCCATGGCTTGGCATCCACACTGCTAGGCCAGGCAGGCTCCGCCTCTCCAGCCCTCACCCTGCAGGGTC
1.208593422511324 CCACGGACTGGCCAAGGCCTCCCTTGTTGCTCTCTTGATGGATGGGCCCAGCCCTGGCCAGCCGGACTGGCACTCTGAGACAGCTAACTCGGACAGTTGATTTGATCTGCAGAGTTATCGAGCACTTCCTGTGCGCTGGGCGCTGGGTCTGGCTCTTCCTCACGTGCCTGATGCCAGGGCCCCAAGCCAGCCCCGAGGCA
1.239528296667065 TGCCAGTCCCGCTAGTTCCCTAGTCCCGCCGGCTTTCCCCGCGCTCGCCTCCCTCCCTCCCTCCCTCCCCGCGCTCCCCTCCCTCCCTCCCTCCGTCCGCGTCCCTCCTCCCTCCTCCCTCCTCCGCATCCCTCCTTCCCCGCCCTCCGCGAGGCTGCAGCCCAGGCTGAGCGCCGCCTCCCAGGCCCAGGGCCGCCCCT
1.357972685447104 GGTGGGCAGGGCCAGAGCAGGACAATGGCTGCAGTCACGGGGCCCTGGGAGGAAGTGGAGAGTCAGCAGGAAGTAGAACCAGGCCTGGGGCTCAGCCTCCACGGTCCCTATGTGCCTGGGGAACTGGCACAGGGGTGGGGGTGGCGGCAGAGGGAAGAGCCCCACGTGGGCCAGCTGTGAGGGTGGCAAGCAGCAGGGAG
1.148238205585084 GCCTGGAACCTGCCCCTCCCACCACAGGGTCTTCAGCGCTGCTGTGCCCAGGGAGGGGCTGCCCTGGCAGGCACGTGGGGAAGTGGAGCTGCCTCCCAGGCACAGGGAGCAGAGGTGGACTGTGGGGTGGGGGCTGTCCCCAGCCTGCGGTGAGCGAGGGAATGACGCAGGGCCGGGGGGCGGGCAGGGGGTGCAGAGGG
1.433812856457543 GGGGCTGGCTGCCCGGCACATCCTTGTAACTCTTCTATTCCACAGCCACCAGTGGCCCAGGGAGTGTGGCGTGGCGACCACTCGTCTCTTGCCTGGGCGTCTCCTGGGGCTGCACAGGCCAGCCCAGAACCCTTCCGTGCCTGTCCCTCTAGCCCAGCCCAGGGACAGGGAGATGGGGCTCCCTCCCCTTATCCCCACAG
1.438248407106414 CACACTCTGCCCTTCCCACCTCGGCCCTCCCCACACTCTGCCCTTCCCACCTCGGCCCTCCCCACACTCTGGCCTCCTCCTCCCTCTAAAGGGCCCTTGACTGTTCCGTCTCCACATCTTCCTCACCATGGAGACGACACCACAAACTCTTCACTGACCGCCCTGGAGCCACCTCTCCCCGTAACATGGGTGCCCAGGCC
1.677156011707844 CCCCCAGGGCAGAGGGTGGTCAGCGGATCCCCTCAGCCTCCACCCCAGGCCGGCGGGAGGCAGACGGGGTATGAGACTCAGCTGAGTCTTGGTCCAACATCACCACCTGGTGGCCAGATGAAAAAGTTTCCGAAGGCCACGGCGGCCTTATATGTGAGCTGCCCGGGGTAGGGCTAGGGGGTCCTTCTCTCCTCCACTCA
1.136615951204833 AGGACGGCACCTGTGCCTCTCCAGTGACTCACATGTACCACACTCTGTGGTCAGCAAGGGGCGTGTCTGCTTCCTCCACTGGACAGGGATATACATGAGGCACCCGGCACACCCCAGGCAGCACAGCCAGTGGGGCTCACTGAGTGTTGACTGTTGACTCGACTGGGCACAAGGCCACGTCTGCACAGCTGGGGCAACGG
1.382805600049471 GGGGGATGGAAACACCAGGTCGGCCAGGGGGATGTACCACTTACAGTCATACTGCTGGTGCTTCCTGCAAACGAGCCAGAGGGAGCCATGAGCCAGAGGGAGCCTGGCTCTTCCAGCCTCAACTCTTGGGTCCAGAACCACAGAACCACTGACAGGGGTTGACTGAGAACTCGCCAGAAGCAAGAACGATCCCTGCTCCT
1.673818053268426 CCAGCCCAGGCCCCCAAGAGCCACACCCTCCACAACCCGGACACCAAGTGAGGATGGCTGGGATTCAGCAGGGACAGGTGGAGGTGGCAGCTGGTGGATCAACACTTCCCAACACCCTTCCTGTACGCGGCTGCGCCCACCCTCCCAACAGGAGGCTCAGCTTCAGTCCTGCACCTGGATGCTCTGTCCCTGGGGTCATG
1.672824101149559 CCTTCGGCAGAGATGCTGAGCTCCCCAGGACAGTGAGCTGCATCCTACCCCCATCAGAGAGCACTTACTCAGCCCCCAGCACCCCCGACACTCCCCACCCACCACTGCCCATGCTGGGGGTCCGAGAGGAAGCTTCGAGGGAGGAACAGCCAATGCCCCTCCTGGATCCCAAGCCAGGCAGCAGGTAGTGAGTACTGGAA
1.427978586705031 CTCTGCCCTCCAGGGTGGGCAGGCTGTGAGGGGCTTATGGTTGGGTGTGGGGGTTTCTGCCTAGGCACAGAGAACAGGCAATCAGCCCAGGCCAAGAGAAGACCCCACACTCTCTGCACCATGTCTGACCCCGGGATCTTGGGCGGCCTTGGCAGGGCTGATCTGAACACAGACCAGGGGAGTCCAGGTAGTTCCTGGGT
1.361522934254011 AGGTCTCAGCTGCAGAAGGGCAGGACTTTAAAAGGGGGCAGGGCCGGACTTTTAAAAGAGGGCGGGGCCTGAGTTTTAAAGGGGGTGGGGCCTGACCTTAAAAGGGGGCGGGGCCGGACGGGAGGGAGTTTATTTCCTTTTCCAGGGAGTACTGAGGCCCGGCCCATCAATGCCCACGCTACACGAGGCATACTAGACAG
1.679322242708109 CGTCCTCCTGGAACTTGTGGTTTGGGGGAGTCAGGCAGTTACTAGTGCTCACTACGAGGACTGGCACAAGGCCTGCATTTGGCGACTTGGAAAGCCTTCTTGGAGGAGGTCCCTTCTAAGCTGGGAACTGACCAGGGGAGGCCAGACGAGAGGGGGAAGGACGTTTCAGGCACACGGGGCCTCAAGTACCAAGAGTTAAG
1.469819437324809 ACAAAACACAATGGTTATGCTTCCTCCTCAACTTCCCACCCCGTCTGCAAAAGGGGAAGAAATGGACGCTCACCCACAGCCAGTCACAAGGACGGGGCCTGCGCTTGGGGCATCAGATGGTTCTCATGACACGATGGGGACCTTGGCTGTTACTCCTGATTTCACTCGCGGGGAGGGGACAGGGCTGGGTGTGTGCCCTT
1.564421879389573 TTACATATATATACAGGCACACAGACAGACAACAAACCGAAAGTTCCCTCACTTATCTTTCCCGTGTATGATGCATGCTGACATTTTTTCATTGGTTTAAAAATGCTGGTTCAACCCACTGTACTGGTTTCACAACCCACTGTACTGATTTCACAACCCAAAGCACTGATGGGCTGAGAGGCACAGTTTGAGAAACAGTG
1.475747467093333 AGCTGAGAGGCACAGGCCCTTTCTGGCAATGACCCGGGCTGCCCGATGCCCAGCCAGAAGCAGACCAGCTGCAGACTCTGTCCACAGGGAGGGACGGGTACGGTCCCCTTTCCTCTCCAACTCCAAAAGCAGCTTCAGAGCATGACATCACCCAACACGGGCGGGGGGACCGGAAGGCCCCAGAGCAGGGACTGTACTCA
1.379158706437017 GCCAGCACCAGATCAGAGAAGACAGGGTGGGGTGCCAGCCACTGCCAGCCTCCCTACAGCTCCACTCCCCACCCAGGCCTGCAGCCACCGCTCCACCCATACTCACACATCAGCCATCTCCCGTGGTTCTGCATCTATTTTTACCTCCATTGGCTCCTCCTCAGAGCCACACTGTAGAGTGGGTGGGGCAGGACTGTGAT
0.9928619966463108 GGGGAGCAAGGCCCGGGCAGCCCCTGACGCCGTGCCCGGCCCGTGGCGGAGGCGAACCCGCCGCACAGCAGCCCAGCGCCCTCCTCCGTGTCCCGCCCGGCCCCGCAGGGCCCGCCCTTCCCGGGCTCCGGGGCTCGGGCTCGCGCTCGCTCCGAACACACAGGAAACGCGCGTCGCGAGGTGGAGCCGCCCGTCCTCTG
1.201888858866274 CAGGGCCTCTCTACTCCACCCTGTCCCCGGTGGCTGGAAATTCCAGTGAGTAATGAGAGTGCCCCTCCATCAGACACAGACTCCACTCACAGGCCCTCGGTGCCCCCCTGGAGGGGAAGTGACTCACCAGTCCCCACAGCTTCCCTCCCCTTCCCTGACAAATGCCCTGAGCCAGCCCTGGACCTGAGCTCCACACTCCA
1.555464804358137 GCCGTGGGGCCCCAGCTGATGACTCACCCATCTCACTGTTGACAGTAACCTCTCAAAGGGCCTGGCACGTTCTCACTTCCAGGCCTTTAACAACGGCAGGTCCTCGGCTTGAAGCACTTTCTCCCGCCTCTTGGCTTCTCCCTGGCTCTCCCAGCTTTCCTGGCAGAAACTCAAGCCCCACCTCCAGACTGTATGAAGCT
1.512466029543462 TGCCAAACACCATCTCACAGAAACCTCACAACAGCTGTGAGGTTTGAGCCCTGTGAGGTCAGGAGGGAGGAAATTCTCAGTGTCTTCACACTACAGATGAGCAAACTGCAGCTCTGGTGGGGAGTCATGAGTGACACCCCTCAGGCCACACAGTGAGACAGTGGTAGAGTGGGGACAAAACCCAGTTCTTCTCTCTGCCT
1.49834294510179 CCAAAACATCCCCAAGTACTCAGGAAGAGGCGTCAGCTCCCTCCAGGCACCCCGTGTAAACAGCAATCCCTGCAGAGTCCACTAGGTGGGGCCGGTGACCCAGCGGAAAGGGCAGAAACGCTCCCCGAGGAGGGAAGGCAGGTGCGCGGATGGGACCTTTGCCCGGACGATCCCCAGGCTGGACAAGTGCTCCCTACTCC
1.29548306384987 CTGAGCCCACTCCCTCCAGGGGTCCAGGGCAGGTTCTGGAGTGTGGGAGGGGAGCCCTCAGCCCTCAGAACAAGGCCCCGCACGGAGGACGGAGCCCAAGGCAGCAGGGCGTGGGCGAGGAGGCTGTGCCCAGGCCTGGCAGGGACAGGGGCTCACAGCAGACTCCTCGGAGCCGGTGCTTATTTCTATCACCCCAGTGT
1.505422135561873 GGCCTCGGAAAGGCCCCTGCGTCCAGCCCCACCAGCATGGCTATAGGAGGGACCCTCCCACAAACCGGCCCCTGCCCCTTGGCCTGTTTGCTCCCCAGCTCTGACCCACCACGACTGGCAACGGAGAACGTGGCAGTGTTGCTCCCGAGGGCTGTGGTGGACCTCCTTGGGCTGGGGCCGCCAGCGGGGGGTGGACACCC
1.455054584095962 AGTGGCACCCAGTGGGAAACAGCAGGGCCCCTGGAGGGGACTATAAATAGCCAGGAGGGCTAGAACACAGAGTGAGCAGAGGGGGAGAGGGCCGTGCTGGAGAGGAGGCAGGGACTTGCTCCTGAGAGCCTCGTGAGCTGAGCCGAGAGCCGTGCAGGACTCAGTGAGGATGGGTGACCTGGCCCATGATCCTCTGCAGG
1.680921887215904 CCCTTCACACATACACCTGCAGAAGCAGCCGCACCTCTGCCCAGTGCTGCTGGGTGGCCACGTTCACTGGCCTTCGGCTCAAAATGCTGGCTCTCCACCCAGAGCCTTCCTGGGCCTTAAACATAATTCTACTGTTGAACTGGGCTGTCACAGAGTGCCTCAAAAGTCACCTCCTTCTCCCCACTCCCAGCTCCAGAGCA
1.387755622786968 CACTTGCTGTGTGCTGGGAGTTGCGGTAGACACTGTCCTGTATGATTCCACTCTGAAGAGGTGCTCAGAGCAGTCAGATTCGTCCAGACACAAAGAGGAGGGTGGTGGCCAGGAGCTGCAAGCAGCGGCACACGTGTGGGCAATACACAGGTTGCCCAAGCGCCGAGAGAGGCCCAGGAGGACGGGCCCCGGGCATGGCA
1.512414453783876 GATCTCATGACTGCCAGGCTCTCACAGAGGCCCTGGTTCCCCTCTGGCTCTACGTCTTATTTCCCTGGACCAGTTCCCTAAAGCCCTGTCTGCTGAGAACTCATCTGACAATTCATCCTAATCCCTAGAGGGCCCCAAGCAAAAATCCCAAGCTCAGTTCCTGCACCCAGGCTAGGCTTGGTCAGTGTCCAGCCCTGCCC
1.349776506495538 GTGGTCACCATAGCAACAGGCTCCCGCTCCAGCCTGCCAGGCGGGGCTGATGCAATTCTCGGCAGCGAGCAGCTCCAACTCAGCTCACATGGCTCTGCTCCCACTCGGGGGCGGGCGCGTGGGAGGACCAACGAAGAGGGAGGAGGTGGGCACGCAGCCCACAGAAATCTCAGCTTCCCCCAGTTCTGCTCCGAGGACTG
1.964544807033418 TCAGTGTGGCCGGAGGCCCGGGGGTGTGGCAGTGGGGCCAGGAGGGGAGGCTGCGGCTGGAGATGGGTTGGACCCAGTCTCTGAGAAGGCTCCCACGTTGTGCTAAGGAGTTTAGAGTTTATCCTGCAGGAAGGAGGGAGCTACGAAGGCTTGGAGGGCAGATGCTGCAGGCGCCTGGTCCTTCCCATCCAGTGTGGGCA
1.313410279146781 CGTACTCAGACAACCAACACCTATGGAGGGCCTGTGCGGGAGCCGCTGTGGGAGGCGCTGCCTCAGAGCTGGTCTGATACCCTGTTCCTGCCGGTCCTCCTGCCACATTCCCTGCCCCTTCCTAAGTCCTGTGCCGGCCTCTCCCAGTCCCTCGAGGCTTTCCCGGATGAGGAGCGCAATGAGCTGGACAGCTGAGCTGC
1.515417468767738 CCTCCCGAACCTTCCCCCGCTCGTCCCTTTCCACACCCCTGACCTCTGAGCGCGGCCGTTCCCGCCACACATGGAGGGGGGCGGGTGGAGACCCGGGAGGACCGAAGTCACGGGGGCTGTGGGGCCAGGACAGTCCCACATGTGCCCCTCCTGGGCGGAGGACAAACTGGAGCCAGGAGAAGCCCCAAGGGCTCCACGCG
1.614971703989348 GCCCCATAAGCTGCTTGGGCAGAGGCCTCTGCAGCTGCCCCAGGGGAGATGGGGGTCACCCACTCATCACAGGCTGGGGAGCCCCTGGGAGACGCACAGGATGATGCTCTGGGTGGGGAAGCCTCTACAGGTGGCTGCAGCAGAAGTGGTTTTCAATATTATTAGCCCGTCCCTGCGTCCCCAGGGCTCCCTCCGCCCCA
1.435558315062686 CTGCCATCAGTGGAGCCTCTGCTCTGGGGCTGCCGGTCGGGCCGTGTGTGCTGTGTCTCTTTAAGGACCAGGCCTCTTCAAGGCAAGTTCCCTCTGCAGTCCAGTCCTGCCTCTGCCCGTCCTGCGGCAGAGAGTGGGGGCTCCCCAGCGCCATCTGGCGGCCGCACAGCAGCACCTCGGCCACCAGAGGCTTCCAGCCA
1.537861206724697 GAAGCCAGGCACACACACCCCTGAAATCACTGCACCAGCTTCTCTTAGGCTGAGCTGCACCCAGGACATGCAAATTTTCCATAAAGCACTTTCGGGTTCTGATCGTGAAACCTCGTGACTCCTAATTTCCTCTTCCCCAAGCTCTTGGCACCTTGTCCTGAGCTGGTCAGCTCAGTCTCATGAACACACAGTCCGGTGCC
1.514137831356963 AGAGAAGCCTCCCAGTCTCTGGGGCTGCGGGTTCTGTCTGCTCCCCCTCCCAGAGGCCACACATGAGGCTGTACATGCAGGCAGGCCACATTTCCTTCCAGGCCCACAAACAACCTCGACTTCCTGCAAAGACCACTAACCCCAACGTCGGTACACGTGGCACGTTGCCCAAGGCCGAGCTGCTGCTGATTTTTAGTGTG
1.492870404437796 CCTTTTAAAAGGTCTTTCACTTGCCGGTGTGAGCAGAGGATCCTGGGGAGACTCCTTGGAAGGGGCTTCGGATCCAGCCAGGCTCCCGCGCAGTCCTCAGGGGGCGTGGCCCGGCTCGTGGGGGCGGAGTCCATGGGGGGCGGGGTCCGCGGGGAGGAGCCTGCGGGGCGGTCCCCCGTGGGGGCGGGGCCTTGAGGGGG
1.419309297448443 CAGGGCCCGGGTCGTGTCCGTGACTCGCGCAGGAAGGCGGATGGCGCCCCCCGGGCCTGCCTACACCCTGGGAACCTCGCGGGGCGAAGGGGGCTCGGGCGCTCTCTCCGCGTGGCGAGAGACCCGCCAGGGGGTGTGGCGTGAGTGTGTGTCCCGCCAGGACGTTCCGGTGGCGCCGCCTGACGCGGGAGGAGAAACCA
1.538004656288744 AGCTGGGTGTGGTGGCACACTCGGGAGGATCACTTGAGCCAGAGAGGTTGAGGCTGCAGTGAGCTCTCATGTGACCACTGACGTCACATCACTGTGATGGGTTAGACACTGATGCGTTTATAGTGTAACTGCCACGTGACTGGGTTGTTGCGTGCACAACCGAGCATCCCTTGACCCCTTAGATCACACAGGGTTTATCC
1.67600262826982 GCAGCATGTGCTGCGTCTCGATCGGGTGATTCCCACACCATCACTGCATGCCACGGTCCCCTGTCAGCCTGTGAAGAACCAGTCTCAGAGCCACATCTGTGGCAGAGAAGTCCTTGCTACTAATGAGATTCGAGTTCTCTGCTAACGTCGCGGTAGAGAAGTGCTGACCACTGCTCCCTTGTTGACTCTGTAAGGGAGAG
1.497014922322499 TGGACTAGACATGGTCTCTGGGCACCAGGCCAGCCGGAAAACGAGATGGGCCTAAGCCTCCCCTTGCCCTCTTGCTCCCAGACTCCTAGAAAGCCAAGAGGCCGGGCGCCGCCTTCTAAGAAGAAAACGAGTCCGCAGAGGGGGCTGGTGAGGGCCGTGGCCCTTCCCTGAAGTTTGCACGTGGCCCCAACACACAGAGC
1.084956231441825 TCAAGTGTCCCCTTCCGCCCTCGCGCCTCCTCCCCGTCTTCTTCCTCTTTTCTTCCCCTCCTGGGTTTCGCCTCCCTGACGTCGGCGGCTCCTCGCGGCGGGGGCGGGCGCCCCGGGGATGAGAACCCGCCCCGGGCATCCCACAGCCAGCTCGGGCCGCGGAGCCGCCGGGGGAGGGCGGGAGCTGCGGGGCCTGGACT
1.431490612919717 CACCCAAGGATGACTGAGCCAAGCGGCTCTAGCTGGAGGCGCCCGGGACCTCAAAGCTGGACTCCCCGGGGACTGAGTCCAACCGTGGCTGCAGGGGCCGCGGCCTGGCGGAGGGTCCGCGTGGGTGTCTACGAGGATCCCCCCCGTTCCATCTCCTCTTTGCGGCCTCAGACACTTCCCCTGGGGAGGACGAGAAATGG
1.555782396145512 CGTACAGGGTGGAGTCCAGACTCCTTGGCCTGACGCAGGAAGTCCTCCCACATCTGGTCTCTGCCCACGTCGCTGCCTTCTTCCTATAATTTAGCCTTGCCAGCTCAAAGCTGGCCCCAAAGACCTCACACCCTTTTCCTTTTCCTTGGAACTTCTCATCTCTCCCTACACGCTTGCAAAAGTCCCCGCTGCCTGGGGAC
1.414694658565161 CTCCTTAAACTGCTCCTAAGATCAGCGCTTGAGATATTTTGGAAACCCTGCACTTCATGAGTCAGCTGACACCACCCACATCAATAAACTGGCTCATCTGATCTTGCGGACCCCACCCAGGAACGATTGAGCTCAAGAAGACAGCTTTGACGCCCTGTGATTTCACCTCTGACCAATCAGCACTCCTGGCTCACTGGCTT
1.526801441400964 CAATTCACACTCCTGCTGGGCCCAGGCTGGCCCCCTTCCAGCAACGGGCCTACGCCTGTGATTAGCAGAAATAGCTTTTCCAGCCATTTGGAGCAAACAGGGAGGATAAGTGAGCAATTTATGAGTCTAACAGTCGTTTTGGACCCACGCCCACTGCTGAAGGAGCAGGATGGAGCATTTATCCCTCCCCTGCCCTCGTT
1.043783132753917 TGTTCTGGAACCTTCCCCGCAGCCCCAGCTCACACCAGTCCGCTGAGAGGCTGCCCAGCTGCTGTACAGGAAATGCTCACGCTCCGTGGGAGGAGCCTTCAAACACTCACCCCTTCCTGGAGTCCCGGCGGGACGGGAGAACTGGGGACTCTGCGAAAGCGCTGCGGAGCGTCCAAGAGCTCCCCGTGGAGCTGAGGCAG
1.38975391280693 GTTGCTAAGGTTTGGAGTCTAGGAATAAAAAGTTCCCTTCTGAGTCCGCCACAATGATGGCGGGAGGCGGTGGGAGGGTGGGCGATGGTTTTGTTCCTTTGCTCGTTCACCCCGGTGGGGAGCCGGGGAGCCAGGGAGCAGAGTGTGGGAACTGGGTGGAGATGTCTGCGGAACGGTCACCCGGACACGGGAACACGGCT
1.405873984149196 GACCCGCTCTCCGGAGGGGGTGGGGTCGAGGCCCCCGTGAGCGGCTCCCGGACTTTCTCTCCCGGGCGGGCGTTCCGTCCTCCCTCGGGGAGCGGCGCCGGAACTTCCGGAGGAAGAGCCGGAACTTTTGAAGCCCAGGCCCCGCCCGGCGCTAATAGGCACCTACGCGGCCGCCGGCGGAACCGCCAGACCCTAAATCA
1.447079828028718 CAGGAAGAAAGACACCCTGTCCCTGGCAGCCTGAAGGAGAGGCCGTGAGGGCAGAGGCCGATGGAACTGCTCAGAGGGAAGGGGCTGGCTCACGCTGCACGGCCACCAGGCCTCCAGGGATGTGGGTCCAAGGTCGTTTGCTAAGAACTAGGGGCCTGGTGGCAGCAGGGAGGGGAGGTGACCAGGCACAGACAGGCCAA
1.601604078438905 TTGAACTAGGTTCAGGAAGAACAGAGCTCACCGAGGAGTGATACATAAAACAAGGCCCCCGTGAAGCCACATGACTCCACCCAGTCCTGGTCTCCCCAGGCAACCACGAGGCCATTCATTCTTTTGTGTGATCCGGGAAGTGGGCTTGATTGAACGAGGATGTGGTTCTTGGGTGGGAAATGGAGGCTGTGAAGACAGTG
1.280694170607654 CCTCCTCCACCGCCCTGAGAAGAAGTGCCAGGCTTTGCTGGGTTCTGCTCCCAGCTGTCCCCAGCTGGTGAGGGACAGGCGTGGTTAGGGGTCTGCACAAGAGGCCCTGGCCACTTCTCCGGGGACAGCCCTCTTCCTCTCCCCTAGAGTGTGGGCTGCCATGGGGACGGGATGTGTCTGGAGGCCCAGGCTCAGGGCCA
1.431911359873579 GACTCTGACCCAGTACCCCACAGAGACCACTGGAAGGACTCTGACCCAGTACCCCACAGAGACAGCTGGAAGGACTCTGACCCAGTACCCCACAGTTCTAAGGAAGAGGGTTAGTCCACGGAGCTGCAGAGGTGCCCGCTCCGGCTCTATGGGGTCAGCAGGAGGTGACTCAGGACCACCTCTGAAGATGGGCTTTGGGT
1.426688555924641 CGTTGGGAGGCAGAGGGAACTCCATAGAGCTTCCCCGGAGACTAGGGAGTGGTGGGGAGGACAGGCCACTGGTGCCAACCTGTGACTGCTCCCGCCTATGTCCCCTCCCTCACAGTTCCCCTGGGAGTGCCAGCCCCTTGACCGGTGGGATGCGGCCCACCAAAAACCCAGGGCATCCTTAGCAGAGACCTCTCTCAGAC
1.633912841887615 TTTTATGGTGGTCTTCTACCAAACACAAAAAGCAGTACCGAACCTGTGAATGCCGCAAGCTACACACACCCTAGGAGAGAGCGCCCCCTTGTGGGAATCAGTCACATCAACAGATTCAGACACACCAACAGCTGGCTCCAACGCGGGGAGCACTCAACAAGTCTTGACCCTTCTGTGTTCTGATTTCAACAGCTTTGATT
1.488215458996155 CATATACATCACATCCAACCACAGTAGGCAGGAGGAGCAGGCCGGAAAAGGCTTAGGTCAGCGCCCTGGAAGGTGGAACAGGCAGAGTCTGTAAGCAACAGGACGATCATACGCAGGCATGATTAGTGAAGAACCAAAACTGAAAGCGGAATTCACTGTGCCATGAACGTGACTTACAAAGTAGAGTTTTTAGGAAAGGA
1.734525193798155 ACCAAGGTATGGTGCAGCCATGTTCCATTCAACAGAGTTCTTTGCTCTCTACTCCTAGACTTTCACTTGTCCACACCCATGACCATGCTGCTCCATACTAGAAGTCTGAATTGCAACACTCCACTCTTGGCCCGTGGCTTCCTTTTTCAGTTCCTCTTCTCTTATTATTTCTATTTAGGGACTCATCAGGACATCTGGAC
1.152407132753199 TCTCTCAGCCTCTCGCTCCGCGTCCGGGCAGCAAAAATGGCGGCGCCTCAATCCGGGACTTCCGCCTGCGCACGCGGACAACTGCTCAGCTCTATGGCAACCGCTCCCTGGCAACTGGCGCGGGGGGCGGGTCCTGGAACTCGGCGCCCGAAGCGGCTGGAACGAGCGCACGAGACGCCTCTCCTCTGTCGGCTCAGCGG
1.315063516562532 CGGACTCAGTCCAGGCAGCCCTGCTGGAGGATGGGAGACCACAGGAAGTAGAGATAAACTGTGTCAGCTGAGGGCCATCCAAGATCAACCAGCCCCTGCCAATCAGCATCTGACCTCATCCATGAGTGAAACTGGCCAAGACTTGGAGAACTGCCCAGCTGAGCCCAACCCCAGCTGCTGACCTGTGTAATTATAAGATG
1.183885756660246 TGACGCGCTCCCTGCCCGAGGGAGGCTGCCGGGAAGGGGCCCGCGGCCCGCCATTGGGAGAAGGGCAAGGCGCCCTCGCGCGCGCACTGCGCATGCGGATTCATGGGCGGTGCCGCCCTTCCCGGGCCCGGGCTGCGGGGGATGGGAGGCGGGGTCTAGGGCCCGAGGGGCGGGGCCTCGCAGCCTCCCGCAGAGACGCG
1.485029568819547 GACACTGATTTCATTTTGGCGAGTCATCTCCTCCCACTCTTGGTTCTGTGGTTTCCGGTGTGGGTTCCGGTGTGCCCCTGGTAGCTCTGTCTCCAGGGGCAGGCACTCGATCCAGGCCTGACCAATCAGAATCTATTCCTCTCCCTGGCTACAGTGATTGGGTCAGGGTGGATGCCTCATTCAAGGTGCTGCACTGAGAA
1.238797720345864 ATAGACCAGTGGGATCTAGGGTGCCCTGGGGCCACCTAGGGGAAGAGGATGAGATACACGAGTCTGTGGCTTGCTGGAGAGGCCTGGGCGGGAGGGTGTGTAGGCATCCTCAGCAGGGAGACGCTAGGGCCGGGAGGATGTGGTGCTTCGGGAGAGGGTGGGGTGGACGGCAGCAGCGGGCAGGGGCACAGTGAGCCACA
1.68870580381662 TTCTGCATAGATGGGACTCCAGGCGTGTCAGCATGCCTGGCTAAGCTTCTTAGTTTCTGGACACATGTGAGGGGTCCTTAACTCAGCACCGTCCCTGGTCACCTCCTTGTGGCTGGTGTTTTGTGATGGCGGAGGGACTCCTGCACTCCGCAGGCTCTGCTGCAAGTGAGCCCTTGCCCCCAGCAGCCCCGCAGCCCCAC
1.313317983351648 TTACTCCCAGACTACACCAGAGGGGTTCCCCCAGAGGGCCTCCCACCCCAGCTGGGCTCAGCCACCCACTCCAGAACGCGGGGGAGGCCCTCCCTCGCATGGCTGGGGCCACTCCCTTTCCTCCAGCTGCTGGGCTCCCCAGGCACCTCCTCCACTGAGAGTCCTGAGAAGCCTCAGGGGATGGGGGCTTTACCATGGAA
1.372532029664969 GGGGCGGGGGCGGGCTCCGCCTGAGTCAGGTTTTCCAGGAGGGACGCCGTTGGCACCAGGGTGGAGCCCGGAACCCGCGCGGCCGCCGCGTCTACACCGACCCGGAACTCACTTCCGGGCCTGGGACTACACTCCGCGGCGGGCCTGGGCGCTGGGCGGGCACCGAGGCCTGCGGGTCCCAGAGGAAGCGGGATTTTCCT
1.302608708311088 GGGGGCCTCCCTAGTCCCTCCGGATCTCCGGGACGCCCCCCACCTCCGAAGCGGCCTCGGCAGAACCTCCCTCGCTTGGCTCTGCGGGCACCACCCTCCCTCGCCTGGGGCGAACCTTGGCTCAGATCCCACCGCGGGCAGGGGCGGGGACGTCTAGAGTCTGCAAAAGGCTGGGCTGGTTCTTCCTCGCGGTGGGACTC
1.100271561520943 GGGTCAAGAGAGCCCCTCCCGGAAGCTCAGCTCTCTCCCTGCCCCGCGAGGCGTGGGGGACTCGGGCCGGGGGCGTGGCAGGAGCCAGCGGGGGCGCGGCCAGAGGACGGGGCGGAGCTTCGCGGCCGCAGTGTCCGCCCCGCCCCTCCACGTCACGCGGTTGGAATGAGGGGAATCCGCGCGCGGAGGGGTCGGGCCCG
1.373903780018105 TGAGGGCCGCGTGGCCATCCTCCTTCTCCGGCCACCCCGGAGCCCCCCGCCCGTCACACTCGGGGCGCGCTGGGCCCCAGGGGCGGAGAACGGGAAGGGGCGGGTTTAGGCGGCTTCTCCGGAACCCAGAGGCGGAGCAGGGCTGCGGGCGGGGCCCGAAGGGCGCGCAGGGTCCTGGGTCCTGCAGCCCAGGCCGCTCT
0.5977186726294468 GCGGGCGGGGCCGGGCTGGGCGGCGTGGCGGGCTTGGGGATCCGCGGCCCGGGCGCACTCTCCCCGCCCAGGGCCCGCCGGGGGCCGGGCCGCAGCCTGTCGTCATCCCGGGCAGGGCCGCGCACCCTCCGGCCCCGCCCCGCCCCGCCTCAGCCCCGGCCGCGTCCGCGAAGCCTCGGTGCGTGCGGCCCCCGCCTCGG
1.152690861073875 GCCCTCCGCGCACCCCGGGATCTGGGTGGTGCGGTTCGCAGAAGGAGGCGGGACTCTCCCACGAGCGCAAAGCTGCGAGAGGCTGAGCGAAGACGGGTTCGCGGACGTAAGAGGGGCGTGTCGGGCCTGTCATCAGCGCACGCGCAACACTGCCCCAGACGACGCGAGGTGTGCGGCCGCCACTAGACCCGGCCCAGCCC
1.54366125744649 CTTTGGCAATCTGGGAGGGGGAGCCCAGTGGGTGGGCCTGAAATACTGACATGAAACACGTCATAAACAACAGTACAGCTTTGGTCCCACCAACATGGCCCTGTCAGGCTGGGTACCAGAGGGGGACTGGTGCCGTGAATCTCTGGAAACAAGAAGTGAAGCAGCCCGGCCGACCTGTGCCAGGAAGCACTGGTGGACAC
1.479919721295356 TTCATATTGGGAACAGAGTGGAAGTTATCACAGGAGCTTCATGCTGACACTGCAGGAAAGAGAGACGGAGCCCAGTGACTGGAGGCACTATACTGGCTGACGAACCTCACCCAAACTCGAGTTTAACTGGAAGCTGGGGCGGGGTGGGGCTGTGATTTCAGAAGGAAGCAAAGAACAAGGCTGCGCCAGGAGAGGAGAGT
0.8188875963527825 CTGCCGACGCCGCCCGGAGCTCCGGTTCCGCAGCGCCGCGCGGGGGCGGGGCGTCTCTGCGGCAACCAGAGCGTCACACGCCGCGGTGCGCGCTGACGTCACGCGGGGCCGAGCCTTCCCAGGCCCGCCCTCCCGTCCTTAAGTGGGCCGCGGCGGCGCTGTCGGTTCCGAGGTGGGGCCCCGCGGCTGGGGCCAGACCC
1.472928242950583 GCGGGTTGGTGGGCCAGGCGGACGGGCCTCCCCCGTCATCAGCTCCAGGGCCCCACGGAGCCCGCCGGCAGGGGGTGCTGTGGGCCTGTGGCCTTGGACAAGCTCCTGGCCCCACGCCAGGATGGCTCCTGGGCACTGGCCCAGCTGCAGGCCTGGCGGCTCCCGCCTGGTCAGTGGGGATAAGGGCTAACTCCTAGAGC
1.246179614612463 GACTCTGGGGAGGGCCCACCCCACTCAGCTGTGCCCAGGGCCTGTGGGTGTCTGGCTGAGCCGAGTGGAAAGCGTGGTGCCAGCGGGGACCTGCGGTTTGGGAAACAGGCCCAGAGAGGAGTGTGGAGGCTGGGCTTGGCTCTGCAGTGCCCTCGTCCAGAGAAGCATTGAGTAATCGCGGAAACTCAGCACCACAGATC
1.566974604841917 CCCTGCTGACATTCTCCTGTCTGCTGGTGCCGGGTCACAGGCGGACTGGTGAATCAGGCCTGTGACGTTGGCGGGTAGCGTGATGGGGAAGTGGCGGGCATGCGGAAGACCTGGTGCAATCAGGGTCCCTGTCACCACACTGCCTGCGGGAAGCGGCTCTGTCACATCTACCTCCTGCTGTGCTCAGAGAGAGGGAAAGG
1.599048365568629 CACTGGAAAACACACACCCCACACCCCACACCCAGGAGGCTATTTTGGTCCTTCCCTCCCTCCTGGACCAGGAAACCCTGATGGGGACACGAAGAAACAGTTGGGGCTGGCAGTGATGCAATAGCTCTGACGGGCAGACAGCTCCTGGGATGCGGCCTTTCCATGGCCCGGCTGGCCCGGCTCAGCTTAACACATTCTGG
1.65459897348357 GAGCCCTCATCAGAGGCCTCAGGGGGCAGGGGAATGCCCATGGAACTCCCTCCACCCTGGGGGGAGGCAGAAAGAGATGACTTAGAAGGAGAGCTGGCCCATGCAACCAGAGGGTGTGGGTGTGAATGGTGGGTGTCAGCACATGCCCTCAGACGAGGAACAGTGACGTAGCAGCTTCCTGGGGCCTCTGGACCAAGGGT
1.896647956217206 AAGCCTCTCTGAAGAAGCTATTATTCTCACTTCTTTCCCAATGGCCAGCTCGGAATGGCACAATTGCCCAACTGGGCGAGCCCACAGAGTTCCCTTCTTCCCTCTGGGAGAGACTTTTTGGTTCCTCTTTTGACTTTCTTTTTTGTTGTTGTTTTTGAGACAGAGTCTGGCTCTGTCGCCCAGGCTGGAGTGCAGTGGCT
1.318142240144331 AGGACGGGCTGGGAACGTGGCTGAGGAGCTCTCCTGGCCGGGACTGCTAGTTAAGAGATGCTGACTAATCCTGCAGAAAACAGGAGCCGACTTTGATTAGACATGAGGTCACGCTGGGAGAGTCAAGGAAACGCTCTTCTTCCGGTAACTGCCTGCCTTCCAATTGCAGCCCTCTGGCGCCAGGGCTGTAGCGCCGAGGT
1.797125885209835 CTTAGGAGACTCCACAATGGCCTGAGGAACGTCTAGATTCTAGATGAGCCCTCCCTGGGGTGGAGGCAAGGCCACTTCCTCTCCTGCTGCACCCCAGCCCCTTAATCTGGAGTTCCTCTTTCTCACAAGCAGACAGCAACATGTTTACTACCAGCCAAGCTATGTTCCAGGGCTGGGAGGAGAGGAGAGCAGTCCAGCAC
1.360911364158252 CTGCCCTCTTTTATTCCAGCCCTTTTATTCCGACCCCAAGAAGAAAACACTGCCGCCCGCTGATTGGCTGAGCGGGGCTGGAAACAGGCGTCGACCAATCAGCAGCCAGCCCCCCGCCCGCCCCGCCGCGAGCAGAAGCCGGTTCCGGCCGGACTCGGAGACAAACAAGAGAGATGGGGGACGGGAGGGGCCTGGGCGCT
1.54435859599649 CCACCACCCCAGGGCTGTGGGAGCCCCAAACGCCTCTTGCTCCACCTGCCCCAGTCCGAGTGTGCCCCCTACTGTCTAGAATCCGCCCGGGCCACCTGGCGAGGGCAACCTCCCCCAGACAACGCTTGGAGCTGTCAGCCTGCTGGGGGGCGGCTCCAGCTGGTAGCCTACCCGGTTCCTCACCCTGTGGAACCCTTCCC
1.455406325096449 TTGCACTGGCACGGGCGGCGGCACGTGGACGACCACCAGCCGGGTTCGCAGTGGCACACGCCGGTCGCGGGGTCGCAGCGCCCGTGGGGGCCGCAGGCGCACGGGAACTCGCAGCGGGCTCCCCAGCGGTCGGCCTGGCACTGGCACGCGCCCGTGGCTGGCTCGCACTGGCCGTGCGGGTGGCAGGGGCAGCTCTCACG
1.021639609356439 CCCGGCCTGCCCCCGCGCTCGCTCTTTAGCCTGCGGAGTCGCGGCTTCGCCAGGCTGCTGGCGCTCCCTCTCGCGGTCCTGCGCGGCGCGCAGCTGGGTCTGCATGGCCGCCAGCTTGTGCCGCAGCTCAGCGTTCACCAGCAGGAGGCGCTGCAGCTGCTCCTGCAACTGGGAGCGGAGCAAAGGGTGGGGTGGGCGGG
1.86611841033032 CTGACTTACAGCTCCCTCTAGGTGGCATCTGATGTCCTTCCTTCTCTTCAACTGACAAACAGATTGTCCTTGCTGTCTCCACTCACTCACTTCCCATGAAGCCTCACCCACTGCCATCTGGCTTCCATCCCTACTATTTCTGTAACAGCTCCTGCTAAGGTCACCAATGACGTCCTAACTGTCAAATCCAATGGATACTT
1.476923607596773 CAACCCGAGTTCAGCAGTTGATCCAGTCGGCGCCGAGGTGCTCAGATGGATTAGTGAGACGACCAATTAGAGTTGCACACTGCGCCGAGGAGGCGGGCCCATAGGCGGAAAGGCTTTGAACGCAAGGGGGTGTGGTCGGGGTGAAGCCCCGCCTCCTCCATTTCCGAGGCTGTTTCTGGGGCCTCTGACAGACCTCAGCG
1.570024283546576 AGGCCCCGGCCGCAGTCTCCCTGTGCGCACCCCCACCCCAGTCTCAGCTCTGGAGACGCCCGGCGGGTCTCCCGGCCTCAGCCTCCCACCCCTCGCCCTCGCCCCGTGCGCCTCGAGCCCCCAAGCCCGCACCCGAGCAGCGCCCCGGTCCCCGAGAGCAGGCTGTGCGCCAGGGAGACGCAGAGGTTCCACCACTGCCA
1.386873841129526 TGTCTGCCGGCCCCTCCATGTCTGAACTTTGTTCCAAGTTCCAAGCCCCGCCCCCACAGTTCCAACGCATGAATCAGCAGGAAAAGCCGGGCCCTGCAGCATGGCCCAGGGAGGGGGCTGGGGGCGTGGCAGGCTCGGGGGATGTGAGCTGGGGAGGGCGGGTCCGTGCTGACACTCAGTCCAAGGGCATGGCCCACGCC
1.212599492947791 CGGGGCCTCGCCCTGGTCCCGCCTCTCCGGGCGCCCTGGCTCTGATTGGCAAGGAGGCCACCCTTTTGCCGGGCGGAATTGCACGAAGCCACGCCCACCCACTGAGGAGCCGGCCAATAGACGGACAGGTGTGGCCCAGCCCTCCGCGTCAGCGACCCGCTTAGAAAAGCGCTACGTCAAACGAGAGTCCTAAAGAGCAG
1.316579918735181 CAGGGCCAGTGGTTTCACTGTAGACAATGGTCTATCTGTCCTGCAGATGAGTCAGAACTAAGACCCCTTGAGGAATCATGTTGCTTTGGTGCCGGCTGTCTGGTTTCTATTCCATATCCTGTGCCGCACCCTTCCCCCAGCCACAGTGACATCTGGAGGCTCTGACCACAGCTGGCAGGCTCTGTGGTACCGCAGAGGCC
0.9867725418839483 GGGAGGAAGCGGAGCCCAGACCGAGCCAGAGCGGAGCAGCGGGAGGGAGGGCGGGGAGGCCGCCGGGCAGGAAGCGGGGTCCCGCCCGGGCCTCTGGAGCCACGTGCGCTTGTTTCCGTGCTGGGGCGATCACGTGACCCGCGTCAGCTGACCCGTCACGGTGGAGCCCGGTGCTCGCGCCCGGCAGCCTCTGCCCCGCC
1.572313907224542 TATGTTGGTAAGGAGGCCTGCGGTCAGTGCTGGAGATGAGGCTTTCTCCCAGGCCCTCTGCCTAGCTTCAGCGCTCTCCGGCGGGGATCCTTCCCACCCCTCCCTCAAACCACCCCCCGGCCAGGTGCTGGGTCCCAGTCTAAGTGCCAGCCTTGGGTAGGGCCAGGCTGGGCCCCCAGCTAGAGTGAGCTCAAGCGGCC
1.315311400876019 CCGCTGAGCAGAGTCCATGGCCCTGCCGGGCTGCCCTGGCTGGGGGCAGGAGCACGCCTGGGCATGGGGATCCTGTCCCCGTCTCCTTCCCCTCCCCCTCCCTCCATTCTCAGTCACAGGCCTCGGGGAGCTGCTCAGGGAGGCCCAGGAGGGGAGGAACAGGGCTTCGTGTGGGAGGATTTCTGCAGGCAGCTGGGACT
1.126079855480865 AGTTAAGAGCAGGAGGAAGCGTTGCTACCTTCACTTCTCCCCAGCTCTGCCCTCTGGGTCCACATGAGGACAGGGAAGCTCGGGAAGGGGAAGGGAGACTGGCCCTGCCCAGCCGGTCTCTAGCCCCTCAGCCCCCGCTGGGCACTCTCTGTCCCATCCCTCTAGGACAGGGAAGCTGGCCTGGTCCAGGGCACTGATGG
1.800926256975508 CACCCCCTGCCTTCCATCCCAGTCTGAAGGCAGCCAACCTGATCCTGGGCTTGGAAGGTTGGGGGTGGGCTTCCTATCCTGGGCTCTCTGCATAGGCTCTTGTGGCTTCCCCTTTCCTCCCCTCAGGAGCGGGAGGCAGCTCTCTGGGAGAAGAAAGGACATTGGGAGTGAGAATCTGGATGTGCCTCAGCCCAGCTCTG
1.366255467106094 GGAGCCTGGGCAGAGAGTGAGGAGCACCCAAGTGGGGCCAGAGGAACGTTGTGTGTGGCAGCAAGGAGCCCGCAGAGGTATGAGGGGAGGGGCTGCTCGGCCTGCTCCTTGGGTAGGAGAGGAGGAGGGAGCTGCCTCCCTGGCTGAGGGGTCTGGGATTTATTCAGGAGGCCTGTCACTCCCCAGCCTCTTCTGGGACT
0.9346639999550318 CCACCTCTGGTGTGGGAGAGGCCCACCAAGGTCCGGCTGCCTAAGCTGTATCTGAAACACCAAATGGACCTGGTGGCCACCCTCAGCCAGCTGGGTAAGGAGGAGGGTGCGGGCGAGCCCCCGAGGTCAGGCTGGGCAGGGCGGGTAAGGAGGAAGCGTCTGGCTGGCAGTGGAGCTGAGTCAGAGCTGTCCTGTGTCCT
1.589064483822008 AGGTGTCCACTGCCAGTTGACATAAGGTCACCCATGAACTTGGTGACAGGAATTTCAGTGGAGAAGTGGCCACAGACACAAGTCTAGAATTGAAATGGGAGCCGAGGCAGCGTAGACAAAAGAGGAAACTGCTCCTTCCAGAGCGGCTCTGAGCGAGCACCGAGAAATGGGCAGTGGCTTTAGGGGATGTAGCGTCAAGG
1.597253594973302 ACTGTTAAGGCAATTTCCCAGCACCACCAAACCGCTGGCCTCGGCGCCCTGGCTGAGGGCTGGGATGGAGGACAGCTGGGTCCTTCTAGCCAGCCCCCACCCACTCTCTTTGGCTACGTGAGTCAAGGCTGGGCGACCAATGAGGTTGTGGCCTCCGGCAAACAATGACCACTATTTAGGCCGGCAGGTGTATAGGGCAT
1.291295787364594 AGGGTATCTACCTCTCCCTGAGCCCTCCCCCGCCTGCTAGGACGAGAGCGGGGCTTGGATACTGCCCTTTGGACAGGATGGCATCATTGTCTGTGGCTGCAGCCAGCCAGCGGTCGCCTGCTCAGCCCATGAGCAACCACTGTGGACAGGGTATTGCGTGTGTGCTGAGGGGCGTCCATGCAGACCCCCACGCTTGCCCT
0.9249453194890837 AGGCTCAGGGGAGGCAGGCTCCTGGCAGCTGGGTGGGGCTGGCCCCAGCCGGGTGGAGACCAGCTGTAGGCCTGGATGGTGGTGAGGCCTCTGTCTTGCGCTGCAGAAAGCTTTTCCTGTTGTCTACACGAAAGTTTTCTCCCTGCATGTCAGGGCAGCCACGTGCAAGAGCAGCTGGCTGGGAACGCAGAGGTCTGCGG
1.481174603990949 AATAGATCATGTGTGCCCAGGCCTGGCCTGGCACTGGTGTGGAGGAAGGGCCCGTGAGCCCAAAGAGGCTCAGAAAGAGGAAGTGGGCTGCAGGAGACGGTGGGAGGGGCAGGGAGGGCAGTGGCGCGATGTGGGGAAATCTGCTGCCCCCCTGGCCAGTGCCTGGGGATGCCAGCAGAAGTCCTGGCAAGTCACAGGAA
1.956612008002923 AGATGGGGTTTCGCCATGCTGGCCAGGCTGTTCTCGAAAACTCCTGACCTCAGATGATCCACCCGCCTCGGCCTCCCACAGTGCTGGGATTACAGGCGTGAGCCACTGCGCTGGCCAAATCAGACAAGGTTTAAATCCCAGCTCTGCCTGTACTAGCTGAGGAACTCTGCACACATTTCATAACCTTTCTGGGCCTACGT
1.632667367045589 ACTACTAAGAGCTTCAGTTCCCACTGGAGTGGTGCACACATCTCATTACTACTAAAACCACAGGAATGTTCCAGGGAAACAGACTATCATCACTGAGCGAGGTGGAATCCAGCCAAAACCCCAGGCTAACATCCAGATGCCTGCAGATCAGCTAAAATCCTTTTAAAGGACTTGGAATCTCCAGATACTAGTTTTAAGTC
1.916000548650451 GACGAACCAGAGAACAACCAGAAGGAGAGCTATACTGGAGGGTGGGTGGGGCTGCCTGGCCAAGTTCTCTCTGGGAAACTCACTTGAGATCTAAAAGCTTTCCCCATATCTCCCAGGAGGAAATTCTTTTTTTTTTTTTTTTTGAGATGGAGTCTCGCTCTGTCGCCCAGGCTACAGTGCAGTGGCGCGATCTTGGCTCA
1.485551163352909 ACAAAAGCAAGACACTCCTATCAGCTGGGCTCACGCCCCACTGCTCTCTAGCAGAGACTAGCTCTGAGGAGGGAAGAACCGCCCTTCTAGGAAGTTACATCACTAGGCCCTGGAATTAAAATAAATGACACTCAACTTCTGGAACTGCACACAGCTCACGGATGTCAGCGATGACCCGTTAGTTGGCAGGGGTACTTCAA
1.689857953941811 TCCCTCTCACCCTCAGTCCCATGGCCCTTGCCCTACAGCTGAGGGTGTGGCATGTGGCTCACATATGGCTCCTTCCTCTGGCCCAAATGGCTGGAGGAAAACTATGTCTAATTTTCCTCCAGCCACAGTTCTCAGGTCAATGAAACACAGTAACATCTCTGCCCAGGCTGCTGTTTGAGTGGCATGTGCTCTTATCCTCC
1.458924345530735 CATGAGCCCTGGCCTTGCCCTCTGTTCCTCAGAAGATGAGCTGGGCAGCTAGGCCTGCAGCCCGTGTGAGTCATGGCTCCACAGCCAGATCCAATATAAATCAGATGGGACATGACTCACGGCAAGCTCCAGTCCCCAGGAAGCAAAGTGGATGAACGCACACAAAGTCCACTGGAGTCCTGGAACCTAACGACTGTGTC
1.428087113079023 AAGGGTAGACCCCATTTCACAGCAGGGTTGGGCACATGACACAGGCCTGGCCAATCAGAGGAGTCTCATACCTCTGGTTGAAGGGATGTGCATGTGATCAAAATTCAGTTGACCTGAGCCCCACCCAGAAGTTTTCTGCTGAAACTTCAGAAAGACAGCCTCTTCCCCTGGGGTGTTATTACACTATCAGGGTGTGCCCA
1.104624024113158 GCGCGCCCCTTGGCGCCCCGCTCCGCCCCGCACCGCGTCCGGCGTCCCGCGCCAGGCCTCGCTTGGGACCATGGGTGGGTCACGTGGGCCGCGCCTCGGCCAATGCGGCGGCTGCGTAGCGCCCGGGCCCGCCCCTGAGCCGCGCGCACGTCGGGGGCGGGAGCGGTGCGCGCAACTTCTCGGGCCAATAACTGCGCAGC
1.579275941427942 GAAACGCTGCCCTGTGTCCCCTTCCTCCCGGTTACAAGCTGTTTCTCCAGCAGGTGGAGCTGGGAGAATAAAAACTATGAGCCTGTGCCTGGGACCTTGCAGAGGGAGCTATCTGTGCTGAAATCCTGGTTGAATGAAAATTGTTCATTATGCAAACTGTCTGGTTCAGTACACAGAGGCAGCCCCCAGGCGCAAACCCC
1.40547212098564 GTCACCGGCGTACCGGATCGGAGCTGGGCCCCGGTGCCAGCTGAGTCCGGGGCTGCGGCCCATCTCATGGAGAGCCGGGGGCGCCCCAAACTCTGCGCCACAGCCTCACACATGCAGCTTGGTTCCTGCCCTGTGTTCTTAGCGGGAAGGGGTAGGTATGCGTGCATGGCCTGTATGTTGGCATGCTGGCTCACGGACGG
1.485708517978856 CCCAGCCCGCAGGGGGAGTACAGACCCTCCAAGCTCACACTGGACAGGCGAGGCATCGGGTGGGACTAGGGGCTTCCTGCCCTCGACGCCTCCACCCACTCCAAGTCAGATAAACTCCTTTAGGGCCAGGGCTCAGTGGGAAATGCCGCCACTCAGGGCGCAGCCCAGAATCTGCCCACTTATCACACAAGCGTCTGTGT
0.9131856115513235 AACCCTCTGGCCACTCTCGGGCCAGCCCTGCTCCCGGCCTCGTGCCGCTGCCTGCCCAGGCTCACGGCCCAGCAGGCCTCACCGCCACTGTCACCCCCTCGTTCCTGGCAGAAACAGCCTCGTAAATAAGTGACAGCTCCCAGCTGTTGGGAGTTATGGGCTCCCAGAGAGTGGCAGCTGCTTCCCGTCCCCTGTAATCA
1.718225312128789 ACGACAGAGGTGGGGCTGAAGGTCAGATTAAATTGGACTAGTAACCCCAGGGGATACTTGAAAGAGGTTGCTAAAGAAACAGTTCCGGCAGGATCGTGCAGCAGCTGAGGCAGGCAGCTGGCAGCAGCGTGCGGGCCGGCCGGCCAGATCAAGCCTGCTTAGCAGGGCTTGCTGGTGACAGGCCTGGGTTCACACGTCCT
1.486242779349195 CAGTGACATGTGTCCAAGCCGCGTACGATTCCCAGTGTGACTGAGAGCTGAACACTCTGCAAAAGGGTCCAAATGGGGATGTTTCAGTCTTGAGGTGTGTGTTGAGCTGTTACCTGGGGAGGCCCTGGGGCGAGGCCCCCTCTCCTGTCAGGAGCAAGCCCCATCTGGAACTAATAGAACTCAGCCTAAGGCTACAGCTG
1.461046086806263 TGAATAAGCCAGAGTGATAACTCTGTGCCCCCTCTTAGATTTCTGGCCGCTCTCAGGCCACCCCTCCTGCTCCCTTCAGCCTGGCCACCCTTGACCCTTCCCGCTTTGCGGCCCCTCCCCTGCAACGCCCTCTCTACCCTCTGTCTCCACCCTAAGGTCAAGTCTCCCTTCTCCCTGGAGATTTCCTCGACCCTAGCCTG
0.9373597681736203 GCCCTGTGGCTGCCTCGTGTGCAGATAGGCTGACCTGGTCCACCCTGAGCAGCCTCACACGAGTCACTGCCTCCTTCCAGCTGAGCCTGCTCCAGCCTGAGCTGTGGCTGACGTGCTGGTACACACTGCCCTGGGAGCTGTGTGCCTCAGCCTGGACTGCTGTTCTCCCAGGAAGCTCTAGAACCCACAGTGCAGTGTCT
1.626904248464268 GTGCTCAGCACACAGCAAGCCAGATCCTGCACCGCCCTAGATTTGGACACTTCTATTAATGTGGCCAAAAATTATAGAGGCTTTTTTTTTTTTGGAAGGCACATCAAACTTTCTGACTCACTGTGCTTGCAGGCAAATAAATGCTTCCTCATCATAACCCTTAATGGGACGAGAAGGCTCTACTGCGAGCACGCTGGAGG
1.319921034904793 TGCTCCATCAGCATGACCTATTGTGGGTATTATTATTATCGCTGTTGTGATCCAGAGGGAGCCTGTCTCGCGGGTGGCTGGGAAAGCTCCCTGTGCTGTTCTGTCCAAGAGTCCAGTTGATTCAAAGGCACTGAAGTGGGAGCCTGCTCAGCTCTTGGAGCTGGATGAGAGCTGAGACAGGCAGTTCCCACTTAGCACAG
1.07205783193417 CTGACCACTGGGCAGGCCAGGGTCCCTGGGCCTGGATGGGTGCAGGGGCACAGGCCGGCCATCTGCAGCCAGCCCTGTGTGCATGTACCCAGCACAGAGGGAGGGAAGCCTGCCTGGGCCAGGGCTGCTGCCTCAGCAGAACTGCAAAGGCTGACAGCTGTGTCAGGGAGAAGGCGTGTCTGCCAAGTAGCAGCCACCGC
1.620169383661951 TTAGCATGTTTGGTCCGGCCTCATTTAGACATTTCAGATCTCTGAAGCCCAGAGAGTGTCCATGAGAGGTTTCCGTTTGCCACGGAGTCGATAGTACAAATTTTGTTCCAAACACATCTGCCAAGTACAACCCTAAACTTTTCCAAGCGAGAGGTTATTTTCCTAACACAGCGCCTGCTCTGCTGGGCATCCTCTGTGGT
1.423653341343721 CTTTCAGTAACCTTTTGGGAGGGACACCCAGTGCCCATGGGGACTCACCCTTGGCCAACCCAGCTGGAAGTGGGAGGGTGTGGAAGCCCACTGTTGAACTTGGACAGGCCAACCCTGGAGGACACAGAGCAGCATGAGGGATCTGGAGGGGCACAGGGTGGAGAAGTTGCAGTCTCCTCATGGAACTCACCAACTGGCGG
1.153645751691926 GGCGTCTAGCTACGGTGGTCGCGAAGCCAGCTGTCCTCAAGTTGAGCTGTGCACCGGTCGCGCACACTGGCGGCACGGCTTTCGCGTCCCTCCGCTCCCAGCATAATGAAAGTTTGAGGAACTGGACATCAGGCGCTGGCCGCTCCCCACCCTCAGCCGCTGGGTGCCCAGAGCCCATCCCTAGCGATCAGAGCAGAACT
1.133675482267231 CCCCCGGCTTCCCCCTCCTCTCCTCCTCCCTCCCTCCCTTGCTCTCTAGCTCCCTCCCTCTCGCTCCGCTCCCCGCCCCCGCTCACGGAGCGCCTCCCATACAAAATTTATGAAAGTGCTCTCAGCTCGCAGTGCCGAGCGCCGTCCTATTCCCAAGGCAGCAGCGCTCAGCCGCGCGGCGCCGCCTCCCAAGGTGTTTT
1.473530287852057 CATTCTGGGCTGGGGTGGAGCCCACTACAGCCCCGCCCCTATCTCCTCCTTTATGGCCCCGCCCAGCGGGTATCCCCCGCCCCCGCTGGCCGATCGGCGATCGATCGCAATGTCTGCGCTCTCCGCGTTCTTCCAGCGCTGTCTTTTTAGTACCACATGCGCAGGCAGGTGATGGCGGCGCTGGTCGTATCCGGGGCAGC
1.825565843048626 GTACTAGAATCAGAGATCTCAGTCTACTGGGGGAATGTTAATGTAAACATATCATAGCCACGTGATAAAGGAGGAGGTGCCTACTGGTCCCTGGGACACATTGAAGGGCTAATGTTAGCAGTTCCTTACACGCCAGCGACCACTAGGGACCTGTCAGAGGAGGATCTGTAATGGGCCTAGGAAGCCTAGGCTGATTGTCC
1.287534233751742 AGCCCCCGCTCTGGGTGCGCCCCGCCTTTTGCCGTTGTCATGGGAACGCCTTGGCGCTCCGAGGCCCGCCCTCGGGGCGGTGCTGACGTTCGGTTCCGCCCCGTGCATTGTGCTTCCGCTCGGGGAAAGACCGCTTCCGGTGCTTCCGTCGCTCCTTGCCGGGCATAATGGCCGCGCAGCGACCCCTGCGGGTCCTGTGC
1.18086706005163 CATGGCTGTAGACTGTTACCTCCAGTTCCCACAGTAACAATCGAAAGCCACGGTTGCCCTGGAGACGCGGGGGCGGGGCGCGCGGACGGCGCCGGCGCGGGGCGGGCTGACGTCAGGGCCGCGGGGGGGCGGGCGGGGCGGCGGGGGCTGAGGAGCGCGCGTGGGCCACCGCCCCTCGCAGCCCCTAGGGACCCGGACGG
0.8070451213731037 TAGGGTGGGCCCCTCCCCGCGGGCTCAGCATCTGTGCGCCTCCAGCTCAGGTGCGCGGGAGGAAGGCAGCGGCCTGCCGCGCAGAGCCCTGCGCGCCCGCGAGGTGGCGCCATAGCCGCAGCAGCGCCCGCCGGCCCGGGCCGCTCCAGATAAGAGTGTGCGGAAAGCGCGGCGGGGCTGAGACGCGACCAGGACGCGGG
1.184380331119047 TTGCTGTGGCTCGCCTCACGGCCGAGCAGCTGAGCCTGAAGCAGCAGGACAAGGCGGCCGCGGCCGAGCTGCTGGCGCAGACCACGCACTTCCTGCACGACCCCAAGGTGGCGCTGGAGAGCCTCTACCCGCTGGCCAAGTTCACGGCCGAGCTGGGCCTCAGCCCCGACAAGGCGGCCGAGGTGCTGAGCCAGGGCGCT
2.609062495344487 AGTGGGAAATATGTGCTCCTCGGGGGCTCTGGGAGAGTTTGGGGTCTGAGGCCTCTCCTTAGCGCAGTGATTCATGGCTCAGGGAGCCGGCGTGAGCATGCTGTTCCATGGTGAGCCTGGCACTCATTGTCTGGGTATTCGGAGACACTTTCTGGAAAGGGCCCATGTGGGAATACACACACACACACACACACACACAC
1.52795691678634 TGGGCGGACTTGGCGCCCCCAGCATCCAGGGGCCTGCCTGGGCGCTGCAGCTCCAGCTGCACAGGCTCTGAGAGCTCCCCACACCCCTTTTCTGACCTCCAGTCGGCCCCACTCACCAGCCTCTGTGCAACGCCGGAAGCAGGGAGGGACAGGCTGCAGAGGGAGACCAGGCCTCACCTCCCCCATGCTCACAGAAGAGC
1.42335204971036 CCATGGGGGAACACTGCCTCTGCCTGCTCTGACTAGGGATATACAAGGTTATCACGGGGCTTGAAGTGAGCTTGACTGAGGTCAAAAGAGGGTCAGAGAAGCTTGTCTGAGGTTGGCTCAGCTCTCACAGTAAACGAGGAAGTGCAAGGTTATGAAATTACACAGACCAGGGTAAGCACAGTTTCCCAGAGGCCACTAAC
1.306979530481821 CTGCTCTCAGGACTCTGATCCAAAGGTGGCCACTCTATCACTGTTTCAGATCACAAACGACAGCTTCCAGCTGACATCTGGCTTCCTTGGCCTGTTGCTGACTTCATCCCTGTACCCCGCCCTGCTCTACCGGGCGCTTGAGACTGCTGCAGGCCAAATGACTGTGTTGGCCTATGGGTGACCTGGCCCCTGGCTAGAAT
1.603180908692185 TGGCAGGCAGCACGCACAGTGGCCTCCCTGCATCTCCAGCCTCTCACTTGCATAGGAAACTTCTGCATTTCCACAAGACTGCCAGTTTCCTCTCTGTGGTCTAATTTTAACCACCTTGTCGTTACAGTGTGTGTCAGCCACCTGACCCCACTATGACCTCTGACCTTACGCCCCAGCTACTGCTTGCACTATGGAGAATT
1.633337202063921 ATCCTCCAGAGGAGAAAGAGCTGGGCGGGAGAGGCTCCCTTCCTGGGCTACATTAGCACGTGGGGCTGGACTGGGGATAGAGGCGACTAAAAGGGCCGCCAGCCAGGGAACACCCTGGGGAGCCTACGGACCTCTCCTCTGCGGTGTACCTTCTCAGTCACAGTCCTGACCCTTCTGGAGGGAGATGCACTGTGTAGGCG
1.794578412730222 AGGCAGCTTACCACTGCAGCAGGAACTGAAACCTTTAGCTTTAGGGCTCCAGTTATCACTCTAATCAAGTCCACACGCAAAGAACCAAGCAGAAAGGAAAACTGAAAGTGAGATGTGGAGAGGCGATACCGGAGGCTGTTCTCTCCTAGGCTCAGTTCCTTAGAGAGAGATAATGTAAGCATCGGGTAAGTAGGGGCTGG
1.594711857038039 ACCACACAGGGAATCCTCTGGAGCTGGGAGGACAGAGGAAATGGTTTATTCACATTCCTAGGGGGAGGGGCCTCCTGGCAGGAAGCAGACTCCAGAAGGCAGGAGCGAAACTGGCCACAAGGATGCACAGTCAGTCTGAAGACACAGGCAGTAGCTTAGGATGGGGAGACAGACATTCACAGCCTACTTGAGTCAGAAGA
1.676885192557659 CTGGGCACTAGTTCACTGCTCTGTGTTCTTAAACAGCTCTGATGGAACAAGCCATCTGTGAGGGTTATTTAACTTGGAGCTGGAAGAGGGTGAGGATGTGGAAAAAATAAACTGAACAGCCAATGGATGGGGCCAGAGAGAGAGAGAAGGCAGGTGGCATGTTCATGGGACTGCGTGCCAGGGCCAAGCGGGGTGGGACT
1.370472266941004 ACACAGAGGGTGGGGACAGAGAAGTCAAGTGAAGCAACGCTAGACAATGCTGCCGCATAACGCTGGCTGCTCCACCGCAGCCCTGAAGGTATGAGGAAACCCTGGCGTGTTGGCGGCTGCCTCAGGAACCGCGCTGGCTAAGGGCTTCCCCAGGCCTGGGTGGGAGGCTTGTCACTGACTCTGGCCACACACATAGGCTT
1.609418053920805 ACCTATACACTTCTGCCCACACTCTTCTTGGAAGGAGAGAGGACAGGGAAGTGAAACCCACAGTATGCCAAAAGGGAAGTCGAGCTCTCATTCATAAGACTACTAAGCTCTCTCCCAGGGAAGAGAATGGAGATGGCACAACAAAGGCTCTTTGCTCTGAAATAGCACCGAAGTGAAGCCCGGCAGAGCCAGGGTGTGGA
1.602243903370946 AGAAATGGTGTGACAGTACTCGCTGCAGATTCGCTTACAGGCACGCCAGCAGGACCTTTCACATGCAAATGGGCTTACTCATCACAGCTGTCAGGGTTCTCGGGGAGGAGTTTAAAAGAAAAGGCAACACTTCCCTCTCAGTGAACTGAGGAGTGTGGCTGACCCTGATTAAGTGAGAATGAAGGGATAAAAGACACCTG
1.579906723269923 GTGGCTGTGGCCTACAGTGTAGACAGACTGTGCCCAGCCAGACTAAATGAAGACATATAACCGGAAGTCAGCCACCAGCCTGACCCCTCCCAGTTTCAGGAGGAGACTGAGCAAAACACTATCCAGCTACAGGAGTAGTAGACCAGATGCTTTAACCCTAGCAGCATGGGGTACAAAGGACCCCACATATGAATCAGCAG
1.588465606017674 AGTGCTGGTAGGGAACAGACTGACAGACAAAGCAGACAGACTCTAACCAGGCCTCGCTCTGTTTTCGATGCAACACAAATGTTTTCCATTAAAAGTTCCCTGCCCCACAAACACTCATACATGCAGCTATGAACTCCACATACTCAACTTCTGCTTTTCTGGCACACTGACCCAACTACCTCTCCTGTTCCTCTGGAAGA
1.98535184563375 AGCTCTGGAGTTCCCTAATTGCACAAGAGCAAAGGACACCCCCACGGAACATGTATGCCTTCTGAAGCCATTGCTCAACCTACACTCATTGTGCAATTTCAATCTTCCAAAGTTTTTTGCTGCACATATGCAAACCACGTTTTCCTCTGCATTCTAGAATTAAGAACAGTTTATCATTATTCTCTTCACTTTAGAGAGGG
1.772933121245153 CCATTTGGAGCTGAGTGAGAGCACTGCCAACACAAGCTGCACTATTTAAACAAGTGAGGAAATGATCGTATATACAACATGCCAGCAAGCACACACACACACCAAAGGAAGTCGAGAGGGCTTTTTTTTTTCAGGACACAGAGCTGGATGTCAGCGGCTAAAAGGTCGATATTTTCCCTTAACACCCTTCTCAATGACTT
1.228180020743871 CAGAGACAAGCACCGGATGTGATAGGGCTGCTCAGGGCCGCCTCCGAGGTTAGTGCTGCCCATGGGAGACGCACAGGGAGGCTCTTCCAGTTCCCCGCTTCCTCCCCCAGTGCCCTGCTGGCCACTTGAGCCCGCTGCCTGAGTCTGATCCCACAGCACTGGTGAGCTTTGGCCAACAGGCACTGCTCGGCTGCAGAGCA
1.845626394418968 GGAGGGGACAGGGGCTCCTGCCGTGGGAGAGATCACGTGTGCCCCACACTCAGCACTTGGAGGAAGAGGAACCCCCTGGTGCCAGGCTGCAGTGCTAACGCCCCAACCCGGAGCCAGGGAGACTGGGTGGGGAGCCAGGGTAGCAAAGGGGCTTCCCACAGCCACCACCACTTCCTTCAGGGAAGTGCTGATGGACTATT
1.650099862730127 AGATATATAGCATCAGAATGCGAAGGTCTGGGCAGCCTGGTGAAACGCGGGCTCTCCAGAGCCCCAGCTATGTTTCCCATTATGTAACCCTGGTCATGGGCAGACAGCCAGACTCCAAATGAAAAAGAGACTCTGGCTTGGCACTGGTTCTATTTTCCTATCCTCATTCGGGGTCAGCGCAGTGTCATACAGCTGCAGAG
1.657394021556254 CTCTCTGTAGCCCAGAATGTGAAGCCCAGCCGGGGATGGCTGTAGCTTGGACCACGTGCCTGCCTGTAGATTGAGCCCTTGCCCAAAGATGGGCAGCAGCTCAGAGCCGGCAACGGGCCATTTGCTGCAGCATCCAAAGAGAAAACAGACTCAGCATCTCAAGCAAATGAGACCCAGCACTTCCTGTGTGAGCTTTCCAT
1.578296107495206 CACCCTCCCCATAGGCAGCAGCACTGTCAGTACCGCCCAGCTCAGTCCAGGCCATTGCCACGCCCGGACAACATCCTGCCTCTAACTAGCAACAGAGCCGGGAAGAAGGGAGTAAGTCCAGAAAAGAGGGAGTTGGGAGAAGACAAGTGGAGGCCACATCCTGGTAGCTGATACTCTGAGTAAACATTAGTGCCTCCTCA
1.423203357065293 CTGCTTTTCTCATGAGTCAGTTACCAGTCAGACACAAGGCTGGCACAGTTCCTAAGCAGCCCACCAAAACCTCCTTGTCTACAGGAAGTGGGCAGTGAGAGTATCTTTCAACTGCTGCTGCTTGAGCCACAGAGTTCCCCGTGGCAGCTGCTAGCTGAAGAGGAGGTAGAGGAAGCAGTCGCTGTATAGGAACGAGACAA
1.556402625204551 CCAACTAGGCAGTGATAACCAGGAATGCTCAAATAAGTGACATGTTTCAAAATTGGCTTAACCGGGACCTACTCAAGCGGGAAGGCCAGTCCACACTCACAGAGCCAGAAACACAGCAATGCTTTCTGAGGTCACATGTGCATGACTCCAGTGGAATCTGCATGCAATGCTCAGGGCAGGGTTTGGCGCTGCCTCACGAA
1.466723832971799 AAAAGGTCACTAACCCTGTTTTTGTTCTCAACAGCTCCACGAGGATCCATGCCATCATGGCACTTTGGGAGGCCTGTCACGAGTTACACAGGCCTAGGCTGCCCACACCCCAGCTCAGCAGAAAAAGAGAACTGCAATCCAAGTCAGACAGATCCTGCCTGGACTCTCCGCAGAGAGCCTGGAGAGTCTGACCAGCAAAG
1.604187417960889 CAAGCCATGTTTCAATGCAGACAGAAGTAAACCCCTATAGACAGCAGCGCCTCAGCCTGCCAGGGCCTTACACCAGCTGCAGTGCATCTCGCGCTCTCCCTCAGCCCTGAGTGCAGATGTTCCCCGCAGCATCACTTCCGCTACACTTTCTTTTAAAGAAACAGCGCACACATAGAGGTATTTCTGCCTCTTCCCAGTAG
1.3374343771403 AGTTCTGGGCATCACCCTCTCTCAGGGGAGAGGTGAAAAGAGGTTATGTGGAACAGACAGTGATAACAGGATGACGTCACAGGTGTGCCTCAAAGAAGTCCCTGGTGAGCTGGGCTCATAACTACTCTGCAGTGATTTATTCGACCCTGCCAGCTCCAGCTGGAGAAGAGATGCAGAAAGCTGACACAGCCTAAAGCCCT
1.479034603455231 CACAACACCCCCTTATTGCCACTGTCCAGGCAAGCACAGCACAGCACAGGGGACCAAAGATGATGACTCATGTGCTGGGAAATGGAAAAGTGCATCTTCCCACCAGCCAGCCCTGCCGAGCACTCTGCTCGCCCCTGTCCCAATGGCAGCCCACACAGCGGGGTCTGGATGGCCACCTCAGCTGCACACTGGGTACTTGG
1.521768694757216 GTTCTTACTCCCTGGCAGGCTCCCACTAGGGATATCCCATAGGGAACTAGACTTTTCCATATTGAACAAACAGGGTACATGAGTCCAGAAACAGCTATTCCCAATCCCTGCCAAGCGTATGGTCTCTGCAATGAAACATCTCAGCAATGCCTCTCCCTTGGGAGAGGCTCTGGGTCTGCAGCCTTCAAGAGGCCTTGCTG
1.844892998975997 CGCAGGGAGGCAGAAATCTAGCCAGTGACCTAGGGCTCCTAAGGAGAGGTCATTCAAATCACTCCTTGCCAAATGTGGCCACTGGATCCCAAACAGTGGTGCATGCCTGGAGCTTCTTTGGCAACAGAAACAAACCACAGCTGAAGTCTTCAGAAATAAAAAGCAAGTTCAAGCTTGGTGCTAGAGAGAGTAGCCAGGCA
1.4226192474657 CAGGGTCTAAGGGGTGGGCACTAGGGATGGGAACCAAATGGACATGCCCAAACTCTCACAGACCCAGGGCACATGCCCAACAGCTGCCGCTCAGCTGAGCCAAGATGACAACAGGCTCAGTGAGCAGACAGCACCCTCTGCCGGCAGTGGCACCTGTGTGCAGGGGATGAGGCGGTGAATCCTAATAAGCAGGATATAAA
1.727927802633656 GTCTAAACCAAACCAAGGCCTGGAAATTCTGACGGGTATCTGGGTCCTGACTTTCCGGATGGTAACTAAAGGTCACGTGGGGTGGAAAGTGGCCTGTGGGTAACACAGAATATACACACGCACGCGAACAGGATATGCTGGTAATCCGGCTTCCTGAGACCTGGTGAGTTTTGAGAGTTCTCATCAACACTCTCGGGGAG
1.63904961447567 TAAAGATAAAGGAAGCGTACATGAGAAGGGAAAAGACCATCAGGGAGCCTCAAGTGGTTTGTCTTCCTTGCAATCAGTGGGAAGTATCTGTGCCTCACAGCTGTATGAACCAGGGCACCCAGGCTTACTGAGCTAGTTTGGCTCATTGCATCATTCTCAGGAACTTACATCACTGGGACTCAGGCTGCCCAGCCCATTCT
1.074840914747971 CGCTCGCCCACCTCCCGGCCTTTCCCCGCCCCCTGCCGCCCTCCCTTTCCGAACGACGGTGGCCGCGCTGGGAGGAAAAGCGCCCGCCGCCGGTTCCAGAGGGGCGGGACCGGAGCGAGAGCCTGGGTGGGGCGGGCGGGCGCTGCGCGTGCGCAGAGGTGCGGCCGGGGAGGCGCGCGGAGGCTGGAGCTGGAGGCGCG
1.274900793035914 AGCTTTATTCTGCTGCTTGAGCGGGCCGGGGCGGTGGGCCGCCATGCCGCAGCGCGCGTGTACGGAGTCAGCACTGCTTCCGGGCCAGGACAAGCGCTTCCGGTCCCCTCCAAGGGGGCGGGCCCTCCAGGGAGCGGGACTCCCTGCGCCCTCTCGCGAAGGTCTTTTCCAGCAGCTCGTGAGAGCGCCGTGTTAGCGGG
0.9531908340983876 CCTCCATGCGGGAGCGGGTGCGTTGCCATGACAGCGACCCCCGTGGCGCGCGCCCGGGTCTGCCGCCCCTAGGCGCGCACGGCCTCTCCCCGCCCCGATCCCCCGTCGCTGTGCGCAACCCCCCTCCGGCTGTGGGAAGGGGCCGGGCCTGCCGCCTGACGTCTGTGCGGGGCTCGGAAGATGGCTGCGGAGCCGAGCAC
1.161926342687554 CGGGCTGCGCCTCCTTCCCCTTTCTCGGATGGGGGAGGGCAGCGCCCCTCTGCCCGGGGGACCCGGCCGGCGCTCCCGGCTTGTTTGCTTCGCAGCCCCGCAGCTCCCCGCCCAGTGACGGCAGCGGCGCTGGGAGCCCAAGGCCGGGGGAGGGGTGGCGGCGATGGCGGGGATGGCTGGATCCGGAGCTGCCCATTCAG
1.639074157916309 AGCCTGCCTCCTCAGTCACCAGATTCCCTGCCCTGCTGTGTGCAAGTGGGTCAACATGAGGGTTGCTTCAGACTGAGGATGAGCTGTAATTCGAGAAGGGTGGAATCTGTGGAGCCGGGAATAACATCAGGCTTTATTAACCAGCTCCCTGTTGCTAGGCAGCTTTCATTAGCCAGGAAGGTCTGCCCTGCAGTGAGCTC
1.452237683581657 GAACCCACCTCTGTCTTGCTCCAGACTCTGTGCTGCCCAGGGATTGGTCTGCCTGTGAGGCCTACCCAGGAGTAGAGACTAGAGGGGCGGCGGCATTGAGGAGTTGGCCCTCATGCAGACGAAGCTCTGGTCATTGAACTGTGGGCTTATGGTGTCCAGAGACACTCTAGGAGACTGTGGCTTCCTTACCCAGCCAGCTG
1.581829567405266 TAGTTCATTTCTGTGAGCTCCTGAGACACCTTAGCTTGTCTCAGCCCTCTGGATCGTTTCTCTAATCCCTGCCCCGCTCAGGTCACCTGCTGCTGCCCTAAGCAGAGCCCACATGCGCCCCCTAGTGGTGGGAAACCAAACGATTCCACAGATCCTGTTTGTTGAGGGAGGAGGTGAAACGAGATGCCCACGGGCGACCC
2.001767177577713 ACTCAGCAGGCTGAGGTAGGAGGATCACTTGAGCCTGGGAGGCAGAGGTTACGGTGAACAGAGATTGTGCCCACTGCAGTCCAGCCTGGGTGACAGACTGAGACTCTGTCTTTAAAAAAAAAAGCGTGCAGTGAAAAGTCTCACTCCTTTCTCTGCTCTTATTCACCCACTTCCTGTCTATGTACGAGTCCCACACAGGT
1.860047802665542 TCCACCCTGGGAGGTGGGGTCACAGTGGGGACCTGGGGAAGGAAGGAGTAAGGGGAGTAAGGCCCTGGAGTTCTGCTTGGTGCTCTGGGCCTCCAGTCAGAACGGGGGATAAGCTTGGGCCGTCATGTGGACTCTCCCTGGGGAAGGGTCCTTCACCGTCCCGTGTCTGTGAGACACGTCCCCGGGGAAGGAGGACACTG
1.705026252865831 AGAAGGAAATTAGGGACCGTGGGGTAAAGGGGGGACTGAGCGTGATGCCTGGCTTCTCTCAGTATTCCTTAGTTGCAGTAATTGCTTAGGAATGCCTCCTCTCACCCGAGAGAACCCCATGGCTGTGCTCAGAGGCTGGCCGGGAAGGTAGGCGAGGCCACCCCGATGGGAGTGCTGGGGCCGGCCACTCCCCAGTCCCC
1.750450237102444 CTGGGCTCCTGCCCCACTGCACCTGCACCCTCCCCTTCTTCCCAGAGTCTCAGGCATGGCTTGCAACGCCCTCACTCCCAGAGCCGCAGCCCCTCCTCACCACGCGTGTTCCCTTAATTTGCCTCCTGGTGGAGCTGAAGGGCCAGATATCTGCAAAACTCCCGGCCGTGGGTCTGGGAAGAGAGCCCCGGCCAAGGCAG
1.247442204296904 GCTGCCCCTGTGGGTGTGGCTCTCACCCCGAGCACTGTCTGAGAGGCCGGAGGGGAGTGTCAGGAGGAGTCAGACCCTGCTGAGCTATAGACAGGCCCAGCTGTAACGGGTCTGCACCTCTCTTCCTGCCCTTCCCCAACCCGAGTGCTACTGGTCCCATCGTCGATGGCTCCAGGGAGAAGACACCAGTCACACAACAT
1.419597698272207 TGGGGAGGGTCTTCATCTGTGTTCCCAGTGGGCACAGGGCCTGGCACTGAGCATGCACCCAGGAAGGGTTAACCCTCACCCTATCCCTTCCCTAAAGCGTCGCTTAGTGAGCTAATGGAAGTGACCCAGCTCTTCCAGGAGCTACCAGCAGAGGGAGCCCGCGTCTCACAAGTAAAAAGGGCAGGCTCAGTAGGGAGGGC
0.7728540430077862 GTCACCCTCGCCGGCTGCACCGCCCTCCGCGACTCGAGAGCACCGCCCCCGCCCGCTGCAGCCAATCCGCGAGCCCGGCCCCGCCCCTCCCGGCTGCCCGGAAGCGGCCTGGAGGCGCGCCAGCCCCGCCCCCTGGCCGGGAGGGCGGGCGGAAGGGCGCGTTGGCGGGAGGCTGGGAGAGAGCTGCCCCCCTGGAGCAG
1.150152203630447 AGGCCCCCTGGGGAGGAGAGCACCCACCTCCCACACTCTTACTGGCTCAGGCGCCCCAGAAAACCTGAGGCCTCAGGCCCTTTGGCCAATCAACAACTGGAGTGTGAGCCAGGCCTGCTCCCAGCCCCGCCCTCCTGCAGAGGGAAGAGGCCGAGGAGGAAGCGGAGGGGGAAGCGTCCTGGGAGGGGAAGCCTCAGTGG
0.9134424490218923 TCCCTGGGAGGTGCCCAGAGGCCGGGGCCCGGGCCCAGGCCCAACCCAGCGCAAGGCCCCTTGCCAGCCCCGCCCAGGCCCCGCCCCCGGCCGAGCGCGAGGCGGTGAGGAGGGGCCGGGCCGCGCCGTCCCCAGCAGGAGTGTCCCCGGTGCACGTGGTCGGGGGCGGAGCCCGTCCACGTCACCACCCGGTGTAACCA
1.182998221082517 ATCCGCCCCTGGGCGGAGCTGCCGGCGACTGGAGACTGTCAAGAGAACCAGCGGAGGGAGCGGAGCGGCAGTCCGGCTCCGCGTTTTGTCTCCGTTCCTCCCCCCGCAGTGCGTTCGCATCCTATTAGGGGACGTCACCGGGCCGCGAGCCAATGGGCGGGCAGGACAACACGGCATGGAGCAGCTCCACATGGACACCC
1.390864691056087 CAGCCACCGTGGGTGTGGACACTGAGTAATAAGGAAAGAAATGCAGTTCAGAAGCAAAGAGGGAGGAGCCAGGTCCTCTGAGCTCTTCTGAGAAACCAGAGCCCAGTCGAGCTCTGCAGCTAGAGTGGCAGCTGCGGATGACAGTGGGTCAGAAGCTTGGTGGGAGGAGGCTGACCCAGCGGAAAGGCACAGGAGACGGA
1.124747770708087 ACTCCCCTTTTCCCAGCAGGAGACACAGTTTCCAAATGGCCAGTCTCTGGGCACAGGCCCCTGCTCACCAGTGTCCCAGGAGGGGGCCTGCTCAGCAGTGCCCTCTGGGCCACATTCTCATTCTCTCTCTGGACAGCAGCAGCACAAGCTGCCATTTCCCTGGGGCCTGACTGGCTCCTCGAGCCAGCCAAGTGCCCCAG
1.732432636772362 AAAACACCGTGGACAGACTTGTCTCCATTCCCACGGGGAAGTGAAGGCGCTTTGATAAAAGGGCCAAGGGTGCCCTCGTGTGGCCACGGAGGGAAATGCCGCGGCTTCAGCAGAAAGGAGGGGCTCCAGGAGCTGGTCGTGAAGTCATCAGCTCCCTTCTTTCAAAAGGCCTCGGATTTCCCACAGGCTTTTCCATCTTT
1.689911743527511 AGGAAAGGTAAAGGAACTAGTTTGTAGCTCTCACAATTTACCCAAGAAATGGTATTGTGAGGAAAAGAGGAGGAATAGGACGTCAGAGAGAAACCAGAGACCAGAAACTCTGCTCCTCCCACTGGCTTGCATCTGACCCTTTTGCTGAGAAGTCCTCTGACTCACACTAAAAACCAGAAACTGGGAGGAAAGTGGAAGTG
2.021125530229134 GAGTTTGAACTAGTCTGGGCAACACAGAGAGACCTTGTTTCTACTAAAAATTTAAAAATTAGCTGGGCGTGGTGGTGTGTGCCAACAGTCCCAGCTACTTGAGAGGCTGAAGTGGGAGGATTGCTTAAGCCTAGATGTTTGAGGTTGCAGCAAACTATGACTGTGCAACCACACTACAGTCTGGTTGACAGAGCAAGACA
1.613665642716531 GAAACGCAGATGATACGCTCCCAGCGCGCCGCCATCTTGTGAAGCCATCTAGCCTCGTGATTGGACACATCCCTCTCGCGCGACCTGTGGCTGATCTTGAAGAAAGAAGAAACCCTCGCGACACCTGGGGTTTGCTGCTCCTAACAGAAGGCGCGGGGGCGTGGTGACGAGCGGAGTCCTTTGAGGTATGGCAGGAGGAG
2.022753098570922 AAGGGATAATGAGTATACAAAAGTAAAACCACGGTGCCTATTACACAGAATGTGCCTCATACAAGTTAGTTATTTTTATGTCTACTCTGTACCACATGCAAAGTAAGGTGCAAAATGAAACCATAAATGTTCTAGAAAGAAAATGAGTACTATTATGATTGTGGGTGGTAGAGGACTTCCTAAATATGGCCCTAAGGGTG
1.96495647950456 ACCGCTCAGCCGCCCGCCCGCTAGAAGGCAGCGCGGCCCCGGCCCGGCCCAGCCCGGCGCATGCGCCGCAGCCCCTCCTCCGCTCCCGGCGCCCGCCCCTCCCTCTTCCTGGCGGGTCTGGGGCGGCGGCGGCGGCGGCGGCGGCGGCGCGGTGACGTCAGGGCGTTGGGGCAGCTCCTGTGACAGACGGAGCTGGAGCG
2.294070798683418 TCGTGAGGTTGTGGTGAGCTGAGATTGTGCCACTGCATTCCAGCCTGGCGACAGAGTGAGACTGCCTCGCCAAAAAAAAAAAAAAAAAAAAAGGAAGCCTTGGCTGGGCGTGGTGGCTGATGACTGTAATCCCAGCACTGGGAGGCCAAGGCAGTCAGGTCACATGAGGCCAGGAGTTTGAGACCAGCCTAGCCAACACA
1.538031482373459 CCAGGCTGAGATCCAGATGATAGGGCCCCAGGGGCAGAGTTCTAGCGTTAGTATCACTATCCAGAAATGCTGTTAGCTGTTCAAAACCTGGCAAGTAACTCGCTGGCTTGTAACTGCCTCAAACCTCCTTCCAGGAGTCATGACTGTGTATGGCCTTTGATGCAGGGGGAGGGTAGCTGGCTGTGGCAGCTCTGTCCCTG
1.047807372891709 GAAGGACGGAGTCACCGGCCCACGTGGTGCGCGCCGTGGCCTTTGACCCCGCCGCCGTTTCCCTGCCCCACCCTCGCGCCCGGCCCAGCCCACGGCGGCCCGCGAGGGACAAAACGCGCCGCGCCTGGTTCCCCGCCCACGGACGCGGTGACTTTCCAGAACGTCTTAAAGGCAACGCACTCTGACTCAAGGCCCAGGGA
1.900462112355559 AAGGGAGGGGGACAGAATAGGGGTGCAGTGAGTTACACACACTTGAGGGGGGACAGAGATGGTACAGGCGCAACCACAGGACTAGTAGAGAGTAGAGGTGGGGGCAGGCAGAGCAAGGACCCCAGGCCACCTTCTTGGCCCAAGTTGGACTGGAGAGCACTGTCCCAAGGGTGCCCCAACCTCAGCCATCTGCATCCCAG
0.9987325727469163 GGGCTCGCGGAGCTGGCTTTGGCTGGTAGCTGGAAGGGCAAACTGGGGAACCCGCCGGTGCCTTGGCGCGCAGGGGCGCGGCGAAGGATCAGCACCGCGGACAGCGCCCAGGCCGCCAGGCCGCGATCCGCTCCGCCCCTCCCGCCCTGGCGTAGGAAGGAGAGGCAGCGCCCGCAGCCGCGCAGGCAAGGCTTGGGGCG
1.370809019963211 CGGCGCGAGCCGGTACTGCGTTCCGGAGGAGCCATCCGGCGTCACAGGCTGTGCTGGGGAGGTGGGGTGACCGTCCTCAGAAACCCCCGCGGGCGGGGCGCTGCACACACGTCCACCTATAGGGTGTGTGTGCGTGCGTGAGGTGTGCAGCCCCTGTCAGGATCTGGCGAGAGAAGCTGACCGGGATGGAGGTCAGAGGT
1.238555828911362 CCTTCAACCCCTTCCGCCAGAGGGCAACATGGCTGCCATCCTAGAAACAAGCCCAGGAAGACGCTCCCTTTCCTCCTCGCACCACCCAAGCTTGCCTGCAGAGGGCGCAAACGCCCACCTTCTGGCCGGTCCTGGGAGGCGCCAGGTGCCCCGCCTTAGCAGGGGAGGGCGGGAGTGACCCAGCTGGGTGGGTGTGGGCA
1.490967950951085 CTGGCTCTCTTGTGCCCGCAGCTCATCCTCCTCTCCCCGCTGGCTGCTGAGAGTCAGCTGAGCTCTGGGAGGAAGCTGGGCTGTGCTTGATGGGGCCAGGAGGGCTGGGCCTGCTTCACAGACCGCTTCCCTTTTCTCTCTTTTTTTTTTTTTTTTTTTTGAGATGGAGTCTCACTCTGTCACCCAGGCTGGAGTGCAAT
1.318811097837634 TCCGGAGCTGTGGGTTCCTCTGGGTGTGGGGAAGCTGCCCTCCACAACCTCCTCGGCCTATCTTGGTGCCTCCTGGAGTGCAGGACACACCTCCCAGCTCTGCAGCCTCACCCACAGGAAGCTCGGGTTGGGGGCAGGCGAAGAGGGAGGTGCCACGCTGGGCTCCCCGCCCTGCACCGGCACTGACCCCGCTGTACCAC
1.345250347575422 TGGGTTGAGAAGCCTCTGAGTCATGGGGGGGTGGTTCCTCCTGTCTCCCGGTTCAGGCCCATTATCTCCTGCCCAGTGACACAGGCTTTCTAATTAACCTCCTCCTCCGGTCTCTGCCAGCTGTGACTAACTCTTCATCCCTCAAGCTGGCTCCAGCTCTGCCTTCCCTATTACTAGACGCTGGCCCGAAGGCAGACCTT
1.723673948696162 GTGAGGTGGCTGTCCCCTCCCTACCTTGGGTTGAGCTGTGAACCAGTAGGTTACCGCAGTGTGGTACCACCCCCCCCAACCCCAACACCCAGCTCATTCTGAGAGGGTGGAGTGGGCGGAAATCCGTGCCTGGCAGACCACAAAGCCACATAACTGACTTTTGTAGCCCTGCCCTGGGGTGTTGGGGGGGAGGGTTGACG
1.606973850125966 CAGGTGTGAAGATGAGGAAGGAGGCCCCTGAAGAGCCGGCGGGAAGAGCGGGTGGATGGGAACACAGTTTCCCCGTCCGCCAGCAGGTGGCACTGTTGGCCCAGGACTGCCCGGGCATGGCTGGGAGAGCAGGTGGGGCCGCGGGTTCTTTGACCTCAGGTTTGTGATTCTGGCTGTGGGCTCATCACAGGCTCTACCTC
1.687407163768771 GCCTTCCTGCCTCCCTCTTCCCCCTCCTCTGTCTTCCTCCTAAGGGGGCATCCCAGAGACGCAACTGTGCTGTGGCCCAGCAGGGGGCGCTGATGTACCTGCCAAGAGTGGAGGTGTCTTAGCACAGGTGTGAGCGTTCAGCTGTGTGCGAGCGGGCTTCAGAGTGATATCCCAGAGCAGGTGTGTGTATGTGTGTACCC
1.306800525650428 GTGCGGGCGGGGACCAGAAGGAGCGGGCGAGGGGAGGCAGGGCCGGGGCCGGGGAGGGCGCCTGGGAGCCGGGCAGGGGGGTCCCGGGAGCGCTGTCCGCCTCCTCCTGCGCTTCGCCCGCTCCCTGTGCCCCGCGTCCTCCACCATCCGGGCGGCCGAGGCCGGGGCGCGGGAGGCGGGGCCGGGGCGGGTCCCGGCGC
1.681092376072605 CAATGGGGGGAGGGGAGTGCGGAAGCTGACTGCCCACAGAGATGTTGCCGGGATCAGGATTTGGGGTAGCTTCCAGTGACCCTGCTGGATCCTAGTTTCCAGAGGAGTTTTGGAATGGTTAATACCGCACCCTATAAGACACGGGCAGTGGAACCAGAGACACCTGGGGGTGACCAGCAGCCCCTGGATATGCCCACAGG
1.616579509400428 CACCCTGGACAGAAAGTGAGTCACATACGCATCCCTGAACTTTGGCCAGAGGGGTGGGATACACTGATTCATGAAGTCTAGGTCTTACGCCCACCGCTGGTTCCCGGGATGCAGGGACTTGGCTGGGAGTATAGGAGGGATGGGTCACCTAAGGAAACCTGGCATGTTGCTCTCAGAAGCTCAGGGGATGGAAGCTGGGC
1.272942394669381 GGCCTAGAGTGGGGTAAAGCTGTTACCTCCCTTGGGAGTCGGCTTTTGAGCTCTGGGCATGAGTCAGCCCTGTTCCTGATGGCCGCAGGATGATTGGCAGAGAATCCCAGGGTGGCTGCCTCATGGCCTGGGGCCTCGCCAGCTGGGGCTTCAAGGCTGTGACCCAGATAGGGAGGTGGGTGACCCTTTCTGCCTATTCC
1.545097852338418 GGTTGTTCTGTTTCTAGTGTTTTGAGGACCCTCCGTGCTGTGTTCCATAGTGGCTGTGCTCACTTACGTTCCCACCAATCGTGTCTCAGGCTCTTGAGCAGGGAGATGAGGTCAACCAAAGCACTGATGAACCAAATTGCAGTGGTGATGAGCCGGGTGCCAGCTCAGCCGAGTCCTCCACCTCTTGGGGTCTATGAGCT
1.283986765228116 TTCCCCAGGCTCTGCCCAGCTGGCCCTGTTGTGCAGCCGTGGCTCTGAAGGCTGATCCCATGCCAAACCGTCTGCTTGGTGATGGGACCGCACACAGCACTCCCCGGTCACCAGCGAGGGCCAGATGGAAAGTGGGGAGTGTGTGAGCGCGGCAAACTTGTCGCAGTCATGTTGCCATGGTGACACAACTCTGTTTAGCT
1.593476301911999 TCTGCATCACCCCTCCTCTTCCCTGAACCTAATCTTTTGCAAGATGACAACCCATAGGAAGCAGATAAAACCCATCCATCTTCCTGTTGTTGTCCTGTATCCGATACCCATCACATACAGAGCCATGTGGTATGCCTCGAGGAGCCTGTGTGTTGAGGGGTAGCCAGAGCCTGCCCTGGGTGGGTTAAGTGGTCAGCGGT
1.470749787837249 TGCCTTGCAGTCAACTGCCTCAGCCTCATCCATCGCTGGCTGGGAGATGACTGGGAGCGGGATTGTCCCAGCTGTGGGTCTGGACCTTCCTACAGTGGCTCACCAGGCCCCCTTGTGGCCAATACCATCAGTACCACGTGGGAGCCTGTGGCTGGGGCTGGGGGTCTGGGGAGGGGTGACAAGCCCACCAGCTGCTCACT
1.062250765300024 ACTCCTCAGCTGGGCTTCCGCCTGGCCTGGACGCTTGGAGCTGGCCAGGCTGCGGGTCCTGCCCTCTCTTCTTTGGGCTGTGGTTCTGGGGACTCTGTGTCCTGTCACGGAGCCTCAGAGTGTGGTTAGTGTGAGGCCCAGCGAGGAGAGTGTGAGCCGTGGTCCTCTGCTGCCAAGCCACACTGTCCCTGCAGGCTCTG
1.231808392285576 AGTGCCTGCTATGTGCCCTTGGCTGTATGCAGCCATCTCAGGGTGTGTGGATGAGGGTGTGTCCGAAAGGCTGAGCTGCTGTTCCCGGCTGGCCTGAGTCACGCTGCTTCTGGGTGGAAAAGGAGACTCACTCCCTGCCAACTGTCCCATTGGAAAGTGCAGCAAGTCGCTGAGAAGTGGGGCCGGCCCAGCCAAGGCCA
1.577087061319059 CTCCAGGCAGTTCTGGCCCATGGGTGCCTGCAGAGGTAGGAAGAGTGCTTGGAGGCCCCACCTCTGCCTGAAGAAGAACCGAGGACACTGTTCCTCATCCCTGCTTTCTTTTCTCTCGTCTTCACTGGGGACTGTCTGTTCTGGGCACTCATGACCTCCCGGCTTCGCGGTGCCCAGATGTGGGCAGTGACATTAGTCTG
0.8895029053845304 TTTGGACGTTCTCCATGGCCTGGTGCCTCTCCCTGGCAGGGCAGCTGTTCCTCCCCTGTGACTCACCCAGGCAGGAGTGGAGGCTCCAGGGTCGGGCAGCAGCGCCGTCGCTGGGGGAGCTGCGAAGCGTCCGTTTCCCCAGACAGCTGACAGCTGAGAGCCTCACAGAGACACACAGTGTGTGGCAACCTCACACAGGC
1.400649805466801 TGATGTGATGGAGCCAGCTGGGTGCGTCTCTTCACAACTCTGTTCCGTGACATCATGTTGGCAGCTTGAAGTCAACCATGGTGGAAGTATTTACACTATGGAAATTTGCAAACACCAGGGTTTCTATCTTCCTCCTTTGGAGAGCCAGTGACTCAAAATATGCCAGCACACCACTGCTCAGCCTCTGTGTTTTGTAGCCC
1.578934956985468 CATATATGCCTGGGAGTGAAGTTTCTGGATCACATGGTGACTCTGCGTTTAGCCTTTGGTATATGCCCGGGAGTGAAGTTGCCGGATCATATGGTGACTCTGCGTTTAGCTTTCGGGACCTGCCTGGGAGTGCTGTTGCCAGATCATATAGTGACTCTGCATTTAGCCTTTTGAGGAACTGCTGGACTGTTTTCCACAGT
1.994259017434177 ACCTGCAGGCTGCTAGCCCTGACATCCTGCGGGAGGGAAGGAGGCGTGCTTGGGTGTGTGTGTGTGTGGTGGGTTGCAAGGTGCTTTGGGGAAACTCTATTTCAGGAGCCCTTTACTGGGTGCAGGTCAGCAGGGGAAGTGAAAAGGCCACTGGGCGACAGTGGTTACCCCTTACCAGCTGCTTGCTCATGCCAGGCACG
0.9648183444959457 ATTGACCAGCTCTCTCCCGCTCCGTTTCCCCTCCGGACTCTGGCAGGGCCTTTCCTTGGCTCGGTGCCCAGCTGCCTGCTCACCCGGCCTGGCAGACTCTGCATCTGCTCCACTTCACAGGCCGGGGAGGCTGGCAGCACGCCAGGGCTGGGCTCACGTCAGCGGCTGTGTAGGGAAGGGAGGGCAGTCTCCCGAGAGCC
1.719581048666417 GGCTGTGATGGACCCGGGACCGTGGCAAGCTGGGAGTTGCCAGGTTCATTTCTCCCAGCCTTTGAGGGACTGTGATAGTTCATGCCTTGGTCTGACCTGACCCCTAGTGGCAGGAGGGGCCACAGCTATCCCTGGCAGTCTTTGTGGCCCCGCAGTACCTGCAGGGAGGTACCTGTAAGCCGGTCCCCCTAGCAGTGCCA
1.368502118043293 CCTGCCTCTCTCCTCAGGGCAGCCAGCCGTCCACGACCTCACCCTTCAAGCAGGAGGTGTTTGTCTACAGCCCGTCCCCGAGCAGCGAGAGCCCCAGCCTGGGGGCAGCTGCCACCCCGATCATCATGAGCCGGAGTCCCACAGGTCAGTGGCATCTGGTGGTGTGTGTGACGTCACCAGGAGGGCAGGCTGTGCCCTGT
1.20453197435427 CCCCTGCCTGCTTTGAGGGGGCACGTGGTTTGAGCAGAGTGGCCGTGGGTCCAGCTCGCCCCCATCAAGGCCTGGATTTCTGCTGGGGAAGTCACCAGAGACCCATCTGAGCTCCCAGCCCTCTCCCCACATGGGGCTTCAGGGGTCAGAGTCACAGCTGGAGCCAAGAGGAGGGGTACAACCGAACCCACTCTGTGTTC
1.3450810917861 CTGCGGAACCACAGGGCGACATCCAGCTGCGGGCGGCGAAGGGAATTGGAGCGTGGACCTCTCCAGGCTTTTCATTCGCTGGTTCTGCCGGTGTCCCGCCTTTTCCATCTCCTCATTGGCTGTCGCCTCCGGGCCTGCGACTTTGCTCAGCCCCTCCGGGGAGTGGAATCGGGTGTGCAACAGGCCGTGAGGTCCGGCTT
1.745965538289844 TCTCCTACACAGGGTGTCTGACACAGCTCTACTTCCTGGTCTCCTTGGTGGCCCTGGACAACCTCAACCTGGCCGTGATGGCGTATGATCGCTATGTGGCCATCTGCCGTCCCCTCCACTATGTCACAGCCATGATCCCTGGGCTCTGTATCTTGCTCCTCTCCTTGTGTTGGGTGTTCTCTGCCCTCTATGGCCTCATC
1.677729667083684 GGGTTGGTGGCACGGTCTTAACTGGTCTCACTAAGATCTGGAAAGCAGAAGAGGCAGGAGTGAATGAGAAGCCATCCGGGCAGGCTGACTGTGCAGTGTTTAGGTGGGACTTTAAAAGCAAGAAGCCGGCATTATCAGCAGTTCCTCAGCCTCTGGTGAGCACTGACTAGGGAAGTCAAGGGAAAATGTACTCACAATCC
1.848622644682747 ATCTGGCCATCTGCCAGTCCCTCACCTACAGCAGCCGCATGAGCTGGGGAATCCAGCAAGCCCTGGTGGGCATGTCATGTGTCTTTTCCTTCACCAATGCACTGACCCAAACTGTTGCCCTGTCTCCTCTTAACTTCTGTGGCCCCAATGTGATCAATCACTTCTACTGTGACCTCCCACAGCCCTTCCAGCTCTCCTGC
1.532875942404546 GAAGTCCACAAAGAACAGCTCCACATGGGGTGTGAGGCTCGGCTGCCACGATCCCTGAACCTACTGTCCTGGAGCAAATCTGCTGGCAATTCCAGCCCTTCCTCTCCTCCCCCAGGTTCTGGGTGAGGTGGGACCTCAGAGGTTGAGGCAGGCCTGGAGCTCAGGGAAGGGCACCCGCAGCTCCACTTCACTGCTCACAG
1.579892072312067 AGCTGCTATTTCTGCTTCAGCGAAAGCCACGATCCCAGCACACAGGCACGCGCTACTGTGAGGTCAGGACGAGGAAAAGAGCCAGGACCTTTCACCCAGATCGCGGCGGCCCAGCAGGACTTGCCCGGAGTGTCTCATGCAGACTTTTGTGTGTGTGAAGAAAAGCTTTTTGTCTTGCTCTGGGCACCCTGAGGCCAAAT
1.435631675095945 AGGTTTACACCAGCTGTTTGCCAAGTAACAAAATCCAGGATGTTTCCCACTCAGACAAATTGACAACTGCCCCTCAGTTCAGACACCCACTGAGCACTGAGCACGAGGGTGCACTCTGCTTCTAGGCCAGCAGAGCCGGACTCCACCATCCCTCAAAGCCTCTCTGCACAGAGTCGGTGACTCCGCCTGCAGCGCCAGAC
1.502160581811471 AGAACAGGGGCTTAAGGCCAACAGGGCTGGACCAGCCAGAGGCTGGCTGGGCCCAGGGGATACACCCGCCCAGAATGGGTGGAGACCTGCCTCTGCGCCTGGCGCCATGGCCCCTGGGCCCCGTCTTTATCTGTGGAATGCGCACAAAGCTTGCTGTTCCGCCCATCTCACTGGGGGTTGTGAATACCAGGGACAAAGGG
1.655852847707175 CCTCCTTCTCTGGTCCACCCTGGTGTCCTGCTCAGATGGACATGCCCAGCCTCCTCCCCTCCTGCCCCTCTGGGGCACCAGAGCTTCTTAAGGCAGGGACAGTGTGGGTGGAGCTCAAAGCGGGGTGGCCCCTCCCTTCCTCCCTCCTTCCTTCCTTTCTCTCCCTCCGCCCTCCTTCCTCCTCCCTTCCTCCCTCTCCC
1.550860684382858 CCCTCCTCCCAGACTCCGCACCGGGCGGGGGCGGCACCCACCGAAGTAGAAGCCTTCGTGTTGGTACTTGGGGTTGAAGAAGGCCCCCTTGGCGTGCGCGTTGACGTCGGCGCCGGCGGCGATGAGCAGGGCTGCGATGTCCCCCTGCCGCCGCTCGATGGCGATGTTCAGCGCCGTCTGCCCTGCGGAGCGGGCGGGGA
1.608120696873106 CTCCTCCGTCTCCTATGCTGGCTCCTTGCTCTCTGTGGCCCATGGGTGACGTATCTGAGGCCTTTTGCTCTTTGCCCACTGTATGGCTTCCCGCTGTCCACCCCCCTGCTGCCACCCTGGAATCTGTCTCCAGCCTGCCCCCTCCTCGTGGCCTGCAAATAAAGCTCATGGCCTCCCCATCAACCTGATACTGCACTGGT
1.189210294910404 CTGAGGGAACACGGAGGAAGCCTGTTAGGGCCGAGCCAGGCAGAGCCTGTCTGCCTGTGTCCTGCCTCCTGGCCCCAGAGGGTGCCCCCATGCTGAGCACACACCCTGGCCAGCTCTGAGCCCAAATGGCCTTGCCCAGCCCTCCCGGGAGCCCTCGGAGATGGACACTGTCATTATCACCTACGTTTCACAGATGGTCT
1.365630632514066 CTCATTGCAGGCAGAGGGATGGCTGGAATGAGGCGTCAGAGGCAGAACTGGCTGAGCCACCTGCCCTCGGCGCCAGGCAGGCCACGCCCACCAGCCACAGCTGCAGCACCCGCCCACCCACGTGGCCCGTGTGAGTCACCCCCACACCCACACAGCAGCCTCATCCCCACCGGAGAAAAGGCAGGGGAGGCCGCAGGTGC
1.237927947594119 GTGGGTGGAGTGAGTCAGGATGGCCGTGTGTGTCTCGCGTCACTCAGGAACTGCACACCTGCTCCCCGGGGCGAGATGTGGACAAGACACAGCTGGGACAGAGCAGGAAGTCTCTGCTGACGCGGCCGCAGCTGGCGCCTGATGGGCAGGGAAATCCCCAGCTGTGAGCCTCTCAATCCCTCATCATCACAACCTGCCTG
1.132401286128138 CAGGGCTGAGGAGGCAGGGCAGCCCATACAAGGAGGCAGGGCGGGGCTGGGCTGCGTCCCCTGGGGCGCTGAGGACAGGTGCCTGGGCTGGAGGTGCTGGCACAGCCGCCTGCACGGGCCCAGTGAGCCGTCAGCCATCAGCCGTCAGCCGTGACAGCATGAGTGAGGTGCTCAAGTCAGCCCGTGACTATGTGCTCATG
1.003015603053732 ACTGTATACAAGGGGCACAGCCCAGCCAGCCCAGACCTGTCCAGGTGCCACTGGTGCCTGCCGGGCCTGGGCAGGGCAGCCCCGGGAGTGATACGGAGGCCCCAGACCCTGCCCTGAGGAGCTCACAAGGGGCAACATAGGGTAGGGCTGAGAGCAGGGCCACGAGTGAGACTGCCTGGGCCAGGTCCTGGCTCTGCCAC
1.841779664635693 ATGACCACGAGGTAAGCGGGCTCTGAGGAGACCCACTGGGGCCCAGGGAACCCACCTTCTCTATCATGACGGCATAGATGCCCATCTGCTGGAAACCGCGGGTGTAGTAGAGCATGTTGGTCCAGCCCAAGGCCAGGGAGAATACCATGGAAGCCACATACTCCTTGAGGTGGCTGAAGTACAGCACCACGGTGGCCAGC
1.413592753249482 CCACTCTCTGGGGCACTGCCAGTCACTTGTGGCAAAGGGAAGGGTGTGTGGCAAGTAGCTCACTGGCTCCTAAAGACCTCTGCCCAGGAGTGACAGGCATTCCCTGTGCACGTCCCACTGGCCGAAGCGGATCGGGGGGAAGGTGCAGCCCTGCCGTGGGCTCATAGCATCGGGATACTGACGGCCAGCAAAGGAGCCCC
1.566148806277971 GAAACCTACAGACTGGGCTCATGGTCACAGAGAAGGGAGAGCCCACCTGGGGTCTGGGCGGCTGTGGAGGAGCAGGACAGCATGGCTGAGGCCCCTACCCAAGGGCTCAGGGCTGTGCTTACACTGGGCCCATCCATGCCCCGTGTCTGGGACAGGCCAGGGGCACTGGACCCTGATCCTGGCCTCTGGGAACCCTCCAC
1.266022581045316 GGGCGGGGCAGGGGCGGGGAGTCGCCTGCCAATCTTTCAGCCACACCCAACATGGAGGCTTCTCGTCTTCCCACTGGCCGGGGAAGGCGAGCTTCCACGCAACCTCTCGGCGGGCCCCGGCTATAGGCGGAGAGGCGGCGGAAGGCGGGACCTAAAGGGGGCCCCGCCCCACGGGCTCTGATTTCCGCCCAATGGAGGGC
1.577611718626436 CTGTCTGGCCCAGGCCTACATGAACTTTTACTACAAAAGCACTGAGGGCTGGAGCATTGGCAACGTGCTCCTGGACTTCACCGGGGGCAGCTTCAGCCTCCTGCAGATGTTCCTCCAGTCCTACAACAACGGTGAGTCAGCCAGCGGGCTGCTGGCCACCCTGCGGCTGGGGCATCGGGCGGGGCCAGCCTTCCCGGGAC
1.233074750463425 CAGAAAGAGACCGGGGTATGACCAGCTGAACTAGCACCCAGGGACCCAGTGTACCCAGCCTCTGGCCTCGTGCCCTGCTGGGGAAGGCCTCACCCAGCGAAGGCCGGAGAAGCGGTTGGGCCCTGGCACACAGGGCTGGCTCAGTGTGCGGACAGAGGAGACCACTCTGCTCCTGGGGCCAGAGGCCATTCAATAGCCTG
0.9660257206669118 TCGCTGCTTAACAAAGGCCGCCCCGCTCGGCCCGCCCCCTCATGAATAGTTAACAAACCTCCAGCCAATCACTGGCCGGAGCGCCACTCCGCTTTCGGAAGTCCCTGCGCGTGCGCAGAAAAGCGGGCAGAGGGCGGAGCGTGTCCGGGGCGCCCACGGCGCAGGCGCGGAGGGCGGGGCGGGATCTGGGCGCGTGCGCA
1.720165232017249 GTGGACGACCCCAGCTCAGCCCCTCACACCCAAAACGTGCCCTACGGACCAGAGCGATGCAATTGCCCCTCTCCTCCAGCAGAGGGAGACTCCACCCACAGCACAGGGCAGGGTTGGGGCCTGAATGATAGAGGAGAGTGGAGGTGGGAAGGGTTGGTGGAGGGGCCAACAAGGAATCTTGGTCCCCTGACCCTGGGTGC
1.8699087904394 AGGTAGGGATCCATGTGGAGCTCACTTTTCTTGACCCCCTCCCAGGAACGTGGTCCTGGTATGGGACACAATTTTCCAGGTTTTAACAAAAGTCACCCCTGGGTCCCAATGGACTCCTCCAGTGGGGCTGTCTTGTGTGCACAGGGAGAGGAATGAGGGAAGAGGCTGCCAGAAACCTGGGAAAGGGACCTGCCGGGATG
1.531597969042026 GAGGAGCAAGGGCTTCCCCACCCTACTCTGAGCAACCCTTGGGTCGCCAAAGCGCGGATGGAAAGGATGCGGCAGAGGCCGCAAGACTCGGCTTCACGGAGAGAAACAGGCAAGAACACGCGCTCTCCTCTCCCAGAGGCACCCCCAGCTTCAGTCGCTGGCCACTCTGCTGGGGTCCACACCTCTCCTGGGCCATCTGT
1.553281835747638 CTTAGTCCCCCCATGGAGCGGCTGAGAACACTGCGTCGTCCCTGCCTCAGGGCTGCCTCCCTCGTTCTTCAGGGAGAAGGGAGCCGCACAGGGTAGGCCTCTCTGGACAGGCACTTCACACTCCAGCCAGCATGTGCCAAAGGGGGTCCCTCTGCCTCACCTTCGGCTGGTGCCCCAAGGACTCAGAACCGCACAGCAGG
1.966809587703013 TGGCAGTCGCTGTCCTTGGAGCACGCGCCATCAGGAATGCCTTCATTCTGCCAGGAGAGAAGGGGCACCTGGATGGGGGGGTTCCCCCAGCTCAGAGCCGGGTCCCACTCCAGGAGATAGAATAGGGGTTCTTCTTCGGCCTGGCCCACACACACTCTGAGAACCTACTTCTCCCCCATATAATGCAGGAACCACACCCG
1.532885148447545 GGCGGCCTTTTATTGACGCGGTTGAGAAAGCCTCGGCTGGGAGCTGGGCGGCGGCGAGCACCGGAACCTCAGACCGCGACCTTGCCGCTACCTCTTCTTCCTCCTCCTCCTCCTCCTCCCCTGACACAGTGACACCCCTGCAACCTACTCCCCAGCCACCGGTCTGGGAGCGCAGCCCCCCGGATGCGCAGGACCGCCCT
1.852731674422945 TCTGGGTAGCAGAGTGGCCCTATGGCATGACTCACTGTTCTTGGATCTATGCAAGCTCTACCATTTCCTGTCCCAGGCAGAGGGTGAAAAGGAAATGAGAAAGGCCTAGCACCTAAAAGGCAGCTTGTAGAAGAAAGACCGGCTGGGAAAGTACCCCATGTGCTTTCTGTTCTCCTTTGCCCTGGTACAGGATAGTGAGT
1.299522232423581 CAAGCCGCCAGTTTTCCGTCCCGTCCCGGCCCCGGCCCTGGCGAGGTGCGCATGCGCAGGGCCGGGAGCTAGGACCCCGCGGCAGGCGGGCGCGTCCGCGTCGCACGGAAGTCTCGCGATGTTTGCGTTTGAACCTCTTGGCGGGTGCCGGCCATGGCGGCTTCGCTCCCGGGACCTGGGAGCCGGCTTTTCCGCACATA
1.1929934674159 GACCGGCCCAGCCTGACCGTGACCCCAAAGCGCTGGAAGCTGCGAGCTCGCCCAAGCCTAACCGTGACCCCAAGACGCCTGGGGCTGCGAGCTCGGCCCCCGCAGAAGTGCAGCACACCCTGCGGCCCGCTCCGACTTCCGCCCTTCCCCAGCCGCGACTCCGGCCGCCTCAGCCCGGACCTCAGCGTGTGCGGCCAGCC
1.792931551207495 AGATTGAGATGAGACCAAGATGCAGAAGACGCCAACTGCAGGGTGGTGAGAAGAGCGAATCAGTCCAAACCGACTCACAGATGACCTCTTGAGGACGGGGTGACCAATCCTGCAGTTCATGATCAGGACAGAAGCAACCGGCTGAGGGTCATCACACTGAATGTTTGGAGAGGGAGGCTGTTAAAAGAGCAGATGACATT
1.422947381172526 TGAGACAGCTGGACACCGACGACCAGGCTCACTAGCGTTTTTGAAAGAGAAGCGTTTGCTTGCTATGTACACTAGGGGGCGATGTAGGGCAAGCCATGCGTGCTGTATCTCTACTACCCCCAGTAGCTGGCTGGGAGGTTGGTTCTTGGCTGTAATTAATTCCCTGCTGGAAACAGCTGTGCCTGCTTGTTAGCCTGGAT
1.52965467902303 CCGCATGCTGGGGCTGTGGCCCTCTTTCCTCCCTCCGCCTCCATTCTGTCAGCACGTGCTACGTATGAGCTGTCACTTTAAACTGTTACTCCCGTCATGGCCCAGCCCACACCGCCTCTCACCTGAGTGGTTACAAAGGGAGCAAGTGCCGCTTCTCTTCTCAGCTAAGCAGCAAGAAGGATCCTGCTAAGCTGCATGAG
1.663755038138665 ATGATGTGGCTACAGTGGGTTGGGACAGACTAAAGAGCACAGGAAGGTGGGGCAGAAATGAGATACCGTCTCCACTTCCTCAACTCCTATCACTCTACATTTTAATACATTATGAAATATATTCACGTATCGGCATGGCTTACAGAATAATAAGAAAGTCTGCACCTGTGCGTCCATCCGCCCACCCACAACTGAACCCA
1.627116234019784 ATTTTAAGAGAGACAATGTGAGTGAGAGGCACACGTCATTCTCAAGCAGGAGCACAGCCCCTGCCTTTTTCTAGGCCCGAGTTGGCCAGCCAGCGCACTTCCTGCCCCATGCAGCAGGCCCGTGGTCTCAGGCCCCACTCTCTGCAGCAGGAACCCAGAAGTGCCTCCCACCACATCCTCCTCCCCAGCGTGTTCAAGCC
2.482361246154205 CAGCCTGGAGTGCAGTGGTGTGATCACAGTTCACTGCAGCCTCAACTTCCTGGGCTCAAGTGGTTTTCCTGCCTCAGCCTTTCGAGTAGCTGGGACTATAGGCCTGTGCCACCAGACCTGACTAATTTTTTTTTTTTTTTTTTTTTTTGGTAGAGGCGAGGTTTCACTGTGTTGTTCAAGCTGGTCTTGAACTCCTAGGT
1.246516935179995 GTCCCTGAGCCCCCTCAGCACCCTGTGGTCTGTCTGGCTCTGACCAAACCCTGAGCCCCCTCAGCATCCTGTGGTCTGTCTGGCTGTGACCAAATTCTGTCTGGATCAGGGTGATCTGTGATTCAGTTTGTCTGCCCTGAACTGTGATGTGATCTGAGTCACACACAACACCCCCAGCCACAGAGCCCAGCTCAGCGCAG
1.261152451027066 AGGCGAGGGCTGGCCCTCCCTCCCAATCCCCCCTCCCGTGTTGTCTGACTTACAGACATAGCTACACCAGTGTCTGTCACCACACTACCCACAGGACCACCTCTCTGAGCTGTCCCCAGCCACGGAGGCCTGCTGAGTCAGACCGAGATCCCCCTCCATCCTGTCAGCCACCACTGTCTCCCCTCAACCCTCTGTCTCCC
1.680444472927461 AATGAGTCAGGGGTGAAGACTGACTTGGGGACAGCAGGCCACAGGGTAAGAGGGCATGATGGGGCTGGTGGTCAGGGTGTGGACAGTTCCAGGGTTTCAGTGTCTGTCTGCACCCAATGCTTCTAAAATCTCCCTTAGACAACTGCTATTATTCCGTCTGCTGCCACAAATAAGAAGTAGGCATCACCAGAGTGGCTGGC
1.37034227076309 CGCACCACTGAGAGCCCGCCCCTCACGGCCGCCGGCTAGAGCGCCGCTGCCACTGGCCACAGAGGAGCCGCCGCAGCTACCTAGAGCGTCGCCGGCTTCGGCCCAGAAGGCCGCCCTTAGCGCCGCCGCCCCCTGGTGGCGGGAGAAAACCGGGCCGGCTGCGCGGGCGGGACCTGGGGAGGAGAAGGCGGGACTGAGCG
1.645419892873348 CCTTCTCACTCCCTCGACTAGCTCATCACACGCATGGCTTCCAACTCCACGGCCGTCCACACGCTGAGGGCCCCCGCGTCTCCATTTCCAGTTCTCGCCTCTCCCTCGAGCTCCAGATGCGCATGTCCAGCTGCCTCCTGGACATCTTCCTTTGAATGTAGCAAGGCGGGTCCATTCCTGCGTTCGCTCCCTCCCTGATC
1.935866991154074 GGGGCCTTGAGCACCAGGCTGAGCACCGTGGGGACCATGGCAGGGTTCTGAGAGGGGCATGGTCAGGTGGGTGCTCAGAAAGATCACTCGGGCAGCCAGGGAGGGCATGGACCAGAGGGCCAAGGACCAAGGCTAGAAGACCAGTGAGGAGGTGAGAGATGGCGAGGCTGCATTTGAGGGGCTCCAGTGGTGGGGAGGAA
1.391980983047021 CCCTCCCCATGCTTAAAGCTCTCAGGGCCTCACAGAGCTGGCAGGATGCAGTCAGCAAAGACCTCAGGGGAGGGATTCCCAGCCCTCATGCTGTGGCCCGGACAGTGTTTCCAGCATCATCTTTCACTAACCACGGCCCTCCTCTGCCCACTGGAGGCTTCAGCCAGACTCCACTTCTCCCCAGACTCAGAGTACACGCC
1.872316859211863 GCCCTTCCCCCTGCTTGCGCTGGACTCTGCATGTTCTCAGGAGAAGGAAGTGAGTGAACTCCTGACCCTCCATCCTTCCTGTCTGCTGGTAACTTCCTCCGAACCCACACAGCAACTGAGAACATGGGTCTCAGGGAGACCCAGAGTACGCATGGTGAAGCGCCTGCTCTACCGCTCGTTCCCCATCCCCTTGCTTTGAC
1.095213846774118 TTGTGCGGCTGCTGTTGTGATTGCTCGGGACACGCTGAGGCCCAGATGGATGCGCGGGCGGGCGGAAGGCGGCCGCGAGGGCTGACGTCAGGCTCCCCATCCCTCCCTCCCGCCTGGATCAAATTCAGGTGACTAAGCGCGTCTGCGAGGGAGGCGGCCGGCCGGGGAGGCCCGAGGTTCCTGCCGCGTGTCCGGGAGAC
1.485794298143639 CTCCCATGCCTGGGCCGCCTCACTGGAGCTGTGTTTATGATCCTGGCGAGTATCTGGATGGCCCTGGCAACGGGTGCCCTCCGCAGCTCCCGCCCCCACCCGGGATGACTCAGTCCCCTTGAGGGAGGCCCAGGCGTCTGGTGCCAAGTCATGCTTGACGACTCCTGCTGTGAGGACGCCCGCTCCCACCATCCCTGGGG
1.15476013957436 CTCCCACACTCCTGTGCCCGCCCTGCGGACACCACCAAGGCCCGGTCCTGTGGCCTGTGACACAGCCTTCTCTGCACAGCCCTGCAACGCCAAGACTTGAGCACACCCCCTCCCCTGACAGGCACACGCCCGTGTCCGCGTGACCCGCCCTCACACACCACTCCATCCTGTCCTGCACCCCCCACGCAGACACAGGCACA
0.8585184276277221 ATCGCCGAGCTCAGCCCGCGGGCGCCGCGGCTCCGGGCAGCGCTCGCTGCCCCGCCCACCGCCGCGCCCGGCCGGCGCTCATTGGTCGGAGCGAACGGCCCCGCCAGCGCCGCCCAATCGGAGCCCGGGACTCCCGCCCCCTCCTGGACTAAGGGACCGCGGTGGGCGGCGCGGTAGGGGCCCTCCCTCCCCTGCGGCGG
1.385241745125607 CCTGCTCACAGCCTCCTTCCCCCATTTCCCCCCACACTGCTCTGCCGAGGCGCCCCCCGGGCTCATGCCCAGCTGCCCACTGCCAATGTCAGCTGGGCGGTGGGGGTGGGCACGAAGTCTCGGCACCCTGCCTGGTACACCGTGTGCTGGGCGGGAAGGCTCAGCTCTGCAAGGGTTGACAGTTGCTGTGTGTGAATATG
1.570479438827342 TGAGTTTCACAGAGACACTGCTGATGAGGCCGCTCGAGGTCTGGTAGCCCTTCTCATAGAGAAACACCCACCTGTGCGGGTGGGGACAGAGGGGGAGTTGTGGTTGTGGCACCAGCTGGACCTGTCACACGCTTTCCCACGCCCTCCCCAGATGTGCCTCTGAGCCACCATCTGCTCCTAAAGCTCCTGTCTTGGGCTAG
1.301242057330078 TTCTCTTGAGACGTCGGAAGCTCTGGCTGTGCCAGGTGTTACGTGCTGCGGCAACAATGGGCAGAAGCTGAGCAGGGGCCGCCCCAGGCGTGAGGCCTGCCGGGGTGACGACATCTGTCACCCGTGCTCACTGCCTCTGCCTTGGGTCCCGCCCCGTCCCCCCTTCCCATCCCTGCGGCCTCTTCACAGCTGTCCTGCCT
1.393838070169045 AGACCAAGTCCAGGCTGGGTCAGGGGTTCGGTTTGCCGCTGTGGGTTCCTGGCTGAGAGGTCAGTGCAGTACTGAGCAGTGGCCAGACGAGGGCGCAAGAGACAGCAGGCACCACAGCCTGAGCAGGAGCTGGAAGCCTGGGCCTGCAGCCCTGGGGGTTGCTGGTGATGACGGACTCTGCCTTCCTTCCACCCTCTGCT
1.482948999608462 AGAGCAGCTCTTGGCCCCTGGAAGGCAACAGACTGCAGGCCAGCCTCGCCCATGGACAAATAAATTCCCAAAGATAGATGGGGCGGGGCTGGTGGGGCCACCCAGGCCCAGCCCCACTGCCCCTCCTGGCTCTGCGTGGGCCTTGTTGGGCCTCCGGAAACAGGAGTTGTTGGCAGGAAACCACAGGCCACCCGTCACAG
1.375769555150513 CAGTGCAAGACCCTGCGGACACCTTGGGACCCAGCCACCAGAGCCCCTTCACACCCTCCACTTGGTGATCCGAGAACGCCTCCCCGATGTGCAGACAGAGAGGCTCTGCGCTCCACACCCACAGCGTCCACTGCAGCCCAGGAGCAGAGGCGGGCGGGGAGGCAGGCTGGAGGCGGGACGGGGCCTCCCACTCACCGTGC
1.404712773656126 TAAGTTCAACAGGCTCCCTGGCCAGCCCTTGCTCACCAGCTGGTAGAAGTTGATGTGAGGTCCCTCGGCGTCATACACAAACCACCAGGTGGCGGCAGCCACTGTGGCCAGGCCTACGTACACTGCGGGGAAGGGAGGAGACCGGCTGTAGAGAATGGCGGTGGTTTTCTGGCGTCTGTTTCCCCTGCCTAATAATTCCC
1.073016963979492 GAACTGGCCGCAGCGCACAGGCTGATCCCCCTGCCGCCTGCGGAGCCGGGGCGGTCACCAGGAGGACCTCGGCTCCGCCCCCGAGAGGGGTCCGCCTCTTGGCCCCGCCCCTAGGAGGGGGCTCCGCCTCTTGGCCCCGCCCCCAGAAGGGCTCCGCCTCCTGGCCCCGCCCCGGGAGAGGCTCCGCCTCCTGGCCCGCC
1.677865080279499 TTGTGGTTTCCAACAATAACGACCTTGCAGGTGCACAGACTCCTGGGGTGGGGAGAACACATGTCTCTGGGGTGTCCCTTCTGCCCTCAGGCCTGACCCACCCTGCCACCCAGCTTGTGGCCAGGAGCCCGCCCCAGCCTCTTCTGCGACAAGGAAGGATGACTTGGTGTCTGTGACCTCACTAAAGACTCACAAACAAC
1.315546246396607 CGAGGCCATGTCCGTGCTGGGACCTTACCCGACGGCAGTGGCGGCGGCGGCCCCGGCCCGCGCCAGGATGCTGCGCCCGGGACTCCCTCCCCGGGGCGGGGCGGCGCGGGGCCCGCCCCCCATCACACCCCTTCCGGCCGCCCTCCGCGCCCCGGGGCGCACCGCCTGGGTCCCCCGCCCATTCTGCAGAGGGGAAACTG
1.227544375465236 CGCTCCCGAGCTCCACCCGCCCCAGGAGGGCCAGGAGAAGTGGCAGCGGGTCAGAGGAGGAAGTCGCAGGAAGGCAGAAACCACTCGCCCCGCCAAAAGGAGGAGCTAAGAGAACAGCCTGATTGCCGCTCCCTCCAGCTTGAGAGACCCAGACAGCCTCACCCCAGCCCTTATCTGCCTCCCACCACGAGCTGGGCTCT
1.538649825598013 GGGGCTGGGAAAGGGCCCGTGGCCTCAGCAGACAAGTCCCTCCTGGGTGGCTGGGAGATTCTTAAGGGAAATGCCATTTGATCTGTATTCTTAGAAACAGGAAGTAGCAGCTTCCTGTAAGCAAACTGACCTCATCCCCAAGCCCTGGGATGGCCCCTGGGTCCAACCACTTCCAAAGGGATGTGGCTACCTCTCACTCA
1.429576558989988 AGCACCCAGTCCTGCTGAGTCTCAGGTTTCTCTCTGGGCTGAGGGATAGTGAGGGCTGAGGCTGGGTCCAGACCCTGCCTGGGGCTCCCCCGAAAGCAGTCTGGGGCTTTGGGGGATGTGTCAGACTCTGTCGGGCTGGAACAAATGGGCCTCAAAGGTTGGTTAAGTGCAGCCCCTGCCAAGAAGGCACGCTTCTGTAA
1.246262713989805 CCGCTTTACTCGGAGTCTGGGGTGTGGAGGGGCGTGGGTGGCGCTATCTCGTCTACCTTCCAGGTTGGCTGTGAGTCTGAGCACGCAGCGGGGCCTCCCTCCCAAGCACTAAGACTTGTTTCCTGTGAGTCCCCTCTTGGGAAACTCCTTACTGGGAGGCCTCCTCGGGTCTGAGGGATGAAGAAGGTGGGGCCTTCTCT
1.508037484204421 TTGTGCAGGAGGGCGGCGCTCTTGCTACGGCGCTGCTTGGCATAGCTCTGCTGCAGTTCGCTCTCTGTGCTGGAGATCAGCTTCTGGGTCACAGGGTTCGATTCAGCAGTGGCTTGGTCACAGCGTGCAGGCCGGGACTGCAAACCCAAGACCACCATTACAGAGGTCTAGCCTTCTTACAGTGGTGGTATGGGGTGGGG
1.881457312231865 CAGGTGGACGACTCTGGCCGAAACTCGGTGGCCCTTCTCTCTCTCTAAAGCTCCCTGAGTTTTAGCAAGAGCCACAGTCACCCAGCTAGAGACATGGTTAGCAGCTAGATGTGCTGATGCCCCTGGGTTCTGGGCAGTGCAGGTGAGCGAGGTGGTGTGCCACCTCTGGAGTCTACTGGACTAATGGTGCACTCCCTTCT
1.548412245948118 CCCAAGACACGGCAACATCGGGCAGCCCACAGGCAGTGACAGTGAATTTGTAGCCCCATTCGTTGTGACTGCTGTCAGAGTGAAAGAGGAACTGCAACCGAGGACCGGCCTTGAAGGTCACTTTCTAGAGACAAACAGAAATCATGTGGTCAGACAGATTAGAGGAGGAGTGCTTCAGAAATCAGCATGCTCTTCATGAC
-0.8774686736775542 GGGTGACAGCAGCTGCTGCCTCCCATCACTGCTGGTCCCTACGGGGGCCTTTCACAGAGAGTCAGCCTCTCCAACAGGGGAGCAGGAGGGGCACGGGGAGGAGGAGAGTGGAGAGAAGAAGGGGGAGTATTCCTCTTAGCTTCCTTGTTTCCCCTAGCCAGGACTGGGTTCCTGGGCTCTGAAGAAGGGAGAGGCGGGTA
-0.2365279307075835 TCACCCCCTCAGATCCACCCTCTCCTCCTCAAATTCACCCTCACCTCCCCAGATCCCCCCTCACCTCCTCAGATCCCCCCCATCTCCTCAGATCCACCCTCTCCTCCTCAAATTCACCCTCACCTCCCCAGATCTTCCCAAACCTCCTAAGATCCCCCCTCACCTCCTCAGATCCCCCTCACCTCCTCAGATTCCCCCTC
-0.3471507392067871 CACCTTCATCTGAGGAGATGCATTCCCACAGCCATTCTCCAACCTGCAGACAAGAGAGAAGGGAGGTGAGTGAGCCCAGGTATCCCTGGGGCTGCAGCAGGGAGGCCCTTGGGGCTCTGGATTCTCCCCGGCCCTCACCAGTGGTTCAGAGGTAAGCACGACCAGGTAAGTATCACATAAAGAGGGGAGAACACGGTCTT
-0.6987397273751222 ACACTGGCCTGCCAGGCCCCGGGAAGTTCAGGTTCTTTGGGGCTAGTGTTGCCCTTTCTTTGTCTCAACACCAGGGATGTGGCAGGGGCTGTGGGATCCACCCCATCTCATTCCATCAGAGAGAAGTGGGGGCCAGAAGGATGTTCCCTTTGCAGTCACTCAGAGCCTCTCCCCGCACCCCGGGCACCTGCCTCTCCAGA
-0.3723788084079233 ACACTGCCCACTCACTCGCCCCTCATTCATTCAAGGTCTTGTGTCCTCCTGAGTCCTAGGCACCCCAGGCACCCTCCTGAGTTTGCCCCTAGCACAGAAGTACATGAAACAGGGGCGAGCAAACAGGAATGGGGGCCACAGACCTGGGCTCCGTCTACCATCTACTTATCTGCCACCCTGGACAATGACTTTGCTGAGCG
-0.6618770558133075 GCCTCTGCCCCGCCGCCCCGTCTGGGATGTGAGGAGCGCCTCTGCCCGGCTGCCCCGTCTGAGAAGTGAGGAGCCCCTCTGCCTGGCAGCCACCCCGTCTGAGAAGGGAGGAGCCCCTCCACCCGGCAGCCACCCCGTCTGGGAAGTGAGGAGCATCTCCGCCTGGCAGCCGCCCCGTCCGGGAGGGAGGTGGGGGCGTC
-0.6878899260356206 TTCCAGTAACAGGAGTTGCAGCCCTCGTATCACCCAAACCACAGGCACTTAGAATCACAGGAAAGACAAGCTCTAGGAGCTATCTTTCCCAAAGCTGAGGTGTCCAGATTGTGACTAGCTAGGAGGGAGAAGACACAGCCCAGGGTACAGAGGCTACACTTCGATATCTTACAATGGATTAATTATTTAAAATAGTGTAT
-1.025029520510031 CTCTGAATGCTGAAAACAGGGGAGGACAATTGGCCTGGGGCAGGGAGCACAGTGCAGGGGGTCATGGGGAGGGCTGGGTGTCCAGAGAGGACAGAGTGAGGATGCCAAATGGTGACAGTGGGTTCAAAGGCATCACTGCTGGGAGGGGCCAAAGACGGGAAGCTGAATAATAGTTCAAGCTGGACCCACTGTGAAGGTGA
-0.1265991624359664 CCGCAATAAAGAGGACTGACAGCTAACAGCACAAACAATAGGCAGGAGTTCAAGAACAGCCTGGTTAACATGGTAAAACCCCGTCTCTACTAAAAACAGAAAAATTAGCTGGGTGTGGTGGCGGGTGCCTGTAATCCCAGCTGCTTGGGAGGCTGAGGCAGGAGAATCGCTTGAACCCGGGAAGCGGAGGTTGCAGTGAG
-0.6705124883203512 GAAGGGCCCCTAAGATGAGAAGGCACTGAGTGGCATGTGGCTCCAGACTCCCTCATAGCCTGCTCTCTCGGGCTTGGCAGGTCTGCAAAGGGTTTTGGGGCTCGAGGCCCAGACGTGCTGAGTCCGGCCATGGTAGCCCTCTCCAACAAGCTGAAGCTGAAGCGACAGCTGGAGTATGAAGAGCAAGCCTTCCAGGACCT
-0.04735337689284312 TCAGCCTCCCGAGTAGCCGGGACTACAGGCGCCCGCCACCATGCCCGGCTAATTTTTTGTATTTATTAGTAGAGACAGGGTTTCACCGTGTTAGCCAGGATAGTCTCGATCTCCTGACCTCGTGATCCACCCGCCTCGGCCTCCCAAAGTGCTGGGAATTATAGGCGTGAGCCACTGTGCTGACCTAATTTTTACTTTTT
-0.6541057459899315 CCCTTCAGAGCACTCTTCTGAGTCCCCGTCACATTCTTTCCAACTAGGCTGCTCTGTTCCCTTCCTTGCCTTCTCCTCTGCACACCCCCTTCCCCTTCCCTTGCCAAACTGGGGTGGAGGCTGCAGGGTTGGAGACTGGTACTCCACCAGAACTTCACCCACCCAGTTCTACTCGACCCCTGACCCAACACTCCCTAGCT
-0.3401136714828107 GGTGTATAGGGGGGTTTTCTGTCCCACACCAAGCAATTTGACAGCAGACACCACTTGGGTGTTTTCTCATTCAGTTCAGTTCTGACACTCACTGGGTGTGGTGGCTCATGCCTGTAATCCCAGCACTTAGGAAGGCCAAGACGGGCGGCTCACTTGAGGTCAGGAGTTTGAGACCAGCCTGGGCAACATAGCAAGATCGT
-0.2786772400035211 GGACAGGCTGGTCTGCAACTCCTGGCCTCAAGTGATCCTCCCACCTCAGCCTCCCAAAGTGCTGGGATTGCAGGCGTGAGCCACTGAGCCTCGCCTTAAAAGACTATTTTTTAAGGGCAGTTCTAGGTTCACAGCAAGATCCAAAAAAAGGTACAGAGATTTCCCATATCCCCACCCGTCTCCACACAATCACAGCCTAG
-0.7625774459483434 GGGGCAGTGAGCCTGGCACAGGCAGAGTGGCAGGCACAGCCTCCCCCAACTCCTCCATCAGTTTTCCCACCCCCATTCCCACACATAAGCACACATCTTACCACTAGTCCTGACCTGCCTCACCTGCCACTTTAAGTCTTGGAGGCTGCCCGCCCTGCCCCTCCCACCTCAACCAGGCTGCTTATCTGGGTCCTGGGGCA
-0.7816941812004196 GTTCTGAGAGGTAACAGGTGTGCACAAGGCAGAGGAGGCCTCGTTTTCAGCCCTCTAGCTTCCTGGGGTTTCTCCTCCCATCCCTGTGCCCACCCTCCTTAGTCTCCTCACCCCACCCCCATCCCAGCCCCTGGCCCTGGGGCTTTTGTGTACCAGACGGAAGGAGCGTAGCACAGACAGTCCCTGTACGTTGGCCAGGC
-0.7746737755103131 CGGTGGCTTCTTGGGCCTCCAGCTTGTGAATCTCTGTCCTTGCTTTTGAGATTTCCCTCTGCCGTTCCATTTCCAGGCTCTCTTGTCGGACCTTCGTCTGTGACGCTCAGTCTTCCTCGCTCTTTGGCACCTGCGTGTGTGGTGTGAGCCTCCCCGGGTCCCGCCCTCTGCCCCCCGCCCCCCACGTGTCTGAGTTGTGG
-0.8964056586685492 AAAGGGAACTCCCTGACCCTTGCACTTCCCAAGTGAGGCAGTGCCTCGCCCTGCTTCGGCTCGCGCACGGTGCGTGCACCCACTGACCTGCGCCCACTCTCTGGCACTCCCTAGTGAGATGAACCCGGTACCTCAGATGGAAATGCAGAAATCACCCGTCTTCTGCGTCACTCACGCTGGGAGCTGTATACCGGAGCTGT
-0.04114749498028072 AGGAGATTTGTGAAGATGAAATGTGATGATTTTGTCCAGGCATGGTGGCTTATTCCTGTAATTAATGCCAGCACTTTGGGAGGCCGAGGCAGATGGATTGCTTGCACCTAGGAGTCCAGGACCAGCCTGAGCAACATAACAAAACCGCATCTCTACAAAAAATGCAAAAATTAGTTGAGCGTGGTGCACGTCTGTAATCC
-0.7305168485904885 TCACAGTCCCCGTGCTGCAATGCTGTCGGTGCACTGTGTCTGCAACGTGCTCATGGTCACTTGCTTTTTCTCTGTGGCCCCGGCCGCTTTATCCAGCAAGTAGCCCCCTCTCCTCTCCGGAGAAGCCGAGCCTGGATGCCGCTGGGAGGAGGTCACTCCCTTCCTGTCTCGAAGGGCATGCCGTCCTCGTCCTTGCTGAC
-0.03304408543382573 GCCGGCAGATCACCTGAGGTCAGGAGTTGGAAACCAGCCTGGCCAACATGGTGAAACCCTGTCTCTACTAAACATACAAAACTTAGCCAGGCATGGTGGCCCGCACCTATAATCCCCTACTTGGGAGGCTGAGACACAAGAATCGCTTGATCCCAGGAGGCGGAGGTTGCAGTGAACCGAGATCATGCCACTGCACTCCA
-0.595293598413945 CTTGCTACCACACACTCACCATTTTTGTAGTCAGGATTTCATAGGCTCAGGGTCCGAGGGGACTGGGGCATGCCAGGGGGGTGGGAAGGTAGGATGCAGAGCCGAAATAGGAGACACTGGAGCTGGGACAGGAGCCCAGAGAGAAGATGAGCAGCAGAGCATGGTCTCCGGCAGCCTGCGTCCCTCCTTTCCAAGTCACG
-0.6285279151503121 GTAGCTTCTATCTCCTGATTGGACAGTGTGGTAATGAGTTGGTTGGTGAGTTGGCTGATAGGCTGGTTAGTGGGGTGGTTAGATGGTGGAAGAATAGGCCGGTTGGTAGATTATCTGGTTGGTGAATTGGTATGTTGCTTAGAAGGTTGCTGAGTTGGTGGCATGGCAGGGTGTAGGGTAACAGGTAGAGTGGTGGCTGA
-0.7723009843304295 GGGAGGGTTATTTTATTTTGACCGAGGAAGGGAGGTCATGGGGGCCTGATGGGGTGTTTAGGGAGAAGGCCTGACGTGGAGCCCCACACTGACTCCTGCTGTGCCCGGCAGCACCTGCAGCTGGTCCGGCAGGAGATGGCCGTGTGCCCCGAGCAACTGAGCGAGTTTCTGGACTCTCTGCGCCAGTATCTGCGGGGGAC
-0.8561689131711926 TCGGGGCTTCACACTGACATGTGCGCCCCTTTCCCTGGCTGCCCCATCTCCAGAGCACGCTCCTATTCTGCTCCAAATTTGCCTCCAGGCTCAGTCCTCCTGGGAGGCCTCCCATGGCTCAGCTTTGAGGACACTGAAGCATCAGGGCTGGATGGGAGCTTCACTACCTGTTCTATTCCAGTCTGCTCACTTTTCAGATG
-0.6990325203387452 CTGGTGGCTGTGTCGCCCGGGGCAAGTGGCTCAGAGCCTGTTTCTCATCTGCAGATGGGGGGATGGTCTGTACCTGTCCAGCACCCATGAGGAGCAGGTGGAACAGGATGTGGCAGTCAAGGGCTCCTGAGGGGACCCGTAAGTGCCACATTCAGCCTTCTGTGTTAAGGACCATGAGTCCAAAGAGTAGTCGCGTGTGA
-0.7118086469557491 TCCCTAAACCGCTCCATAGAGAAGAGGTCTGTCTGTCTGTCTGTCTGCTTTCTGGGCTCAGATCTTAGGTTTAACCAAGTGGGGGTTGAAGGGAGTCACAAGGTAGAGATCTGGAGACCGAGGGGGGCTCTGGGAGAGGCTTGGGCAGGTTGGGAGAAGCCTTGTGGGAGACATGGGGCCTGACACATCTTCTACCCTCC
-0.1270950830254715 TCCTGGGCTCAAGTTATCCTCCCACCTCAGCCTCCCGAGTAGCTGGGACCATAGGCTTGCACCGCCATGCTGGCTAACGTTTGCATTTTTTGTAGAGATGGGGCCTTAGCATGTTGCCTGGGCTGATCTCTTATTCCTGGACTCAAATGATCCTCCTGCCTTGGACTCCCAAAGTGCTGGGATTACAGGTGTGAGCCACT
-0.9738267479525242 CCTACCAACTTTTTACTGTCCATCACTACCATGTGTCACTTCCCTCCGTGCCCGGCTCAAATTCTGTGGCCAGTGATTATCACCACCCCCTGTCTGCACCCTCCACTGCCTTGACACCCGCCCTGTTCACTAAGCCACGAGCCTGGCTAGATCCAACGTCTCCTCCTACCCCACCCCTGCACACAGGCAGCAGGGTAAAG
-0.8191106555453174 AGAAATACCCGGGACTTTTCAGGTCCGTGAACCAGTAAAGCCTCTTTGCTTAACCCAGTTTGATAGAGTTCCTGTCACATGCAACAGAGAAGGCCATGATTAACGCAGAGACCAACACAGGGTTTGGAGTGCCCGAGGATCTCCGTGGTCAGAGGTCTGAGCCCTGGTAACTGTTAACTGCTTGTGGGGGTGAGGATAGA
-0.807729268473471 ATGCGCTGGGGGCCTCAACTGCAGGGACTTGGAACTGGGAGCCCTCCCTGACAGGCTGGCCTGGCCATGGACTGGTGGATCTCAGTCCCAGGGCGAGATACCCCGGGCAGGGACTCTCATCCCGGCTTTTGTACACTCCAGCCATTTAACCTGGTGTGGTGGCCTCGCTGAGACCCCAGGTCTGTGGGGCAGGATTTCTT
-0.6689672931071466 AAAAGAGGCCTCTCAAAGCTAATAGAAGTTCCCAGGTGACAGCCAGCAAGGAAATGGATACCTCAGTCCTACAACTACAAGAAACTGGATTGTGCCCACAATTTGAGTGAATCTCCCTATAACCCATGCTGTCAACACAGATTATAGCCTGGTGAAACCTGAAGCAGAGAAACCAGTCAAGCCAACCCAGACTTCTGACC
-0.8300696688956891 GTTCACCTAATGGTCTGTGACCGAGCTGAGGTGTCTTCTTGACCCTGTAAAGGAGGCAGCTCCATGAGTTTGAGGGCTACACACGTCAAATGGCTGTAGTTGCCCAAAGAATTTTGGATCAGATCTCTCACCTTTGATGGGAATGAAATAACAAAGCCTCACCCACCCGGGGCCTGTTGCCTTTTGCTGAGCAAAGTCCT
-0.8318446801517837 CAGAAGAGACACTCCTGGTCTCTTTCTTCATTCCGTCTGTGAACTCGTGTGCTGAGTCCCTCGGGCCTGGGGCAGCCTGGGCCTGGGGCAATCCCTGCCCGCAGCAGACAGAGCCCCTTTTCTCTCTGATTTACCTTTCCTGGGCTTAGAAACACAATTAGTTGTGACAAATGACCAACGCCACCAAAAAAAAAAAAAAC
-0.3858449532070806 GCAAATTCCCTGAACCCATGGAGGGGGTCATGGGAACCCCCAATTCATAGCCAGTTGGTCAGAAGCACAGGTCACAATGTGGAACCTGTTATTGGCATTGGAAGTGGGGGCAGTCTTGTGGGACTGATCCCTTAACTTGTGGGATCTGTCCTAACTCTGGTTAATGTCAGAATTGAGTGAAATGATTGCTTATCCTGTTG
-1.306542127023521 GGGGCGCCTGGGAGCGCGCGTGGGGAGGGCGCGGCTCGGACTGAGCGCCTTTCCCGCCCAGGCAGGGGCAGGTGCCGGGGACCCAGCGCCGCCGGACGCTCGCAGCGGGCCAGCCTTCTGCCGCCGTCGGGGCTTTGGGGCTGACAGAGCCCCGCTTTCCCGGTCTCCTGGAGGGACCGTGCCTGAGGATGCCTCCGATT
-0.02579952755632268 AGAGTCTCGCTCTGTCGCCCAGGCTGGATGGAGTAGAGTGGCATGATCTCGGCTCACGGCAACCTCCGCCTCCCGGGTTCAGGCCATTCTTCTGCCTCAGCCTCCTAAGTAAACTGGGACTACAGGTGCCCGCTACCATGCCCGGCTAATTTTTGTATTTTTAGTAGAGACGGGGTTTCACCATATTGGCCAGGCTGGTC
-0.6066232450798985 TTAACCTCTGCTAATAATAAGATCTGACACTAGGTGAGGCAAGTCATTTCTCTGTGACCCTAGTCATTGGTCACATTCAGAAACCATGATGCTGTGATTCTGGCTGTTGAGGCTATTGACTTTGCATGAAGAACTGCAGAGACCCACAGCAAGGGCCAGGATATAACGAACAAATGAGAGAAAGGCAGGCTGGACTGTGT
-0.8128888187451604 GATGCCATGCTAAGCACAGGCAGCTACCCACAGTGCCATGAGAGCCACATCCCATTATCCCTAAAGCCTCACTGATCCGACCCAATTCCCACAATCCTCAGCAGTTGCATCAGCCTCGCTAGCTCTGGTTATCCACAGTATCCCCTACATGCTCCGGGTCCCCTCGGTCCTCACCGCCTTGCCTCCCTCCCTCCAGGTCT
-0.310422894453307 AGGGGATGGGAATATGGGGGGAGTTCATCTGCCAGGTCAAAAGGGGTTTCAGAAGAAGGGGTTTTGATGGAAGGGGTTTTGGAGGAAGGGGTTTTCAGAGGAGGGAGAGACCCGGGGAGGGTTTTAATTGAGAAGAAGGATTTTATGAGGGGTGCAAACTTGACATAGGGAGGGTCAGGATCTAAAGTTGAAGAAAGCCT
-0.3150675076356605 ATTCTTATGATGGTCTTTATTCTGTGTAGATGTTGATTTGGTGTCCTTGGGGTCGGAGTGAGTGGGAGGATTGGGGGAGCTTTCTATTCTGCCATCTTGCCCCACCACCTGTTAGTACTTCTCATAGTGCGCTTACCTTATCCTGTGATAAACTCATTTGTATACGTGCCTTAATTTTCTTATTAAATTATAACATCTTT
-0.4165156488840267 TACAATTTTTATCTGTTATGAGAGCAACACTCTCATAACATAATAAATTTCTGGCTGTAAAGGTCTGAAAATGTCCGTTTATCACATTAAGCCTCATCCTGCAAACATCTCAAGATATAGACAGGCAGCTGTGATGCTGGAAAGAGAAAGGAATGCAGGACTCAGGGCACCTGGAGTTCAAGCTAGACTCTGCTGCTTTC
-0.5123429821283049 CTGAGCTGGCCTTGATGCTACAGAGAAGGGTCGTAAAACACATCGGCTCCTCTCCTCCTCCTCCCACACCGCCACTGTCATATCATGTCTCATCTACCCATTCAGATCAGGAATGGCCCCAGAGCCTGGGTGTGGATTCTGCAGATGAGTGTTGGGGACATGCTGGCATGACATGCACACACATGTACAAACACGATGGC
-0.3450299840363611 CCAGTGAAACTCATCTAAGGACTTCTGACCTCTGCAGCTATATGATAATAAATATGTGTGGTTTTAAGCCACTATTTTGGGTAATTTACTACAGCAGCAATCGGAAACTAATACAGGATCCTTCCAAGTTAGAGAAAGAGCAGAGACTTACCTCAGAATTGGGCTAGGGTTAGCCCTGCCAAATTTAACCAAGTGACTGC
-0.671945964666262 AAGCTACAGTTCCTCAACCTGAAGAACCCTCAACCCCCAGACACGCACTGCTTGTCAGGGAATTTAGGGGAGTCTGTGGTCTATGATTAAGACCCCTGTGCTGGGAACCCTTGACTTGTTAGACCCAGAAGGAAGGGGACACCCTAGGTCTTGCCATTCAGTTCAGAGGAGAAGACTGAGGCCCGGAGTCCGTGACTTGC
-0.4376685551632332 GAGATACCAAGCCAATAAGCCCTATGGCAGAGGTTCAGAAAACTGCAAAGGAAGTGAGAGAGAGACAGAGGGAGAAATAAAAAGAGGAGGGAGAAGAGGAGGAGGGAGCATGGAAGGAGGAGGTAAGAAGTATCTTAGAAGGGAAGGAAGAGGAGGGTTTTGACGATGACTAGGAAGAGATGAGGGAGTGGTTGGGGGCA
-0.8282019960531118 AGTGTCTTAGTGGCTGGAGTGTGTGGAGTAAAGAGGAAGGAGGGGAGGCTGGAACATGGCAGGAGCCAAGACATAGTGGACTCTGTGTGCCAGGCTAGGGGATCTAGTCTTGACCTGTAGGCCAGTGTGGCATATCAGAGTCACCTGTCAAGCTCTTACAAGGCACCAATGCTCAGGCTACACTGCCCAAGAGTCTGAGT
-0.8566487323724206 GCCGTGTGAGCCCAGGGGCTGTCCGGGCTGAAGGTCAGGGGGCATCCTGGCCCACAGGGTCCACCCCTTACGCGCACACACACACACACACACACACACACACGCACACACTGGGTGGGGCGTGGGAAAGACAAAAGGAGTCGGTCCCAGCTGGGGAGGATCCCGCCCTGTCCCTTCACCAGGCCCATTTGGGAGCGGTC
-1.392610801648258 CCCGGGTGGGGGTGGCAGGGCGGGACTGGGGCTCCTCCCAGGCTCGGGTGCGGGCGCGGAGGGCGCGCGCCTCCTGGCCCCGCCCCCTGGCAGGTGCCCGCGACCCGCGTGTCCCCGTGCGCCTGGCCGCCTTGTCTCCTCTCCGCAGGTGCTGTCCCGGCTGGGGGTCGCCGGCCAGTGGCGCTTCGTGGACGTGCTGG
-0.1773145871666357 GGCCTACAGAAGGCATTCTTGCTGAAAAGTCATGAGAATAGATGTAAGAATGTGCCCACTTCTGGCATCTGTGTCTATTAGATGGAGATTGGCATGGCCAAGGCTAACCACCTCACATACACTGCAATGACCAGGAATCCCTTGCAATCCTCCTGTAGTGCACACAAGCAGTAAGAAGAAACCCCTCCCCCACCACTGTC
-1.409874893218569 GGCGTGGAGGGTCCGCTGTGAGGCAGAGGCTGGGCCTGTGCAAGCTTTCGGGAGGCAGGAGGCCAGGCCTGCAGAGGCCGACTGGAGGTCAAGTTCGGGGCCTGCAGAGGCCGCGGAAAGTCAGAAGCGGGGCCTGGGAAGGCCGCCGGGAGGCATGAGCTGGGCTGGGCTGAAAGAGGCCACTGGGAGACAGGAGGAGC
-0.2919651995596114 CCTTCAGGTCAGAAGGGACAAGTCTAGGATTTCTTCATTGCCTCTTCTTTCCCTTTAGTCTTGTGAGATTGGATCCCATCCTATGTGACTGCATCTTAGAGAAAAATGAACAGCATACAGTCATGAAGCTTCCATGGGACAGTCTTCTGACCAGGTAACGAGCATTGGCAGTCCCTCTCCAACTTTTCTATCCCCTCGCC
-0.9583121804929499 AAGCCTCAGGACCGTGGGTGGGGCCCAAGGACACTCTGGACCCCCGTTCCATTCATGAGAGGCCCTCAGCACGCCACGTGTCTGCTGTGGCAGCCCGCAGGGAGGGTGGAAGCCTTCTGTAAATTCCACATGTGGCCCCAGGGCATGACGTCCTTGATGAAGGCCGCGCTGGACCTCACCTACCCCATCACGTCCATGTT
-0.8315535766969836 ACACCACCGTGAAAGACCAGGTCACCCTCTGCCCATTGCCCTTCCAGAAGAAGCTTGTCCTCCCTGCCCCAGCTCCGAGTCCACCACAGTCTCCCACTCAGGCAGCTGCAAGGCATGCTGGGAGTGAGTGGCCACTGGGGCTGGGGGCTGTCGGGGGCAGAAAGGAGGAGCAGATTCCTCCCTCCTGGCACCTACAAAAG
-0.6794837318248622 GTGTGTGATACCTGTACACCAGGTGCTGGGCAAGTGTCTGCCCATCCAGCCAACACTCCATCGTGGGTGGGCTTCCCCACTGTGGGCCCTGGACTAGTTTCTTAGTAATCAACTTGCAGACAGGATGACAGGGCCAGGCTTGTCACATCACCATTCTTTTCCCAGGGCTCAGTCCAGAACTTGCCTGGGGCAGATGGTAG
-0.2215836211581329 GTTTATGTTTGGAGATGTATCATAGATGAATGGGTGTATGTAGGTATGGATGGATGGATGGATAGTGGGTGGTGGGTGGGTGGATATATGGATAATGGGATGTGTGGGTGGATGGATGGGTGAGTTGATGGGTAGGTGGGTGGAAGCCTGGGTAGGGAGGTGGGTGAATGCACAGATAAATGGGTAGATGTGTGGGTGGT
-0.3240940461893272 TGTCACCTGTGGGGCATGCACGATACCTGGTATCAGGGATGAAAAGAGACAGGTGTGGGTGAGTTTGACAGTGTGATTGACAGGCCATGGCAGGCTACACTGAAGGTGAGAAGCAGGTGAACCTGGGTCTCCCCTGGCCCATGATCCAGGATTCAAGCTGGGCATGTGTAATTGGGGGATTAAAAAGCTGTAGGAGACCA
-0.4516934541304225 TGCGGTTATTGGGCCCCTTCTCCACACTGGAGCCCACACTTGGTGCTGGGGAGGAGATGCTAAATTAATCGCTGCATGGTCCCTCTAGGTCTAGCAGGGCACAGAGAGACCTAAACTAAGGCTATAATAGAAAGTGTCGACTGTGGCGACAGGTGCACGTATAAAGTGCCATGGGAACTCAGAGGAAGGAGCAATTAGCT
-0.6839915633508353 AAAGTACAATTTCTAACAAACACCCTACTTCCTTCTTTCTATGTATCTATTCATTGCTTGCTGGAGACTAGCAGTCAGAATGAGGCTAGGTCAAGGCATCCATCCCCAGGGGGGCCAGTTTTGCTGGGAGAGCGTGGGTGGCCCAGAGCACCCCTGCCCATGGTGGCCTGGATGACCCCTCATAGGGCAGCATAGTGGTC
-0.3436503036512831 CGATTTGGCAGTGGAGGAATCTGAGGCACAGAAGGATTAGGTAATTTGCCCAAAGTCATTGAGAGAACGGAAGGGCAAAGCCAGTATTTGAACCCAGGGGGGCTCCAGAGTCCTTTCTGTTAAATACTACATTTTTTTTTTTGAGACAGTCTCGCTCTGTCACTTAGGCTGGAGTGCAGTGGCGCGATCTCAGCTCACTG
-0.6770052827273084 TTGGCCTCCCAAAGTAGTGGGACTACAGGTGTGAGCCACCGCACGTGGTGGTTTTTTTTTTTTTTTTTTTTTTGGAGACAGAGTCTTGCTGTGTCGTCCAGGCTGGAGTGCAATGGCAACCTCCACCTCCCGGGTTCAAGCCATTCTCCCTATTCAGCCTCAGAGTAGCTGGGATTACAGGCACCCGCCATTATGCCTGG
-0.6052661768442402 CTCCTGGCTGCCCCATCCTCCATTCCCAGCTACAGCCGCCCAGGGTAACTTCAGTTTCTCCAAGATTTTCTCACTGATTTTGGTTAGTTTCTGAAATGCACACTGCCTTCTCGCCTCCACAGCTCACCCAGGGTCGATTTTGGAGAGGGAGCCAGTAGCCCGTGCAGCACAACACATGGAGGCCTGGAGCCCCTGACGAT
-1.355909758448203 GGGAGCGCCCGGCGTTGGGGGCGGGGCCTGCCAGGGCACTGGGGGCGGGGCCGAGTGGGGGAGCGGGGGCTGAGCGGGGGCTGAGCGGGGGCTGAGCGGGGGCTGAGCGGGGGCTGAGCGGGGGCTGAGCGGGGGCTGAGCGGGGGCTGAGCGGGGGGAGCGGGGGCTGAGCGGGGCTCTGGGGAGGTGGGCGAAGCCGC
-0.3797735900953557 CGGCCTCCCAAAGTGCTGGGATTACAGGCGTGAGCCACCGTGCCTGGCCGACCTTGTTTTTTTAGGTTCTTACTAAACTGGCTGGCATTCAGATGCTCTTACTCTCAGGGGAGTGTTCCCTCTGCCTGGAGCACTCCCTCTTCACCTGGTTAACTTCTACTCCTCCTTCTGATCTTAGCACAAGCATCACTCCTTTAGGG
-0.4745798946340391 CTGAGTATAAGGTGAATGCACATGTGTGTGTGAGAATGTGAGTATGTGTAGGTGTGTGAGGGAGCATGTGTGTGTTTGAGGGTGTGTGTGTGGATGTGAGTTGGGGGTGAATGTGAATGATTGTGTGAGGGTGTGTGTGAGTGAAGATATGATTGTGTGAGTGGATGTGGGGGGCTGTGATTGTGAGGGTGTGAGGGTGT
-0.5275335602563319 AACTTTTATCCAGGAAGAAACACAGAAGAGCAAAATAAAACTTCTGAGACTGGTATAGAGAAGATGAGCAGATAGCTTGTGCAGCCAGGTCTGGCTGAAAATGGTGAATGCCCATTATGGGGGAGGGAGGATGAATGTCTCTCTGTGATCCAACTTCCAACCAGGGAATCATGCAATTCAGTTCACAAGAGAGCATCTTG
-0.4169458808994744 CCCACCACGTTTGTCTCTAACCCCAGTGGCAGATCAGTGTAAGAACACAGCTGAGTGCTCCTCGCCTCCTTGCCCCTTCAAGGGCTCCTCACCACCCACCAGATCAGGTGCAAACTTCCAAGCCTTACTGGATCCCTTTCCACATTCTGAGCTCCGCCTGCCTTCCCATCGCTATCCTTCCCCACCTGCCTCCCTGGTAG
-0.6276093289158082 ACCTGAGAACAGGCTCTGGCGGGGGTGAGAAGAGGTGGACCTGGGACTTGGAGGGAGGGTGGGAGGCAGGCTAGAGATGGAGGCTGGGGCATTCAAATGAATCACAGTGGGGCAGGCAGGATGATGTGCAAGAGAAGACACGCATACCAGGCGCTTGAAATTCAAGACTGAGGAGCACAGAACCTGGCCTAGGGAGGGAA
-0.8263897566197685 CACACACACACACACACACACACACACACACACACGCACACGCACACGCACACGCGCACGCGCGCACACACGCGCACACACGCGCGCACGCGCGCGCGCGCCGCCCAAGGGTAGCCGTCTGCAGGGCCCCAGCTAAGCAGCCCGCGGAGAGCGAGCGGCGCGTGCGCCCCCGCTGATTGGCTGGCACAACCGGCACCGGA
-0.9339666397408379 TGCCACCAGCCGCAGGTGAGTCCCGGAAGGCCCAGGGCTTGGCCAGAGCGTCCTGTACCACAGGCGTCCTTGCCTCCCTGCGGGGCCTCGGCTTCCTCCCCAACCCGGACACATCCAGACAAGACTGGGCACCAGCAGGAGGGGATCTCATCGCAAGAGCTGGGTCAGGCAGCCTTTTGGTTCTACAAACCCAAAGTTCT
-0.8582593124040565 CACCACGACCCCACCTGTCACCACCTCCAGGGAGCCCTCCCTGCCTCCAGGGTGCATCTCCCCAGCTCTGGGGTGACCTGGGCACCCGGCAGGGAAGCTGGAGGGTCCCCCAGAGCAGCCCAAGCAGGAGCCACAATCACAAGTCCAGCAGCCTCCCCGCCTGCCCAGGAGCCTCCCCACATCGTTGGCCCCATCCTAGA
-0.9354713486552235 TCTCTGCTCGCCTGGGCAGGCTTAGAAAGCAGTTTTTGGCCTCCAAGACATGTTCCTTAGAAGGCACTCACCTGGCACAGGGACACCTGGGGAGCTGAATGCACATGGCTTGCTGCCAGCGGCTCCCTCCCGGGGAGGAGGCTGCACAGAGCCAGAACGCAGTCTGCAGCAGCAATGACCTTCCGACCCCCAGGGACAGG
-0.5366657930086781 CACCACAACCTGCACCCTCACAACCTGCACCCTCACCACAACCTGCACCCTCACCACCACCACCTACACCCTCACCACCACCACCTGCACCCTCACCACAACCTGCACCCTCACCACAACCTACACCCTCACCACAACCTACACCCTCACCACAACCTACACCCTCATCACAACCTACACCCTCACAACCTACACCCTCA
-0.8960496677277998 GGCACTGCCCAGACCAGCCAGCCTGCACTGGACCAGAGGGAAGTTGCTGTTATTTAGGTTCTGGGGGGCTGGACCCCAGAAGACATGGGGGCTCAGGGAGAAGGGGTTCCAATCACTGTCTTCAACTCCAGAAGAAGCTTCCGTGTGAGTCAGGGAAGGGAACACTGCAGGGCCGGGGAGAAGCCAGCACCTACAGGTAG
-0.3958002029677136 CTTGGAATTTTCTAATTTGGGGGTGTATTTACCTTATTTCATTCTTACCTTTGCTGAGGCTTCCAGTTCAGAAAGAATGGGCCTGGGGCGGTCTTTATCTTCCCCCAGGACCCCCAGTCGAAGGATCCCTTCCTTTGAGGTGGGGCCCACATGGATCTGCAGGGGCCTCCCCTCCCTGCAGCACCCTCGCCCCCCTCCCC
-0.4661683292264894 GACGAGGAATAAATCTGGCACTTGTAAGGCACCAAATCAATGGTTAGCCAGAGACACTGGGTAAAAGCTACAAAAAGCTACAGAAAAGGTGTTTTCCCCACAAAGGAAGGACACAAGCCATTTGACAGGCGCTCTCTCCTCACCGTGTGGAGGGCCCGGGGCCTGCTCTGCGACTCCCTTCTCTCTCCTGCCTGCACTGC
-1.041526478098075 GATCTCGGCTCACGGCAACCTCGCCTCAACCAGCTTGTTTGTTCAGCCGTCAGACACCAAGCCCTCCAGGTCTCTGACCTCCAGAACTGGTCCCAGCAGCAAGTCTGCCGTGCTGCCCGGGCATAGTGGTAACCCTCTCTGAACAAGCAGCCTCAGATTTTCCCTGCCACCAGCTGGGTCACTCAGAGGGAACCCTTGGT
-0.4766917629407103 CATATCTCCACTCCAGTCCCATATCTCCACCCTAGGCTCCTACCTCCCCTCCAGGTTCCTATCTCTCCTCCAGGTTCCTCTCTCCACTCCAGGTTCCTATCCCCACTCCAGGCCCATATCTCCACTCCAGGCCCAGATCTTCACTCCAGGCCCAGATCTCCACTCCAGGCGCAGATCTCCACTTCTAGGCTCATCACTCC
-0.7828609899901681 GTTGCAACCCCTGCCATGGAGTGGGGGTTCCTTGAGGTGGCGCTGTGGAACTGCTTCCTAACACTGGCCACAGCGACTCCCAACACCTCTCAGGCTTGCCCTACAACCCATTTTTCACCTGCAGCCAAAGGCGTTGCCATGAAACAGACCATGTCATGGTCCCATCCAGATCCTCTGATGGCTGCCCCTCACTTTGGACT
-0.08785367052883879 CGCCTCCAGGGTTCAAGCAATTCTCCTGACTCAGCCTCTCGAGTAGCTGGTACTACCAGTACCCGCCACGAAGCCCAGCTAATTTTTGTATTTTTGGCAGAAACAGGGTTTCACCATGTTGGCCAGGCTGCTCTTGAACTCCTGACCTCAAGTGATCCGCCCACCTCAGCCTCCCAAAGTGCTGGGATTACAGGCATGAG
-0.1748898581148534 TTTTTTGAGACGGAGTCTCTCTCTGTCTGTCGCCCAGGCTGGAGTGCCGTGGCGCGATCTCAGCTCACTGCCACCTCCGCCTCCTGGTTCAAGCAATTCTCCTGCCTCAGCTTCTCCAGTAGTTGGGGCTACAGGTGCCTGCCAACACGCCTGGCTATTTTTTTTGTATTTTTAGTAGAGACTGGGTTTCACCATATTAG
-0.2892012322539679 GCCTTTTAGCTTAATGCTTTTGTGCTTTGCAAACTAATTCTGGAACACATTAAGTGTGTTAAGTGAGGGATACTTATACAGGGATCTAAACCTACCAAATGGAATTAGCGTGAAGGAACCTTTGACAAGCAGTTTGAAGACAAAGTGCCACATCAATGTTCAAAAATATAATTACCACAGTGGAGGCCATTATCACATTT
-0.369993413945663 AGGAAGTGCCAGGGCGGCAGGGAAGGAGAAATTAGTTGGGGATGACTGAAGCCCTTCTGAATGAGGTGTAACCTGCAGGGTGCACGTTGATGGGTGAATAGGATGACAGATGAAGGGCCCTTCTGGAGGATCTACTGCTGGTCAGCTTTGGCGGTGCTCCAGGGATGTGGTGGGGGAGCAGTGGGCCAGGCTCCTAGGGA
-0.61886969714151 ACAGAGCCCCCCATCCCACCGCAGGCCCGCCCATCCCACCGCAGAGCCCCCCATCCCACCGCAGACCCGCCCATCCCACCGCAGACCCGCCCATCCCACCGCAGACCCGCCCATCCCACCACAGAGCCCCCCATCCCACCGCAGGCCCGCCCATCCCACCACAGAGCCCCCCATCCCACCGCAGAGCCCCCCATCCCACC
-1.009276278503708 AAATTGCCCCTCTCCAAGAGTCACCTCCTTAGGGGTCACAGACAAGCATGCCCCAGAGGGACTCCAGGAAAGAGCTGAGGGGTCTGAAAGTTCTCCAGCTCTCACCTCTCAGCTGCCCACGGTCCCTGTCAGACACGCCCACCCTTCACAGTCAACAGACACACATGCTCGTGGACACACACGCACTCCCACAACACACT
-0.3016953171034348 TTGCCTTTGTTTTTTGAGACAAGGCCTCACTCTGTTGCCCAGGTTGGACTGCAGTGGTGTAATCTCAACTCACTGCAGCCTCGACCTCCTGGGCTCAAGCAATCCTCCTGCCTCAGCTTGTCACGTAGCCAGAATTACAGGCGCACAACACCATGCCTGGCTAATTTCTAAATGTTTTCAAATATAAGGTCTTTCTATGT
-0.9455953284441037 CAGAGCTCTTCACTGGGACTGCAGGGACTTGGGGTGCCCTGCTACTGACAGGCACCGAGAGGCTGAATGGAGGCTGTGGACACAGAACAGGCTCACCAGCCCGGCTCGCTCAGGGCTGCTCACTCAGCTCCCTTTAATCAGATCTGCTTGCTTGCCCGTTCCCAATCTACTTCTTATCTAAGCGTCTCCAAGCCGCAGGA
-1.075711105183571 CCAGGGTTTTCTGGGTTCACCCTGAACGTGGGAGATACGGGAGAAAAGAGGGAGGGAGGGAACGGCATCTGTGTGCTCCCCCGAAAGCCCAGGCAGCCTCTGTCCTGCCAATGAGCAGGTCCCCAGGCTGTGCCCAGGAGACTGAGGGGGAAAAGCACGCCCCAGAGAGGGGCCCTGCAGACTCCCGGGCCTGTTCCTTA
