svm_type c_svc
kernel_type gkmrbf
L 10
k 6
d 3
norc 0
gamma 2
nr_class 2
total_sv 1164
rho 0.57049
label 1 -1
nr_sv 367 797
SV
1.462883124955937 CCTGGCCCACGGCTGGCAGGTGGGACCCAGCTGCAGGGGTCCAGCAGCACCCACAGCAGCCACCTGTGGCAGGGAGGAGCTTGTGGTACAGTGGACAGGCCCTGCCCAGATGGCCCCCCGCCTGCCTGTGGAAGTTGACCAGACCATCTGTCACAGCAGGTAAGACTCTGCTTTCTGGGCAACCCAGCAGGTGACCCTGG
1.16231004812706 ACGGTCCCTGGTGAGTGGCCTCACTGTGAACTCACAGCCCTTCTGTCATCTCTTCCCTCCCAAGGGCTCTTCCAGGGCTGGATCTGACCCACACCCTCCCTGTTCTTGGCTGCATGTGGCCTACGGTGGCCTTCACAGCCCAGCAAGGGCCAGCCCAGGGGTTGGCAACTGCAGCCCGGGGGCCAGATCAGGCCCGACGC
1.378585979459975 TAACCCCGGGACACAGTCTGAGACTAGGCCCCATTTCTGGCCATATTTGCCACAACTCCCAGTCAGTCCACAGAGATCACACAAGCAGACTGGCCACAGAGGGTCCCTCCACAAGATGGCACCCCTCTCTCACTCTGGTTCTTTCAGAAAACCCAGCCACGCGTGCACAGCCAGAGGCACACAGAAGCATGGACAGAGAG
1.581373217004024 GCGCTGTCATGCTGGGACGGGAGTGATGCCTGCTCTGTCCTTCAGACCCCGGGACTGTGACGAGGCCCCTGCTGCTGCTCTCTACTCCTCCACCCGGCAGTTCCCTGAGCACCCTGGGCAGCCACACATTTCGCCAAAAGCAAAAGGACCAGCAGGCACTGCCTGAAGCCCTGTCACTGTGCTGCCACCAACTTCTGTGC
1.538140651914482 AGGGCTGGACATGCCCTGAGTCATAGCATGGGTGGTTCTAGAGAGGGCAGGGGTGGGATGGAGCGTGCAGGCCTCTCAGTGCCCTACCAGGGCCCTGAGGCTTGCGTGGATGGCACTCACACCTACCCATGGCAGTCCACATGTGGCCCAGGCTGGGCTGGGGGACAGCCTGGGGTGGCACGCAGTAGCCTGTCCTGCTG
1.235723909660108 ATGTCCTGATAATACGGGTGTGGCCAGCCCACAGTTCAAGCTGGCAAAGCTGCATCCAGCTCTGCCCTGCACTGCTGACCTCATGTGAGTCTGGCCCCTGCACCGCATGTATCTCAGGCCAGGGGCCCAGCCCTGCTGCCAGGACATGCTCCCTGAAGGGCTGCTGAGCTGATGGATTGGAGATGGGGCTGGCTGGCCTG
0.9020024938808102 GCCCCCGGACGGCCCTGACTTGGCCGCTGCCCGCTCCGCTGCGGACGGCGCGAGCGAGTGCCAGAGGCCGGCAGGCAGGGGGCGGGCCCAGCCCGCGTCACCCGGCAGCAACCAAGCAGGGTGAGTGTGCGGGCTGCGCGGGCGGCGCGGAGCGGAGGGAGCCGCGCGGCGCCACACTCACTCGCACTCGCACTCACACC
2.02546259074572 TCTCACACCTGGGGCTTCACTGACAGCGGCGGGCACAGTGCCTTCCTTTCTCTTTCCCTAGACACCAGCTCTGACCCTCCAATTTCCACCATGATCACAGTGTTCTCAGAGTCAGGCAGCATATGAGGAAAATTGCCCTTTCCCTGGAATAATTTACCATCTTGTAATTTCCATTACCTGACCCTGTTGGAGCCTATTCC
1.444195707851306 CAGACCAGGCTGAGGCACAGAGACCAGGGCTCAAGAGCTGCTCTGCCCAGGATTCCTGTGGCTGCTGTGAACTGAGTGCTCCTGGCCGAGGACCCACAGCTTCTGGGAAGTGTAGGTTGGGGCTCCTGATCTGCTGGCCCCTCCCTAGGGATGCAGAGCACACAGGCCCTGGGCCTGGAGTGTTTCCATCCATCCACACA
1.613742975028883 ACTGTGGGGTGAGGAGAGGCACACTCTGCTTTGCTTTCTGCACAAGACAGCCCCGGGGTGGGGCCGGGCGCTGCGGGTCAGAGCCCTGACCGTTTGCAGAGGAAAGGAAAGGGACAGGAAACTGGAGCATCAAGGCCCTGCTTTGCAGGGGACACCAGGACTTAGCCATGGCAGGGGCTCTGCCAATGCTCTTCACACAT
1.464565065417397 CCTCCTACGTATTCTGTAAACAGGTGAACCTTTCTGTGTTTGTACATACTAGTGTATGCACACGTGTGTGTGCGTCTGTGTGCCGTCCATCTCCCCTGGCGAGGGCCCCTTCTGCCTAGTACCTCCAACAGCTGGACCCTCCAGCTGGTCACCTTATGTAGGAGGCTTCTCTCCCCCATGGGCGGAGTGCAGGGCAGGGT
1.253563646095224 GGGTGCAGAAAGGCACTGAGCTGGGGAGGCAGACGGCTCCCAACACTGGTTTGTTGAGTCATGGCCAACAGGGTGTCTGGTGAGGGCACAAGGACCGGTCAGGGAGGAGCCGGGCAGGGTCTGGCAGGAATCCTCCACAGGGAAGTCTGTTCCAGGCACCAGACACCTCAGCCCAGGCAGCTGGAGGGGCCTGCTGGAGC
1.748766272496612 CCAGCACCGCTCTGCTCTGCTGTGTGATGGCAGGAAAGTCACCTGCCCCTCTGGGCTTCAGGCCCTCCTCCTAACCCAGGTGATCAACATGGCGACCTCAGGATGCCGGAAGGAGCAAATGGGCACGGAAAGAGAACACCCTCCTTTAAGCCAATCTTTCCCCAGGTTGTTTCTTAAGCCCAGGAACCCTCTCTGCACTG
1.400018320000735 GGTGCATGCGTGTACCCATGAATCCTCTGGCCAGGGAGGGGCCCAACCTGCCCAGGGCTTCTTTCTTGAAGGAGACAGGGCTGATCCTGCACCTGCGCAGTTTTCTCTGGCTTCAGTTTAAGGAGAACCCTCACCCCCGCCACAGGATGATCCTGGGCCAACCAGGGCTGGGCCCAGCAGGTGCAGGGCAGGGTGGGAGC
1.696661254829171 ACCATTATCATTCTGGGTCCCTCTCTCTGTTCCTTGCAGGCAGGGATGGGGTCTGGCTCACCTTGTTCCCCCGCACAGTGCTTGGTAAACAACATGCAGAATTGAAAACGTCACCGACCAGTCTCCAGTTTGGGAGGAGTGAGTGAGAGAGGACACGGCCGCGGGGGCAGGAGAGGGGAGAAGGCAGCAGTTGGGTACTC
1.399540158097171 AGGGTTTTGGTACACGGAGCGGGGGGAAGAGTCTTTCCTTCTGGAAACGCTTTCTTGACTGCCTCAAAGGACATGGGCGGCAGCTGTCCTGTGGAGAGGCCTGGCCTGGGATGGTCCAGGGGACAGGCGTCATGCTGGCCGTGTGGCCTCACAGCACTGCGCTGGGGATGTGGGGGCCCTGCTTCCAGGCTCTGCTCAGC
1.626132050483517 TGATCATGGCAGCCACTAGGGGCAGGGTCAAGGGGTCAGGGTTAGGAGTACAGTCACACAGACGTGACCTGGTCATGCCCCTGCCTCCCACTGGCCAGGTGCAAAGGTCAGGGAGTGAAGTGAGCTGGACATGAGGGCCCTTCCCTTCTGAGAGAAGCATGCCCATTTTTCTTGCAACAGGCACCCCTATTGGTCTGTCT
1.629504419290773 AGGAGGGACAATGACCCAGGCCTCAGAGGAGAAGGGAAAAGGAATTTGCCTCCCAGCCGGAGCTGCCTGTGTCCCAGCCTGGGAGCTTTTTGGTTCCTCTCTAAGGGCATGGACGTGAGGAGGAAATGGGTATTTACACCCTGTGAGCAGGGCTTTTGATGGTGCTGGGCAAAGTGGAGAGGCCTCCCCAAATCTGGCCA
1.32786012360427 CCACTCAGTTCCAGGCTGGGCAGCCACAGTGCCCCTCAGGCCAGTGTCCCAGCCAGGCCTGCACCCCCTCCTCCTGAGGGACTCCCCGCCTGCACGGTCTCCACTGCATTGCATCCCACGGTCCCCACCAATGTCTGTCCGTGGCAGCGATGTCGGGGGTGAACTCATAGGCAGCAGAGGTGTACGCAGCATCCGGTAGG
1.355387722901852 CTTGGGGAGCCCTTTGTAGAACCAGGCCCCCGACCTCTTCCAGACCTGAGTGGGGGAAGAGAGCTGCTTGGGGCACAGGACGCAGAGGAGCCTCCCCTCCTGCTCCTTGCCCAGATGACGGGAGGCAGGACGCGGAGAGCTAGGAGCAGAGTGGGAGTGGGAACTCTGGCTCTGCCCTCCCTGGCTGATGGGCTGGGCTG
1.260264057479868 GCAGAGGGCTGCACGGGACAGACTCTCCCAGCCACAAGTACCTGCAGGCACCTCACCCAGCCCCCAAGCTCTCCTCCCTGCCAGCTGACCTCCCGGGCACCTTCTCTTGCTGGCCCAAGGCAGAGAGCTGCATGGGATGGACTCTCCCAGCCACGTGTACCTGCAGACACCTCCTCCTGCCCCCAGCTCTCCTTGGTGCC
1.712818583578825 CTGTGGACCCTGATCGGGGAAGGTTCCCAGGGAACCACGGTGGGCTTGGGGAGAGGCATCCATCAGGGCATGAGGCCACCAGAGTGAGGGGCGTGGGGCGAACAATGGAGCTACCCTGCCATCCCTAGGACAGGCCTTGGGGGCTGAGAGTGCTCCCCCACCTCACGCCCAGCCAGTCAAGGCCCTGTTTAACGGGGAGT
1.767258379391288 AGGCCTGTTACAATGGTGATTGGCTGCGAAGCCGCCTCTGTTCCCAGACGGAGTGGGCTGCATGCAGGAAATGAATAGGGGCTGGAGGCGGAAAATTGGACAGGCCAATTAGACCGAGCCAGGTCTTTTCAGACGAGCGTCATGATTTTGATTCAATTCCCAGGACAACAAATGTGCCTGTGTTTAAACACAGTCTCAGA
1.996047907649644 TCTCCAGTGCACAGACGTGGGCTCAGGTAGACGCCCCAGGCAAGGGGCAGGGGAAGATGGGATGGCTCAGTCCATCTGCAGGGGTGCAGTGCAGGAGTCCCCATGAGGCAGACTGCCCTGGGGGCTGGTGAGCACCAGGAGCCCCCTCCTCCTGCCACCACCCATGTGTGGGAGGCCAGGAGGCTGCACTGATAGCGGGT
1.631409844747475 ACCAGTAGCCTGTCTCCCTGGAACCCTAGGCCACCATCCCTCACAGAGACTGGTGACTCTCCCCTTCCCCAAGAGAGCAGCCTCTCTCCACCTCTTCCACCCTTCGCTCCTAATGTTCCCACCTCTACAACAGGGTCCCCCATCAGCCTATGAGGTGGGCTCCAGAACCACAACGTGGGCCTCTCCTCTCTGGGTAAAGG
1.655255289930781 CGGGCCAGAGTATGAAGGAGGCAGGTGTTATGATCCCCACTATATAGATGAAGGAACAAAGGCTCAGAGATGACTCGGGCTGCCCGAGGTCACACAGCTCGTTCACGGTAAAGCAGAATTTTTGTTCAGACCTCAGGAGGGTCGGTCACACCCTCCCCTGCCCTGGTGCCAGGCTGGTGCGCACGGCTCTCTAGAGAGCT
1.596341050069163 AGGGAGAGAAGCCAGGAGAGTGTCCACGGAACTGAGTCCTGTCCTCTACTCACAGACCACGAGGACGCGGAGCCAACGGATCTGGGGACAGGAGCAGCGTGGACCAGTCGCCCTCCAGAGGTTGGGTGAAGGGCTGTCCCTGCTGGGCCCACGAACCTCTGCCTTCCCCTTAGGGTCTGGTGCTTCCTGCTCCCCAGATC
1.457009597935267 CATCGAGAGGGAGTCATCCCTCTGAGCGTCAGTGTCTCCATCTGGAAAACGAGTATGAACACTGCCTTGCCTTTTGCCTGCCCATCTCCTGGGGGCCATGAGGGACACATGACATCATGGAAATGTCAGGCACAGCGGCTCTCAGAAGCACCCCCACCCTGACTTCCTCCCGCTCAGAGGGCACAGACTCACTACGGCCT
2.000796336893051 TGACCTGTAGTCTCTGTGACTCCACCTCCATTGACCTGTAGTCTCTGTGCTCCACCTCCACTGACCTGTAGTCTCTGTGCTCCACCTCCATTGACCTGTAGTCTCTGTGACCCCACCTCCATTGACCTGTAGTCCCTGTACTCCACGTCCATTGACCTGTAGTCTCTGTGCTCCACCTCCATTGACCTGTAGTCCCTGTG
1.440593365605273 ACCTTGCGAGGCAGGCCTGGACCCTCAGTCACCCCCCAAGGCAGGCCCAGACCCTTACAGTCACCCGGTGAGGTGGGCCCAGACCCTCAGTCACCCCGAGAGGCAGGCCTGGACCCTCACAGTCATCCCACAAGGCAGGCCTAGACCCTCAGTCACCCTGCAAGGCAGGCCCAGACCCTCAGAGTCGCCCTGTAAGGCCC
1.314623152691027 CAGCCAGCAGGCAGGCTGCTGGCTGCTCCCACGTGGGAGGTGGGAACTGAGCCCTCCCCAGCCCAGTCCACAGGACAGAGAGGAGGAGGCCGCGAGAACTGCTTCCTACATGTCCCCACCCCTCTCACTGCTGTAGCTTCAGGGCAGAAGAGCCACAGAGCCAAATGCTGCAGAGATGAAGGGAGACGGAAAGAGCCAAA
1.206183024472784 ACAGCCCAGACATGCTCAGAGCAGACAGCTGGACTCTAACCAGGCTCTGCGACTTGCTGACTCACAGGCCGTTTGTCCCTCAAGATTCCCCACGGGGTAGTCGGCCTCAAGGCAGCTCCACCTGACGGCTGAGCTCGCTCCTTGCTGAGGGGCTGGTGCCCCCAGGAGCCTCCTCTGGGAAGCTGAGACCTCCTGGTGCC
1.432457905258661 AACAGCATTTGTGGGCTCAGAAGCTGGTAAAGCCAGCACTGGCTTGAGAGCCCTGAGTGACCAGTGGCTGGGGCCGGTCACATGACACCCCTCCAGCCGACTGTTCCCCGCCCCGACTACAGGGTCCCGTAAACGGGCCTTGGGAGCTCATCCCCGTACAGGCTAGGAAGCAGTGCGCATAGTCATCACTCCAGGAGAAC
1.339827198008993 ACCCTCTGACCGCAGGCCCTGATGATGGATGAAATCTTGGCCTGGGCTGTCAGCCAAGGCCATCTGGGCCAAACCATAGGGCAGGAAACAGCAGGCTTCCTCCTCCTGTCTGAACTCTGGCCCAGAGAGGAGCTTCCTTCAGCTGGCCGCACCCACTTCCCCGACAACATTCCAGAACATTCCATGATAGGCCAGGAGAC
1.400136641986213 AGACAGGCCCCACCAGGGAGGAGGAGGCCGCTCTCCCTCCCACCACCGTTGTCGGGGGTGACCCGAGGTGTTCCAGATGAGGAGCTGAATCACTGGGACTTAAGTCAATAAGTGGCAGCCACCAGGCAGGCCCAGCTGGAGCCAAACCAAGGCCTGGATTCTCCTCGTGGATGTCTGGTAAGGCCCCACCACGTACCCCA
1.568488281856647 CCCGAGGGCGGTATGTGCATCCTCAGCACCTGCCCATCCGGCACCATCCTCTGATCCAGGGACTGTGAGCAACAGGGCCCCGTGGCCAGGACATCTCTCACCCTCCAGTTAAAATCTCGCCAGTTGAGTCTGCCCATGAAAGTAGGCGCTGAACTGCCCAATAAATCCACAAGTAAGAGTTGCAAGAAGGAGCCAAAAAG
1.628354550727078 CCGGGCCACACTTGGGCCTGCCCAGTTCCCCTAGCTCTTCTCTTTCCTGCCTTGCCTGCCTAAGGCCCCTCTCCCCCTGCACTCCACTCGTATCTGCTTCTCCGCCTCCTGCCCAGTCAGCCTGCTGTGCAGAGCTCCCGCAGCTGCCTCAGATCCACCCTTCCTGGGTGGCTGCTCCTCCCCGCCACCGCCCTAGGAGC
1.427989102412317 CCATTCTGTTGCCCGAAGCTGCTCAACGCCTGGCACACTATGAACTCTCAATAAATATTTACTGAGCGAACGACTGACACTCATCCTAGAGTAGGCTACATGACTGGTCTCAGCTTCTCACTCCCTGCAGTGGTGTAAACAGCCACACCATGCCAGGGCCTACAAGTAGGCAGTGTACATCCCTGCCCTGTGTTGAGGTT
1.825139187821238 GTGTACTAAGCGCGGAGTACCATGCCAGGCACACAGTAGGCGCTTTGCTGAGTTAGGCTTTGTCCTTCTCCACCTTCCCCCTCACCAATTCCACCACTGGGCCTGAGTTCATCTGCACAGATGAAAATCTGCAGTTCTTCCTCCGTTGTGGGGCTGGACTGGCGGGGGCAGGGGGAGGCACCCTCACCTGTCCCAGGAGC
1.77916027894122 CTGATGGAAACTGCAACAGTCTAAGGCCTTCAAGTCCCATCACCTTCCACTATGGAAGTAGTGGCTCCAAAATCCTTTCTCCCCTTGCTTCACTCTGCCAAGTTTCAGATCCCGGAGTGGACAGCCCAGCAAAGTAGCCTGGCGTGGGCCCAGGTCCCATCCCTTGAGCTGGGTGATGACTACATGGGGTGTGTCCACCT
1.544059677283994 AAATGCATTAGTCAGTTCAGGCTGCCATGAAATATGCAGACAGGGCGGCTTACACAGCTGGCATTTCTTCTCACAGTCCTGGAGGCTGGGGAGTCCAAGATCAAGGTGCCAGCTGGCTCCGATTATGGCGAGGCCTCTCCTCCTGGCTTGTGGACATGGTGAGGGCCCAGGGGAAGGGAGAGACAGAGACAGAGAGAGTG
1.616151632656251 GCTCTTACACGAGGTGCTAACGACGTAATTGCGGTCTTACATAAGGTGCTCTGGTATTTTCAGCAGCAGATAACTGCCATGTGAATGGAGAAGCCGCCCTCCCAATGAATGCTGCTTACTGTACAGGCTGGCACAGGCCTTGAAATGCCAGTGCTTTGCAGGCAGCCAGCTGCTGTCAGAGGGGTGAGGATGTCTGTGCC
0.7665317247451058 CCTCGGACTGGGCCCCGGACCCGGGGCGGCCCCGCTTCCCCCCCGGACTCACCCGGGGTTCGGCCCCGCAGCCCGCGCGCTCCCTCGCTGCCCTCTGGCGGCAAAACCGTGAAACCGGCGCCCGCCCCGCCCCGCCCCGCTGGGACCTGTGGCCGCAGAGCCCGGGCCGGAGGGCACCTGCTGGGCGGCCTCTGGATGGT
1.450508454069817 CGCACACTTCTATGCGCGGAGGTCTCCGCAGACAGAAGCACGCATGCGCACATCGCTGTGCCGGTATCGCCAACAGATGGAAGCACGCATGCGCGCACCGCTGCGTACCTAGCACTCCGACAGATGTACGCATGCGCACAACGCTCTGTTCTCGAGATCCCCGACAGAAGCACACATGCGCACACCGCTGTGTGCCAAGG
1.917298379709917 GGGCCCTGAAGGCCGGTGCTTAACGTATAATGATAGAAAGCAGGTGGGGTGAAGGTTCCTGGAACACACAAGTAGCTTCAACTCAGAACACCTTGGGTTCGAAGTTTGCATATCTTCCTCACACCCAGGCTGTAGCAGTGAGGACTCCTTCAGGGCAAGAAACAAACCACAGTGAAAACCACCTTACAGACCAAGGGGAA
1.512777806162209 ACAGGAAGAGGGCAGGACCCCCACACCGCTGCTGCGTACTGTTTCGGAACAGCTTGTCTTCCGTAAGCCCTGCCAGACAGTGGATTAAACACACCCCAGGCCCCGCATGCTGGCTGGTGCCCCGTGCCCGACACCGGCCCTCTCCCAGCCCCCAGGTCTTGGGCTGTTCTGTGGCTCATGATGTGTGGATTTGCCTGCTG
1.52445726370667 CAACATTACAGACAGGCTCCACTGCAACTGGGCAGGTCAGGACTGGGCTCAGTCGGCCACATTCTGCTCCCACGCGTTGCTTCCTTAGACTGTCAGGGAAGGGAGAAGGGCAGCCACCAGGAGCGGCCAGGGTCACGGACTTGCTACTTCTTTCCTAGAGTCTGTTCTGTTTTCTGTCAGCAGTAAGGAAATACATTCTA
1.99652613238095 ATGAGATTTGTCTCATTATCTCCTTGATTGAAGGGAGGAGGATCAGCTCAGTGGATGAGGGAAGTTGCTTGTGGTTCAACTGCAGTTTCAACCAGGCTGTGGATTTTGATGTCTCAACAGGAAAGGCTGCTATTGCTTAAGACAGCAAACGAGGTAAAAGGAAACATCTATGGTTTTGCAGGGGTGGGGTAGAAAGGAAG
1.668222725958549 ATGGAATAACTGGCTGTGACTCATCATCACCAAAGGCTGGGTCCTAGCACAGACAAGCTTGTTACTGCTTTTCTCATATGGGTTGGAGTGCTACTGACCTACTTTTAACAGGTCATGCCCTTTGAGGAGCTTACACAACTCCAGGGAGGTGACCAGTCATACTTTCTTGCCCAGTCTTCTTTTAACAAGGCCTTTCTGTA
1.710483224695512 ACTGCAGTAGTGAGCAGGGTGTGACCCTTACCTTGAGGGCCACATGGCTACTGACTGCAGCCATGAAATGGGTTAGGTCACCCACAGAGCCGGCAGAGACCTTCCCTCCAACCACCTCTGGCTGATTTCACCACTAACACCTGGTGGGGTCCCTCCCCCACCCCAAGAGGTCTGCTTTTGTTGTGCACCCCACTCTGGGA
1.873685287118826 AAGGAGATACTACTCTACACCCATGAGAATGGCTATAATTAGGGGAACAAAGGAGACACGCGTCAGCAAGGATATGGGGAAACTGGACCCTCCTACATTGTGGGTAGAAATGTAAAACCGTGTGGCTGCTTCGAAAACAGTTTGCAGTTCCTCAAAAAGTTAAGCCTAGGGTTACCATGTGACCCAGCAATTCCACTCAG
1.277741837543598 TGCATCCCACTGAAGTCAGGAGTGATGGGTCAGGAGGAGCTGAGCTGTGGCAGGTCTTGTCTTCCGGGCGAGCTGGCCACACTCTCAAGCTCATCCTCACTGTTTCACTGCCAGTCACCAAGGACTGGAGAGGTTTGGAATGATACAGTGAAGGCGGCAGTGGGGGTAGGGTGGGGATGACGTACAGCCTAGGGAGGGGC
1.472501167841799 GAGGCTCAGGCCCCCCCTGTTCCTACCCTCTTCTTGGAAGCACACACACAGCACCAGTTCCCTCCTAAGCCACAGGGAACTTATAGTAGGAACTTTTCATGGTTAGAAGAGGAAGGAGTTCTCCTCACAGGGGAAGTCCAGCCGCTAGCCAGGGCACCCACAGTCACATTCTCAGGACTACTGGCCATCTCAATGACACT
1.618021418526539 ACGCTCATTCTTGGAACCAGCCACCTTACCGTGAGGAAGTCCAAGCAGCCCGTGGAAGACAACAAAGAATCCCAGCAACGGCCTGGCCAAGCTCCCAGCTGACAGCAAGCACCAAGGAGCCAGCCATGAGAGTGAGCCAATGCATTCTCCAGTCCCCTCCTGAGCTGCCTCGGCTAATGCTGCACGGAGCAGGGATGAGC
1.217837227332165 CAGCGACCTGGTGAGCCCGGCTCCGTCAGCCGCTCTGTCAGCCGCTCCGGCACTTCCGGCAGGCCAGGGCACTTCCGGGACCGGGGAACTGTGGGATCACGGCGGACTGAGACTGGCGGCGTTCCTGTCACGTCAGGTGTCTCCCGGGCAACGCAGTATCCCGGCGGCCCCGCGTGGCCTCAGCGCGTCCTTAGGATGGG
0.7853988325221404 GCCCCCGCCCACCCGCCCGCCGGGGACGCCGGGGAACCCTCCGGGCCCAGGGACCGCGAGAGACCCCGCCCCGCCCTATCGCAGCCGCCGGGCCTGGTCACGCGCAGAGCCGCGCCGCGGGATCGGGGCCAGCGCCGGGCGGAGGCGGGACGGGGACGGGGGCGGAGGGTTGAAATCGCGCGGCCGGGCCGGGGCGCGCC
1.691879660919287 GCCTATTGAGCGTCCTTTGCCCGTCACAGTTACCCTTTTCAGTAGCCCTCGTTGGAATTTTCCTTCTGGTGGTTTCTTAACCTCCACTTACTTCCCCTTTTCGTTTCGTCATCCGCAGAGGCTCCGGGGAGACCTTGGGGACTTCTTTGTCGGCTGCATCTTCACGGCAGAACTGAGCACTCCGTTTGTGTCGCTGGGCA
0.8529188541625768 CGGCACGATGGGAGACGCAGGAGCCACGGCGGCCGCGCTTAGGCCTGCTCACAACCTCCGCCCGGCCCCGCCCACAGCCTCCGCCGCGCACGCGCAGTCCTCACGAACGAGCGCGCCAAGCGCACAGCGCCGCCTTCCGGCAGAGCCCTCCCACCAGCCCTCAGGTACCCGGACGTCGCTCACTAGACCCCTCCGCACCG
1.799309609132094 CCGTCTATACACTAAACCGCGCTCTTGCACCTTTCAAGTCTTCCTTAGTGGTGTGTTCCCTACCTCCCTGGCTTATCAAAGGAGGTCCCCAAAACCCAGTTCCCCAACCAACTGAATCCTGCAAATAACAGCTCCTCAGGACCCGAGACAGACCGCTTCTGGGTGCTGTTGAAAAGCAGATGGGTTGAGAGTTGGAGCAT
1.269375880187454 GCGGTTTCCCACTTTGAATACGAAGTGCAGAGCTCTGCGAGCAGCCATGATTCCCGCCGCACGCAGCCGTCACGCGCACCGTACAGCCCAGTCCACGAAGGGCGCCACGGGCCGTGACGTCACTAGCCGCCGACGGCGCGCTTTCGTGACGCAGCCCGGGTCTCAGGGAACATGGCGGCGCTGGTGAGACCCGCGAGGTT
1.175817028018705 AACAAGCTGTGCGGGGGAGGGTGGGAGGCCATGCAGTCACTGCGAGGCCCCACCCTCGGCCACTCTCCCAGCCCGCCCGTGGTGAGGAGCCGCCCCTGGGAAAGGCCAGGCGTCGCAGGCTGCTGCCGGGGTTGCCTCTTGCCTCATTGCCTCATCTCTAGAGTGTTCCCTGCTCCGGTGCAGACTGAACGTTGAAGCCC
1.812026876356544 GTTCTGTCACCATTTCCCCAGTAAACAGGAATAAAAAACGAGCCACATTTGACAAGGAAAACACTGCTTGGCCGAGAGACAAACATTGTCAGGATGTTGGCCACGCTCCCGCGCCTTTGTGTGGTGGCGTAGCTGTCACAGTGGCGTCTGCCAGGAGGTGGCAGGCGACACCTCCAAAACCACCCCAGTGCTGAAGGGCG
1.63030379668378 CCTCCCCTCAGCTGGTCCTGACGAGCTTGGCCTACAGCCATGACGAGTGCACATCCCTCCAAAGGTGAACCAGGGGCGGGAAACGGAACTGGCTTCTGCGGCCGTCTGCCCTGTGCTAGGCACGGCACAGATGGCACTGGCTAATCCTTATCACAGATGGGGCGGGCAGCATCAGGATCCCCCTAACAGATGGTCAAGGT
1.471341668071061 AGCCCTTACACACCCTGGGTTACATCAAAGGCCAGAACGAAAGGCCAGCACGGCTTAAGAGGGCCGTCCAGAACTGGCTGCTGACACCAACCCAAGAGTGATCCAGCTTCTGACTCACCAGGCACCAGCTCATGCTCTCTGATCCAGGAGCCCCGACAAGCGACCTGAGGTTCCAGGGGGGCTGCCTGACACATCTCTGC
1.624319152926249 AAACACCCTGTTCACAGAGGCCTCTCTTCCTCCCACCCCTGCCCCCCGCCCAGAACTCCCAGCAGAAGCTGCTCACTGGCTGTTGTCAAAGTAGTCTTTGTTCTTGGAGTTGAACCAGCACAGGCCTCAAATTTCCATCCACAGCTCCAAACCCCGCCTACATCACCTCCATGACCTCAGGCTAAGGAAAGAAAGAAGCT
1.811533237937362 CTTCAGTGGTCACGGTCCCATCATATACAGAAGCCACGGGGCAGGACTTCAGGGGTCATGGTGCCACATTTTGTACAGAAGTGGGAGGCAGCAAAGCCGCAAGATCTAAAGACAGAGTTGCAGGCCCAGGTGCGGTGCTTACGCCTGTAATCCCAATCAGCGTGGGAGGCCCAGGCAGGCGGATGACCTGAGGTCAGGAG
1.643547195816488 GGTTCTCTAACATCCAAGCTGGACTAAAGGGTTTTGCTCTTACCGAGCCAGAGGGAATATTTATTCCAAGAGACGTAAGATAGATTCTGCTGGACACCTGCCACTTGCTCATGATTCTTCCCTGGGAGGCTGGCAGCGCACGGAGAGGCTTCGCTCCACGGGAACCAACACCGTTGGCCGGCGCGGTGGCTCACGCCAGG
1.643442600572626 TCACACACGCGTGAGCTTTGACAGCCAGGGACTGGTAACCCACGGCCACCGCGCCCAAGAAAATTATTTCCCATGGGAGAAAGAAAACTACGTTCAGCTCCTGGCAGGTCCCAGGCAAGTCCGAGCCAGGCTTGCAGGGAGGCGAATGCTCTGTCCTGGGAAAGGGAGGCAGAGGTTAAGGGCTGTTCCCACCCTCCAGT
2.060719388701353 CTCCTTTCCTCTCCGCAGTTTATTCCGGGGAAGAACTCTGGCCTGGGAAACAGCAGACCTGGTCCAACTCCCGGCTCTGCCAGATCCCAAGTGACTCAAATGCTTCAGCTGCCCTGACCTCTGCTTCCTCGTTACTAAAATGAAAAGCACGGGATCTACCTCCAACAACAGTCATGGGATTCAAGGACACCAGGACACCT
1.468244847009994 AGCAGCCCCACACTGTCGTCTGTGGAAACCACACCAGCTCCTCCTCTTCCTTCTGGACCTGCTGTCCCACCCTACGCCCATTTTTTATCTCCACCCACTCTTTGAACTTAGCACTGGTGTCTACAGGCTCGATTCCCAGCTCTCCCACAAGGACGTGGCTCAGACGCACGTCACCATCTCAACCCAATGTAGGCCACCCG
1.666977581311448 GCCAGGTGCTCAGGTCGCAGCTGTCCCTCAACACCACTCGGGAAGGGGGCTAACTGCCCGGACGGGCCCCAGGATCACGAGCCTCCTCTCCTTCCCTGATGGCCCAACAGGAAAAAGTACTGTGGCTGCCAAGCCATCTGGATGGAATGGAATGGCTCTCTACCAGTTAGGGGCCGCATCGGCCTAGACTCCCAGATTGA
1.246811400703881 AGGCGCTGGGGAGAGCAGAGCCCGGCCCAGTAGGGCCGCCCACGCCACGCCCCCTCCGCCTGCCCGCGCCACGCCCCTTCCCCCGCCCTGCCACGCCCCCTCCGCGGCCCGCGCCACGCCCCTTCGGCTGCCCTCGCCACGCCCCTCCGCCCGCCCTCGCCACGCCCCCTCCGCCCTCGCCACGCCCCGTTTGCGGCCGG
1.704469910044843 GCCTCCCCCCAACCCAACCCACTGGTGCACGAAGCAGGTGCAGATCCGGGCCCAGCCACAGTAACAGGCCGCCGGTGTGGATCAGCTACTGACGACTCAGCGAAAGCAAAAAAATAAAAGCTGAAAACCCGCCCCTCTCAGAGCTTCCACCGCCGCTTCGGAGGATATTTCCTGTGCATCCATCGCCACCTAATGGAAAG
1.405792936098768 CAATGCTCGCGCGTCCCCTCCCGGCGATCCGGAGCACGGCAGCCCCGGAGCGCGCGGCCACTCCTCGCTCCCCTCAGGAGCTCGTAAGAGCCCCGCGCGGGGCCGAGGCGCGAGAGCACGCGCAACGCTTCCTGGGAAATGTAGTTGGGTGTCGGATTAGAACTACAAATCCCGGTACTCACCGCGCTGCAGCCCCGACC
1.940559882732162 CCTAGTTGTGTGCCATGGATATTAAAAAAAAAAAAAAAAAAATCCGTCTACAGTTGGGCTTCAGCACTGGTGCTGCTTTACCCTGGTGCTCTGTGGGGGGATGACACTGCTGGAGTCAGGCCTTTGCTCTTGGGTGGGGCACAGGCAGGTCGCTTGGTGGGGGCCACACAGTGCTGGGCACCTTCAGCCAGTGGTGATGA
1.672045333216003 TGTCCACGCTGCCTATTCACTCGAGAGATGAATAGTTTCCTGTTTTCGATGGCTGGGGAGCCAGTATGAGCTCATAAACCAAACAGCAATTTTCAGAGACATCTGTTCCTGATCTTCAGAATAAACTCAGTGTCCAGTTGCTTCGGCTGGTGGGAGCCAATATTCACGCCACTGACTCTCTCAAAGGGAGGGTGGGCCCT
1.138399051132258 GAGACCCACCCACCCTAAGCAGCGCCTCTCACCCTCAATACCATCATTCCCACCCTCCAGGCAGGAGCTGTGGCTGCGCCTGCTTTGGAAACAGGCAAACAAACACTGTGATGCCAACAGGCAGCTGTGCAGCGGGGCCAGCCCCTCACCACACGCGCGCACACGGTCCAGCCAGGGGCCCAGATGTGGGAACAGACTGT
1.294996529132892 GTGACTGCTCCGAGCGACTCCGAGAGAGGCAGGGCAGAGAGGGAGGGGCTGCCAGGACCTACCCCTGGCTTCCAGCTCAGCAGCTGGGTTGGGGACACCGGGCCAGGCTCCATAAACTCTCCACACATCTTCCCATGGCTTGGCATCCACACTGCTAGGCCAGGCAGGCTCCGCCTCTCCAGCCCTCACCCTGCAGGGTC
1.100986286346868 CCACGGACTGGCCAAGGCCTCCCTTGTTGCTCTCTTGATGGATGGGCCCAGCCCTGGCCAGCCGGACTGGCACTCTGAGACAGCTAACTCGGACAGTTGATTTGATCTGCAGAGTTATCGAGCACTTCCTGTGCGCTGGGCGCTGGGTCTGGCTCTTCCTCACGTGCCTGATGCCAGGGCCCCAAGCCAGCCCCGAGGCA
1.524071878066264 TGCCAGTCCCGCTAGTTCCCTAGTCCCGCCGGCTTTCCCCGCGCTCGCCTCCCTCCCTCCCTCCCTCCCCGCGCTCCCCTCCCTCCCTCCCTCCGTCCGCGTCCCTCCTCCCTCCTCCCTCCTCCGCATCCCTCCTTCCCCGCCCTCCGCGAGGCTGCAGCCCAGGCTGAGCGCCGCCTCCCAGGCCCAGGGCCGCCCCT
1.304177175835123 GGTGGGCAGGGCCAGAGCAGGACAATGGCTGCAGTCACGGGGCCCTGGGAGGAAGTGGAGAGTCAGCAGGAAGTAGAACCAGGCCTGGGGCTCAGCCTCCACGGTCCCTATGTGCCTGGGGAACTGGCACAGGGGTGGGGGTGGCGGCAGAGGGAAGAGCCCCACGTGGGCCAGCTGTGAGGGTGGCAAGCAGCAGGGAG
1.105138670919289 GCCTGGAACCTGCCCCTCCCACCACAGGGTCTTCAGCGCTGCTGTGCCCAGGGAGGGGCTGCCCTGGCAGGCACGTGGGGAAGTGGAGCTGCCTCCCAGGCACAGGGAGCAGAGGTGGACTGTGGGGTGGGGGCTGTCCCCAGCCTGCGGTGAGCGAGGGAATGACGCAGGGCCGGGGGGCGGGCAGGGGGTGCAGAGGG
1.32889795572606 GGGGCTGGCTGCCCGGCACATCCTTGTAACTCTTCTATTCCACAGCCACCAGTGGCCCAGGGAGTGTGGCGTGGCGACCACTCGTCTCTTGCCTGGGCGTCTCCTGGGGCTGCACAGGCCAGCCCAGAACCCTTCCGTGCCTGTCCCTCTAGCCCAGCCCAGGGACAGGGAGATGGGGCTCCCTCCCCTTATCCCCACAG
1.533039946167929 CACACTCTGCCCTTCCCACCTCGGCCCTCCCCACACTCTGCCCTTCCCACCTCGGCCCTCCCCACACTCTGGCCTCCTCCTCCCTCTAAAGGGCCCTTGACTGTTCCGTCTCCACATCTTCCTCACCATGGAGACGACACCACAAACTCTTCACTGACCGCCCTGGAGCCACCTCTCCCCGTAACATGGGTGCCCAGGCC
1.650731815990451 CCCCCAGGGCAGAGGGTGGTCAGCGGATCCCCTCAGCCTCCACCCCAGGCCGGCGGGAGGCAGACGGGGTATGAGACTCAGCTGAGTCTTGGTCCAACATCACCACCTGGTGGCCAGATGAAAAAGTTTCCGAAGGCCACGGCGGCCTTATATGTGAGCTGCCCGGGGTAGGGCTAGGGGGTCCTTCTCTCCTCCACTCA
1.133671635441951 AGGACGGCACCTGTGCCTCTCCAGTGACTCACATGTACCACACTCTGTGGTCAGCAAGGGGCGTGTCTGCTTCCTCCACTGGACAGGGATATACATGAGGCACCCGGCACACCCCAGGCAGCACAGCCAGTGGGGCTCACTGAGTGTTGACTGTTGACTCGACTGGGCACAAGGCCACGTCTGCACAGCTGGGGCAACGG
1.562095775173662 GGGGGATGGAAACACCAGGTCGGCCAGGGGGATGTACCACTTACAGTCATACTGCTGGTGCTTCCTGCAAACGAGCCAGAGGGAGCCATGAGCCAGAGGGAGCCTGGCTCTTCCAGCCTCAACTCTTGGGTCCAGAACCACAGAACCACTGACAGGGGTTGACTGAGAACTCGCCAGAAGCAAGAACGATCCCTGCTCCT
1.836847415346384 CCAGCCCAGGCCCCCAAGAGCCACACCCTCCACAACCCGGACACCAAGTGAGGATGGCTGGGATTCAGCAGGGACAGGTGGAGGTGGCAGCTGGTGGATCAACACTTCCCAACACCCTTCCTGTACGCGGCTGCGCCCACCCTCCCAACAGGAGGCTCAGCTTCAGTCCTGCACCTGGATGCTCTGTCCCTGGGGTCATG
1.736317141297029 CCTTCGGCAGAGATGCTGAGCTCCCCAGGACAGTGAGCTGCATCCTACCCCCATCAGAGAGCACTTACTCAGCCCCCAGCACCCCCGACACTCCCCACCCACCACTGCCCATGCTGGGGGTCCGAGAGGAAGCTTCGAGGGAGGAACAGCCAATGCCCCTCCTGGATCCCAAGCCAGGCAGCAGGTAGTGAGTACTGGAA
1.449882940006522 CTCTGCCCTCCAGGGTGGGCAGGCTGTGAGGGGCTTATGGTTGGGTGTGGGGGTTTCTGCCTAGGCACAGAGAACAGGCAATCAGCCCAGGCCAAGAGAAGACCCCACACTCTCTGCACCATGTCTGACCCCGGGATCTTGGGCGGCCTTGGCAGGGCTGATCTGAACACAGACCAGGGGAGTCCAGGTAGTTCCTGGGT
1.173216947633427 AGGTCTCAGCTGCAGAAGGGCAGGACTTTAAAAGGGGGCAGGGCCGGACTTTTAAAAGAGGGCGGGGCCTGAGTTTTAAAGGGGGTGGGGCCTGACCTTAAAAGGGGGCGGGGCCGGACGGGAGGGAGTTTATTTCCTTTTCCAGGGAGTACTGAGGCCCGGCCCATCAATGCCCACGCTACACGAGGCATACTAGACAG
1.69657690630402 CGTCCTCCTGGAACTTGTGGTTTGGGGGAGTCAGGCAGTTACTAGTGCTCACTACGAGGACTGGCACAAGGCCTGCATTTGGCGACTTGGAAAGCCTTCTTGGAGGAGGTCCCTTCTAAGCTGGGAACTGACCAGGGGAGGCCAGACGAGAGGGGGAAGGACGTTTCAGGCACACGGGGCCTCAAGTACCAAGAGTTAAG
1.410994654315983 ACAAAACACAATGGTTATGCTTCCTCCTCAACTTCCCACCCCGTCTGCAAAAGGGGAAGAAATGGACGCTCACCCACAGCCAGTCACAAGGACGGGGCCTGCGCTTGGGGCATCAGATGGTTCTCATGACACGATGGGGACCTTGGCTGTTACTCCTGATTTCACTCGCGGGGAGGGGACAGGGCTGGGTGTGTGCCCTT
1.674601786162932 TTACATATATATACAGGCACACAGACAGACAACAAACCGAAAGTTCCCTCACTTATCTTTCCCGTGTATGATGCATGCTGACATTTTTTCATTGGTTTAAAAATGCTGGTTCAACCCACTGTACTGGTTTCACAACCCACTGTACTGATTTCACAACCCAAAGCACTGATGGGCTGAGAGGCACAGTTTGAGAAACAGTG
1.327742314422069 AGCTGAGAGGCACAGGCCCTTTCTGGCAATGACCCGGGCTGCCCGATGCCCAGCCAGAAGCAGACCAGCTGCAGACTCTGTCCACAGGGAGGGACGGGTACGGTCCCCTTTCCTCTCCAACTCCAAAAGCAGCTTCAGAGCATGACATCACCCAACACGGGCGGGGGGACCGGAAGGCCCCAGAGCAGGGACTGTACTCA
1.445301902379921 GCCAGCACCAGATCAGAGAAGACAGGGTGGGGTGCCAGCCACTGCCAGCCTCCCTACAGCTCCACTCCCCACCCAGGCCTGCAGCCACCGCTCCACCCATACTCACACATCAGCCATCTCCCGTGGTTCTGCATCTATTTTTACCTCCATTGGCTCCTCCTCAGAGCCACACTGTAGAGTGGGTGGGGCAGGACTGTGAT
0.8968013608811373 GGGGAGCAAGGCCCGGGCAGCCCCTGACGCCGTGCCCGGCCCGTGGCGGAGGCGAACCCGCCGCACAGCAGCCCAGCGCCCTCCTCCGTGTCCCGCCCGGCCCCGCAGGGCCCGCCCTTCCCGGGCTCCGGGGCTCGGGCTCGCGCTCGCTCCGAACACACAGGAAACGCGCGTCGCGAGGTGGAGCCGCCCGTCCTCTG
1.363710983566108 CAGGGCCTCTCTACTCCACCCTGTCCCCGGTGGCTGGAAATTCCAGTGAGTAATGAGAGTGCCCCTCCATCAGACACAGACTCCACTCACAGGCCCTCGGTGCCCCCCTGGAGGGGAAGTGACTCACCAGTCCCCACAGCTTCCCTCCCCTTCCCTGACAAATGCCCTGAGCCAGCCCTGGACCTGAGCTCCACACTCCA
1.62260587354678 GCCGTGGGGCCCCAGCTGATGACTCACCCATCTCACTGTTGACAGTAACCTCTCAAAGGGCCTGGCACGTTCTCACTTCCAGGCCTTTAACAACGGCAGGTCCTCGGCTTGAAGCACTTTCTCCCGCCTCTTGGCTTCTCCCTGGCTCTCCCAGCTTTCCTGGCAGAAACTCAAGCCCCACCTCCAGACTGTATGAAGCT
1.576040679072385 TGCCAAACACCATCTCACAGAAACCTCACAACAGCTGTGAGGTTTGAGCCCTGTGAGGTCAGGAGGGAGGAAATTCTCAGTGTCTTCACACTACAGATGAGCAAACTGCAGCTCTGGTGGGGAGTCATGAGTGACACCCCTCAGGCCACACAGTGAGACAGTGGTAGAGTGGGGACAAAACCCAGTTCTTCTCTCTGCCT
1.623164775012876 CCAAAACATCCCCAAGTACTCAGGAAGAGGCGTCAGCTCCCTCCAGGCACCCCGTGTAAACAGCAATCCCTGCAGAGTCCACTAGGTGGGGCCGGTGACCCAGCGGAAAGGGCAGAAACGCTCCCCGAGGAGGGAAGGCAGGTGCGCGGATGGGACCTTTGCCCGGACGATCCCCAGGCTGGACAAGTGCTCCCTACTCC
1.156872037243354 CTGAGCCCACTCCCTCCAGGGGTCCAGGGCAGGTTCTGGAGTGTGGGAGGGGAGCCCTCAGCCCTCAGAACAAGGCCCCGCACGGAGGACGGAGCCCAAGGCAGCAGGGCGTGGGCGAGGAGGCTGTGCCCAGGCCTGGCAGGGACAGGGGCTCACAGCAGACTCCTCGGAGCCGGTGCTTATTTCTATCACCCCAGTGT
1.362319039119525 GGCCTCGGAAAGGCCCCTGCGTCCAGCCCCACCAGCATGGCTATAGGAGGGACCCTCCCACAAACCGGCCCCTGCCCCTTGGCCTGTTTGCTCCCCAGCTCTGACCCACCACGACTGGCAACGGAGAACGTGGCAGTGTTGCTCCCGAGGGCTGTGGTGGACCTCCTTGGGCTGGGGCCGCCAGCGGGGGGTGGACACCC
1.406474118328105 AGTGGCACCCAGTGGGAAACAGCAGGGCCCCTGGAGGGGACTATAAATAGCCAGGAGGGCTAGAACACAGAGTGAGCAGAGGGGGAGAGGGCCGTGCTGGAGAGGAGGCAGGGACTTGCTCCTGAGAGCCTCGTGAGCTGAGCCGAGAGCCGTGCAGGACTCAGTGAGGATGGGTGACCTGGCCCATGATCCTCTGCAGG
1.654260425330258 CCCTTCACACATACACCTGCAGAAGCAGCCGCACCTCTGCCCAGTGCTGCTGGGTGGCCACGTTCACTGGCCTTCGGCTCAAAATGCTGGCTCTCCACCCAGAGCCTTCCTGGGCCTTAAACATAATTCTACTGTTGAACTGGGCTGTCACAGAGTGCCTCAAAAGTCACCTCCTTCTCCCCACTCCCAGCTCCAGAGCA
1.436497906659394 CACTTGCTGTGTGCTGGGAGTTGCGGTAGACACTGTCCTGTATGATTCCACTCTGAAGAGGTGCTCAGAGCAGTCAGATTCGTCCAGACACAAAGAGGAGGGTGGTGGCCAGGAGCTGCAAGCAGCGGCACACGTGTGGGCAATACACAGGTTGCCCAAGCGCCGAGAGAGGCCCAGGAGGACGGGCCCCGGGCATGGCA
1.368332713881538 GATCTCATGACTGCCAGGCTCTCACAGAGGCCCTGGTTCCCCTCTGGCTCTACGTCTTATTTCCCTGGACCAGTTCCCTAAAGCCCTGTCTGCTGAGAACTCATCTGACAATTCATCCTAATCCCTAGAGGGCCCCAAGCAAAAATCCCAAGCTCAGTTCCTGCACCCAGGCTAGGCTTGGTCAGTGTCCAGCCCTGCCC
1.33570440551329 GTGGTCACCATAGCAACAGGCTCCCGCTCCAGCCTGCCAGGCGGGGCTGATGCAATTCTCGGCAGCGAGCAGCTCCAACTCAGCTCACATGGCTCTGCTCCCACTCGGGGGCGGGCGCGTGGGAGGACCAACGAAGAGGGAGGAGGTGGGCACGCAGCCCACAGAAATCTCAGCTTCCCCCAGTTCTGCTCCGAGGACTG
1.765527374939159 TCAGTGTGGCCGGAGGCCCGGGGGTGTGGCAGTGGGGCCAGGAGGGGAGGCTGCGGCTGGAGATGGGTTGGACCCAGTCTCTGAGAAGGCTCCCACGTTGTGCTAAGGAGTTTAGAGTTTATCCTGCAGGAAGGAGGGAGCTACGAAGGCTTGGAGGGCAGATGCTGCAGGCGCCTGGTCCTTCCCATCCAGTGTGGGCA
1.252412427037803 CGTACTCAGACAACCAACACCTATGGAGGGCCTGTGCGGGAGCCGCTGTGGGAGGCGCTGCCTCAGAGCTGGTCTGATACCCTGTTCCTGCCGGTCCTCCTGCCACATTCCCTGCCCCTTCCTAAGTCCTGTGCCGGCCTCTCCCAGTCCCTCGAGGCTTTCCCGGATGAGGAGCGCAATGAGCTGGACAGCTGAGCTGC
1.445057288615981 CCTCCCGAACCTTCCCCCGCTCGTCCCTTTCCACACCCCTGACCTCTGAGCGCGGCCGTTCCCGCCACACATGGAGGGGGGCGGGTGGAGACCCGGGAGGACCGAAGTCACGGGGGCTGTGGGGCCAGGACAGTCCCACATGTGCCCCTCCTGGGCGGAGGACAAACTGGAGCCAGGAGAAGCCCCAAGGGCTCCACGCG
1.66609987679084 GCCCCATAAGCTGCTTGGGCAGAGGCCTCTGCAGCTGCCCCAGGGGAGATGGGGGTCACCCACTCATCACAGGCTGGGGAGCCCCTGGGAGACGCACAGGATGATGCTCTGGGTGGGGAAGCCTCTACAGGTGGCTGCAGCAGAAGTGGTTTTCAATATTATTAGCCCGTCCCTGCGTCCCCAGGGCTCCCTCCGCCCCA
1.39432786950125 CTGCCATCAGTGGAGCCTCTGCTCTGGGGCTGCCGGTCGGGCCGTGTGTGCTGTGTCTCTTTAAGGACCAGGCCTCTTCAAGGCAAGTTCCCTCTGCAGTCCAGTCCTGCCTCTGCCCGTCCTGCGGCAGAGAGTGGGGGCTCCCCAGCGCCATCTGGCGGCCGCACAGCAGCACCTCGGCCACCAGAGGCTTCCAGCCA
1.419080122643515 GAAGCCAGGCACACACACCCCTGAAATCACTGCACCAGCTTCTCTTAGGCTGAGCTGCACCCAGGACATGCAAATTTTCCATAAAGCACTTTCGGGTTCTGATCGTGAAACCTCGTGACTCCTAATTTCCTCTTCCCCAAGCTCTTGGCACCTTGTCCTGAGCTGGTCAGCTCAGTCTCATGAACACACAGTCCGGTGCC
1.417968959237149 AGAGAAGCCTCCCAGTCTCTGGGGCTGCGGGTTCTGTCTGCTCCCCCTCCCAGAGGCCACACATGAGGCTGTACATGCAGGCAGGCCACATTTCCTTCCAGGCCCACAAACAACCTCGACTTCCTGCAAAGACCACTAACCCCAACGTCGGTACACGTGGCACGTTGCCCAAGGCCGAGCTGCTGCTGATTTTTAGTGTG
1.29750826023701 CCTTTTAAAAGGTCTTTCACTTGCCGGTGTGAGCAGAGGATCCTGGGGAGACTCCTTGGAAGGGGCTTCGGATCCAGCCAGGCTCCCGCGCAGTCCTCAGGGGGCGTGGCCCGGCTCGTGGGGGCGGAGTCCATGGGGGGCGGGGTCCGCGGGGAGGAGCCTGCGGGGCGGTCCCCCGTGGGGGCGGGGCCTTGAGGGGG
1.25150100291114 CAGGGCCCGGGTCGTGTCCGTGACTCGCGCAGGAAGGCGGATGGCGCCCCCCGGGCCTGCCTACACCCTGGGAACCTCGCGGGGCGAAGGGGGCTCGGGCGCTCTCTCCGCGTGGCGAGAGACCCGCCAGGGGGTGTGGCGTGAGTGTGTGTCCCGCCAGGACGTTCCGGTGGCGCCGCCTGACGCGGGAGGAGAAACCA
1.511561769532448 AGCTGGGTGTGGTGGCACACTCGGGAGGATCACTTGAGCCAGAGAGGTTGAGGCTGCAGTGAGCTCTCATGTGACCACTGACGTCACATCACTGTGATGGGTTAGACACTGATGCGTTTATAGTGTAACTGCCACGTGACTGGGTTGTTGCGTGCACAACCGAGCATCCCTTGACCCCTTAGATCACACAGGGTTTATCC
1.572754152198469 GCAGCATGTGCTGCGTCTCGATCGGGTGATTCCCACACCATCACTGCATGCCACGGTCCCCTGTCAGCCTGTGAAGAACCAGTCTCAGAGCCACATCTGTGGCAGAGAAGTCCTTGCTACTAATGAGATTCGAGTTCTCTGCTAACGTCGCGGTAGAGAAGTGCTGACCACTGCTCCCTTGTTGACTCTGTAAGGGAGAG
1.447595892493946 TGGACTAGACATGGTCTCTGGGCACCAGGCCAGCCGGAAAACGAGATGGGCCTAAGCCTCCCCTTGCCCTCTTGCTCCCAGACTCCTAGAAAGCCAAGAGGCCGGGCGCCGCCTTCTAAGAAGAAAACGAGTCCGCAGAGGGGGCTGGTGAGGGCCGTGGCCCTTCCCTGAAGTTTGCACGTGGCCCCAACACACAGAGC
1.001993665806893 TCAAGTGTCCCCTTCCGCCCTCGCGCCTCCTCCCCGTCTTCTTCCTCTTTTCTTCCCCTCCTGGGTTTCGCCTCCCTGACGTCGGCGGCTCCTCGCGGCGGGGGCGGGCGCCCCGGGGATGAGAACCCGCCCCGGGCATCCCACAGCCAGCTCGGGCCGCGGAGCCGCCGGGGGAGGGCGGGAGCTGCGGGGCCTGGACT
1.363499336840605 CACCCAAGGATGACTGAGCCAAGCGGCTCTAGCTGGAGGCGCCCGGGACCTCAAAGCTGGACTCCCCGGGGACTGAGTCCAACCGTGGCTGCAGGGGCCGCGGCCTGGCGGAGGGTCCGCGTGGGTGTCTACGAGGATCCCCCCCGTTCCATCTCCTCTTTGCGGCCTCAGACACTTCCCCTGGGGAGGACGAGAAATGG
1.612277944421818 CGTACAGGGTGGAGTCCAGACTCCTTGGCCTGACGCAGGAAGTCCTCCCACATCTGGTCTCTGCCCACGTCGCTGCCTTCTTCCTATAATTTAGCCTTGCCAGCTCAAAGCTGGCCCCAAAGACCTCACACCCTTTTCCTTTTCCTTGGAACTTCTCATCTCTCCCTACACGCTTGCAAAAGTCCCCGCTGCCTGGGGAC
1.504349774796838 CTCCTTAAACTGCTCCTAAGATCAGCGCTTGAGATATTTTGGAAACCCTGCACTTCATGAGTCAGCTGACACCACCCACATCAATAAACTGGCTCATCTGATCTTGCGGACCCCACCCAGGAACGATTGAGCTCAAGAAGACAGCTTTGACGCCCTGTGATTTCACCTCTGACCAATCAGCACTCCTGGCTCACTGGCTT
1.682779627990517 CAATTCACACTCCTGCTGGGCCCAGGCTGGCCCCCTTCCAGCAACGGGCCTACGCCTGTGATTAGCAGAAATAGCTTTTCCAGCCATTTGGAGCAAACAGGGAGGATAAGTGAGCAATTTATGAGTCTAACAGTCGTTTTGGACCCACGCCCACTGCTGAAGGAGCAGGATGGAGCATTTATCCCTCCCCTGCCCTCGTT
0.9703224168406009 TGTTCTGGAACCTTCCCCGCAGCCCCAGCTCACACCAGTCCGCTGAGAGGCTGCCCAGCTGCTGTACAGGAAATGCTCACGCTCCGTGGGAGGAGCCTTCAAACACTCACCCCTTCCTGGAGTCCCGGCGGGACGGGAGAACTGGGGACTCTGCGAAAGCGCTGCGGAGCGTCCAAGAGCTCCCCGTGGAGCTGAGGCAG
1.431866905435728 GTTGCTAAGGTTTGGAGTCTAGGAATAAAAAGTTCCCTTCTGAGTCCGCCACAATGATGGCGGGAGGCGGTGGGAGGGTGGGCGATGGTTTTGTTCCTTTGCTCGTTCACCCCGGTGGGGAGCCGGGGAGCCAGGGAGCAGAGTGTGGGAACTGGGTGGAGATGTCTGCGGAACGGTCACCCGGACACGGGAACACGGCT
1.281445535915258 GACCCGCTCTCCGGAGGGGGTGGGGTCGAGGCCCCCGTGAGCGGCTCCCGGACTTTCTCTCCCGGGCGGGCGTTCCGTCCTCCCTCGGGGAGCGGCGCCGGAACTTCCGGAGGAAGAGCCGGAACTTTTGAAGCCCAGGCCCCGCCCGGCGCTAATAGGCACCTACGCGGCCGCCGGCGGAACCGCCAGACCCTAAATCA
1.540889615828368 CAGGAAGAAAGACACCCTGTCCCTGGCAGCCTGAAGGAGAGGCCGTGAGGGCAGAGGCCGATGGAACTGCTCAGAGGGAAGGGGCTGGCTCACGCTGCACGGCCACCAGGCCTCCAGGGATGTGGGTCCAAGGTCGTTTGCTAAGAACTAGGGGCCTGGTGGCAGCAGGGAGGGGAGGTGACCAGGCACAGACAGGCCAA
1.642637464052359 TTGAACTAGGTTCAGGAAGAACAGAGCTCACCGAGGAGTGATACATAAAACAAGGCCCCCGTGAAGCCACATGACTCCACCCAGTCCTGGTCTCCCCAGGCAACCACGAGGCCATTCATTCTTTTGTGTGATCCGGGAAGTGGGCTTGATTGAACGAGGATGTGGTTCTTGGGTGGGAAATGGAGGCTGTGAAGACAGTG
1.354550250499929 CCTCCTCCACCGCCCTGAGAAGAAGTGCCAGGCTTTGCTGGGTTCTGCTCCCAGCTGTCCCCAGCTGGTGAGGGACAGGCGTGGTTAGGGGTCTGCACAAGAGGCCCTGGCCACTTCTCCGGGGACAGCCCTCTTCCTCTCCCCTAGAGTGTGGGCTGCCATGGGGACGGGATGTGTCTGGAGGCCCAGGCTCAGGGCCA
1.490155785937166 GACTCTGACCCAGTACCCCACAGAGACCACTGGAAGGACTCTGACCCAGTACCCCACAGAGACAGCTGGAAGGACTCTGACCCAGTACCCCACAGTTCTAAGGAAGAGGGTTAGTCCACGGAGCTGCAGAGGTGCCCGCTCCGGCTCTATGGGGTCAGCAGGAGGTGACTCAGGACCACCTCTGAAGATGGGCTTTGGGT
1.480914469315666 CGTTGGGAGGCAGAGGGAACTCCATAGAGCTTCCCCGGAGACTAGGGAGTGGTGGGGAGGACAGGCCACTGGTGCCAACCTGTGACTGCTCCCGCCTATGTCCCCTCCCTCACAGTTCCCCTGGGAGTGCCAGCCCCTTGACCGGTGGGATGCGGCCCACCAAAAACCCAGGGCATCCTTAGCAGAGACCTCTCTCAGAC
1.532692743871757 TTTTATGGTGGTCTTCTACCAAACACAAAAAGCAGTACCGAACCTGTGAATGCCGCAAGCTACACACACCCTAGGAGAGAGCGCCCCCTTGTGGGAATCAGTCACATCAACAGATTCAGACACACCAACAGCTGGCTCCAACGCGGGGAGCACTCAACAAGTCTTGACCCTTCTGTGTTCTGATTTCAACAGCTTTGATT
1.674149872176554 CATATACATCACATCCAACCACAGTAGGCAGGAGGAGCAGGCCGGAAAAGGCTTAGGTCAGCGCCCTGGAAGGTGGAACAGGCAGAGTCTGTAAGCAACAGGACGATCATACGCAGGCATGATTAGTGAAGAACCAAAACTGAAAGCGGAATTCACTGTGCCATGAACGTGACTTACAAAGTAGAGTTTTTAGGAAAGGA
1.683210728005548 ACCAAGGTATGGTGCAGCCATGTTCCATTCAACAGAGTTCTTTGCTCTCTACTCCTAGACTTTCACTTGTCCACACCCATGACCATGCTGCTCCATACTAGAAGTCTGAATTGCAACACTCCACTCTTGGCCCGTGGCTTCCTTTTTCAGTTCCTCTTCTCTTATTATTTCTATTTAGGGACTCATCAGGACATCTGGAC
0.9172077140187079 TCTCTCAGCCTCTCGCTCCGCGTCCGGGCAGCAAAAATGGCGGCGCCTCAATCCGGGACTTCCGCCTGCGCACGCGGACAACTGCTCAGCTCTATGGCAACCGCTCCCTGGCAACTGGCGCGGGGGGCGGGTCCTGGAACTCGGCGCCCGAAGCGGCTGGAACGAGCGCACGAGACGCCTCTCCTCTGTCGGCTCAGCGG
1.329614746548057 CGGACTCAGTCCAGGCAGCCCTGCTGGAGGATGGGAGACCACAGGAAGTAGAGATAAACTGTGTCAGCTGAGGGCCATCCAAGATCAACCAGCCCCTGCCAATCAGCATCTGACCTCATCCATGAGTGAAACTGGCCAAGACTTGGAGAACTGCCCAGCTGAGCCCAACCCCAGCTGCTGACCTGTGTAATTATAAGATG
1.165848403764751 TGACGCGCTCCCTGCCCGAGGGAGGCTGCCGGGAAGGGGCCCGCGGCCCGCCATTGGGAGAAGGGCAAGGCGCCCTCGCGCGCGCACTGCGCATGCGGATTCATGGGCGGTGCCGCCCTTCCCGGGCCCGGGCTGCGGGGGATGGGAGGCGGGGTCTAGGGCCCGAGGGGCGGGGCCTCGCAGCCTCCCGCAGAGACGCG
1.581855284906949 GACACTGATTTCATTTTGGCGAGTCATCTCCTCCCACTCTTGGTTCTGTGGTTTCCGGTGTGGGTTCCGGTGTGCCCCTGGTAGCTCTGTCTCCAGGGGCAGGCACTCGATCCAGGCCTGACCAATCAGAATCTATTCCTCTCCCTGGCTACAGTGATTGGGTCAGGGTGGATGCCTCATTCAAGGTGCTGCACTGAGAA
1.142784488641574 ATAGACCAGTGGGATCTAGGGTGCCCTGGGGCCACCTAGGGGAAGAGGATGAGATACACGAGTCTGTGGCTTGCTGGAGAGGCCTGGGCGGGAGGGTGTGTAGGCATCCTCAGCAGGGAGACGCTAGGGCCGGGAGGATGTGGTGCTTCGGGAGAGGGTGGGGTGGACGGCAGCAGCGGGCAGGGGCACAGTGAGCCACA
1.680397628595785 TTCTGCATAGATGGGACTCCAGGCGTGTCAGCATGCCTGGCTAAGCTTCTTAGTTTCTGGACACATGTGAGGGGTCCTTAACTCAGCACCGTCCCTGGTCACCTCCTTGTGGCTGGTGTTTTGTGATGGCGGAGGGACTCCTGCACTCCGCAGGCTCTGCTGCAAGTGAGCCCTTGCCCCCAGCAGCCCCGCAGCCCCAC
1.458970426808329 TTACTCCCAGACTACACCAGAGGGGTTCCCCCAGAGGGCCTCCCACCCCAGCTGGGCTCAGCCACCCACTCCAGAACGCGGGGGAGGCCCTCCCTCGCATGGCTGGGGCCACTCCCTTTCCTCCAGCTGCTGGGCTCCCCAGGCACCTCCTCCACTGAGAGTCCTGAGAAGCCTCAGGGGATGGGGGCTTTACCATGGAA
1.041674036884253 GGGGCGGGGGCGGGCTCCGCCTGAGTCAGGTTTTCCAGGAGGGACGCCGTTGGCACCAGGGTGGAGCCCGGAACCCGCGCGGCCGCCGCGTCTACACCGACCCGGAACTCACTTCCGGGCCTGGGACTACACTCCGCGGCGGGCCTGGGCGCTGGGCGGGCACCGAGGCCTGCGGGTCCCAGAGGAAGCGGGATTTTCCT
1.364039008020901 GGGGGCCTCCCTAGTCCCTCCGGATCTCCGGGACGCCCCCCACCTCCGAAGCGGCCTCGGCAGAACCTCCCTCGCTTGGCTCTGCGGGCACCACCCTCCCTCGCCTGGGGCGAACCTTGGCTCAGATCCCACCGCGGGCAGGGGCGGGGACGTCTAGAGTCTGCAAAAGGCTGGGCTGGTTCTTCCTCGCGGTGGGACTC
0.9082843700933453 GGGTCAAGAGAGCCCCTCCCGGAAGCTCAGCTCTCTCCCTGCCCCGCGAGGCGTGGGGGACTCGGGCCGGGGGCGTGGCAGGAGCCAGCGGGGGCGCGGCCAGAGGACGGGGCGGAGCTTCGCGGCCGCAGTGTCCGCCCCGCCCCTCCACGTCACGCGGTTGGAATGAGGGGAATCCGCGCGCGGAGGGGTCGGGCCCG
1.072262422369317 TGAGGGCCGCGTGGCCATCCTCCTTCTCCGGCCACCCCGGAGCCCCCCGCCCGTCACACTCGGGGCGCGCTGGGCCCCAGGGGCGGAGAACGGGAAGGGGCGGGTTTAGGCGGCTTCTCCGGAACCCAGAGGCGGAGCAGGGCTGCGGGCGGGGCCCGAAGGGCGCGCAGGGTCCTGGGTCCTGCAGCCCAGGCCGCTCT
0.266312568246518 GCGGGCGGGGCCGGGCTGGGCGGCGTGGCGGGCTTGGGGATCCGCGGCCCGGGCGCACTCTCCCCGCCCAGGGCCCGCCGGGGGCCGGGCCGCAGCCTGTCGTCATCCCGGGCAGGGCCGCGCACCCTCCGGCCCCGCCCCGCCCCGCCTCAGCCCCGGCCGCGTCCGCGAAGCCTCGGTGCGTGCGGCCCCCGCCTCGG
1.0673093573782 GCCCTCCGCGCACCCCGGGATCTGGGTGGTGCGGTTCGCAGAAGGAGGCGGGACTCTCCCACGAGCGCAAAGCTGCGAGAGGCTGAGCGAAGACGGGTTCGCGGACGTAAGAGGGGCGTGTCGGGCCTGTCATCAGCGCACGCGCAACACTGCCCCAGACGACGCGAGGTGTGCGGCCGCCACTAGACCCGGCCCAGCCC
1.623566357169268 CTTTGGCAATCTGGGAGGGGGAGCCCAGTGGGTGGGCCTGAAATACTGACATGAAACACGTCATAAACAACAGTACAGCTTTGGTCCCACCAACATGGCCCTGTCAGGCTGGGTACCAGAGGGGGACTGGTGCCGTGAATCTCTGGAAACAAGAAGTGAAGCAGCCCGGCCGACCTGTGCCAGGAAGCACTGGTGGACAC
1.492620217602389 TTCATATTGGGAACAGAGTGGAAGTTATCACAGGAGCTTCATGCTGACACTGCAGGAAAGAGAGACGGAGCCCAGTGACTGGAGGCACTATACTGGCTGACGAACCTCACCCAAACTCGAGTTTAACTGGAAGCTGGGGCGGGGTGGGGCTGTGATTTCAGAAGGAAGCAAAGAACAAGGCTGCGCCAGGAGAGGAGAGT
0.7624294353303063 CTGCCGACGCCGCCCGGAGCTCCGGTTCCGCAGCGCCGCGCGGGGGCGGGGCGTCTCTGCGGCAACCAGAGCGTCACACGCCGCGGTGCGCGCTGACGTCACGCGGGGCCGAGCCTTCCCAGGCCCGCCCTCCCGTCCTTAAGTGGGCCGCGGCGGCGCTGTCGGTTCCGAGGTGGGGCCCCGCGGCTGGGGCCAGACCC
1.452411329274417 GCGGGTTGGTGGGCCAGGCGGACGGGCCTCCCCCGTCATCAGCTCCAGGGCCCCACGGAGCCCGCCGGCAGGGGGTGCTGTGGGCCTGTGGCCTTGGACAAGCTCCTGGCCCCACGCCAGGATGGCTCCTGGGCACTGGCCCAGCTGCAGGCCTGGCGGCTCCCGCCTGGTCAGTGGGGATAAGGGCTAACTCCTAGAGC
1.080450786926856 GACTCTGGGGAGGGCCCACCCCACTCAGCTGTGCCCAGGGCCTGTGGGTGTCTGGCTGAGCCGAGTGGAAAGCGTGGTGCCAGCGGGGACCTGCGGTTTGGGAAACAGGCCCAGAGAGGAGTGTGGAGGCTGGGCTTGGCTCTGCAGTGCCCTCGTCCAGAGAAGCATTGAGTAATCGCGGAAACTCAGCACCACAGATC
1.48564737971123 CCCTGCTGACATTCTCCTGTCTGCTGGTGCCGGGTCACAGGCGGACTGGTGAATCAGGCCTGTGACGTTGGCGGGTAGCGTGATGGGGAAGTGGCGGGCATGCGGAAGACCTGGTGCAATCAGGGTCCCTGTCACCACACTGCCTGCGGGAAGCGGCTCTGTCACATCTACCTCCTGCTGTGCTCAGAGAGAGGGAAAGG
1.615869168822019 CACTGGAAAACACACACCCCACACCCCACACCCAGGAGGCTATTTTGGTCCTTCCCTCCCTCCTGGACCAGGAAACCCTGATGGGGACACGAAGAAACAGTTGGGGCTGGCAGTGATGCAATAGCTCTGACGGGCAGACAGCTCCTGGGATGCGGCCTTTCCATGGCCCGGCTGGCCCGGCTCAGCTTAACACATTCTGG
1.647649052036003 GAGCCCTCATCAGAGGCCTCAGGGGGCAGGGGAATGCCCATGGAACTCCCTCCACCCTGGGGGGAGGCAGAAAGAGATGACTTAGAAGGAGAGCTGGCCCATGCAACCAGAGGGTGTGGGTGTGAATGGTGGGTGTCAGCACATGCCCTCAGACGAGGAACAGTGACGTAGCAGCTTCCTGGGGCCTCTGGACCAAGGGT
1.70953587473393 AAGCCTCTCTGAAGAAGCTATTATTCTCACTTCTTTCCCAATGGCCAGCTCGGAATGGCACAATTGCCCAACTGGGCGAGCCCACAGAGTTCCCTTCTTCCCTCTGGGAGAGACTTTTTGGTTCCTCTTTTGACTTTCTTTTTTGTTGTTGTTTTTGAGACAGAGTCTGGCTCTGTCGCCCAGGCTGGAGTGCAGTGGCT
1.160519043330722 AGGACGGGCTGGGAACGTGGCTGAGGAGCTCTCCTGGCCGGGACTGCTAGTTAAGAGATGCTGACTAATCCTGCAGAAAACAGGAGCCGACTTTGATTAGACATGAGGTCACGCTGGGAGAGTCAAGGAAACGCTCTTCTTCCGGTAACTGCCTGCCTTCCAATTGCAGCCCTCTGGCGCCAGGGCTGTAGCGCCGAGGT
1.753833362563851 CTTAGGAGACTCCACAATGGCCTGAGGAACGTCTAGATTCTAGATGAGCCCTCCCTGGGGTGGAGGCAAGGCCACTTCCTCTCCTGCTGCACCCCAGCCCCTTAATCTGGAGTTCCTCTTTCTCACAAGCAGACAGCAACATGTTTACTACCAGCCAAGCTATGTTCCAGGGCTGGGAGGAGAGGAGAGCAGTCCAGCAC
1.100898059725459 CTGCCCTCTTTTATTCCAGCCCTTTTATTCCGACCCCAAGAAGAAAACACTGCCGCCCGCTGATTGGCTGAGCGGGGCTGGAAACAGGCGTCGACCAATCAGCAGCCAGCCCCCCGCCCGCCCCGCCGCGAGCAGAAGCCGGTTCCGGCCGGACTCGGAGACAAACAAGAGAGATGGGGGACGGGAGGGGCCTGGGCGCT
1.675004518281907 CCACCACCCCAGGGCTGTGGGAGCCCCAAACGCCTCTTGCTCCACCTGCCCCAGTCCGAGTGTGCCCCCTACTGTCTAGAATCCGCCCGGGCCACCTGGCGAGGGCAACCTCCCCCAGACAACGCTTGGAGCTGTCAGCCTGCTGGGGGGCGGCTCCAGCTGGTAGCCTACCCGGTTCCTCACCCTGTGGAACCCTTCCC
1.283921149252107 TTGCACTGGCACGGGCGGCGGCACGTGGACGACCACCAGCCGGGTTCGCAGTGGCACACGCCGGTCGCGGGGTCGCAGCGCCCGTGGGGGCCGCAGGCGCACGGGAACTCGCAGCGGGCTCCCCAGCGGTCGGCCTGGCACTGGCACGCGCCCGTGGCTGGCTCGCACTGGCCGTGCGGGTGGCAGGGGCAGCTCTCACG
1.219115278433702 CCCGGCCTGCCCCCGCGCTCGCTCTTTAGCCTGCGGAGTCGCGGCTTCGCCAGGCTGCTGGCGCTCCCTCTCGCGGTCCTGCGCGGCGCGCAGCTGGGTCTGCATGGCCGCCAGCTTGTGCCGCAGCTCAGCGTTCACCAGCAGGAGGCGCTGCAGCTGCTCCTGCAACTGGGAGCGGAGCAAAGGGTGGGGTGGGCGGG
1.899540311938361 CTGACTTACAGCTCCCTCTAGGTGGCATCTGATGTCCTTCCTTCTCTTCAACTGACAAACAGATTGTCCTTGCTGTCTCCACTCACTCACTTCCCATGAAGCCTCACCCACTGCCATCTGGCTTCCATCCCTACTATTTCTGTAACAGCTCCTGCTAAGGTCACCAATGACGTCCTAACTGTCAAATCCAATGGATACTT
1.506461372246064 CAACCCGAGTTCAGCAGTTGATCCAGTCGGCGCCGAGGTGCTCAGATGGATTAGTGAGACGACCAATTAGAGTTGCACACTGCGCCGAGGAGGCGGGCCCATAGGCGGAAAGGCTTTGAACGCAAGGGGGTGTGGTCGGGGTGAAGCCCCGCCTCCTCCATTTCCGAGGCTGTTTCTGGGGCCTCTGACAGACCTCAGCG
1.424923760815141 AGGCCCCGGCCGCAGTCTCCCTGTGCGCACCCCCACCCCAGTCTCAGCTCTGGAGACGCCCGGCGGGTCTCCCGGCCTCAGCCTCCCACCCCTCGCCCTCGCCCCGTGCGCCTCGAGCCCCCAAGCCCGCACCCGAGCAGCGCCCCGGTCCCCGAGAGCAGGCTGTGCGCCAGGGAGACGCAGAGGTTCCACCACTGCCA
1.162167062294879 TGTCTGCCGGCCCCTCCATGTCTGAACTTTGTTCCAAGTTCCAAGCCCCGCCCCCACAGTTCCAACGCATGAATCAGCAGGAAAAGCCGGGCCCTGCAGCATGGCCCAGGGAGGGGGCTGGGGGCGTGGCAGGCTCGGGGGATGTGAGCTGGGGAGGGCGGGTCCGTGCTGACACTCAGTCCAAGGGCATGGCCCACGCC
1.17880775994296 CGGGGCCTCGCCCTGGTCCCGCCTCTCCGGGCGCCCTGGCTCTGATTGGCAAGGAGGCCACCCTTTTGCCGGGCGGAATTGCACGAAGCCACGCCCACCCACTGAGGAGCCGGCCAATAGACGGACAGGTGTGGCCCAGCCCTCCGCGTCAGCGACCCGCTTAGAAAAGCGCTACGTCAAACGAGAGTCCTAAAGAGCAG
1.36691477249957 CAGGGCCAGTGGTTTCACTGTAGACAATGGTCTATCTGTCCTGCAGATGAGTCAGAACTAAGACCCCTTGAGGAATCATGTTGCTTTGGTGCCGGCTGTCTGGTTTCTATTCCATATCCTGTGCCGCACCCTTCCCCCAGCCACAGTGACATCTGGAGGCTCTGACCACAGCTGGCAGGCTCTGTGGTACCGCAGAGGCC
0.8449103123035131 GGGAGGAAGCGGAGCCCAGACCGAGCCAGAGCGGAGCAGCGGGAGGGAGGGCGGGGAGGCCGCCGGGCAGGAAGCGGGGTCCCGCCCGGGCCTCTGGAGCCACGTGCGCTTGTTTCCGTGCTGGGGCGATCACGTGACCCGCGTCAGCTGACCCGTCACGGTGGAGCCCGGTGCTCGCGCCCGGCAGCCTCTGCCCCGCC
1.567680990141015 TATGTTGGTAAGGAGGCCTGCGGTCAGTGCTGGAGATGAGGCTTTCTCCCAGGCCCTCTGCCTAGCTTCAGCGCTCTCCGGCGGGGATCCTTCCCACCCCTCCCTCAAACCACCCCCCGGCCAGGTGCTGGGTCCCAGTCTAAGTGCCAGCCTTGGGTAGGGCCAGGCTGGGCCCCCAGCTAGAGTGAGCTCAAGCGGCC
1.355010758758158 CCGCTGAGCAGAGTCCATGGCCCTGCCGGGCTGCCCTGGCTGGGGGCAGGAGCACGCCTGGGCATGGGGATCCTGTCCCCGTCTCCTTCCCCTCCCCCTCCCTCCATTCTCAGTCACAGGCCTCGGGGAGCTGCTCAGGGAGGCCCAGGAGGGGAGGAACAGGGCTTCGTGTGGGAGGATTTCTGCAGGCAGCTGGGACT
1.210998173392027 AGTTAAGAGCAGGAGGAAGCGTTGCTACCTTCACTTCTCCCCAGCTCTGCCCTCTGGGTCCACATGAGGACAGGGAAGCTCGGGAAGGGGAAGGGAGACTGGCCCTGCCCAGCCGGTCTCTAGCCCCTCAGCCCCCGCTGGGCACTCTCTGTCCCATCCCTCTAGGACAGGGAAGCTGGCCTGGTCCAGGGCACTGATGG
1.886081373666327 CACCCCCTGCCTTCCATCCCAGTCTGAAGGCAGCCAACCTGATCCTGGGCTTGGAAGGTTGGGGGTGGGCTTCCTATCCTGGGCTCTCTGCATAGGCTCTTGTGGCTTCCCCTTTCCTCCCCTCAGGAGCGGGAGGCAGCTCTCTGGGAGAAGAAAGGACATTGGGAGTGAGAATCTGGATGTGCCTCAGCCCAGCTCTG
1.343294062044234 GGAGCCTGGGCAGAGAGTGAGGAGCACCCAAGTGGGGCCAGAGGAACGTTGTGTGTGGCAGCAAGGAGCCCGCAGAGGTATGAGGGGAGGGGCTGCTCGGCCTGCTCCTTGGGTAGGAGAGGAGGAGGGAGCTGCCTCCCTGGCTGAGGGGTCTGGGATTTATTCAGGAGGCCTGTCACTCCCCAGCCTCTTCTGGGACT
0.9210247340149347 CCACCTCTGGTGTGGGAGAGGCCCACCAAGGTCCGGCTGCCTAAGCTGTATCTGAAACACCAAATGGACCTGGTGGCCACCCTCAGCCAGCTGGGTAAGGAGGAGGGTGCGGGCGAGCCCCCGAGGTCAGGCTGGGCAGGGCGGGTAAGGAGGAAGCGTCTGGCTGGCAGTGGAGCTGAGTCAGAGCTGTCCTGTGTCCT
1.57789334717806 AGGTGTCCACTGCCAGTTGACATAAGGTCACCCATGAACTTGGTGACAGGAATTTCAGTGGAGAAGTGGCCACAGACACAAGTCTAGAATTGAAATGGGAGCCGAGGCAGCGTAGACAAAAGAGGAAACTGCTCCTTCCAGAGCGGCTCTGAGCGAGCACCGAGAAATGGGCAGTGGCTTTAGGGGATGTAGCGTCAAGG
1.592307652873659 ACTGTTAAGGCAATTTCCCAGCACCACCAAACCGCTGGCCTCGGCGCCCTGGCTGAGGGCTGGGATGGAGGACAGCTGGGTCCTTCTAGCCAGCCCCCACCCACTCTCTTTGGCTACGTGAGTCAAGGCTGGGCGACCAATGAGGTTGTGGCCTCCGGCAAACAATGACCACTATTTAGGCCGGCAGGTGTATAGGGCAT
1.340258564256057 AGGGTATCTACCTCTCCCTGAGCCCTCCCCCGCCTGCTAGGACGAGAGCGGGGCTTGGATACTGCCCTTTGGACAGGATGGCATCATTGTCTGTGGCTGCAGCCAGCCAGCGGTCGCCTGCTCAGCCCATGAGCAACCACTGTGGACAGGGTATTGCGTGTGTGCTGAGGGGCGTCCATGCAGACCCCCACGCTTGCCCT
1.082298883178252 AGGCTCAGGGGAGGCAGGCTCCTGGCAGCTGGGTGGGGCTGGCCCCAGCCGGGTGGAGACCAGCTGTAGGCCTGGATGGTGGTGAGGCCTCTGTCTTGCGCTGCAGAAAGCTTTTCCTGTTGTCTACACGAAAGTTTTCTCCCTGCATGTCAGGGCAGCCACGTGCAAGAGCAGCTGGCTGGGAACGCAGAGGTCTGCGG
1.470816707618254 AATAGATCATGTGTGCCCAGGCCTGGCCTGGCACTGGTGTGGAGGAAGGGCCCGTGAGCCCAAAGAGGCTCAGAAAGAGGAAGTGGGCTGCAGGAGACGGTGGGAGGGGCAGGGAGGGCAGTGGCGCGATGTGGGGAAATCTGCTGCCCCCCTGGCCAGTGCCTGGGGATGCCAGCAGAAGTCCTGGCAAGTCACAGGAA
1.993920679736533 AGATGGGGTTTCGCCATGCTGGCCAGGCTGTTCTCGAAAACTCCTGACCTCAGATGATCCACCCGCCTCGGCCTCCCACAGTGCTGGGATTACAGGCGTGAGCCACTGCGCTGGCCAAATCAGACAAGGTTTAAATCCCAGCTCTGCCTGTACTAGCTGAGGAACTCTGCACACATTTCATAACCTTTCTGGGCCTACGT
1.75151578863747 ACTACTAAGAGCTTCAGTTCCCACTGGAGTGGTGCACACATCTCATTACTACTAAAACCACAGGAATGTTCCAGGGAAACAGACTATCATCACTGAGCGAGGTGGAATCCAGCCAAAACCCCAGGCTAACATCCAGATGCCTGCAGATCAGCTAAAATCCTTTTAAAGGACTTGGAATCTCCAGATACTAGTTTTAAGTC
1.903536015364869 GACGAACCAGAGAACAACCAGAAGGAGAGCTATACTGGAGGGTGGGTGGGGCTGCCTGGCCAAGTTCTCTCTGGGAAACTCACTTGAGATCTAAAAGCTTTCCCCATATCTCCCAGGAGGAAATTCTTTTTTTTTTTTTTTTTGAGATGGAGTCTCGCTCTGTCGCCCAGGCTACAGTGCAGTGGCGCGATCTTGGCTCA
1.544322222375247 ACAAAAGCAAGACACTCCTATCAGCTGGGCTCACGCCCCACTGCTCTCTAGCAGAGACTAGCTCTGAGGAGGGAAGAACCGCCCTTCTAGGAAGTTACATCACTAGGCCCTGGAATTAAAATAAATGACACTCAACTTCTGGAACTGCACACAGCTCACGGATGTCAGCGATGACCCGTTAGTTGGCAGGGGTACTTCAA
1.573076905212438 TCCCTCTCACCCTCAGTCCCATGGCCCTTGCCCTACAGCTGAGGGTGTGGCATGTGGCTCACATATGGCTCCTTCCTCTGGCCCAAATGGCTGGAGGAAAACTATGTCTAATTTTCCTCCAGCCACAGTTCTCAGGTCAATGAAACACAGTAACATCTCTGCCCAGGCTGCTGTTTGAGTGGCATGTGCTCTTATCCTCC
1.623409435902581 CATGAGCCCTGGCCTTGCCCTCTGTTCCTCAGAAGATGAGCTGGGCAGCTAGGCCTGCAGCCCGTGTGAGTCATGGCTCCACAGCCAGATCCAATATAAATCAGATGGGACATGACTCACGGCAAGCTCCAGTCCCCAGGAAGCAAAGTGGATGAACGCACACAAAGTCCACTGGAGTCCTGGAACCTAACGACTGTGTC
1.447487441946452 AAGGGTAGACCCCATTTCACAGCAGGGTTGGGCACATGACACAGGCCTGGCCAATCAGAGGAGTCTCATACCTCTGGTTGAAGGGATGTGCATGTGATCAAAATTCAGTTGACCTGAGCCCCACCCAGAAGTTTTCTGCTGAAACTTCAGAAAGACAGCCTCTTCCCCTGGGGTGTTATTACACTATCAGGGTGTGCCCA
0.8817848119083025 GCGCGCCCCTTGGCGCCCCGCTCCGCCCCGCACCGCGTCCGGCGTCCCGCGCCAGGCCTCGCTTGGGACCATGGGTGGGTCACGTGGGCCGCGCCTCGGCCAATGCGGCGGCTGCGTAGCGCCCGGGCCCGCCCCTGAGCCGCGCGCACGTCGGGGGCGGGAGCGGTGCGCGCAACTTCTCGGGCCAATAACTGCGCAGC
1.553081286725318 GAAACGCTGCCCTGTGTCCCCTTCCTCCCGGTTACAAGCTGTTTCTCCAGCAGGTGGAGCTGGGAGAATAAAAACTATGAGCCTGTGCCTGGGACCTTGCAGAGGGAGCTATCTGTGCTGAAATCCTGGTTGAATGAAAATTGTTCATTATGCAAACTGTCTGGTTCAGTACACAGAGGCAGCCCCCAGGCGCAAACCCC
1.150466616834286 GTCACCGGCGTACCGGATCGGAGCTGGGCCCCGGTGCCAGCTGAGTCCGGGGCTGCGGCCCATCTCATGGAGAGCCGGGGGCGCCCCAAACTCTGCGCCACAGCCTCACACATGCAGCTTGGTTCCTGCCCTGTGTTCTTAGCGGGAAGGGGTAGGTATGCGTGCATGGCCTGTATGTTGGCATGCTGGCTCACGGACGG
1.441077101997997 CCCAGCCCGCAGGGGGAGTACAGACCCTCCAAGCTCACACTGGACAGGCGAGGCATCGGGTGGGACTAGGGGCTTCCTGCCCTCGACGCCTCCACCCACTCCAAGTCAGATAAACTCCTTTAGGGCCAGGGCTCAGTGGGAAATGCCGCCACTCAGGGCGCAGCCCAGAATCTGCCCACTTATCACACAAGCGTCTGTGT
0.947690853931327 AACCCTCTGGCCACTCTCGGGCCAGCCCTGCTCCCGGCCTCGTGCCGCTGCCTGCCCAGGCTCACGGCCCAGCAGGCCTCACCGCCACTGTCACCCCCTCGTTCCTGGCAGAAACAGCCTCGTAAATAAGTGACAGCTCCCAGCTGTTGGGAGTTATGGGCTCCCAGAGAGTGGCAGCTGCTTCCCGTCCCCTGTAATCA
1.739011012156049 ACGACAGAGGTGGGGCTGAAGGTCAGATTAAATTGGACTAGTAACCCCAGGGGATACTTGAAAGAGGTTGCTAAAGAAACAGTTCCGGCAGGATCGTGCAGCAGCTGAGGCAGGCAGCTGGCAGCAGCGTGCGGGCCGGCCGGCCAGATCAAGCCTGCTTAGCAGGGCTTGCTGGTGACAGGCCTGGGTTCACACGTCCT
1.505436761926299 CAGTGACATGTGTCCAAGCCGCGTACGATTCCCAGTGTGACTGAGAGCTGAACACTCTGCAAAAGGGTCCAAATGGGGATGTTTCAGTCTTGAGGTGTGTGTTGAGCTGTTACCTGGGGAGGCCCTGGGGCGAGGCCCCCTCTCCTGTCAGGAGCAAGCCCCATCTGGAACTAATAGAACTCAGCCTAAGGCTACAGCTG
1.561641162796689 TGAATAAGCCAGAGTGATAACTCTGTGCCCCCTCTTAGATTTCTGGCCGCTCTCAGGCCACCCCTCCTGCTCCCTTCAGCCTGGCCACCCTTGACCCTTCCCGCTTTGCGGCCCCTCCCCTGCAACGCCCTCTCTACCCTCTGTCTCCACCCTAAGGTCAAGTCTCCCTTCTCCCTGGAGATTTCCTCGACCCTAGCCTG
1.008330499566455 GCCCTGTGGCTGCCTCGTGTGCAGATAGGCTGACCTGGTCCACCCTGAGCAGCCTCACACGAGTCACTGCCTCCTTCCAGCTGAGCCTGCTCCAGCCTGAGCTGTGGCTGACGTGCTGGTACACACTGCCCTGGGAGCTGTGTGCCTCAGCCTGGACTGCTGTTCTCCCAGGAAGCTCTAGAACCCACAGTGCAGTGTCT
1.661332798797323 GTGCTCAGCACACAGCAAGCCAGATCCTGCACCGCCCTAGATTTGGACACTTCTATTAATGTGGCCAAAAATTATAGAGGCTTTTTTTTTTTTGGAAGGCACATCAAACTTTCTGACTCACTGTGCTTGCAGGCAAATAAATGCTTCCTCATCATAACCCTTAATGGGACGAGAAGGCTCTACTGCGAGCACGCTGGAGG
1.311123791563313 TGCTCCATCAGCATGACCTATTGTGGGTATTATTATTATCGCTGTTGTGATCCAGAGGGAGCCTGTCTCGCGGGTGGCTGGGAAAGCTCCCTGTGCTGTTCTGTCCAAGAGTCCAGTTGATTCAAAGGCACTGAAGTGGGAGCCTGCTCAGCTCTTGGAGCTGGATGAGAGCTGAGACAGGCAGTTCCCACTTAGCACAG
1.188346319988781 CTGACCACTGGGCAGGCCAGGGTCCCTGGGCCTGGATGGGTGCAGGGGCACAGGCCGGCCATCTGCAGCCAGCCCTGTGTGCATGTACCCAGCACAGAGGGAGGGAAGCCTGCCTGGGCCAGGGCTGCTGCCTCAGCAGAACTGCAAAGGCTGACAGCTGTGTCAGGGAGAAGGCGTGTCTGCCAAGTAGCAGCCACCGC
1.612088668825064 TTAGCATGTTTGGTCCGGCCTCATTTAGACATTTCAGATCTCTGAAGCCCAGAGAGTGTCCATGAGAGGTTTCCGTTTGCCACGGAGTCGATAGTACAAATTTTGTTCCAAACACATCTGCCAAGTACAACCCTAAACTTTTCCAAGCGAGAGGTTATTTTCCTAACACAGCGCCTGCTCTGCTGGGCATCCTCTGTGGT
1.543856572487062 CTTTCAGTAACCTTTTGGGAGGGACACCCAGTGCCCATGGGGACTCACCCTTGGCCAACCCAGCTGGAAGTGGGAGGGTGTGGAAGCCCACTGTTGAACTTGGACAGGCCAACCCTGGAGGACACAGAGCAGCATGAGGGATCTGGAGGGGCACAGGGTGGAGAAGTTGCAGTCTCCTCATGGAACTCACCAACTGGCGG
1.224690747702936 GGCGTCTAGCTACGGTGGTCGCGAAGCCAGCTGTCCTCAAGTTGAGCTGTGCACCGGTCGCGCACACTGGCGGCACGGCTTTCGCGTCCCTCCGCTCCCAGCATAATGAAAGTTTGAGGAACTGGACATCAGGCGCTGGCCGCTCCCCACCCTCAGCCGCTGGGTGCCCAGAGCCCATCCCTAGCGATCAGAGCAGAACT
1.164607270520637 CCCCCGGCTTCCCCCTCCTCTCCTCCTCCCTCCCTCCCTTGCTCTCTAGCTCCCTCCCTCTCGCTCCGCTCCCCGCCCCCGCTCACGGAGCGCCTCCCATACAAAATTTATGAAAGTGCTCTCAGCTCGCAGTGCCGAGCGCCGTCCTATTCCCAAGGCAGCAGCGCTCAGCCGCGCGGCGCCGCCTCCCAAGGTGTTTT
1.287432785466595 CATTCTGGGCTGGGGTGGAGCCCACTACAGCCCCGCCCCTATCTCCTCCTTTATGGCCCCGCCCAGCGGGTATCCCCCGCCCCCGCTGGCCGATCGGCGATCGATCGCAATGTCTGCGCTCTCCGCGTTCTTCCAGCGCTGTCTTTTTAGTACCACATGCGCAGGCAGGTGATGGCGGCGCTGGTCGTATCCGGGGCAGC
1.844669905427976 GTACTAGAATCAGAGATCTCAGTCTACTGGGGGAATGTTAATGTAAACATATCATAGCCACGTGATAAAGGAGGAGGTGCCTACTGGTCCCTGGGACACATTGAAGGGCTAATGTTAGCAGTTCCTTACACGCCAGCGACCACTAGGGACCTGTCAGAGGAGGATCTGTAATGGGCCTAGGAAGCCTAGGCTGATTGTCC
1.237107572542809 AGCCCCCGCTCTGGGTGCGCCCCGCCTTTTGCCGTTGTCATGGGAACGCCTTGGCGCTCCGAGGCCCGCCCTCGGGGCGGTGCTGACGTTCGGTTCCGCCCCGTGCATTGTGCTTCCGCTCGGGGAAAGACCGCTTCCGGTGCTTCCGTCGCTCCTTGCCGGGCATAATGGCCGCGCAGCGACCCCTGCGGGTCCTGTGC
0.8117558483572898 CATGGCTGTAGACTGTTACCTCCAGTTCCCACAGTAACAATCGAAAGCCACGGTTGCCCTGGAGACGCGGGGGCGGGGCGCGCGGACGGCGCCGGCGCGGGGCGGGCTGACGTCAGGGCCGCGGGGGGGCGGGCGGGGCGGCGGGGGCTGAGGAGCGCGCGTGGGCCACCGCCCCTCGCAGCCCCTAGGGACCCGGACGG
0.9159513400031609 TAGGGTGGGCCCCTCCCCGCGGGCTCAGCATCTGTGCGCCTCCAGCTCAGGTGCGCGGGAGGAAGGCAGCGGCCTGCCGCGCAGAGCCCTGCGCGCCCGCGAGGTGGCGCCATAGCCGCAGCAGCGCCCGCCGGCCCGGGCCGCTCCAGATAAGAGTGTGCGGAAAGCGCGGCGGGGCTGAGACGCGACCAGGACGCGGG
1.195728082749304 TTGCTGTGGCTCGCCTCACGGCCGAGCAGCTGAGCCTGAAGCAGCAGGACAAGGCGGCCGCGGCCGAGCTGCTGGCGCAGACCACGCACTTCCTGCACGACCCCAAGGTGGCGCTGGAGAGCCTCTACCCGCTGGCCAAGTTCACGGCCGAGCTGGGCCTCAGCCCCGACAAGGCGGCCGAGGTGCTGAGCCAGGGCGCT
1.732495678484556 AGTGGGAAATATGTGCTCCTCGGGGGCTCTGGGAGAGTTTGGGGTCTGAGGCCTCTCCTTAGCGCAGTGATTCATGGCTCAGGGAGCCGGCGTGAGCATGCTGTTCCATGGTGAGCCTGGCACTCATTGTCTGGGTATTCGGAGACACTTTCTGGAAAGGGCCCATGTGGGAATACACACACACACACACACACACACAC
1.590988595518756 TGGGCGGACTTGGCGCCCCCAGCATCCAGGGGCCTGCCTGGGCGCTGCAGCTCCAGCTGCACAGGCTCTGAGAGCTCCCCACACCCCTTTTCTGACCTCCAGTCGGCCCCACTCACCAGCCTCTGTGCAACGCCGGAAGCAGGGAGGGACAGGCTGCAGAGGGAGACCAGGCCTCACCTCCCCCATGCTCACAGAAGAGC
1.37016274603881 CCATGGGGGAACACTGCCTCTGCCTGCTCTGACTAGGGATATACAAGGTTATCACGGGGCTTGAAGTGAGCTTGACTGAGGTCAAAAGAGGGTCAGAGAAGCTTGTCTGAGGTTGGCTCAGCTCTCACAGTAAACGAGGAAGTGCAAGGTTATGAAATTACACAGACCAGGGTAAGCACAGTTTCCCAGAGGCCACTAAC
1.408922611850822 CTGCTCTCAGGACTCTGATCCAAAGGTGGCCACTCTATCACTGTTTCAGATCACAAACGACAGCTTCCAGCTGACATCTGGCTTCCTTGGCCTGTTGCTGACTTCATCCCTGTACCCCGCCCTGCTCTACCGGGCGCTTGAGACTGCTGCAGGCCAAATGACTGTGTTGGCCTATGGGTGACCTGGCCCCTGGCTAGAAT
1.582667410735354 TGGCAGGCAGCACGCACAGTGGCCTCCCTGCATCTCCAGCCTCTCACTTGCATAGGAAACTTCTGCATTTCCACAAGACTGCCAGTTTCCTCTCTGTGGTCTAATTTTAACCACCTTGTCGTTACAGTGTGTGTCAGCCACCTGACCCCACTATGACCTCTGACCTTACGCCCCAGCTACTGCTTGCACTATGGAGAATT
1.330682388855662 ATCCTCCAGAGGAGAAAGAGCTGGGCGGGAGAGGCTCCCTTCCTGGGCTACATTAGCACGTGGGGCTGGACTGGGGATAGAGGCGACTAAAAGGGCCGCCAGCCAGGGAACACCCTGGGGAGCCTACGGACCTCTCCTCTGCGGTGTACCTTCTCAGTCACAGTCCTGACCCTTCTGGAGGGAGATGCACTGTGTAGGCG
1.738094033408167 AGGCAGCTTACCACTGCAGCAGGAACTGAAACCTTTAGCTTTAGGGCTCCAGTTATCACTCTAATCAAGTCCACACGCAAAGAACCAAGCAGAAAGGAAAACTGAAAGTGAGATGTGGAGAGGCGATACCGGAGGCTGTTCTCTCCTAGGCTCAGTTCCTTAGAGAGAGATAATGTAAGCATCGGGTAAGTAGGGGCTGG
1.537540313058656 ACCACACAGGGAATCCTCTGGAGCTGGGAGGACAGAGGAAATGGTTTATTCACATTCCTAGGGGGAGGGGCCTCCTGGCAGGAAGCAGACTCCAGAAGGCAGGAGCGAAACTGGCCACAAGGATGCACAGTCAGTCTGAAGACACAGGCAGTAGCTTAGGATGGGGAGACAGACATTCACAGCCTACTTGAGTCAGAAGA
1.653461030993999 CTGGGCACTAGTTCACTGCTCTGTGTTCTTAAACAGCTCTGATGGAACAAGCCATCTGTGAGGGTTATTTAACTTGGAGCTGGAAGAGGGTGAGGATGTGGAAAAAATAAACTGAACAGCCAATGGATGGGGCCAGAGAGAGAGAGAAGGCAGGTGGCATGTTCATGGGACTGCGTGCCAGGGCCAAGCGGGGTGGGACT
1.462303760396668 ACACAGAGGGTGGGGACAGAGAAGTCAAGTGAAGCAACGCTAGACAATGCTGCCGCATAACGCTGGCTGCTCCACCGCAGCCCTGAAGGTATGAGGAAACCCTGGCGTGTTGGCGGCTGCCTCAGGAACCGCGCTGGCTAAGGGCTTCCCCAGGCCTGGGTGGGAGGCTTGTCACTGACTCTGGCCACACACATAGGCTT
1.667795525954681 ACCTATACACTTCTGCCCACACTCTTCTTGGAAGGAGAGAGGACAGGGAAGTGAAACCCACAGTATGCCAAAAGGGAAGTCGAGCTCTCATTCATAAGACTACTAAGCTCTCTCCCAGGGAAGAGAATGGAGATGGCACAACAAAGGCTCTTTGCTCTGAAATAGCACCGAAGTGAAGCCCGGCAGAGCCAGGGTGTGGA
1.628553575306035 AGAAATGGTGTGACAGTACTCGCTGCAGATTCGCTTACAGGCACGCCAGCAGGACCTTTCACATGCAAATGGGCTTACTCATCACAGCTGTCAGGGTTCTCGGGGAGGAGTTTAAAAGAAAAGGCAACACTTCCCTCTCAGTGAACTGAGGAGTGTGGCTGACCCTGATTAAGTGAGAATGAAGGGATAAAAGACACCTG
1.489256380241687 GTGGCTGTGGCCTACAGTGTAGACAGACTGTGCCCAGCCAGACTAAATGAAGACATATAACCGGAAGTCAGCCACCAGCCTGACCCCTCCCAGTTTCAGGAGGAGACTGAGCAAAACACTATCCAGCTACAGGAGTAGTAGACCAGATGCTTTAACCCTAGCAGCATGGGGTACAAAGGACCCCACATATGAATCAGCAG
1.563476895721161 AGTGCTGGTAGGGAACAGACTGACAGACAAAGCAGACAGACTCTAACCAGGCCTCGCTCTGTTTTCGATGCAACACAAATGTTTTCCATTAAAAGTTCCCTGCCCCACAAACACTCATACATGCAGCTATGAACTCCACATACTCAACTTCTGCTTTTCTGGCACACTGACCCAACTACCTCTCCTGTTCCTCTGGAAGA
2.130522540167621 AGCTCTGGAGTTCCCTAATTGCACAAGAGCAAAGGACACCCCCACGGAACATGTATGCCTTCTGAAGCCATTGCTCAACCTACACTCATTGTGCAATTTCAATCTTCCAAAGTTTTTTGCTGCACATATGCAAACCACGTTTTCCTCTGCATTCTAGAATTAAGAACAGTTTATCATTATTCTCTTCACTTTAGAGAGGG
1.632098055442687 CCATTTGGAGCTGAGTGAGAGCACTGCCAACACAAGCTGCACTATTTAAACAAGTGAGGAAATGATCGTATATACAACATGCCAGCAAGCACACACACACACCAAAGGAAGTCGAGAGGGCTTTTTTTTTTCAGGACACAGAGCTGGATGTCAGCGGCTAAAAGGTCGATATTTTCCCTTAACACCCTTCTCAATGACTT
1.190093727583798 CAGAGACAAGCACCGGATGTGATAGGGCTGCTCAGGGCCGCCTCCGAGGTTAGTGCTGCCCATGGGAGACGCACAGGGAGGCTCTTCCAGTTCCCCGCTTCCTCCCCCAGTGCCCTGCTGGCCACTTGAGCCCGCTGCCTGAGTCTGATCCCACAGCACTGGTGAGCTTTGGCCAACAGGCACTGCTCGGCTGCAGAGCA
1.769272847053003 GGAGGGGACAGGGGCTCCTGCCGTGGGAGAGATCACGTGTGCCCCACACTCAGCACTTGGAGGAAGAGGAACCCCCTGGTGCCAGGCTGCAGTGCTAACGCCCCAACCCGGAGCCAGGGAGACTGGGTGGGGAGCCAGGGTAGCAAAGGGGCTTCCCACAGCCACCACCACTTCCTTCAGGGAAGTGCTGATGGACTATT
1.747539279839836 AGATATATAGCATCAGAATGCGAAGGTCTGGGCAGCCTGGTGAAACGCGGGCTCTCCAGAGCCCCAGCTATGTTTCCCATTATGTAACCCTGGTCATGGGCAGACAGCCAGACTCCAAATGAAAAAGAGACTCTGGCTTGGCACTGGTTCTATTTTCCTATCCTCATTCGGGGTCAGCGCAGTGTCATACAGCTGCAGAG
1.432166828656222 CTCTCTGTAGCCCAGAATGTGAAGCCCAGCCGGGGATGGCTGTAGCTTGGACCACGTGCCTGCCTGTAGATTGAGCCCTTGCCCAAAGATGGGCAGCAGCTCAGAGCCGGCAACGGGCCATTTGCTGCAGCATCCAAAGAGAAAACAGACTCAGCATCTCAAGCAAATGAGACCCAGCACTTCCTGTGTGAGCTTTCCAT
1.497763504084237 CACCCTCCCCATAGGCAGCAGCACTGTCAGTACCGCCCAGCTCAGTCCAGGCCATTGCCACGCCCGGACAACATCCTGCCTCTAACTAGCAACAGAGCCGGGAAGAAGGGAGTAAGTCCAGAAAAGAGGGAGTTGGGAGAAGACAAGTGGAGGCCACATCCTGGTAGCTGATACTCTGAGTAAACATTAGTGCCTCCTCA
1.489418260191357 CTGCTTTTCTCATGAGTCAGTTACCAGTCAGACACAAGGCTGGCACAGTTCCTAAGCAGCCCACCAAAACCTCCTTGTCTACAGGAAGTGGGCAGTGAGAGTATCTTTCAACTGCTGCTGCTTGAGCCACAGAGTTCCCCGTGGCAGCTGCTAGCTGAAGAGGAGGTAGAGGAAGCAGTCGCTGTATAGGAACGAGACAA
1.642483441935887 CCAACTAGGCAGTGATAACCAGGAATGCTCAAATAAGTGACATGTTTCAAAATTGGCTTAACCGGGACCTACTCAAGCGGGAAGGCCAGTCCACACTCACAGAGCCAGAAACACAGCAATGCTTTCTGAGGTCACATGTGCATGACTCCAGTGGAATCTGCATGCAATGCTCAGGGCAGGGTTTGGCGCTGCCTCACGAA
1.456613431532804 AAAAGGTCACTAACCCTGTTTTTGTTCTCAACAGCTCCACGAGGATCCATGCCATCATGGCACTTTGGGAGGCCTGTCACGAGTTACACAGGCCTAGGCTGCCCACACCCCAGCTCAGCAGAAAAAGAGAACTGCAATCCAAGTCAGACAGATCCTGCCTGGACTCTCCGCAGAGAGCCTGGAGAGTCTGACCAGCAAAG
1.738865579455718 CAAGCCATGTTTCAATGCAGACAGAAGTAAACCCCTATAGACAGCAGCGCCTCAGCCTGCCAGGGCCTTACACCAGCTGCAGTGCATCTCGCGCTCTCCCTCAGCCCTGAGTGCAGATGTTCCCCGCAGCATCACTTCCGCTACACTTTCTTTTAAAGAAACAGCGCACACATAGAGGTATTTCTGCCTCTTCCCAGTAG
1.362663343189736 AGTTCTGGGCATCACCCTCTCTCAGGGGAGAGGTGAAAAGAGGTTATGTGGAACAGACAGTGATAACAGGATGACGTCACAGGTGTGCCTCAAAGAAGTCCCTGGTGAGCTGGGCTCATAACTACTCTGCAGTGATTTATTCGACCCTGCCAGCTCCAGCTGGAGAAGAGATGCAGAAAGCTGACACAGCCTAAAGCCCT
1.595331815576499 CACAACACCCCCTTATTGCCACTGTCCAGGCAAGCACAGCACAGCACAGGGGACCAAAGATGATGACTCATGTGCTGGGAAATGGAAAAGTGCATCTTCCCACCAGCCAGCCCTGCCGAGCACTCTGCTCGCCCCTGTCCCAATGGCAGCCCACACAGCGGGGTCTGGATGGCCACCTCAGCTGCACACTGGGTACTTGG
1.421991476987283 GTTCTTACTCCCTGGCAGGCTCCCACTAGGGATATCCCATAGGGAACTAGACTTTTCCATATTGAACAAACAGGGTACATGAGTCCAGAAACAGCTATTCCCAATCCCTGCCAAGCGTATGGTCTCTGCAATGAAACATCTCAGCAATGCCTCTCCCTTGGGAGAGGCTCTGGGTCTGCAGCCTTCAAGAGGCCTTGCTG
1.966246469026139 CGCAGGGAGGCAGAAATCTAGCCAGTGACCTAGGGCTCCTAAGGAGAGGTCATTCAAATCACTCCTTGCCAAATGTGGCCACTGGATCCCAAACAGTGGTGCATGCCTGGAGCTTCTTTGGCAACAGAAACAAACCACAGCTGAAGTCTTCAGAAATAAAAAGCAAGTTCAAGCTTGGTGCTAGAGAGAGTAGCCAGGCA
1.359850814599734 CAGGGTCTAAGGGGTGGGCACTAGGGATGGGAACCAAATGGACATGCCCAAACTCTCACAGACCCAGGGCACATGCCCAACAGCTGCCGCTCAGCTGAGCCAAGATGACAACAGGCTCAGTGAGCAGACAGCACCCTCTGCCGGCAGTGGCACCTGTGTGCAGGGGATGAGGCGGTGAATCCTAATAAGCAGGATATAAA
1.634370869770222 GTCTAAACCAAACCAAGGCCTGGAAATTCTGACGGGTATCTGGGTCCTGACTTTCCGGATGGTAACTAAAGGTCACGTGGGGTGGAAAGTGGCCTGTGGGTAACACAGAATATACACACGCACGCGAACAGGATATGCTGGTAATCCGGCTTCCTGAGACCTGGTGAGTTTTGAGAGTTCTCATCAACACTCTCGGGGAG
1.595757725885987 TAAAGATAAAGGAAGCGTACATGAGAAGGGAAAAGACCATCAGGGAGCCTCAAGTGGTTTGTCTTCCTTGCAATCAGTGGGAAGTATCTGTGCCTCACAGCTGTATGAACCAGGGCACCCAGGCTTACTGAGCTAGTTTGGCTCATTGCATCATTCTCAGGAACTTACATCACTGGGACTCAGGCTGCCCAGCCCATTCT
0.639910652430403 CGCTCGCCCACCTCCCGGCCTTTCCCCGCCCCCTGCCGCCCTCCCTTTCCGAACGACGGTGGCCGCGCTGGGAGGAAAAGCGCCCGCCGCCGGTTCCAGAGGGGCGGGACCGGAGCGAGAGCCTGGGTGGGGCGGGCGGGCGCTGCGCGTGCGCAGAGGTGCGGCCGGGGAGGCGCGCGGAGGCTGGAGCTGGAGGCGCG
1.149043156132153 AGCTTTATTCTGCTGCTTGAGCGGGCCGGGGCGGTGGGCCGCCATGCCGCAGCGCGCGTGTACGGAGTCAGCACTGCTTCCGGGCCAGGACAAGCGCTTCCGGTCCCCTCCAAGGGGGCGGGCCCTCCAGGGAGCGGGACTCCCTGCGCCCTCTCGCGAAGGTCTTTTCCAGCAGCTCGTGAGAGCGCCGTGTTAGCGGG
0.8957435751694816 CCTCCATGCGGGAGCGGGTGCGTTGCCATGACAGCGACCCCCGTGGCGCGCGCCCGGGTCTGCCGCCCCTAGGCGCGCACGGCCTCTCCCCGCCCCGATCCCCCGTCGCTGTGCGCAACCCCCCTCCGGCTGTGGGAAGGGGCCGGGCCTGCCGCCTGACGTCTGTGCGGGGCTCGGAAGATGGCTGCGGAGCCGAGCAC
1.448060178390467 CGGGCTGCGCCTCCTTCCCCTTTCTCGGATGGGGGAGGGCAGCGCCCCTCTGCCCGGGGGACCCGGCCGGCGCTCCCGGCTTGTTTGCTTCGCAGCCCCGCAGCTCCCCGCCCAGTGACGGCAGCGGCGCTGGGAGCCCAAGGCCGGGGGAGGGGTGGCGGCGATGGCGGGGATGGCTGGATCCGGAGCTGCCCATTCAG
1.63131178606728 AGCCTGCCTCCTCAGTCACCAGATTCCCTGCCCTGCTGTGTGCAAGTGGGTCAACATGAGGGTTGCTTCAGACTGAGGATGAGCTGTAATTCGAGAAGGGTGGAATCTGTGGAGCCGGGAATAACATCAGGCTTTATTAACCAGCTCCCTGTTGCTAGGCAGCTTTCATTAGCCAGGAAGGTCTGCCCTGCAGTGAGCTC
1.347560409038883 GAACCCACCTCTGTCTTGCTCCAGACTCTGTGCTGCCCAGGGATTGGTCTGCCTGTGAGGCCTACCCAGGAGTAGAGACTAGAGGGGCGGCGGCATTGAGGAGTTGGCCCTCATGCAGACGAAGCTCTGGTCATTGAACTGTGGGCTTATGGTGTCCAGAGACACTCTAGGAGACTGTGGCTTCCTTACCCAGCCAGCTG
1.496045290316101 TAGTTCATTTCTGTGAGCTCCTGAGACACCTTAGCTTGTCTCAGCCCTCTGGATCGTTTCTCTAATCCCTGCCCCGCTCAGGTCACCTGCTGCTGCCCTAAGCAGAGCCCACATGCGCCCCCTAGTGGTGGGAAACCAAACGATTCCACAGATCCTGTTTGTTGAGGGAGGAGGTGAAACGAGATGCCCACGGGCGACCC
1.803421480034493 ACTCAGCAGGCTGAGGTAGGAGGATCACTTGAGCCTGGGAGGCAGAGGTTACGGTGAACAGAGATTGTGCCCACTGCAGTCCAGCCTGGGTGACAGACTGAGACTCTGTCTTTAAAAAAAAAAGCGTGCAGTGAAAAGTCTCACTCCTTTCTCTGCTCTTATTCACCCACTTCCTGTCTATGTACGAGTCCCACACAGGT
1.906186051768333 TCCACCCTGGGAGGTGGGGTCACAGTGGGGACCTGGGGAAGGAAGGAGTAAGGGGAGTAAGGCCCTGGAGTTCTGCTTGGTGCTCTGGGCCTCCAGTCAGAACGGGGGATAAGCTTGGGCCGTCATGTGGACTCTCCCTGGGGAAGGGTCCTTCACCGTCCCGTGTCTGTGAGACACGTCCCCGGGGAAGGAGGACACTG
1.558468949172544 AGAAGGAAATTAGGGACCGTGGGGTAAAGGGGGGACTGAGCGTGATGCCTGGCTTCTCTCAGTATTCCTTAGTTGCAGTAATTGCTTAGGAATGCCTCCTCTCACCCGAGAGAACCCCATGGCTGTGCTCAGAGGCTGGCCGGGAAGGTAGGCGAGGCCACCCCGATGGGAGTGCTGGGGCCGGCCACTCCCCAGTCCCC
1.769500338086787 CTGGGCTCCTGCCCCACTGCACCTGCACCCTCCCCTTCTTCCCAGAGTCTCAGGCATGGCTTGCAACGCCCTCACTCCCAGAGCCGCAGCCCCTCCTCACCACGCGTGTTCCCTTAATTTGCCTCCTGGTGGAGCTGAAGGGCCAGATATCTGCAAAACTCCCGGCCGTGGGTCTGGGAAGAGAGCCCCGGCCAAGGCAG
1.094798978092284 GCTGCCCCTGTGGGTGTGGCTCTCACCCCGAGCACTGTCTGAGAGGCCGGAGGGGAGTGTCAGGAGGAGTCAGACCCTGCTGAGCTATAGACAGGCCCAGCTGTAACGGGTCTGCACCTCTCTTCCTGCCCTTCCCCAACCCGAGTGCTACTGGTCCCATCGTCGATGGCTCCAGGGAGAAGACACCAGTCACACAACAT
1.389600854093202 TGGGGAGGGTCTTCATCTGTGTTCCCAGTGGGCACAGGGCCTGGCACTGAGCATGCACCCAGGAAGGGTTAACCCTCACCCTATCCCTTCCCTAAAGCGTCGCTTAGTGAGCTAATGGAAGTGACCCAGCTCTTCCAGGAGCTACCAGCAGAGGGAGCCCGCGTCTCACAAGTAAAAAGGGCAGGCTCAGTAGGGAGGGC
0.4669725366614537 GTCACCCTCGCCGGCTGCACCGCCCTCCGCGACTCGAGAGCACCGCCCCCGCCCGCTGCAGCCAATCCGCGAGCCCGGCCCCGCCCCTCCCGGCTGCCCGGAAGCGGCCTGGAGGCGCGCCAGCCCCGCCCCCTGGCCGGGAGGGCGGGCGGAAGGGCGCGTTGGCGGGAGGCTGGGAGAGAGCTGCCCCCCTGGAGCAG
1.175654188313877 AGGCCCCCTGGGGAGGAGAGCACCCACCTCCCACACTCTTACTGGCTCAGGCGCCCCAGAAAACCTGAGGCCTCAGGCCCTTTGGCCAATCAACAACTGGAGTGTGAGCCAGGCCTGCTCCCAGCCCCGCCCTCCTGCAGAGGGAAGAGGCCGAGGAGGAAGCGGAGGGGGAAGCGTCCTGGGAGGGGAAGCCTCAGTGG
0.7732884540493733 TCCCTGGGAGGTGCCCAGAGGCCGGGGCCCGGGCCCAGGCCCAACCCAGCGCAAGGCCCCTTGCCAGCCCCGCCCAGGCCCCGCCCCCGGCCGAGCGCGAGGCGGTGAGGAGGGGCCGGGCCGCGCCGTCCCCAGCAGGAGTGTCCCCGGTGCACGTGGTCGGGGGCGGAGCCCGTCCACGTCACCACCCGGTGTAACCA
1.301201314494267 ATCCGCCCCTGGGCGGAGCTGCCGGCGACTGGAGACTGTCAAGAGAACCAGCGGAGGGAGCGGAGCGGCAGTCCGGCTCCGCGTTTTGTCTCCGTTCCTCCCCCCGCAGTGCGTTCGCATCCTATTAGGGGACGTCACCGGGCCGCGAGCCAATGGGCGGGCAGGACAACACGGCATGGAGCAGCTCCACATGGACACCC
1.415350910359986 CAGCCACCGTGGGTGTGGACACTGAGTAATAAGGAAAGAAATGCAGTTCAGAAGCAAAGAGGGAGGAGCCAGGTCCTCTGAGCTCTTCTGAGAAACCAGAGCCCAGTCGAGCTCTGCAGCTAGAGTGGCAGCTGCGGATGACAGTGGGTCAGAAGCTTGGTGGGAGGAGGCTGACCCAGCGGAAAGGCACAGGAGACGGA
1.154612167868462 ACTCCCCTTTTCCCAGCAGGAGACACAGTTTCCAAATGGCCAGTCTCTGGGCACAGGCCCCTGCTCACCAGTGTCCCAGGAGGGGGCCTGCTCAGCAGTGCCCTCTGGGCCACATTCTCATTCTCTCTCTGGACAGCAGCAGCACAAGCTGCCATTTCCCTGGGGCCTGACTGGCTCCTCGAGCCAGCCAAGTGCCCCAG
1.66335985730825 AAAACACCGTGGACAGACTTGTCTCCATTCCCACGGGGAAGTGAAGGCGCTTTGATAAAAGGGCCAAGGGTGCCCTCGTGTGGCCACGGAGGGAAATGCCGCGGCTTCAGCAGAAAGGAGGGGCTCCAGGAGCTGGTCGTGAAGTCATCAGCTCCCTTCTTTCAAAAGGCCTCGGATTTCCCACAGGCTTTTCCATCTTT
1.70721997613786 AGGAAAGGTAAAGGAACTAGTTTGTAGCTCTCACAATTTACCCAAGAAATGGTATTGTGAGGAAAAGAGGAGGAATAGGACGTCAGAGAGAAACCAGAGACCAGAAACTCTGCTCCTCCCACTGGCTTGCATCTGACCCTTTTGCTGAGAAGTCCTCTGACTCACACTAAAAACCAGAAACTGGGAGGAAAGTGGAAGTG
1.973350967512024 GAGTTTGAACTAGTCTGGGCAACACAGAGAGACCTTGTTTCTACTAAAAATTTAAAAATTAGCTGGGCGTGGTGGTGTGTGCCAACAGTCCCAGCTACTTGAGAGGCTGAAGTGGGAGGATTGCTTAAGCCTAGATGTTTGAGGTTGCAGCAAACTATGACTGTGCAACCACACTACAGTCTGGTTGACAGAGCAAGACA
1.538159920130761 GAAACGCAGATGATACGCTCCCAGCGCGCCGCCATCTTGTGAAGCCATCTAGCCTCGTGATTGGACACATCCCTCTCGCGCGACCTGTGGCTGATCTTGAAGAAAGAAGAAACCCTCGCGACACCTGGGGTTTGCTGCTCCTAACAGAAGGCGCGGGGGCGTGGTGACGAGCGGAGTCCTTTGAGGTATGGCAGGAGGAG
2.036872412766512 AAGGGATAATGAGTATACAAAAGTAAAACCACGGTGCCTATTACACAGAATGTGCCTCATACAAGTTAGTTATTTTTATGTCTACTCTGTACCACATGCAAAGTAAGGTGCAAAATGAAACCATAAATGTTCTAGAAAGAAAATGAGTACTATTATGATTGTGGGTGGTAGAGGACTTCCTAAATATGGCCCTAAGGGTG
1.687522975999807 ACCGCTCAGCCGCCCGCCCGCTAGAAGGCAGCGCGGCCCCGGCCCGGCCCAGCCCGGCGCATGCGCCGCAGCCCCTCCTCCGCTCCCGGCGCCCGCCCCTCCCTCTTCCTGGCGGGTCTGGGGCGGCGGCGGCGGCGGCGGCGGCGGCGCGGTGACGTCAGGGCGTTGGGGCAGCTCCTGTGACAGACGGAGCTGGAGCG
2.263983199881138 TCGTGAGGTTGTGGTGAGCTGAGATTGTGCCACTGCATTCCAGCCTGGCGACAGAGTGAGACTGCCTCGCCAAAAAAAAAAAAAAAAAAAAAGGAAGCCTTGGCTGGGCGTGGTGGCTGATGACTGTAATCCCAGCACTGGGAGGCCAAGGCAGTCAGGTCACATGAGGCCAGGAGTTTGAGACCAGCCTAGCCAACACA
1.694185450223276 CCAGGCTGAGATCCAGATGATAGGGCCCCAGGGGCAGAGTTCTAGCGTTAGTATCACTATCCAGAAATGCTGTTAGCTGTTCAAAACCTGGCAAGTAACTCGCTGGCTTGTAACTGCCTCAAACCTCCTTCCAGGAGTCATGACTGTGTATGGCCTTTGATGCAGGGGGAGGGTAGCTGGCTGTGGCAGCTCTGTCCCTG
0.9171874533701776 GAAGGACGGAGTCACCGGCCCACGTGGTGCGCGCCGTGGCCTTTGACCCCGCCGCCGTTTCCCTGCCCCACCCTCGCGCCCGGCCCAGCCCACGGCGGCCCGCGAGGGACAAAACGCGCCGCGCCTGGTTCCCCGCCCACGGACGCGGTGACTTTCCAGAACGTCTTAAAGGCAACGCACTCTGACTCAAGGCCCAGGGA
2.050304364033084 AAGGGAGGGGGACAGAATAGGGGTGCAGTGAGTTACACACACTTGAGGGGGGACAGAGATGGTACAGGCGCAACCACAGGACTAGTAGAGAGTAGAGGTGGGGGCAGGCAGAGCAAGGACCCCAGGCCACCTTCTTGGCCCAAGTTGGACTGGAGAGCACTGTCCCAAGGGTGCCCCAACCTCAGCCATCTGCATCCCAG
1.13393168860486 GGGCTCGCGGAGCTGGCTTTGGCTGGTAGCTGGAAGGGCAAACTGGGGAACCCGCCGGTGCCTTGGCGCGCAGGGGCGCGGCGAAGGATCAGCACCGCGGACAGCGCCCAGGCCGCCAGGCCGCGATCCGCTCCGCCCCTCCCGCCCTGGCGTAGGAAGGAGAGGCAGCGCCCGCAGCCGCGCAGGCAAGGCTTGGGGCG
1.100769762964806 CGGCGCGAGCCGGTACTGCGTTCCGGAGGAGCCATCCGGCGTCACAGGCTGTGCTGGGGAGGTGGGGTGACCGTCCTCAGAAACCCCCGCGGGCGGGGCGCTGCACACACGTCCACCTATAGGGTGTGTGTGCGTGCGTGAGGTGTGCAGCCCCTGTCAGGATCTGGCGAGAGAAGCTGACCGGGATGGAGGTCAGAGGT
1.116359020568924 CCTTCAACCCCTTCCGCCAGAGGGCAACATGGCTGCCATCCTAGAAACAAGCCCAGGAAGACGCTCCCTTTCCTCCTCGCACCACCCAAGCTTGCCTGCAGAGGGCGCAAACGCCCACCTTCTGGCCGGTCCTGGGAGGCGCCAGGTGCCCCGCCTTAGCAGGGGAGGGCGGGAGTGACCCAGCTGGGTGGGTGTGGGCA
1.631415783276699 CTGGCTCTCTTGTGCCCGCAGCTCATCCTCCTCTCCCCGCTGGCTGCTGAGAGTCAGCTGAGCTCTGGGAGGAAGCTGGGCTGTGCTTGATGGGGCCAGGAGGGCTGGGCCTGCTTCACAGACCGCTTCCCTTTTCTCTCTTTTTTTTTTTTTTTTTTTTGAGATGGAGTCTCACTCTGTCACCCAGGCTGGAGTGCAAT
1.491097836345078 TCCGGAGCTGTGGGTTCCTCTGGGTGTGGGGAAGCTGCCCTCCACAACCTCCTCGGCCTATCTTGGTGCCTCCTGGAGTGCAGGACACACCTCCCAGCTCTGCAGCCTCACCCACAGGAAGCTCGGGTTGGGGGCAGGCGAAGAGGGAGGTGCCACGCTGGGCTCCCCGCCCTGCACCGGCACTGACCCCGCTGTACCAC
1.450743275821546 TGGGTTGAGAAGCCTCTGAGTCATGGGGGGGTGGTTCCTCCTGTCTCCCGGTTCAGGCCCATTATCTCCTGCCCAGTGACACAGGCTTTCTAATTAACCTCCTCCTCCGGTCTCTGCCAGCTGTGACTAACTCTTCATCCCTCAAGCTGGCTCCAGCTCTGCCTTCCCTATTACTAGACGCTGGCCCGAAGGCAGACCTT
1.838375335926102 GTGAGGTGGCTGTCCCCTCCCTACCTTGGGTTGAGCTGTGAACCAGTAGGTTACCGCAGTGTGGTACCACCCCCCCCAACCCCAACACCCAGCTCATTCTGAGAGGGTGGAGTGGGCGGAAATCCGTGCCTGGCAGACCACAAAGCCACATAACTGACTTTTGTAGCCCTGCCCTGGGGTGTTGGGGGGGAGGGTTGACG
1.472747009981538 CAGGTGTGAAGATGAGGAAGGAGGCCCCTGAAGAGCCGGCGGGAAGAGCGGGTGGATGGGAACACAGTTTCCCCGTCCGCCAGCAGGTGGCACTGTTGGCCCAGGACTGCCCGGGCATGGCTGGGAGAGCAGGTGGGGCCGCGGGTTCTTTGACCTCAGGTTTGTGATTCTGGCTGTGGGCTCATCACAGGCTCTACCTC
1.528078385529432 GCCTTCCTGCCTCCCTCTTCCCCCTCCTCTGTCTTCCTCCTAAGGGGGCATCCCAGAGACGCAACTGTGCTGTGGCCCAGCAGGGGGCGCTGATGTACCTGCCAAGAGTGGAGGTGTCTTAGCACAGGTGTGAGCGTTCAGCTGTGTGCGAGCGGGCTTCAGAGTGATATCCCAGAGCAGGTGTGTGTATGTGTGTACCC
0.9953994008761647 GTGCGGGCGGGGACCAGAAGGAGCGGGCGAGGGGAGGCAGGGCCGGGGCCGGGGAGGGCGCCTGGGAGCCGGGCAGGGGGGTCCCGGGAGCGCTGTCCGCCTCCTCCTGCGCTTCGCCCGCTCCCTGTGCCCCGCGTCCTCCACCATCCGGGCGGCCGAGGCCGGGGCGCGGGAGGCGGGGCCGGGGCGGGTCCCGGCGC
1.8284020598115 CAATGGGGGGAGGGGAGTGCGGAAGCTGACTGCCCACAGAGATGTTGCCGGGATCAGGATTTGGGGTAGCTTCCAGTGACCCTGCTGGATCCTAGTTTCCAGAGGAGTTTTGGAATGGTTAATACCGCACCCTATAAGACACGGGCAGTGGAACCAGAGACACCTGGGGGTGACCAGCAGCCCCTGGATATGCCCACAGG
1.500596653818296 CACCCTGGACAGAAAGTGAGTCACATACGCATCCCTGAACTTTGGCCAGAGGGGTGGGATACACTGATTCATGAAGTCTAGGTCTTACGCCCACCGCTGGTTCCCGGGATGCAGGGACTTGGCTGGGAGTATAGGAGGGATGGGTCACCTAAGGAAACCTGGCATGTTGCTCTCAGAAGCTCAGGGGATGGAAGCTGGGC
1.321221769572789 GGCCTAGAGTGGGGTAAAGCTGTTACCTCCCTTGGGAGTCGGCTTTTGAGCTCTGGGCATGAGTCAGCCCTGTTCCTGATGGCCGCAGGATGATTGGCAGAGAATCCCAGGGTGGCTGCCTCATGGCCTGGGGCCTCGCCAGCTGGGGCTTCAAGGCTGTGACCCAGATAGGGAGGTGGGTGACCCTTTCTGCCTATTCC
1.463252793116763 GGTTGTTCTGTTTCTAGTGTTTTGAGGACCCTCCGTGCTGTGTTCCATAGTGGCTGTGCTCACTTACGTTCCCACCAATCGTGTCTCAGGCTCTTGAGCAGGGAGATGAGGTCAACCAAAGCACTGATGAACCAAATTGCAGTGGTGATGAGCCGGGTGCCAGCTCAGCCGAGTCCTCCACCTCTTGGGGTCTATGAGCT
1.284059611832076 TTCCCCAGGCTCTGCCCAGCTGGCCCTGTTGTGCAGCCGTGGCTCTGAAGGCTGATCCCATGCCAAACCGTCTGCTTGGTGATGGGACCGCACACAGCACTCCCCGGTCACCAGCGAGGGCCAGATGGAAAGTGGGGAGTGTGTGAGCGCGGCAAACTTGTCGCAGTCATGTTGCCATGGTGACACAACTCTGTTTAGCT
1.663885801141393 TCTGCATCACCCCTCCTCTTCCCTGAACCTAATCTTTTGCAAGATGACAACCCATAGGAAGCAGATAAAACCCATCCATCTTCCTGTTGTTGTCCTGTATCCGATACCCATCACATACAGAGCCATGTGGTATGCCTCGAGGAGCCTGTGTGTTGAGGGGTAGCCAGAGCCTGCCCTGGGTGGGTTAAGTGGTCAGCGGT
1.33906489331947 TGCCTTGCAGTCAACTGCCTCAGCCTCATCCATCGCTGGCTGGGAGATGACTGGGAGCGGGATTGTCCCAGCTGTGGGTCTGGACCTTCCTACAGTGGCTCACCAGGCCCCCTTGTGGCCAATACCATCAGTACCACGTGGGAGCCTGTGGCTGGGGCTGGGGGTCTGGGGAGGGGTGACAAGCCCACCAGCTGCTCACT
1.061928265785046 ACTCCTCAGCTGGGCTTCCGCCTGGCCTGGACGCTTGGAGCTGGCCAGGCTGCGGGTCCTGCCCTCTCTTCTTTGGGCTGTGGTTCTGGGGACTCTGTGTCCTGTCACGGAGCCTCAGAGTGTGGTTAGTGTGAGGCCCAGCGAGGAGAGTGTGAGCCGTGGTCCTCTGCTGCCAAGCCACACTGTCCCTGCAGGCTCTG
1.065101391036495 AGTGCCTGCTATGTGCCCTTGGCTGTATGCAGCCATCTCAGGGTGTGTGGATGAGGGTGTGTCCGAAAGGCTGAGCTGCTGTTCCCGGCTGGCCTGAGTCACGCTGCTTCTGGGTGGAAAAGGAGACTCACTCCCTGCCAACTGTCCCATTGGAAAGTGCAGCAAGTCGCTGAGAAGTGGGGCCGGCCCAGCCAAGGCCA
1.640749053798674 CTCCAGGCAGTTCTGGCCCATGGGTGCCTGCAGAGGTAGGAAGAGTGCTTGGAGGCCCCACCTCTGCCTGAAGAAGAACCGAGGACACTGTTCCTCATCCCTGCTTTCTTTTCTCTCGTCTTCACTGGGGACTGTCTGTTCTGGGCACTCATGACCTCCCGGCTTCGCGGTGCCCAGATGTGGGCAGTGACATTAGTCTG
1.129832102206859 TTTGGACGTTCTCCATGGCCTGGTGCCTCTCCCTGGCAGGGCAGCTGTTCCTCCCCTGTGACTCACCCAGGCAGGAGTGGAGGCTCCAGGGTCGGGCAGCAGCGCCGTCGCTGGGGGAGCTGCGAAGCGTCCGTTTCCCCAGACAGCTGACAGCTGAGAGCCTCACAGAGACACACAGTGTGTGGCAACCTCACACAGGC
1.452195812990587 TGATGTGATGGAGCCAGCTGGGTGCGTCTCTTCACAACTCTGTTCCGTGACATCATGTTGGCAGCTTGAAGTCAACCATGGTGGAAGTATTTACACTATGGAAATTTGCAAACACCAGGGTTTCTATCTTCCTCCTTTGGAGAGCCAGTGACTCAAAATATGCCAGCACACCACTGCTCAGCCTCTGTGTTTTGTAGCCC
1.516694767672035 CATATATGCCTGGGAGTGAAGTTTCTGGATCACATGGTGACTCTGCGTTTAGCCTTTGGTATATGCCCGGGAGTGAAGTTGCCGGATCATATGGTGACTCTGCGTTTAGCTTTCGGGACCTGCCTGGGAGTGCTGTTGCCAGATCATATAGTGACTCTGCATTTAGCCTTTTGAGGAACTGCTGGACTGTTTTCCACAGT
1.770856539970467 ACCTGCAGGCTGCTAGCCCTGACATCCTGCGGGAGGGAAGGAGGCGTGCTTGGGTGTGTGTGTGTGTGGTGGGTTGCAAGGTGCTTTGGGGAAACTCTATTTCAGGAGCCCTTTACTGGGTGCAGGTCAGCAGGGGAAGTGAAAAGGCCACTGGGCGACAGTGGTTACCCCTTACCAGCTGCTTGCTCATGCCAGGCACG
0.9175670387995669 ATTGACCAGCTCTCTCCCGCTCCGTTTCCCCTCCGGACTCTGGCAGGGCCTTTCCTTGGCTCGGTGCCCAGCTGCCTGCTCACCCGGCCTGGCAGACTCTGCATCTGCTCCACTTCACAGGCCGGGGAGGCTGGCAGCACGCCAGGGCTGGGCTCACGTCAGCGGCTGTGTAGGGAAGGGAGGGCAGTCTCCCGAGAGCC
1.606106400830368 GGCTGTGATGGACCCGGGACCGTGGCAAGCTGGGAGTTGCCAGGTTCATTTCTCCCAGCCTTTGAGGGACTGTGATAGTTCATGCCTTGGTCTGACCTGACCCCTAGTGGCAGGAGGGGCCACAGCTATCCCTGGCAGTCTTTGTGGCCCCGCAGTACCTGCAGGGAGGTACCTGTAAGCCGGTCCCCCTAGCAGTGCCA
1.45555606622894 CCTGCCTCTCTCCTCAGGGCAGCCAGCCGTCCACGACCTCACCCTTCAAGCAGGAGGTGTTTGTCTACAGCCCGTCCCCGAGCAGCGAGAGCCCCAGCCTGGGGGCAGCTGCCACCCCGATCATCATGAGCCGGAGTCCCACAGGTCAGTGGCATCTGGTGGTGTGTGTGACGTCACCAGGAGGGCAGGCTGTGCCCTGT
1.193905848676982 CCCCTGCCTGCTTTGAGGGGGCACGTGGTTTGAGCAGAGTGGCCGTGGGTCCAGCTCGCCCCCATCAAGGCCTGGATTTCTGCTGGGGAAGTCACCAGAGACCCATCTGAGCTCCCAGCCCTCTCCCCACATGGGGCTTCAGGGGTCAGAGTCACAGCTGGAGCCAAGAGGAGGGGTACAACCGAACCCACTCTGTGTTC
1.328077619636623 CTGCGGAACCACAGGGCGACATCCAGCTGCGGGCGGCGAAGGGAATTGGAGCGTGGACCTCTCCAGGCTTTTCATTCGCTGGTTCTGCCGGTGTCCCGCCTTTTCCATCTCCTCATTGGCTGTCGCCTCCGGGCCTGCGACTTTGCTCAGCCCCTCCGGGGAGTGGAATCGGGTGTGCAACAGGCCGTGAGGTCCGGCTT
1.686103970824432 TCTCCTACACAGGGTGTCTGACACAGCTCTACTTCCTGGTCTCCTTGGTGGCCCTGGACAACCTCAACCTGGCCGTGATGGCGTATGATCGCTATGTGGCCATCTGCCGTCCCCTCCACTATGTCACAGCCATGATCCCTGGGCTCTGTATCTTGCTCCTCTCCTTGTGTTGGGTGTTCTCTGCCCTCTATGGCCTCATC
1.504784640882811 GGGTTGGTGGCACGGTCTTAACTGGTCTCACTAAGATCTGGAAAGCAGAAGAGGCAGGAGTGAATGAGAAGCCATCCGGGCAGGCTGACTGTGCAGTGTTTAGGTGGGACTTTAAAAGCAAGAAGCCGGCATTATCAGCAGTTCCTCAGCCTCTGGTGAGCACTGACTAGGGAAGTCAAGGGAAAATGTACTCACAATCC
1.797375417264125 ATCTGGCCATCTGCCAGTCCCTCACCTACAGCAGCCGCATGAGCTGGGGAATCCAGCAAGCCCTGGTGGGCATGTCATGTGTCTTTTCCTTCACCAATGCACTGACCCAAACTGTTGCCCTGTCTCCTCTTAACTTCTGTGGCCCCAATGTGATCAATCACTTCTACTGTGACCTCCCACAGCCCTTCCAGCTCTCCTGC
1.547227774566393 GAAGTCCACAAAGAACAGCTCCACATGGGGTGTGAGGCTCGGCTGCCACGATCCCTGAACCTACTGTCCTGGAGCAAATCTGCTGGCAATTCCAGCCCTTCCTCTCCTCCCCCAGGTTCTGGGTGAGGTGGGACCTCAGAGGTTGAGGCAGGCCTGGAGCTCAGGGAAGGGCACCCGCAGCTCCACTTCACTGCTCACAG
1.485717751506025 AGCTGCTATTTCTGCTTCAGCGAAAGCCACGATCCCAGCACACAGGCACGCGCTACTGTGAGGTCAGGACGAGGAAAAGAGCCAGGACCTTTCACCCAGATCGCGGCGGCCCAGCAGGACTTGCCCGGAGTGTCTCATGCAGACTTTTGTGTGTGTGAAGAAAAGCTTTTTGTCTTGCTCTGGGCACCCTGAGGCCAAAT
1.541390023932197 AGGTTTACACCAGCTGTTTGCCAAGTAACAAAATCCAGGATGTTTCCCACTCAGACAAATTGACAACTGCCCCTCAGTTCAGACACCCACTGAGCACTGAGCACGAGGGTGCACTCTGCTTCTAGGCCAGCAGAGCCGGACTCCACCATCCCTCAAAGCCTCTCTGCACAGAGTCGGTGACTCCGCCTGCAGCGCCAGAC
1.408369624750026 AGAACAGGGGCTTAAGGCCAACAGGGCTGGACCAGCCAGAGGCTGGCTGGGCCCAGGGGATACACCCGCCCAGAATGGGTGGAGACCTGCCTCTGCGCCTGGCGCCATGGCCCCTGGGCCCCGTCTTTATCTGTGGAATGCGCACAAAGCTTGCTGTTCCGCCCATCTCACTGGGGGTTGTGAATACCAGGGACAAAGGG
1.889877296303724 CCTCCTTCTCTGGTCCACCCTGGTGTCCTGCTCAGATGGACATGCCCAGCCTCCTCCCCTCCTGCCCCTCTGGGGCACCAGAGCTTCTTAAGGCAGGGACAGTGTGGGTGGAGCTCAAAGCGGGGTGGCCCCTCCCTTCCTCCCTCCTTCCTTCCTTTCTCTCCCTCCGCCCTCCTTCCTCCTCCCTTCCTCCCTCTCCC
1.404552429032191 CCCTCCTCCCAGACTCCGCACCGGGCGGGGGCGGCACCCACCGAAGTAGAAGCCTTCGTGTTGGTACTTGGGGTTGAAGAAGGCCCCCTTGGCGTGCGCGTTGACGTCGGCGCCGGCGGCGATGAGCAGGGCTGCGATGTCCCCCTGCCGCCGCTCGATGGCGATGTTCAGCGCCGTCTGCCCTGCGGAGCGGGCGGGGA
1.673663501081787 CTCCTCCGTCTCCTATGCTGGCTCCTTGCTCTCTGTGGCCCATGGGTGACGTATCTGAGGCCTTTTGCTCTTTGCCCACTGTATGGCTTCCCGCTGTCCACCCCCCTGCTGCCACCCTGGAATCTGTCTCCAGCCTGCCCCCTCCTCGTGGCCTGCAAATAAAGCTCATGGCCTCCCCATCAACCTGATACTGCACTGGT
1.020083492382947 CTGAGGGAACACGGAGGAAGCCTGTTAGGGCCGAGCCAGGCAGAGCCTGTCTGCCTGTGTCCTGCCTCCTGGCCCCAGAGGGTGCCCCCATGCTGAGCACACACCCTGGCCAGCTCTGAGCCCAAATGGCCTTGCCCAGCCCTCCCGGGAGCCCTCGGAGATGGACACTGTCATTATCACCTACGTTTCACAGATGGTCT
1.335990964855325 CTCATTGCAGGCAGAGGGATGGCTGGAATGAGGCGTCAGAGGCAGAACTGGCTGAGCCACCTGCCCTCGGCGCCAGGCAGGCCACGCCCACCAGCCACAGCTGCAGCACCCGCCCACCCACGTGGCCCGTGTGAGTCACCCCCACACCCACACAGCAGCCTCATCCCCACCGGAGAAAAGGCAGGGGAGGCCGCAGGTGC
1.135561973263784 GTGGGTGGAGTGAGTCAGGATGGCCGTGTGTGTCTCGCGTCACTCAGGAACTGCACACCTGCTCCCCGGGGCGAGATGTGGACAAGACACAGCTGGGACAGAGCAGGAAGTCTCTGCTGACGCGGCCGCAGCTGGCGCCTGATGGGCAGGGAAATCCCCAGCTGTGAGCCTCTCAATCCCTCATCATCACAACCTGCCTG
1.145164056575115 CAGGGCTGAGGAGGCAGGGCAGCCCATACAAGGAGGCAGGGCGGGGCTGGGCTGCGTCCCCTGGGGCGCTGAGGACAGGTGCCTGGGCTGGAGGTGCTGGCACAGCCGCCTGCACGGGCCCAGTGAGCCGTCAGCCATCAGCCGTCAGCCGTGACAGCATGAGTGAGGTGCTCAAGTCAGCCCGTGACTATGTGCTCATG
0.9199275908304639 ACTGTATACAAGGGGCACAGCCCAGCCAGCCCAGACCTGTCCAGGTGCCACTGGTGCCTGCCGGGCCTGGGCAGGGCAGCCCCGGGAGTGATACGGAGGCCCCAGACCCTGCCCTGAGGAGCTCACAAGGGGCAACATAGGGTAGGGCTGAGAGCAGGGCCACGAGTGAGACTGCCTGGGCCAGGTCCTGGCTCTGCCAC
1.763879069700256 ATGACCACGAGGTAAGCGGGCTCTGAGGAGACCCACTGGGGCCCAGGGAACCCACCTTCTCTATCATGACGGCATAGATGCCCATCTGCTGGAAACCGCGGGTGTAGTAGAGCATGTTGGTCCAGCCCAAGGCCAGGGAGAATACCATGGAAGCCACATACTCCTTGAGGTGGCTGAAGTACAGCACCACGGTGGCCAGC
1.389971969354855 CCACTCTCTGGGGCACTGCCAGTCACTTGTGGCAAAGGGAAGGGTGTGTGGCAAGTAGCTCACTGGCTCCTAAAGACCTCTGCCCAGGAGTGACAGGCATTCCCTGTGCACGTCCCACTGGCCGAAGCGGATCGGGGGGAAGGTGCAGCCCTGCCGTGGGCTCATAGCATCGGGATACTGACGGCCAGCAAAGGAGCCCC
1.517774767945525 GAAACCTACAGACTGGGCTCATGGTCACAGAGAAGGGAGAGCCCACCTGGGGTCTGGGCGGCTGTGGAGGAGCAGGACAGCATGGCTGAGGCCCCTACCCAAGGGCTCAGGGCTGTGCTTACACTGGGCCCATCCATGCCCCGTGTCTGGGACAGGCCAGGGGCACTGGACCCTGATCCTGGCCTCTGGGAACCCTCCAC
1.008099910692894 GGGCGGGGCAGGGGCGGGGAGTCGCCTGCCAATCTTTCAGCCACACCCAACATGGAGGCTTCTCGTCTTCCCACTGGCCGGGGAAGGCGAGCTTCCACGCAACCTCTCGGCGGGCCCCGGCTATAGGCGGAGAGGCGGCGGAAGGCGGGACCTAAAGGGGGCCCCGCCCCACGGGCTCTGATTTCCGCCCAATGGAGGGC
1.650742663700549 CTGTCTGGCCCAGGCCTACATGAACTTTTACTACAAAAGCACTGAGGGCTGGAGCATTGGCAACGTGCTCCTGGACTTCACCGGGGGCAGCTTCAGCCTCCTGCAGATGTTCCTCCAGTCCTACAACAACGGTGAGTCAGCCAGCGGGCTGCTGGCCACCCTGCGGCTGGGGCATCGGGCGGGGCCAGCCTTCCCGGGAC
1.192161272162718 CAGAAAGAGACCGGGGTATGACCAGCTGAACTAGCACCCAGGGACCCAGTGTACCCAGCCTCTGGCCTCGTGCCCTGCTGGGGAAGGCCTCACCCAGCGAAGGCCGGAGAAGCGGTTGGGCCCTGGCACACAGGGCTGGCTCAGTGTGCGGACAGAGGAGACCACTCTGCTCCTGGGGCCAGAGGCCATTCAATAGCCTG
0.7280214691055364 TCGCTGCTTAACAAAGGCCGCCCCGCTCGGCCCGCCCCCTCATGAATAGTTAACAAACCTCCAGCCAATCACTGGCCGGAGCGCCACTCCGCTTTCGGAAGTCCCTGCGCGTGCGCAGAAAAGCGGGCAGAGGGCGGAGCGTGTCCGGGGCGCCCACGGCGCAGGCGCGGAGGGCGGGGCGGGATCTGGGCGCGTGCGCA
1.672745025588434 GTGGACGACCCCAGCTCAGCCCCTCACACCCAAAACGTGCCCTACGGACCAGAGCGATGCAATTGCCCCTCTCCTCCAGCAGAGGGAGACTCCACCCACAGCACAGGGCAGGGTTGGGGCCTGAATGATAGAGGAGAGTGGAGGTGGGAAGGGTTGGTGGAGGGGCCAACAAGGAATCTTGGTCCCCTGACCCTGGGTGC
1.801987950622922 AGGTAGGGATCCATGTGGAGCTCACTTTTCTTGACCCCCTCCCAGGAACGTGGTCCTGGTATGGGACACAATTTTCCAGGTTTTAACAAAAGTCACCCCTGGGTCCCAATGGACTCCTCCAGTGGGGCTGTCTTGTGTGCACAGGGAGAGGAATGAGGGAAGAGGCTGCCAGAAACCTGGGAAAGGGACCTGCCGGGATG
1.700062683770502 GAGGAGCAAGGGCTTCCCCACCCTACTCTGAGCAACCCTTGGGTCGCCAAAGCGCGGATGGAAAGGATGCGGCAGAGGCCGCAAGACTCGGCTTCACGGAGAGAAACAGGCAAGAACACGCGCTCTCCTCTCCCAGAGGCACCCCCAGCTTCAGTCGCTGGCCACTCTGCTGGGGTCCACACCTCTCCTGGGCCATCTGT
1.366036071239151 CTTAGTCCCCCCATGGAGCGGCTGAGAACACTGCGTCGTCCCTGCCTCAGGGCTGCCTCCCTCGTTCTTCAGGGAGAAGGGAGCCGCACAGGGTAGGCCTCTCTGGACAGGCACTTCACACTCCAGCCAGCATGTGCCAAAGGGGGTCCCTCTGCCTCACCTTCGGCTGGTGCCCCAAGGACTCAGAACCGCACAGCAGG
1.921853670101433 TGGCAGTCGCTGTCCTTGGAGCACGCGCCATCAGGAATGCCTTCATTCTGCCAGGAGAGAAGGGGCACCTGGATGGGGGGGTTCCCCCAGCTCAGAGCCGGGTCCCACTCCAGGAGATAGAATAGGGGTTCTTCTTCGGCCTGGCCCACACACACTCTGAGAACCTACTTCTCCCCCATATAATGCAGGAACCACACCCG
1.709269296819935 GGCGGCCTTTTATTGACGCGGTTGAGAAAGCCTCGGCTGGGAGCTGGGCGGCGGCGAGCACCGGAACCTCAGACCGCGACCTTGCCGCTACCTCTTCTTCCTCCTCCTCCTCCTCCTCCCCTGACACAGTGACACCCCTGCAACCTACTCCCCAGCCACCGGTCTGGGAGCGCAGCCCCCCGGATGCGCAGGACCGCCCT
1.957027677526575 TCTGGGTAGCAGAGTGGCCCTATGGCATGACTCACTGTTCTTGGATCTATGCAAGCTCTACCATTTCCTGTCCCAGGCAGAGGGTGAAAAGGAAATGAGAAAGGCCTAGCACCTAAAAGGCAGCTTGTAGAAGAAAGACCGGCTGGGAAAGTACCCCATGTGCTTTCTGTTCTCCTTTGCCCTGGTACAGGATAGTGAGT
1.097645745215076 CAAGCCGCCAGTTTTCCGTCCCGTCCCGGCCCCGGCCCTGGCGAGGTGCGCATGCGCAGGGCCGGGAGCTAGGACCCCGCGGCAGGCGGGCGCGTCCGCGTCGCACGGAAGTCTCGCGATGTTTGCGTTTGAACCTCTTGGCGGGTGCCGGCCATGGCGGCTTCGCTCCCGGGACCTGGGAGCCGGCTTTTCCGCACATA
1.224454342843849 GACCGGCCCAGCCTGACCGTGACCCCAAAGCGCTGGAAGCTGCGAGCTCGCCCAAGCCTAACCGTGACCCCAAGACGCCTGGGGCTGCGAGCTCGGCCCCCGCAGAAGTGCAGCACACCCTGCGGCCCGCTCCGACTTCCGCCCTTCCCCAGCCGCGACTCCGGCCGCCTCAGCCCGGACCTCAGCGTGTGCGGCCAGCC
1.877613604462862 AGATTGAGATGAGACCAAGATGCAGAAGACGCCAACTGCAGGGTGGTGAGAAGAGCGAATCAGTCCAAACCGACTCACAGATGACCTCTTGAGGACGGGGTGACCAATCCTGCAGTTCATGATCAGGACAGAAGCAACCGGCTGAGGGTCATCACACTGAATGTTTGGAGAGGGAGGCTGTTAAAAGAGCAGATGACATT
1.579921929211027 TGAGACAGCTGGACACCGACGACCAGGCTCACTAGCGTTTTTGAAAGAGAAGCGTTTGCTTGCTATGTACACTAGGGGGCGATGTAGGGCAAGCCATGCGTGCTGTATCTCTACTACCCCCAGTAGCTGGCTGGGAGGTTGGTTCTTGGCTGTAATTAATTCCCTGCTGGAAACAGCTGTGCCTGCTTGTTAGCCTGGAT
1.472535733903944 CCGCATGCTGGGGCTGTGGCCCTCTTTCCTCCCTCCGCCTCCATTCTGTCAGCACGTGCTACGTATGAGCTGTCACTTTAAACTGTTACTCCCGTCATGGCCCAGCCCACACCGCCTCTCACCTGAGTGGTTACAAAGGGAGCAAGTGCCGCTTCTCTTCTCAGCTAAGCAGCAAGAAGGATCCTGCTAAGCTGCATGAG
1.662157646667526 ATGATGTGGCTACAGTGGGTTGGGACAGACTAAAGAGCACAGGAAGGTGGGGCAGAAATGAGATACCGTCTCCACTTCCTCAACTCCTATCACTCTACATTTTAATACATTATGAAATATATTCACGTATCGGCATGGCTTACAGAATAATAAGAAAGTCTGCACCTGTGCGTCCATCCGCCCACCCACAACTGAACCCA
1.460131869432103 ATTTTAAGAGAGACAATGTGAGTGAGAGGCACACGTCATTCTCAAGCAGGAGCACAGCCCCTGCCTTTTTCTAGGCCCGAGTTGGCCAGCCAGCGCACTTCCTGCCCCATGCAGCAGGCCCGTGGTCTCAGGCCCCACTCTCTGCAGCAGGAACCCAGAAGTGCCTCCCACCACATCCTCCTCCCCAGCGTGTTCAAGCC
2.659669616717827 CAGCCTGGAGTGCAGTGGTGTGATCACAGTTCACTGCAGCCTCAACTTCCTGGGCTCAAGTGGTTTTCCTGCCTCAGCCTTTCGAGTAGCTGGGACTATAGGCCTGTGCCACCAGACCTGACTAATTTTTTTTTTTTTTTTTTTTTTTGGTAGAGGCGAGGTTTCACTGTGTTGTTCAAGCTGGTCTTGAACTCCTAGGT
1.059284709607169 GTCCCTGAGCCCCCTCAGCACCCTGTGGTCTGTCTGGCTCTGACCAAACCCTGAGCCCCCTCAGCATCCTGTGGTCTGTCTGGCTGTGACCAAATTCTGTCTGGATCAGGGTGATCTGTGATTCAGTTTGTCTGCCCTGAACTGTGATGTGATCTGAGTCACACACAACACCCCCAGCCACAGAGCCCAGCTCAGCGCAG
1.333475378377218 AGGCGAGGGCTGGCCCTCCCTCCCAATCCCCCCTCCCGTGTTGTCTGACTTACAGACATAGCTACACCAGTGTCTGTCACCACACTACCCACAGGACCACCTCTCTGAGCTGTCCCCAGCCACGGAGGCCTGCTGAGTCAGACCGAGATCCCCCTCCATCCTGTCAGCCACCACTGTCTCCCCTCAACCCTCTGTCTCCC
1.647927496577149 AATGAGTCAGGGGTGAAGACTGACTTGGGGACAGCAGGCCACAGGGTAAGAGGGCATGATGGGGCTGGTGGTCAGGGTGTGGACAGTTCCAGGGTTTCAGTGTCTGTCTGCACCCAATGCTTCTAAAATCTCCCTTAGACAACTGCTATTATTCCGTCTGCTGCCACAAATAAGAAGTAGGCATCACCAGAGTGGCTGGC
1.277606571244008 CGCACCACTGAGAGCCCGCCCCTCACGGCCGCCGGCTAGAGCGCCGCTGCCACTGGCCACAGAGGAGCCGCCGCAGCTACCTAGAGCGTCGCCGGCTTCGGCCCAGAAGGCCGCCCTTAGCGCCGCCGCCCCCTGGTGGCGGGAGAAAACCGGGCCGGCTGCGCGGGCGGGACCTGGGGAGGAGAAGGCGGGACTGAGCG
1.587505288918579 CCTTCTCACTCCCTCGACTAGCTCATCACACGCATGGCTTCCAACTCCACGGCCGTCCACACGCTGAGGGCCCCCGCGTCTCCATTTCCAGTTCTCGCCTCTCCCTCGAGCTCCAGATGCGCATGTCCAGCTGCCTCCTGGACATCTTCCTTTGAATGTAGCAAGGCGGGTCCATTCCTGCGTTCGCTCCCTCCCTGATC
2.100136164005241 GGGGCCTTGAGCACCAGGCTGAGCACCGTGGGGACCATGGCAGGGTTCTGAGAGGGGCATGGTCAGGTGGGTGCTCAGAAAGATCACTCGGGCAGCCAGGGAGGGCATGGACCAGAGGGCCAAGGACCAAGGCTAGAAGACCAGTGAGGAGGTGAGAGATGGCGAGGCTGCATTTGAGGGGCTCCAGTGGTGGGGAGGAA
1.331219250607777 CCCTCCCCATGCTTAAAGCTCTCAGGGCCTCACAGAGCTGGCAGGATGCAGTCAGCAAAGACCTCAGGGGAGGGATTCCCAGCCCTCATGCTGTGGCCCGGACAGTGTTTCCAGCATCATCTTTCACTAACCACGGCCCTCCTCTGCCCACTGGAGGCTTCAGCCAGACTCCACTTCTCCCCAGACTCAGAGTACACGCC
1.726801152614839 GCCCTTCCCCCTGCTTGCGCTGGACTCTGCATGTTCTCAGGAGAAGGAAGTGAGTGAACTCCTGACCCTCCATCCTTCCTGTCTGCTGGTAACTTCCTCCGAACCCACACAGCAACTGAGAACATGGGTCTCAGGGAGACCCAGAGTACGCATGGTGAAGCGCCTGCTCTACCGCTCGTTCCCCATCCCCTTGCTTTGAC
1.104067833824846 TTGTGCGGCTGCTGTTGTGATTGCTCGGGACACGCTGAGGCCCAGATGGATGCGCGGGCGGGCGGAAGGCGGCCGCGAGGGCTGACGTCAGGCTCCCCATCCCTCCCTCCCGCCTGGATCAAATTCAGGTGACTAAGCGCGTCTGCGAGGGAGGCGGCCGGCCGGGGAGGCCCGAGGTTCCTGCCGCGTGTCCGGGAGAC
1.421410660883972 CTCCCATGCCTGGGCCGCCTCACTGGAGCTGTGTTTATGATCCTGGCGAGTATCTGGATGGCCCTGGCAACGGGTGCCCTCCGCAGCTCCCGCCCCCACCCGGGATGACTCAGTCCCCTTGAGGGAGGCCCAGGCGTCTGGTGCCAAGTCATGCTTGACGACTCCTGCTGTGAGGACGCCCGCTCCCACCATCCCTGGGG
0.9968948931311541 CTCCCACACTCCTGTGCCCGCCCTGCGGACACCACCAAGGCCCGGTCCTGTGGCCTGTGACACAGCCTTCTCTGCACAGCCCTGCAACGCCAAGACTTGAGCACACCCCCTCCCCTGACAGGCACACGCCCGTGTCCGCGTGACCCGCCCTCACACACCACTCCATCCTGTCCTGCACCCCCCACGCAGACACAGGCACA
0.9737584308889384 ATCGCCGAGCTCAGCCCGCGGGCGCCGCGGCTCCGGGCAGCGCTCGCTGCCCCGCCCACCGCCGCGCCCGGCCGGCGCTCATTGGTCGGAGCGAACGGCCCCGCCAGCGCCGCCCAATCGGAGCCCGGGACTCCCGCCCCCTCCTGGACTAAGGGACCGCGGTGGGCGGCGCGGTAGGGGCCCTCCCTCCCCTGCGGCGG
1.395286884925583 CCTGCTCACAGCCTCCTTCCCCCATTTCCCCCCACACTGCTCTGCCGAGGCGCCCCCCGGGCTCATGCCCAGCTGCCCACTGCCAATGTCAGCTGGGCGGTGGGGGTGGGCACGAAGTCTCGGCACCCTGCCTGGTACACCGTGTGCTGGGCGGGAAGGCTCAGCTCTGCAAGGGTTGACAGTTGCTGTGTGTGAATATG
1.467967414508162 TGAGTTTCACAGAGACACTGCTGATGAGGCCGCTCGAGGTCTGGTAGCCCTTCTCATAGAGAAACACCCACCTGTGCGGGTGGGGACAGAGGGGGAGTTGTGGTTGTGGCACCAGCTGGACCTGTCACACGCTTTCCCACGCCCTCCCCAGATGTGCCTCTGAGCCACCATCTGCTCCTAAAGCTCCTGTCTTGGGCTAG
1.228270013898254 TTCTCTTGAGACGTCGGAAGCTCTGGCTGTGCCAGGTGTTACGTGCTGCGGCAACAATGGGCAGAAGCTGAGCAGGGGCCGCCCCAGGCGTGAGGCCTGCCGGGGTGACGACATCTGTCACCCGTGCTCACTGCCTCTGCCTTGGGTCCCGCCCCGTCCCCCCTTCCCATCCCTGCGGCCTCTTCACAGCTGTCCTGCCT
1.438587019102714 AGACCAAGTCCAGGCTGGGTCAGGGGTTCGGTTTGCCGCTGTGGGTTCCTGGCTGAGAGGTCAGTGCAGTACTGAGCAGTGGCCAGACGAGGGCGCAAGAGACAGCAGGCACCACAGCCTGAGCAGGAGCTGGAAGCCTGGGCCTGCAGCCCTGGGGGTTGCTGGTGATGACGGACTCTGCCTTCCTTCCACCCTCTGCT
1.474662864703802 AGAGCAGCTCTTGGCCCCTGGAAGGCAACAGACTGCAGGCCAGCCTCGCCCATGGACAAATAAATTCCCAAAGATAGATGGGGCGGGGCTGGTGGGGCCACCCAGGCCCAGCCCCACTGCCCCTCCTGGCTCTGCGTGGGCCTTGTTGGGCCTCCGGAAACAGGAGTTGTTGGCAGGAAACCACAGGCCACCCGTCACAG
1.044689883704274 CAGTGCAAGACCCTGCGGACACCTTGGGACCCAGCCACCAGAGCCCCTTCACACCCTCCACTTGGTGATCCGAGAACGCCTCCCCGATGTGCAGACAGAGAGGCTCTGCGCTCCACACCCACAGCGTCCACTGCAGCCCAGGAGCAGAGGCGGGCGGGGAGGCAGGCTGGAGGCGGGACGGGGCCTCCCACTCACCGTGC
1.35549180874753 TAAGTTCAACAGGCTCCCTGGCCAGCCCTTGCTCACCAGCTGGTAGAAGTTGATGTGAGGTCCCTCGGCGTCATACACAAACCACCAGGTGGCGGCAGCCACTGTGGCCAGGCCTACGTACACTGCGGGGAAGGGAGGAGACCGGCTGTAGAGAATGGCGGTGGTTTTCTGGCGTCTGTTTCCCCTGCCTAATAATTCCC
0.8587946399441265 GAACTGGCCGCAGCGCACAGGCTGATCCCCCTGCCGCCTGCGGAGCCGGGGCGGTCACCAGGAGGACCTCGGCTCCGCCCCCGAGAGGGGTCCGCCTCTTGGCCCCGCCCCTAGGAGGGGGCTCCGCCTCTTGGCCCCGCCCCCAGAAGGGCTCCGCCTCCTGGCCCCGCCCCGGGAGAGGCTCCGCCTCCTGGCCCGCC
1.591852360336012 TTGTGGTTTCCAACAATAACGACCTTGCAGGTGCACAGACTCCTGGGGTGGGGAGAACACATGTCTCTGGGGTGTCCCTTCTGCCCTCAGGCCTGACCCACCCTGCCACCCAGCTTGTGGCCAGGAGCCCGCCCCAGCCTCTTCTGCGACAAGGAAGGATGACTTGGTGTCTGTGACCTCACTAAAGACTCACAAACAAC
1.089144533092186 CGAGGCCATGTCCGTGCTGGGACCTTACCCGACGGCAGTGGCGGCGGCGGCCCCGGCCCGCGCCAGGATGCTGCGCCCGGGACTCCCTCCCCGGGGCGGGGCGGCGCGGGGCCCGCCCCCCATCACACCCCTTCCGGCCGCCCTCCGCGCCCCGGGGCGCACCGCCTGGGTCCCCCGCCCATTCTGCAGAGGGGAAACTG
1.35931749869681 CGCTCCCGAGCTCCACCCGCCCCAGGAGGGCCAGGAGAAGTGGCAGCGGGTCAGAGGAGGAAGTCGCAGGAAGGCAGAAACCACTCGCCCCGCCAAAAGGAGGAGCTAAGAGAACAGCCTGATTGCCGCTCCCTCCAGCTTGAGAGACCCAGACAGCCTCACCCCAGCCCTTATCTGCCTCCCACCACGAGCTGGGCTCT
1.540080965580453 GGGGCTGGGAAAGGGCCCGTGGCCTCAGCAGACAAGTCCCTCCTGGGTGGCTGGGAGATTCTTAAGGGAAATGCCATTTGATCTGTATTCTTAGAAACAGGAAGTAGCAGCTTCCTGTAAGCAAACTGACCTCATCCCCAAGCCCTGGGATGGCCCCTGGGTCCAACCACTTCCAAAGGGATGTGGCTACCTCTCACTCA
1.289505555438221 AGCACCCAGTCCTGCTGAGTCTCAGGTTTCTCTCTGGGCTGAGGGATAGTGAGGGCTGAGGCTGGGTCCAGACCCTGCCTGGGGCTCCCCCGAAAGCAGTCTGGGGCTTTGGGGGATGTGTCAGACTCTGTCGGGCTGGAACAAATGGGCCTCAAAGGTTGGTTAAGTGCAGCCCCTGCCAAGAAGGCACGCTTCTGTAA
1.368022233497872 CCGCTTTACTCGGAGTCTGGGGTGTGGAGGGGCGTGGGTGGCGCTATCTCGTCTACCTTCCAGGTTGGCTGTGAGTCTGAGCACGCAGCGGGGCCTCCCTCCCAAGCACTAAGACTTGTTTCCTGTGAGTCCCCTCTTGGGAAACTCCTTACTGGGAGGCCTCCTCGGGTCTGAGGGATGAAGAAGGTGGGGCCTTCTCT
1.515598402533149 TTGTGCAGGAGGGCGGCGCTCTTGCTACGGCGCTGCTTGGCATAGCTCTGCTGCAGTTCGCTCTCTGTGCTGGAGATCAGCTTCTGGGTCACAGGGTTCGATTCAGCAGTGGCTTGGTCACAGCGTGCAGGCCGGGACTGCAAACCCAAGACCACCATTACAGAGGTCTAGCCTTCTTACAGTGGTGGTATGGGGTGGGG
1.824030459786793 CAGGTGGACGACTCTGGCCGAAACTCGGTGGCCCTTCTCTCTCTCTAAAGCTCCCTGAGTTTTAGCAAGAGCCACAGTCACCCAGCTAGAGACATGGTTAGCAGCTAGATGTGCTGATGCCCCTGGGTTCTGGGCAGTGCAGGTGAGCGAGGTGGTGTGCCACCTCTGGAGTCTACTGGACTAATGGTGCACTCCCTTCT
1.722311893119183 CCCAAGACACGGCAACATCGGGCAGCCCACAGGCAGTGACAGTGAATTTGTAGCCCCATTCGTTGTGACTGCTGTCAGAGTGAAAGAGGAACTGCAACCGAGGACCGGCCTTGAAGGTCACTTTCTAGAGACAAACAGAAATCATGTGGTCAGACAGATTAGAGGAGGAGTGCTTCAGAAATCAGCATGCTCTTCATGAC
-1.070267689616061 CCCACACCCCTTGTTGCACCAGAGGCCTGCCCTGACCCACCCTCATTCTGCCCTCCTGCCCCTAGACCACCCAGCAGTCCTGGCTCGGAGAAGTGGTTAGAACCAAAGATTTCCTTGACCTGAAGAGACTCCCCAGGGAACTGAAGGCAGAAAGGGTGCTGCCAGCCCCACGACCTGCAGCTGCTGTGTCCTGCCCATGC
-0.8041948492070533 GACTTTCCCCTTCCAGGAAGGAGATTGGGTGGGCCTTCCCCTCCTGCCTCTTTCTCCCTTCCCTAGGTTTAGGGGCTGCTGGGGACACGTGAACTGCCCCGAAGCTGTCAGCTCACATATGAGAAAGAGAGTGGGTTGTTTCGGCTGCTGGCCCTGTGGGGTTGGAGGGAAGGACAACAGGGAGGGGTCCTGGCTCTGGG
-0.732498261794526 CCCTCTGGCAGCCTTTGGGGAGAGCAGACTGGGAGAAGAAAGAGCAGGTGCCCAAGCACTGTGTGCACACTCTACCAACAATGAGGCAGCATGGCCCCCCGAGGCCCTGGGGCCCAGGGAGAAGCGGGGTGGCTGACAGATACACAAGCTGCTGTGCAGCAAACTGAAGGAGGACAAAAGAAAACAAGGCAAAAGGAAAT
-0.9434881527464455 CAACAGACTCTGCGTTGGCTGGGTGGGTACACGCCCCTGGGGTTGCAGAGGCCACGCCTTGTGCCTGCCATCTATGGGGCAACTTTCAGGTGAGTGCCAGGGAAGGATGAAGGGAGGGCAGGAGGGAGCCTTTGCACCTGGCTGTTTACACATAGGTGTGGACACCCAGGGAGCCCGTGATCTCTTTCTGCCTCTCAACG
-0.6161936105574106 GGTAAGGGTCCCCAGAAGTAGAGGATGGGGGTAAGGAGCCCCCAAGAGAAAAGGCAAAGAGAAGAGAGGTGGGAGGTGACAAATGACACTGCATCCCTCTTCCCTTGTGGGAGCCAGCCTTTGTGCCTTCCATCAGCTGCAGGTAGAAGCCAGGTGAGAGGCCACTGGAGCCCTATGGGCCATCAAGGCAGGAAGCATCT
-1.006505513933019 TGTGGGTGACGTCTGACCGGGCGCTGTGGGGAGCAGGCGGAGTGTGCGGGGGCCGGGGTGTGGGTGACGTCTGACCGGGTGCTGCGGGGAGCAGGTGGAGTGTGCGGGGGCCGGGGTGTGGGTGAGTTCTGACCGGGTGCTGCGGGGAGCAGGTGGAGTGTGCGGGGGAGGCGGGGTGTGGGTGACGTCTGACCGGGTGC
-0.4906114930828154 CTTATAAGTGAGAGCTGAATGATGAGAACATTTGGACACATTGTGGGGGAACAACACACACTGGGGCCTATTGAGGACGCAGGGTTGTGGAGAGCATCAGAAAGAACAGCCAATGGGTGCTGGGCTTAATACTTGGGTGATGGTTTGATCTATGCATCAAACTACCATGGTATATATTTACCTATGTAACAAACCTGCAC
-0.1171915947555357 CCAGCTACTAGGGAGGCTGAGGCAGGCGAATCGCTTGAACCCGGGAGGTGGAGGTTGTGGTGAGCCAAGATCGTGCCATTGCACTCCAGCCTGGGCAACAGAGTGAAACTCCATCTCAAAAAAAAAAAAAAAAAATCTGAGTCTAGGCCAGGTGCCATAGCTCATGCCTATAATCCAAGCACTTTGGGAAGCCAAGGTGG
-0.6933470978123174 CTCCTTCATCTGAGCTGGCTTCTGTCAGAAGGACGCCCTTCTTAAGGCAGCATGTCCCCAGGAGCCACACTGCAGGTACCTTCCCTCCTCCTGCACTGCCCTTCTGTGTGGGTTCCTGGACCAGCACGTCAGCGGCCTTTGTGGATCTGGAGGTGAAGTGGCCACACGAATGTTCTATCCCCACCTGAGAGCCTGGGGGT
-0.6843089605495787 GCTAACCATTACACATTCACAAAGTGGGTGGGTGTGTAGGGTCCAGGTCTGTGGAAGAAATGAAGGGATTCCAGATGGTGGGGCTAGTGTGGGCAATAGTGCTGGGGCAGGGAATAGCAGGGGTGGCACTCCGCACTGCCACCTGGTAGCAGGAAGCCTTCCAGGGAGGAGGCAGGAGGAGAGTGGAGTGTCTGGGTTGG
-0.4750060757673777 CTAAATCACATGACAAGAGGGGCCCTAAAAAATGTTGCCTGGGCTGGGCGTGGTGACTCACACCTGTAATCCCAGCACTGGGAGGGCGAAGTGGGCGGATCACTTGAGGTCAGGAGTTCCAGACCAGCCTGGCCAACATGGTGAACCCCTGTCTCTACTAAAAATACAAAAATTCAAAAAGTAGCTGGGCGTGGTGGTGC
-0.7359735827325379 CACAGACCGTAAACTGGAGCATAAATCCGGCTGGGGGACCGAGCTGCCGCTTGCGGTTCTCCAGGATGGCTCGAGCGGTTTTTGTTTACCAAAGAAAGCGAGCGTTTGGTCGGTTGCAAAACGCGCTCTAGAATGCTGGTCGCTGATTCGTTGGCGAATGGCCATCCAAGGCCCGGCCTGGATCTGGCGGGAAGGGTCTC
-0.563753957069606 GTAACAGAGTTCCTTTTTCTTTGAGCTTTCAGAGTTAATGTTATGGCTTCATTGAGGCCTTCCTGTATCTTTCCCTCTATCCAGTGGCAATGCTGGTCCCTGCTCCTCAGAATACCGCAGTGGCCTGAGTGTGTGATCGTTCCTCCAGCAGCCACGCCTCGCATGCCTCCCGAGCAAGCACTCCTCTGGGGGATATGGCA
-0.5693699845459375 AGGGAACAGTGCCACGTGGGCTCCCCAGGCTTCTGAGCACTCAGACCTCACTTAGGGTTGTCACCAATGGAGCTTCCAGCCTTGAGTCTCAGGCTAACCCCTTGGAGTCCAAGTCCTTAAAGGAAGTGGGGGCAAAACTGCCCTTCATATTCACTTTGTTCTACTTCATAGAGAGGACTCCAAGTGTGGCAGACTCAGAA
-0.9897801096334106 GACTCTCACCATGCACTGGTGCTGGGCTGGGCCTTCTATGTGGGTCTCATGAGCAGACGTAGGAAGCATGACGCCTGCTGGCCGACACCAAGTCTGGACACCAAGACTCAAGGAGTAGTCACCAACCCCAGGTCCCTCGGCCTGACACAGGCTGCTGGTTCTGAGCCCCACATGCCCCAGCCAGGTGAGGAGAGCCCATG
-1.061569229060173 CCGGCACCCAGGGGAGGGAGGCTGAGCCTGCGGGGGCCAAGGGAGAAGAAGGGCTAAGGCCCCAAGGGCTTTGTGAGGGCACTGGGTGAGAAAACTGTCTGCCAGTCACCCTCACACACAAGGTCAGGGCGGCATGGAGCAGCCTCCTGATTAGAACAGACCTGTCCCCACCCAGCAAAATAGGAGGGGCCTTAGAGAAA
-1.208509347926248 CGCAGGGGGTTGGATGGGGAGCACACATGAGCTGGAGGGAGGAGGAGGGGGCTGGGCGAGGTAGGCAGGAGTCAGATAACGAAGAGCCAATGGGCTGTCAGGGGAGCGTCTGCCTGCACTGTGATGTGACTGTGAGTCACCGCAGGACCGGAACACGGACAGGACATGTGCGGCTCTGGGCTGTAAAAAAGACACCACTG
-0.7402562320462371 GCTGCAGGGGGAGCTGGGGGCAGCAGGGAGGACAGAGACACCTGCAGATGCTCCCGGATGGAGCTGGCCTTGCCTGGGTGCTGGTGCAAGGTATGCGGCAGCAACACCATCTTTAGGATGTCACTGTGTAACAACAGGGTAACACCCAGATGGCCCAGCTGGCTCTGTGGCCGAGGCAGGATAGCTAGAGAAGGTAACCA
-0.3781824714956264 CAGAGATTTATTGCTCAGAGTTCTGGGAGGCTGGGAAGCCTGGAAGCAAGGCACCAGCAGATTTAATGTCTGGTAAGGGCCTGCTTCTTGGTTCAAAATGTCCATCTTCTCCTCATATGGTTACAGGAAAGAGTATTTCTCTGGGGTCTCTTTTATAAGGGCATTACTCCTATGTGTGAGGGCTCTACCTTTATGACCTA
-0.6701012112844098 CTGCCCTCCCCCACCTCTGCCCAATGTCCCCCACTTCCCTCACACCCACGGTTCATACCACCATCCCTCCTGTGAGGCCTCCACCTGGCTCCCGCTACCTGTAAGGGAATGACACCACATTCTAAGAGCTCCACCTTCTTACGGCCCCTGTGCCCCCGGCCTTCAGTCCCCCTACACACAGAGGGGACTTACAAGGCATG
-0.9227257185374192 AGCTCTGAGCTCTGGCCAACAACTGCAGCCAGGCTGGGCAGAGCACTCCGGCTCACCTGGGCTCCTGGCGTGTCATTTGCTGGCTTGAATAAAGATGTCCGCCTTATCCAGTGCCTGAGTGTGCGAGAGAGGCAGATGCCTCCACAAGTGCACCTCTGACCAGTTCTTCTCTCAGACAGAGAGCCTGGGGAACACACTCC
-0.5118135055124945 TACTTAAACACTTAGCAAGGCCCCACATCTGTTTACTCTAAGCAAAGCAGGCAGACAGGGGATCTGCCATAGGCCTGAGCGGCTTGGGTACCCGGTAAGCTGCACCCCACCCTGAGGGGCCTTTGCCTGTGTCCACAGGTGGGGTCTTCCACACTGTGGGGGATTTTTATCTTTCCAAAACAAACTGAACAGTTGTCATG
-0.5126897061650634 CCTTCCTACTCACCTCTTCAGAGTCATCTCTCACCATCCTCTGCCTGGCCTTCTCTTTCCTCACTCTTCACCCTTCTGTTTCTGTCTCCAACTTAACATCCCCTCTCCCTCGCCCACAGGCCTCTGCTACTGTCCAGGACACCTCTTTGTCCCTACTTTCTCACATTTATCTACCTCATACTTTCGGCTTCAACTTAAAA
-0.3967952022970457 AGCGAGGGAGGCGTGCCCTGCCTTCCCCAGTAAGATCCCACTCCTTTCTTGTCCCATCCTGCACGCCTGACCTGATGCCAGGTGTCCGACCTGATGCCAGGTGTCCAGCCTGATGCCAGGTGTCCAACCTGATGCCAGGTGTCCGGCCTGATGCCAGGTGTCCAACCTGATGCCAGGTGTCCGACCTGATGCCAGGTGTG
-0.8131944083912236 TGTCTTGATTTCAGCTGACCTTTCTCTCCAAACCCTTCCTACTCTGCCTCCTTCTGCTTAAAACACACACAAACACCCCGAGTTCTGAGTCAGGGAGTTAATCCACTTGGGTTGCCGACAGTCCCACCCAGCCGTGCTCTGGGGGCTGTCCCTTCCTGGACTTAGGACAGTGTGGGGCGCAAGCCACCTCCCCTGGAGGC
-1.046964146187461 TCAAAATTTCTCCTGCCTCAGGCTCTGGGTCACTCCTTCTGGGCCAGAGGTCTGGGGAGCAGAGCATGGGAGTGAAGAGGAACCTGTGAGCCGGAAGGAGGAAGGCAACCCAGGAGGCCTGGTCTGTACTGCCAGGGCCTGGTAACCAGCAGAGTGTGGGAGAGATGTGTGCTCTACATCACCGGTGGTGTCATGGAAAC
-0.5784714166380596 CTTACACAATGGGTACATGAACTGTGTGGCCATTGTGGAAGAGATGCATGGGCCCAATAGCATAAGTGTCCACTCATGAAGGTTGACCTAGCCACTGCCACTGCCGGATGTCCCACCTGCCAGCAACAGACACCCACACTGAGCCTCCAGTACAGCAGCAGCCCTCAAGCAGACCAAACTGCCACTTGGTAGAAAATGGC
-0.4400200608364563 CCCATCTGTTTGGGGTCAGCCCTGGAGCAGAGGAAAGTCTTTTAAACTGGAGAAGCTGGGCCACACATTCCTGGGGAGAAGAGTGACCCTTGGAGGCCAAGTTTCTCTTCATCTCATGGAAAAGGTGGGGGCATTGGGCGAGGTGGGGCTGGGAAGAAAACTCAAGTCAGCTGCCAACAGGCCAAGCCCCCCCACCTGGG
-0.4556578933505778 GCTGCATCACTTGTGTAATTACACACAGAGAGATCCAGGTGAAACCTGGTTAACAGCCATCAAGGACAAGCCTGTGAGATGCAGGAAGGACCAGTCAGGCCTAATTTACTCTCAAAGATCATAAGCAGTGGTTCCTATAAAAAGCTCAGGTCTCATGCTTCCATCCTCCCACCTCCCACCCCCAGGCCTCTGCCAAGCCC
-0.6652600139998605 TGGGTTCTGTCATAACTCAGGTGTCCTGGGAGCGTGGGCACCTCCCACCTGCATCCCCAGGCTACCAGGTCTATCCTGAGCCAGGCCCCTACTTGTCACTCAGTTTCCCTACAGAGTGACCCCCTAGATCCACTCCCCAAGGCGGGGACCCAGCAGGGGTGCAGACTCAGGAGCGCAGCCTGATGCTCCCTCAGGGCACA
-0.848207991269634 AAGGATCACAAACTACAGCCTGCAGGCCAAATCCAGCCCACAGCCTGTGTTTGTAAATAAAGTTTTATTGGAACAAAGCCACACCCCTTAATCTACAGATGATCTGTGGCTACTTTCACACCCCAACAGAGTACCATGGTTCTGACAGAGACTGGGGAACCCAGTCTAAACGACTTCCGACCTGGACCTTTACTGAAAAT
-0.5087986050348637 GAATGTTTCTTTCTTCAGTGAGGACCACAGACCAATGGTAAAGGTGGCCTTCAGGCATTACACCAAAGAACGGGACAGTCAACTCTGGCAGCTACATTCCCCGACACCTCACTGTGCCTGAACAGGGGCAGGGAGAAAATGTAGCTCTGTGAGTTCACATCCGTTTTGTGTCCATGAATGGATCCAACCAAACTGGTCCA
-1.061250494537039 GGCGGGCGCCTGTAGTCCCAGCTACTCGGGAGGCTGAGGCAGGAGAATGGCGTGAACCCGGGAGGCGGAGCTTGCAGTGAGCCGAGATCCCGCCACTGCACTCCAGCCTGGGCGACAGAGCGAGACTCCGTCTCAAAAAAAAAAAAAAAAAAAAAAAAAATGGATTCCCTTTTCAAGTTAATCATCTTTATCTGAAAATG
-0.007012846399258581 TTACACTTATAATAATTTAATGTCTGTATCCCTGCTAGACTGTAAATTTCTTTTTTTTTTTTTTTGAGATGAAGTTGTCTCGCTCTGTCACCCAGGCTGGAGTGCAGTGGCACGATCTCGGCTCACTGCAAGCTCCACCTCCCGGGTTCACACCATTCTCCTTCCTCAGCCTCCCGAGTAGCTGGGACTACAGGTGCCCG
-1.071150747717886 AGGACAGCCGGCCTTCCAGAGTTTGGAATGAACGAGGTTCCCCCGGAGGAGGGCCAAGGACGCGGCCGCGGGCTGCCGGGACCGGGACCTCCCGGAGGAAGCCCGCGCCGCGCCGCCTCCGCCCGGGCCTCCAAGAGCGCGTCAGAGCCGCAGTGACGTCGCCGGGCCTGCACGTGCGGGGAGCCTGGAGGGGGCCGGGA
-0.591374267831456 TACCAGGGCACCCAGGAGCCGCAGAGGATCACAGGAAGGGGTTTCCAAAGCTGAAGACATATCCAGGGCTCCGGGAGCTCCCAGGAAAGGGTGATTTAGCCCCAAGGGGTTTTCCAGGCCACAGAGCAGCACAGAAAGCCCACTCTCCAGGGCCTCAATAAGAAAGGCCATTATCTGTTCCTGGTACTACTGAAGGAGGC
-0.5576639921741374 ATTTCTCACACGGATATAATTTGCTCAGGGTGTCATGTTGAGTGGTTGAGTTGAGGTTTCTTCTCCACTCAGTATTTCTCATCTGTATTTAAAGGGAAGAGGAAGAAATGGAGACAGAAGGGCCGGTCAGGAAGGTAGGAGTAGAACTAGGTGGGTACAGTTTCATGGAAGCAAAGGGAGGAGTGTTTCAAGGAAGGCCA
-0.8462627969096171 ACTTCACCTCTCAGAAAGCCGCAAAAATTGTCCAGTGTCTCCCTCATTCCCAAGACCCCCACTGGCCCCTCACCCAGTGGCCTCTCAGGGCACTCCCCCGTCCTCAGAAGTCCTATCCCAGCGGAGATGGAATCCACATAGCTGGCCCTTTCCTCCACACGACCCTGCCAGCGCAACCCTTCCCCGTATGATTACGATTT
-0.6121376927818102 CAGGCATGGTGGCCTGTGCCTGTGCAGTCCCAGCTCCTTGCTCCTTGTGTGGCTGAACTGGGATGATTGCTTGAGCCTGGGAGGCAGAGGTTGCAGTGAGCTGAGATCACACCATTGCACTCTAGCCTGGGTGAAAGAGTGAGACCCTGTCTCAAAAAAAAAAAAATCTTAATGATCTGAAAACAGAATTCCATTCTGCA
-0.5627248050082836 ACACTTAGTATGTATCTCTGAAAATTCCGATTGACTTTTTAATTGAAGGCTTAAGAAACAATATAGCACAGTGGTGAGCGTGTAAGCTCTGGAGCCAGCCGGTTTGGGCTTGAATCCATGACTTGGCAGCCAAATCACTTTGGGCAAGTTACTTACTCTTTTGATATCTTAGTTTCCTCATCAGTAAAATGGGTATGATG
-0.5061438291045419 ATAACTATCCTAAATACATATGCACCCAATACAAGAGTACCCAGATTCATAAAGCAAGTTCTTAGAGACCTGCAGAGACTTAGACTCCCACACAGTAATAGTGGGAGACTTTAACACCCCACTGTCAATATTAGACAGATCAATGAGACAGAAAATTAACAAGCATATTCAGGGCTTGAACTCAGCTCTGGACCAAGCGG
-0.6034484355844473 CGTGCAACCAATGCTATCCCCCTCCCTGGGGAAGGCCAGATGGTGGGGAGATTTCAGACATGTCTGGTTGCAGTCAGCCCACCCAGATCTCATTAACTCCCTGCAGAATGGGCTCACCCAGGCTCCACAGACACCTAAGAAAACGAGCAGGCTTTTGGGGTCCATGACTCCACTGCAAAATCTGAAAACTGGCCTTTGTA
-0.411068929206389 GGTGTAAGAACAATCTGAATGGAGAGCATGAGATTCCTATTCCTCTGCAATATTGCAGGTAGTTGCATGCACAGACATTTTTCACTACCTAAATCTGTCTTCTTCCTGTGTTTAGACAATGATAGCATAGATAGCAAGAGTTGGAGAGCAAGAGATAGGACATTCTCTGAACAGCACATAAGAGAGTGTAGACCAAGGGA
-0.7216700036904429 AGAGGGGGCCAAAGATGAAAGCTAGCTCTCCCTAGGGAGGGCCTGGCCAGGCAGGGTCCTGTCCATGGCAGCACAACTACAACAGGATTCTCCCACTGAGGAGAGCAGCTGTTGGGTTTGTGGGGAAGGCTCCAGACACAACATAGCTGTGGTTAGTTAGCAGAATTTGGCTTTGCCATCTGTATATGGGGAAAAGGAGA
-0.07915642410733392 GAGTTTCCCTCGTTGCCCAGGCTGGAGTGCAATGTCATGATCTCAGCTCACCACAACCTCCACCTCCCTGGTTCAAGCGATTTTCCTGCCTCAGCCTGGTATGCACCAGCACGCCTGGCTAATTTTGTATTTTTAGTAGAGAGGGGGTTTCTCCACGTTGGTCAGGCTAGTCTTGAACTCCCGACCTCAGGTGATCCACC
-0.5409996220631595 GAAGAAGGGAGCTCAGGAAGGAGAGCTGGAGGGACCACAGCAGGGAGCTGGCCCAGAGGCAGGTGACATCGCCCAGGAGGCTGGACCTCGGGGATTGTGGTTCTGTCAAGAAAGGATGGTTGCTGGTGGGGGCTGGGGGGCTGTGGGGGCTGGGGGTGCTGGAGCAGGGAGGTGTGACCCACCCCAGGGAATGGGAGGAG
-0.5099743872977984 AGTGTTAGCTCACTGCAGCCTCAAACTCCTGGTCTCAAGAGATCTTCCTGCCTCACCCTCCCCAGTAGCTGGAACCACAGGCATTGTCACCACACCCAGCTAATTTTTTATTTTTTGTAGAGATGGGGTCTAACTATGTTGCCTTGGCTGGTCTCTAACTTCTGGCCCCAAGTGATCTGTCTTGGTGTCCTAAAGTGTTG
-0.2956614067415165 GGGCAGGTGGGGCTGGGGGTGCAGGGGGCGGTGGGGGTGGGGGAGGGGAAGGGGAGGAAGATGAGGGAGAAGGGGAAGGGGAGGAGGATGCAGAGGAGGGGGCAGGGGGTGGGGCAGGGCCCCCGTCTCCCGTGCCCAAGGTGAGGTGACGGGCACAGGTGGGCCTAGAGGAGTTCGACTGTGGAGAAACTGCAAAGGAA
-0.1929702934776531 TCTAGCTATGTTGTCCAGGCAGGTCTCTCACTCCTGGGCTCAAGCAATCCTCCTGCCTCAACCTCCCAAACTGTTGGGATTACAGGCATGAGCCACTGTGCCCACCTGACTCTGTGCTCTTAACCACTGCCTTATGCTGTCCTTTTAGTAGGAAGTTTACATTTTTAAAAATTATCTTGAGACATGAATCTACCCAGGTT
-0.4898453936884962 TTAAGGCAGATGTGAAGGGCCATGGGGTGAGTGGGGACAGGGCCTGGAAGTGTGCTGGGGATGGGGTATCAGCAGTGGTAGGGCTCTGGCCTCATGAGGGTCCAGGAGTGGTGGCCCCTGAACCTGATCCACCCAAGCCTCCAGCCCCTTGCCTCCTTCTACCCCCACCCTAGGCCACCAACGACCTGACCTTCACAGAG
-1.00271736443981 TGCTGTGCTTGTCGCTGTGAGCGTCACCTTGCCCTCTGTCCTCCTCCTCCATAGCAGCCCTCAGCTAATGTGTGACCTACATGACCTTGTGTGCTGCCGTCGCCCCTACCCCCAGCCAGAGTGCGGGTGAGGAGGGCCCGTCCTGGCCTCGTTCCCCACTGGGAACAGAGCAGTGCCCAGTGCACAGTGGGTGTTCAGTA
-0.7335210783074352 CTTCATGGGAGTTGAACAGTTGAACTGATGCCCTTAAACCCAGTGTTTCCCTCTGGGAAGACGCCCGGGGGCCTCGTGGTTGTAGGTGCTGGAAGGATAGCTCCAGCTCCAGGCACCTGCCACATAAAGGTAGTTGTGAAATTTCGGACATGCTCTTGGCACAGGGCAGAGGTTGGGGATCTCTTGCCTGTGCGGAGAGG
-0.6655103706803015 GTTGCACAGAGACCATCAGTATGATATCCCAAGTGTGAAGAGCAGCTCCAAACCCACAAATGGTCTCCCGCACAAGCCCTTGTCTTTGCAGCCCAAGTGAATGATGCCTCCCTAGTTTCGAGCTCTGCCACAATCAGCAGGGCACCCCAATGCAAGGATGCTCTTGGAGGTGTGGCCTGGGAGAGGCAACCTGCTGATCC
-0.6350973948709119 ACAAATGTACAATCGGGTTTTATACCGAGACATTCAGTTCCCAGGGACAGGCAGGAGACAGTGGCCTTCCTCTATCTCAACTGCAAGAGGCTTTCCTCTTTTACTAATCCAACTCAGCACAGACCCTACACGGGTGTCAGGCTGGGGGACGGTCAAGTCTTTCTCATCCCATGAGGCCATATTTCAGACTATCACATGGG
-0.4601581114696117 TGGACAGGGAGGGGGTGAGCCATGAAAGCTGAAGAGAAGAAAGCAGGTGAAAGGGGACGGCAGGGTGGAAACAAGAGACGGAAATGGGGGCAGAGAATGGGGGGTAAGAGGGGAAGAGCAAGGAGTGGGATGCAGATCTAGCTACTAAGGAAAAGTCCTGGAGAGAACACTGTCCTCTCCTGAAGTAAAATCACTTCCAC
-0.5925490853281898 CGTGCACGTGAGTGTGTGTGCATAGGCTTCAACCACAATGACTTTCTCTCCGTGCCTTGGATATTCCAGACTACATTGCTCTCTGAGCCTTTACGTGGTTGCTTCTGCCTCGACTCTTCTCCAGGTCATTTCTATGGCTGCCTCCGTCTTGTTCATTAGTTCCAATGTCACTATTTCAGCAGATATGTTCCCGATCGTTC
-0.1870976485673937 AGAATCCTATTAAAATTGAGCAATCCCCTTTTTTTTTTGAGACAGAGTCTTGCTCTGTCGCCCAGGCTGGAGTGCAGTGGCGCGATCTCGGCTCACTGCAAGCTCCGCCTCCCGGGTTCACACCATTCTGCCTCAGCCTCCCAAGTAGCTGGGACTATAGGCACCCGCCACCACGCCCGGCTAATTTTTTTTTTGTATTT
-0.50391999330299 GCCGAAGCTAATGGGAACAGTACACGAGACCAAATGCCAAAAAAGCAAGGAATAATGAGAGTGTTTGCGAAGACTGCAGAAAGCAGCGACTCTTCTCCCAAACACTGGGGAATGGGGCCAAGGTTCTAGCCGCCCAGAGGTCTCACTGGGGCTCCTGCGTCCGTGGGTCTGGAGAGAGGGACAGGGGCTTTCGGCAAGGA
-1.348056372974642 GCCTCGGGAGCGCGGAGGGAGCGCGGAGGGAGCGCGGAGGGAGCGCGGAGGGAGCGCGGAGGGAGCGCGGAGGGAGCGCGGAGGGAGCGCGGAGGGAGCGCGGAGGGAGCGCGGCGGGAGGGGAGGGTTTCGGCGGAGCTGGGCGCCTGACCCAGCGGCGCGGGGAGGCTGAGTGCCGAGCGGAGCTGGAGAAGAGGGGC
-0.6212968141511113 GAGCATGCTCCTGGAATAGACTGAGAAACTAGGGCAGGCTAAGTGAGGTGCCAGGAATAAAGACACCGCCTGACTGACACATTCTCCACTCTCCCTACACCCGCTCCTCTCACCAGCGCTTCCATCAGGCTCCAATTCCTCCCTCTTCCCAAGAGCCTCAGATTGAAACCTTGCAAGGAAGACACCCATTCTCAAAGTCA
-0.5093869007741595 TCCCCCCCTACCCCTCTTTCCCCTCCCCACCACCCCTTCCCCCGCCCCCCTCCACCCCTTTCCCCGCCCCACCACCCCTTCCCCCACTGCAGCCTCGGGAGGAGCCAGTCCTGCTGACACCTGGATCTGGAACTTCTGGCCTCCAGGATGTGAGACAATGAATTCCTGTTGTTGAACCTGCCCAGTCGGTGGCACTTTGT
-0.331968542423129 GAACAGAGATTTTTCTCTGTTTTGTTAGCTCTGTAGCATTTAGAAAAGTGCCTGAAATAGTAGGCATTGGATGGACGGACAGATGGACAGACGGATGGAATAAATGGGGGGGGGGGTGGGAAGGAAGGAGGGAAAGAAGGGAGGGAGGAGGGGAGGGAGGGATGGATGAAAGGAAGGAAGAAAGGTTAGTTTCTGCCAAA
-0.3371516935332079 TTAGCTAGATACAGAGTGTCCACATAAAGGTTCTCCAAGTCCCCACCAGAGTAGCTAGATACAGAGTGTCAATTGGTGCATTCACAAACCCTGAGCTAGACACAGGGTGCTGATTGGTGTGTTTACAAACCTTGAGCTAGATATAGAGCGCCGATTGGTATATTTACAATCCCTTAGCTAGACATAGAGGTTCTCCAAGT
-0.9530246764786408 ATAAAGTGAGCATCAAGAATGAAGCTGTCAGCTCCCTCTCCCTCACCTCTGCTGGGCCACTCCTCCTTCCACCCCACTCTGCCCCCAACAGCTATGCCTATAAAACCACACCCCTCCTCAGGCCTGGCTCAGATACCACCCCCTCCATCTAGTCCTCCTGTATTGTCCCAGCTGGATGGGGCTCTGCTCCACTCTGGGCT
-0.5889133978451275 CCAGTGTGGGGACGGTGGATCCTGTGGTGGACATCCCCGGGGATGTGACTGCCTGATGGTGGCAGCAACAGCAGCAACATCTGAGACCACGGAGTGGGGGTCTTTGGCAGAGACCCCAGGGCAGCTGAGGCAGCTGGGCTTCCTCCCAGCTCCATCAGCCTTTGGGTCCATGAGAATCCCTTATCCTTTACAGCCCTGCC
-0.802021921397609 AGAGATGGGGGCAGAGCTTACAGTGTGGGAAGAGGGATGAGGGGCGGAGCTTATGGTGTGGGAAGAGGGATGAGGGGTGGAGCTTATGGTTTGGGAAGGGGTGGGGGTGGAGCTTATGGTGTGGGAAGAGGGATGAGGGGTGGAACTTATGGTGTGGGAAGAGGGATGAGGAGTGGGACTTACAGTGTGGGAAGAGGGGA
-0.830102971015055 GAGCAGCGGGTTGAGGGGGCGGGTGCTTTATTGGGGGCTGGGACTGGGTCCAGGACAGGGACTGGGGCCGGGACCGGGACCGGGACTGGGGCCGGGACCGGGACCGGGACTGGGGCCGGGACCGGGACCGGGACAGGGACCAGGACTGAATTTCAGGCTGGACTTCGGGGCTCGGCGTGCCCGCAGCAGCAGTGCTGCTT
-0.8116557613397398 GCATCAAACCTGAACCCGGCCTCCCCGGCCCTCCGTGTGGCACTAGGATGGGAAGCAGCCCCGCTGTGGGAGCAGGGATGTGAGATACTGGGAAGGGGAGAAGCCCCACCTGCGTGCCGGGCAAGGCTGCGGCTGCGTGACTGAAACGATGGCCCGGCTTCTGGAAGGGCTCCTGTAATGCTGGCCAAAGCTTGCATTTA
-0.7008591205456841 GAAAGTTTCGCAGCCCAAGGACGCGTGGCTGGAAGTGGCAGAACCCGGGCTTCCGAGGTTGGGCGAGTGGGGTCCTCCAAGGCCCTCAGCACGGGTCGGAGGGATTGGGACTGAACCCGCCATCCCCCTGGACCTTGGTGCCCTCCAAGCCCCGCGCTCGCGCCCTGTCCGTCGCCTCCCCCAGAGATGCTCTGCAGGGA
-0.4944678942464197 AGTCTCATTCCTCACTGCTTGCTGTTGAGACCCCAGGCATCTAGAAGAACGGAGGGCGTCTCCCCAACCTTATCCCAAGCTAGTCTCCACCGGGGACCTAGCTTCTCTGGATGCACAAGCCTCAGGGTTACCCCGACTTGTACCAGGCGCCCAGGCTGCACACGAGGATGGGGACCTCAGGCTGGGACGCCTGGACCCCC
-0.3890373171260321 TGACGGCAGGTGGGCAGGTGGATGGAGGATGGTGGATGGGTGGGGGTGTGGGTAGATGGTGCATGAGTGGGTAGATGGACGAGTAGATGCCAGGTAGGTGTGTGTGTGGGTGTGTAGTAGAGGGTAGATGGGGGTGTGTATGGGTGGGTAGATGGTGGATGGGGGTGTGGTTGGGTGGGTGGATGATGGATGGGGAGTGT
-0.5568854147383976 AGTAAGCTGGATGGTGAGGGGAAGGGAAGGGTAAGTAAGCTGGACGGGGAGGGGAAGGGAAGGGTATGTAAGCTGGATGGGGAGGGGAAAGGAAGGGTATATAAGCTGGACGGGGAGGGGAAGGGAATGATAAGTAAGCTGGACGGCGAGGGGAAGGGAAGGGTATGTAAGCTGGACGGGGAGGGGAGGGGAGGGGAAGG
-0.9593872458580108 TGAAGATCCCACCCTTTTGCGATGAGTTCCACAGCCCACTCACTCCCAGGGGTCAGTCCTCACAGAGAAGGGTTGCTTGCTGCTGTCCCTCCCATGCAGGATCACCACTGAAAGTGTTCTGTCCTGCCTGGTCGGACCCTTCCCCGTCTTTGATGGCTGATTCCTGGAGTGCAGCCAGCTCTGTAGGCAGTCACTTTATG
-0.5356163049348693 TTTCTGCTAACAAGATAGAGTCCCTCAAGAACTCACCCCACCCCCTCAATCTCACCCTCAGCCCACTCCGAAAACCCTTTCTCAATAGCACTTAGGATCGCCCTAGACCTTGCTCCTATCATCTCAGACCCTGTCCTTGCCAGATGCCTAGCGCCCCCAGATTTCCTCAAATCTCATCGGGGCCCCCCAGTTCCTTCATA
-0.8877554996238156 CCTGTGGGACGCGCCTTGGCCCCCACACTCACCACACCCTCTTCCTCTGTGCTCTGGCCACCCTGGCCTCCTTCCACCTCCTGTGAGGACCAGGCACCCTTCCAGCCTCGGGTCCTTTGCACATGCTGTTTCTGGAATGCAACCCATGCCCTGATTCACTCCTACCCACCCTGTTGCTCTTAACAAAAATGTCACTTCCC
-0.6385846846300229 GGGAAGGGGGGCCAGGGCTGAGAAGGGGTGGAGAGAGGTGGGTTGACTAGGACACATGGCAGAGCCGGTGCGCTGGCTGTATGGAGTGAGGACTAATGGGGAATCAAGGACGTCCAGCTGTGGATGGCAGAAGGGCCACTGTCTGAAGTGGGAAGTCTGGACATTCCCAAAGGAGTCTTTGAAAGACTGGGTCTTCTCCT
-0.6692361546072956 ATCTTTTTGCAACGTCTTCTCTGGCTAAGCTATCCTTTTTTCCCTTTGGCCCTAACTACCCTCTTTACTCCCCTCTATCTATCCCAAAAGTGTTTTCCTTCTCCTGCCCGCTCCAGCCGCGCTGCTCTCTCCGTCACTGCCAACAACCGCAGTGAGGCGAGCCGCGCTCCCGCGGCTCCAGCCACCAGTATACGGCCACC
-0.8533625371875503 AGCTGTGAGAAGAGGGCCTCTGTCCTCCAACCTCAGAATGGTAGAACCACTTACAGCTTTCACAGTGTGTCTGGAAAAGCCACAGACACTCAACATCAGCTTGTGAAAGCAGCAGGGAGGGAGGCTGTACCCTGCAGAGCCAAAGGGATGGAGTTGCCCAAGACCAAGGGAACCCACCTCTCGCATATCAGTGTCACCTG
-0.9054914830562266 GATAATGTGAGTTTTGATGAAGATGCTAATGACCTTTGGTCAGTCCTCTAACAGGAGCCTAGTTCCACTGGCCTCAAAGGTGGGACTCTCTGTGGTCAGACTGGGAGCTGGGCCAGGAGTGAGAAGCTCACCTACTCACCCAGTGCCCATACAGGTAGCTTCACATGAGTAAAGCGCTCTCAAGGCAACCGGGAGAGGTG
-0.3363450776617509 GTATTGTTACCTTGAAACCAAATGGTTGGAGGTGATAAAACTCTCCAAAAATATCCAAGGACTCTCCTTTTTTCTGGCAAAAAAAAAAGTACAAAACATAAAAAATCAAATTATGTGTCCCTTGTGTTAACAGGAGAAATTCCAAATGTTCCCTGCTGGTTCTTGAAAAGTGCAGTTTCATAGCCTTGCCCTGTGCCAAG
-0.8286055107120415 CCCATCTCTACCCCTGGTCTCTCTGCCCCCTCCCGACCTGAACAGTTCATACCCTTCATGCAGCCAGAAGGTTCTTTCTAAAAGACATGGACAGGTCTTCCTGTCTCAGCTTCCTAAACCCTCCCGGGCTCCAGGGCCTGGCTCAATCTCTGGTCCTATTTGTGAGACCACCCCACCTCTTGCCCCCTCCCAGCCCTGCA
-1.430064088422099 CCTCTCCTTTCTTCTTCCCGTCCTCCCTCTCTCCTCCTCCCCTCGCCTCCAGTCCTCCCCCCGCCTGCAGTCCTCCCCCCACCTAGCCCCCTGCGTCCCCTCCCCCGCCTCACCCTCGCCCCGCTCCGCTCGCAGCCCCGCCCGCAGCCAATCAGAGCGCGGCCTCCGGTGGCCCCGCCCTTCTCCGGCGATTCCGGGCG
-0.8258640837356339 CTACACATGCACAGAGCTGGAAGGTCTGTCCCCACTGCCACTCCAGAGTGCGAGAAAGGGAGAGGCAGTGGGATGCGGACTCTCTGCTTTGCATGTTGGCTGAGCTAAGAGAGCCCATCTCCATCCCAGCCTTTGTCAGGGAGAGAAGGGGCTTCCCAGGGGCAGACGTTATCTATTCTCCACCAGGATACCCAGGGTCA
-0.5504042695797139 AGAACTGCATTTTGCTGCCCAGCCGGATTGGTGTCCAGCGCCTCCTGCCCGTAGGTCCTAGCTCGGCTCATTTCCTCACAGAGTGGAGTCAGAAAGCATTAATCAGAACAGGGAAGATAATACAAAAATTAACCGGGTGTGGTGGCGCACACCTGTAATCCCAGCTACTCGGGAGGCTGAGGCAGGAGAATTGCTTGAAC
-0.619549176739437 GATTTTTAGTAAAGTCCCTTCTTCATTTCCCCTGAACTGCAACCTCCTTGAGAACGAGGGGCTGGTTCTTATTCATTAATTCTCCCTCCCCAGTGCCATGCCCAATGGACAGTTGCTAGTACAATCACCCCACTGTACAGATAAGGAAATCGAGGCTCAGAGAGGCATAGTGACTCTCCCAAGGTCACACCATGAATGCA
-0.5154004697536471 ACATTGCCCAGGCTGGTCTTGAACTCCTGGGCTAAAGGGATCCTCCCACCTCAGCCTCCTAAAGTGCTGGGACTACAGGCATGAGCCACCGCACCCGGCCACTCTTTGAACTTTGGGCTATGGATCAGGGTGAAGGGCTGAGACCTGGGGAACAAGGGAGGCTCCTGGAGGGAACATGAGTGATACAGAGTCCTGAGGGG
-1.142406252879118 TCAGGCAGGCCTGGGACCACCGGGGCTCTAACTCCTGACCTCCGGTCCTCACCCTGGGCTCCCACTCGGTTGCAGGCTGGCCAACAGTGACTCAGCCAGAGCCACAGCAAAGCCTGGGGAGGAACACGAGCTGTGGCACCTCCGTGCCGAACCTTCTGCGGGCAGAGTCACATCAACCCTGTGAGGCAGGTCAATCTCAT
-0.9584342487210223 CCTTGGGCCAGGGTGGGGACAGATGCGTAGCCCCATCTGCAGAGGTGTTAAAGGGGAACCTGGGGCCAGCTGCCAGGGATGGAGCTCAGGAATCCAACCCTGCCTCCTGCTGGGGCGCCCCACCCCACCTGTCTGTGGGAGGCCAGCCCAGGGCTTTCCCACCTTGGAGAGGCAGAAAGACACAGAGTCACAGTGCTCCA
